0.0000000000,-0.0079762815,-0.0185035281,0.0135780703,0.0601329952,-0.0264336895,-0.0954595879
0.0096811056,-0.0070732115,-0.0195155554,0.0121615063,0.0696577877,-0.0189850945,-0.1050144807
0.0197560787,-0.0032051380,-0.0136129679,0.0040952098,0.0910317898,-0.0219886079,-0.1060832068
0.0298360586,-0.0061867116,-0.0018082081,0.0135795008,0.0846916810,-0.0284243356,-0.1082084775
0.0400971174,-0.0101479469,0.0079227267,0.0044224989,0.0589071959,-0.0105781611,-0.1028822213
0.0501090288,-0.0112767098,0.0262378044,-0.0098897088,0.0183312744,-0.0076593361,-0.0890670717
0.0603100061,-0.0116478084,0.0336736627,-0.0090240110,-0.0373585112,0.0120778829,-0.0794874132
0.0739110708,-0.0111341951,0.0233984776,-0.0006722079,-0.0640830696,0.0160403997,-0.0869112387
0.0804131031,-0.0096183298,0.0129901944,0.0026807918,-0.0705504417,0.0223365128,-0.0890299156
0.0904101133,-0.0110023199,0.0044895592,0.0020742549,-0.0737438500,0.0212129243,-0.0943386629
0.1005500555,-0.0172574688,-0.0060123620,-0.0131732691,-0.0674721599,0.0339735933,-0.0985814780
0.1105700731,-0.0186323989,-0.0096636834,-0.0244674552,-0.0483410694,0.0415337756,-0.1038915589
0.1206510067,-0.0171074737,0.0013957204,-0.0298144687,-0.0312226955,0.0374809764,-0.0975276604
0.1308480501,-0.0126698790,0.0126176653,-0.0271948446,-0.0235983338,0.0227614213,-0.0869189650
0.1408520937,-0.0073033450,0.0199691840,-0.0206717122,-0.0353171453,0.0216942914,-0.0720508024
0.1508190632,-0.0039547263,0.0126654087,-0.0220273603,-0.0576714538,0.0162212290,-0.0678006634
0.1609210968,-0.0026916738,-0.0116622271,-0.0141127575,-0.0865458995,0.0223135427,-0.0709744170
0.1709901094,-0.0023746367,-0.0161276273,-0.0088752378,-0.1047605872,0.0295959562,-0.0688425601
0.1810261011,0.0040632607,-0.0086527886,0.0088182222,-0.1003775299,0.0179702602,-0.0677888095
0.1910620928,0.0023333554,0.0045485678,0.0114907157,-0.0683716685,0.0193455163,-0.0624872595
0.2011390924,-0.0006365653,0.0183322616,0.0141065251,-0.0150003703,0.0187704079,-0.0593147688
0.2112230062,0.0034734730,0.0223502107,0.0139950644,0.0192169882,0.0127719026,-0.0487084612
0.2212530375,0.0106688859,0.0208919831,0.0097046625,0.0373302400,0.0161830783,-0.0380938351
0.2313721180,0.0133558037,0.0153115569,0.0031233563,0.0554874055,0.0153497765,-0.0274808723
0.2415580750,0.0117403688,0.0177450366,-0.0034208165,0.0640109330,0.0176004805,-0.0189862531
0.2516011000,0.0071164789,0.0085528670,-0.0012035237,0.0507103056,-0.0362579599,0.0383273661
0.2615360022,-0.0067002056,-0.0042561111,0.0134711396,0.0411075056,-0.3341468275,0.4193657339
0.2716341019,0.1204547435,0.0039994898,0.0724494606,0.0403248034,-0.3568473458,0.5191637278
0.2816710472,0.0984013826,0.0088741956,0.0548299700,0.0552285984,-0.0581055358,0.0988363251
0.2917180061,0.0224512052,0.0041154805,0.0031470193,0.0844093859,0.0038406593,-0.0412976183
0.3017810583,-0.0059625981,0.0008468213,-0.0149133075,0.1058369726,-0.0033040694,-0.0264403746
0.3119120598,0.0144434990,0.0040058675,-0.0088013280,0.1037085727,-0.0044460329,-0.0359965973
0.3219530582,0.0086480500,0.0062209549,-0.0103542078,0.0845791399,-0.0119996890,-0.0296243168
0.3320330381,0.0067944052,-0.0012544213,0.0027338399,0.0589312986,-0.0091027021,-0.0391725488
0.3420650959,0.0003000323,-0.0023197350,0.0193330180,0.0333653502,-0.0135001801,-0.0285512637
0.3521250486,0.0015378122,0.0015775146,0.0451532155,-0.0049420903,-0.0244111512,-0.0232379902
0.3622291088,-0.0013275321,-0.0074572978,0.0531355292,-0.0411160216,-0.0353530124,-0.0253568012
0.3722810745,-0.0052810190,-0.0049322066,0.0360756069,-0.0688155591,-0.0397978276,-0.0189811941
0.3821580410,-0.0051111458,0.0034392658,0.0100112092,-0.0688139051,-0.0397415049,-0.0104877073
0.3924660683,-0.0048877774,0.0022168341,-0.0086377729,-0.0624500178,-0.0353930965,-0.0030545588
0.4024850130,-0.0035294469,0.0010392250,-0.0203411449,-0.0485654958,-0.0363048948,0.0011883230
0.4125500917,-0.0072098551,-0.0039999899,-0.0330563635,-0.0176608413,-0.0317836478,0.0022445326
0.4226090908,-0.0098836897,-0.0091318907,-0.0293971766,0.0026056003,-0.0305390172,0.0033022072
0.4327460527,-0.0129562793,-0.0126591148,-0.0303015579,0.0218037963,-0.0293033123,0.0043597482
0.4427390099,-0.0171934236,-0.0150846662,-0.0214297641,0.0388680287,-0.0281148106,0.0011714788
0.4527750015,-0.0142821250,-0.0171760730,-0.0119305719,0.0666234940,-0.0289403889,0.0001022195
0.4628950357,-0.0130205033,-0.0140284719,-0.0027046071,0.0796209201,-0.0479124151,0.0022127081
0.4729830027,-0.0125881908,-0.0085876407,0.0090131890,0.0883214623,-0.0637044311,0.0096352044
0.4830640554,-0.0140402494,-0.0088342847,0.0025357737,0.0948247164,-0.0731351450,0.0191849656
0.4931340218,-0.0105434535,-0.0029923138,0.0012682809,0.0992050841,-0.0836386532,0.0297966003
0.5031700134,-0.0099610267,-0.0126945795,0.0000484122,0.1130619645,-0.0825257897,0.0191757120
0.5132350922,-0.0171632338,-0.0166060738,-0.0080232490,0.1097220927,-0.0687607080,0.0191834345
0.5232731104,-0.0195207763,-0.0167287402,-0.0026702748,0.1160581559,-0.0623875633,0.0117527507
0.5333710909,-0.0121810613,-0.0091393413,-0.0052445997,0.1278386414,-0.0665359721,0.0106858881
0.5434000492,-0.0136759756,-0.0075927791,-0.0216969121,0.1181035712,-0.0539080575,0.0075087366
0.5534551144,-0.0191919077,-0.0121112885,-0.0356312841,0.1029911935,-0.0370901972,0.0032737779
0.5635730028,-0.0149574755,-0.0156336837,-0.0339626521,0.0975576267,-0.0276368391,-0.0041521136
0.5736060143,-0.0087862788,-0.0074723777,-0.0274584163,0.1071703061,-0.0286416505,-0.0084022526
0.5836770535,-0.0036598917,0.0077068391,-0.0158615578,0.1188881621,-0.0263675768,-0.0009725657
0.5937271118,0.0016331200,0.0103717027,-0.0049743522,0.1115567461,-0.0402258709,-0.0009776258
0.6038110256,-0.0008624371,0.0002241316,-0.0001034008,0.0848162919,-0.0340934731,-0.0009671729
0.6140220165,-0.0054331897,-0.0062715230,0.0082754027,0.0398557410,-0.0207265355,-0.0062580751
0.6238850355,-0.0069742976,-0.0059822616,-0.0037687884,0.0419393703,-0.0153611312,0.0001146698
0.6340790987,-0.0045684455,-0.0084622325,-0.0087517370,0.0301647373,-0.0111365588,0.0128613580
0.6440660954,-0.0053015230,-0.0041013774,-0.0157713760,0.0291262381,-0.0132349301,0.0181712341
0.6541380882,-0.0042357026,-0.0222282819,-0.0074804886,0.0055716429,-0.0060545150,0.0118100084
0.6642020941,-0.0051498888,-0.0193530135,-0.0191418994,0.0000837203,0.0087469351,0.0107560623
0.6741470098,-0.0062436936,0.0039234939,-0.0280924905,0.0160709433,0.0110295303,0.0139385397
0.6841620207,-0.0083852885,0.0088513670,-0.0252003539,0.0149153974,0.0194666907,0.0075722532
0.6942560673,-0.0065623401,0.0049407068,-0.0204573739,-0.0032955650,0.0255980864,-0.0040998496
0.7045210600,-0.0036595936,0.0048442665,-0.0128108133,-0.0226188507,0.0359579809,-0.0168320891
0.7146060467,0.0012422029,0.0018150987,-0.0061271060,-0.0300285611,0.0294782445,-0.0242660381
0.7246170044,0.0053495290,0.0016204895,-0.0052699912,-0.0395507738,0.0208363533,-0.0348851942
0.7346990108,-0.0003610726,0.0033430639,-0.0064687598,-0.0588032976,0.0248918161,-0.0380636752
0.7447470427,-0.0030890878,0.0059943381,-0.0173882116,-0.0673700795,0.0280065835,-0.0369975455
0.7547910213,-0.0027628418,0.0036900821,-0.0196152795,-0.0620461479,0.0291003436,-0.0391219482
0.7648750544,-0.0063269017,-0.0025854525,-0.0122002233,-0.0727585256,0.0321436040,-0.0465522334
0.7749490738,-0.0079395054,-0.0001520333,-0.0145950783,-0.0674585700,0.0353247486,-0.0539845824
0.7849960327,-0.0126001416,0.0013466062,-0.0062998398,-0.0472657681,0.0439960659,-0.0529228486
0.7950870991,-0.0105102537,0.0010071577,-0.0086148847,-0.0238459278,0.0494576767,-0.0603586622
0.8051530123,-0.0084510026,0.0017479839,-0.0098104347,-0.0056601055,0.0453785174,-0.0593029857
0.8152910471,-0.0024027403,0.0006165685,-0.0137873162,0.0060474169,0.0486779064,-0.0571807101
0.8252871037,-0.0021628614,-0.0013745843,-0.0205079783,0.0167664010,0.0445608571,-0.0518756248
0.8354101181,-0.0019571658,-0.0013247548,-0.0203246344,0.0189885423,0.0361260921,-0.0465714075
0.8456360102,-0.0017634507,-0.0012535272,-0.0104009975,0.0168993194,0.0319123752,-0.0391408540
0.8555740118,0.0003373448,0.0046345177,-0.0005458461,0.0019968022,0.0286681131,-0.0285207033
0.8655470610,0.0005563025,0.0045030895,0.0120518338,-0.0192485657,0.0189250689,-0.0295813065
0.8756821156,-0.0021436091,-0.0025704917,0.0166915786,-0.0406566486,0.0250838958,-0.0327581950
0.8856860399,0.0020491008,-0.0077856001,0.0115579497,-0.0342173651,0.0208339579,-0.0423186086
0.8957570791,0.0092250528,-0.0011896907,0.0017587079,0.0042919414,0.0115789399,-0.0487038046
0.9058101177,0.0096149268,0.0026900354,-0.0145500768,0.0267353840,0.0086123785,-0.0455255210
0.9158730507,0.0050536217,-0.0020251093,-0.0209683646,0.0437332764,0.0161677655,-0.0487114601
0.9259700775,-0.0054431139,-0.0096341791,-0.0167298187,0.0521374419,0.0289263725,-0.0561402813
0.9360190630,-0.0061983047,-0.0085009160,-0.0047490466,0.0692210868,0.0280006565,-0.0582686774
0.9460760355,-0.0060126362,0.0004967036,0.0092511307,0.0948580280,0.0261291862,-0.0540280603
0.9561541080,-0.0068143485,0.0076723280,0.0214814078,0.1141904518,0.0147159435,-0.0402352847
0.9662200212,-0.0047592996,0.0091431914,0.0212222468,0.1132434830,0.0030843217,-0.0328085236
0.9762660265,-0.0085646985,0.0105918823,0.0277073514,0.0823516175,-0.0024702335,-0.0296180584
0.9863650799,-0.0093654273,0.0070277634,0.0272674095,0.0493237302,-0.0080712605,-0.0306741353
0.9964270592,-0.0012453075,0.0062296572,0.0150505435,0.0311607067,-0.0061146361,-0.0317303427
1.0064750910,0.0069747390,0.0150777875,0.0008462204,0.0312357545,-0.0135702901,-0.0359803513
1.0165721178,0.0103411498,0.0180159397,-0.0144316424,0.0311926119,-0.0093331989,-0.0370400213
1.0264010429,0.0018619720,0.0111133633,-0.0211983789,0.0192682818,0.0085959332,-0.0380913690
1.0366901159,-0.0018657323,0.0002148332,-0.0077409609,0.0106124748,0.0201716311,-0.0412687883
1.0467460155,0.0022321765,-0.0019153176,0.0037921800,0.0255838614,0.0171192475,-0.0412742496
1.0568530560,0.0034427170,-0.0020453152,0.0163946282,0.0405870453,0.0108767981,-0.0423429757
1.0669330359,0.0008301262,-0.0030782637,0.0193882119,0.0555787235,0.0056743128,-0.0465963110
1.0771440268,-0.0057201562,0.0018230857,0.0157098304,0.0535216965,-0.0017367322,-0.0412904955
1.0888140202,-0.0123335896,-0.0019748625,0.0178743731,0.0417743102,-0.0007788597,-0.0412864350
1.0976840258,-0.0120599447,-0.0009251056,0.0229892861,0.0322260782,-0.0061331452,-0.0359776877
1.1070981026,-0.0058421073,0.0079440651,0.0252849590,0.0291682631,-0.0199203975,-0.0306739379
1.1171621084,-0.0074402569,0.0060379091,0.0148539077,0.0195348095,-0.0167866535,-0.0253609307
1.1271440983,-0.0199679900,-0.0075794873,0.0129875671,0.0151232835,-0.0030648508,-0.0306626186
1.1375750303,-0.0207463969,-0.0134780826,0.0120470654,0.0227524415,-0.0189215783,-0.0317342728
1.1473890543,-0.0146126924,-0.0067331013,0.0043470990,0.0323486105,-0.0177420639,-0.0264271256
1.1573810577,-0.0162036885,-0.0164810829,-0.0100417007,0.0408627354,-0.0155662615,-0.0296135973
1.1673951149,-0.0187874902,-0.0183945112,-0.0214714874,0.0546411313,-0.0058752848,-0.0264268592
1.1777070761,-0.0145851253,-0.0133759798,-0.0220640171,0.0792069286,-0.0077759828,-0.0253722481
1.1877100468,-0.0074987886,-0.0101289572,-0.0049896706,0.0996085778,-0.0203445721,-0.0275075026
1.1978030205,0.0016555612,0.0019824090,0.0035504235,0.1030187532,-0.0403925814,-0.0147767952
1.2078560591,0.0080313208,-0.0014577328,0.0073510543,0.0871039480,-0.0501227751,-0.0211486090
1.2178840637,0.0017633562,-0.0079461159,0.0080599915,0.0689382553,-0.0482007712,-0.0275138300
1.2279840708,0.0033452336,-0.0155409994,-0.0049592122,0.0571788326,-0.0462098569,-0.0317561775
1.2380210161,0.0069124820,-0.0114133777,-0.0130430330,0.0614558682,-0.0472612716,-0.0360049866
1.2481720448,0.0056601288,-0.0052195010,-0.0083424319,0.0700094104,-0.0493710302,-0.0455644019
1.2581660748,0.0044181766,0.0048548761,-0.0026668177,0.0647520572,-0.0567961894,-0.0381341837
1.2682451010,-0.0028307314,0.0051169577,-0.0020533667,0.0529021658,-0.0451585762,-0.0275072381
1.2783041000,-0.0122624813,-0.0015693723,0.0011733307,0.0303337425,-0.0294254199,-0.0253700502
1.2883920670,-0.0130357919,-0.0112843933,0.0013041629,0.0109513346,-0.0126371840,-0.0285428744
1.2984310389,-0.0118628023,-0.0123121561,0.0032872094,0.0098607698,-0.0105521949,-0.0327887535
1.3085221052,0.0011652831,-0.0006382284,-0.0062275995,0.0206532311,-0.0221029911,-0.0285493992
1.3186740875,0.0024472300,0.0081945835,-0.0224885810,0.0196430944,-0.0273688585,-0.0211191792
1.3286700249,-0.0002648111,-0.0063493666,-0.0213364232,-0.0007208474,-0.0190781057,-0.0242958646
1.3387070894,0.0009927575,-0.0094644250,-0.0204469431,-0.0316803604,-0.0183151085,-0.0285348184
1.3486731052,0.0003068868,0.0047325077,-0.0188764203,-0.0626866370,-0.0121925026,-0.0242758915
1.3588171005,-0.0004350122,0.0110159097,-0.0097123254,-0.0926914066,0.0003131693,-0.0189530309
1.3688830137,0.0066516520,0.0035815421,-0.0025655495,-0.0991314352,0.0033638868,-0.0306294598
1.3789780140,0.0088419141,0.0020600143,-0.0021569596,-0.0576428473,0.0164386760,-0.0338188633
1.3890510798,0.0060376348,0.0114960847,-0.0122002233,-0.0042945957,0.0180004202,-0.0285227001
1.3991670609,0.0120307030,0.0173887201,-0.0159203876,0.0310000107,0.0109433103,-0.0189789981
1.4091960192,0.0062224390,0.0127718030,-0.0223915447,0.0405191630,0.0195578374,-0.0126073845
1.4193130732,-0.0026074525,0.0062940302,-0.0268615354,0.0490151793,0.0238971915,-0.0094219772
1.4293090105,-0.0046683429,0.0046922746,-0.0187145341,0.0521858335,0.0271290708,-0.0062359041
1.4394121170,-0.0057313917,0.0069528404,-0.0144921411,0.0564985499,0.0229431149,-0.0030536929
1.4494240284,-0.0127777932,0.0111494241,-0.0132450927,0.0543072261,0.0293520764,0.0065069888
1.4595060349,-0.0101602254,0.0114975153,-0.0120150913,0.0479087122,0.0293515436,0.0150030050
1.4695990086,-0.0045641540,0.0117870746,-0.0156634320,0.0394360535,0.0229392517,0.0192485508
1.4796590805,-0.0048559485,0.0071342173,-0.0233198274,0.0201632883,0.0291305687,0.0181947369
1.4897220135,-0.0110207079,0.0062836590,-0.0243165363,-0.0022978112,0.0342391804,0.0182036590
1.4997630119,-0.0093435524,-0.0014424740,-0.0195069183,-0.0161827337,0.0351582356,0.0150222462
1.5099710226,-0.0027284201,-0.0024488983,-0.0138269532,-0.0257143453,0.0276409313,0.0139585799
1.5200181007,-0.0029422219,-0.0016060291,-0.0131407846,-0.0342279412,0.0254720524,0.0182068534
1.5300540924,-0.0050555943,-0.0037299213,-0.0076287258,-0.0480564833,0.0210992098,0.0171471164
1.5400611162,-0.0042436002,-0.0059119877,0.0017135872,-0.0396382324,0.0328240395,0.0139654372
1.5501260757,-0.0005572911,0.0007723751,0.0004654063,-0.0171936415,0.0298499558,0.0160825178
1.5601860285,0.0031905298,0.0125072179,0.0033645167,0.0127152540,0.0268933140,0.0107644517
1.5702630281,0.0001387719,0.0117141781,-0.0052320827,0.0318674296,0.0323884785,0.0139461299
1.5803110600,0.0018643562,0.0090705333,-0.0176209081,0.0446005315,0.0399550572,0.0181938726
1.5903561115,0.0034582738,0.0104313074,-0.0221865047,0.0509193391,0.0485127904,0.0203202069
1.6004730463,-0.0028630968,0.0069010439,-0.0161554087,0.0326742865,0.0589989871,0.0256390721
1.6105530262,-0.0023543711,0.0100724874,-0.0102597345,0.0146188810,0.0503523014,0.0256395377
1.6206380129,-0.0018474336,0.0004126611,-0.0103997458,-0.0152404821,0.0479554571,0.0235223249
1.6306830645,-0.0042219637,-0.0074879942,-0.0088442434,-0.0387305990,0.0487696491,0.0171581022
1.6408090591,-0.0036178704,-0.0077502546,-0.0093777645,-0.0397577807,0.0444816947,0.0118472259
1.6508270502,0.0009947841,0.0027560177,-0.0078121289,-0.0235904250,0.0287346914,0.0160819180
1.6608570814,0.0056547048,0.0086046038,-0.0040370692,-0.0010395739,0.0151720103,0.0213784128
1.6708110571,0.0053988816,0.0078050676,-0.0039723981,0.0170647539,0.0196293425,0.0298709664
1.6809500456,0.0031491343,-0.0036274013,0.0000800027,0.0234462209,0.0218072757,0.0298704337
1.6910650730,0.0037812416,-0.0063314852,0.0040441882,0.0115817590,0.0344574898,0.0330652259
1.7039520741,0.0023595218,-0.0041955528,0.0089072119,0.0062146904,0.0376008227,0.0341299586
1.7120540142,0.0009224538,0.0008370461,0.0137044322,-0.0002530897,0.0439041890,0.0330727547
1.7216320038,-0.0015000280,0.0077519598,0.0125931036,-0.0056121694,0.0459518917,0.0288279410
1.7319010496,-0.0048999069,0.0009483876,0.0162361991,-0.0227267072,0.0500246659,0.0256502554
1.7420480251,-0.0034041877,-0.0001299200,0.0139175784,-0.0301023312,0.0403896160,0.0224619210
1.7516651154,-0.0008441086,0.0036093178,0.0047848355,-0.0311294869,0.0361443385,0.0235207267
1.7620170116,-0.0061310409,0.0034784856,-0.0072860587,-0.0354043916,0.0372234508,0.0320167430
1.7717680931,-0.0115285693,-0.0015128670,-0.0125917066,-0.0407526307,0.0393597707,0.0415767580
1.7818180323,-0.0091367839,-0.0104023041,-0.0159557331,-0.0396849699,0.0393760167,0.0426382944
1.7915740013,-0.0087379394,-0.0182453208,-0.0095340479,-0.0258358680,0.0416271202,0.0436967015
1.8016710281,-0.0014208730,-0.0211512856,0.0057602059,-0.0128172701,0.0205189064,0.0436828546
1.8117280006,0.0030657474,-0.0152655067,0.0065832273,0.0000546109,0.0142638730,0.0436773263
1.8217970133,-0.0031273838,-0.0122313322,-0.0002725588,0.0256289467,0.0176082700,0.0341163129
1.8318380117,-0.0034189101,-0.0051008281,0.0009186401,0.0587812848,0.0104357786,0.0287951175
1.8419440985,0.0071806433,0.0060953083,0.0034169091,0.0812847316,0.0010547935,0.0245375223
1.8519880772,0.0070648016,0.0086210547,0.0040960442,0.0844645947,0.0032119534,0.0255993232
1.8620710373,0.0010219936,0.0024227682,-0.0010645257,0.0812216625,0.0074418522,0.0277258586
1.8721100092,-0.0001429792,-0.0057840166,-0.0062925685,0.0652468503,0.0041260836,0.0287899226
1.8822100163,-0.0013880010,-0.0141158523,-0.0107731689,0.0449170768,0.0092401523,0.0266740415
1.8924140930,-0.0036134298,-0.0196544342,-0.0105452407,0.0267514177,0.0111550316,0.0192472190
1.9024640322,-0.0028474506,-0.0155463638,-0.0016616450,0.0139757004,0.0078324713,0.0150016071
1.9125820398,-0.0079229651,-0.0086026015,0.0051923525,0.0203342102,0.0121258870,0.0139399376
1.9226380587,-0.0110412119,0.0032348218,0.0081857573,0.0321573131,0.0037334671,0.0128709450
1.9326980114,-0.0121605871,0.0053869667,0.0142082702,0.0343363918,-0.0004855790,0.0139306840
1.9427680969,-0.0132271228,-0.0031517562,0.0153910648,0.0236219633,0.0036582998,0.0128736757
1.9527850151,-0.0182605553,-0.0088449540,0.0125900637,0.0085836258,0.0130920149,0.0150044700
1.9629240036,-0.0086478172,-0.0125753703,0.0117385518,0.0097141368,0.0067283916,0.0139392056
1.9729640484,0.0020380740,-0.0085144462,0.0041656625,0.0236541592,0.0005107759,0.0181802232
1.9830760956,0.0019397561,-0.0014848529,-0.0082487930,0.0364916623,-0.0025603813,0.0181754287
1.9928840399,0.0018170897,-0.0040647206,-0.0020654069,0.0599486753,-0.0002338439,0.0181711689
2.0031261444,0.0066535296,-0.0104003372,0.0043559205,0.0888751373,-0.0116947573,0.0117873047
2.0132470131,0.0077283205,-0.0030411300,0.0041201245,0.1199359819,-0.0231228471,0.0075261802
2.0232970715,0.0078635039,0.0025476399,-0.0026749836,0.1370558441,-0.0271761790,0.0138906036
2.0333809853,-0.0038152512,-0.0024647531,-0.0065257419,0.1390464157,-0.0122698667,0.0192075372
2.0435991287,0.0010112945,-0.0132205309,0.0043254625,0.1496953368,-0.0100684976,0.0170823336
2.0535039902,0.0096952142,-0.0073716459,0.0103598963,0.1593542546,-0.0152403582,0.0245090909
2.0635330677,-0.0001814540,0.0004042568,0.0134070050,0.1348225474,-0.0164949726,0.0277000926
2.0736010075,-0.0071713207,-0.0095370235,0.0181362759,0.0857241675,-0.0158628039,0.0277129412
2.0837402344,-0.0053566275,-0.0149256410,0.0156905781,0.0355478115,-0.0141788879,0.0277265236
2.0937440395,-0.0005473371,-0.0148381414,0.0089718234,-0.0060312701,-0.0188491400,0.0181789584
2.1039240360,0.0043657543,-0.0139761390,-0.0018274055,-0.0284010209,-0.0233235173,0.0128734093
2.1139039993,0.0025205736,-0.0112786712,-0.0117781032,-0.0391075462,-0.0202538911,0.0096916631
2.1238930225,-0.0004106041,-0.0085662426,-0.0120327342,-0.0370052457,-0.0170522388,0.0096927285
2.1340799332,0.0034255211,-0.0009123502,0.0013840331,-0.0262633041,-0.0232847668,0.0160589479
2.1440701485,0.0063032331,0.0107346950,0.0187912118,-0.0092078894,-0.0209790021,0.0213647634
2.1541318893,0.0062924149,0.0088075576,0.0197935831,0.0057713804,-0.0250985138,0.0202961713
2.1642160416,0.0014011685,0.0059845629,0.0218286645,0.0003792783,-0.0198816471,0.0139293522
2.1742820740,-0.0054611443,0.0020971480,0.0150199067,-0.0039214073,-0.0167287309,0.0149935503
2.1843760014,0.0014146690,-0.0007872400,0.0014985933,-0.0006342679,-0.0251818709,0.0160502940
2.1944069862,0.0004503254,-0.0006931243,-0.0090706814,-0.0017400924,-0.0208987761,0.0234853737
2.2045021057,-0.0034980949,-0.0064661321,-0.0129133333,-0.0145365810,-0.0220924038,0.0203026272
2.2146191597,-0.0035348709,-0.0094566168,-0.0120348800,-0.0358755291,-0.0222516619,0.0245556980
2.2246479988,-0.0075528203,-0.0038371501,-0.0104406942,-0.0486464538,-0.0255119018,0.0298663080
2.2346820831,-0.0076517044,-0.0099750580,-0.0059830416,-0.0635971501,-0.0246168803,0.0245624222
2.2447850704,-0.0057022749,-0.0152241411,-0.0054800380,-0.0678805783,-0.0236485545,0.0160696022
2.2548110485,-0.0026871141,-0.0058647213,-0.0088288058,-0.0528456494,-0.0330668241,0.0160608124
2.2649559975,-0.0016316648,0.0075251046,-0.0168486703,-0.0304886773,-0.0275591407,0.0171196852
2.2749118805,-0.0054671941,0.0103852926,-0.0159300435,-0.0123169422,-0.0306045339,0.0139282197
2.2851052284,0.0004928533,0.0094840704,-0.0118785966,0.0036899867,-0.0304647163,0.0139242252
2.2950901985,-0.0013682719,0.0048114243,-0.0115829576,0.0260954276,-0.0302745681,0.0128554981
2.3051800728,-0.0032471295,0.0060745063,-0.0043945182,0.0451870970,-0.0184288267,0.0139183663
2.3150839806,-0.0002396580,0.0064569297,-0.0116436351,0.0676965043,-0.0277621411,0.0170941856
2.3252911568,0.0027492468,0.0050481143,-0.0089944471,0.0816229731,-0.0329390578,0.0181498621
2.3353891373,0.0008673195,-0.0040880260,-0.0160047878,0.0922634229,-0.0296632387,0.0181491971
2.3454179764,-0.0029938396,-0.0132234516,-0.0113522876,0.0826033354,-0.0244767331,0.0128452452
2.3554711342,-0.0028902765,-0.0117530050,-0.0068129171,0.0676395968,-0.0224771649,0.0139107089
2.3655581474,-0.0116870878,-0.0035556373,-0.0044118036,0.0527035221,-0.0225591902,0.0213470552
2.3756260872,-0.0077912686,-0.0041847047,-0.0039887298,0.0377339758,-0.0195003487,0.0224147812
2.3857150078,-0.0058933673,-0.0078705372,-0.0076275934,0.0163850095,-0.0185703747,0.0309150591
2.3957490921,-0.0099049686,-0.0038575348,-0.0095060337,-0.0018937830,-0.0049716737,0.0256187655
2.4058909416,-0.0179037321,-0.0048195538,0.0010784401,-0.0222597737,0.0032700107,0.0150100626
2.4159002304,-0.0141137121,-0.0058523831,0.0135791432,-0.0371931046,0.0020515479,0.0107653169
2.4259991646,-0.0082623539,-0.0031454382,0.0123685729,-0.0498958528,-0.0087188082,0.0033305697
2.4360198975,-0.0042924164,-0.0024736342,0.0071761739,-0.0573123544,-0.0140748918,0.0054530427
2.4463860989,-0.0022186812,-0.0144868912,-0.0048081740,-0.0456069596,-0.0108031984,0.0033281066
2.4562160969,0.0027709131,-0.0254156999,-0.0147162545,-0.0200075395,-0.0095465854,-0.0009245623
2.4663071632,0.0067974152,-0.0166702680,-0.0243891347,0.0131325703,-0.0144864824,0.0107443435
2.4761970043,0.0107515873,-0.0028427658,-0.0270340312,0.0377219096,-0.0184601843,0.0192299746
2.4863851070,0.0048692646,-0.0005696235,-0.0256848205,0.0462418944,-0.0162082165,0.0277233273
2.4964280128,-0.0011374529,-0.0070219454,-0.0214482415,0.0439710431,-0.0024416042,0.0266698487
2.5065660477,-0.0012846764,-0.0096487822,-0.0192458499,0.0300962403,-0.0025904751,0.0224261004
2.5165870190,-0.0043714223,-0.0152631225,-0.0112768281,0.0193559788,0.0036414552,0.0160604790
2.5266981125,-0.0084247766,-0.0160181932,-0.0052894223,0.0215205960,0.0004563145,0.0128729427
2.5367040634,-0.0036034759,-0.0128457965,-0.0011080967,0.0290734544,-0.0080083441,0.0064963363
2.5467519760,-0.0016051109,-0.0086926641,-0.0007476674,0.0323797688,-0.0186111853,0.0033048037
2.5568211079,-0.0034866806,-0.0035750088,0.0044360887,0.0217301063,-0.0208122879,0.0054297401
2.5669779778,-0.0043664752,-0.0053943214,0.0036742820,0.0014658477,-0.0220434684,0.0064960700
2.5769670010,-0.0022925313,-0.0073204455,0.0008504523,-0.0102953361,-0.0200305842,0.0054379292
2.5871040821,0.0007265632,-0.0053957519,-0.0078732241,-0.0135366702,-0.0157799125,0.0107498700
2.5971031189,0.0007093374,-0.0063727316,-0.0059401263,-0.0147233475,-0.0041315798,0.0086319251
2.6071660519,0.0016473655,-0.0170908980,-0.0001381503,-0.0094984919,0.0064696651,0.0001415011
2.6172461510,0.0074815871,-0.0112336697,0.0066814558,0.0044384953,0.0002175618,-0.0009266261
2.6273341179,0.0094564976,0.0024435702,0.0028619899,0.0172349848,0.0014111905,0.0022561178
2.6371850967,-0.0003232237,-0.0023746309,-0.0019658671,0.0075884024,0.0055712480,0.0022607115
2.6475141048,0.0045563700,-0.0092140259,-0.0068355072,-0.0084861713,0.0117489826,-0.0051647141
2.6575040817,0.0114281001,-0.0073888716,-0.0186132062,-0.0127554853,0.0116764121,-0.0104719950
2.6676411629,0.0104201259,0.0061357799,-0.0207180846,-0.0128396414,0.0201782882,-0.0083441297
2.6776440144,0.0025219445,0.0118752299,-0.0199186075,-0.0171043202,0.0201609768,-0.0051568579
2.6877069473,-0.0073930500,0.0098205386,-0.0123920310,-0.0331437439,0.0231972467,-0.0062130671
2.6977720261,-0.0085659502,0.0008645835,0.0028225316,-0.0545104146,0.0251338314,-0.0062076747
2.7078220844,-0.0096871434,-0.0062473831,0.0198792350,-0.0522941351,0.0166229010,-0.0125832818
2.7179200649,-0.0155167161,-0.0055987057,0.0214293730,-0.0383477695,0.0093031358,-0.0147140110
2.7279980183,-0.0164089967,-0.0019138871,0.0066381823,-0.0147825247,0.0010617176,-0.0083533172
2.7380290031,-0.0104736267,-0.0058061299,-0.0117746461,0.0193947013,-0.0007078866,0.0001327794
2.7481811047,-0.0095346151,0.0001676264,-0.0242458452,0.0289413333,0.0058251140,0.0128752068
2.7581782341,-0.0067478893,0.0033723298,-0.0230148900,0.0332311019,0.0038044406,0.0224275663
2.7683110237,-0.0128148375,-0.0100083174,-0.0150736440,0.0149397124,0.0184861831,0.0203159451
2.7783079147,-0.0110942898,-0.0138034048,-0.0082599986,0.0000108294,0.0172732435,0.0171344001
2.7886581421,-0.0064453362,-0.0059976396,0.0003848805,-0.0074596033,0.0172010735,0.0160744619
2.7984960079,-0.0046752868,-0.0001984058,0.0070247785,-0.0106240250,0.0128955394,0.0107630529
2.8083410263,-0.0027940150,0.0016656698,0.0049493443,-0.0105611738,0.0065156715,0.0086362530
2.8184199333,0.0079952599,-0.0042171297,-0.0076788529,0.0001522163,0.0023010194,-0.0009232308
2.8285460472,0.0178991389,0.0006741466,-0.0143521894,0.0109518673,-0.0103308856,0.0001295169
2.8385570049,0.0180373322,0.0007190289,-0.0229751933,0.0056300471,-0.0114396270,0.0001314476
2.8486661911,0.0102868797,-0.0031020460,-0.0218779314,0.0097691324,0.0013089252,-0.0030486332
2.8586759567,0.0083414139,0.0048065963,-0.0149403680,0.0204423089,0.0014441473,0.0033190516
2.8688030243,0.0014211063,0.0068772021,-0.0080562700,0.0117998179,0.0119934604,0.0054501132
2.8787961006,-0.0085206507,-0.0056990799,0.0113703143,-0.0000964431,0.0266840570,-0.0040971199
2.8888990879,-0.0096393703,-0.0115316333,0.0171213876,0.0084059648,0.0299070142,-0.0094066635
2.8989491463,-0.0058241962,0.0011825146,0.0258977544,0.0107472576,0.0097720511,-0.0083540492
2.9090690613,-0.0117215989,-0.0017011581,0.0152155887,0.0064350674,0.0139649324,-0.0104744583
2.9191050529,-0.0156972874,-0.0046739397,0.0005456342,-0.0117454017,0.0181062147,-0.0019737144
2.9292340279,-0.0040399013,-0.0115923705,-0.0102794040,-0.0288183950,0.0179709252,0.0001541512
2.9392189980,-0.0041972874,-0.0127910795,-0.0164695252,-0.0449390411,0.0295720547,0.0107813617
2.9493379593,0.0014591936,-0.0081445398,-0.0168430675,-0.0394729041,0.0169212408,0.0160826501
2.9591999054,0.0071208002,-0.0034518656,-0.0103627313,-0.0372729711,0.0106016938,0.0203259997
2.9695780277,0.0020349745,-0.0065420088,-0.0097037423,-0.0330177732,0.0116653591,0.0150164533
2.9797561169,0.0009195928,-0.0115524353,-0.0041390522,-0.0106151830,0.0117711537,0.0012073647
2.9899280071,0.0067897262,-0.0056613502,0.0037112369,0.0333149880,-0.0059252856,-0.0051834229
2.9997560978,0.0138277235,0.0092069684,0.0041561853,0.0664983764,-0.0162875783,-0.0115681523
3.0099091530,0.0052695693,0.0027695480,-0.0020682679,0.0717642456,-0.0099511184,-0.0232461132
3.0199570656,-0.0052829264,-0.0017195760,-0.0034800635,0.0673684329,0.0027505611,-0.0221768543
3.0300378799,-0.0031927701,0.0015698852,-0.0029592381,0.0705069676,0.0091583934,-0.0200508535
3.0400629044,0.0018136327,0.0058707776,-0.0023806558,0.0813170820,-0.0045344494,-0.0189987049
3.0501742363,0.0000133936,0.0102183400,-0.0027192698,0.0824625120,-0.0119036827,-0.0115700820
3.0603730679,-0.0027623947,-0.0029612002,-0.0069677699,0.0675348788,-0.0131028369,-0.0126279574
3.0703082085,-0.0045519350,-0.0153536024,-0.0114109982,0.0450692512,-0.0080281831,-0.0179287121
3.0801501274,-0.0044433651,-0.0132925930,-0.0112216342,0.0215576664,-0.0050492384,-0.0179222561
3.0904159546,0.0045305016,-0.0034957943,-0.0158784259,0.0312374607,-0.0123785241,-0.0158047751
3.1005501747,0.0096441330,0.0063802185,-0.0252948869,0.0515358858,-0.0143240299,-0.0158103015
3.1105551720,0.0069073262,0.0096060811,-0.0287275184,0.0706488639,-0.0046002958,-0.0147484988
3.1206369400,0.0030923907,0.0129382787,-0.0243117679,0.0780240297,0.0050064581,-0.0158067718
3.1307868958,-0.0027937170,0.0143373189,-0.0102068055,0.0714865029,0.0187920444,-0.0083656339
3.1408050060,-0.0048828004,0.0128419576,0.0077399150,0.0597295538,0.0208176449,-0.0072990381
3.1508269310,-0.0089297770,-0.0003872333,0.0236829054,0.0521504655,0.0313278101,-0.0126008596
3.1608371735,-0.0129300235,-0.0088841142,0.0278298389,0.0318943262,0.0290151890,-0.0147208013
3.1709671021,-0.0149272261,-0.0068479595,0.0210966002,0.0138623305,0.0182813182,-0.0094125895
3.1810231209,-0.0110522090,-0.0107574882,0.0123338234,-0.0085374899,0.0170319621,-0.0083461925
3.1911010742,-0.0011993821,-0.0235571079,-0.0042888983,-0.0255071539,0.0062450944,-0.0125944670
3.2010149956,0.0097011747,-0.0199854784,-0.0239885915,-0.0415144563,0.0061054118,-0.0125906058
3.2112390995,0.0048634233,-0.0145021500,-0.0292557348,-0.0522480607,0.0123989936,-0.0093993396
3.2213029861,0.0097773196,-0.0071235714,-0.0229359735,-0.0660801232,0.0080202911,-0.0115219466
3.2313542366,0.0058098258,0.0040753665,-0.0148097742,-0.0673166290,0.0250008721,-0.0093895532
3.2413330078,-0.0041109202,0.0075379196,-0.0008654462,-0.0631419644,0.0345935784,-0.0083234897
3.2513141632,-0.0033032771,0.0081379591,0.0092820060,-0.0535367355,0.0346913151,-0.0062022815
3.2614090443,-0.0015321549,-0.0028299508,0.0186016690,-0.0375090316,0.0327022001,-0.0072691441
3.2714660168,-0.0016862031,-0.0127146663,0.0232067835,-0.0246731322,0.0296102706,-0.0104593448
3.2817430496,0.0001948897,-0.0108727040,0.0172175895,-0.0149510745,0.0180299804,-0.0094057312
3.2917861938,-0.0037584777,-0.0138614597,0.0073716771,-0.0139036532,0.0201820806,-0.0062195258
3.3018300533,-0.0008924480,-0.0129591646,0.0033661856,-0.0149111273,0.0138011482,-0.0072855894
3.3118760586,0.0039938511,-0.0053472933,-0.0104328264,-0.0308940895,0.0115739470,-0.0019736479
3.3219618797,0.0079097869,0.0011441292,-0.0205179323,-0.0542795993,0.0028929070,0.0001533520
3.3319630623,0.0069556655,0.0016792001,-0.0278487075,-0.0734884515,0.0027182035,-0.0009036565
3.3421192169,0.0010540907,0.0031051221,-0.0275359023,-0.0788916796,0.0090247020,-0.0030236661
3.3521771431,0.0000296954,0.0075859013,-0.0183390249,-0.0500488505,0.0060725883,-0.0062178615
3.3621311188,0.0029471938,0.0083348928,-0.0088912118,-0.0296444818,-0.0064756274,-0.0051673111
3.3723280430,0.0010482494,-0.0005364237,0.0075398819,-0.0179193802,-0.0053467136,-0.0104787191
3.3823771477,-0.0076940237,-0.0064354357,0.0055393707,0.0065193563,0.0054772384,-0.0104790526
3.3924651146,-0.0086794673,-0.0033992347,0.0056667463,0.0352492705,0.0142515544,-0.0051729698
3.4025011063,-0.0097266911,-0.0099097909,0.0079280864,0.0523009598,0.0165088512,-0.0072997706
3.4125781059,-0.0058678268,-0.0037094769,0.0083583724,0.0630292371,0.0113455132,0.0001275196
3.4226861000,-0.0039625643,0.0054629627,-0.0018714534,0.0726668388,0.0082956618,0.0075553423
3.4327230453,-0.0040250896,0.0019803825,-0.0082084406,0.0556684174,0.0007333498,0.0096794786
3.4425702095,0.0028177325,0.0002978029,-0.0175713170,0.0354262367,-0.0026272265,0.0096834078
3.4528288841,-0.0001630660,0.0013989987,-0.0242753495,0.0055045588,0.0013627212,0.0107547976
3.4629039764,-0.0041645942,0.0013827862,-0.0214398969,-0.0158940479,0.0064751916,0.0097001856
3.4729950428,-0.0042693494,-0.0035652337,-0.0109060872,-0.0287230276,0.0084576486,0.0054572374
3.4829120636,-0.0092683909,-0.0076203165,-0.0024294720,-0.0341466069,0.0168786980,0.0022770234
3.4931759834,-0.0123509644,-0.0097742500,0.0108550917,-0.0405834652,0.0199780837,-0.0019669901
3.5032310486,-0.0045930920,-0.0119202556,0.0154530536,-0.0213335268,0.0158666298,-0.0072823269
3.5132999420,-0.0016484435,-0.0100872936,0.0046428577,0.0021757931,0.0128956065,-0.0062279813
3.5232930183,0.0022500281,-0.0070786295,0.0008529557,0.0278951377,0.0025442329,-0.0009310204
3.5334320068,0.0110793831,-0.0058700857,-0.0017269717,0.0375775918,-0.0047504315,0.0064954706
3.5434288979,0.0022513394,0.0002073231,-0.0044055451,0.0321576856,0.0037333339,0.0128710782
3.5535700321,-0.0007897492,-0.0005157409,-0.0031949149,0.0321662091,0.0026446336,0.0086233355
3.5634760857,0.0030852382,0.0016523184,-0.0048811305,0.0332813263,-0.0015848656,0.0096844733
3.5736432076,0.0030737345,0.0037817541,-0.0075864061,0.0279217176,0.0004559150,0.0043778578
3.5837690830,-0.0008446153,-0.0000207243,-0.0084448326,0.0118881287,0.0023759876,-0.0051735025
3.5937452316,0.0031218354,-0.0010136781,-0.0171882976,-0.0041646073,0.0064386395,-0.0115381917
3.6035718918,0.0070847692,0.0008422317,-0.0114329923,-0.0138022406,0.0094956160,-0.0179044120
3.6139101982,0.0041747214,-0.0051134643,0.0039830934,-0.0149295563,0.0147012966,-0.0317049138
3.6239891052,0.0052917423,0.0005548181,0.0048439037,-0.0041940343,0.0084426012,-0.0295874327
3.6340899467,-0.0004424926,0.0111595569,0.0066946875,0.0011037914,0.0127955386,-0.0200304128
3.6440081596,-0.0063165901,0.0052899304,0.0066459309,0.0020888140,0.0213558041,-0.0104707964
3.6542391777,-0.0044638691,0.0023833695,0.0066151754,0.0021271640,0.0182558838,0.0022692336
3.6642360687,0.0012620513,-0.0014803825,0.0046430957,-0.0042603482,0.0172013380,0.0118264537
3.6743810177,-0.0018812891,-0.0082684578,-0.0012800561,-0.0075038113,0.0214243140,0.0128911855
3.6843230724,0.0047793211,-0.0112064304,-0.0023416148,-0.0116665717,0.0107843857,0.0139482599
3.6944789886,0.0055992426,-0.0131719531,-0.0014698373,-0.0158823561,0.0054351608,0.0128848609
3.7045121193,0.0035150175,-0.0093596401,0.0003005399,-0.0179713666,0.0011644489,0.0118225915
3.7146401405,0.0103086056,-0.0045624790,-0.0036889182,-0.0019228915,-0.0029535969,0.0096928617
3.7246530056,0.0054361047,0.0061640921,-0.0027159916,0.0098446049,-0.0060615065,0.0054408591
3.7347202301,-0.0033867534,0.0110700903,-0.0007725821,0.0022985386,0.0012794975,0.0022610445
3.7447741032,-0.0053689657,0.0101284562,0.0070307981,0.0054958230,0.0012591244,-0.0051725041
3.7548398972,-0.0043761907,0.0111392317,0.0119570624,0.0097765885,0.0002561780,-0.0019886950
3.7648990154,0.0005457525,0.0024627033,0.0101435315,0.0088063190,-0.0093167536,-0.0041160947
3.7749629021,-0.0003663178,-0.0052916226,0.0024406447,0.0023950245,-0.0082839802,0.0001332454
3.7850651741,-0.0003253396,-0.0072103557,-0.0072104796,0.0130665237,-0.0081481598,0.0065003308
3.7951731682,0.0065166177,-0.0109516205,-0.0099342931,0.0217447020,-0.0218320135,0.0118002873
3.8051080704,0.0114530744,-0.0088193836,-0.0077204574,0.0207337923,-0.0271402933,0.0128605589
3.8152608871,0.0095828595,-0.0096443119,-0.0104117263,0.0270630606,-0.0196434949,0.0149862943
3.8253331184,0.0076310756,0.0012493314,-0.0131155122,0.0345033184,-0.0163676068,0.0192333050
3.8354492188,0.0095414640,0.0141652403,-0.0089433063,0.0461879410,-0.0109669827,0.0181712359
3.8453500271,0.0084740641,0.0203368850,-0.0047007669,0.0483234748,-0.0109416824,0.0192327723
3.8555250168,0.0083879652,0.0235771723,-0.0004848109,0.0333501175,-0.0079099406,0.0160526894
3.8656330109,0.0024057750,0.0130903302,0.0084457528,0.0054937992,0.0024024192,0.0075704558
3.8756480217,-0.0016099389,0.0004779877,0.0152277481,-0.0243783444,0.0010388808,0.0012065659
3.8856160641,0.0013423983,-0.0054959473,0.0199461710,-0.0296042413,-0.0107330233,-0.0072935121
3.8957850933,0.0014349942,-0.0047053513,0.0159047972,-0.0231455415,-0.0159474928,-0.0019887616
3.9058799744,-0.0003622051,0.0000061574,0.0060731303,-0.0209325347,-0.0233289115,0.0022549191
3.9159259796,0.0027137522,0.0017768325,-0.0125075448,-0.0166507047,-0.0243180096,0.0075623328
3.9258952141,0.0008320038,0.0007224860,-0.0252064336,-0.0049948469,-0.0156928264,0.0128726764
3.9380810261,0.0067140283,0.0036481800,-0.0300313104,0.0004068417,-0.0219845474,0.0171153564
3.9462580681,0.0027274613,0.0114755211,-0.0251757372,-0.0018745828,-0.0070786998,0.0277401730
3.9561750889,-0.0063407896,0.0086087761,-0.0165409911,-0.0201611798,0.0076653585,0.0351847745
3.9662079811,-0.0056948243,0.0017509641,-0.0051214565,-0.0361904241,0.0096194530,0.0309430212
3.9763169289,-0.0069659529,-0.0012783228,0.0023644699,-0.0308792815,0.0117465192,0.0245719422
3.9863982201,-0.0032793756,0.0025697532,0.0109365117,-0.0147324828,-0.0019285465,0.0213766806
3.9964499474,0.0015282754,0.0045234743,0.0079909693,-0.0039461469,-0.0135340700,0.0171209499
4.0063810349,-0.0023493345,0.0026524249,-0.0006583796,0.0089183841,-0.0198149346,0.0128663508
4.0165882111,0.0036000137,-0.0001639543,-0.0150300134,0.0185443796,-0.0218461268,0.0139246909
4.0267038345,0.0085641863,0.0019400300,-0.0284001697,0.0217071511,-0.0175471213,0.0181738995
4.0367479324,0.0026383225,0.0040332261,-0.0292339791,0.0077093095,-0.0049016327,0.0234927647
4.0467653275,-0.0004801627,0.0089638410,-0.0253789295,-0.0158063509,-0.0008284613,0.0288101640
4.0568900108,-0.0036640640,0.0099192439,-0.0119572747,-0.0404003747,0.0043037166,0.0351897664
4.0669393539,-0.0079208193,0.0029474678,-0.0006749497,-0.0585930385,0.0094709815,0.0383824296
4.0769920349,-0.0043953834,-0.0011765180,0.0066170823,-0.0660267249,0.0062781177,0.0468771160
4.0870437622,-0.0008465524,-0.0004136381,0.0003329052,-0.0563391857,-0.0009827914,0.0596134812
4.0971250534,-0.0051905094,-0.0015060721,-0.0078356732,-0.0446620211,0.0055203815,0.0649227574
4.1072010994,-0.0086353896,-0.0122290673,-0.0149434675,-0.0425831825,0.0108234677,0.0617392845
4.1172780991,-0.0121008037,-0.0053878245,-0.0103585590,-0.0266502909,0.0183972307,0.0628008172
4.1273307800,-0.0126749156,0.0103142438,-0.0037345754,-0.0138321742,0.0174829680,0.0681058392
4.1374130249,-0.0102965115,0.0095237074,0.0039482247,-0.0052663833,0.0143329808,0.0617312938
4.1474628448,-0.0107691763,0.0009260359,-0.0019435750,-0.0010231957,0.0164723657,0.0585450232
4.1576099396,-0.0083097098,-0.0047265706,-0.0068241223,0.0075314105,0.0143764578,0.0511092134
4.1675791740,0.0000953797,-0.0035098013,-0.0096499790,0.0225435682,0.0070736040,0.0500393510
4.1777310371,0.0036682014,-0.0012251554,-0.0074863299,0.0375643298,-0.0013393220,0.0415369458
4.1877279282,0.0093636932,-0.0037227687,-0.0138665307,0.0579573512,-0.0128903165,0.0330332741
4.1978712082,0.0092635276,0.0026059928,-0.0220681895,0.0771875083,-0.0148376208,0.0340892151
4.2077260017,-0.0006668146,0.0060991826,-0.0215040911,0.0792547613,-0.0084233973,0.0383372232
4.2179799080,-0.0048268614,-0.0079033198,-0.0121773351,0.0706564784,-0.0020973240,0.0436515585
4.2280230522,-0.0051410673,-0.0121816220,-0.0087303985,0.0716620311,0.0042985235,0.0468401648
4.2381072044,-0.0114054559,-0.0135052027,0.0024508967,0.0715981126,0.0106645431,0.0468433611
4.2478532791,-0.0069195209,-0.0206383877,0.0117579233,0.0695601627,0.0010824901,0.0447160266
4.2582721710,0.0005986218,-0.0181208067,0.0123028886,0.0717364922,-0.0031498056,0.0436515622
4.2682662010,-0.0016336318,-0.0165993385,0.0020929708,0.0706363693,0.0000029111,0.0404682159
4.2784051895,-0.0009242769,-0.0189945512,0.0025908484,0.0578185767,0.0009312892,0.0372865386
4.2883243561,-0.0011529203,-0.0146898450,0.0009743704,0.0364545658,0.0028526932,0.0351696610
4.2985429764,-0.0043611405,-0.0153742852,0.0060203206,0.0160800517,0.0121830776,0.0288086981
4.3086199760,-0.0027058597,-0.0113287391,0.0167272221,-0.0042315321,0.0151620237,0.0245674141
4.3188648224,-0.0019509967,-0.0064727482,0.0088093411,-0.0159912519,0.0171814989,0.0245714094
4.3286309242,-0.0032095786,-0.0133317532,0.0037362112,-0.0213844217,0.0223845169,0.0160809867
4.3388180733,-0.0024828787,-0.0260631852,0.0112794768,-0.0320802107,0.0243717656,0.0097139012
4.3490490913,-0.0056229411,-0.0262078457,0.0109970104,-0.0256878473,0.0254743826,0.0075896969
4.3588399887,-0.0038491960,-0.0282631926,0.0175668132,-0.0266292766,0.0127053242,0.0033363623
4.3687410355,-0.0048882542,-0.0284020714,0.0173664819,-0.0254897345,0.0052670483,0.0001467608
4.3790459633,-0.0107426820,-0.0237267427,0.0083825719,-0.0254151691,-0.0021599750,0.0001430324
4.3890752792,-0.0068012653,-0.0229413919,0.0004123582,-0.0275350697,-0.0032338286,0.0012059666
4.3991761208,-0.0038411494,-0.0173103623,-0.0017670856,-0.0360731669,-0.0033222456,-0.0009155076
4.4091978073,0.0010883037,-0.0087941112,-0.0029803978,-0.0393351391,0.0019218520,-0.0062227212
4.4193449020,0.0040704729,-0.0041621146,-0.0032306181,-0.0307693481,-0.0012281348,-0.0125972638
4.4293680191,0.0041771950,-0.0082447352,0.0063250195,-0.0233563576,0.0040722881,-0.0232138894
4.4394001961,0.0063212933,-0.0181740932,0.0159312021,-0.0243350696,-0.0055830027,-0.0380836464
4.4494519234,0.0066626193,-0.0106657567,0.0118878614,-0.0147112049,-0.0076418924,-0.0412725173
4.4595203400,0.0011819724,-0.0060052690,0.0040656459,0.0034401026,-0.0085513610,-0.0423393771
4.4695839882,0.0074339332,-0.0080284895,-0.0025837289,0.0205561314,-0.0126246661,-0.0391611643
4.4796681404,0.0156657826,-0.0070325551,-0.0110550988,0.0334165394,-0.0177970584,-0.0359816141
4.4896230698,0.0101611437,0.0018186154,-0.0136853326,0.0366325155,-0.0187888183,-0.0296118669
4.5010318756,0.0055836262,0.0038853469,-0.0104691852,0.0313187130,-0.0209505074,-0.0285497978
4.5101351738,0.0009214107,0.0020123306,-0.0015007125,0.0131172575,-0.0147229051,-0.0253559370
4.5199890137,-0.0027651663,0.0058939639,0.0053930413,0.0035130996,-0.0148067949,-0.0253535397
4.5300211906,-0.0044963537,0.0057822051,0.0015127196,-0.0124919936,-0.0148903523,-0.0168559905
4.5401430130,-0.0082189320,0.0007313075,-0.0005547868,-0.0243289433,-0.0054784738,-0.0221572798
4.5501570702,-0.0159247387,-0.0004613815,-0.0007735358,-0.0276222900,0.0040909965,-0.0147190047
4.5601968765,-0.0178821255,0.0051957550,0.0028856529,-0.0308417864,0.0062265852,-0.0083463257
4.5700941086,-0.0208745468,0.0050386372,0.0084640514,-0.0340600535,0.0083830804,0.0012116258
4.5804190636,-0.0150885163,-0.0009645043,0.0111749303,-0.0276018903,0.0031616867,0.0054545738
4.5904259682,-0.0013563510,-0.0001061378,0.0004040136,-0.0103263641,-0.0168479066,0.0054398598
4.6004428864,0.0066184821,0.0075944248,-0.0199916232,0.0047423346,-0.0294356029,0.0075533446
4.6105451584,-0.0010867293,0.0056451145,-0.0296642054,-0.0027985116,-0.0220466629,0.0118066790
4.6206440926,0.0009239737,-0.0011697827,-0.0218582023,-0.0167271122,-0.0168974418,0.0065037925
4.6307702065,0.0049352469,-0.0032084403,-0.0150929559,-0.0220547915,-0.0180325489,0.0022571827
4.6408019066,0.0031028811,0.0103155551,-0.0093242992,-0.0071027391,-0.0189422835,0.0054383287
4.6507968903,-0.0007341977,0.0113095818,-0.0082945693,0.0131585104,-0.0166030303,0.0118065458
4.6609048843,0.0021975760,0.0027312818,-0.0071046813,0.0313028917,-0.0164030269,0.0181728341
4.6709680557,0.0021664028,-0.0057281074,0.0000579490,0.0441051871,-0.0163184702,0.0139220282
4.6809558868,0.0011904065,-0.0014213143,0.0083077680,0.0613171980,-0.0299693011,0.0128490403
4.6910791397,0.0032761816,0.0058607045,0.0079575907,0.0709511042,-0.0330747478,0.0117826443
4.7012147903,0.0024576013,0.0004414501,0.0007785691,0.0538967513,-0.0353666618,0.0086004334
4.7112922668,0.0045758011,-0.0051537571,-0.0095108617,0.0281643569,-0.0239605457,0.0022415367
4.7213602066,0.0007613425,-0.0031571803,-0.0191363562,0.0065975459,-0.0018728198,0.0011962460
4.7312779427,0.0056548538,0.0065927687,-0.0161830653,0.0033379169,0.0033917835,-0.0009252946
4.7414588928,0.0105207087,0.0114549575,-0.0093878377,-0.0062215002,-0.0009084227,0.0033221808
4.7515411377,0.0056054415,0.0103960214,-0.0095189679,-0.0254982579,0.0063557490,0.0043945028
4.7616147995,-0.0023455794,-0.0005037008,-0.0069243773,-0.0469478890,0.0167724378,0.0033433530
4.7716240883,-0.0005425985,-0.0095586600,0.0004215373,-0.0608227476,0.0166378133,0.0012228111
4.7816948891,0.0012605314,-0.0079912366,0.0057314765,-0.0661669150,0.0176799092,0.0054718843
4.7917900085,-0.0028178866,-0.0073666391,0.0022889508,-0.0544325225,0.0188624188,0.0086566918
4.8018331528,-0.0069193123,-0.0085046710,0.0058678519,-0.0255449452,0.0116939880,0.0097075757
4.8118801117,-0.0031177278,-0.0075740633,0.0047841207,-0.0083235605,-0.0029747025,0.0150032714
4.8219690323,0.0026818935,-0.0065949974,-0.0078588594,0.0023684995,-0.0050104228,0.0139377406
4.8320703506,0.0055877985,-0.0085021676,-0.0175363291,0.0045220647,-0.0071273027,0.0118122054
4.8421268463,0.0065600993,-0.0006559906,-0.0164913405,0.0109115206,-0.0060449941,0.0065021282
4.8520851135,0.0065607252,0.0013966145,-0.0183074344,0.0183818210,-0.0059870039,0.0054387944
4.8622570038,-0.0003195878,0.0034759226,-0.0143227447,0.0150717776,0.0045673698,0.0011977107
4.8723268509,-0.0062613366,0.0006522717,-0.0074567664,0.0096944030,0.0087786932,0.0033247110
4.8823680878,-0.0102445660,-0.0070684371,-0.0025540458,0.0075148717,0.0129694426,-0.0019816374
4.8921632767,-0.0054131923,-0.0176797323,-0.0005162822,0.0204167422,0.0035107601,-0.0051743016
4.9025697708,0.0024687473,-0.0165543370,-0.0002781020,0.0259020552,-0.0112897567,-0.0041212877
4.9126329422,-0.0052735982,-0.0115508260,-0.0020575391,0.0183990784,-0.0081715956,-0.0041182246
4.9226932526,-0.0061734198,-0.0173263364,-0.0077435244,0.0087597668,-0.0051140198,-0.0104850447
4.9327120781,-0.0021589573,-0.0144387307,-0.0057792529,-0.0158177745,-0.0021590427,-0.0126011251
4.9428367615,0.0008832638,-0.0058483300,-0.0078593362,-0.0169173926,0.0010077219,-0.0136610633
4.9528827667,0.0059043886,0.0037818733,-0.0020619498,-0.0029261839,-0.0105070546,-0.0083618397
4.9629211426,0.0060259225,0.0154445348,-0.0010596381,-0.0039565619,-0.0136370678,0.0011930502
4.9729580879,-0.0057139574,0.0057438794,0.0154718291,-0.0115645193,0.0000763480,-0.0009212333
4.9831151962,-0.0096487282,-0.0138111534,0.0202157628,-0.0287163425,0.0073126890,-0.0072840583
4.9931740761,-0.0047410307,-0.0140257897,0.0161081683,-0.0350969844,0.0051629189,-0.0030367819
5.0032472610,0.0001877669,-0.0113714160,0.0109397303,-0.0553308800,0.0007279569,-0.0051574567
5.0132322311,0.0041355314,-0.0059921560,0.0026644601,-0.0862835795,0.0015596619,0.0012221453
5.0233149529,0.0080318870,-0.0017606436,-0.0126898754,-0.1183261946,0.0045045856,0.0076025464
5.0333991051,0.0079574408,-0.0093535008,-0.0175320972,-0.1376461983,0.0148846554,-0.0019436874
5.0434408188,0.0059219720,-0.0073225913,-0.0167015661,-0.1483611614,0.0190216098,-0.0040624980
5.0534911156,0.0038817350,0.0044294181,-0.0100900996,-0.1334260106,0.0191466436,-0.0051294938
5.0635490417,0.0027859334,0.0096199093,-0.0002703534,-0.0833034441,0.0227608196,-0.0062022153
5.0736742020,0.0026763205,0.0180667825,0.0090089571,-0.0265699662,0.0063267206,0.0012082970
5.0837268829,0.0026632969,0.0102424202,0.0109002125,0.0012701852,-0.0029938105,-0.0009270257
5.0937747955,-0.0110474406,-0.0072431383,0.0021695031,0.0107370038,0.0108755995,-0.0019837015
5.1039133072,-0.0140679060,-0.0129535617,0.0012844934,0.0267252922,0.0131720435,0.0033223806
5.1139059067,-0.0073412536,-0.0155759873,0.0035590066,0.0556339584,0.0038887961,0.0054337345
5.1240062714,-0.0034815546,-0.0131506743,0.0060560834,0.0813750103,-0.0085918419,0.0096681602
5.1340370178,0.0004610840,-0.0077580032,0.0018620028,0.0857858360,-0.0223276280,0.0128463767
5.1440868378,0.0034626548,-0.0082725706,-0.0101710428,0.0687219054,-0.0235446915,0.0117883030
5.1541700363,-0.0003471251,-0.0147482576,-0.0213887561,0.0494005904,-0.0131641561,0.0022416033
5.1642489433,0.0036322598,-0.0067280945,-0.0171701778,0.0387719125,-0.0175013803,0.0022421358
5.1743121147,0.0066648843,0.0003000679,-0.0158679355,0.0334067382,-0.0143658407,0.0022459310
5.1844148636,0.0008542363,0.0014917435,-0.0097698439,0.0312506407,-0.0122694019,0.0011857266
5.1944489479,-0.0000587877,-0.0012166916,-0.0017176734,0.0259223487,-0.0133900587,-0.0009378782
5.2045850754,-0.0019777890,0.0008866968,0.0023811592,0.0205579437,-0.0102121085,0.0054358654
5.2143993378,-0.0049404381,-0.0018929659,0.0112631451,0.0077435574,-0.0092493761,0.0075634643
5.2247219086,0.0009239439,-0.0086390795,0.0152554642,-0.0007940046,-0.0093308687,0.0065037925
5.2347297668,-0.0000228163,-0.0076626358,0.0104171764,-0.0008492107,-0.0040536155,0.0022593134
5.2448081970,-0.0097965179,-0.0076907692,0.0064843427,-0.0094980933,0.0064126072,-0.0083512524
5.2548542023,-0.0117332814,-0.0087576928,0.0092903506,-0.0170042124,0.0094749760,-0.0168422088
5.2649269104,-0.0077394722,-0.0060274419,0.0081495177,-0.0276648458,0.0083207618,-0.0168400779
5.2749862671,-0.0047176955,-0.0072874245,0.0030042662,-0.0405372903,0.0145759955,-0.0168347526
5.2850861549,-0.0016806002,-0.0125299515,-0.0071034301,-0.0490450263,0.0112837953,-0.0221432317
5.2951068878,0.0072874250,-0.0080390396,-0.0200677980,-0.0382491797,-0.0002753227,-0.0189642832
5.3052592278,0.0073878588,-0.0024999199,-0.0223274101,-0.0393669084,0.0050549945,-0.0136523414
5.3152561188,0.0015695516,0.0001337113,-0.0187573899,-0.0393387340,0.0018875638,-0.0115320664
5.3253941536,0.0055211606,0.0008869948,-0.0073346961,-0.0329471454,0.0029975693,-0.0125949336
5.3353891373,0.0006931846,-0.0003188667,0.0001675023,-0.0340895094,0.0103941662,-0.0157760140
5.3455290794,-0.0002418335,0.0004413905,0.0067412388,-0.0212946199,0.0115670227,-0.0157786775
5.3555231094,0.0056855800,-0.0025967178,0.0134720933,-0.0083815632,0.0010542605,-0.0179100689
5.3656053543,0.0088008763,-0.0065612611,0.0066843163,0.0012865113,-0.0052278703,-0.0179156624
5.3755631447,0.0030989174,-0.0066092429,-0.0098143090,0.0108722392,-0.0029945434,-0.0136695188
5.3857560158,0.0032206003,-0.0055907783,-0.0184491742,0.0193906259,-0.0007633469,-0.0083615724
5.3957920074,0.0071610035,-0.0073975143,-0.0143599976,0.0214908216,0.0024532857,-0.0062380349
5.4058322906,0.0042505087,-0.0063171205,-0.0074283942,0.0097742444,0.0002356716,-0.0051743686
5.4159297943,-0.0025752659,-0.0073021469,-0.0045348275,-0.0094883200,0.0053376891,-0.0104753235
5.4259791374,-0.0064415811,-0.0084138336,-0.0007936822,-0.0159374308,0.0094773062,-0.0179042108
5.4361429214,-0.0033644314,-0.0056911525,-0.0038614140,-0.0083770892,-0.0000970240,-0.0317137651
5.4461288452,0.0008258645,0.0019614282,0.0019689335,-0.0018486157,-0.0128008351,-0.0359689631
5.4560079575,0.0031249349,0.0086836396,0.0040171873,0.0110410042,-0.0211694855,-0.0349152200
5.4662618637,0.0074346783,-0.0030060229,0.0042367708,0.0100361938,-0.0275656004,-0.0381035544
5.4763441086,0.0078657093,-0.0011182843,-0.0023916827,0.0152984131,-0.0200994946,-0.0391623601
5.4863982201,0.0033913974,0.0027409974,-0.0090232361,0.0259164348,-0.0147012677,-0.0391623601
5.4963431358,0.0017646973,0.0086562214,-0.0077928174,0.0323004611,-0.0124602169,-0.0296074729
5.5065340996,0.0029943709,0.0048687044,-0.0094457734,0.0322716981,-0.0092356615,-0.0232350603
5.5166168213,0.0021800522,0.0010903062,-0.0121337045,0.0246746317,0.0034522375,-0.0200417303
5.5267009735,0.0042699398,0.0001697721,-0.0139362682,0.0182825103,0.0023353077,-0.0200406648
5.5364980698,0.0063704075,0.0080042658,-0.0157492030,0.0258193910,-0.0039381012,-0.0157981832
5.5467710495,0.0064412178,0.0188127942,-0.0136521924,0.0236904584,-0.0038875011,-0.0051796278
5.5569372177,0.0094214799,0.0160412975,-0.0085639823,0.0226422921,-0.0060393349,-0.0083661005
5.5669350624,0.0085169794,0.0142073808,-0.0103337634,0.0226215199,-0.0039104042,-0.0073032333
5.5769052505,0.0046377005,0.0211608000,-0.0072516068,0.0268405788,0.0014589946,-0.0030538260
5.5870699883,0.0007134799,0.0184099264,0.0075078141,0.0203920007,0.0056055365,-0.0094209118
5.5972051620,-0.0031974490,0.0126651106,0.0154020917,0.0129008228,0.0076551717,-0.0104795853
5.6071848869,-0.0070842681,0.0068486515,0.0134747159,0.0011203298,0.0118035767,-0.0094127227
5.6172509193,-0.0129558919,-0.0000341950,0.0036709441,-0.0031899177,0.0160242207,-0.0072859880
5.6273741722,-0.0071205078,-0.0049532470,-0.0002732144,0.0000551445,0.0118220197,-0.0051653134
5.6374239922,-0.0022627588,-0.0030450043,-0.0110233892,0.0032824166,0.0097974855,0.0054505793
5.6475481987,0.0035232429,0.0008830609,-0.0188006032,0.0055279946,-0.0007315886,0.0150009412
5.6575331688,0.0014426832,0.0048390809,-0.0217051376,0.0086753713,0.0046016579,0.0150025394
5.6676111221,0.0032525186,0.0078940568,-0.0138475168,0.0183668807,-0.0037747826,0.0192430913
5.6777391434,0.0100236358,0.0177972503,-0.0117193330,0.0249106400,-0.0174843371,0.0234819092
5.6877222061,0.0050650658,0.0170488544,-0.0202494729,0.0355419777,-0.0131124910,0.0287903883
5.6977682114,0.0030032222,0.0057191434,-0.0160210598,0.0419096239,-0.0099222232,0.0213579740
5.7078800201,0.0067850174,0.0051008048,-0.0059159864,0.0450449660,-0.0035559377,0.0171131622
5.7180080414,0.0017662470,0.0045131627,0.0022351875,0.0524396822,0.0039009801,0.0118067451
5.7280273438,-0.0013167437,0.0029582563,0.0094021689,0.0481408089,0.0070674783,0.0149948150
5.7380371094,-0.0004856463,0.0013629379,0.0146024358,0.0427704901,0.0101835094,0.0118119391
5.7481379509,-0.0016364630,-0.0061703143,0.0109285247,0.0298914425,0.0175125301,0.0139424680
5.7582831383,0.0050117197,-0.0040586409,0.0032564534,0.0171420667,0.0121159665,0.0171288736
5.7682800293,0.0087517621,-0.0020038304,-0.0103126634,0.0054073795,0.0120619033,0.0245644189
5.7781710625,0.0025724594,-0.0058170971,-0.0123407710,-0.0064130872,0.0204960704,0.0320040248
5.7884211540,0.0139707448,-0.0076659736,-0.0065538748,-0.0105750747,0.0098487511,0.0319997668
5.7985162735,0.0107268216,0.0050154510,-0.0067111123,-0.0116063040,0.0066976985,0.0383695140
5.8085470200,-0.0081851659,0.0050215307,-0.0059685577,-0.0180740580,0.0129939439,0.0362507030
5.8186001778,-0.0134182451,-0.0066315350,0.0055331122,-0.0181451906,0.0192985106,0.0266968124
5.8285112381,-0.0127152083,-0.0046754298,0.0073359148,-0.0063780136,0.0161764883,0.0203214716
5.8386330605,-0.0139847277,0.0012338938,0.0043220054,0.0064536291,0.0142286513,0.0298734307
5.8486199379,-0.0093873320,-0.0015227018,0.0024360551,0.0139544224,0.0110970419,0.0277463645
5.8589220047,-0.0096586226,-0.0129959406,-0.0042779315,0.0181805398,0.0153711475,0.0266858935
5.8689508438,-0.0050388752,-0.0156955533,-0.0031875239,0.0203787126,0.0090237707,0.0266821664
5.8790040016,-0.0023573812,-0.0115565481,0.0018406047,0.0257883929,0.0016364276,0.0256153028
5.8891210556,-0.0034906443,-0.0132783474,0.0000739230,0.0226413347,-0.0036827042,0.0277370438
5.8991222382,-0.0036396261,-0.0111376466,-0.0017310844,0.0162147265,-0.0016370635,0.0245539658
5.9092879295,-0.0047950922,-0.0100146951,0.0031997098,0.0022973139,0.0024580795,0.0203123502
5.9193220139,-0.0020126577,-0.0031785783,0.0060674087,-0.0062376652,0.0023827783,0.0203152131
5.9294199944,0.0056965472,-0.0021909294,0.0050674807,-0.0072424747,-0.0040133353,0.0171268769
5.9393463135,0.0095567228,0.0007541957,0.0031314029,-0.0060981158,-0.0113964174,0.0224318933
5.9494819641,0.0065578939,-0.0050478992,-0.0046455730,-0.0007965602,-0.0081944987,0.0181849506
5.9595222473,0.0064965310,-0.0127544822,-0.0006788836,0.0056114849,-0.0092545692,0.0096880011
5.9696102142,0.0074682059,-0.0067900834,0.0101566445,0.0206018854,-0.0144637134,0.0043725986
5.9796729088,0.0085739614,0.0031011286,0.0045743715,0.0335233286,-0.0260295551,0.0033014750
5.9897961617,0.0047999145,0.0023408714,-0.0057940348,0.0398302302,-0.0164245982,0.0033046708
5.9997930527,-0.0010080214,0.0025588456,-0.0113483537,0.0387132168,-0.0111372247,0.0022471962
6.0098872185,0.0048962058,0.0037757936,-0.0139523614,0.0398266837,-0.0153234480,0.0096774157
6.0199422836,0.0077907862,0.0098878918,-0.0175188649,0.0376406014,-0.0099735567,0.0192356333
6.0300259590,0.0027324681,0.0072846594,-0.0123988856,0.0311669912,-0.0025539896,0.0266735759
6.0401029587,0.0025099341,-0.0021369872,-0.0043874253,0.0215852037,-0.0047460375,0.0287985131
6.0502419472,0.0013123874,-0.0087155523,0.0045256745,0.0119805131,-0.0048368513,0.0277391076
6.0601348877,-0.0028017636,-0.0114929499,0.0113746058,0.0044522891,0.0003620386,0.0213721544
6.0703678131,-0.0049003242,-0.0104391398,0.0143065583,0.0012812633,-0.0028697075,0.0181859471
6.0803570747,-0.0020587917,0.0003353538,0.0104432236,0.0056086886,-0.0081038848,0.0234922972
6.0904941559,-0.0031854387,0.0091955243,0.0017164482,0.0054936400,0.0035948497,0.0277453642
6.1003961563,-0.0033957835,0.0014990153,-0.0060564145,0.0000898456,0.0099015478,0.0256251562
6.1106128693,0.0012715880,-0.0032955823,-0.0090000499,-0.0042111594,0.0130403489,0.0245660171
6.1207919121,0.0010023837,-0.0022752103,-0.0081242193,-0.0127760982,0.0161615741,0.0266944170
6.1308751106,-0.0012625630,0.0006292643,-0.0034695731,-0.0276706256,0.0118216872,0.0320050232
6.1433792114,-0.0045022843,-0.0072104153,0.0021186008,-0.0340895094,0.0127931414,0.0266971439
6.1508679390,-0.0028339799,-0.0121951522,0.0057156216,-0.0351358652,0.0106548900,0.0256345440
6.1610889435,-0.0001345750,-0.0035505709,0.0083646905,-0.0265222155,0.0033017022,0.0256294180
6.1708650589,0.0026447896,-0.0045904336,0.0052964222,-0.0200347565,-0.0051373225,0.0245617572
6.1808819771,0.0035318260,-0.0007336555,0.0032612218,-0.0092968121,-0.0113968831,0.0266801007
6.1913971901,0.0014776711,-0.0036083278,-0.0064723957,0.0013515716,-0.0092024384,0.0234930962
6.2014641762,0.0004038636,-0.0024976549,-0.0073460802,0.0131312925,-0.0133434534,0.0234875698
6.2111730576,-0.0026167508,-0.0022934494,-0.0013372765,0.0248686410,-0.0132547710,0.0213610362
6.2212839127,-0.0017183896,-0.0059236106,0.0008847846,0.0302782133,-0.0206136163,0.0245405827
6.2314372063,-0.0007464762,-0.0056522903,-0.0046236981,0.0388477333,-0.0237151347,0.0255986582
6.2414817810,-0.0056735156,-0.0063044247,-0.0091318954,0.0452514105,-0.0236524176,0.0266589969
6.2515163422,-0.0027760144,-0.0107882442,-0.0115981568,0.0495731868,-0.0289201494,0.0266552679
6.2614688873,-0.0047530113,-0.0103908004,-0.0033902393,0.0421025977,-0.0289993770,0.0245336592
6.2716703415,-0.0086898087,-0.0119992318,-0.0000982152,0.0356572121,-0.0248112921,0.0245373882
6.2817077637,-0.0117093800,-0.0194586329,0.0011960401,0.0334086530,-0.0131314658,0.0287912544
6.2918000221,-0.0147821782,-0.0191447549,0.0063405172,0.0355429128,-0.0131128244,0.0287907217
6.3017401695,-0.0159039963,-0.0139356079,0.0144151580,0.0323528163,-0.0141735598,0.0330376662
6.3119020462,-0.0150910793,-0.0117206397,0.0195197593,0.0163347032,-0.0132592972,0.0319803916
6.3220081329,-0.0043958304,-0.0183687024,0.0129024517,0.0067915847,-0.0197864398,0.0203008316
6.3320689201,0.0093229236,-0.0065868911,0.0111252200,0.0058315150,-0.0303988699,0.0213575736
6.3421010971,0.0172185134,-0.0026110825,-0.0003919469,0.0037293751,-0.0335934646,0.0224181786
6.3520660400,0.0163461398,-0.0054845628,-0.0128985513,0.0047501642,-0.0293885991,0.0149874259
6.3622779846,0.0095921876,-0.0093186321,-0.0166807044,0.0047006831,-0.0251990482,0.0064942054
6.3723521233,0.0068302872,-0.0015019594,-0.0194810499,0.0078994054,-0.0252057053,0.0011843949
6.3822779655,0.0020807211,0.0083042560,-0.0144836772,0.0164041836,-0.0219693668,-0.0020010786
6.3925142288,-0.0016945775,0.0005908193,-0.0007158385,0.0024958253,-0.0189559981,-0.0094286343
6.4025897980,-0.0035054262,-0.0023389277,0.0109989773,-0.0114056896,-0.0158810467,-0.0072992379
6.4126491547,-0.0043572662,0.0004322710,0.0050677191,-0.0178851597,-0.0085376464,-0.0115411207
6.4226322174,-0.0022859152,0.0002656760,0.0030117168,-0.0168124139,-0.0095875310,-0.0115437172
6.4327502251,0.0056844177,-0.0008324204,-0.0057835449,-0.0082775140,-0.0095406594,-0.0157930553
6.4427928925,0.0048498930,-0.0018655477,-0.0077222451,-0.0018921047,-0.0073712487,-0.0168537945
6.4528479576,0.0040285112,0.0010053696,-0.0096292365,0.0045234505,-0.0083486289,-0.0126087163
6.4628000259,-0.0007024880,-0.0019151984,-0.0115105975,0.0109344777,-0.0093599642,-0.0136733139
6.4730110168,-0.0034899588,-0.0067986068,-0.0114487875,0.0023335330,-0.0030685123,-0.0136679877
6.4830780029,-0.0053653000,-0.0038827476,-0.0084980596,0.0097760027,0.0002137003,-0.0083585773
6.4931449890,-0.0013725634,0.0069156471,-0.0073777302,0.0270045251,-0.0144219669,0.0022477284
6.5029840469,-0.0023242410,0.0061568203,-0.0003077851,0.0258710831,-0.0080715269,0.0011887227
6.5133318901,-0.0091819344,-0.0044403491,0.0027337207,0.0011987602,0.0044392049,0.0001394372
6.5233139992,-0.0092332838,-0.0103157582,0.0084855687,-0.0191432629,0.0105935037,-0.0051613189
6.5333971977,-0.0043890653,-0.0094744982,0.0122100245,-0.0213110764,0.0137370992,-0.0083445944
6.5433750153,0.0005203311,-0.0028385338,0.0091223251,-0.0212241784,0.0052484730,-0.0083482573
6.5535879135,0.0015468721,-0.0020063338,0.0099434387,-0.0201357417,0.0031357873,-0.0083495891
6.5635809898,0.0094782533,-0.0041022715,0.0020930900,-0.0104507599,-0.0052881241,-0.0115426518
6.5736498833,0.0154893519,-0.0061615524,-0.0057113040,-0.0061470922,-0.0083923042,-0.0051745018
6.5836291313,0.0156155648,-0.0120516839,-0.0105700959,0.0023870347,-0.0083380435,-0.0083625056
6.5937328339,0.0187110733,-0.0140209617,-0.0153562892,0.0077317329,-0.0093732141,-0.0115497764
6.6038599014,0.0119943442,0.0005635204,-0.0143507589,0.0077111465,-0.0072443485,-0.0104868421
6.6139321327,0.0023034934,0.0083694039,-0.0065300334,0.0055662366,-0.0062019881,-0.0104857767
6.6239480972,0.0063335719,0.0054195705,-0.0026132332,-0.0029781433,-0.0052523050,-0.0157899931
6.6340551376,0.0064394297,0.0024187746,-0.0065277088,-0.0019642767,0.0000620331,-0.0157875977
6.6441230774,0.0035913412,0.0062803808,-0.0026496516,0.0023125997,-0.0009466389,-0.0136667890
6.6541433334,-0.0002628144,0.0033915224,0.0081027877,0.0023983540,-0.0094277412,-0.0126092480
6.6642417908,-0.0060904501,-0.0004606662,0.0198264252,0.0012165764,0.0022544141,-0.0094173830
6.6743321419,-0.0109736202,-0.0043494520,0.0236952435,-0.0030386234,0.0011907476,-0.0041078385
6.6844611168,-0.0050549982,-0.0111874761,0.0247128140,-0.0018804939,-0.0083899079,-0.0104843117
6.6944313049,-0.0019374068,-0.0092943730,0.0121112000,0.0099133141,-0.0135646956,-0.0062426953
6.7059540749,0.0061007263,0.0023952308,-0.0032852159,0.0197021104,-0.0314693265,0.0011784028
6.7149062157,0.0072782757,0.0005586328,-0.0147065986,0.0239711571,-0.0314251184,0.0022391398
6.7253332138,0.0074694874,-0.0042080698,-0.0212781895,0.0101440521,-0.0357842483,0.0033031392
6.7353920937,0.0056621553,-0.0022304473,-0.0250564683,0.0004461510,-0.0262914114,0.0075575388
6.7449922562,-0.0050440310,0.0026557031,-0.0163025726,0.0003468152,-0.0167126860,0.0118075451
6.7552552223,-0.0080140708,0.0066338363,-0.0016641484,0.0025162259,-0.0198355075,0.0181762278
6.7647571564,-0.0110290525,0.0058021131,0.0159523617,0.0077908025,-0.0134381298,0.0160558857
6.7750282288,-0.0149934469,-0.0047800359,0.0257846247,0.0067194127,-0.0135028437,0.0075617339
6.7848920822,-0.0120059727,-0.0076095876,0.0259310137,0.0153301843,-0.0208834615,0.0033091316
6.7950310707,-0.0079340814,-0.0084847631,0.0222571623,0.0153823830,-0.0262023266,0.0011828637
6.8050360680,-0.0038258310,-0.0083912434,0.0049983989,0.0208364837,-0.0377703011,0.0096690264
6.8151640892,0.0012472693,-0.0033898172,-0.0034801827,0.0102312425,-0.0442018323,0.0139157036
6.8249940872,0.0024221663,-0.0014008699,-0.0140189398,-0.0004714690,-0.0411051102,0.0149817662
6.8352832794,0.0006678526,-0.0052765426,-0.0197253097,-0.0036414303,-0.0443230085,0.0139191654
6.8453187943,0.0047878744,0.0053935829,-0.0196275581,-0.0036393795,-0.0443237424,0.0139198974
6.8554320335,0.0010263447,0.0034338417,-0.0176260341,-0.0101593304,-0.0327086300,0.0139273545
6.8653402328,-0.0008641656,-0.0014337717,-0.0000958310,-0.0112768728,-0.0285280664,0.0054340679
6.8757038116,0.0012191061,-0.0092485370,0.0067626368,-0.0081202276,-0.0242837854,0.0011881901
6.8859200478,0.0043414356,-0.0004770575,0.0117191207,0.0111872656,-0.0337017886,-0.0041282787
6.8956379890,0.0095202448,0.0083922921,0.0013278855,0.0369309783,-0.0461478047,0.0054151593
6.9056081772,0.0107567133,0.0057755294,-0.0117733348,0.0625071228,-0.0427400246,0.0054093003
6.9157710075,0.0158955883,-0.0054575619,-0.0159685481,0.0699972659,-0.0448106341,0.0032827661
6.9260411263,0.0122108283,0.0018137874,-0.0211561788,0.0773821548,-0.0362147465,0.0096549122
6.9360890388,0.0006162052,0.0081573306,-0.0215085614,0.0751616135,-0.0277592111,0.0075361007
6.9460721016,-0.0062039075,0.0047345343,-0.0073541268,0.0473464951,-0.0205620192,0.0096716899
6.9562110901,-0.0071506379,0.0030174437,-0.0041696895,0.0152596636,-0.0133938547,0.0128688151
6.9662861824,-0.0121263145,-0.0018238841,-0.0032230483,-0.0179723520,0.0011790298,0.0139454631
6.9763689041,-0.0132665215,-0.0077853617,0.0043310057,-0.0425701067,0.0062627383,0.0128924493
6.9863901138,-0.0124390898,-0.0138530554,0.0146828424,-0.0542848445,0.0040017804,0.0075871004
6.9965343475,-0.0095651327,-0.0102500143,0.0182094704,-0.0552459843,-0.0066244984,0.0065202378
7.0065393448,-0.0085722385,-0.0086471261,0.0061624777,-0.0562908985,-0.0087490352,0.0075813746
7.0165967941,-0.0055982349,-0.0089770975,-0.0039104093,-0.0509435348,-0.0097495848,0.0097031146
7.0266480446,-0.0006761428,-0.0073185381,-0.0100393165,-0.0444659032,-0.0170994438,0.0128827291
7.0367412567,-0.0006564434,-0.0055652079,-0.0131797660,-0.0306353085,-0.0127273314,0.0139432000
7.0468211174,-0.0006557282,-0.0105377259,-0.0142620075,-0.0178288594,-0.0126086883,0.0150019396
7.0568819046,-0.0017026837,-0.0105411233,-0.0084615815,-0.0051303757,-0.0018937257,0.0139422677
7.0669169426,0.0011937742,-0.0036040959,0.0052538645,0.0185255781,-0.0197463594,0.0107418140
7.0770921707,0.0100990953,-0.0053450284,0.0123791825,0.0367812812,-0.0312935561,0.0054224161
7.0870881081,0.0083624246,-0.0177340321,0.0030887856,0.0517248102,-0.0323140807,-0.0083852746
7.0971660614,0.0096408250,-0.0155308070,-0.0032503472,0.0517221466,-0.0323487036,-0.0136942863
7.1071090698,0.0129269483,-0.0153201045,-0.0105926860,0.0410193540,-0.0303802937,-0.0232487097
7.1172752380,0.0113283815,-0.0073868451,-0.0111982692,0.0345846266,-0.0272532105,-0.0232455134
7.1273632050,0.0097129764,-0.0004487453,-0.0108909477,0.0346074477,-0.0293828752,-0.0243076496
7.1374449730,0.0100636007,-0.0003197012,-0.0105507243,0.0281945579,-0.0283708721,-0.0232437160
7.1472272873,0.0025044207,-0.0080619873,-0.0016181336,-0.0017528748,-0.0211645588,-0.0168604534
7.1576180458,0.0017336134,-0.0101252617,0.0119732153,-0.0252414234,-0.0203224681,-0.0189776663
7.1676101685,0.0009676639,-0.0093405070,0.0157496464,-0.0273545086,-0.0224274956,-0.0136701846
7.1777482033,0.0031690721,-0.0114853801,0.0078919064,-0.0198649019,-0.0245050285,-0.0168585218
7.1877388954,-0.0024557288,-0.0155906500,-0.0009736882,-0.0295524411,-0.0160944313,-0.0157895964
7.1978778839,-0.0012939151,-0.0119906487,-0.0070576537,-0.0435204543,-0.0066596521,-0.0147195375
7.2079248428,-0.0001789506,-0.0074574766,-0.0093110073,-0.0435846895,-0.0003077467,-0.0168396793
7.2179760933,0.0028459851,-0.0009875713,-0.0018578635,-0.0489320494,0.0006928029,-0.0189614203
7.2279891968,0.0019915525,0.0054695788,-0.0012647377,-0.0542915836,0.0027620126,-0.0200215578
7.2381181717,-0.0047499714,0.0020936313,-0.0027122365,-0.0640278384,0.0153547693,-0.0285071880
7.2481632233,-0.0056348024,0.0006168070,0.0035527481,-0.0735928416,0.0110067595,-0.0316929966
7.2582798004,0.0024041359,0.0069054547,0.0108546745,-0.0638214424,-0.0059269494,-0.0380747281
7.2682061195,0.0105970623,0.0170625038,-0.0051121581,-0.0583334342,-0.0206999704,-0.0327743031
7.2784223557,0.0031727378,0.0068202796,-0.0220088828,-0.0594761968,-0.0132961161,-0.0348939151
7.2884202003,0.0015384082,0.0014540734,-0.0282674897,-0.0648683757,-0.0069579924,-0.0317019150
7.2985620499,0.0076674344,0.0058692875,-0.0266941655,-0.0498747863,-0.0121255908,-0.0306465067
7.3084559441,0.0069272043,0.0075086537,-0.0220554937,-0.0242839623,-0.0097091049,-0.0200353395
7.3186740875,0.0061049582,0.0180532522,-0.0192494262,-0.0114608426,-0.0105682407,-0.0062356377
7.3286919594,0.0032537703,0.0073214951,-0.0173042882,0.0012947675,-0.0051454455,-0.0051733693
7.3388180733,0.0013539616,0.0034495178,-0.0114184488,0.0119543355,-0.0040050796,-0.0072991047
7.3487429619,0.0073139789,0.0044849697,-0.0170990098,0.0258310549,-0.0049710078,-0.0115519073
7.3588628769,0.0104016485,0.0133900819,-0.0217060912,0.0418710075,-0.0080003534,-0.0094338944
7.3689918518,0.0056219818,0.0263067074,-0.0242963899,0.0535899550,-0.0057693571,-0.0083734905
7.3790268898,0.0017877345,0.0295290537,-0.0268260110,0.0535590611,-0.0025724987,-0.0062482879
7.3890838623,-0.0040677367,0.0181837864,-0.0215789545,0.0491411202,0.0122230258,-0.0094247069
7.3991770744,-0.0080469130,0.0106519638,-0.0106350649,0.0320052765,0.0184676051,-0.0051700408
7.4092302322,-0.0111406622,0.0040473524,-0.0007511245,0.0244620033,0.0258574113,-0.0009175714
7.4193668365,-0.0142668663,-0.0045322594,0.0051821601,0.0201753806,0.0279836785,0.0054553729
7.4293570518,-0.0145344911,-0.0034128842,0.0042261016,0.0158567447,0.0333072059,0.0139531204
7.4394807816,-0.0050394712,-0.0003545103,0.0003714098,0.0180581138,0.0270013735,0.0203202050
7.4494810104,0.0074168863,0.0037255469,-0.0072979792,0.0234715752,0.0196482521,0.0245627556
7.4595360756,0.0080824913,-0.0000081477,-0.0111663211,0.0009915661,0.0269349273,0.0330664963
7.4694538116,0.0067212405,-0.0087454142,-0.0093922485,-0.0321145095,0.0287337601,0.0277664028
7.4797301292,0.0014529650,-0.0089200558,-0.0069154366,-0.0503542349,0.0380897075,0.0224667136
7.4897651672,-0.0047954796,0.0093091307,-0.0035638676,-0.0492303520,0.0328069963,0.0245882552
7.4998731613,-0.0041664718,0.0179186054,0.0038449897,-0.0288371965,0.0213199854,0.0256391373
7.5099048615,-0.0044529019,0.0081674038,0.0036666526,-0.0095873354,0.0172797032,0.0309398938
7.5200471878,-0.0047261594,0.0004354896,-0.0032210813,0.0010823524,0.0173521414,0.0277518239
7.5300312042,-0.0060218154,-0.0130715789,-0.0080951322,0.0095771700,0.0216634665,0.0266903546
7.5401678085,-0.0014288600,-0.0167543106,-0.0128636230,0.0288595222,0.0143972971,0.0256200302
7.5500960350,0.0071092071,-0.0105684223,-0.0096596349,0.0481773205,0.0039611007,0.0266725775
7.5603051186,0.0147676589,0.0015332283,-0.0170338023,0.0663723052,-0.0011785338,0.0277271904
7.5702981949,0.0126052024,0.0059114876,-0.0233929623,0.0684023798,0.0094706491,0.0309176557
7.5804471970,0.0093617560,0.0044651213,-0.0161768068,0.0587332398,0.0157389306,0.0287996456
7.5903520584,0.0070605399,0.0068463865,-0.0071240533,0.0447644815,0.0251739770,0.0298694372
7.6005620956,0.0017376665,0.0130440174,0.0008078350,0.0255178139,0.0293056052,0.0383707769
7.6106328964,-0.0066072522,0.0064988914,0.0085714590,0.0019055363,0.0429280736,0.0436927080
7.6206588745,-0.0121048270,-0.0060362634,0.0132197272,-0.0280491672,0.0500871837,0.0426420905
7.6307821274,-0.0117772399,-0.0129532041,0.0195665490,-0.0589949675,0.0498165414,0.0426501445
7.6408419609,-0.0133832274,-0.0142068686,0.0188963544,-0.0803583115,0.0517590493,0.0437183380
7.6509180069,-0.0139725087,-0.0165197067,0.0191099774,-0.0930605829,0.0410098657,0.0394686013
7.6609821320,-0.0066292463,-0.0111574950,0.0163663756,-0.1035731435,0.0249877572,0.0373396687
7.6710052490,0.0028268818,-0.0049006757,-0.0019254552,-0.0970535874,0.0133799035,0.0383936837
7.6810512543,0.0015752439,-0.0005652723,-0.0202023853,-0.0927429944,0.0091662491,0.0373286828
7.6910901070,0.0052229287,-0.0000231085,-0.0228013862,-0.0840967447,-0.0013915203,0.0341373533
7.7012128830,0.0050114514,0.0005744877,-0.0252989400,-0.0680567920,-0.0044208658,0.0362553634
7.7111577988,0.0077135088,0.0003796997,-0.0217670072,-0.0371687114,0.0011492689,0.0351867676
7.7213430405,0.0015380208,0.0013549508,-0.0151576269,-0.0073716668,0.0099329073,0.0404925868
7.7313880920,-0.0008131738,0.0016098203,0.0033877029,0.0289432518,0.0070594889,0.0394205302
7.7415041924,-0.0001465853,-0.0086233439,0.0164135229,0.0620870888,0.0009685734,0.0372854732
7.7514200211,-0.0004220184,-0.0061096963,0.0169305932,0.0791598186,0.0011253005,0.0383423492
7.7616510391,-0.0065249680,-0.0132617773,0.0087631475,0.0866281167,0.0011697753,0.0351550803
7.7716751099,-0.0028411027,-0.0116541805,0.0084200036,0.0802920908,-0.0052602943,0.0340928733
7.7816858292,0.0018288617,-0.0100787701,0.0022172465,0.0770491511,-0.0010303955,0.0362194106
7.7915320396,-0.0003177699,-0.0046865758,-0.0070309504,0.0632147267,-0.0054224804,0.0319727324
7.8018450737,-0.0034527655,0.0025555077,-0.0124888886,0.0503473952,0.0008593838,0.0362263359
7.8119373322,-0.0047315536,0.0029400173,-0.0112473238,0.0300416201,0.0038789422,0.0383567996
7.8220138550,-0.0041064201,-0.0084155621,0.0006039275,0.0161146186,0.0090489369,0.0362393185
7.8320460320,-0.0083678840,-0.0101946415,0.0044859778,0.0000327742,0.0163291544,0.0351853035
7.8421249390,-0.0067636846,-0.0130071463,0.0131530892,-0.0159666985,0.0150867896,0.0288179535
7.8522281647,-0.0031491693,-0.0081141414,0.0217817556,-0.0084434804,0.0098327715,0.0266902205
7.8622522354,0.0044426443,-0.0031610546,0.0217620265,0.0044371644,0.0025245252,0.0277450979
7.8722290993,0.0150603177,-0.0049422798,0.0160740744,0.0194577649,-0.0058456566,0.0256123058
7.8824639320,0.0100660147,-0.0057273922,0.0016341342,0.0300635379,0.0005928015,0.0224274322
7.8925228119,0.0059848549,-0.0074123559,0.0028295650,0.0321547315,0.0048271609,0.0181824211
7.9025921822,0.0078069689,-0.0071442542,0.0049999487,0.0279053915,0.0026401731,0.0139352102
7.9125041962,0.0038001959,-0.0089453282,-0.0026855336,0.0149853053,0.0130914152,0.0065095853
7.9227261543,0.0056832256,-0.0088868560,-0.0055636037,0.0044077616,0.0034214777,0.0022602454
7.9327878952,0.0105790021,-0.0020858464,-0.0152786244,0.0055003506,0.0012930796,0.0001371736
7.9428548813,0.0027192358,-0.0059745726,-0.0211447347,0.0054023466,0.0108144134,-0.0041052420
7.9527769089,0.0006795053,-0.0059487042,-0.0065968502,-0.0031443760,0.0117933908,-0.0051638489
7.9629611969,-0.0003916200,-0.0020571765,0.0098637473,-0.0063127391,0.0085962657,-0.0030410429
7.9730200768,-0.0062752841,-0.0030617532,0.0166052710,-0.0052539743,0.0085516581,-0.0115371924
7.9830632210,-0.0111625670,-0.0041051325,0.0174957048,-0.0052848663,0.0117485169,-0.0094119897
7.9931101799,-0.0140788434,-0.0129329981,0.0135323536,-0.0010430627,0.0138599370,-0.0168452058
8.0032348633,-0.0101110218,-0.0158946328,0.0076929461,0.0043453109,0.0085946023,-0.0179110020
8.0132598877,-0.0021836932,-0.0169073157,-0.0019787417,0.0076170573,0.0022755861,-0.0147278598
8.0233850479,0.0008752767,-0.0198791437,-0.0116887558,-0.0041229548,0.0021522818,-0.0179103352
8.0334701538,0.0010013108,-0.0189885907,-0.0165748466,0.0012087999,0.0021931615,-0.0189746693
8.0434894562,0.0001017872,-0.0093334736,-0.0136979092,0.0043563899,0.0075192172,-0.0200346075
8.0535364151,0.0011541967,-0.0015295563,0.0019142760,0.0119013917,0.0001643654,-0.0189783983
8.0636377335,0.0032827978,-0.0005264697,0.0078797471,0.0204868894,-0.0051284009,-0.0285394117
8.0735683441,-0.0052996753,-0.0034360704,0.0079806577,0.0172225460,0.0012021993,-0.0295966864
8.0838060379,-0.0060455678,-0.0131415548,0.0081585776,0.0236540809,-0.0019664299,-0.0359706953
8.0937938690,0.0000910882,-0.0130791487,0.0142293107,0.0269228704,-0.0082915043,-0.0338502228
8.1039724350,-0.0025543447,-0.0090873064,0.0164200198,0.0343698710,-0.0061250227,-0.0370364301
8.1136636734,-0.0061392961,-0.0119708600,0.0118048321,0.0237063058,-0.0072924187,-0.0391585641
8.1239938736,-0.0067990003,-0.0139487805,0.0061023370,0.0065454282,0.0010256981,-0.0423354506
8.1341037750,-0.0075041829,-0.0131011428,0.0070683490,0.0001418842,0.0009771622,-0.0412725173
8.1441001892,-0.0033154364,-0.0113276066,0.0060770046,-0.0051388973,-0.0043536872,-0.0380884409
8.1541624069,0.0009104733,-0.0124896588,-0.0007616149,-0.0125844311,-0.0065135779,-0.0338401012
8.1642932892,0.0012269442,-0.0127467336,-0.0037852989,-0.0242812987,-0.0108739715,-0.0359629057
8.1744031906,0.0054674568,-0.0043130931,-0.0117511023,-0.0285690166,-0.0088042300,-0.0380832478
8.1844005585,0.0087289931,0.0070230546,-0.0158480275,-0.0232557431,-0.0066494658,-0.0402071178
8.1943712234,0.0149079086,0.0087341843,-0.0139796603,-0.0083624143,-0.0022878069,-0.0423333198
8.2045373917,0.0152158858,0.0124746142,-0.0120603312,0.0022769133,0.0009884139,-0.0423343852
8.2146701813,0.0184438061,0.0113943396,-0.0061710943,0.0107595082,0.0063328454,-0.0476423316
8.2246685028,0.0138562741,0.0016339602,0.0065850150,0.0214590244,0.0031945766,-0.0550792105
8.2347230911,0.0112731876,0.0036037746,0.0155562293,0.0332612991,-0.0030546640,-0.0529621318
8.2447443008,-0.0001250680,0.0065593305,0.0215889346,0.0279400386,-0.0041138032,-0.0455287173
8.2548904419,-0.0076135276,-0.0041630086,0.0120160114,0.0161493458,0.0011239024,-0.0402147099
8.2650032043,-0.0053919433,-0.0081502618,0.0052582156,-0.0030685561,0.0020309750,-0.0380857773
8.2749090195,-0.0041631637,-0.0054608998,-0.0065311063,-0.0265488755,0.0029626153,-0.0263990965
8.2851457596,-0.0059812842,-0.0018868862,-0.0136310924,-0.0393831804,0.0060753180,-0.0200234894
8.2951364517,-0.0088595329,-0.0012420831,-0.0140012372,-0.0458242223,0.0102974270,-0.0147101488
8.3052730560,-0.0058887480,0.0071883979,-0.0104670394,-0.0467177145,-0.0066464026,-0.0083475914
8.3152542114,-0.0097316084,0.0048945132,-0.0069597824,-0.0574144349,-0.0046090176,-0.0072837248
8.3253955841,-0.0096725700,0.0016115488,-0.0014955865,-0.0477586091,-0.0098509174,-0.0104741920
8.3353910446,0.0013019268,0.0003676596,-0.0055622924,-0.0188472811,-0.0191493444,-0.0104851108
8.3455429077,0.0005477790,0.0051940265,-0.0093746651,0.0239113681,-0.0262173750,-0.0126230959
8.3554515839,0.0048000934,0.0093022762,-0.0089207161,0.0668392628,-0.0502396859,-0.0115851965
8.3656740189,0.0061975243,0.0068429294,-0.0081444848,0.0924711227,-0.0521449149,-0.0126544554
8.3756818771,0.0026891951,0.0016472520,-0.0071835984,0.1160205007,-0.0582733788,-0.0073523680
8.3857164383,0.0089807035,-0.0004936872,-0.0089430679,0.1416891068,-0.0632992983,0.0011329959
8.3957061768,0.0025153283,0.0013912501,-0.0106222499,0.1491601616,-0.0631917715,0.0075012138
8.4057111740,-0.0030643817,-0.0024856147,-0.0064284671,0.1501346081,-0.0535918735,0.0138765546
8.4157876968,-0.0019274529,-0.0015348016,0.0035006537,0.1234185696,-0.0495185703,0.0234415643
8.4258260727,0.0001657132,-0.0036977348,0.0083215963,0.0902603492,-0.0424151197,0.0181445368
8.4361581802,-0.0036432024,-0.0022601304,0.0079324376,0.0474788547,-0.0332601033,0.0149749760
8.4461498260,-0.0025693949,-0.0059620556,0.0013952388,0.0057409937,-0.0219872110,0.0096822083
8.4562587738,-0.0025088664,-0.0050615487,0.0013420118,-0.0317547955,-0.0085745305,0.0012027707
8.4662685394,0.0004568521,-0.0005075154,-0.0019149648,-0.0585097149,-0.0014082312,-0.0030340522
8.4761600494,0.0083429934,0.0039456668,0.0034963025,-0.0712211430,-0.0110969450,-0.0072827265
8.4864044189,0.0074671032,0.0064035836,-0.0057157148,-0.0585104078,-0.0014222129,-0.0051575238
8.4965534210,0.0036048715,0.0060870233,-0.0109259952,-0.0307520349,-0.0022274861,-0.0030409095
8.5065803528,0.0075461389,0.0040481272,-0.0080771316,0.0002394356,-0.0061734924,0.0011964458
8.5166082382,0.0046229782,-0.0046363291,-0.0109035242,0.0235736817,0.0078260805,0.0011960464
8.5266838074,0.0025985066,-0.0054293689,-0.0068515409,0.0289311633,0.0057576029,0.0022554519
8.5368280411,0.0025265936,0.0015847267,-0.0037629472,0.0257028509,0.0089108516,0.0022596461
8.5467891693,-0.0004837390,0.0017345132,0.0021985902,0.0150320968,0.0088245654,0.0033241117
8.5567970276,0.0043339850,0.0046792212,0.0002513065,-0.0073774718,0.0086430050,0.0054529766
8.5669517517,0.0072267773,0.0016858758,-0.0095755924,-0.0126396120,0.0011555273,0.0033269746
8.5770759583,0.0081769051,-0.0033073840,-0.0135998596,-0.0255107507,0.0074102939,0.0033327669
8.5870866776,0.0120169939,-0.0005870280,-0.0157949794,-0.0382832699,0.0041292794,0.0054579694
8.5970592499,0.0119781913,0.0050209346,-0.0190213788,-0.0393828638,0.0072889202,0.0033364289
8.6072206497,0.0070107700,0.0067556682,-0.0173530448,-0.0287009254,0.0063211275,0.0033332331
8.6174316406,0.0177556109,0.0105146347,-0.0213947762,-0.0158225670,-0.0010218732,-0.0009207672
8.6273555756,0.0079561891,0.0123792468,-0.0186046232,-0.0063121542,0.0086387433,0.0033288389
8.6373291016,0.0000295166,0.0114270030,-0.0128288139,0.0011715423,0.0076489798,0.0043891761
8.6475238800,0.0028759961,0.0134678064,-0.0069217547,0.0182338823,0.0088452715,0.0022618433
8.6575670242,-0.0080219088,0.0107070981,-0.0019950734,0.0181383006,0.0184155405,0.0054515777
8.6676902771,-0.0062453924,0.0099200783,0.0029808416,0.0224499591,0.0142157357,0.0065101841
8.6776781082,-0.0064026890,0.0101002632,-0.0036939846,0.0288041811,0.0196105689,0.0118209943
8.6878061295,-0.0154983876,0.0113187013,-0.0045676101,0.0329816155,0.0292592011,0.0213809423
8.6978263855,-0.0139464615,-0.0019622860,0.0004751815,0.0275917500,0.0345748700,0.0298774913
8.7079629898,-0.0095184622,-0.0104970755,0.0034229888,-0.0001285598,0.0322589837,0.0373159647
8.7179527283,-0.0050839661,-0.0124047818,0.0012818708,-0.0246736389,0.0320449993,0.0373216942
8.7280788422,-0.0006627913,-0.0076334891,-0.0049104560,-0.0438670367,0.0308716111,0.0458203740
8.7380609512,0.0027481739,-0.0048895893,-0.0102369655,-0.0534781218,0.0318473950,0.0458246320
8.7482271194,0.0091264667,-0.0031180200,-0.0087375510,-0.0480817556,0.0254864339,0.0394492894
8.7580718994,0.0096860351,0.0045150700,-0.0091368426,-0.0363023579,0.0213313028,0.0373204276
8.7683086395,0.0083503844,0.0093196807,-0.0045648683,-0.0234675165,0.0182255246,0.0320066214
8.7783622742,0.0080225589,0.0044564190,-0.0057036746,-0.0106598968,0.0183295216,0.0309425574
8.7883987427,0.0018026356,-0.0070907292,-0.0018807517,0.0073939385,0.0269483086,0.0266950820
8.7983121872,0.0004543487,-0.0185666494,0.0078852307,0.0212500989,0.0281041209,0.0224436112
8.8086109161,0.0010993008,-0.0124372067,0.0080112349,0.0383470617,0.0261520240,0.0256236903
8.8186483383,-0.0011907096,-0.0159895234,0.0121074449,0.0351740345,0.0229067616,0.0203135479
8.8287000656,-0.0014729674,-0.0177007727,0.0122258794,0.0180994458,0.0227507018,0.0192560051
8.8386039734,-0.0036764618,-0.0107906880,0.0063395631,0.0021210387,0.0194006450,0.0150107276
8.8488149643,-0.0009285088,-0.0030288515,0.0052472483,-0.0180824995,0.0117619000,0.0097030476
8.8589534760,0.0009007875,0.0065365019,0.0069219009,-0.0425921828,0.0083423331,0.0065235673
8.8689680099,-0.0011094983,0.0042556706,0.0006886257,-0.0596715733,0.0081239548,-0.0040901955
8.8789358139,-0.0021092172,-0.0000572620,-0.0056423414,-0.0629071221,0.0112726763,-0.0051501999
8.8891391754,-0.0041114865,-0.0052971658,-0.0051376689,-0.0544356108,0.0176924933,-0.0083345417
8.8992033005,-0.0051615117,-0.0133747282,0.0042144191,-0.0405221358,0.0135560706,-0.0104640052
8.9092388153,-0.0081475256,-0.0106265368,0.0185677540,-0.0159558058,0.0116622970,-0.0083475914
8.9192905426,-0.0091411052,-0.0135977091,0.0282254349,-0.0030641099,0.0032857899,-0.0083547151
8.9293708801,-0.0041600643,-0.0135981860,0.0263336431,0.0141260624,-0.0082499590,-0.0104884394
8.9394855499,0.0019185964,-0.0106437625,0.0090215933,0.0345068611,-0.0186682437,-0.0083760200
8.9494819641,0.0080253305,-0.0036685881,-0.0003617869,0.0399703383,-0.0313536786,-0.0083837435
8.9595680237,0.0122678997,-0.0063837585,-0.0116084088,0.0442731008,-0.0345144533,-0.0105088130
8.9696979523,0.0096153142,-0.0051789102,-0.0189777482,0.0516902730,-0.0291372649,-0.0094462112
8.9797067642,0.0039667012,-0.0068238196,-0.0107430685,0.0420963392,-0.0302677751,-0.0073212748
8.9898033142,-0.0047006188,-0.0085609974,0.0041409861,0.0217058435,-0.0187461413,-0.0030631472
8.9997386932,-0.0124570606,-0.0094228210,0.0159343015,0.0077557820,-0.0114321709,-0.0019953528
9.0099792480,-0.0084480224,-0.0142407240,0.0287083518,0.0036129681,-0.0242291912,-0.0062478883
9.0200347900,-0.0062792180,-0.0123115601,0.0297775995,-0.0016782004,-0.0285204761,-0.0062480215
9.0300760269,-0.0050593195,-0.0036096391,0.0240069758,-0.0026590424,-0.0370039754,-0.0041284114
9.0400323868,0.0001064960,-0.0095259966,0.0124421250,-0.0047695180,-0.0391597375,-0.0062512839
9.0501747131,0.0072836699,-0.0096017541,-0.0049534906,-0.0005116556,-0.0380614474,-0.0062518166
9.0603208542,0.0085580172,0.0001127305,-0.0155032743,0.0112382108,-0.0389846377,-0.0009469329
9.0703086853,0.0078331055,0.0011785211,-0.0162363518,0.0208546184,-0.0399409793,0.0022355446
9.0801153183,0.0080447318,0.0062099877,-0.0100968946,0.0251366626,-0.0409372635,0.0064814221
9.0904598236,0.0062682452,-0.0013975321,-0.0049264301,0.0229587294,-0.0367257409,0.0043604812
9.1005477905,0.0025351171,-0.0041128215,-0.0016984211,0.0357411578,-0.0345054641,0.0022344794
9.1106395721,0.0066878619,-0.0048404154,0.0016333594,0.0454166867,-0.0418901443,-0.0041424595
9.1206140518,0.0079726102,0.0012304963,-0.0047159065,0.0454390571,-0.0439983048,-0.0020199204
9.1307859421,0.0111873867,-0.0014286457,-0.0139710177,0.0411284640,-0.0397846512,-0.0009549223
9.1408128738,0.0143743576,-0.0109103741,-0.0116083492,0.0314926170,-0.0367069654,-0.0041356683
9.1509246826,0.0136470022,-0.0048864302,-0.0064071286,0.0303700939,-0.0314389654,-0.0083799483
9.1608819962,0.0021356468,0.0089097200,-0.0022452937,0.0367283374,-0.0271241143,-0.0062568765
9.1710577011,-0.0035615738,0.0101077734,0.0039224159,0.0302941389,-0.0239901058,-0.0051918784
9.1811180115,-0.0063181398,0.0024218741,0.0011961593,0.0067409044,-0.0167746022,-0.0062445593
9.1911487579,-0.0110773919,0.0013762893,-0.0027032958,-0.0156986229,-0.0137596400,-0.0019901595
9.2010726929,-0.0119819520,-0.0007653651,-0.0048302282,-0.0434929729,-0.0086913779,-0.0009174382
9.2113018036,-0.0109584806,-0.0040229377,-0.0051776040,-0.0637902543,-0.0067533953,-0.0019731154
9.2213459015,-0.0089650927,-0.0044924435,-0.0144282449,-0.0766718835,0.0005694323,-0.0009051212
9.2314033508,-0.0070180176,-0.0010933696,-0.0208247770,-0.0745488107,0.0016421536,-0.0019669237
9.2413616180,-0.0040794788,0.0033402625,-0.0193751920,-0.0617614277,0.0038820049,-0.0009063196
9.2515382767,-0.0070680855,0.0069053355,-0.0100613702,-0.0500634946,0.0082562473,0.0033400909
9.2616291046,-0.0101224957,0.0008123102,-0.0075079068,-0.0415915027,0.0147470366,0.0107720420
9.2716712952,-0.0063955067,-0.0042307791,-0.0048638452,-0.0309612285,0.0191050321,0.0139569156
9.2816152573,0.0032087092,-0.0052789864,-0.0060145725,-0.0116528571,0.0097507462,0.0181952696
9.2918148041,0.0039933147,-0.0003634510,-0.0089777578,0.0075671766,0.0088713709,0.0203135479
9.3018550873,0.0028663997,-0.0079912366,-0.0069163903,0.0151115656,0.0014811654,0.0160614792
9.3119649887,0.0106293084,-0.0127264680,-0.0077646836,0.0044898139,-0.0039655315,0.0086288620
9.3219757080,0.0047658803,-0.0117745223,-0.0126428474,-0.0062595829,0.0033197452,0.0012027043
9.3320913315,0.0057685496,-0.0108662071,-0.0185413230,-0.0062521268,0.0022171964,-0.0051686419
9.3421592712,0.0107578756,-0.0021676836,-0.0185422767,0.0024122288,-0.0104543231,-0.0073005697
9.3522262573,0.0088952305,0.0056125703,-0.0204605926,0.0066285459,-0.0050981743,-0.0051753670
9.3621816635,0.0001041416,0.0037091556,-0.0175064672,0.0065552550,0.0023355074,-0.0041095698
9.3723583221,-0.0008903320,-0.0040019569,-0.0077206357,0.0044321828,0.0012627860,-0.0030477676
9.3824253082,0.0010309939,-0.0127106728,0.0078908335,-0.0020373799,0.0075454493,-0.0072904499
9.3924932480,-0.0058613895,-0.0176524334,0.0155323874,-0.0234454647,0.0137042757,-0.0104673347
9.4023408890,-0.0078420220,-0.0110225501,0.0211368334,-0.0276946742,0.0115314694,-0.0125912717
9.4126071930,-0.0029045518,0.0023598257,0.0131184589,-0.0308294799,0.0051721069,-0.0072846571
9.4226942062,0.0000733260,0.0089173494,-0.0046586860,-0.0276578404,0.0083894050,-0.0062214565
9.4327735901,0.0020676379,0.0057714763,-0.0194586981,-0.0244671069,0.0094783716,-0.0062217228
9.4426851273,0.0030173783,0.0133848963,-0.0216277707,-0.0319797806,0.0136998817,0.0001518873
9.4529047012,0.0009323482,0.0121922074,-0.0190249551,-0.0427245684,0.0210475437,0.0022818837
9.4630012512,-0.0002328630,0.0080495654,-0.0164968837,-0.0470454954,0.0263363142,0.0054707527
9.4730644226,-0.0014333602,0.0068468633,-0.0159361828,-0.0342490040,0.0275299437,0.0086534964
9.4829711914,-0.0016602154,-0.0029566106,-0.0102921594,-0.0043526525,0.0256420951,0.0043968996
9.4931993484,0.0040336968,-0.0019044696,0.0004270209,0.0171811339,0.0067235311,0.0033201836
9.5032138824,0.0059229853,0.0060531083,0.0015460385,0.0300260931,0.0036995120,0.0107493382
9.5134983063,-0.0029796239,0.0024013701,-0.0002176629,0.0342413448,0.0090418132,0.0107509354
9.5232830048,-0.0001603838,-0.0022275862,0.0010017289,0.0321278870,0.0068871160,0.0086269984
9.5334386826,0.0075737955,0.0067453566,0.0011953248,0.0257474855,0.0047230311,0.0107511347
9.5434923172,0.0015772108,0.0127473054,-0.0025865899,0.0192717426,0.0121149011,0.0139418682
9.5536079407,-0.0025227244,0.0080079017,-0.0045003165,0.0032562912,0.0130637847,0.0181936063
9.5634994507,0.0002193574,0.0031738463,-0.0055273641,-0.0116729634,0.0118509810,0.0150119262
9.5737466812,0.0030267064,0.0021273675,-0.0085829366,-0.0222936496,0.0064181332,0.0097029153
9.5837383270,0.0039359750,0.0039538327,-0.0175210703,-0.0158499181,0.0022235215,0.0086369850
9.5938758850,0.0029313092,0.0087539135,-0.0214937795,-0.0050689103,-0.0082517564,0.0149998087
9.6037712097,0.0009260599,0.0136981187,-0.0340795964,0.0226687640,-0.0068996693,0.0224257670
9.6139631271,-0.0011873122,0.0101075945,-0.0406280011,0.0503954664,-0.0045006936,0.0277289208
9.6239938736,-0.0004937823,0.0018992008,-0.0226530898,0.0747580677,0.0137721859,0.0309165921
9.6340970993,-0.0037770744,-0.0022573289,0.0003065600,0.0929099023,0.0128696412,0.0309115313
9.6440362930,-0.0021427746,0.0072660628,0.0126731526,0.1121648252,0.0088204378,0.0351524837
9.6541500092,-0.0093150614,0.0032479349,0.0173163544,0.1088787466,0.0172874257,0.0362193473
9.6643571854,-0.0087250350,-0.0066980538,0.0238032471,0.0864270777,0.0213141255,0.0330424607
9.6743774414,-0.0012646194,-0.0129343690,0.0213747155,0.0607728474,0.0253275093,0.0319891796
9.6843070984,0.0003185395,-0.0203289799,0.0157870185,0.0340061635,0.0335552134,0.0277524907
9.6944465637,0.0058467509,-0.0191780142,0.0022152795,-0.0022538425,0.0311301369,0.0298840832
9.7046136856,0.0044859173,-0.0201718025,-0.0009564029,-0.0375465862,0.0382363833,0.0277723297
9.7145967484,0.0020790820,-0.0174807720,0.0043665301,-0.0652610362,0.0347971767,0.0256540515
9.7244205475,0.0075688185,-0.0032406268,0.0095936786,-0.0758264065,0.0241083801,0.0277743936
9.7347307205,0.0053091468,-0.0056577143,0.0059576170,-0.0928924754,0.0228636190,0.0224691108
9.7447538376,-0.0038381096,-0.0169356279,0.0109326970,-0.1154208779,0.0342967696,0.0161103476
9.7549018860,-0.0021856304,-0.0215208344,0.0138769280,-0.1207618415,0.0341809206,0.0054936558
9.7649345398,-0.0004839774,-0.0192621164,0.0188213717,-0.0983301252,0.0322117135,-0.0008824179
9.7750434875,-0.0006331380,-0.0119697871,0.0230203997,-0.0640349984,0.0176282451,-0.0051456061
9.7850618362,0.0013112251,-0.0035243449,0.0168150794,-0.0265277568,0.0020401629,-0.0051636491
9.7952203751,0.0003997211,-0.0046353159,0.0069890157,-0.0050903745,-0.0073362947,-0.0072973734
9.8051328659,-0.0024137970,-0.0114914002,-0.0056505068,0.0055265827,-0.0019519157,-0.0094209788
9.8152952194,-0.0062672375,-0.0085559310,-0.0104770530,0.0108750090,-0.0029386166,-0.0051756334
9.8253555298,-0.0052296398,-0.0065285978,-0.0084043611,0.0151775051,-0.0060779513,-0.0041159615
9.8354835510,-0.0101055382,-0.0122675719,-0.0053744186,0.0129798651,0.0002763511,-0.0030504307
9.8453893661,-0.0032310958,-0.0131642045,-0.0013571249,0.0109178331,-0.0071898210,-0.0062392997
9.8556299210,0.0047047557,-0.0111263217,-0.0011684762,0.0227430668,-0.0155545436,-0.0030610834
9.8656253815,0.0058429064,-0.0041914401,-0.0067705973,0.0345011353,-0.0175805427,-0.0041272799
9.8757543564,0.0099043967,-0.0107814493,-0.0034853087,0.0387536697,-0.0165514965,-0.0147458352
9.8856544495,0.0130905034,-0.0096028866,0.0007789268,0.0398721173,-0.0218749568,-0.0189959072
9.8958768845,0.0094686868,0.0071191373,0.0040409695,0.0452061668,-0.0218491238,-0.0221826453
9.9058542252,-0.0010259624,0.0131626902,0.0102077853,0.0387734324,-0.0187085252,-0.0200555120
9.9160232544,-0.0036953266,0.0104011474,0.0105281007,0.0281032119,-0.0187878869,-0.0179292448
9.9260053635,-0.0064218817,-0.0021464643,0.0039527547,0.0194919333,-0.0114213172,-0.0158000477
9.9360971451,-0.0082102595,-0.0108912410,-0.0027359591,0.0044685090,-0.0030430127,-0.0126066515
9.9462251663,-0.0150312958,-0.0100177946,-0.0077084168,-0.0201645046,0.0063603427,-0.0019771769
9.9562063217,-0.0141516803,-0.0169586353,0.0018135442,-0.0372907631,0.0115300715,0.0001533520
9.9663267136,-0.0074177263,-0.0152315320,0.0092936885,-0.0436618440,0.0083125737,0.0033380934
9.9765424728,-0.0016296383,-0.0076844511,0.0119153988,-0.0371951573,0.0020024790,0.0033332997
9.9865531921,0.0022847180,0.0008553448,0.0107023846,-0.0243256390,-0.0042659361,0.0012037030
9.9966182709,0.0023293917,0.0065582576,0.0086065661,-0.0125328982,-0.0094545726,0.0033217149
10.0064554214,0.0023963575,0.0074706259,0.0085708033,-0.0124724712,-0.0158335753,0.0011940489
10.0166263580,0.0025246863,0.0024993601,0.0017276539,-0.0135864727,-0.0116542773,-0.0072979722
10.0267362595,0.0026867513,-0.0034808335,-0.0041569937,-0.0189246200,-0.0117284460,-0.0115439836
10.0367908478,0.0028436903,-0.0036483225,-0.0081668366,-0.0221798010,-0.0064583169,-0.0126023237
10.0466070175,0.0079176249,-0.0087005319,-0.0131076444,-0.0114352759,-0.0138343405,-0.0189788640
10.0569353104,0.0131005766,-0.0098017873,-0.0091934074,-0.0080975369,-0.0276271179,-0.0232337955
10.0669622421,0.0075450363,-0.0098786177,-0.0061970819,0.0057941233,-0.0296555795,-0.0274855997
10.0772647858,0.0049818577,-0.0127916159,0.0017909540,0.0293226205,-0.0347763076,-0.0306795277
10.0871067047,0.0064170184,-0.0028992114,0.0002673997,0.0561409704,-0.0482800007,-0.0221996233
10.0972242355,0.0009937708,0.0051961127,-0.0039949287,0.0742747039,-0.0470189936,-0.0158328041
10.1071481705,-0.0035293277,-0.0011579214,-0.0052332748,0.0837841853,-0.0373580456,-0.0115835313
10.1173286438,-0.0052146195,-0.0065026698,-0.0006514655,0.0730298087,-0.0289355312,-0.0073293978
10.1272926331,-0.0079629300,-0.0051420149,0.0057380926,0.0526928157,-0.0227332264,-0.0051970715
10.1374187469,-0.0088025210,-0.0068546352,0.0060780179,0.0248611849,-0.0145013966,-0.0073094917
10.1475334167,-0.0076866923,-0.0038944301,0.0061832201,-0.0039058011,-0.0189696476,-0.0030569553
10.1575784683,-0.0066024540,-0.0020776209,0.0031909479,-0.0295919888,-0.0117732547,-0.0041086376
10.1676244736,-0.0045089601,-0.0062439856,-0.0018875466,-0.0434359014,-0.0151189826,-0.0104775876
10.1777029037,0.0074743154,-0.0056022820,-0.0079434980,-0.0422739647,-0.0246725399,-0.0126062520
10.1878547668,0.0077423872,0.0057325545,-0.0227691401,-0.0380016118,-0.0246152822,-0.0094211111
10.1977357864,0.0010801081,0.0025485936,-0.0249225367,-0.0306068156,-0.0171299353,-0.0104810493
10.2078857422,0.0012608890,-0.0024536070,-0.0181665290,-0.0049794009,-0.0190406889,-0.0126135089
10.2180547714,0.0034105901,0.0014831008,-0.0044153798,0.0185405724,-0.0230727121,-0.0115596959
10.2280721664,0.0006747965,0.0084697781,-0.0002355443,0.0462456495,-0.0185658447,-0.0083788168
10.2380781174,-0.0001700993,0.0029687467,0.0031477346,0.0633468702,-0.0204625502,0.0032956826
10.2481622696,0.0117023112,-0.0034369049,0.0056746136,0.0548637733,-0.0258708317,-0.0009510608
10.2581405640,0.0020599191,-0.0109185996,0.0002254380,0.0450657383,-0.0068843565,-0.0051862858
10.2683277130,-0.0056979535,-0.0019585905,0.0024078025,0.0258539580,-0.0070722424,-0.0083675655
10.2783727646,-0.0045732437,0.0020070258,0.0074409381,0.0066855904,-0.0115186553,-0.0136739137
10.2884283066,-0.0092902659,0.0067209187,-0.0004438029,-0.0307035372,-0.0076019452,-0.0136613967
10.2985162735,-0.0042369245,0.0015127243,-0.0104403961,-0.0552688055,-0.0056943228,-0.0136542059
