0.0000000000,0.0158581808,0.0357938297,0.0119245881,-0.0125625208,0.0143810874,0.0915814713
0.0100120306,0.0170168355,0.0334871300,0.0109504098,-0.0039605107,0.0100997891,0.0831040964
0.0199130774,0.0095048631,0.0350101478,0.0011332862,-0.0017804476,0.0079064099,0.0746176690
0.0301300287,0.0049343784,0.0405077823,-0.0067330962,-0.0007929476,0.0196328405,0.0724258870
0.0400750637,0.0052751978,0.0382405408,-0.0124761229,-0.0009209123,0.0366986431,0.0680645630
0.0501500368,0.0006215354,0.0408118255,-0.0153512722,-0.0117067145,0.0452745557,0.0807651803
0.0605400801,0.0066065271,0.0454113372,-0.0143049126,-0.0213377699,0.0494474620,0.0775579289
0.0704621077,0.0106819356,0.0383421667,-0.0014889606,-0.0192312114,0.0537207685,0.0754039660
0.0802600384,0.0139055634,0.0322075374,0.0024619333,-0.0287311040,0.0450026467,0.0648449361
0.0900630951,0.0171672180,0.0319496281,0.0052820081,-0.0318073221,0.0341910124,0.0532308854
0.1000350714,0.0264386013,0.0279112346,0.0111276740,-0.0177578162,0.0171140246,0.0437718704
0.1100820303,0.0269917920,0.0316451676,0.0129727358,-0.0154760201,0.0041971589,0.0311053433
0.1200571060,0.0150315845,0.0372356065,0.0068394775,-0.0186277367,-0.0001437932,0.0258217659
0.1302030087,0.0070761521,0.0379562862,-0.0060994988,-0.0186490417,0.0040948940,0.0215447303
0.1401760578,0.0059585650,0.0368345864,-0.0121509200,-0.0249968190,-0.0002852071,0.0152038755
0.1500180960,0.0009226879,0.0376429446,-0.0114701753,-0.0346771479,0.0081993574,0.0162180066
0.1600871086,-0.0036276798,0.0310888775,-0.0118140345,-0.0368698575,0.0135629652,0.0204341915
0.1700130701,-0.0032486240,0.0201833136,-0.0062058931,-0.0347893946,0.0189502724,0.0235849768
0.1800380945,-0.0072116177,0.0122988718,-0.0021894940,-0.0422230810,0.0167012326,0.0172301419
0.1900070906,-0.0060911397,0.0049891961,0.0001496903,-0.0250922963,0.0125131458,0.0119333807
0.2000091076,-0.0084701693,0.0066985381,-0.0011308559,-0.0250245165,0.0081538176,0.0024015279
0.2099961042,-0.0068472545,0.0111942785,-0.0034248002,-0.0195756890,-0.0004633726,-0.0102950931
0.2199820280,-0.0119934594,0.0128161805,-0.0063497787,-0.0088320980,-0.0068376483,-0.0155736106
0.2299900055,-0.0158892199,0.0193273313,-0.0089269048,-0.0067428490,-0.0025190664,-0.0124159008
0.2398821115,-0.0147649264,0.0254381783,-0.0081415540,-0.0152922608,-0.0025582151,-0.0092223706
0.2500140667,-0.0156986937,0.0225493796,-0.0060353642,-0.0143369865,0.0082006892,-0.0018560675
0.2599700689,0.0148226107,0.0130461352,-0.0061101685,-0.0767669380,-0.0731919035,0.0358986333
0.2699830532,0.1960325390,0.0232396610,0.0096273655,-0.1400676221,-0.1739302278,0.0620934889
0.2799680233,0.1326742321,0.0473214872,0.0292531475,-0.0624555089,-0.1181439310,0.0159951001
0.2899590731,-0.0014337221,0.0159573443,0.0106121534,0.0146456640,-0.0076887952,-0.0113347899
0.2999401093,-0.0035943310,-0.0004156338,-0.0026663311,0.0084133344,-0.0228283331,-0.0261052158
0.3099560738,-0.0000245193,0.0000070824,0.0008219115,0.0137676196,-0.0228323266,-0.0314208828
0.3199460506,0.0023415466,0.0012124671,-0.0046430598,0.0105393361,-0.0217430945,-0.0261137374
0.3299421072,-0.0060715894,0.0082134502,-0.0006959804,-0.0098287873,-0.0133048696,-0.0208422765
0.3399320841,-0.0051958184,0.0019531144,-0.0014001497,-0.0162114520,-0.0175938904,-0.0165600460
0.3499850035,-0.0143697476,-0.0045584547,0.0004783503,-0.0162937436,-0.0100584757,-0.0102345049
0.3598970175,-0.0231060311,-0.0086059673,0.0016473762,-0.0087946821,-0.0153025053,-0.0059589334
0.3699409962,-0.0193624422,-0.0123161776,0.0019652478,-0.0077272858,-0.0152942501,-0.0059597325
0.3798969984,-0.0153994178,-0.0098258359,0.0090255374,-0.0066752052,-0.0131530687,-0.0059721163
0.3899270296,-0.0144863641,-0.0133419139,0.0110856527,0.0019094953,-0.0173890926,-0.0091378158
0.3998870850,-0.0107590472,-0.0149269206,0.0066339606,0.0094434451,-0.0237689614,-0.0122897997
0.4099780321,-0.0137262559,-0.0145275695,0.0077719921,0.0179527774,-0.0204876810,-0.0112546291
0.4198980331,-0.0109333610,-0.0082492931,0.0070876116,0.0179308057,-0.0162455309,-0.0144665353
0.4299110174,-0.0110680675,-0.0147312386,0.0044833655,0.0307696387,-0.0214538760,-0.0101921614
0.4398910999,-0.0112140095,-0.0231514089,0.0066474909,0.0210620165,-0.0087165087,-0.0123952609
0.4498840570,-0.0115508353,-0.0179804079,0.0086986655,0.0157040041,-0.0066112801,-0.0113427797
0.4598630667,-0.0140040433,-0.0139377816,0.0065524215,0.0124912998,-0.0087002628,-0.0028282546
0.4698650837,-0.0135197556,-0.0137898428,0.0082110995,-0.0066797314,-0.0131418835,-0.0049108462
0.4798520803,-0.0170551464,-0.0166269653,0.0137854451,-0.0216576178,-0.0110736731,0.0014644945
0.4898480177,-0.0088429963,-0.0174520127,0.0125499004,-0.0162764322,-0.0184682067,0.0068206443
0.5000340939,-0.0067079584,-0.0135037405,0.0141949290,-0.0163484700,-0.0109596895,0.0099590467
0.5101720095,-0.0084319031,-0.0124666793,0.0140543217,-0.0089219799,-0.0086920075,0.0184382852
0.5198500156,-0.0110545075,-0.0104419691,0.0110168690,-0.0068166181,-0.0054610604,0.0194786489
0.5298320055,-0.0108083999,-0.0103618605,0.0109237069,0.0038573309,-0.0053785024,0.0194706582
0.5397560596,-0.0143647706,-0.0171238892,0.0099579925,0.0102654286,-0.0042937971,0.0152082695
0.5498560667,-0.0150625622,-0.0169813149,0.0119475359,0.0146034518,-0.0117599694,0.0131288739
0.5598150492,-0.0166928396,-0.0061196196,0.0146401161,0.0103128338,-0.0096486155,0.0131147597
0.5698180199,-0.0135133183,-0.0128502352,0.0165425166,0.0103131002,-0.0117407944,0.0184402820
0.5797801018,-0.0114667332,-0.0138464076,0.0143622393,-0.0025241356,-0.0086251628,0.0205585621
0.5898240805,-0.0095158732,-0.0050771344,0.0140384072,-0.0078925360,-0.0064927693,0.0247980468
0.5998671055,-0.0104484474,-0.0031831369,0.0118338699,-0.0004537944,-0.0053028688,0.0322218724
0.6098001003,-0.0084398901,-0.0090524657,0.0097884769,0.0016157487,0.0042959629,0.0279086195
0.6199491024,-0.0189982280,-0.0090484126,0.0135710472,0.0026722243,0.0074688531,0.0225735083
0.6297570467,-0.0120005524,-0.0030651197,0.0145022506,0.0068888068,0.0160064138,0.0172032453
0.6397711039,-0.0078624105,-0.0088421209,0.0096677179,0.0303485934,0.0193851665,0.0161025599
0.6497970819,-0.0086245155,-0.0126621230,0.0088616246,0.0366861150,0.0279754587,0.0149800386
0.6600270271,-0.0056652944,-0.0076571214,0.0100972289,0.0387667120,0.0323177427,0.0213264823
0.6697829962,-0.0067505757,-0.0008012758,0.0131680602,0.0313583314,0.0237282496,0.0235121399
0.6797600985,-0.0009431163,-0.0095097525,0.0173460469,0.0270539969,0.0258776862,0.0288132951
0.6897430420,0.0028499444,-0.0124076707,0.0204891786,0.0132007655,0.0225732364,0.0299067870
0.6997720003,0.0020016511,-0.0094871623,0.0154579515,-0.0027610241,0.0181380082,0.0256972630
0.7097470760,-0.0018852869,-0.0144808395,0.0142092938,-0.0101888468,0.0127365850,0.0257374775
0.7197320461,0.0010235390,-0.0164533369,0.0131122107,-0.0058088787,0.0009776640,0.0215609744
0.7297390699,0.0010391554,-0.0096536977,0.0080669755,-0.0025856541,-0.0011440765,0.0205100924
0.7397190332,-0.0068566422,-0.0029315457,0.0088041062,-0.0080339499,0.0116553418,0.0225567296
0.7497740984,-0.0099933064,0.0086618559,0.0094630951,-0.0198543891,0.0211830661,0.0225032009
0.7597301006,-0.0092880344,0.0143952863,0.0129893655,-0.0327250473,0.0254294761,0.0309847016
0.7697720528,-0.0035529057,-0.0053123343,0.0088184113,-0.0317330211,0.0329550356,0.0351847745
0.7797011137,-0.0047851126,-0.0133299334,0.0075088376,-0.0402952172,0.0360842496,0.0330421254
0.7897320986,-0.0002198735,-0.0066140997,0.0110918516,-0.0296369791,0.0372536443,0.0351518840
0.7996910810,-0.0004613319,-0.0087228520,0.0080349082,-0.0126019372,0.0437727980,0.0319096185
0.8097040653,-0.0037242989,-0.0029544935,0.0119742984,0.0023589032,0.0438431054,0.0265867580
0.8197060823,-0.0048875730,-0.0010527478,0.0101959342,0.0173046961,0.0439541601,0.0265778378
0.8296821117,-0.0070917229,0.0047626388,0.0104117030,0.0301557798,0.0376680344,0.0297968015
0.8405910730,-0.0064181308,0.0096117156,0.0135611529,0.0302790850,0.0227053296,0.0298940055
0.8498840332,-0.0036882679,0.0018151297,0.0197123513,0.0185079128,0.0258297492,0.0309443548
0.8596650362,-0.0096407747,-0.0051611769,0.0100850696,0.0067633726,0.0236558113,0.0373410024
0.8696900606,-0.0070409100,-0.0014340387,0.0022299520,-0.0050040707,0.0246789977,0.0426545404
0.8796490431,-0.0064218263,-0.0054978239,0.0012080900,-0.0211621337,0.0395804495,0.0500060655
0.8897110224,-0.0126606738,-0.0047907936,-0.0000632771,-0.0307375304,0.0394246541,0.0404522419
0.8996270895,-0.0101250624,-0.0010293232,0.0026135675,-0.0339426436,0.0404526368,0.0383219793
0.9096620083,-0.0045670788,-0.0040783393,0.0044186343,-0.0189431906,0.0362389833,0.0319644809
0.9196480513,-0.0086929714,-0.0032596097,0.0032551519,-0.0092813745,0.0330322720,0.0234805793
0.9296550751,-0.0069396417,0.0015450610,0.0021128289,-0.0050192513,0.0372677632,0.0149510084
0.9396409988,-0.0060145776,0.0044581783,-0.0017158159,0.0109673049,0.0395468920,0.0170499794
0.9496240616,-0.0091215586,0.0122482078,-0.0014842518,0.0195488092,0.0332277454,0.0202721376
0.9596780539,-0.0102673983,0.0142087238,-0.0011670359,0.0152868200,0.0310836341,0.0234765857
0.9697740078,-0.0083970344,0.0093475478,-0.0008729466,0.0046006194,0.0320788585,0.0245399848
0.9796500206,-0.0026526074,0.0015345110,-0.0016567477,0.0003410261,0.0288830660,0.0298765637
0.9942541122,0.0030226787,-0.0053492892,-0.0034517415,-0.0049275057,0.0213425905,0.0278043561
0.9996740818,-0.0000941077,-0.0005360947,0.0003480546,-0.0187723469,0.0190618597,0.0235791169
1.0097661018,-0.0041278522,-0.0016710864,-0.0056750542,-0.0220184736,0.0243807249,0.0235468931
1.0194630623,-0.0043752710,0.0030835762,-0.0077832113,-0.0316266268,0.0232648589,0.0267480128
1.0294290781,-0.0055848281,0.0088001983,-0.0099879866,-0.0369462892,0.0231783055,0.0214403328
1.0397230387,-0.0028705220,0.0106851952,-0.0062869554,-0.0283627920,0.0178999230,0.0214689635
1.0498100519,-0.0010895053,0.0096266763,-0.0035072335,-0.0250956230,0.0104345484,0.0204527006
1.0594440699,-0.0022452991,0.0075951708,-0.0006834038,-0.0176500920,0.0136961229,0.0193606708
1.0694600344,-0.0014485636,0.0065688980,0.0013180606,-0.0069657564,0.0137515161,0.0161656775
1.0793930292,-0.0045433859,0.0113572972,-0.0025805600,-0.0048330966,0.0148213068,0.0150980158
1.0895349979,-0.0075552980,0.0122647183,-0.0083665615,-0.0091290418,0.0179944634,0.0150804380
1.0995540619,-0.0095717823,0.0112570422,-0.0083073741,-0.0133959576,0.0210903883,0.0054997168
1.1095290184,-0.0037270407,0.0054217470,-0.0100996261,-0.0122689083,0.0146681760,0.0034157927
1.1195290089,-0.0018871048,0.0064363969,-0.0013053187,-0.0197778232,0.0188914165,0.0044574887
1.1294970512,-0.0049121599,0.0093119042,0.0005548827,-0.0175799169,0.0124684051,0.0013104307
1.1395490170,-0.0039736549,0.0141895907,0.0014040701,-0.0207051374,0.0059678955,-0.0060819713
1.1495070457,0.0009612521,0.0112802284,0.0022338263,-0.0228223503,0.0038139306,-0.0060665254
1.1595200300,-0.0018784920,0.0073347581,0.0001541011,-0.0110835359,0.0049566929,-0.0082075736
1.1695460081,-0.0086660301,0.0160916932,-0.0037978657,0.0016671475,0.0125277936,-0.0093279649
1.1795080900,-0.0105108833,0.0200023539,-0.0143469339,0.0229418091,0.0212507099,-0.0083364705
1.1895300150,-0.0124273514,0.0181372650,-0.0138931638,0.0356679931,0.0309773739,-0.0073460410
1.1994800568,-0.0104786670,0.0173218139,-0.0084776049,0.0453031771,0.0299304835,-0.0137212491
1.2095680237,-0.0035167257,0.0078061712,0.0018671982,0.0346446708,0.0308532715,-0.0211565290
1.2195260525,0.0025204201,-0.0007826195,0.0081288451,0.0176221449,0.0263943411,-0.0264243949
1.2295120955,0.0028420170,-0.0153475506,0.0034417144,0.0060387258,0.0091586281,-0.0316164941
1.2394560575,0.0021019359,-0.0172210447,0.0043474073,-0.0249028131,0.0047015618,-0.0251930822
1.2494910955,0.0021778424,-0.0005666719,0.0117249722,-0.0547073111,-0.0051571941,-0.0261707287
1.2594230175,0.0014716467,-0.0035433874,0.0082888836,-0.0728255957,-0.0095527414,-0.0240055788
1.2694640160,0.0017927667,-0.0094527705,0.0028014414,-0.0813487768,-0.0127978027,-0.0207914095
1.2794491053,0.0000508210,-0.0046765911,-0.0028543838,-0.0824149698,-0.0128084561,-0.0207894128
1.2895131111,-0.0017847636,0.0089135068,-0.0027227171,-0.0792306289,-0.0085540563,-0.0261311810
1.2994340658,-0.0044889967,0.0078921812,-0.0004623898,-0.0515072532,-0.0040812767,-0.0283049848
1.3094850779,-0.0069911997,-0.0067688334,-0.0075535541,-0.0291465558,0.0035550711,-0.0304949023
1.3194410801,-0.0038320939,-0.0017691361,-0.0057183867,-0.0131741166,0.0069157141,-0.0273423865
1.3294420242,-0.0056572179,0.0012373818,0.0000550381,0.0016799308,0.0166769978,-0.0242288858
1.3394100666,-0.0016041616,-0.0005720959,0.0060293907,0.0070264926,0.0146010648,-0.0220954251
1.3494300842,-0.0004334370,-0.0062924135,0.0091816420,0.0113293622,0.0114097986,-0.0242025182
1.3593940735,0.0007641395,-0.0100895865,0.0074452991,0.0060027731,0.0082070809,-0.0177989472
1.3694370985,0.0028282185,-0.0061300504,0.0036092631,0.0017859237,0.0017616984,-0.0177542064
1.3794100285,-0.0028507332,-0.0041791308,-0.0013426908,-0.0056976918,0.0027808903,-0.0166928042
1.3894330263,-0.0066085975,-0.0021697388,0.0025298230,-0.0131867677,0.0027683733,-0.0113755371
1.3994050026,-0.0055357139,-0.0011664735,0.0005178086,-0.0174610056,0.0017020437,-0.0071156779
1.4094051123,-0.0113031184,-0.0002468930,-0.0016264685,-0.0142974379,0.0060107717,-0.0060834363
1.4194180965,-0.0054029147,-0.0021514401,-0.0006555088,-0.0026252028,0.0135999825,-0.0050824871
1.4293900728,-0.0063553373,-0.0011503802,0.0003472201,0.0080205174,0.0179393366,-0.0072428435
1.4393850565,-0.0073100547,0.0008806481,0.0044389004,0.0250931103,0.0191340316,-0.0072594881
1.4493750334,-0.0033459584,-0.0038921938,0.0057773227,0.0305126421,0.0095477160,-0.0082635004
1.4593991041,0.0016282877,-0.0076268422,0.0100997919,0.0294749439,0.0073713809,-0.0114341266
1.4693690538,-0.0011752466,-0.0016939746,0.0092735523,0.0103249503,0.0007832532,-0.0145652052
1.4793670177,0.0019640406,-0.0045052278,0.0093484754,0.0007397011,-0.0003933314,-0.0188017618
1.4893560410,0.0033153971,-0.0132103665,0.0034899942,-0.0109419879,-0.0069146138,-0.0208760966
1.4993460178,0.0006164392,-0.0112638576,-0.0025584467,-0.0205963477,-0.0026823184,-0.0177118629
1.5093860626,-0.0002361456,-0.0024838552,-0.0067550307,-0.0281626545,0.0058730869,-0.0103253191
1.5193350315,-0.0031624953,0.0072820080,-0.0030950673,-0.0175024197,0.0059915977,-0.0060838358
1.5294100046,-0.0030780951,0.0014710320,0.0055716867,-0.0164930820,0.0134718837,-0.0071954392
1.5393381119,0.0008213004,0.0015383257,0.0152337188,-0.0175691321,0.0155789778,-0.0093311612
1.5493820906,0.0058499356,-0.0023347840,0.0102861756,-0.0067636212,0.0017228166,-0.0145608112
1.5593130589,0.0109151686,-0.0080998046,0.0112754935,-0.0003286256,0.0006471656,-0.0209316239
1.5693221092,0.0072553833,-0.0109706623,0.0102913016,-0.0013329042,-0.0058006137,-0.0240762848
1.5793040991,0.0006840905,-0.0080664260,0.0013892881,-0.0163436774,0.0005337149,-0.0198579710
1.5893400908,-0.0031375806,-0.0021867261,0.0013170473,-0.0057765208,0.0103072496,-0.0114295995
1.5992940664,-0.0107948696,-0.0080863936,-0.0035623678,-0.0036816783,0.0146103846,-0.0103978906
1.6093120575,-0.0099153435,0.0007302060,0.0022329919,-0.0112442570,0.0210645571,0.0012518414
1.6192810535,-0.0080691492,0.0007145896,0.0051356787,0.0014783293,0.0287088938,0.0086297300
1.6293621063,-0.0072792093,0.0006760850,0.0071816081,0.0025300123,0.0298039876,0.0107466765
1.6392890215,-0.0055110077,0.0025524392,0.0023949377,0.0046901018,0.0266164467,0.0107647860
1.6493300200,-0.0055606584,-0.0092021329,0.0006075732,0.0058416524,0.0180386715,0.0065700412
1.6592780352,-0.0046422998,-0.0120881302,0.0065862769,-0.0005419441,0.0168900527,0.0033963518
1.6692920923,-0.0007854322,-0.0100704534,0.0115665430,-0.0004561907,0.0093455818,-0.0039915233
1.6792540550,-0.0017372289,0.0007138147,0.0115846628,0.0038498747,0.0040541478,-0.0018359605
1.6894150972,0.0003162106,0.0007709755,0.0125820870,-0.0014293101,-0.0013669832,-0.0060466845
1.6992681026,-0.0024639289,-0.0021772489,0.0066652526,0.0028884737,-0.0087798918,-0.0017515385
1.7093650103,-0.0014599481,0.0007662072,0.0056414837,-0.0057596099,0.0039878348,-0.0007659027
1.7192929983,-0.0024293880,0.0046448600,0.0035544864,-0.0142839886,0.0017920583,0.0003173382
1.7292701006,-0.0033008973,-0.0031952963,-0.0022867091,-0.0026390515,0.0115466844,0.0055579063
1.7392590046,-0.0072160880,-0.0042184698,-0.0051734811,0.0058002397,0.0233772453,0.0065379501
1.7492510080,-0.0014809886,-0.0002585755,-0.0039741164,0.0249694064,0.0288694818,0.0064889477
1.7592101097,-0.0006971876,0.0027590885,0.0061500901,0.0409284011,0.0343571901,0.0085659474
1.7692070007,0.0001561126,-0.0000893579,0.0124797458,0.0441601463,0.0332589038,0.0021964647
1.7792110443,0.0040460308,-0.0048437226,0.0149820680,0.0463312864,0.0300428718,-0.0009717648
1.7892110348,0.0049949666,-0.0047592032,0.0144788260,0.0367966369,0.0224603191,-0.0041031097
1.7992020845,0.0030397852,-0.0017899381,0.0118578905,0.0282801166,0.0191976801,-0.0030138767
1.8092120886,0.0021074493,-0.0027375922,0.0062698359,0.0155294333,0.0116265798,-0.0018934850
1.8192750216,-0.0026807408,-0.0037536726,-0.0024396547,-0.0079726968,0.0125413751,0.0013039063
1.8291749954,-0.0017002145,-0.0086979372,-0.0083210832,-0.0187220126,0.0199761204,0.0055127665
1.8391489983,-0.0048204581,0.0009565248,-0.0085158711,-0.0198582523,0.0264231022,0.0107848924
1.8491671085,-0.0050086896,-0.0000864969,-0.0028138526,-0.0188116301,0.0264856871,0.0171581041
1.8592190742,0.0025152345,-0.0000985370,0.0059246649,-0.0134514850,0.0233293083,0.0182374828
1.8691910505,0.0022401591,0.0027492538,0.0088190669,0.0014710054,0.0255913977,0.0192747843
1.8789790869,-0.0028217356,0.0046384227,0.0127647752,0.0101059061,0.0180866104,0.0086931121
1.8891400099,-0.0028376500,-0.0002543436,0.0099948877,0.0187273584,0.0106172413,0.0023611812
1.8992021084,-0.0056679170,-0.0060868966,0.0063897604,0.0304966643,0.0095903268,-0.0029504935
1.9119060040,-0.0046943347,0.0037622347,0.0008871190,0.0283600092,0.0106244320,-0.0050804899
1.9201231003,-0.0066012661,0.0077124131,-0.0046811467,0.0219264794,0.0137888007,-0.0040334677
1.9299221039,-0.0104349768,0.0028508201,-0.0045025116,0.0047762548,0.0211649574,-0.0008821494
1.9397350550,-0.0095311617,0.0009078874,-0.0005225309,-0.0091571370,0.0264342893,0.0022776912
1.9497110844,-0.0077239792,0.0047674668,0.0013296239,-0.0262213424,0.0241737980,0.0033666578
1.9601020813,-0.0068380754,0.0056899083,0.0039731497,-0.0389942639,0.0208453778,0.0012748779
1.9690110683,-0.0029386799,0.0017307295,0.0046415562,-0.0400371589,0.0186815597,-0.0008351447
1.9791400433,-0.0008975188,-0.0002347932,0.0044005150,-0.0293305833,0.0186796952,-0.0104026841
1.9889370203,-0.0018271127,0.0085605877,0.0070759887,-0.0260216054,0.0090134852,-0.0188414417
1.9986780882,-0.0025649290,0.0066391123,0.0021165244,-0.0067642871,0.0059074410,-0.0252119899
2.0088109970,-0.0042250673,0.0047695530,-0.0017687448,-0.0014819074,0.0134116970,-0.0273891240
2.0187160969,-0.0040094177,0.0166109689,-0.0027131208,0.0028172331,0.0123216640,-0.0337594077
2.0289821625,-0.0037812511,0.0226240642,-0.0006904968,0.0016671466,0.0219412688,-0.0327587239
2.0391540527,-0.0054541747,0.0158671029,-0.0025155910,0.0025663637,0.0391213186,-0.0243714955
2.0490889549,-0.0023643891,0.0110977190,-0.0032735833,0.0025490532,0.0391665921,-0.0190598220
2.0591759682,-0.0003350893,0.0111716287,-0.0050071245,0.0109775579,0.0510251187,-0.0148931723
2.0689730644,-0.0051614861,0.0072889817,-0.0048017269,0.0002455516,0.0584145933,-0.0159959886
2.0792000294,-0.0041972320,0.0112764733,-0.0006763109,0.0099795386,0.0456074476,-0.0222928990
2.0890920162,0.0047665616,0.0047140014,0.0104512209,0.0197400227,0.0327302665,-0.0370896906
2.0991530418,0.0051154871,0.0000224008,0.0127254957,0.0188104473,0.0198112726,-0.0476314090
2.1089019775,0.0045682867,0.0070363176,0.0060426230,0.0114486720,0.0121456301,-0.0624500364
2.1190881729,0.0003014883,0.0062684310,0.0021617643,-0.0023603514,0.0066355495,-0.0687766448
2.1289801598,0.0019255957,-0.0032672987,-0.0006968745,-0.0066946456,0.0120004872,-0.0624340624
2.1389000416,0.0014053663,-0.0011714803,-0.0027313598,-0.0260258671,0.0215718895,-0.0507972427
2.1488540173,-0.0041076462,0.0047367108,-0.0059354668,-0.0399858877,0.0279584154,-0.0412673876
2.1591281891,-0.0038806121,0.0038221970,-0.0042161709,-0.0390440635,0.0387527384,-0.0296513475
2.1689949036,-0.0066466252,-0.0049568522,0.0005007617,-0.0241687112,0.0442753360,-0.0222608093
2.1790399551,-0.0055850963,-0.0049666869,-0.0054233437,-0.0134950271,0.0412220210,-0.0137482807
2.1889319420,-0.0026623229,-0.0048809159,0.0005950562,0.0110531924,0.0424625240,-0.0158982500
2.1991882324,-0.0006982604,-0.0018048392,0.0077811116,0.0293154195,0.0297496561,-0.0190150812
2.2090020180,0.0023353179,-0.0065014469,0.0130986208,0.0336835384,0.0169760715,-0.0168105159
2.2190060616,0.0083396817,-0.0121903522,0.0145156616,0.0338100344,0.0020048451,-0.0177759118
2.2289781570,0.0095140720,-0.0130360229,0.0138155455,0.0232484713,-0.0109205414,-0.0198095031
2.2389900684,0.0038909991,-0.0168997757,0.0090483660,0.0115004703,-0.0130854249,-0.0123505201
2.2490072250,-0.0027778069,-0.0101176603,0.0001229278,-0.0109779406,-0.0068192729,-0.0091882832
2.2589721680,-0.0075616161,-0.0101547344,-0.0019973882,-0.0206450820,-0.0025528888,-0.0017736427
2.2689881325,-0.0045943181,-0.0140608056,-0.0021077164,-0.0197356120,0.0146002658,0.0034264454
2.2789769173,-0.0055882256,-0.0150927408,-0.0032092698,-0.0155211603,0.0231442191,-0.0008801522
2.2889831066,-0.0056840698,-0.0092634065,-0.0013602145,-0.0102070896,0.0263826214,-0.0019672546
2.2989449501,-0.0018704751,-0.0053267586,-0.0003499158,0.0026087081,0.0254164282,-0.0019716488
2.3090000153,0.0029613455,-0.0081638796,0.0086161131,0.0111880815,0.0222400762,-0.0062066074
2.3189392090,0.0049632569,-0.0158768408,0.0137619013,0.0218806714,0.0191361625,-0.0040699532
2.3289721012,0.0079296315,-0.0128370030,0.0121690268,0.0347192399,0.0160199963,-0.0051211030
2.3389229774,0.0089000547,-0.0029858456,0.0095593566,0.0294100940,0.0117248511,-0.0018993439
2.3489930630,0.0050330539,-0.0049041021,0.0079502100,0.0250739362,0.0181404054,0.0023116465
2.3589200974,-0.0027557234,-0.0040006149,-0.0026391514,0.0025671627,0.0255250856,0.0107763708
2.3689720631,-0.0018890122,-0.0020887360,-0.0074179536,0.0025445251,0.0266300309,0.0150187863
2.3789029121,-0.0049989144,-0.0070276964,-0.0024052032,0.0004199892,0.0234502163,0.0203540307
2.3889060020,-0.0021692137,-0.0168596022,-0.0052858954,-0.0177084133,0.0232645925,0.0150559377
2.3989300728,-0.0033091228,-0.0169325583,-0.0015349754,-0.0229837392,0.0188783668,0.0065877503
2.4087150097,-0.0034636180,-0.0140534742,0.0050875777,-0.0251219887,0.0188709106,0.0076516839
2.4189591408,0.0071317633,-0.0121019585,0.0060004229,-0.0144035649,0.0136087704,0.0076788478
2.4288830757,0.0011587223,-0.0102593405,0.0039178361,-0.0101233330,0.0115224505,0.0098141702
2.4389550686,-0.0009457389,-0.0044738757,0.0019330017,-0.0005593887,0.0148460753,0.0150989471
2.4489111900,-0.0011393348,0.0023025170,-0.0009208687,0.0037789010,0.0052877236,0.0183450729
2.4589018822,-0.0003601233,0.0061725271,0.0001619689,0.0144641688,0.0032496068,0.0204762686
2.4688410759,0.0004841169,0.0051762951,-0.0035090216,0.0208632126,0.0043588132,0.0194022171
2.4788579941,-0.0025103609,-0.0016937958,-0.0061703688,0.0219178237,0.0054459157,0.0204562955
2.4888041019,-0.0036412398,-0.0017172800,-0.0049519306,0.0250829905,0.0107962061,0.0182946082
2.4988160133,-0.0019901614,0.0021972551,0.0011634461,0.0196749084,0.0172146913,0.0235676654
2.5088920593,-0.0012352684,-0.0017502414,0.0052187676,-0.0027667498,0.0202474985,0.0235636719
2.5188741684,-0.0004559973,-0.0096616251,0.0061744088,-0.0251704585,0.0179529190,0.0257198997
2.5288529396,0.0002794346,-0.0107670529,0.0069561834,-0.0315010622,0.0093445163,0.0247177519
2.5388321877,0.0009825310,-0.0060454118,0.0047007436,-0.0346478522,0.0018530451,0.0258282907
2.5488250256,-0.0002512554,0.0005997314,0.0023874275,-0.0356713012,-0.0034988436,0.0258637108
2.5588390827,-0.0053479592,0.0043054712,-0.0018229850,-0.0260859206,-0.0002308788,0.0247751437
2.5688519478,-0.0056278626,0.0090640681,-0.0019873150,-0.0122569250,0.0031369547,0.0311179925
2.5788290501,-0.0068752686,0.0148106115,-0.0039690500,0.0080426224,0.0032450792,0.0257928707
2.5888772011,-0.0129073774,0.0146888988,-0.0068406230,0.0101561062,0.0075002778,0.0215142369
2.5988159180,-0.0091804182,0.0108130472,-0.0017148026,0.0282810479,0.0108313598,0.0193538815
2.6088728905,-0.0005152146,0.0030851855,0.0016684167,0.0325346515,0.0140433982,0.0161429066
2.6187880039,-0.0006076614,-0.0027355656,0.0030167929,0.0260888673,0.0235135984,0.0043992987
2.6288590431,-0.0074447612,-0.0095893247,0.0032336346,0.0155555326,0.0063314168,0.0045180749
2.6388859749,0.0003231248,-0.0094974143,0.0044697756,0.0166002903,0.0095362645,0.0034344352
2.6488289833,-0.0046260874,-0.0046483981,0.0035842292,0.0091567552,0.0052216770,0.0055923946
2.6587810516,-0.0066752951,0.0041099680,0.0006870262,0.0049039535,0.0030549294,0.0066744369
2.6688361168,-0.0028530280,0.0070201647,-0.0041416055,0.0006205253,0.0030581253,0.0109269731
2.6787681580,-0.0029729526,0.0108938711,-0.0041392813,0.0027601086,0.0009691417,0.0141238309
2.6888232231,-0.0021648924,0.0147714512,-0.0031211146,0.0080707185,0.0042166002,0.0140990634
2.6987490654,-0.0023140828,0.0118031399,-0.0001447566,0.0016711419,0.0020637012,0.0183681101
2.7088251114,0.0015057704,0.0030246272,0.0039226050,0.0155472765,0.0021710263,0.0183577240
2.7187430859,0.0013865313,0.0000903501,0.0069998140,0.0134672141,-0.0021701925,0.0130776074
2.7287449837,0.0032699187,-0.0008742915,0.0071745152,0.0188462660,-0.0064219292,0.0109766405
2.7388010025,0.0003568014,-0.0028327212,0.0043724412,0.0167468973,-0.0075796051,0.0014196204
2.7487320900,-0.0025428752,0.0000955953,0.0015457503,0.0156968124,-0.0076331347,-0.0038912552
2.7587981224,-0.0034210007,0.0010868205,-0.0042481190,0.0071745645,-0.0077415253,-0.0081311408
2.7687439919,-0.0014376560,0.0031034842,0.0006595484,-0.0003323536,-0.0035244098,-0.0081532449
2.7787442207,0.0034909924,0.0061126244,0.0006879799,0.0093152132,-0.0087857507,-0.0070629464
2.7887029648,0.0006545266,0.0061401022,0.0016719929,0.0018469114,-0.0088525964,-0.0081196893
2.7987589836,-0.0041751782,0.0041609895,0.0035156242,-0.0067545669,-0.0045744944,-0.0007075793
2.8087139130,-0.0051760594,0.0031467571,0.0053405995,-0.0175038837,0.0028602523,0.0035012804
2.8187201023,-0.0022959332,0.0060590398,0.0071080560,-0.0217092820,-0.0057060714,0.0056853388
2.8286828995,-0.0013145724,0.0001568093,0.0069622030,-0.0185158849,-0.0046125771,0.0056760181
2.8387830257,0.0025751670,-0.0047318446,0.0088685984,-0.0078461962,-0.0045193667,0.0067295637
2.8486840725,-0.0004101912,0.0010693563,0.0057965750,-0.0078078480,-0.0067111487,0.0003694030
2.8587510586,-0.0033311765,0.0049415124,0.0037644140,0.0071786921,-0.0108904466,-0.0017378232
2.8685979843,0.0005910476,0.0050046337,0.0038874976,0.0242516845,-0.0096986825,-0.0028198655
2.8786921501,-0.0023024003,0.0060098064,0.0030861131,0.0252790004,-0.0054035364,-0.0017874911
2.8886542320,-0.0081258630,0.0079683559,0.0051188106,0.0081514120,0.0008676753,-0.0028785884
2.8986349106,-0.0100461757,0.0050243032,0.0051183933,-0.0047035329,0.0050720079,0.0002896413
2.9086589813,-0.0070604007,-0.0037271485,0.0080669755,-0.0067981090,0.0018130976,-0.0039373278
2.9186401367,-0.0001895646,-0.0085450513,0.0119309062,-0.0185333285,0.0027547914,-0.0071179410
2.9286699295,0.0027926643,-0.0085330112,0.0127539271,-0.0217301883,0.0016703520,-0.0060462849
2.9386339188,0.0019175491,-0.0075966823,0.0076489085,-0.0195346773,-0.0037031081,-0.0123912664
2.9487981796,-0.0018600741,-0.0066434252,0.0064879293,-0.0078058504,-0.0004423335,-0.0166701674
2.9586229324,-0.0027238647,-0.0007357107,0.0073591108,-0.0024437075,-0.0036027068,-0.0155887911
2.9686830044,-0.0015942672,0.0052071703,0.0054314965,0.0146503244,-0.0045574503,-0.0177193191
2.9786880016,-0.0062913219,0.0062447083,0.0045534009,0.0199496150,-0.0012809631,-0.0145580145
2.9891109467,-0.0032463889,0.0092787044,0.0037427179,0.0188420061,0.0019531797,-0.0103286486
2.9987721443,-0.0041084210,0.0015354051,0.0049405927,0.0198366977,0.0094734142,-0.0061259135
3.0087110996,-0.0031638662,0.0025779500,0.0090285176,0.0133729391,0.0137621677,0.0012875281
3.0185980797,-0.0002244035,-0.0022990212,0.0052911271,0.0048171347,0.0147848232,0.0034107331
3.0286340714,-0.0012225428,-0.0071914899,0.0063363547,-0.0026687449,0.0168554299,0.0023401424
3.0386600494,0.0016702494,-0.0101108057,0.0073485607,-0.0058426997,0.0125738662,0.0044949055
3.0485901833,0.0006430229,-0.0052601206,0.0053254599,-0.0058413679,0.0157076083,-0.0040245466
3.0586261749,-0.0003172973,0.0006048574,0.0052750343,-0.0036256192,0.0081913676,-0.0103530157
3.0685801506,-0.0041305940,0.0035546913,0.0071420902,-0.0046088574,-0.0004029188,-0.0145461634
3.0786540508,-0.0000722924,0.0026526942,0.0061829919,-0.0003356822,0.0006676719,-0.0177412909
3.0885701180,0.0030411561,0.0017716183,0.0081208581,-0.0013380963,-0.0068307240,-0.0187543575
3.0986380577,0.0032386859,-0.0001211868,0.0080713863,-0.0088599287,-0.0004836125,-0.0198534448
3.1085810661,0.0004894217,-0.0010869013,0.0059668059,-0.0142264646,0.0005981636,-0.0134823630
3.1186199188,0.0015491924,0.0028296604,0.0028834573,-0.0185843296,0.0102084465,-0.0103532821
3.1285591125,-0.0012934128,0.0008444085,0.0008012287,-0.0111282757,0.0113530727,-0.0082411300
3.1386151314,-0.0060700695,-0.0070193517,-0.0021820434,-0.0154681625,0.0177782159,-0.0029680703
3.1485309601,-0.0022331397,0.0017613067,-0.0032971867,-0.0197870098,0.0241484977,-0.0040687546
3.1585500240,-0.0013038436,0.0037366047,0.0015657775,-0.0026704762,0.0199974291,-0.0051165754
3.1686100960,0.0026180227,-0.0010659205,0.0075302953,0.0026891353,0.0189337619,-0.0093629863
3.1785280704,0.0026542624,-0.0010125743,0.0095768804,0.0070480644,0.0093213478,-0.0124910017
3.1885850430,0.0018187842,-0.0009648905,0.0086378092,0.0050344486,-0.0046067187,-0.0145240584
3.1985180378,0.0039028306,-0.0048081386,0.0077231759,0.0028731590,-0.0024615424,-0.0113478396
3.2085399628,0.0001216909,-0.0019114719,0.0008344881,-0.0024515651,-0.0035806026,-0.0123992562
3.2186150551,-0.0055143754,-0.0038511262,-0.0022035607,-0.0087905535,-0.0100763189,-0.0166034549
3.2285690308,-0.0072761099,-0.0097156866,-0.0032947429,-0.0174277164,-0.0015201150,-0.0081537776
3.2385048866,-0.0033386271,-0.0048303115,-0.0073767668,-0.0228222162,0.0059095714,-0.0092600547
3.2485721111,-0.0062791626,0.0029321804,-0.0085709458,-0.0154151665,0.0113653233,-0.0029262588
3.2584891319,-0.0063347439,0.0068359268,-0.0047444468,-0.0068902541,0.0125131458,-0.0018792370
3.2685620785,0.0014148435,0.0059474600,0.0012074939,0.0037538675,0.0158109386,-0.0008456642
3.2784790993,0.0004447779,0.0040039313,0.0022447340,0.0017019017,0.0061663007,-0.0018438169
3.2885551453,0.0005021175,0.0020798340,0.0023145310,0.0038907537,0.0029041946,-0.0103233214
3.2984549999,0.0015918991,-0.0007726655,0.0053324336,0.0082402285,-0.0066829189,-0.0102634011
3.3085350990,0.0027455171,-0.0036107406,0.0063858861,0.0029839473,-0.0153011745,-0.0133910170
3.3184680939,0.0019919653,-0.0055229175,-0.0004262098,0.0072448724,-0.0141996909,-0.0134010036
3.3283560276,-0.0007823030,-0.0045116055,-0.0014255412,-0.0034413282,-0.0132044675,-0.0123376036
3.3384420872,-0.0006968895,0.0013640417,-0.0044598347,-0.0110232150,-0.0025156045,-0.0049629109
3.3484492302,-0.0016284207,0.0023051396,-0.0084607964,-0.0045749033,-0.0078097023,-0.0049330834
3.3584752083,-0.0045250575,-0.0006328927,-0.0055483948,0.0027668998,0.0061814804,-0.0007812157
3.3684439659,-0.0006987373,0.0023481741,-0.0044653183,0.0122943586,0.0158743225,-0.0008507243
3.3785009384,-0.0045782845,0.0013617767,-0.0052835112,0.0154828280,0.0190714467,-0.0051244320
3.3884100914,-0.0016068140,-0.0024372444,-0.0021026500,0.0176682174,0.0158183947,-0.0125416014
3.3984990120,0.0072309454,-0.0051527130,0.0080001587,0.0209228676,0.0104782246,-0.0146324495
3.4084239006,0.0092837298,-0.0030730471,0.0121028060,0.0146010555,0.0008010964,-0.0156276729
3.4184441566,0.0075037857,-0.0049777138,0.0092665786,0.0029085800,-0.0056922231,-0.0145154037
3.4284141064,0.0037977775,-0.0069272029,0.0033817522,0.0019325316,-0.0163967982,-0.0155076971
3.4384689331,0.0001143893,-0.0059748399,-0.0055201417,-0.0076161008,-0.0249876231,-0.0111943092
3.4483940601,0.0011622986,0.0009167089,-0.0027699836,-0.0141469706,-0.0100659318,-0.0102241188
3.4584600925,-0.0006758491,-0.0000568138,-0.0028902062,-0.0045924801,-0.0046274913,-0.0081424592
3.4683940411,0.0012869617,0.0048241508,-0.0068263779,-0.0036425292,0.0071910853,-0.0018454149
3.4784440994,-0.0036336402,0.0077038300,-0.0068903333,-0.0047537340,0.0104345484,0.0034461531
3.4883708954,-0.0036995928,0.0008662238,0.0009294979,-0.0047678491,0.0125629473,0.0023699699
3.4983758926,0.0001513144,-0.0039569247,0.0088017220,0.0006261179,0.0072259726,-0.0018495428
3.5084161758,0.0011667093,-0.0068332064,0.0137468809,-0.0003501968,-0.0013864243,-0.0081673600
3.5183591843,0.0032596667,-0.0097208722,0.0098570222,-0.0045159142,-0.0121471938,-0.0123421308
3.5284318924,0.0005346914,-0.0097305877,0.0029252402,-0.0044898149,-0.0132611934,-0.0176468808
3.5383670330,-0.0031952183,-0.0028767691,-0.0011282333,-0.0044734376,-0.0164410081,-0.0144387037
3.5484142303,-0.0030746977,-0.0008937226,-0.0021546849,-0.0023929756,-0.0110536991,-0.0112879183
3.5583090782,-0.0020152847,0.0011094107,-0.0021810897,-0.0002846830,-0.0099245179,-0.0070509627
3.5683240891,-0.0038978676,0.0011123313,-0.0032090314,-0.0003635129,-0.0023981589,-0.0017877575
3.5783948898,-0.0058660428,0.0020524159,-0.0041998397,0.0038136556,0.0062437989,0.0055921283
3.5883569717,-0.0049668769,0.0000971450,-0.0021644004,0.0122809093,0.0138180954,0.0087242723
3.5983891487,-0.0030711214,-0.0057360637,-0.0019420751,0.0176158883,0.0149102574,0.0065885503
3.6082990170,-0.0031967978,-0.0018130051,-0.0007513531,0.0208463017,0.0106782280,0.0087385196
3.6183791161,-0.0003055254,-0.0037019358,0.0024368993,0.0209427066,0.0020591738,0.0002936360
3.6283040047,-0.0012256423,-0.0075543034,0.0026508800,0.0231249016,-0.0032770024,-0.0007356757
3.6383759975,0.0017052969,-0.0035833225,0.0018421642,0.0168000273,-0.0118989861,-0.0027978946
3.6482930183,0.0017322382,0.0032982721,0.0018837682,0.0115650520,-0.0247559287,-0.0016484743
3.6582641602,-0.0001501063,0.0043159616,0.0047956938,0.0051849168,-0.0259157363,-0.0069502951
3.6683020592,0.0009501656,0.0023867383,0.0037381283,-0.0065614870,-0.0270390566,-0.0026852428
3.6782951355,0.0000843188,0.0003932013,-0.0003371604,-0.0119321523,-0.0238531176,0.0004880470
3.6882739067,-0.0037076990,-0.0035574541,-0.0024993189,-0.0173080079,-0.0175182559,-0.0037988434
3.6983380318,-0.0017072478,-0.0055446136,-0.0036630996,-0.0173626039,-0.0142407045,0.0036127334
3.7082672119,0.0001960179,-0.0045747268,-0.0008525618,-0.0067589618,-0.0056083333,0.0035493504
3.7183399200,-0.0008388380,-0.0006590591,0.0020433895,0.0092315897,-0.0012455430,0.0003270586
3.7282550335,-0.0056774537,-0.0025992498,0.0031631819,0.0252212100,0.0031169809,-0.0039619622
3.7383189201,-0.0008382121,0.0033593669,0.0034620992,0.0359131359,0.0000143985,-0.0018259739
3.7482380867,-0.0017893234,0.0034482374,0.0067082276,0.0466853529,-0.0106174732,-0.0049517257
3.7583088875,-0.0006878594,-0.0022789941,0.0061637992,0.0435129963,-0.0138596054,-0.0070566880
3.7682361603,0.0004309198,-0.0070598829,0.0045250291,0.0307271611,-0.0171558000,-0.0059639933
3.7783031464,-0.0004301587,-0.0079642637,0.0056424374,0.0126188640,-0.0215734523,-0.0048546540
3.7882330418,0.0054060002,0.0008913769,0.0065849656,0.0019574314,-0.0248259697,-0.0005765518
3.7982301712,0.0035528620,-0.0050521004,-0.0013486512,-0.0077021187,-0.0216259155,0.0068438142
3.8082070351,0.0016108236,-0.0090031726,-0.0005255111,-0.0120225651,-0.0162971970,0.0089370590
3.8182420731,0.0063328226,-0.0022078857,0.0003147356,-0.0057255216,-0.0076003782,0.0205636211
3.8281660080,0.0021737297,0.0035335317,0.0021289221,-0.0036378698,-0.0043233582,0.0269152597
3.8382580280,-0.0039662640,0.0043780697,0.0078813070,-0.0057873065,-0.0043041836,0.0300996006
3.8481931686,0.0006575068,-0.0005625592,0.0117943520,0.0006136009,-0.0042455941,0.0311571434
3.8582592010,-0.0005212942,-0.0045765745,0.0108486051,0.0070753614,-0.0085260924,0.0258732978
3.8681850433,-0.0017033735,0.0012006058,0.0108422274,0.0125313792,-0.0192535724,0.0163775310
3.8782429695,-0.0007055918,-0.0007652150,0.0050417418,0.0136523042,-0.0193864629,-0.0006224911
3.8881740570,-0.0073866169,-0.0037174926,-0.0007789501,0.0147825498,-0.0237255506,-0.0090942727
3.8982150555,-0.0072455029,-0.0046424377,-0.0016872056,0.0168777928,-0.0194232166,-0.0080621652
3.9081811905,-0.0033380906,0.0091279643,-0.0006778606,0.0157627258,-0.0119866040,-0.0123591749
3.9181790352,-0.0051679532,0.0140554206,-0.0025782951,0.0157226454,-0.0076975832,-0.0102602048
3.9281492233,-0.0070182900,0.0101812975,-0.0034742721,0.0059898570,0.0051071611,-0.0039620954
3.9382240772,-0.0002339700,0.0102875726,0.0025248162,0.0059676194,0.0062113078,0.0002807199
3.9481461048,-0.0012043038,0.0044329059,0.0065140361,0.0059167533,0.0115730502,0.0023707687
3.9582171440,0.0036852439,-0.0042895186,0.0086578960,0.0112982029,0.0062696310,0.0024019277
3.9680800438,0.0007989784,-0.0081926687,0.0087178582,-0.0024639480,-0.0056389598,-0.0028231945
3.9781470299,-0.0000871936,-0.0042817700,0.0095262760,-0.0172720551,-0.0186583549,-0.0122911315
3.9881272316,0.0020634015,-0.0062047350,0.0073563689,-0.0182270668,-0.0315094404,-0.0143319126
3.9981961250,0.0002856335,-0.0032976374,0.0060090059,-0.0235254243,-0.0368815660,-0.0132328253
4.0081291199,0.0013650140,0.0084051387,0.0017137162,-0.0235129073,-0.0400515273,-0.0089627132
4.0181670189,-0.0063035111,0.0131623046,-0.0065216189,-0.0204267036,-0.0271724816,-0.0047955317
4.0281047821,-0.0072250287,0.0140764015,-0.0097597009,-0.0248241145,-0.0153680202,0.0046925126
4.0381979942,-0.0082635200,0.0130218761,-0.0090246564,-0.0164270345,-0.0013379547,0.0120288553
4.0480089188,-0.0073543708,0.0061377180,-0.0071028834,-0.0047647860,0.0083713979,0.0119577488
4.0580968857,-0.0016858497,0.0052021635,0.0027232401,0.0015961733,0.0148103889,0.0097891372
4.0681247711,0.0021347185,-0.0025435791,0.0097835893,0.0197855644,0.0116992835,0.0044846525
4.0780572891,-0.0007964293,0.0013915790,0.0109481448,0.0220539123,0.0019542451,-0.0124529190
4.0879340172,-0.0015577594,-0.0004804240,0.0062571396,0.0222081095,-0.0130894193,-0.0219169930
4.0980720520,-0.0022701244,0.0006284012,0.0072949161,0.0106168333,-0.0271666218,-0.0324403420
4.1080970764,0.0020711203,-0.0030917630,0.0072854394,0.0011258591,-0.0380006284,-0.0408625863
4.1180720329,0.0015301785,-0.0058983671,0.0051961774,-0.0042328192,-0.0379857160,-0.0344855189
4.1280379295,-0.0020407359,0.0029221072,-0.0019607909,-0.0224325955,-0.0348474458,-0.0259940270
4.1380391121,-0.0018382290,0.0116950767,-0.0082463389,-0.0353734270,-0.0241431352,-0.0122425295
4.1481041908,-0.0046627442,0.0086891549,-0.0105691915,-0.0355380103,-0.0090723066,0.0004085514
4.1580491066,-0.0037786285,0.0096348422,-0.0020594366,-0.0207557380,0.0071500726,0.0087904520
4.1678962708,-0.0047910730,0.0037181273,-0.0001991161,-0.0079595130,0.0104191024,0.0045107519
4.1779928207,-0.0008915583,-0.0001339422,0.0028434626,0.0155953467,0.0051835943,-0.0039703511
4.1881470680,-0.0008096615,-0.0039378512,0.0079170102,0.0221027806,-0.0023566138,-0.0166746955
4.1980719566,0.0022840579,-0.0008363829,0.0120180482,0.0243552811,-0.0131061971,-0.0261693969
4.2081432343,0.0054958542,0.0022813573,0.0132071013,0.0351623893,-0.0259207971,-0.0345929749
4.2180171013,0.0079306448,-0.0053336727,0.0066489214,0.0330991074,-0.0334447585,-0.0377303138
4.2280659676,0.0024650772,-0.0032592521,0.0037713281,0.0170445051,-0.0303171426,-0.0324274264
4.2380061150,-0.0001257578,-0.0031938658,-0.0040528541,0.0084502185,-0.0271003097,-0.0228783954
4.2481431961,-0.0018972674,-0.0011966930,-0.0051505929,-0.0151392631,-0.0175909605,-0.0144244563
4.2580041885,-0.0018538156,0.0017475976,-0.0005287298,-0.0226970464,-0.0121953962,-0.0017059986
4.2680339813,-0.0018681207,0.0017175569,0.0050897230,-0.0195667669,-0.0046623787,0.0014301399
4.2779860497,0.0019605835,0.0026753440,0.0078419084,-0.0163886845,-0.0035276057,0.0067344913
4.2881751060,0.0019129893,0.0016384615,0.0067081088,-0.0089432867,-0.0002636355,0.0067081256
4.2979750633,0.0028237184,0.0025890961,0.0057385797,0.0113521321,-0.0011920134,0.0045744013
4.3080682755,0.0038333912,-0.0041958201,0.0049973954,0.0305806883,-0.0000380657,-0.0028832487
4.3179483414,0.0048510213,-0.0070276964,0.0082903141,0.0391295664,-0.0020894986,-0.0007520542
4.3281593323,-0.0009138504,-0.0089176400,0.0066712135,0.0445293933,-0.0063955639,-0.0092270318
4.3379540443,-0.0027674953,-0.0068734991,0.0060324902,0.0413509123,-0.0096211843,-0.0092065251
4.3479900360,-0.0006875912,-0.0077177989,0.0063568586,0.0328572914,-0.0139893014,-0.0123594413
4.3579421043,-0.0054398696,-0.0086643202,0.0035374991,0.0168152079,-0.0119378679,-0.0070459028
4.3681149483,-0.0044525783,-0.0047326195,0.0025991432,0.0039436170,-0.0076895934,0.0014346675
4.3779349327,-0.0025771479,-0.0008536683,0.0015727512,-0.0024767313,-0.0097902957,0.0110119274
4.3879718781,-0.0036648433,-0.0009335385,0.0014487139,-0.0153624350,-0.0034136223,0.0184163135
4.3979272842,-0.0057874839,0.0009006753,0.0002618663,-0.0164018683,-0.0055864956,0.0152439568
4.4080672264,-0.0039502303,-0.0049857604,0.0080073709,-0.0046535982,-0.0055137910,0.0131104980
4.4179868698,-0.0020987014,-0.0030627355,0.0079800719,0.0018120231,-0.0118979216,0.0110241771
4.4278640747,-0.0011693159,0.0047319424,0.0030873648,0.0167885758,-0.0129144490,0.0035835719
4.4379081726,-0.0021223645,0.0067374599,0.0061243409,0.0254164189,-0.0214456189,-0.0016780354
4.4479360580,0.0019467553,0.0000136985,0.0063512558,0.0254545026,-0.0215452220,-0.0133637199
4.4578971863,-0.0017969528,0.0000824823,0.0054880013,0.0222481899,-0.0205148458,-0.0154951802
4.4679689407,-0.0016108075,0.0041007889,0.0055557126,0.0201677270,-0.0259021521,-0.0186459664
4.4778862000,0.0045544584,-0.0055106389,0.0037663213,0.0137509741,-0.0248715095,-0.0165200979
4.4879488945,0.0018258771,-0.0064696181,0.0007688634,-0.0002284907,-0.0152969137,-0.0091356849
4.4978690147,-0.0020112316,-0.0006381379,-0.0032788881,-0.0035264166,-0.0067060888,-0.0017535359
4.5079140663,-0.0050087790,0.0071139229,-0.0053878194,-0.0110610323,-0.0024165350,0.0067230389
4.5178661346,-0.0051034610,0.0070553911,-0.0025740035,-0.0100728665,0.0051188795,0.0119850468
4.5279302597,-0.0032907645,0.0050923717,0.0023240082,0.0059311343,0.0052608261,0.0140977334
4.5378561020,0.0005099257,0.0070835841,0.0044018859,0.0199308395,-0.0064586806,0.0056640333
4.5479168892,0.0024456461,0.0051990640,0.0085173482,0.0274550691,-0.0107210707,0.0003744629
4.5577373505,0.0035380502,0.0004124536,0.0087847346,0.0350428149,-0.0203768928,-0.0101898974
4.5676660538,0.0026849587,0.0034481778,0.0109132165,0.0244002901,-0.0226331241,-0.0144173997
4.5777130127,0.0028992076,0.0015697373,0.0071509713,0.0211717393,-0.0194517113,-0.0144357756
4.5879778862,-0.0007803062,-0.0052520740,-0.0005627640,0.0135994405,-0.0108821914,-0.0059894267
4.5979032516,-0.0036904137,0.0035154119,-0.0054933196,-0.0014199894,-0.0034772721,-0.0007121067
4.6078348160,-0.0027465741,0.0074059856,-0.0065521365,-0.0110861976,0.0028788943,0.0013782084
4.6178889275,-0.0008480469,0.0044832123,-0.0007644065,-0.0143321929,0.0071506053,0.0034758472
4.6278133392,0.0030055125,0.0045053852,0.0031075112,0.0017258693,0.0040139342,-0.0028893740
4.6378779411,0.0039836247,0.0074806106,0.0051367516,0.0145993251,-0.0023318464,-0.0071086204
4.6478033066,0.0030840714,0.0075449836,0.0072069401,0.0199994165,-0.0087300912,-0.0102580739
4.6578679085,0.0002930244,0.0095530646,0.0063087577,0.0200473536,-0.0119921975,-0.0166105125
4.6677932739,0.0004904946,0.0067679775,0.0103727216,0.0233355574,-0.0216040779,-0.0186752621
4.6777629852,0.0046743830,0.0020229116,0.0066415900,0.0180889983,-0.0302481651,-0.0249905474
4.6877899170,0.0021391590,-0.0066672075,0.0047130818,0.0063018468,-0.0239447318,-0.0271479748
4.6977863312,0.0024647792,-0.0095264418,-0.0002314218,-0.0022702031,-0.0197403971,-0.0271670166
4.7078399658,-0.0002422849,-0.0046241987,-0.0071742903,0.0008198628,-0.0089649819,-0.0198023114
4.7177658081,-0.0089157140,0.0031754866,-0.0092413789,0.0049497597,0.0060741547,-0.0145901060
4.7278389931,-0.0147365248,0.0099978345,-0.0111872917,0.0069950675,0.0157363694,-0.0114670163
4.7377557755,-0.0108290231,0.0101233618,-0.0060409671,0.0304074492,0.0234209225,-0.0094102565
4.7478199005,-0.0049607377,0.0044457805,0.0031885735,0.0400632694,0.0170919187,-0.0083135674
4.7577471733,0.0010007700,-0.0090062721,0.0135506624,0.0539788194,0.0139584439,-0.0125533193
4.7677960396,0.0020760675,-0.0058781612,0.0179413781,0.0498370714,0.0020879356,-0.0220349710
4.7777361870,-0.0006222645,-0.0027983889,0.0144319171,0.0488885902,-0.0107804583,-0.0262008216
4.7878022194,-0.0002775112,-0.0094631417,0.0099230641,0.0329479724,-0.0194541067,-0.0261334442
4.7976980209,-0.0038003842,-0.0191240422,0.0061673755,0.0115976753,-0.0206591897,-0.0229243357
4.8078022003,-0.0074453275,-0.0151701076,0.0021386377,-0.0129540060,-0.0218906347,-0.0197120309
4.8177161217,-0.0034093182,-0.0053742635,-0.0029871829,-0.0183379855,-0.0207611881,-0.0069636106
4.8277258873,-0.0072719972,-0.0034730539,-0.0022651323,-0.0141682755,-0.0110552963,-0.0006551151
4.8377790451,-0.0063247005,0.0023582473,-0.0015302070,-0.0195578486,-0.0067761294,0.0046327244
4.8477191925,-0.0034743468,0.0033032789,0.0012284152,-0.0089241108,-0.0034511727,0.0088533014
4.8577518463,-0.0006307880,-0.0005782352,0.0080816979,0.0038570641,-0.0001435268,0.0088217445
4.8676948547,-0.0026254277,-0.0005962358,0.0100867385,0.0135176815,-0.0033478423,0.0003366461
4.8777260780,0.0003239592,-0.0004944907,0.0132035846,0.0263633057,-0.0064823828,-0.0028390402
4.8876829147,0.0043472131,-0.0033069358,0.0124982828,0.0318195894,-0.0193020403,-0.0070092841
4.8977179527,0.0064585288,-0.0041754949,0.0097974772,0.0308422111,-0.0279101767,-0.0122623695
4.9076938629,-0.0001510004,-0.0002186404,0.0059537524,0.0245148055,-0.0344354548,-0.0196523760
4.9177007675,-0.0018305400,-0.0011125313,0.0040294165,0.0073491349,-0.0249303672,-0.0186443701
4.9276709557,-0.0006373445,-0.0030115948,-0.0008821257,0.0051163407,-0.0163246281,-0.0101994853
4.9376993179,-0.0005505005,-0.0019999847,-0.0018675693,0.0039404216,-0.0055915555,-0.0038937852
4.9476470947,-0.0025045793,0.0009203448,-0.0009227165,0.0005978886,0.0093911225,0.0013233474
4.9576201439,-0.0015678325,-0.0020123229,-0.0008848079,0.0027067121,0.0115682557,0.0044969032
4.9676752090,0.0041754921,-0.0019422279,0.0061186785,0.0187474638,0.0084768590,0.0034433566
4.9776229858,0.0079969252,0.0000911250,0.0092928642,0.0230165124,0.0116494829,-0.0040153586
4.9876370430,0.0061072786,0.0001302852,0.0056210989,0.0262202937,0.0127158128,-0.0072116842
4.9976730347,0.0081082666,0.0012025727,0.0059452285,0.0390920192,0.0053287363,-0.0082371347
5.0076470375,0.0091905678,-0.0034974918,0.0112993354,0.0562193394,0.0011497040,-0.0124715604
5.0176720619,0.0014919123,-0.0043650973,0.0137332911,0.0647897869,-0.0020024134,-0.0135180503
5.0276107788,-0.0003918627,0.0026089444,0.0113191837,0.0615931973,-0.0051790318,-0.0071208710
5.0376200676,-0.0003153006,0.0027217760,0.0060087671,0.0604489744,0.0012881884,0.0002748608
5.0475749969,-0.0032382826,0.0027708306,-0.0003646382,0.0508091301,0.0044381749,0.0023859486
5.0576701164,-0.0032746117,0.0018484486,-0.0009382733,0.0368704051,0.0118140671,0.0023468002
5.0676121712,-0.0032707374,-0.0049224603,-0.0005810626,0.0261384025,0.0192035399,0.0012439853
5.0775671005,0.0005578180,-0.0117097003,0.0007544390,0.0250527635,0.0181976631,0.0097510535
5.0875840187,0.0003677091,-0.0068350541,0.0019344918,0.0164891034,0.0202871803,0.0118682664
5.0976119041,-0.0027389447,-0.0000200377,0.0040469398,0.0197034050,0.0213260781,0.0054850695
5.1075959206,-0.0047681252,-0.0028915510,0.0111326212,0.0230195746,0.0095495805,0.0002471639
5.1175909042,-0.0047801654,-0.0028441653,0.0132867331,0.0166610107,0.0051974421,-0.0029070841
5.1276202202,-0.0038073282,0.0001451864,0.0134153599,0.0146511225,-0.0108318571,-0.0006769530
5.1376299858,-0.0047780196,0.0069962037,0.0124581093,0.0114836916,-0.0151307322,-0.0006472587
5.1475553513,-0.0037466208,0.0060249460,0.0085835094,0.0050742622,-0.0162127744,0.0036137989
5.1577439308,-0.0056518833,0.0059548509,0.0007124178,-0.0045650499,-0.0130638527,0.0057254191
5.1675438881,-0.0066064517,0.0020136728,-0.0003725060,-0.0056465594,-0.0109437099,0.0046500349
5.1776089668,-0.0036661844,0.0010381235,0.0005524389,-0.0002962686,-0.0109375846,0.0003961679
5.1875772476,-0.0026752870,0.0010359181,-0.0014220246,0.0028726272,-0.0076885289,0.0024976684
5.1979041100,-0.0046200971,-0.0009230481,0.0005184046,0.0039087306,-0.0044621089,0.0035369669
5.2075529099,-0.0085337674,0.0020033016,0.0024348132,0.0049510915,0.0018860681,-0.0050040567
5.2175760269,-0.0075549404,0.0059590829,0.0063585271,0.0049939682,-0.0013616569,-0.0092299609
5.2275762558,-0.0015352288,0.0002012147,0.0064659948,0.0071617812,-0.0024772552,-0.0166609790
5.2376222610,0.0005915841,-0.0006488667,0.0085017318,0.0125220586,-0.0045891413,-0.0187769942
5.2475771904,-0.0001771370,0.0023754730,0.0066266889,0.0115002031,-0.0088994680,-0.0219355039
5.2575702667,0.0039600213,0.0064206612,0.0037650696,0.0083438251,-0.0121820802,-0.0282876752
5.2675647736,0.0052217920,0.0065464270,0.0028348200,0.0104663651,-0.0110877873,-0.0272338632
5.2775602341,0.0045009633,0.0086079733,0.0028536550,0.0018535694,-0.0025952330,-0.0262203962
5.2875537872,0.0028023203,0.0096561210,-0.0039187442,0.0135126216,0.0050309952,-0.0199036431
5.2975201607,-0.0018824855,0.0047643078,-0.0126287108,0.0016295966,0.0178586431,-0.0093561951
5.3075542450,-0.0019254604,0.0057936800,-0.0066770087,-0.0016934955,0.0296532512,-0.0019936198
5.3175520897,-0.0010250726,0.0058883918,0.0090431804,0.0015728716,0.0253280122,-0.0104656676
5.3275423050,0.0039964993,-0.0105912192,0.0151064033,-0.0015467554,0.0156756509,-0.0114632873
5.3375248909,0.0080382610,-0.0124804480,0.0112615461,0.0007109391,0.0038687917,-0.0188230667
5.3475251198,0.0062286337,-0.0055931318,0.0092789764,0.0051086168,-0.0100278491,-0.0229855869
5.3575210571,0.0025475104,0.0003709091,0.0112032527,0.0116277691,-0.0207364187,-0.0314206183
5.3675150871,0.0019250294,-0.0034061775,0.0092739100,0.0137977125,-0.0249948148,-0.0313945189
5.3775110245,0.0002794644,0.0015625848,0.0033675067,0.0042000795,-0.0292745139,-0.0228594858
5.3875060081,-0.0024286727,0.0074374569,-0.0026184090,-0.0033241492,-0.0250121243,-0.0175699163
5.3974871635,-0.0051925103,0.0035402670,-0.0008570321,-0.0119754281,-0.0153744109,-0.0080666924
5.4075078964,-0.0050969939,-0.0023350820,-0.0009895333,-0.0110236146,-0.0046064523,0.0003619462
5.4174623489,-0.0080861663,0.0015088214,-0.0021338232,-0.0154394023,0.0103839487,0.0077056121
5.4274601936,-0.0091562187,0.0014113082,-0.0041745668,-0.0154745560,0.0146588553,0.0076779155
5.4374179840,-0.0062480788,-0.0102936728,0.0007326833,-0.0080304872,0.0200171359,0.0023249621
5.4474501610,-0.0043544988,-0.0112362010,0.0057152743,0.0080099981,0.0190179180,-0.0040541077
5.4574379921,-0.0053750495,-0.0033682690,0.0058797831,0.0241198577,0.0084259929,-0.0071831886
5.4673991203,-0.0014235297,0.0016612305,0.0110184783,0.0263912678,-0.0044637071,-0.0166627113
5.4774260521,0.0007209560,-0.0001222597,0.0132340426,0.0285895746,-0.0108875176,-0.0198093671
5.4874100685,0.0029035588,-0.0019465791,0.0114710564,0.0201279130,-0.0216136649,-0.0165467300
5.4974160194,0.0051083048,-0.0076841819,0.0115941400,0.0126413684,-0.0205886140,-0.0154882558
5.5073919296,-0.0005726138,-0.0086617572,0.0057012672,0.0029562507,-0.0152287362,-0.0048923376
5.5174441338,-0.0053656022,-0.0067913639,-0.0041693221,-0.0067251390,-0.0088315569,0.0025117830
5.5274238586,-0.0083636260,-0.0019848451,-0.0062676435,-0.0110996468,-0.0002242206,0.0130829345
5.5374321938,-0.0026193182,-0.0059080827,-0.0024084814,-0.0143646821,0.0072347606,0.0130355312
5.5474061966,0.0001681825,-0.0069448459,-0.0024546750,-0.0015876349,0.0115996813,0.0119359111
5.5574221611,0.0000358900,-0.0039903033,0.0053998465,0.0037558652,0.0158069450,-0.0008436670
5.5674247742,0.0068732579,-0.0058558094,0.0065219039,0.0145419333,0.0051388526,-0.0082187587
5.5773973465,0.0138070369,-0.0096234186,0.0097106928,0.0274474770,-0.0044266889,-0.0134773031
5.5874061584,0.0089946473,-0.0075780856,0.0147965783,0.0306656435,-0.0075809369,-0.0102719227
5.5973339081,0.0071495255,-0.0035830841,0.0130333537,0.0243101418,-0.0140329776,-0.0091636479
5.6073713303,0.0053412397,-0.0084548695,0.0082690353,0.0157363620,-0.0140084764,0.0014660927
5.6173410416,-0.0033783237,-0.0153901083,0.0014237992,-0.0003342181,-0.0097934911,0.0088864584
5.6275529861,-0.0054737846,-0.0076701152,-0.0016396411,-0.0164484717,-0.0002354060,0.0162724704
5.6373162270,-0.0037674229,-0.0028971538,-0.0008457669,-0.0229254160,0.0040861052,0.0268701203
5.6473779678,-0.0020871083,-0.0040205824,0.0009441010,-0.0219158102,0.0094742123,0.0310840383
5.6573729515,0.0005016407,-0.0011991964,0.0037565462,-0.0090538077,0.0052515049,0.0257912725
5.6673531532,-0.0007188538,-0.0003243194,0.0076192850,0.0017146850,-0.0032791328,0.0184023306
5.6773643494,0.0040235897,-0.0042042243,0.0135563249,0.0070537897,-0.0001035796,0.0109454812
5.6873283386,0.0039788266,-0.0051721442,0.0165407285,0.0081909597,-0.0044607772,0.0003490299
5.6973543167,0.0010790309,-0.0012468802,0.0165972337,0.0189312231,-0.0118731540,-0.0017372904
5.7073688507,0.0011829516,-0.0031721101,0.0108983750,0.0199863669,-0.0107871164,-0.0006826788
5.7173433304,-0.0036114375,-0.0022349462,0.0031054846,0.0049919705,-0.0044940668,-0.0007111747
5.7272691727,-0.0046385447,0.0016317858,-0.0008272894,-0.0079392744,0.0061846767,0.0098525202
5.7372961044,-0.0047745029,0.0025062456,-0.0047775274,-0.0091310395,0.0180048514,0.0182758328
5.7473001480,-0.0079404628,0.0033670559,-0.0038556226,-0.0102791274,0.0265735704,0.0214082412
5.7572069168,-0.0023289244,-0.0015376316,0.0021150343,-0.0027933810,0.0255479887,0.0192831736
5.7672891617,-0.0006144861,-0.0025151477,0.0100479955,0.0058139558,0.0202070195,0.0118750576
5.7772798538,0.0031253775,0.0004544152,0.0170030817,0.0091137458,0.0095186876,0.0087542329
5.7872738838,0.0050294180,0.0024252429,0.0170919523,0.0071312883,-0.0044908710,-0.0028398393
5.7972669601,0.0051390310,-0.0004768477,0.0142154330,0.0029169684,-0.0088496674,-0.0081178248
5.8072481155,-0.0005529443,-0.0015128957,0.0043593878,-0.0023917770,-0.0131477425,-0.0059614638
5.8172512054,-0.0014633456,0.0052763713,-0.0035879381,-0.0109418547,-0.0121408012,-0.0059641264
5.8272519112,-0.0033679823,0.0062404764,-0.0027705797,-0.0153113035,-0.0025009571,0.0003507608
5.8372488022,-0.0053111534,0.0012988342,-0.0029209026,-0.0175209288,0.0049987710,0.0045537618
5.8472390175,-0.0025032680,0.0051767123,-0.0010668405,-0.0154580437,0.0125235319,0.0076906993
5.8572421074,-0.0006885449,0.0100107091,-0.0011595853,-0.0112358686,0.0179092437,0.0087152179
5.8672533035,0.0001961967,0.0041100276,-0.0001560219,-0.0048402864,0.0190275051,0.0087035000
5.8772311211,0.0010309002,0.0002036585,0.0077235927,-0.0005282294,0.0147667136,0.0066037304
5.8872251511,0.0009386023,0.0031328097,0.0116324658,-0.0047101909,0.0061386037,0.0013506445
5.8971929550,0.0019606431,-0.0007763610,0.0096981162,-0.0025142822,-0.0002782829,-0.0007326130
5.9072332382,0.0010837099,-0.0017749177,0.0037603013,-0.0088363606,-0.0078632319,-0.0070533594
5.9171791077,-0.0046144645,-0.0037907467,-0.0003319748,-0.0205617268,-0.0079966560,-0.0123575777
5.9272050858,-0.0015624085,0.0011044039,-0.0054328805,-0.0173155982,-0.0133155212,-0.0123253539
5.9371829033,-0.0063422243,0.0069309366,-0.0086165434,-0.0183824617,-0.0133248428,-0.0123240221
5.9471921921,-0.0062396447,0.0118073719,-0.0098333126,-0.0184298661,-0.0079721557,-0.0112963077
5.9571890831,-0.0032248418,0.0118617909,-0.0060750609,-0.0120207015,-0.0079343384,-0.0123621048
5.9671831131,-0.0011588851,0.0041273129,0.0016899935,-0.0067644212,0.0006839172,-0.0092344880
5.9771800041,-0.0000449935,0.0002496137,-0.0002788671,-0.0046346914,0.0017595682,-0.0103050787
5.9872899055,-0.0019338647,0.0022313490,0.0035432808,-0.0067308657,-0.0025409043,-0.0113381194
5.9975461960,-0.0017904857,-0.0006616221,0.0025018088,-0.0109487791,-0.0079393983,-0.0144899711
6.0072579384,-0.0015684286,-0.0064800489,0.0014323823,-0.0098813847,-0.0079311430,-0.0144907702
6.0175700188,0.0005655666,-0.0054701078,-0.0026010640,-0.0097574135,-0.0208035316,-0.0197181553
6.0270571709,-0.0002973596,0.0062923324,0.0000725619,-0.0182718076,-0.0251173191,-0.0164970625
6.0370187759,0.0028295298,0.0053553474,-0.0040392647,-0.0129466830,-0.0250459462,-0.0133155175
6.0469942093,0.0010465762,0.0033800497,-0.0072103511,-0.0129621280,-0.0260512903,-0.0058722477
6.0570201874,0.0001115283,0.0063031805,-0.0044602519,-0.0076746885,-0.0216956902,-0.0005893351
6.0673060417,-0.0027947347,0.0062936437,-0.0016618737,-0.0024149455,-0.0130864903,0.0014759465
6.0771312714,-0.0027798037,0.0033508434,0.0002494089,-0.0013958877,-0.0077236826,0.0025019294
6.0871062279,0.0011527023,-0.0044214833,0.0022759072,0.0049576159,-0.0023124053,0.0045871846
6.0970888138,-0.0007997671,-0.0015180813,-0.0006663569,0.0007093409,-0.0013560641,-0.0049786237
6.1071300507,-0.0016781309,-0.0034383640,-0.0006788142,0.0007897690,-0.0078408616,-0.0134357587
6.1171030998,0.0032920321,-0.0043216455,0.0032590262,0.0018423833,-0.0067476337,-0.0113178799
6.1271038055,0.0033879955,-0.0032985911,0.0032816164,0.0050235288,-0.0045763585,-0.0102717895
6.1370773315,-0.0014244238,0.0025379553,-0.0006949075,0.0007748557,-0.0078003812,-0.0081216861
6.1471300125,-0.0033028047,0.0025521412,-0.0007216700,0.0007239887,-0.0024386391,-0.0060316380
6.1571521759,-0.0003663817,0.0026162162,0.0032245747,0.0017977757,-0.0045412048,-0.0038981794
6.1670989990,0.0016142210,0.0016770257,0.0013606183,0.0124086086,0.0019808766,-0.0007607094
6.1770529747,0.0026349803,-0.0022099719,-0.0013845928,0.0166740604,0.0030711750,-0.0018319660
6.1870813370,0.0026171883,-0.0021386847,0.0036530725,0.0167108104,-0.0001621691,-0.0049981982
6.1970720291,0.0017326555,-0.0059691775,0.0086708898,0.0125024840,-0.0055840984,-0.0102720559
6.2070641518,-0.0010775247,-0.0088552339,0.0087317461,0.0071884124,-0.0088225026,-0.0091849538
6.2170381546,-0.0009587029,-0.0048896181,0.0087080235,0.0019122912,-0.0152966473,-0.0112628853
6.2271051407,-0.0007927040,-0.0048508155,0.0057307119,-0.0002033245,-0.0164090507,-0.0144413682
6.2370052338,0.0013325891,-0.0086971624,0.0066519012,-0.0001812195,-0.0196045768,-0.0133590586
6.2470541000,-0.0005002538,-0.0047832238,0.0045638317,0.0019274708,-0.0184740648,-0.0080559067
6.2567682266,-0.0013999859,0.0030314818,0.0005520217,0.0040529398,-0.0173877608,-0.0080649611
6.2670722008,-0.0013044396,-0.0027801499,0.0025543801,0.0147114433,-0.0183105469,-0.0006296819
6.2770462036,-0.0032077054,-0.0047264206,0.0006457202,0.0071296906,-0.0055324333,0.0003540898
6.2870621681,-0.0013469675,0.0040804041,0.0016482703,0.0102549102,0.0009680765,0.0077464925
6.2968883514,-0.0023721973,0.0030864372,0.0017163984,0.0081427563,-0.0011981388,0.0067012017
6.3070268631,-0.0004482487,-0.0007951365,0.0057265991,0.0092434408,-0.0044141719,0.0045965053
6.3170118332,0.0015406689,-0.0085687740,0.0068197479,0.0082237162,-0.0087287594,0.0014401269
6.3269920349,0.0024998863,-0.0036461458,0.0078191394,0.0114469407,-0.0108505003,0.0003892435
6.3369503021,0.0054540117,-0.0006913648,0.0059160222,0.0050713331,-0.0130662490,-0.0027783201
6.3470067978,-0.0003123799,0.0002596273,0.0029331676,0.0072428747,-0.0162830818,-0.0059461500
6.3570003510,0.0026830514,0.0012985958,0.0029494397,0.0040428201,-0.0173589997,-0.0038118931
6.3669643402,0.0008264860,-0.0016219722,0.0039080018,0.0051243301,-0.0194791425,-0.0027365086
6.3769459724,-0.0000990549,-0.0015895473,0.0067717666,-0.0013246471,-0.0141858431,-0.0038327989
6.3869781494,0.0019323310,-0.0054977643,0.0038021437,-0.0035153637,-0.0098731192,0.0025151116
6.3969287872,-0.0030030827,-0.0006675230,0.0065874686,-0.0077876076,-0.0098986859,0.0035814415
6.4070138931,-0.0010893265,0.0012668861,0.0055231685,-0.0099522248,-0.0066999630,0.0046246019
6.4170041084,-0.0011224368,-0.0017125712,0.0063885087,-0.0121302912,-0.0013741737,0.0045922445
6.4269638062,-0.0069469730,-0.0037724480,0.0003997318,-0.0068039680,0.0007864488,0.0024497311
6.4369697571,-0.0011222878,-0.0017801033,0.0004106394,0.0017387858,0.0029348210,-0.0039441190
6.4469308853,-0.0011109033,0.0021760359,0.0033681027,0.0082131969,-0.0034732772,-0.0092190420
6.4571342468,-0.0010166982,0.0032307401,0.0044133300,0.0114397500,-0.0056038061,-0.0113323936
6.4669380188,0.0010857662,0.0003902806,0.0064664716,0.0136288684,-0.0109580914,-0.0144863753
6.4769363403,-0.0016633788,-0.0044458020,0.0036192767,0.0168373119,-0.0140865073,-0.0080933236
6.4869298935,-0.0015638986,-0.0063296664,0.0056640739,0.0157350302,-0.0119120358,-0.0027946986
6.4971218109,-0.0015817502,-0.0033829913,0.0056990022,0.0082667265,-0.0161621757,0.0067990730
6.5069241524,-0.0045296471,-0.0005188690,0.0017239086,-0.0035308106,-0.0098315738,0.0078286510
6.5169248581,-0.0046135704,-0.0005906926,0.0006581775,-0.0045899507,-0.0129991379,0.0131610986
6.5269203186,-0.0017848233,-0.0064772475,0.0026021830,-0.0036400007,-0.0011805617,0.0194581430
6.5370378494,-0.0010158935,-0.0036624179,-0.0013623007,-0.0036692955,-0.0000580396,0.0258254949
6.5469021797,-0.0003317514,0.0021005764,0.0005246035,-0.0101106819,0.0052179489,0.0236709975
6.5568971634,0.0023591598,0.0010767473,0.0073772897,-0.0004435414,-0.0011400819,0.0215816144
6.5668911934,0.0051505645,-0.0057639587,0.0123237008,0.0028057816,-0.0043758228,0.0152259804
6.5768609047,0.0060624559,-0.0087155802,0.0123945111,0.0135295326,-0.0065143406,0.0056718895
6.5868883133,0.0031116982,-0.0057960260,0.0114880437,0.0146493921,-0.0108262654,0.0003871131
6.5968942642,0.0002091905,-0.0028613911,0.0095928544,0.0179009791,-0.0172071978,0.0004229324
6.6068830490,-0.0007518450,0.0000816478,0.0086689228,0.0114843585,-0.0161789525,0.0014831368
6.6168770790,-0.0017217019,0.0049446118,0.0047220821,0.0039850296,-0.0130260363,0.0025325555
6.6268157959,-0.0017334142,0.0049296510,0.0037308566,0.0017538331,-0.0033787349,0.0077835098
6.6368560791,0.0020870049,0.0039439690,0.0027887456,-0.0014960216,0.0009028290,0.0109430850
6.6468501091,0.0010291418,0.0019162191,0.0007872216,-0.0101001617,0.0083269225,0.0119633414
6.6568470001,0.0009352645,-0.0040174234,0.0007564656,-0.0111822048,0.0094033731,0.0140829515
6.6668591499,0.0016968629,-0.0030746565,0.0094874734,-0.0090772426,0.0126351193,0.0151229147
6.6768469810,0.0005260190,-0.0011994945,0.0113929743,-0.0069307359,0.0115749147,0.0140653737
6.6868309975,-0.0005723754,-0.0061521041,0.0123664970,-0.0058423011,0.0094366632,0.0130160879
6.6968278885,0.0012176713,-0.0012942062,0.0142977471,-0.0015014810,0.0019627672,0.0098736919
6.7067790031,0.0002202472,-0.0023275719,0.0113344425,0.0039582653,-0.0108659463,0.0046411133
6.7169470787,-0.0036804001,-0.0023672685,0.0093290443,0.0029180339,-0.0140819792,0.0046634837
6.7268199921,-0.0046690921,0.0044097793,0.0023842088,-0.0045223050,-0.0163134430,0.0004335851
6.7368102074,-0.0076062898,0.0102180736,0.0012286536,-0.0120246960,-0.0142012890,0.0036096713
6.7468032837,-0.0075667719,0.0052598608,-0.0037954219,-0.0153480554,-0.0003145018,0.0056467233
6.7567777634,-0.0086454665,0.0061593545,-0.0049326783,-0.0197208337,0.0103831496,0.0119601460
6.7667922974,-0.0108112013,0.0109451907,-0.0002203353,-0.0197610445,0.0136255473,0.0161887128
6.7767891884,-0.0051344554,0.0060238731,0.0036694638,-0.0155431321,0.0200666692,0.0150792394
6.7867860794,-0.0023396532,0.0011412395,0.0086140865,0.0026111044,0.0212304723,0.0097470582
6.7967791557,0.0014429173,0.0011812939,0.0146259898,0.0091212019,0.0115911597,0.0013048383
6.8067703247,-0.0014715710,0.0041013849,0.0098726982,0.0176670197,0.0137312757,-0.0061517465
6.8167791367,-0.0033828239,0.0080783265,0.0090917582,0.0262800828,0.0073298360,-0.0124902036
6.8267722130,-0.0022816579,0.0101284878,0.0064201588,0.0274422858,-0.0033672834,-0.0145464297
6.8367691040,-0.0001188437,0.0063504470,0.0046841735,0.0157058667,-0.0024253232,-0.0187940393
6.8467540741,-0.0058114449,0.0073778522,0.0057237977,0.0060678874,-0.0003259534,-0.0145513564
6.8567490578,-0.0008246819,0.0093983309,0.0018798939,0.0017716764,0.0018029776,-0.0113736726
6.8667311668,-0.0017130295,0.0074770343,0.0028295747,-0.0111265453,0.0113496110,-0.0082393987
6.8767390251,-0.0036343257,0.0015979303,0.0047384733,-0.0123095214,0.0231458172,-0.0030046890
6.8867020607,-0.0036327760,-0.0003934608,-0.0001911290,-0.0144424476,0.0220786892,-0.0008714970
6.8966979980,-0.0036857645,0.0035128489,0.0046231980,-0.0112341372,0.0231338330,-0.0051290924
6.9067931175,0.0011434337,0.0045517576,0.0095721716,-0.0048140557,0.0220965315,-0.0072516319
6.9176249504,0.0031341393,0.0055615795,0.0076938504,0.0069862786,0.0168050956,-0.0114739407
6.9272770882,0.0042383154,0.0017523064,0.0088469023,0.0113397483,0.0103442678,-0.0209966041
6.9372329712,0.0024964591,-0.0000988947,0.0090189809,0.0199252479,0.0050597573,-0.0220317766
6.9472379684,0.0055759032,0.0029607310,0.0062791938,0.0188176371,0.0082939006,-0.0178024098
6.9570522308,0.0047349115,0.0059612882,0.0015684001,0.0156980120,-0.0024032192,-0.0156045035
6.9664649963,0.0019350728,0.0021701946,0.0105202431,0.0210315250,-0.0023528854,-0.0145461634
6.9766850471,0.0001896700,-0.0065476405,0.0096881622,0.0049233939,0.0082334466,-0.0124811474
6.9864883423,0.0002209624,0.0022634759,0.0057540769,-0.0057521537,0.0071093258,-0.0092792297
6.9965353012,-0.0045663039,-0.0007114516,0.0027839176,-0.0068578981,0.0113844983,-0.0082435263
7.0065379143,-0.0034778635,-0.0104714734,-0.0001134046,-0.0079708323,0.0156783126,-0.0050834194
7.0164589882,-0.0015792766,-0.0045826542,0.0018074147,-0.0112013808,0.0199106093,-0.0072335224
7.0265121460,-0.0015980819,-0.0016443239,0.0047523612,-0.0005133161,0.0178647693,-0.0061653284
7.0365080833,0.0003236016,0.0003843798,0.0097384686,0.0069596469,0.0179201625,-0.0061697224
7.0465002060,-0.0006749550,0.0033549562,0.0108614201,0.0133078238,0.0243911110,-0.0051537268
7.0564990044,-0.0006300727,0.0024355545,0.0082198018,0.0293373913,0.0234222524,-0.0072805276
7.0666160583,-0.0044732015,0.0005326166,0.0065915817,0.0325992331,0.0170165524,-0.0093660485
7.0766510963,-0.0063569765,-0.0003609167,0.0069163074,0.0261875372,0.0180306826,-0.0104325116
7.0865869522,-0.0014296094,-0.0021797523,0.0091858739,0.0186981950,0.0201103445,-0.0104407668
7.0966329575,-0.0022665779,-0.0089380248,0.0094053382,0.0069937357,0.0167859215,-0.0135980779
7.1066179276,0.0017054161,-0.0088785989,0.0075506205,-0.0047473423,0.0146029275,-0.0082637668
7.1163997650,0.0027222116,-0.0098530753,0.0055748457,-0.0133103384,0.0156442244,-0.0040161577
7.1264142990,0.0007972499,-0.0108466251,0.0064383978,-0.0154153006,0.0124124782,-0.0050561219
7.1364169121,0.0007783850,-0.0099004610,0.0063137044,-0.0229555108,0.0198538825,-0.0029743291
7.1467962265,-0.0080594933,0.0007191195,0.0031175844,-0.0229708198,0.0219846796,-0.0040517105
7.1566410065,-0.0041987221,0.0055847657,0.0020154945,-0.0239752326,0.0134455180,-0.0018712477
7.1666331291,0.0016197046,-0.0002422438,0.0087476606,-0.0294174012,0.0241367798,0.0033751796
7.1766161919,0.0015939554,-0.0042191255,0.0067040557,-0.0101700705,0.0210592300,0.0012578336
7.1866140366,0.0044534286,-0.0012721525,0.0077125663,-0.0037534507,0.0200309847,0.0001976292
7.1965861320,0.0054193814,-0.0022583113,0.0038949482,0.0016026981,0.0189763717,-0.0029864463
7.2065181732,-0.0033089737,-0.0042469609,0.0029250614,0.0026892684,0.0178887378,-0.0061673261
7.2166070938,-0.0013588289,-0.0012661921,0.0049677724,0.0016647503,0.0135858674,-0.0082627013
7.2265648842,0.0016468248,-0.0041242349,0.0050624837,0.0027691629,0.0082686003,-0.0061042090
7.2365722656,0.0007153829,-0.0050901878,0.0051186914,0.0005985536,0.0125283264,-0.0061309738
7.2464981079,-0.0012048999,-0.0031592355,0.0002092354,-0.0057986258,0.0103685027,-0.0029253266
7.2565522194,-0.0022032778,0.0007069006,-0.0027804740,-0.0111406604,0.0103416042,-0.0007947979
7.2665472031,-0.0041251103,-0.0032444105,-0.0029110678,-0.0261230692,0.0166021641,-0.0050744978
7.2765197754,-0.0031252424,-0.0062369215,-0.0069501763,-0.0283317640,0.0251447856,-0.0040660920
7.2866458893,-0.0002475301,0.0005769624,-0.0090688830,-0.0272731595,0.0262217671,-0.0040738150
7.2965321541,-0.0012885848,0.0034526482,-0.0082930094,-0.0358414799,0.0283227358,-0.0008954655
7.3065490723,-0.0013705710,0.0034350648,-0.0025301941,-0.0134051470,0.0263496004,-0.0019607297
7.3165321350,0.0054010828,0.0035137429,0.0044117803,0.0037192460,0.0221785568,-0.0051322882
7.3268032074,0.0064336737,-0.0013330089,0.0026268594,0.0069829500,0.0147222374,-0.0050862157
7.3365149498,0.0025666435,-0.0013063656,0.0036810271,0.0070539229,0.0072158528,-0.0082256831
7.3465070724,0.0016421458,0.0016603364,0.0047280425,0.0092502320,-0.0002487218,-0.0081788115
7.3565039635,0.0037033637,0.0017200006,0.0018692247,0.0028977944,-0.0056621293,-0.0102630015
7.3665399551,-0.0000325957,-0.0022176609,-0.0059779654,-0.0056517515,-0.0057010115,-0.0070696045
7.3764700890,-0.0009376625,0.0006692304,-0.0129368072,-0.0142307254,-0.0014807000,-0.0060297735
7.3864941597,-0.0008690277,-0.0012924181,-0.0150117641,-0.0185090937,-0.0004449968,-0.0060335016
7.3964891434,-0.0028074901,-0.0013190614,-0.0103165274,-0.0185708813,0.0059918631,-0.0028867109
7.4064540863,0.0000428935,0.0055178297,-0.0085009700,-0.0132392319,0.0070928140,-0.0039599650
7.4164690971,-0.0048623602,0.0142586129,-0.0115331179,-0.0015170611,0.0082795192,-0.0007886726
7.4264659882,-0.0038589756,0.0055110944,-0.0075269113,0.0070202341,0.0093961824,-0.0029266581
7.4364700317,0.0011034688,-0.0051351893,-0.0024207004,0.0102768801,0.0050946446,-0.0092768325
7.4464559555,0.0001257738,-0.0001670228,0.0044815773,0.0082089361,-0.0034626245,-0.0081575066
7.4564218521,0.0002647718,-0.0011133658,0.0006349317,0.0093711391,-0.0131128551,-0.0123434626
7.4663329124,-0.0005268375,-0.0059458124,-0.0012799271,0.0040552039,-0.0153006418,-0.0133879548
7.4765310287,-0.0003979126,-0.0019914017,-0.0033101805,-0.0044302931,-0.0238725580,-0.0080138287
7.4864768982,-0.0051882188,0.0018851651,-0.0044808155,-0.0097795175,-0.0228360575,-0.0069544232
7.4964690208,-0.0050971429,0.0038042560,-0.0085896021,-0.0151342042,-0.0217865035,-0.0048346799
7.5064301491,-0.0040734331,0.0057366979,-0.0097737676,-0.0162295625,-0.0196301434,-0.0016607248
7.5164041519,-0.0040793340,0.0096260207,-0.0090142852,-0.0141698737,-0.0120968586,0.0025388140
7.5264191628,0.0037163575,0.0077002537,-0.0080765849,0.0007422315,-0.0098076053,0.0067631202
7.5363159180,0.0017501196,0.0018603100,0.0007192127,0.0018206779,-0.0087830881,0.0003804551
7.5464072227,0.0027816673,-0.0068512666,0.0086401934,0.0135969101,-0.0108750015,-0.0049261595
7.5563879013,0.0048115333,-0.0058052051,0.0077699060,0.0146509893,-0.0087399445,-0.0060023433
7.5663981438,-0.0009280363,-0.0028740868,0.0019901625,0.0210779961,-0.0097953547,-0.0102495523
7.5762758255,-0.0066766660,0.0030147329,0.0000718466,0.0168684702,-0.0162596460,-0.0123290820
7.5863790512,-0.0006440798,-0.0026998029,0.0022106997,0.0158010758,-0.0162679031,-0.0123282829
7.5963931084,-0.0014745513,-0.0016697751,0.0022185675,0.0019595623,-0.0196021795,-0.0144204618
7.6063899994,-0.0033401172,0.0052212966,0.0030924908,0.0008993577,-0.0217207242,-0.0112188095
7.6163749695,-0.0021493952,0.0013472332,-0.0018431910,-0.0066172807,-0.0164330173,-0.0112487702
7.6263780594,0.0018999657,-0.0015528904,-0.0029534467,-0.0108586317,-0.0207228381,-0.0090932073
7.6363830566,-0.0019019166,-0.0015443669,0.0007329218,-0.0225959830,-0.0218706597,-0.0080164913
7.6463079453,0.0020340760,0.0034385815,0.0141691202,-0.0129737137,-0.0228831936,-0.0101414286
7.6563062668,0.0022575636,-0.0053468454,0.0148982638,-0.0311262198,-0.0198671650,-0.0154580297
7.6663513184,0.0073620756,-0.0073264944,0.0067091216,-0.0428760871,-0.0209814310,-0.0101306420
7.6763548851,0.0035631736,-0.0054773795,0.0013497702,-0.0343792737,-0.0176665932,-0.0048448001
7.6863517761,-0.0011839786,-0.0065032947,0.0019831292,-0.0247255769,-0.0208528005,-0.0112052271
7.6963348389,0.0017798623,0.0032907620,0.0065562362,-0.0236850809,-0.0176372994,-0.0112273321
7.7063422203,-0.0019561271,-0.0006367074,0.0053518647,-0.0097879078,-0.0196764823,-0.0122862048
7.7163271904,-0.0028341333,0.0062712920,0.0101031894,0.0073544607,-0.0259879064,-0.0165093131
7.7263140678,0.0022583683,0.0064379466,0.0150345201,0.0202734545,-0.0355888680,-0.0260175969
7.7362623215,0.0026539047,-0.0041256058,0.0161615834,0.0320731215,-0.0419237316,-0.0270450432
7.7462902069,0.0020139595,0.0008562698,0.0074277157,0.0246013589,-0.0419815220,-0.0270394515
7.7562837601,-0.0025755386,0.0058221114,0.0025523535,0.0202383026,-0.0323587209,-0.0228497665
7.7662658691,-0.0043103616,0.0088090794,0.0004900328,-0.0022784593,-0.0239007883,-0.0133273676
7.7762560844,-0.0011555472,-0.0067702639,-0.0014893182,-0.0141532281,-0.0110939126,-0.0049032564
7.7862501144,-0.0059802453,-0.0117322905,0.0002110235,-0.0334872454,0.0005768582,0.0024713026
7.7962250710,-0.0002478281,-0.0068594920,0.0057895416,-0.0356746316,0.0069724391,0.0024314886
7.8062973022,0.0025930782,-0.0039934027,0.0074551930,-0.0324301049,0.0006120119,0.0056576421
7.8162717819,0.0015319964,-0.0001721488,0.0110304588,-0.0292132702,0.0005968318,0.0003409071
7.8262453079,-0.0004360596,0.0026821985,0.0078706378,-0.0131461546,-0.0057007452,-0.0006918667
7.8363099098,-0.0033931653,0.0104857581,0.0106346244,-0.0002649762,-0.0131109906,-0.0038394567
7.8462591171,-0.0004179398,0.0056496751,0.0126468772,0.0114659816,-0.0129930126,-0.0006612402
7.8562459946,-0.0012672463,0.0007958307,0.0107463831,0.0072338199,-0.0131221768,-0.0112785976
7.8662829399,-0.0050111036,-0.0001446710,0.0097780460,0.0125412336,-0.0119578429,-0.0049155070
7.8762531281,0.0009661993,-0.0030239329,0.0021093718,0.0167776570,-0.0076560383,-0.0060101990
7.8862471581,0.0000597915,-0.0068678963,0.0051558847,0.0113599878,0.0008796596,-0.0028745935
7.8962159157,-0.0009140293,-0.0068719494,0.0032615892,0.0070475321,0.0051433803,0.0002905733
7.9062471390,-0.0000339667,-0.0019728050,0.0072257156,0.0037856922,0.0115490817,0.0023760947
7.9161581993,-0.0039895396,-0.0000327931,0.0092244977,0.0037771696,0.0126151452,0.0013036400
7.9261960983,-0.0030347030,-0.0000343428,0.0073362817,0.0016916478,0.0061953291,0.0024091180
7.9361972809,-0.0011310497,0.0019351138,0.0083694095,0.0048883739,0.0083269235,-0.0007924009
7.9462013245,-0.0001722196,0.0019827380,0.0123266811,0.0081624640,0.0008434406,-0.0039333333
7.9562101364,0.0027890881,0.0020784631,0.0173399076,0.0135784019,-0.0066419062,-0.0092003997
7.9661960602,0.0009754380,0.0001734986,0.0164326057,0.0114769014,-0.0098827071,-0.0113026993
7.9761919975,-0.0036725621,-0.0018035875,0.0056353444,-0.0023652781,-0.0111261364,-0.0197865982
7.9862213135,-0.0054451446,-0.0018037067,0.0016249649,-0.0088218460,-0.0089476714,-0.0091723036
7.9964451790,-0.0024591307,-0.0007891164,0.0025117032,-0.0088886907,-0.0024985604,-0.0049647754
8.0061407089,-0.0053593735,0.0011287822,0.0004498593,-0.0111164255,0.0071396860,-0.0007761556
8.0162153244,-0.0054202001,0.0059823287,0.0003192655,-0.0165066645,0.0135139618,0.0002515581
8.0261631012,-0.0024962942,0.0030460849,0.0021948449,-0.0218718685,0.0177294798,-0.0018968139
8.0361680984,0.0033002277,0.0020938411,0.0069713825,-0.0197273567,0.0156285111,0.0002391743
8.0461635590,0.0071835001,-0.0008202301,0.0108341807,-0.0079702996,0.0146324895,-0.0018873598
8.0561456680,0.0061845859,0.0001599087,0.0137481326,0.0006025489,0.0114734489,-0.0039972491
8.0660896301,0.0052610119,-0.0017886268,0.0099164480,0.0080918903,0.0093937851,-0.0039889934
8.0761356354,0.0004110714,0.0011485113,0.0080444450,0.0156201143,0.0040765181,-0.0071448395
8.0861625671,-0.0004601399,0.0001937045,0.0033444397,0.0252495725,0.0009536955,-0.0060689216
8.0961189270,-0.0032841186,-0.0017061339,0.0016003482,0.0252772681,-0.0012103893,-0.0092423446
8.1061658859,-0.0071061174,0.0032223358,-0.0021562346,0.0263710283,-0.0044083130,-0.0092223715
8.1160945892,-0.0031551640,0.0033194914,-0.0009717115,0.0146055827,-0.0044381404,-0.0028429020
8.1260824203,-0.0031263749,-0.0015263067,0.0029675595,-0.0143001005,0.0049756016,-0.0007589783
8.1360740662,-0.0011859456,-0.0054588425,0.0057311887,-0.0271028504,0.0027686395,0.0024502641
8.1460685730,0.0055844863,-0.0103328926,0.0143445367,-0.0334965661,0.0005997613,0.0045935758
8.1560716629,0.0035819490,-0.0094824536,0.0110734338,-0.0377931744,0.0037742492,0.0045753331
8.1660470963,-0.0022995989,-0.0047673690,0.0028531186,-0.0356285572,0.0005755266,0.0035321731
8.1760692596,-0.0062525789,0.0019339217,-0.0023713477,-0.0228073038,-0.0004037176,0.0024674414
8.1860380173,-0.0052822451,0.0028763905,-0.0034869679,-0.0110941874,0.0039438927,0.0003062859
8.1960391998,-0.0053009908,0.0009374513,-0.0005097755,0.0123801120,0.0051955786,0.0013479814
8.2060499191,-0.0043549458,0.0019733801,-0.0002847083,0.0305010602,0.0095836688,-0.0018803022
8.2160339355,0.0005275091,0.0021034374,0.0020596616,0.0369146168,0.0096084364,-0.0050732996
8.2260437012,0.0015494606,0.0002403154,0.0024143092,0.0348043293,0.0074363621,-0.0071825231
8.2360286713,0.0084278071,-0.0064457166,0.0038517944,0.0401211977,0.0075306376,-0.0008118420
8.2460269928,0.0035525043,-0.0054389345,0.0031790368,0.0315628611,0.0085604824,0.0023746300
8.2560129166,0.0005909880,-0.0025014982,-0.0005424984,0.0144888032,0.0073708482,0.0034556075
8.2660083771,0.0044541438,-0.0054472792,-0.0052782660,0.0005990863,0.0052075628,0.0130408555
8.2759895325,0.0033309539,-0.0045065391,-0.0003955134,-0.0015202565,0.0041068783,0.0119902398
8.2859973907,0.0051846583,-0.0035852299,-0.0033757456,-0.0078966627,0.0018927262,0.0088218767
8.2959928513,0.0051253517,-0.0055866945,-0.0044060713,-0.0078676352,-0.0013230410,0.0067137182
8.3059997559,0.0001061937,0.0041041267,-0.0026231178,-0.0057363072,-0.0012974746,0.0077744555
8.3160352707,0.0009693583,0.0118809240,-0.0027095445,-0.0025200080,-0.0013094587,0.0035229849
8.3259963989,-0.0009893397,0.0059870970,-0.0026798018,0.0049184673,0.0019726208,0.0056212898
8.3360214233,-0.0019719522,0.0011016025,-0.0016292699,0.0081624640,-0.0012482061,0.0013919235
8.3460197449,0.0019339999,0.0001904263,0.0004414550,0.0135521693,-0.0076192864,0.0014294744
8.3559808731,0.0009890875,-0.0017430292,0.0005784861,0.0189302899,-0.0118712895,-0.0017382227
8.3659353256,-0.0009346525,0.0002383484,-0.0012708672,0.0232139844,-0.0139666647,-0.0006652351
8.3759508133,-0.0028917412,0.0070964587,-0.0011659630,0.0211130157,-0.0161595121,-0.0038309346
8.3857278824,-0.0076881866,0.0041744006,-0.0030228265,0.0200299099,-0.0150809307,-0.0017123901
8.3959608078,-0.0114796078,-0.0006961928,-0.0058836704,0.0093759336,-0.0162609778,-0.0048836824
8.4059591293,-0.0163185820,0.0032029643,-0.0040319930,-0.0045300275,-0.0131530687,-0.0038317335
8.4159355164,-0.0084566986,0.0032645359,-0.0031013854,-0.0087990761,-0.0142340455,-0.0016982751
8.4257736206,-0.0083736395,-0.0035953030,-0.0032474168,-0.0151507147,-0.0206959397,-0.0016519361
8.4359874725,-0.0053811590,-0.0045886743,-0.0054033166,-0.0205058008,-0.0196455885,0.0004674073
8.4459991455,-0.0044192593,0.0032105341,-0.0036957629,-0.0119421389,-0.0217351057,-0.0016498058
8.4559068680,-0.0063467841,0.0041785133,-0.0009435781,-0.0034238845,-0.0195228178,-0.0006075776
8.4657506943,-0.0062450091,0.0041848910,-0.0048924452,0.0115388194,-0.0205031261,-0.0037988436
8.4759092331,-0.0071188430,0.0032585755,-0.0048027998,0.0232604556,-0.0161768217,-0.0080830706
8.4859037399,-0.0021595876,0.0063325060,-0.0016454824,0.0393049382,-0.0213694535,-0.0048734290
8.4958915710,-0.0010325232,0.0025936856,0.0006784431,0.0510569364,-0.0192146897,-0.0133942124
8.5058603287,-0.0028457860,0.0008094205,0.0069120163,0.0500001945,-0.0213422906,-0.0112548955
8.5159063339,0.0060443957,0.0010278715,0.0102704400,0.0500145741,-0.0245181080,-0.0080487160
8.5258989334,0.0061838110,-0.0017744409,0.0115793580,0.0414913930,-0.0277631711,-0.0048345467
8.5358963013,0.0092571462,-0.0065476405,0.0117972130,0.0190847535,-0.0290050022,-0.0048109777
8.5458498001,0.0084132338,-0.0123770935,0.0127229923,-0.0086709782,-0.0292105991,-0.0037278703
8.5559329987,0.0036662896,-0.0124725802,0.0055845017,-0.0247506108,-0.0218347069,-0.0016399521
8.5659046173,-0.0001739780,-0.0106213195,0.0022663109,-0.0322170481,-0.0229521692,-0.0005651002
8.5759258270,-0.0021208446,-0.0067886221,0.0028190247,-0.0365613326,-0.0154713504,0.0025738345
8.5859708786,0.0036753495,0.0000211491,0.0054227943,-0.0259278603,-0.0100542139,0.0014688892
8.5958929062,0.0026890715,0.0009666576,0.0071840519,-0.0024381159,-0.0098888325,0.0003925725
8.6059055328,0.0026940187,0.0029033318,0.0042537679,0.0156601947,-0.0043957960,0.0014067041
8.6158924103,0.0074940403,0.0078941481,0.0084094638,0.0391948149,-0.0095780408,-0.0006998561
8.6259603500,0.0055477102,0.0050910008,0.0185241923,0.0499196313,-0.0148572251,-0.0027978944
8.6358165741,0.0046856483,-0.0016250120,0.0189765915,0.0552303754,-0.0116100330,-0.0028225286
8.6458473206,0.0008803984,-0.0035262213,0.0125264758,0.0466861539,-0.0127085866,0.0014401269
8.6558408737,-0.0029464881,-0.0064447629,0.0059391488,0.0328265317,-0.0159981232,0.0035930262
8.6660299301,-0.0038844864,-0.0103475554,0.0031866662,0.0178917907,-0.0171824321,0.0036111358
8.6758518219,-0.0029312293,-0.0093411310,0.0070763463,-0.0056391032,-0.0120097734,0.0046556275
8.6858272552,-0.0000442783,-0.0054818499,0.0030333630,-0.0184880570,-0.0088664442,0.0088937823
8.6958227158,-0.0021210830,0.0031925335,-0.0011214383,-0.0163978729,-0.0045497268,0.0120524243
8.7060508728,-0.0071418206,0.0040252102,-0.0023063191,-0.0121842194,-0.0001874692,0.0183955412
8.7158422470,-0.0073493044,0.0019939437,0.0024727813,-0.0068660202,0.0009489018,0.0215720255
8.7257595062,-0.0046865861,0.0039376509,0.0161388740,0.0038324301,-0.0011241027,0.0194532163
8.7358064651,-0.0057723443,-0.0009812223,0.0172422752,0.0230813585,-0.0042069783,0.0162716713
8.7458600998,-0.0058345716,0.0009381070,0.0086683864,0.0327630118,-0.0095578013,0.0067380867
8.7558097839,-0.0097690141,0.0087733166,0.0059560770,0.0434843674,-0.0116893956,-0.0017526038
8.7657899857,-0.0077640633,0.0059596193,0.0053786868,0.0467094555,-0.0148617532,-0.0006718931
8.7757987976,-0.0047783176,0.0031316176,0.0047747130,0.0349570587,-0.0138771823,0.0003935047
8.7857913971,-0.0077539007,0.0070900810,0.0088619823,0.0221046451,-0.0107247978,0.0056939945
8.7957782745,-0.0067403833,0.0051632416,0.0060488214,0.0157415532,-0.0150657501,0.0036010155
8.8057823181,-0.0037642638,0.0012800588,0.0041449303,-0.0013615321,-0.0109501015,0.0003990971
8.8157148361,-0.0028020064,0.0012882246,0.0098916525,-0.0131437574,-0.0067502968,0.0025060570
8.8257646561,0.0020836969,0.0022638931,0.0087746615,-0.0173555464,-0.0121631715,-0.0017054658
8.8357124329,0.0060320576,0.0051926267,0.0066564912,-0.0131392293,-0.0046719662,-0.0049462663
8.8457527161,0.0090316618,0.0042642844,0.0094641084,-0.0120649096,-0.0046818200,-0.0070717353
8.8557443619,0.0071795066,0.0042903316,0.0122689838,-0.0056853071,0.0006623457,-0.0124209607
8.8657541275,0.0072618802,0.0082502263,0.0122701759,0.0125096748,-0.0056006103,-0.0113306623
8.8757305145,-0.0014169732,0.0092308419,0.0113846296,0.0252678134,-0.0001403312,-0.0092499349
8.8857259750,-0.0052503864,0.0112095969,0.0067212214,0.0294356626,0.0106161768,-0.0050730333
8.8956937790,-0.0052047293,0.0083691971,0.0061180824,0.0368811935,0.0128329918,-0.0029695351
8.9057378769,-0.0022838037,0.0094700949,0.0084796781,0.0357871689,0.0181230940,-0.0083150323
8.9157419205,0.0026438017,0.0066758883,0.0079457993,0.0400805846,0.0149571281,-0.0072341883
8.9257059097,0.0056415875,0.0009374513,0.0073770513,0.0294505749,0.0095309373,-0.0071915775
8.9356555939,0.0047088345,0.0000420703,0.0086199278,0.0252399854,0.0030687780,-0.0092721721
8.9456996918,0.0048113544,0.0020507469,0.0077375402,0.0028420007,0.0028501323,-0.0145670688
8.9557027817,-0.0008921842,-0.0028433905,0.0066690082,-0.0132275140,0.0081077451,-0.0103411647
8.9657411575,-0.0047148089,0.0010399712,0.0064673657,-0.0238612518,0.0047827885,-0.0145617425
8.9757461548,-0.0036197226,0.0029852882,0.0033442609,-0.0227845348,0.0037212523,-0.0145550845
8.9856958389,-0.0064356248,0.0039423597,0.0011915199,-0.0196209624,0.0080299806,-0.0135228438
8.9956836700,-0.0053732912,0.0078622000,-0.0009118088,-0.0142954411,0.0101922015,-0.0156661551
9.0056800842,-0.0043058316,0.0098557966,-0.0009393462,0.0006182613,0.0135230161,-0.0146357790
9.0156345367,-0.0061561982,0.0089474218,0.0010961525,0.0102095027,0.0157302432,-0.0146545535
9.0256118774,-0.0040827314,0.0032000437,0.0022982589,0.0177110955,0.0125728007,-0.0157017075
9.0356550217,-0.0019617300,-0.0005638109,0.0054641599,0.0124528166,0.0050054286,-0.0209610518
9.0456523895,0.0001767656,-0.0033277378,0.0114873881,0.0146296844,0.0007289248,-0.0230596233
9.0556468964,0.0003942629,-0.0042048204,0.0086655254,0.0093355868,-0.0046538566,-0.0230220724
9.0656423569,0.0035443981,-0.0021402941,0.0067197913,0.0019096285,-0.0111058969,-0.0208502654
9.0756521225,-0.0010941842,-0.0060091126,0.0066538085,-0.0034150966,-0.0122249573,-0.0219016802
9.0856323242,-0.0018374840,-0.0059928405,-0.0002889403,-0.0098841814,-0.0068765311,-0.0155574987
9.0956783295,-0.0027110497,-0.0030856237,-0.0072882539,-0.0164245050,0.0049340557,-0.0028785882
9.1056661606,-0.0076686661,0.0036465421,-0.0103933578,-0.0133272484,0.0135991825,0.0076869708
9.1156091690,-0.0097952401,0.0074828756,-0.0084975725,-0.0091506131,0.0222400744,0.0140005266
9.1256093979,-0.0051067392,0.0035955205,-0.0005579360,0.0036474741,0.0244584884,0.0118524209
9.1356105804,0.0007503410,-0.0109490259,0.0075507993,0.0208486989,0.0159036163,-0.0040393267
9.1455984116,0.0106408680,-0.0234274976,0.0129371518,0.0476859063,0.0021169644,-0.0156549700
9.1556053162,0.0107659185,-0.0134345395,0.0172655210,0.0574678294,-0.0129075255,-0.0314998478
9.1655921936,0.0120105231,-0.0034377084,0.0147173041,0.0511617288,-0.0236714911,-0.0346128158
9.1755857468,0.0124225700,-0.0051919925,0.0091849798,0.0362094119,-0.0248099919,-0.0292832963
9.1855249405,0.0058864732,-0.0070669758,0.0034399263,0.0190227013,-0.0162926689,-0.0176402237
9.1955757141,-0.0027302424,-0.0061375010,-0.0044063097,-0.0024423767,-0.0077865329,-0.0038711485
9.2055358887,-0.0046588997,-0.0032955513,-0.0114036566,-0.0206860937,0.0006953687,0.0045857197
9.2155761719,-0.0037994306,-0.0082562072,-0.0096009737,-0.0251026824,0.0115062045,0.0236448981
9.2255630493,-0.0031256597,-0.0064526307,-0.0059082871,-0.0326359645,0.0189295001,0.0236020200
9.2355756760,-0.0005115489,-0.0046078074,-0.0011543997,-0.0123737035,0.0212230142,0.0225065295
9.2455711365,0.0002541026,-0.0085340841,0.0076909894,0.0069565843,0.0116534783,0.0108687822
9.2555484772,0.0108524645,-0.0064594853,0.0138330096,0.0316522121,-0.0010849544,-0.0007501899
9.2655220032,0.0099418843,-0.0034396753,0.0111975307,0.0445922427,-0.0128324237,-0.0113069601
9.2755374908,0.0041688760,0.0044578207,0.0114769572,0.0499874093,-0.0202634428,-0.0102000181
9.2854223251,0.0014394900,0.0035807982,0.0049516191,0.0350683816,-0.0225345865,-0.0122996541
9.2954797745,-0.0061588506,0.0006626143,-0.0017690428,0.0168319847,-0.0130268354,-0.0091625834
9.3055353165,-0.0108676767,-0.0071609127,-0.0056189070,0.0039673196,-0.0087966695,-0.0028066828
9.3155183792,-0.0021345536,-0.0032045946,-0.0055996543,-0.0078846803,0.0008133468,0.0067004021
9.3255109787,-0.0012807766,-0.0022933588,-0.0037700303,-0.0261108205,0.0071577951,0.0151711181
9.3355064392,-0.0015489379,0.0005130662,0.0008368127,-0.0347286761,0.0135730840,0.0236363746
9.3455114365,0.0001575729,-0.0005845533,0.0054785842,-0.0325201154,0.0050307289,0.0226278380
9.3555526733,0.0038815816,-0.0026434765,0.0062502855,-0.0132157961,-0.0044719623,0.0184247028
9.3655090332,0.0017669877,-0.0007609234,0.0091126198,0.0082109328,-0.0118332058,0.0131455194
9.3754863739,-0.0022249739,0.0089595215,0.0061691040,0.0232387520,-0.0182122756,0.0036152636
9.3854742050,-0.0041323225,0.0109609263,0.0082333321,0.0265266895,-0.0257319771,-0.0037750083
9.3954839706,-0.0068914811,0.0071045053,0.0054231519,0.0233637877,-0.0289951488,-0.0069363136
9.4054832458,-0.0057811062,0.0071613085,0.0016141764,0.0136991758,-0.0215974189,-0.0080399271
9.4153652191,-0.0095205521,0.0032397404,-0.0042661792,0.0019204142,-0.0174087994,-0.0080610998
9.4254808426,-0.0064373235,-0.0016095148,-0.0072479015,-0.0099314526,-0.0057074027,-0.0038791378
9.4354600906,-0.0025489251,-0.0025797591,-0.0054274569,-0.0239023939,0.0027989997,0.0035119329
9.4454536438,-0.0017010489,0.0022631779,-0.0007309683,-0.0218395106,0.0103237610,0.0066488702
9.4554300308,-0.0047612707,0.0012110366,0.0049805278,-0.0186572988,0.0124929063,0.0076960251
9.4654426575,-0.0048976461,0.0031363263,0.0117394561,-0.0058275200,0.0104454681,0.0066379514
9.4753904343,-0.0020667831,0.0060793054,0.0127874846,0.0124177961,-0.0011781651,0.0056376681
9.4854993820,-0.0020543258,0.0031643405,0.0109964246,0.0274611935,-0.0107354512,-0.0006852089
9.4956789017,0.0009640535,0.0013288154,0.0102976793,0.0350195095,-0.0192706157,-0.0059481477
9.5054798126,0.0030376990,0.0014364017,0.0076422323,0.0393013433,-0.0203153733,-0.0070067542
9.5154514313,0.0011943659,0.0015127553,0.0068819751,0.0329011008,-0.0214200541,-0.0048681027
9.5254392624,-0.0025834362,0.0005532994,0.0011670820,0.0243321136,-0.0182708669,-0.0038201488
9.5356845856,0.0023807962,-0.0022683248,0.0032558076,0.0072073215,-0.0140990242,-0.0006489898
9.5454025269,0.0014779350,-0.0110519631,0.0052249068,-0.0035262834,-0.0077511128,0.0014421241
9.5553989410,-0.0034542899,-0.0072212922,0.0060144300,-0.0207022056,0.0017830040,0.0067030657
9.5653457642,-0.0006524841,-0.0014500128,0.0038274757,-0.0260793939,0.0049841236,0.0109356279
9.5754232407,-0.0026934068,-0.0064301598,0.0046296348,-0.0218432378,0.0092885904,0.0109064663
9.5854015350,-0.0048417072,0.0003421797,0.0103327865,-0.0100843180,0.0072419508,0.0109115262
9.5953922272,0.0038291295,0.0023128882,0.0113510722,0.0059963819,-0.0001403310,0.0066930791
9.6053867340,0.0048074503,-0.0006067262,0.0095101232,0.0199654605,-0.0096877636,0.0024956707
9.6154174805,0.0048158248,-0.0005675064,0.0086849565,0.0242548808,-0.0107498327,0.0003788571
9.6253890991,0.0067923744,0.0014710916,0.0079491371,0.0317335688,-0.0107101509,-0.0017514053
9.6353569031,0.0058890660,-0.0033488974,0.0091561908,0.0295322016,-0.0032311957,0.0003282572
9.6453523636,-0.0008571068,-0.0102296574,0.0034680597,0.0188337509,-0.0011581912,0.0024470682
9.6553344727,-0.0028943340,-0.0043614018,0.0045086374,0.0081165247,0.0030546633,0.0045508319
9.6653442383,0.0029023965,-0.0072592008,0.0056054825,0.0038629235,-0.0001573754,0.0077618053
9.6751661301,0.0037604650,-0.0053282487,0.0085426206,-0.0036808793,0.0072933501,0.0109058004
9.6851949692,0.0006750008,0.0014386071,0.0094532603,-0.0036915326,0.0094126938,0.0087672817
9.6951885223,-0.0004005650,0.0023315444,0.0035537116,-0.0015143985,0.0030440104,0.0119942343
9.7055044174,0.0014587423,0.0003263249,0.0026208989,0.0016502356,0.0063037202,0.0151572712
9.7153778076,-0.0006012837,-0.0007169352,0.0016411177,-0.0068933181,0.0093871281,0.0087700784
9.7253360748,-0.0026578228,0.0011874927,0.0044864053,-0.0100832526,0.0082845781,0.0077170646
9.7353096008,0.0021944721,-0.0104692681,0.0133723849,-0.0025510332,0.0040019499,0.0003038894
9.7453031540,0.0041390737,-0.0124016507,0.0172400698,-0.0099948347,0.0017795416,-0.0028636744
9.7553243637,0.0032619317,-0.0134230955,0.0093590850,-0.0078726960,0.0039193914,-0.0050057881
9.7652950287,-0.0084836995,-0.0008683310,0.0013295643,-0.0089680543,0.0060757529,-0.0018318328
9.7753019333,-0.0085515892,0.0088640349,-0.0016801723,-0.0004593870,0.0072688498,0.0055937264
9.7853078842,-0.0076621692,0.0068958891,0.0003235571,0.0005853716,0.0083820503,0.0098353429
9.7952814102,-0.0096979057,0.0029082790,-0.0016039975,-0.0016029486,0.0137326084,0.0119243264
9.8055143356,-0.0010762134,0.0029385581,-0.0004885562,0.0080352984,0.0095410580,0.0130071668
9.8158140182,0.0046508391,-0.0009165512,0.0046128863,0.0165828466,0.0085391775,0.0130073000
9.8252086639,0.0035728295,-0.0057847011,0.0077741379,0.0294283368,0.0054049031,0.0098314807
9.8350439072,-0.0023163776,-0.0106972558,0.0070702666,0.0315515399,0.0075426218,0.0076904329
9.8451385498,-0.0053387503,-0.0038663254,0.0033921830,0.0272942130,0.0064318175,0.0066382182
9.8551025391,-0.0043765227,-0.0047810781,0.0026821129,0.0273642559,-0.0000236847,0.0024338854
9.8651103973,-0.0034558098,-0.0037953362,0.0009359352,0.0188043229,-0.0000354026,0.0088142864
9.8750858307,-0.0035613100,0.0020583763,-0.0009317168,0.0059886584,-0.0001184933,0.0098827463
9.8851213455,-0.0056556384,0.0088293450,-0.0009443529,0.0027917996,-0.0012029324,0.0109544024
9.8950538635,-0.0008679847,0.0068500531,-0.0048373109,-0.0025514336,-0.0012274336,0.0130837336
9.9050998688,0.0000304958,0.0009573593,-0.0018637546,0.0016880529,0.0041130036,0.0087965764
9.9150753021,-0.0020264606,-0.0000173555,0.0059491033,0.0017399844,-0.0022977579,0.0088373236
9.9250516891,0.0018230459,-0.0000085340,0.0069416994,0.0006845733,-0.0012916157,0.0024571880
9.9350776672,0.0027850349,0.0009866251,0.0079466337,0.0050067510,-0.0066237967,0.0003656747
9.9450788498,0.0038069566,0.0039256704,0.0050207609,0.0072115823,-0.0130649181,-0.0049060527
9.9550666809,0.0049187024,-0.0009136901,0.0031144253,0.0082701892,-0.0109410472,-0.0070435056
9.9651851654,0.0088856304,0.0001567497,0.0051303739,0.0072062560,-0.0109583577,-0.0081050415
9.9751939774,0.0060271104,0.0040600193,0.0022022359,0.0092596859,-0.0034104264,-0.0028459646
9.9851875305,0.0011469802,0.0059767854,-0.0017020472,0.0016899174,0.0051540332,0.0056029139
9.9951725006,-0.0008737067,0.0049399030,-0.0036259659,0.0005910965,0.0073194494,0.0098392041
10.0051927567,-0.0029337327,0.0039051070,-0.0026461252,-0.0037170984,0.0115703875,0.0108770374
10.0151805878,0.0018444142,0.0000215663,0.0022675029,-0.0069122259,0.0125741325,0.0066251680
10.0251865387,0.0076603373,-0.0067521441,0.0092168683,0.0070443358,0.0061966605,-0.0018423522
10.0351829529,0.0057455082,-0.0096522672,0.0112515325,0.0103357369,-0.0034258729,-0.0060354993
10.0451860428,0.0028495868,-0.0037716732,0.0122364396,0.0071615153,-0.0056152577,-0.0092062596
10.0551919937,0.0049170931,-0.0027343140,0.0084164375,0.0157483444,-0.0109003000,-0.0091743004
10.0652141571,-0.0008071581,-0.0017506586,0.0045409435,0.0125373723,-0.0098563414,-0.0091788284
10.0751962662,-0.0046251337,0.0002131357,0.0026146404,0.0114400163,-0.0076959855,-0.0060068704
10.0851869583,-0.0055491249,0.0011907114,-0.0012438067,0.0060857306,-0.0076919906,-0.0006912011
10.0952053070,-0.0046079676,0.0021710887,-0.0021872290,0.0027895365,-0.0001493860,0.0098882066
10.1051530838,-0.0037363092,-0.0007999049,-0.0011455186,0.0069749607,0.0084696691,0.0140789561
10.1151914597,-0.0029416005,-0.0017864810,0.0019387833,0.0144045139,0.0117738526,0.0182999354
10.1251783371,-0.0021483223,-0.0037823424,0.0021431677,0.0186232273,0.0171686187,0.0203867871
10.1351709366,-0.0033322494,-0.0047608125,0.0072466964,0.0197968818,0.0064422041,0.0151446210
10.1451587677,-0.0024763565,-0.0076500284,0.0143217677,0.0252177473,-0.0000103689,0.0056211567
10.1551685333,-0.0005051116,-0.0124800308,0.0135989422,0.0231320933,-0.0043382719,0.0014012447
10.1651659012,0.0014259896,-0.0026561723,0.0098182792,0.0253686160,-0.0150452452,-0.0027804507
10.1751546860,-0.0004398147,0.0012766017,0.0060221185,0.0189860836,-0.0161981285,-0.0070188716
10.1851778030,-0.0022964994,-0.0006432043,0.0041341418,0.0114442771,-0.0097982846,-0.0017431495
10.1951465607,-0.0032630484,0.0012807144,-0.0007489093,0.0007128036,-0.0044993935,0.0035456219
10.2051525116,-0.0052706520,0.0002592100,-0.0007592209,0.0006201258,0.0030631854,0.0130581670
10.2151470184,-0.0063945572,-0.0017604934,0.0011875264,-0.0080316858,0.0147914812,0.0161698032
10.2252044678,-0.0036547701,-0.0037955747,0.0012063615,-0.0123872859,0.0243951064,0.0182353519
