0.0000000000,0.0051092687,0.0027267376,0.0062666209,-0.0384548791,-0.0193567295,0.0227424372
0.0097889900,-0.0047620502,0.0053517264,-0.0020597903,-0.0438219495,-0.0140905939,0.0184624717
0.0197809935,-0.0077444729,0.0031609575,-0.0112992255,-0.0428198017,-0.0045000184,0.0141500132
0.0298140049,-0.0068374542,0.0020111839,-0.0184685308,-0.0279017016,0.0009179160,0.0119911218
0.0397809744,-0.0050145802,0.0038980285,-0.0167089421,-0.0215507299,0.0105196768,0.0044891303
0.0498279333,-0.0050957021,0.0048173708,-0.0187251884,0.0029626014,0.0139429048,0.0076369867
0.0597369671,-0.0032964763,0.0068644923,-0.0068875281,0.0115286587,0.0160318874,-0.0051283431
0.0717350245,-0.0082124881,0.0098494925,-0.0018493858,0.0232593510,0.0182420444,-0.0072756498
0.0797469616,-0.0081199817,0.0089713372,-0.0054657785,0.0307650715,0.0171637312,-0.0157755278
0.0899009705,-0.0060330895,0.0032852928,-0.0059953062,0.0467794575,0.0172785129,-0.0168498475
0.0999200344,-0.0010188934,-0.0003828962,-0.0035010306,0.0467927717,0.0161986016,-0.0179041922
0.1099579334,-0.0008828160,-0.0031538566,-0.0050058691,0.0392999686,0.0182873178,-0.0168501139
0.1201620102,0.0011294070,-0.0049415785,-0.0016921487,0.0296870247,0.0150915254,-0.0072627333
0.1301560402,0.0030353698,-0.0028743704,0.0014989647,0.0222544074,0.0065654153,0.0023592673
0.1398899555,0.0010373327,-0.0008929927,0.0016213331,0.0052053831,0.0042660423,-0.0007997742
0.1498759985,0.0010042968,0.0000926893,0.0045351656,-0.0075468970,-0.0043466208,0.0035145467
0.1600469351,0.0079938956,-0.0054939943,0.0074869068,-0.0246004499,-0.0097733438,0.0088717612
0.1699349880,0.0081880279,-0.0070478874,0.0095086368,-0.0341928899,-0.0119760446,0.0099551352
0.1798620224,0.0053414884,-0.0072805244,0.0037661465,-0.0341657251,-0.0141369328,0.0078469776
0.1898980141,0.0049487534,-0.0062479335,-0.0005373684,-0.0405594446,-0.0163058117,0.0099902898
0.1998870373,0.0054213884,-0.0064003426,0.0003645095,-0.0352634788,-0.0130205369,0.0142140631
0.2098560333,0.0017397734,-0.0028845032,0.0017338070,-0.0288907997,-0.0087051503,0.0131192375
0.2198179960,-0.0025467691,0.0026976506,0.0021906765,-0.0246808790,-0.0001500116,0.0098739089
0.2298630476,-0.0008561727,0.0014389794,0.0044241222,-0.0247056447,0.0040977299,0.0066592079
0.2398419380,-0.0003468510,-0.0066278535,0.0040827664,-0.0183260404,0.0083950069,0.0034397121
0.2498600483,-0.0017025289,-0.0107843839,0.0027647289,-0.0147454226,-0.0553144626,0.0495331697
0.2598299980,-0.1080862135,-0.0272737704,-0.0075642793,0.0082573649,-0.3847019374,0.3831210136
0.2698290348,-0.1118797511,-0.0445716940,-0.0008672205,-0.0101352241,-0.3214521408,0.2966699898
0.2798529863,-0.0189243965,-0.0153852068,0.0139822038,-0.0264124647,-0.0660568550,0.0538608097
0.2898139954,0.0196683146,0.0044464511,0.0192131083,-0.0098364176,0.0190481842,-0.0083213402
0.2997579575,-0.0133068971,-0.0066311914,0.0062216790,-0.0087738158,0.0096568130,0.0172354188
0.3098289967,0.0050359699,0.0011896532,0.0099084051,-0.0333715715,0.0169117954,0.0129559860
0.3199059963,0.0001057270,0.0000602047,0.0085755261,-0.0365142338,0.0073204213,0.0193959083
0.3298380375,-0.0019038436,0.0048585576,0.0103026899,-0.0344161950,0.0105702765,0.0225605424
0.3398519754,0.0042251232,0.0072988910,0.0075887712,-0.0216177087,0.0106962454,0.0257380940
0.3497500420,0.0132275112,0.0068727178,0.0098411115,-0.0119339228,0.0022026252,0.0236616265
0.3598400354,0.0135899670,-0.0009694655,0.0114318999,-0.0065980144,0.0032929233,0.0215268377
0.3696849346,0.0081723817,-0.0007072050,0.0067819627,-0.0140716434,0.0042857495,0.0194008350
0.3797700405,0.0061805132,0.0011745136,0.0056411894,-0.0087651610,0.0064967060,0.0225674659
0.3897509575,0.0063216570,0.0047641438,0.0024787458,0.0050704940,0.0119386092,0.0214601234
0.3998309374,0.0057129147,0.0085060038,0.0034273537,0.0147232544,0.0077116401,0.0193600897
0.4097080231,0.0042152586,0.0131962337,0.0041922601,0.0029289126,0.0161253661,0.0140018081
0.4197399616,0.0018262449,0.0042375964,0.0060795220,0.0061346926,0.0150939217,0.0150669403
0.4297690392,0.0022325101,0.0040668887,0.0108060511,-0.0055453992,0.0096142022,0.0097986739
0.4397369623,-0.0001096842,0.0057903570,0.0075878771,-0.0226692595,0.0179674737,0.0023202521
0.4498560429,0.0026228908,0.0036665241,0.0014959249,-0.0301341005,0.0178915747,0.0002011748
0.4597339630,0.0102521963,0.0006643574,0.0032324465,-0.0311531574,0.0104349880,0.0034346518
0.4697200060,0.0119665749,0.0054038209,0.0000311407,-0.0386110730,0.0103409784,-0.0008090953
0.4797099829,0.0107697733,0.0042444509,0.0025506886,-0.0482290797,0.0102981022,0.0034498321
0.4899660349,0.0115481205,0.0039814753,-0.0028384058,-0.0471933782,0.0145722097,0.0023590010
0.4996999502,0.0113887377,0.0106572546,-0.0023358790,-0.0439531095,0.0092693223,0.0045169601
0.5095959902,0.0141296573,0.0182850398,0.0019677551,-0.0503508188,0.0112938574,-0.0029284388
0.5195109844,0.0111105330,0.0161322393,0.0033958228,-0.0514195450,0.0081518600,0.0055918116
0.5295920372,0.0090165325,0.0140215196,0.0050340565,-0.0396766029,0.0092842365,0.0023890950
0.5398229361,0.0048019770,0.0177444257,0.0037921341,-0.0332168415,0.0039608441,-0.0007670175
0.5497020483,0.0024629417,0.0176107921,0.0104428800,-0.0354043618,0.0103566917,-0.0008069649
0.5596770048,0.0032030824,0.0096864738,0.0132203372,-0.0268538818,0.0093468204,-0.0018696992
0.5697159767,0.0068546417,0.0028314034,0.0191352051,-0.0172071159,0.0061787246,-0.0061054570
0.5796669722,0.0095259137,-0.0011213381,0.0201486032,-0.0096970005,-0.0001385598,-0.0018206971
0.5896660089,0.0013746205,0.0005872886,0.0160059016,-0.0172161683,0.0051563373,-0.0007873906
0.5996749401,-0.0077244458,0.0091122426,0.0058961781,-0.0226354338,0.0157890078,-0.0019128424
0.6096429825,-0.0108669810,0.0060092849,0.0046713026,-0.0172846131,0.0157940667,-0.0061661769
0.6196669340,-0.0109234117,-0.0038781126,0.0025041969,-0.0290734936,0.0241926126,-0.0136505915
0.6296540499,-0.0080185942,-0.0108399354,0.0069741877,-0.0386590138,0.0219718032,-0.0146918874
0.6396609545,-0.0070791957,-0.0100457631,0.0064400109,-0.0440346003,0.0272592418,-0.0168487821
0.6496820450,-0.0070663658,-0.0102645122,-0.0019168583,-0.0323126987,0.0305381268,-0.0190030131
0.6596510410,-0.0061766771,-0.0104140602,-0.0003909794,-0.0269570816,0.0273950640,-0.0157965682
0.6696389914,-0.0081174187,-0.0114797913,0.0051127942,-0.0227436926,0.0338495001,-0.0147789726
0.6796629429,-0.0148729496,-0.0115218721,0.0127069624,-0.0228141323,0.0423995778,-0.0148344999
0.6895899773,-0.0098543875,-0.0085698329,0.0125609906,-0.0281476453,0.0423492454,-0.0158928409
0.6995979548,0.0000597122,-0.0094547234,0.0115886601,-0.0259975437,0.0381411836,-0.0105575966
0.7097769976,0.0021394524,-0.0133854114,0.0095249685,-0.0303648617,0.0446382314,0.0032144086
0.7201349735,0.0049316469,-0.0036470254,0.0074771317,-0.0153903076,0.0394445360,0.0074881157
0.7301379442,0.0009459439,0.0012407344,0.0066002281,-0.0004747408,0.0417247340,0.0106500871
0.7402689457,0.0027188840,0.0022631327,0.0097613605,0.0005863961,0.0396581218,0.0180998817
0.7506049871,0.0035062912,0.0032591263,0.0118230255,-0.0005614264,0.0461346619,0.0265578143
0.7599029541,0.0043659839,0.0031856338,0.0049764188,-0.0027168551,0.0472191013,0.0308038238
0.7695490122,0.0060600522,0.0060126823,0.0010153326,-0.0069757821,0.0450667366,0.0329455361
0.7794129848,0.0065873596,0.0049532098,0.0049457820,0.0057695736,0.0516058616,0.0360811464
0.7894459963,0.0062006596,-0.0029036959,0.0032683285,0.0217783675,0.0548724942,0.0286120437
0.7993650436,0.0076881531,-0.0009821017,0.0015974912,0.0228293836,0.0580605641,0.0254030675
0.8094290495,0.0082647987,0.0009589832,-0.0000679222,0.0250043869,0.0548346750,0.0211729035
0.8193739653,0.0088764317,0.0009647649,0.0011627348,0.0260811038,0.0569116771,0.0137245730
0.8294069767,0.0124515779,0.0000327866,0.0072605284,0.0165392626,0.0514394157,0.0073923753
0.8397729397,0.0142011829,-0.0019381602,0.0044955881,-0.0004804656,0.0469706319,-0.0000042880
0.8494499922,0.0111249126,-0.0059376317,-0.0013557998,-0.0164810047,0.0468196310,-0.0031793087
0.8593549728,0.0080273487,-0.0061072069,-0.0064395396,-0.0325084403,0.0498758741,-0.0063756346
0.8694069386,0.0069821062,-0.0052852589,-0.0154826371,-0.0410390757,0.0508332811,-0.0116878422
0.8793460131,0.0078461953,-0.0073568183,-0.0176658947,-0.0442773476,0.0550852790,-0.0117140738
0.8893419504,0.0067216638,-0.0055389958,-0.0208569486,-0.0485575795,0.0571716018,-0.0138493963
0.8993999958,0.0064850929,-0.0007856447,-0.0163045246,-0.0549771301,0.0582078360,-0.0117263244
0.9093329906,0.0053021195,0.0009620230,-0.0196167547,-0.0453655161,0.0593146458,-0.0159897804
0.9194509983,0.0051151100,0.0018246811,-0.0179195721,-0.0442126319,0.0496873185,-0.0180534627
0.9293349981,0.0078625567,0.0037667195,-0.0073437421,-0.0409523919,0.0422400571,-0.0169450548
0.9393819571,0.0009478215,0.0066008014,-0.0084358780,-0.0292126443,0.0433830842,-0.0180193745
0.9493139982,-0.0000895676,0.0105182566,-0.0064546196,-0.0366125032,0.0358170420,-0.0211523157
0.9593759775,0.0037975940,0.0066473526,-0.0063661067,-0.0302249119,0.0348638967,-0.0137151740
0.9694420099,0.0057885828,0.0017924350,-0.0110988347,-0.0279937163,0.0252165962,-0.0189661272
0.9795409441,0.0038160565,0.0056885523,-0.0101613728,-0.0279452465,0.0188148916,-0.0178630464
0.9894599915,0.0038315239,0.0037387649,-0.0111123649,-0.0333171077,0.0209563393,-0.0125612253
0.9995360374,0.0018245759,0.0066062254,-0.0160206277,-0.0216061249,0.0221718047,-0.0062037278
1.0094679594,0.0027010920,0.0114448108,-0.0209392030,-0.0172840804,0.0178846493,-0.0114909010
1.0195219517,0.0095161982,0.0066464585,-0.0120908944,-0.0161832627,0.0125767030,-0.0082702078
1.0294369459,0.0144515075,-0.0031004508,-0.0120753972,-0.0214709695,0.0061321193,-0.0071623325
1.0394680500,0.0163415559,-0.0001988967,-0.0112053482,-0.0182337649,0.0018822467,-0.0071371654
1.0494129658,0.0133583732,0.0056393784,-0.0102861254,-0.0160568953,-0.0023942573,-0.0092357369
1.0594279766,0.0113674887,0.0085284151,-0.0094119040,-0.0192782544,-0.0023700225,-0.0039235288
1.0694550276,0.0084739961,0.0035814086,-0.0143187968,-0.0107265795,-0.0054739369,0.0003401919
1.0794270039,0.0055436376,0.0016039651,-0.0201057512,-0.0032485556,-0.0054307934,-0.0007249394
1.0894889832,0.0073827985,0.0046068472,-0.0169633348,0.0031366395,-0.0042853681,0.0024503476
1.0994369984,0.0081622787,0.0036836306,-0.0099674789,0.0063725132,-0.0095773358,0.0056697102
1.1093939543,0.0078925230,0.0037283937,0.0009509000,0.0021191789,-0.0148815531,0.0142062064
1.1193939447,0.0017252001,0.0075504226,0.0019712122,0.0021363562,-0.0180650949,0.0163493864
1.1294599771,-0.0062854108,0.0044772071,-0.0067718355,0.0096557913,-0.0254521724,0.0206416026
1.1393810511,-0.0103898756,0.0024850408,-0.0066771833,0.0096649788,-0.0244300514,0.0153236687
1.1494020224,-0.0124183558,-0.0082869492,-0.0084646074,0.0043386570,-0.0265906733,0.0174661819
1.1594189405,-0.0144948475,-0.0141381584,-0.0063487617,-0.0020910129,-0.0234361589,0.0174512677
1.1693730354,-0.0078839771,-0.0092126690,-0.0014077154,-0.0095012588,-0.0309750363,0.0175053310
1.1793860197,-0.0051140604,-0.0062907892,0.0005347403,0.0001859898,-0.0384329520,0.0111710019
1.1893730164,-0.0080714636,-0.0073344666,-0.0014987913,0.0001947787,-0.0395016782,0.0111779254
1.1994279623,-0.0051829633,-0.0073687988,-0.0006839958,-0.0104380250,-0.0459649041,0.0154790645
1.2093540430,-0.0022466448,-0.0093557797,0.0011132631,-0.0200389866,-0.0491910577,0.0218810365
1.2193839550,-0.0013115522,-0.0035560688,0.0027911933,-0.0242698193,-0.0535083078,0.0208497290
1.2293599844,-0.0041483608,-0.0055960971,0.0025420459,-0.0243084356,-0.0492243469,0.0218843669
1.2393599749,-0.0001917597,-0.0056003290,0.0072059305,-0.0317895189,-0.0482123457,0.0218825024
1.2493300438,0.0056962105,-0.0037162860,0.0049432786,-0.0295969397,-0.0535756871,0.0176661853
1.2593679428,0.0057343128,-0.0047914940,0.0026691826,-0.0221823007,-0.0470946133,0.0186804496
1.2694649696,0.0086400397,-0.0018848140,0.0092794569,-0.0221700482,-0.0481723994,0.0176250376
1.2793769836,0.0124814548,0.0020045678,0.0158824008,-0.0179133862,-0.0470581315,0.0197423864
1.2892739773,0.0124430247,0.0038811008,0.0147008570,-0.0168811437,-0.0427749716,0.0197138898
1.2993099689,0.0084595419,0.0076382798,0.0095478566,-0.0116122123,-0.0362821817,0.0239162240
1.3092709780,0.0103254803,0.0065989536,0.0055581601,0.0021339599,-0.0211945772,0.0259335693
1.3193440437,0.0121190585,0.0045995754,0.0036330493,0.0063878265,-0.0190299600,0.0248525925
1.3292609453,0.0137756951,0.0075272364,0.0075932415,0.0137719736,-0.0103770830,0.0301032811
1.3393379450,0.0125233419,0.0074820560,0.0048355730,0.0233604182,-0.0071173739,0.0279519781
1.3492900133,0.0122331865,0.0094133057,0.0059644850,0.0180285033,-0.0061261449,0.0236997083
1.3593000174,0.0119405873,0.0074072522,0.0079561146,0.0105349012,-0.0040358300,0.0247529894
1.3692690134,0.0067443433,0.0053464216,0.0117970975,0.0073502930,-0.0061980505,0.0247692335
1.3792669773,0.0054559591,0.0091577806,0.0117451819,0.0062948819,-0.0072835549,0.0237143561
1.3892580271,-0.0015958068,0.0060864729,0.0068354281,0.0116353193,-0.0072513307,0.0226480272
1.3992619514,-0.0056643900,-0.0018195469,0.0029836567,0.0063119261,-0.0073261652,0.0194682125
1.4092869759,-0.0039796797,-0.0018930990,0.0029386552,-0.0054382076,-0.0063482528,0.0194700770
1.4192509651,-0.0022982624,-0.0019713601,0.0037984522,-0.0117893135,-0.0138581004,0.0216466784
1.4292440414,-0.0006985035,0.0047823233,0.0104472907,-0.0128356693,-0.0160128642,0.0205989908
1.4392800331,-0.0038243649,0.0046342653,0.0053978236,0.0021387525,-0.0191146471,0.0195473079
1.4492319822,-0.0059197363,0.0045701307,0.0053563984,0.0139378877,-0.0244036838,0.0153238010
1.4593149424,-0.0070574400,0.0074619693,0.0082296999,0.0096671097,-0.0244343132,0.0153257996
1.4692440033,-0.0042598662,0.0055546802,0.0180154126,0.0053890082,-0.0254907887,0.0206475947
1.4792590141,-0.0062434641,0.0055182022,0.0179589074,-0.0020780964,-0.0234705135,0.0132009955
1.4892250299,-0.0101299100,0.0063849729,0.0109945806,-0.0053066462,-0.0202891026,0.0131826205
1.4992799759,-0.0120879225,0.0043672365,0.0050700577,0.0021390188,-0.0159787759,0.0110267922
1.5092159510,-0.0159701668,0.0013521950,-0.0008653728,0.0063540037,-0.0084827766,0.0088504553
1.5192010403,-0.0150465183,0.0023382346,0.0010999711,0.0052416017,-0.0010514916,0.0045561087
1.5292350054,-0.0121404342,-0.0025070866,0.0060370238,0.0041584941,0.0000270887,0.0066746539
1.5391910076,-0.0072686789,-0.0044087130,0.0089917453,-0.0000968380,-0.0010919716,0.0034928420
1.5491960049,-0.0034672585,0.0024213830,0.0147022279,-0.0043381872,-0.0053817919,0.0056484044
1.5592329502,-0.0035081026,0.0023878852,0.0184337776,-0.0096661076,-0.0064901994,0.0067253867
1.5691779852,-0.0014940021,-0.0015607435,0.0182617586,-0.0171221606,-0.0076348260,0.0046132337
1.5792410374,0.0024295482,0.0013167899,0.0179829877,-0.0342062041,-0.0077533368,0.0056860885
1.5891629457,0.0044601592,0.0012004416,0.0089181932,-0.0278351232,-0.0044795126,0.0077851918
1.5992289782,0.0064422670,0.0060160798,0.0057297619,-0.0267480239,-0.0055682128,0.0046048448
1.6091859341,0.0074166986,0.0079026856,0.0093468698,-0.0299728438,-0.0044880346,0.0088496562
1.6193410158,0.0093547292,0.0048975390,0.0129186781,-0.0416928865,-0.0067258892,0.0078102252
1.6292389631,0.0072826925,0.0057006520,0.0182330292,-0.0534920208,-0.0014368510,0.0120337326
1.6392320395,0.0062535736,0.0064412397,0.0118307145,-0.0406128392,-0.0088431016,0.0088841449
1.6491240263,0.0033572796,0.0052582663,0.0016144189,-0.0331711695,-0.0034778977,0.0045945914
1.6592019796,0.0072027030,0.0002488534,-0.0016132918,-0.0278971754,0.0019578806,0.0109317172
1.6692769527,0.0098880418,0.0050737304,0.0069251331,-0.0257780999,0.0030612282,0.0130478647
1.6791620255,0.0086011924,0.0127971806,0.0154712470,-0.0194032900,0.0052807061,0.0172804259
1.6891210079,0.0045030001,0.0126426257,0.0132960947,-0.0129445931,-0.0000405556,0.0141232479
1.6991310120,-0.0024517295,0.0095435418,0.0082189711,-0.0097784940,0.0063526286,0.0087669659
1.7090890408,-0.0103305094,0.0045116586,0.0022142800,-0.0002196096,0.0138717974,0.0044619665
1.7191029787,-0.0094525926,0.0054883403,0.0051632198,0.0040481058,0.0180918425,-0.0061936076
1.7291330099,-0.0075040576,0.0045356196,0.0033166083,0.0072468286,0.0181256644,-0.0051336694
1.7391710281,-0.0065712747,0.0006886761,0.0035324963,0.0178833604,0.0224897861,-0.0041058226
1.7488650084,-0.0096017830,0.0026739279,0.0046960386,0.0232413746,0.0203845575,-0.0051583038
1.7590819597,-0.0116579197,0.0056255502,0.0058285268,0.0232179388,0.0225379914,-0.0030464169
1.7691589594,-0.0127386861,0.0095671453,0.0088850530,0.0157882515,0.0181871839,-0.0051377974
1.7790789604,-0.0156916790,0.0085936822,0.0079816254,0.0039875191,0.0234794170,-0.0009158880
1.7887820005,-0.0146502666,0.0047118706,0.0080611380,-0.0023398856,0.0169541389,-0.0083058942
1.7990700006,-0.0125655048,-0.0001624782,0.0031791599,-0.0034351097,0.0201549940,-0.0083273323
1.8090939522,-0.0046642837,-0.0030459722,-0.0025891392,0.0019388832,0.0148707498,-0.0061720358
1.8190599680,0.0002173814,-0.0000407059,0.0013450058,-0.0076406403,0.0126358243,-0.0082731368
1.8290089369,-0.0017656651,0.0067776483,0.0070664557,-0.0140657844,0.0126406178,-0.0018943335
1.8390400410,0.0021842751,0.0077695888,0.0108012231,-0.0257003345,0.0018140699,-0.0071263798
1.8490380049,0.0042095366,0.0047792238,0.0124887498,-0.0256963409,-0.0023793436,0.0024623317
1.8590539694,0.0013641003,0.0066015166,0.0052968534,-0.0342151262,-0.0035458081,-0.0017759560
1.8690160513,0.0034127417,0.0094299354,-0.0009098974,-0.0310148075,-0.0024704237,-0.0039099469
1.8790650368,0.0055619809,0.0025246779,-0.0050363867,-0.0267474912,-0.0003390959,-0.0081748664
1.8890210390,0.0095408447,-0.0003763993,0.0016395721,-0.0288521871,-0.0056630215,-0.0038893074
1.8990830183,0.0095426030,0.0044266027,0.0022955211,-0.0309891067,-0.0046283831,-0.0060195699
1.9090180397,0.0046869698,0.0101726688,0.0038673552,-0.0288702957,-0.0014328561,-0.0092289457
1.9190360308,0.0057415250,0.0081501044,0.0016595992,-0.0213990621,-0.0003292422,-0.0124305971
1.9290059805,0.0049515250,0.0002266209,-0.0054166047,-0.0299787037,0.0049392898,-0.0135211628
1.9390339851,0.0069717052,-0.0017698962,-0.0037366478,-0.0278588273,0.0060410388,-0.0114042154
1.9491410255,0.0079591610,-0.0008206923,-0.0019367662,-0.0172112435,0.0093297763,-0.0114329774
1.9590590000,0.0040609124,0.0020699541,-0.0010515776,-0.0065639252,0.0126190474,-0.0114620067
1.9689769745,0.0030655446,0.0049911779,-0.0039750664,0.0040311948,0.0202279650,-0.0062067900
1.9790090322,0.0039434913,0.0040478748,-0.0018824664,0.0115097510,0.0192231536,-0.0051416587
1.9891630411,0.0019695046,0.0021120349,-0.0017533627,0.0083057014,0.0202490035,-0.0072708558
1.9990350008,-0.0010104147,0.0040867967,-0.0006621209,0.0125856679,0.0192079730,-0.0083313268
2.0089669228,0.0028668526,0.0012717288,0.0054391297,0.0115869818,0.0096083432,-0.0050812052
2.0189700127,0.0067311707,0.0003771822,0.0085355910,0.0084473817,0.0010556015,-0.0018337466
2.0291249752,0.0008456889,0.0032795111,0.0095059546,-0.0021828916,-0.0022784097,-0.0071166591
2.0389170647,-0.0000703898,0.0012998622,0.0074932845,-0.0128362020,-0.0076452121,-0.0007025688
2.0492801666,0.0000486854,-0.0055823880,0.0025082501,-0.0138862869,-0.0076987417,-0.0060134446
2.0591378212,-0.0008616563,-0.0056570130,-0.0015815821,-0.0192586817,-0.0034645819,-0.0060374131
2.0690770149,-0.0018300381,-0.0018344481,-0.0057058064,-0.0224816389,-0.0034350208,0.0003389935
2.0789828300,0.0010864171,0.0010520261,-0.0039854376,-0.0320654213,-0.0056592929,-0.0007005716
2.0889201164,0.0000696960,-0.0009939630,0.0034579905,-0.0416400209,-0.0120916264,0.0057221735
2.0989861488,0.0009353045,0.0008268397,0.0050071748,-0.0373627171,-0.0131251989,0.0057248375
2.1088860035,-0.0039663729,0.0065137190,0.0006729039,-0.0255880821,-0.0162586737,0.0036121518
2.1189739704,-0.0068573174,0.0093274154,-0.0026067225,-0.0309474282,-0.0120591354,-0.0006619557
2.1288850307,-0.0058265892,0.0033908526,-0.0009218184,-0.0352415070,-0.0099365953,0.0014520613
2.1388950348,-0.0077292142,-0.0006124933,0.0016687188,-0.0406381413,0.0006358873,-0.0071113328
2.1488971710,-0.0066621718,0.0032237212,-0.0025020568,-0.0235723350,0.0039379410,-0.0113942288
2.1588888168,-0.0025630114,-0.0035981496,-0.0093268482,-0.0000373162,0.0018934319,-0.0209553763
2.1688728333,0.0005399618,-0.0025063118,-0.0043572513,0.0095636463,0.0051195854,-0.0273573492
2.1789410114,-0.0011962471,-0.0014180500,0.0006166967,0.0074363127,0.0061286571,-0.0326754153
2.1889071465,0.0000682357,-0.0032626947,0.0026477845,0.0031614071,0.0071553052,-0.0337414816
2.1990680695,0.0061881128,-0.0001854260,0.0085026892,-0.0095772920,-0.0014930437,-0.0336767659
2.2088518143,0.0075068953,-0.0049905735,0.0113947066,-0.0052672317,-0.0067945984,-0.0325830057
2.2188880444,0.0049724760,-0.0078965984,0.0083515318,-0.0180364233,-0.0122263823,-0.0314773917
2.2288508415,0.0052551064,-0.0040065008,0.0061198147,-0.0330148414,-0.0101592364,-0.0261683799
2.2388749123,0.0093759485,-0.0040060240,0.0048882039,-0.0330003239,-0.0154248383,-0.0165710151
2.2488651276,0.0095448084,-0.0040531117,0.0065017017,-0.0393780619,-0.0207727309,-0.0112199243
2.2588958740,0.0057353559,-0.0012849529,0.0050145658,-0.0532673821,-0.0229368173,-0.0016342757
2.2688210011,0.0027924809,0.0024559537,0.0093079479,-0.0586461648,-0.0207772590,0.0057922155
2.2788949013,-0.0001823422,0.0090642013,0.0047660144,-0.0511822551,-0.0175609589,0.0004553737
2.2888360023,-0.0001591858,0.0108350553,-0.0006290404,-0.0447866768,-0.0164426975,0.0004436558
2.2988181114,-0.0001089242,0.0038921277,0.0009424361,-0.0362335369,-0.0174600258,-0.0016822127
2.3088259697,-0.0030221161,0.0067094606,0.0015473040,-0.0331069864,-0.0078257741,-0.0028092624
2.3188419342,-0.0040203002,0.0076054377,0.0032291086,-0.0214133132,-0.0013369825,-0.0049861306
2.3288021088,-0.0039236662,0.0026977102,0.0021598013,-0.0074919034,-0.0034395482,-0.0134813478
2.3388249874,-0.0066856113,-0.0031526049,0.0031129988,0.0010521831,-0.0023407280,-0.0177441370
2.3488299847,-0.0094487481,-0.0031502803,0.0020731362,-0.0043308651,0.0061044218,-0.0252318811
2.3588049412,-0.0053501544,-0.0001576502,0.0010435256,-0.0075100120,0.0039291522,-0.0262759738
2.3687930107,-0.0041675237,-0.0030246933,0.0049115093,-0.0085579660,0.0007328263,-0.0241297297
2.3787851334,-0.0029883799,-0.0039821821,0.0038418444,-0.0182006061,0.0059821829,-0.0262808986
2.3888101578,-0.0038229343,0.0038180391,0.0074789198,-0.0341939554,0.0037208931,-0.0262550674
2.3987698555,0.0012335065,0.0077025932,0.0080658467,-0.0534563288,0.0078839464,-0.0220193081
2.4088330269,0.0005469504,-0.0002542694,-0.0030594794,-0.0395327918,0.0026385845,-0.0230574086
2.4187619686,-0.0030980823,-0.0023062190,-0.0035086004,-0.0566517264,0.0078392057,-0.0252075121
2.4288179874,-0.0019917605,0.0025280754,0.0018669638,-0.0534298345,0.0025837233,-0.0177389439
2.4389071465,0.0010976675,0.0044220132,0.0033796700,-0.0459728502,0.0058202622,-0.0198853184
2.4488759041,0.0012961212,0.0063137454,0.0039572390,-0.0427075475,-0.0005944932,-0.0230331738
2.4587421417,0.0004875395,0.0052766246,0.0065311464,-0.0352724008,0.0016494864,-0.0177426711
2.4688029289,-0.0002941158,0.0071599525,0.0013496550,-0.0277902521,0.0016801127,-0.0209352709
2.4787278175,-0.0031126556,0.0110466518,0.0040342482,-0.0107406937,0.0050253095,-0.0199054256
2.4887771606,-0.0048862216,0.0130041279,-0.0008550016,0.0041956455,0.0072511788,-0.0231174640
2.4987168312,-0.0026952890,0.0101967491,0.0022164257,0.0128024491,-0.0001803716,-0.0252008550
2.5087151527,-0.0015022424,0.0073982519,0.0053223046,0.0170651041,-0.0001292389,-0.0230793804
2.5187511444,0.0016286853,0.0045975489,0.0074566873,0.0149426982,-0.0022706867,-0.0220033303
2.5287029743,-0.0001643416,0.0085711516,0.0075470479,0.0149426982,-0.0022706867,-0.0220033303
2.5387320518,-0.0019212780,0.0056900424,0.0047349008,0.0160079636,-0.0033007974,-0.0177449360
2.5487051010,-0.0017521349,0.0038147608,0.0048585208,0.0117402477,-0.0043844376,-0.0156101454
2.5587379932,-0.0025672880,0.0028748552,0.0039265426,0.0053328150,-0.0044278475,-0.0156084150
2.5686819553,-0.0033575413,-0.0029466113,0.0010789904,0.0074396417,-0.0022467182,-0.0124368565
2.5786559582,0.0016217264,-0.0009190995,0.0030469568,-0.0064020054,-0.0055807298,-0.0145291686
2.5887351036,0.0026847008,0.0010560196,0.0068396004,-0.0106659913,-0.0087656043,-0.0081311902
2.5986738205,0.0027298811,-0.0009089072,0.0106047066,-0.0096141770,-0.0066238903,-0.0081438404
2.6087350845,0.0018627825,0.0000078719,0.0036391290,-0.0010188241,-0.0129792579,-0.0091710212
2.6186618805,0.0029686722,-0.0029056033,0.0026614340,0.0021551317,-0.0097445818,-0.0091960561
2.6287031174,-0.0007989224,-0.0038948616,0.0025830539,-0.0053254217,-0.0087336460,-0.0091973869
2.6386609077,-0.0016927836,-0.0019367893,0.0034761103,-0.0043070298,-0.0023226184,-0.0103018004
2.6486740112,0.0042829099,-0.0038107594,0.0035466226,0.0031647356,-0.0022648277,-0.0103073921
2.6586799622,0.0063318792,-0.0037587842,0.0035994323,0.0031464929,-0.0001260431,-0.0103219068
2.6685459614,0.0044455263,-0.0037421545,0.0016758713,0.0116347866,0.0053017456,-0.0082382495
2.6785931587,0.0015899721,-0.0018081028,-0.0050903289,0.0116253318,0.0074186921,-0.0103755686
2.6886129379,0.0055137756,-0.0026995500,-0.0020141331,0.0084322020,0.0042330190,-0.0050407248
2.6986310482,0.0074526104,-0.0065280753,0.0049563320,0.0084429877,0.0021134089,-0.0029020738
2.7087459564,0.0015645805,-0.0026034077,0.0127402814,-0.0032826439,0.0009357592,-0.0050110309
2.7186019421,0.0015624198,-0.0016317923,0.0146525176,-0.0043464433,-0.0011734642,-0.0007471768
2.7286229134,0.0045950594,-0.0075145918,0.0058726342,-0.0011056429,-0.0054326579,-0.0017842117
2.7386021614,0.0017076614,-0.0095153414,0.0009715232,0.0021013357,-0.0064664967,-0.0007178821
2.7486679554,-0.0002570268,-0.0095292889,0.0028733881,-0.0075350460,-0.0033255648,0.0003308707
2.7585890293,-0.0032515195,-0.0047005373,0.0027799876,-0.0075775245,-0.0000765081,0.0056229718
2.7685871124,-0.0033035842,-0.0057001072,0.0017858419,-0.0011398643,-0.0032512625,0.0035142803
2.7784590721,-0.0033410308,-0.0067199427,-0.0002134768,-0.0064994758,-0.0021875959,0.0077606905
2.7885780334,-0.0034387526,-0.0077520567,0.0006649765,-0.0065450156,0.0021144745,0.0109199984
2.7985711098,-0.0035461304,-0.0087715350,0.0025350722,-0.0054561831,-0.0000245767,0.0098711131
2.8086049557,-0.0036737886,-0.0068629342,0.0014937195,-0.0022484055,-0.0031516603,0.0162634980
2.8185458183,-0.0077578244,-0.0030305942,0.0033855112,-0.0033497559,0.0011125931,0.0162377991
2.8286299706,-0.0108467005,-0.0031061729,0.0014046106,-0.0012658332,0.0064908471,0.0183262508
2.8385639191,-0.0061465767,-0.0031078418,-0.0014272657,0.0062109926,0.0044426098,0.0215193797
2.8485450745,-0.0034280685,-0.0031203588,-0.0013209906,0.0093921386,0.0066138851,0.0225654691
2.8586590290,-0.0056115356,-0.0021639427,0.0007362636,0.0083078323,0.0087417504,0.0225530844
2.8685379028,-0.0009697195,0.0008010905,0.0076727541,0.0019998690,-0.0009715967,0.0173085220
2.8785271645,0.0027351710,0.0037587921,0.0145227583,-0.0021891501,-0.0095813302,0.0141799748
2.8885321617,0.0045908275,0.0037292282,0.0144747766,-0.0096398750,-0.0117856283,0.0131370798
2.8987519741,0.0026068273,0.0075258655,0.0074379714,-0.0170959271,-0.0129302554,0.0110249277
2.9085540771,0.0036058011,0.0016222041,0.0072926553,-0.0127789443,-0.0182499196,0.0099940179
2.9185240269,0.0036292258,-0.0062558609,0.0071421536,-0.0223922897,-0.0183063783,0.0121260118
2.9285788536,0.0025921050,-0.0024825295,0.0019430193,-0.0341493487,-0.0173103567,0.0142525462
2.9385449886,0.0004929784,0.0071101231,-0.0023730127,-0.0342348330,-0.0076769032,0.0152496332
2.9485609531,0.0013467255,0.0109053887,-0.0017344680,-0.0310275890,-0.0066196285,0.0109909717
2.9584939480,0.0032097730,0.0068931025,0.0018277440,-0.0373969413,-0.0109438039,0.0110233286
2.9685809612,0.0050536576,0.0019060414,0.0101959379,-0.0512818620,-0.0099824024,0.0110267913
2.9786128998,0.0039401832,0.0085512437,0.0105741890,-0.0640377402,-0.0154472087,0.0089483270
2.9887170792,0.0067438665,0.0152329840,0.0157956760,-0.0565518588,-0.0175178163,0.0100189177
2.9985871315,0.0048162821,0.0121148862,0.0104034217,-0.0479409248,-0.0239128657,0.0047441283
3.0084891319,0.0009371224,0.0109508671,0.0098377736,-0.0586606823,-0.0176011734,0.0025859026
3.0185298920,-0.0039100018,0.0087680258,0.0063076289,-0.0555172190,-0.0101009123,0.0025378324
3.0285179615,-0.0028601703,0.0076363725,-0.0000299541,-0.0501666628,-0.0080036735,-0.0070410250
3.0385499001,0.0000974718,0.0124316253,0.0014615926,-0.0459383614,-0.0026366049,-0.0092077730
3.0484828949,0.0001826468,0.0093901791,-0.0028180210,-0.0353064910,0.0017389688,-0.0071187895
3.0585289001,-0.0027079997,0.0122147240,-0.0012465445,-0.0385086760,0.0027610897,-0.0092461230
3.0682730675,-0.0085683279,0.0198791660,-0.0036250083,-0.0278576296,0.0060407729,-0.0103372205
3.0783281326,-0.0123508982,0.0149149336,-0.0067457287,-0.0108094029,0.0114802793,-0.0146339647
3.0884649754,-0.0112785213,0.0129852928,-0.0057951538,-0.0055143731,0.0179038234,-0.0189319067
3.0985319614,-0.0092095844,0.0120760240,-0.0018649426,0.0030803131,0.0115497876,-0.0199597534
3.1084370613,-0.0070588109,0.0092375316,-0.0036778776,0.0105342343,0.0158372112,-0.0253047161
3.1185140610,-0.0068424609,0.0083591975,-0.0044993488,0.0169532523,0.0148041695,-0.0263625253
3.1284360886,-0.0027402458,0.0085035600,-0.0051670996,0.0298304353,0.0074040452,-0.0284483135
3.1384539604,-0.0054234979,0.0067150039,-0.0019149509,0.0373538658,0.0020984956,-0.0305431560
3.1484189034,-0.0070371595,0.0029645006,-0.0025742976,0.0320291407,0.0009794352,-0.0315945707
3.1584820747,-0.0067276773,0.0031161348,-0.0032623736,0.0309754610,-0.0001116619,-0.0337135158
3.1683969498,-0.0025133309,0.0033501426,0.0038732560,0.0278997757,-0.0151076550,-0.0346765146
3.1784200668,0.0027689519,-0.0022999009,0.0060742171,0.0183357000,-0.0205205306,-0.0335703716
3.1884298325,0.0041404548,-0.0051255780,0.0012983950,0.0108887022,-0.0248260628,-0.0303500779
3.1983880997,0.0006546411,-0.0108827315,0.0062298449,0.0131437331,-0.0376744829,-0.0355827883
3.2083959579,0.0040344479,-0.0165787302,0.0102060707,0.0057369499,-0.0452224128,-0.0365910605
3.2183451653,0.0073766741,-0.0144997202,0.0130123766,-0.0091663674,-0.0506699122,-0.0344173908
3.2284510136,0.0058946493,-0.0096133314,0.0088062556,-0.0187886339,-0.0496573783,-0.0322924517
3.2383730412,0.0004470381,-0.0028171500,0.0016198430,-0.0145479487,-0.0464109816,-0.0312531553
3.2484278679,-0.0000633415,-0.0008484680,-0.0015742508,-0.0134422043,-0.0485945083,-0.0376141146
3.2583630085,0.0013738754,-0.0047039348,-0.0018241134,-0.0187713224,-0.0497026518,-0.0376041308
3.2683980465,0.0018890086,-0.0085691176,-0.0011821715,-0.0316136181,-0.0444852524,-0.0408161692
3.2783639431,0.0022853347,-0.0007668693,0.0012551221,-0.0465965606,-0.0403152741,-0.0397711433
3.2883439064,0.0036910060,0.0021336714,-0.0012154905,-0.0391772613,-0.0359373055,-0.0344927572
3.2982800007,0.0069835517,0.0011650365,-0.0015916553,-0.0285183601,-0.0358161330,-0.0302526057
3.3083629608,0.0063370648,0.0001563470,-0.0009593097,-0.0253033899,-0.0410535038,-0.0206593648
3.3183660507,0.0046062949,0.0001309555,0.0006750497,-0.0232358463,-0.0356318392,-0.0132583082
3.3283390999,0.0008719448,0.0020200054,0.0003435882,-0.0243258774,-0.0345351510,-0.0090150936
3.3383951187,0.0018972638,0.0059170765,0.0088308128,-0.0286504496,-0.0302408021,-0.0026646529
3.3483181000,0.0000544670,0.0048556966,0.0046507390,-0.0148004163,-0.0290194768,0.0026297113
3.3583168983,0.0011087540,-0.0010383088,0.0016181144,-0.0020189751,-0.0267571211,0.0057939463
3.3683490753,0.0010718587,-0.0000680048,0.0064333947,-0.0020293612,-0.0267299581,0.0089809503
3.3783349991,0.0010353806,-0.0010411103,0.0083953412,0.0065169893,-0.0266825520,0.0068501555
3.3883030415,-0.0028982279,-0.0001028736,0.0045081647,0.0149964942,-0.0201860368,0.0089268889
3.3983709812,-0.0028997776,-0.0011045296,-0.0022141663,0.0160135552,-0.0137723461,0.0078211445
3.4082930088,-0.0029378054,-0.0020365675,-0.0011028973,0.0213276278,-0.0105339438,0.0067340420
3.4182889462,0.0009539012,-0.0087819658,0.0030736597,0.0309833176,-0.0158157907,0.0057008686
3.4283161163,0.0057856026,-0.0116044246,0.0072310241,0.0203165580,-0.0180086382,0.0089097116
3.4382829666,0.0057415548,-0.0106188618,0.0054000886,0.0170785543,-0.0148040559,0.0110134762
3.4483418465,0.0026790979,-0.0057020742,0.0141925486,0.0075439047,-0.0223866086,0.0078821313
3.4582760334,-0.0002094921,-0.0096304379,0.0161127131,0.0043296027,-0.0192422140,0.0036148147
3.4683079720,0.0008503977,-0.0105915628,0.0141648324,0.0043679522,-0.0214339960,-0.0027453466
3.4782838821,0.0028892639,-0.0105705224,0.0122204097,0.0022185137,-0.0182741545,-0.0059501948
3.4882700443,0.0040460113,-0.0125426017,0.0014895472,0.0032893708,-0.0182749536,-0.0070133284
3.4982481003,0.0041426900,-0.0114995204,0.0063779624,0.0075572198,-0.0171915777,-0.0091479849
3.5083210468,-0.0006711897,-0.0085566603,0.0102663906,0.0086017121,-0.0139861982,-0.0102318916
3.5182099342,-0.0034487960,-0.0066001373,0.0034554871,0.0085459184,-0.0075655836,-0.0092107030
3.5283019543,-0.0033562598,-0.0075437385,0.0034969123,0.0106351683,-0.0032470017,-0.0060529928
3.5382950306,-0.0003141877,-0.0104250871,-0.0002899495,0.0127826082,-0.0043090703,-0.0071096020
3.5482289791,-0.0022648689,-0.0045416909,0.0016547117,0.0042298664,-0.0064310767,0.0024716526
3.5582580566,-0.0042944071,-0.0026110967,0.0036101015,0.0062939501,-0.0010024895,0.0098692486
3.5682139397,-0.0044212756,0.0022643844,0.0036431821,0.0063221795,-0.0052592861,0.0120216152
3.5781078339,-0.0025893268,-0.0016608794,0.0008327636,0.0137595898,-0.0051114806,0.0226396378
3.5882749557,-0.0047151563,-0.0056251842,-0.0019746153,0.0126698241,-0.0061069699,0.0322083756
3.5982689857,-0.0040844199,0.0002216141,0.0020159157,0.0137384171,-0.0071479995,0.0343385041
3.6082730293,-0.0034826216,0.0050963205,0.0108812721,0.0084666898,-0.0167715978,0.0386541598
3.6182599068,-0.0008219298,-0.0017803867,0.0109726461,0.0074168714,-0.0199620668,0.0418643318
3.6282548904,-0.0040479866,-0.0038989147,0.0031168731,-0.0053969286,-0.0210936442,0.0461301841
3.6384658813,-0.0064508137,0.0066764993,0.0019570859,-0.0064932182,-0.0189354178,0.0493032075
3.6482219696,-0.0059062955,0.0085323490,0.0077343257,-0.0000608852,-0.0210504998,0.0461252593
3.6582088470,-0.0101133399,0.0073918742,0.0008473071,0.0052473270,-0.0177961178,0.0471638925
3.6681950092,-0.0133901499,0.0101736225,-0.0069771735,0.0073240600,-0.0103075737,0.0460514873
3.6782388687,-0.0147068314,0.0100765862,-0.0127420155,0.0211673044,-0.0038403538,0.0396246128
3.6881890297,-0.0140009634,0.0080940761,-0.0154322116,0.0318282060,0.0035965233,0.0246954653
3.6981558800,-0.0103198998,0.0023688714,-0.0023918478,0.0286455937,0.0045667132,0.0161929242
3.7081561089,-0.0045826253,0.0005393069,0.0057243379,0.0233837198,-0.0008996913,0.0066705258
3.7181589603,-0.0055438695,-0.0003887971,0.0020317705,0.0298436172,-0.0041317036,-0.0018107103
3.7281999588,-0.0045374450,0.0045579118,-0.0035641519,0.0340865627,0.0011996785,-0.0071602017
3.7381989956,0.0033352259,0.0067309183,0.0026809843,0.0352287963,-0.0073551936,-0.0092326738
3.7481918335,0.0093273111,0.0049634618,0.0088374885,0.0192969665,-0.0170975700,-0.0091583719
3.7581269741,0.0113970973,0.0021081010,0.0128037008,-0.0084390566,-0.0215365253,-0.0027340283
3.7681570053,0.0095642395,0.0069213551,0.0076866420,-0.0233298540,-0.0280644670,-0.0026812977
3.7781491280,0.0125390626,0.0088622607,0.0132323774,-0.0296969414,-0.0355317034,0.0048083104
3.7881419659,0.0106714554,0.0058113975,0.0128112109,-0.0414031334,-0.0398974232,0.0048447959
3.7981081009,0.0087420382,0.0056497497,0.0132558616,-0.0478558391,-0.0366840512,0.0112016276
3.8080990314,0.0029052380,0.0034624974,0.0049107941,-0.0415723771,-0.0248151440,0.0185570121
3.8181259632,0.0008438710,0.0052050394,-0.0023517339,-0.0320057683,-0.0194073301,0.0174533986
3.8280911446,-0.0052096960,0.0089598931,0.0031179460,-0.0267620049,-0.0076191127,0.0163109023
3.8380830288,-0.0053623137,0.0059413356,0.0048837932,-0.0129625695,0.0031467155,0.0130450670
3.8481068611,-0.0035784957,0.0097841062,0.0028401883,-0.0086668907,0.0020657387,0.0077371215
3.8581030369,-0.0085517876,0.0057936949,0.0008644732,0.0083258087,0.0118315499,0.0087212930
3.8681011200,-0.0116165392,0.0067741317,0.0048620375,0.0157831926,0.0161099192,0.0023139936
3.8780720234,-0.0117178373,0.0126764216,0.0059907706,0.0211679712,0.0149831362,-0.0083020329
3.8880479336,-0.0076720235,0.0040113372,0.0053513916,0.0297542699,0.0117886737,-0.0146616613
3.8980951309,-0.0066030291,-0.0007314045,0.0105536254,0.0255082585,0.0085550640,-0.0146404896
3.9080820084,-0.0074728844,0.0042105955,0.0068112882,0.0148148667,0.0116605759,-0.0167779420
3.9180419445,-0.0044215587,0.0082019605,0.0059481533,0.0095090512,0.0073545100,-0.0156844482
3.9280719757,-0.0043039736,0.0033863226,0.0080156596,0.0063510751,-0.0001060695,-0.0103219068
3.9380359650,-0.0051020649,-0.0005300600,0.0021195086,-0.0139484704,0.0029243417,-0.0124517698
3.9481620789,-0.0079041533,-0.0015765984,-0.0039112894,-0.0171943307,0.0061510275,-0.0071584708
3.9580221176,-0.0029767868,0.0013763945,-0.0011093346,-0.0139275650,-0.0013135467,-0.0081751328
3.9680559635,-0.0019487408,0.0043078107,-0.0002683130,-0.0107112648,-0.0034171776,-0.0071013458
3.9781689644,-0.0009052720,0.0052835983,0.0035106214,-0.0160622224,-0.0013303244,-0.0081734015
3.9880518913,0.0030877772,0.0004333894,0.0092554959,-0.0128107686,-0.0077088615,-0.0070719179
3.9980049133,0.0032148692,-0.0025072058,0.0091461213,-0.0096121803,-0.0066278847,-0.0081418436
4.0080699921,0.0022836062,0.0014047067,0.0119299563,-0.0074984282,-0.0044648647,-0.0070949541
4.0180630684,-0.0005293306,0.0023222605,0.0049924525,-0.0043144869,-0.0023013130,-0.0071118656
4.0280590057,0.0025055590,0.0013775270,-0.0008110729,0.0095371474,-0.0000384250,-0.0050114300
4.0377631187,0.0005876008,0.0004643838,0.0061426433,0.0138349561,-0.0021705518,-0.0081875157
4.0480451584,-0.0042436835,-0.0004708130,0.0111270817,0.0116722034,-0.0000224463,-0.0050127618
4.0580511093,-0.0022132215,-0.0043044644,0.0131976278,0.0074094143,-0.0000733125,-0.0071343691
4.0679688454,-0.0001262840,-0.0101742707,0.0054469379,0.0020884182,-0.0032936069,-0.0039225970
4.0777978897,-0.0000737724,-0.0121248327,0.0034823092,-0.0011527818,-0.0000783724,0.0003095656
4.0879898071,-0.0001460877,-0.0081856214,0.0122087272,-0.0011298778,-0.0032754974,0.0013926730
4.0979399681,0.0036587897,-0.0052434164,0.0180216115,-0.0096368147,-0.0107469950,0.0099446159
4.1082220078,0.0016285959,-0.0043757516,0.0148785384,-0.0246152282,-0.0086798500,0.0152536277
4.1178541183,-0.0023881313,-0.0016260702,0.0067431601,-0.0278324615,-0.0076191127,0.0173744354
4.1280031204,-0.0035425839,0.0031189362,0.0054524811,-0.0246654321,-0.0033194395,0.0173443425
4.1379981041,-0.0008141216,0.0059568328,0.0061528953,-0.0289252903,-0.0054699425,0.0194851235
4.1478509903,-0.0019651023,0.0058178944,0.0068656476,-0.0247119013,0.0009844950,0.0205027182
4.1580162048,-0.0011325446,0.0047637862,0.0067084106,-0.0139850900,-0.0032539256,0.0152111501
4.1678361893,0.0026318463,0.0066936058,0.0066406997,-0.0012064446,0.0021525577,0.0109176021
4.1779770851,0.0025836411,0.0046987575,0.0008439692,0.0147774499,0.0075755524,0.0055589224
4.1879777908,0.0025602165,0.0027555267,-0.0019505349,0.0169015862,0.0097114071,0.0034188060
4.1981110573,0.0044225636,0.0067344350,0.0011638077,0.0200770069,0.0139900418,0.0012655070
4.2079291344,0.0024208608,0.0087454356,0.0052690776,0.0211513266,0.0139801884,-0.0008599618
4.2179317474,0.0004499439,0.0078141727,0.0035373839,0.0232621469,0.0161490664,0.0001839974
4.2279219627,-0.0005280044,0.0068445844,-0.0011381237,0.0189925674,0.0161160436,0.0001871930
4.2381200790,-0.0064308462,0.0068377298,-0.0010120003,0.0115146777,0.0181664117,-0.0030070022
4.2479500771,-0.0074742553,0.0068757576,0.0020420821,0.0093465988,0.0213741884,-0.0009015070
4.2579421997,-0.0065388498,0.0039912504,0.0041635307,0.0157749373,0.0192692261,-0.0030176549
4.2679390907,-0.0055512008,0.0030461589,0.0004491481,0.0093703009,0.0213118698,-0.0083383843
4.2780427933,-0.0055090901,0.0031061212,0.0015259060,0.0051654349,0.0148361279,-0.0114790499
4.2879281044,-0.0054065106,-0.0007754524,-0.0013040630,0.0105024101,0.0148774078,-0.0114830453
4.2979240417,-0.0053470996,0.0031709115,-0.0031516878,0.0094695026,0.0116424654,-0.0135849454
4.3079009056,-0.0053102192,0.0101038851,0.0018242869,0.0095291575,0.0052119968,-0.0156680699
4.3179640770,-0.0081405453,0.0101636089,0.0077536972,0.0074112792,0.0020124752,-0.0135235591
4.3278131485,-0.0088837557,0.0052959365,0.0009820733,0.0052972622,0.0019416350,-0.0198959708
4.3378667831,-0.0027733860,0.0005099814,-0.0037710397,0.0106579382,-0.0012158087,-0.0188160576
4.3478631973,0.0012622806,0.0006296079,0.0012479099,0.0128052449,-0.0043692579,-0.0145475436
4.3578600883,-0.0026034531,0.0065437001,0.0051859887,0.0095717683,-0.0043122661,-0.0049842661
4.3678522110,-0.0025915620,0.0134209432,0.0062061222,0.0063765082,-0.0043551428,-0.0071065393
4.3777689934,-0.0014691767,0.0056175035,0.0014024648,0.0010519167,-0.0086130053,-0.0007028352
4.3878459930,-0.0023753461,-0.0002585013,0.0004146370,-0.0032528164,-0.0043711215,-0.0007273362
4.3978400230,-0.0023633209,0.0026886503,0.0032987865,0.0021374216,-0.0086516207,-0.0060145101
4.4078350067,0.0007054839,-0.0011600215,0.0042990120,0.0021760371,-0.0129355816,-0.0070491480
4.4178299904,0.0027542892,-0.0020848473,0.0062539848,-0.0042007687,-0.0151468040,-0.0091521135
4.4278259277,0.0028703394,-0.0030749401,0.0032525929,-0.0053294161,-0.0097661531,-0.0038742605
4.4378228188,0.0048763785,-0.0040364820,0.0041955383,-0.0000375826,-0.0043788450,-0.0039140750
4.4478178024,0.0029410305,-0.0001315434,0.0041682394,0.0031856410,-0.0065005850,-0.0049649579
4.4577808380,0.0020114961,-0.0000983436,0.0100178989,-0.0021325583,-0.0076369559,-0.0081414431
4.4678058624,0.0030879411,-0.0020315011,0.0099722417,-0.0096147088,-0.0076675825,-0.0049488461
4.4777779579,0.0031823399,-0.0010887344,0.0040149363,-0.0053734919,-0.0023327384,-0.0103000691
4.4878311157,0.0033113691,-0.0020622571,0.0000962290,0.0009991862,0.0019826479,-0.0113948938
4.4978199005,0.0054006907,-0.0049487310,-0.0027382700,0.0084553715,0.0041760276,-0.0103465412
4.5078210831,0.0044340375,-0.0000060160,0.0022009285,0.0084236804,0.0084418785,-0.0114365723
4.5178270340,0.0015570703,-0.0019457896,0.0023004087,0.0126574393,0.0096126040,-0.0040131444
4.5278129578,-0.0023247567,-0.0038822850,0.0024211081,0.0104803052,0.0159812868,-0.0072400970
4.5378079414,-0.0024032560,0.0030118267,0.0063924463,0.0083571002,0.0127966804,-0.0029693185
4.5478019714,-0.0033348319,0.0010621588,0.0045409473,0.0073211305,0.0106147518,-0.0072040111
4.5577988625,-0.0042376933,-0.0018562038,0.0006993088,0.0019950755,0.0074067079,-0.0029315017
4.5677709579,-0.0013136682,-0.0027766784,0.0046620043,-0.0000957726,0.0020465637,-0.0028952826
4.5776119232,-0.0012894687,-0.0027613600,0.0104869278,-0.0117439069,-0.0076995408,-0.0070732497
4.5878868103,-0.0002418127,-0.0037351211,0.0161237400,-0.0351229981,-0.0196552705,-0.0091041764
4.5977730751,-0.0020557162,-0.0058028656,0.0195144098,-0.0628357232,-0.0241557453,-0.0101171099
4.6077671051,0.0010751965,-0.0069459635,0.0148873003,-0.0809252411,-0.0307175089,-0.0111243166
4.6177740097,0.0051498297,-0.0090551339,0.0179447215,-0.0937294587,-0.0339662991,-0.0047210129
4.6277647018,0.0013721469,-0.0074228602,0.0110451253,-0.1044699848,-0.0276002772,-0.0005052288
4.6377611160,-0.0054119942,0.0009946268,0.0040541561,-0.1024023071,-0.0200872347,0.0015707053
4.6476850510,-0.0064013121,0.0026949684,0.0051032575,-0.0854118690,-0.0092678759,0.0014886800
4.6577239037,-0.0093746893,0.0063861650,0.0101189287,-0.0886506662,-0.0039679194,-0.0006678146
4.6677007675,-0.0054722545,0.0100813545,0.0102466019,-0.0897833109,0.0056061447,-0.0049786735
4.6777491570,-0.0053406474,-0.0018452365,0.0076309713,-0.0631113574,0.0089811683,-0.0103349565
4.6877069473,-0.0003970083,0.0010228198,0.0091389688,-0.0449555218,0.0111865327,-0.0188610666
4.6977229118,0.0036428156,0.0019913951,0.0117564471,-0.0353500322,0.0133567424,-0.0231287815
4.7077670097,0.0048354152,-0.0048378664,0.0173498672,-0.0385415629,0.0112126311,-0.0209878664
4.7177200317,0.0040391567,-0.0068629342,0.0150419148,-0.0460107997,0.0101028923,-0.0188500155
4.7277140617,-0.0017581997,0.0018039983,0.0174420755,-0.0545725971,0.0111417919,-0.0146012064
4.7377190590,-0.0083991997,-0.0003815849,0.0032222541,-0.0524798818,0.0164982080,-0.0146355620
4.7477049828,-0.0052597639,-0.0073580700,-0.0089067547,-0.0556538366,0.0122166434,-0.0124807982
4.7577109337,0.0006331388,-0.0093480311,-0.0034467308,-0.0503148697,0.0101601500,-0.0082233362
4.7676949501,-0.0042004106,-0.0094939433,-0.0019950001,-0.0546004251,0.0133061428,-0.0114279184
4.7776989937,-0.0061801788,-0.0027977785,-0.0005618063,-0.0503470898,0.0123354197,-0.0039886432
4.7876839638,-0.0042585847,-0.0028880199,0.0019548209,-0.0428313836,0.0070495782,-0.0039596148
4.7976651192,-0.0003498015,-0.0039331871,0.0016600165,-0.0364547111,0.0082184393,0.0024045410
4.8077392578,-0.0013962504,0.0008377474,0.0003461512,-0.0290039852,0.0104227383,0.0034474351
4.8177881241,-0.0024877009,0.0037062804,0.0059543522,-0.0226143971,0.0105103562,0.0076910486
4.8276729584,-0.0035303351,0.0046274704,0.0019677551,-0.0055749612,0.0170185883,0.0033873809
4.8392477036,0.0003265920,0.0017144125,-0.0017956820,0.0135908779,0.0214748569,0.0075963736
4.8489961624,0.0031628790,-0.0011741478,-0.0072894422,0.0413079932,0.0259644147,0.0075479038
4.8577589989,0.0039690020,0.0009071272,-0.0048002331,0.0540393703,0.0346316732,0.0096074594
4.8674821854,0.0047237161,0.0010564368,-0.0002593723,0.0572559349,0.0304358602,0.0160067696
4.8774371147,0.0035105231,-0.0017511208,0.0032901438,0.0508156084,0.0346628316,0.0159830675
4.8877429962,0.0013050321,-0.0026612838,0.0057562860,0.0454613231,0.0346668251,0.0212987363
4.8976340294,-0.0008815494,-0.0035873016,0.0052322419,0.0423358381,0.0271199588,0.0160357971
4.9073929787,0.0037701610,-0.0044805962,0.0056818994,0.0316850618,0.0217480958,0.0224524178
4.9174489975,0.0015504244,-0.0044664103,0.0079210671,0.0231882446,0.0163437426,0.0235576294
4.9273958206,-0.0035561440,-0.0045599896,-0.0007205335,0.0050513186,0.0151346689,0.0235781353
4.9374270439,-0.0038348255,-0.0036646684,-0.0026436774,-0.0056038555,0.0118653718,0.0257309023
4.9473199844,-0.0031058607,-0.0037318429,-0.0017240968,-0.0087921917,0.0118043851,0.0214839596
4.9574170113,-0.0053413627,0.0020090381,-0.0047721593,-0.0098549267,0.0096930321,0.0257488787
4.9674139023,-0.0046207127,0.0067797941,-0.0116702644,-0.0023743734,0.0086820964,0.0257502105
4.9774079323,-0.0019733128,0.0086874999,-0.0087563721,-0.0055545866,0.0054620677,0.0268347841
4.9874649048,-0.0052185771,0.0125078000,-0.0039694039,-0.0066273082,0.0065134834,0.0257663224
4.9973359108,-0.0064650294,0.0124495663,-0.0000977842,-0.0001816591,0.0022716008,0.0236637574
5.0074200630,-0.0056675044,0.0124067701,-0.0020203320,0.0051726261,0.0022676059,0.0183480885
5.0174040794,-0.0048387465,0.0143533982,-0.0038724272,0.0148042142,0.0022769272,0.0109053515
5.0275158882,-0.0009994325,0.0114832558,-0.0026715724,0.0223074034,0.0001610457,0.0066642673
5.0374059677,-0.0019802717,0.0085955895,-0.0033993451,0.0255161133,0.0012153911,0.0024070709
5.0473589897,-0.0048445282,0.0057085198,-0.0079917042,0.0329524577,0.0076402668,-0.0029517417
5.0573759079,-0.0047970233,0.0058162850,-0.0076580374,0.0351365171,0.0033451209,-0.0071747163
5.0676741600,0.0000981870,0.0069792909,-0.0004590479,0.0330227651,0.0011821017,-0.0082216049
5.0773859024,0.0011820677,0.0032056014,0.0027573379,0.0266642012,-0.0052616829,-0.0060505960
5.0873088837,0.0021955851,0.0052145761,0.0029041441,0.0106657948,-0.0085554803,-0.0017684991
5.0973339081,0.0002383772,0.0091188587,0.0019186410,0.0021234397,-0.0107046515,0.0046257507
5.1073751450,0.0002164725,0.0081336536,0.0057621868,-0.0074498253,-0.0140032433,0.0025290439
5.1174588203,-0.0027310220,0.0080634393,0.0046482952,-0.0106799742,-0.0118633928,0.0057045966
5.1274700165,-0.0017157015,0.0060598892,-0.0013116924,-0.0106466850,-0.0150876818,0.0036007001
5.1374921799,-0.0007299003,0.0070168418,-0.0023656217,-0.0021183100,-0.0129020261,0.0014556570
5.1474771500,-0.0006930348,0.0040866775,-0.0023721782,0.0042929836,-0.0128706004,-0.0006738068
5.1574888229,0.0012698355,0.0061088842,0.0035324963,0.0075196694,-0.0139566381,-0.0059825522
5.1674609184,0.0012907269,0.0110564269,0.0113441618,0.0085974503,-0.0139755458,-0.0091703553
5.1774611473,0.0034007016,0.0081945099,0.0094880732,0.0139615908,-0.0160972867,-0.0123483054
5.1874279976,0.0055085900,0.0062967581,0.0076295407,0.0107016154,-0.0107422024,-0.0081311902
5.1974611282,0.0017805281,0.0063143414,0.0027848752,0.0128365383,-0.0065426636,-0.0187831689
5.2074208260,0.0000421885,0.0044361991,0.0038912566,0.0170672350,-0.0001335000,-0.0230772495
5.2174191475,0.0003737691,-0.0023169478,-0.0037043421,0.0202546380,0.0030678860,-0.0262862258
5.2274370193,-0.0003932086,-0.0051256376,-0.0015091625,0.0254914798,0.0148742115,-0.0253040511
5.2374467850,-0.0002486226,0.0008802455,0.0016556057,0.0233777277,0.0127111925,-0.0263509396
5.2474279404,0.0008913759,0.0039511365,0.0038510235,0.0286601074,0.0202154480,-0.0285280738
5.2574310303,0.0021293345,-0.0037156900,0.0032400759,0.0319034383,0.0149043044,-0.0274328496
5.2674169540,0.0062390151,-0.0044832784,0.0084790261,0.0298072658,0.0106038330,-0.0284658894
5.2773890495,0.0064566317,-0.0063031274,0.0107070478,0.0223429576,0.0084352205,-0.0252591781
5.2874088287,0.0027592960,-0.0052736956,0.0069171460,0.0127435932,0.0062506292,-0.0220511332
5.2973828316,-0.0019123224,-0.0081678592,0.0050612362,0.0105886962,0.0073318733,-0.0188703872
5.3073911667,-0.0027702120,-0.0071418243,0.0041980417,0.0063334974,0.0030782726,-0.0124654854
5.3174018860,-0.0036916253,-0.0051698643,0.0032430561,0.0041515697,0.0063222684,-0.0061106505
5.3273229599,0.0002202574,-0.0041355449,0.0052485140,0.0009901309,-0.0011292559,0.0003142259
5.3373851776,0.0021440270,-0.0060717422,0.0081752809,-0.0053619081,-0.0096819978,0.0056854221
5.3473482132,-0.0037662205,-0.0042147595,0.0079875262,-0.0139519339,-0.0043863021,0.0077818627
5.3573760986,-0.0067907390,-0.0023469885,0.0087648304,-0.0149945607,-0.0075954110,0.0088676335
5.3673090935,-0.0048810211,-0.0034102162,0.0037190588,-0.0149804456,-0.0097238086,0.0099438168
5.3773651123,-0.0039012549,-0.0093220435,0.0016840372,-0.0086146919,-0.0043455558,0.0077781347
5.3873610497,-0.0039804396,-0.0083828531,0.0025753053,-0.0054071816,-0.0053804601,0.0088449959
5.3973550797,-0.0001713451,-0.0083673559,0.0055077942,-0.0032959608,-0.0021654919,0.0077596256
5.4073500633,-0.0041498807,-0.0074547487,0.0054132016,-0.0033012871,-0.0011058202,0.0066903657
5.4173460007,-0.0061938879,-0.0045510489,0.0073016556,-0.0001124172,-0.0000011409,0.0077423155
5.4273390770,-0.0062818793,-0.0026013812,0.0111959847,-0.0022525331,0.0010420193,0.0066746539
5.4373059273,-0.0033805338,-0.0045692879,0.0092097791,-0.0107715856,-0.0001217821,0.0035018967
5.4473309517,-0.0082522295,-0.0085813366,0.0032258304,-0.0087033752,0.0063433074,0.0077080936
5.4572620392,-0.0053857085,-0.0095583759,0.0041840347,-0.0065075988,-0.0000733125,0.0056247022
5.4673347473,-0.0015964177,-0.0075944620,0.0080653699,-0.0054628411,0.0010398889,0.0098663187
5.4772911072,-0.0006641563,-0.0134896003,0.0070789130,-0.0065406216,0.0021056861,0.0109243924
5.4873118401,-0.0007946309,-0.0096327029,0.0079616578,-0.0107907606,-0.0011154073,0.0130730309
5.4973058701,-0.0038416502,-0.0068026143,0.0048553618,-0.0172337480,0.0020721299,0.0162421931
5.5073022842,-0.0020407257,-0.0068623382,0.0057136687,-0.0097180409,-0.0032137120,0.0162712205
5.5172977448,0.0007758025,-0.0078933202,0.0046444805,-0.0129268821,-0.0032230332,0.0173327588
5.5272932053,-0.0003403839,-0.0099464618,0.0006011399,-0.0150789823,-0.0031942709,0.0226460285
5.5372867584,-0.0006117639,-0.0041788178,0.0023998292,-0.0086783413,-0.0041799070,0.0268988311
5.5472660065,-0.0018957672,0.0035567919,0.0081217559,-0.0118594877,-0.0063511818,0.0258527417
5.5572977066,-0.0031196591,0.0025237838,0.0148555906,-0.0054230271,-0.0105682984,0.0269383807
5.5672950745,-0.0003471491,-0.0043852883,0.0109425457,0.0020804303,-0.0147763584,0.0280228201
5.5772690773,-0.0005526062,-0.0034934243,0.0079750689,-0.0011768835,-0.0083818417,0.0290470719
5.5872697830,-0.0037434218,0.0032308141,0.0020523937,0.0073641408,-0.0093664136,0.0311722755
5.5972557068,-0.0030646292,0.0061288518,0.0040735276,0.0148010179,-0.0050342488,0.0311392490
5.6072607040,0.0025505009,0.0002991002,0.0072251232,0.0105455527,-0.0071956706,0.0322186276
5.6172461510,0.0032317373,0.0002499859,0.0072733434,0.0030134674,-0.0008216607,0.0343066826
5.6270499229,-0.0009653088,0.0030451457,0.0033329399,0.0019300934,0.0023490989,0.0310997013
5.6370291710,-0.0051604328,0.0049110097,0.0033414038,0.0115257297,0.0066349246,0.0236284696
5.6472401619,-0.0024048206,0.0000127594,-0.0004098145,0.0104049388,0.0130403582,0.0235870592
5.6573829651,0.0002402845,-0.0009629686,0.0017178926,0.0167730898,0.0173669308,0.0235535018
5.6672520638,-0.0010095951,0.0048893732,0.0038242014,0.0125154937,0.0183483046,0.0171757638
5.6772508621,-0.0003150669,0.0088180341,0.0108047398,0.0103688529,0.0204535350,0.0150376456
5.6872229576,-0.0004037288,0.0019904415,0.0090613039,0.0157564282,0.0172252506,0.0076180780
5.6971540451,-0.0024344740,0.0000251572,0.0072567733,0.0072316485,0.0171240494,0.0044414597
5.7073249817,-0.0064187911,0.0029153863,0.0024351748,0.0061783683,0.0149873951,0.0055184420
5.7173280716,-0.0036121872,0.0048920554,0.0064030560,-0.0012699608,0.0117314151,0.0066076750
5.7275972366,-0.0037221280,0.0097648539,0.0073864730,0.0008858684,0.0096014189,0.0055575902
5.7376260757,-0.0018884060,0.0088051595,0.0122803720,-0.0087349340,0.0106110238,0.0076839915
5.7475881577,-0.0029157815,0.0077568335,0.0063509019,-0.0055186339,0.0085073924,0.0087577784
5.7574129105,-0.0038789329,0.0017883222,-0.0034953682,-0.0140529992,0.0094722565,0.0034418423
5.7670769691,0.0008975599,0.0037425796,-0.0006590811,-0.0172533207,0.0083968714,0.0055758334
5.7770061493,0.0038002911,0.0027321021,0.0001865300,-0.0160813965,-0.0012791918,-0.0017977938
5.7870211601,0.0076901498,0.0007978122,0.0059322985,-0.0203560367,-0.0023447224,0.0024616662
5.7969870567,0.0056984904,0.0017014187,0.0066607865,-0.0278199464,-0.0045141336,0.0056687770
5.8069992065,0.0007584575,0.0083720125,0.0014294061,-0.0257344246,0.0019056827,0.0045632990
5.8170070648,0.0046298089,0.0102671422,-0.0036473600,-0.0139663136,-0.0012104823,0.0045756828
5.8269958496,0.0075360122,0.0034180323,0.0021025212,-0.0193067528,-0.0012427066,0.0056420127
5.8369879723,0.0035841051,0.0023392478,0.0018928322,-0.0246791448,0.0019445647,0.0077477745
5.8469109535,-0.0014132676,0.0090432800,-0.0022607176,-0.0151359737,0.0105505697,0.0055605196
5.8569421768,-0.0063539264,0.0118637122,-0.0111453859,-0.0002688784,0.0213241205,0.0022941530
5.8669738770,-0.0054598269,0.0099310316,-0.0081068603,0.0082788039,0.0224136189,-0.0030308373
5.8770961761,-0.0015967903,0.0061264080,-0.0001191226,0.0093533890,0.0224032328,-0.0051560402
5.8871169090,0.0013190689,0.0033056180,0.0059367688,0.0168248881,0.0245532058,-0.0104871560
5.8971219063,0.0052538696,0.0092940368,0.0071909698,0.0244295448,0.0127591286,-0.0221041311
5.9071078300,0.0024897936,0.0122949518,0.0083118947,0.0126248170,0.0212000180,-0.0242754072
5.9171028137,0.0037868503,0.0026146809,-0.0021615950,0.0254681762,0.0201637819,-0.0317128152
5.9270992279,0.0011601481,0.0036823193,-0.0077699153,0.0265334398,0.0233148336,-0.0391707309
5.9370560646,0.0034036520,0.0068182391,-0.0045210449,0.0275945775,0.0254315156,-0.0423714519
5.9470891953,0.0057696882,-0.0008124668,-0.0070795147,0.0222714506,0.0253540166,-0.0466167964
5.9570922852,0.0033022943,-0.0075114327,-0.0107431142,0.0137107205,0.0284803007,-0.0487579778
5.9670801163,0.0036270502,-0.0044103819,-0.0047474829,0.0062951487,0.0220010970,-0.0497731753
5.9770832062,0.0010621729,-0.0013884861,-0.0047155945,-0.0001120185,0.0219592843,-0.0487053804
5.9869642258,-0.0044057635,-0.0003448684,-0.0066678850,-0.0001381170,0.0230732858,-0.0434006304
5.9970741272,-0.0021391925,-0.0021588167,-0.0026713936,0.0031507537,0.0124153141,-0.0422691889
6.0070590973,0.0020742896,-0.0020354351,0.0012392672,-0.0192150045,0.0037464593,-0.0358230062
6.0170569420,-0.0054624346,-0.0001476963,-0.0009919134,-0.0224415585,0.0016936951,-0.0230591409
6.0270190239,-0.0082221590,0.0007912557,-0.0012562005,-0.0298691131,-0.0057999077,-0.0176934022
6.0370512009,-0.0110761039,0.0085467137,0.0013273032,-0.0309217274,-0.0100295395,-0.0112904981
6.0470457077,-0.0129182450,0.0084798969,0.0000540289,-0.0287429951,-0.0153566618,-0.0112574752
6.0570459366,-0.0137409233,0.0084165968,-0.0002564517,-0.0276385807,-0.0206760596,-0.0101647805
6.0670289993,-0.0125670545,0.0015633743,-0.0014407363,-0.0179774351,-0.0280647334,-0.0079988316
6.0770330429,-0.0143618099,0.0015078824,-0.0026520817,-0.0147761824,-0.0280359704,-0.0069363629
6.0870199203,-0.0171678625,0.0044086617,-0.0038512079,-0.0051485887,-0.0301081762,-0.0079920404
6.0970067978,-0.0121339075,0.0034861008,-0.0048411218,0.0044755433,-0.0321713276,-0.0079853823
6.1069970131,-0.0110370927,0.0035368840,-0.0000126687,-0.0008664913,-0.0332451127,-0.0037251236
6.1169209480,-0.0098972581,0.0006060045,-0.0029874174,0.0023223776,-0.0321404338,-0.0026731750
6.1269569397,-0.0098103099,0.0055077118,-0.0040231673,0.0044624936,-0.0331835933,-0.0016055136
6.1369528770,-0.0048462865,0.0075621647,0.0037602456,0.0013141045,-0.0375312045,-0.0068857633
6.1469192505,0.0002518478,0.0027662555,0.0076313289,-0.0028976845,-0.0429440811,-0.0110972859
6.1569638252,0.0053979936,0.0008647483,0.0075201662,-0.0124818692,-0.0441227965,-0.0153327780
6.1668858528,0.0095129050,0.0038329402,0.0102010043,-0.0188771822,-0.0473332368,-0.0099955359
6.1769332886,0.0078538246,0.0037934820,0.0060009630,-0.0167614352,-0.0420378074,-0.0174674336
6.1869287491,0.0033304277,-0.0001510937,0.0027868422,-0.0167862028,-0.0377900675,-0.0206821356
6.1969280243,0.0036851349,-0.0030748805,-0.0003589121,-0.0168233551,-0.0303726289,-0.0281668175
6.2067799568,0.0060124877,-0.0059519368,0.0014168295,-0.0125575019,-0.0282383710,-0.0324332006
6.2169628143,0.0092722662,-0.0038953384,0.0051849158,-0.0082941800,-0.0271438118,-0.0335065871
6.2269530296,0.0106184967,-0.0028453430,0.0060162218,-0.0136471353,-0.0240060743,-0.0367103703
6.2369170189,0.0119066127,0.0011389892,0.0116732391,-0.0115865134,-0.0164767858,-0.0335756950
6.2467751503,0.0103003569,0.0021693746,0.0096169980,0.0001545651,-0.0142937936,-0.0389100090
6.2569360733,0.0096921809,0.0051671905,0.0076284679,0.0032908358,-0.0067748912,-0.0368336737
6.2669210434,0.0041672769,0.0061835092,0.0037103565,0.0095916092,0.0050487453,-0.0347899646
6.2769260406,-0.0003638980,0.0043050093,-0.0019808142,0.0223157927,0.0158262923,-0.0359312631
6.2867879868,0.0017879489,0.0044862670,0.0032269033,0.0329303555,0.0202471390,-0.0285306051
6.2968831062,0.0000062469,0.0007759969,0.0104795964,0.0414821655,0.0181898475,-0.0263964795
6.3068909645,0.0001729015,-0.0039342600,0.0148365768,0.0414579287,0.0182532314,-0.0189601369
6.3168878555,0.0002925280,-0.0076932865,0.0133278640,0.0468501635,0.0097833127,-0.0146605959
6.3269090652,-0.0016066548,-0.0095048510,0.0176763814,0.0436852612,0.0023408430,-0.0071733845
6.3368921280,-0.0035914299,-0.0094212256,0.0228360575,0.0255793631,-0.0073160455,0.0045870012
6.3469138145,-0.0056007621,-0.0084397756,0.0229293983,0.0064528072,-0.0212856568,0.0131900767
6.3569192886,-0.0086503141,-0.0084760748,0.0296557825,-0.0105344318,-0.0362968296,0.0228600148
6.3670272827,-0.0097252540,-0.0125232302,0.0264417212,-0.0296663158,-0.0492067710,0.0303938333
6.3769240379,-0.0079790466,-0.0136839114,0.0259585064,-0.0456499420,-0.0577667020,0.0442735627
6.3868980408,-0.0112134926,-0.0149281584,0.0301669519,-0.0595151596,-0.0620855503,0.0517479852
6.3968939781,-0.0135274343,-0.0143010579,0.0283469837,-0.0808960795,-0.0632102042,0.0645186454
6.4070310593,-0.0071346578,-0.0097793899,0.0234864037,-0.0873249471,-0.0611041747,0.0666342601
6.4168410301,-0.0094848983,-0.0141540729,0.0127339037,-0.0884127170,-0.0589672551,0.0676842108
6.4268598557,-0.0118884854,-0.0116696917,0.0078258188,-0.0852704570,-0.0504198410,0.0644394159
6.4368581772,-0.0095058791,-0.0061230618,0.0127905877,-0.0756850764,-0.0461071171,0.0601553172
6.4469919205,-0.0070656058,-0.0024999341,0.0188627522,-0.0587194040,-0.0310400166,0.0568585917
6.4568357468,-0.0034873602,-0.0076367813,0.0125278505,-0.0373675115,-0.0287955049,0.0493897609
6.4668331146,-0.0068796393,-0.0000637729,0.0120480331,-0.0310931057,-0.0137656890,0.0514126979
6.4768037796,-0.0082114153,-0.0002684553,0.0059731873,-0.0034132730,-0.0018584293,0.0438794158
6.4869060516,-0.0046653268,0.0006445091,0.0050347121,0.0061384207,0.0077710291,0.0363735631
6.4967999458,-0.0020975587,0.0025473873,0.0022726925,0.0210224278,0.0153637007,0.0363159031
6.5067968369,-0.0052825925,-0.0013979037,-0.0003999797,0.0263503492,0.0185658857,0.0309794620
6.5168571472,-0.0065888581,-0.0014360506,-0.0040039150,0.0294802301,0.0260997023,0.0341152027
6.5267720222,-0.0030478355,0.0005322736,-0.0075470535,0.0347977616,0.0293290503,0.0319657624
6.5367517471,-0.0005337414,0.0054515642,-0.0042443601,0.0326737575,0.0282376874,0.0309104864
6.5467619896,0.0010621133,0.0015782159,-0.0018989769,0.0326511189,0.0293426327,0.0351528972
6.5567579269,0.0055139544,-0.0003015359,0.0082128318,0.0200017728,0.0100040892,0.0352883227
6.5667428970,0.0051210704,0.0035557190,0.0122016938,-0.0023765042,0.0045051938,0.0374643914
6.5767579079,-0.0001298007,0.0102177300,0.0071715387,-0.0140917497,0.0022556221,0.0353639573
6.5866832733,-0.0033785519,0.0119856037,0.0021291049,-0.0108402958,-0.0041229152,0.0364654399
6.5967807770,-0.0026183543,0.0069835824,-0.0047876565,-0.0108074062,-0.0063016475,0.0311656147
6.6067490578,-0.0038403091,0.0049081487,-0.0068642823,-0.0150647350,-0.0074124518,0.0301134028
6.6167469025,-0.0031533209,0.0077144546,-0.0099230735,-0.0065581994,-0.0041234479,0.0322115719
6.6267261505,0.0004289928,0.0116010346,-0.0040908186,-0.0001048278,-0.0083850380,0.0279851351
6.6367778778,-0.0028715846,0.0193617381,0.0036679776,0.0019981377,-0.0051492974,0.0290231016
6.6467847824,-0.0031459448,0.0163647570,0.0065883668,0.0008905288,-0.0019151547,0.0332524665
6.6567678452,-0.0033950922,0.0153003372,0.0026836069,0.0051662344,-0.0018986432,0.0311238058
6.6667652130,-0.0046175239,0.0142502226,0.0008201870,0.0147778494,-0.0007918334,0.0268603489
6.6767821312,-0.0038584885,0.0161913671,-0.0009733764,0.0158299301,0.0034409950,0.0215227082
6.6867270470,-0.0050282595,0.0142501630,-0.0007366267,0.0286088437,0.0067552989,0.0225546826
6.6968250275,-0.0061869440,0.0113554634,-0.0003739921,0.0403390005,0.0110581685,0.0150815863
6.7070398331,0.0004841569,0.0124670900,0.0010667117,0.0414870903,0.0024894471,0.0119491769
6.7167038918,0.0022829655,0.0125848688,0.0063362392,0.0382885002,0.0024553591,0.0108893719
6.7266850471,-0.0026057628,0.0067106527,-0.0011830656,0.0308095459,0.0045078574,0.0076941112
6.7367401123,-0.0046128747,0.0086743869,-0.0058321683,0.0297352262,0.0076562464,0.0023645936
6.7466979027,-0.0007278737,0.0068236631,-0.0064742891,0.0330007970,-0.0008506891,0.0045422604
6.7566938400,0.0040402296,0.0108775534,0.0026197108,0.0287923329,-0.0083639994,0.0045935265
6.7667298317,0.0010762098,0.0119083561,0.0076676281,0.0202811379,-0.0105946623,0.0014267615
6.7766819000,-0.0018065986,0.0119244494,0.0058200033,0.0171058513,-0.0127819162,-0.0017450632
6.7866930962,-0.0045746830,0.0050991816,-0.0008656708,0.0192579515,-0.0128106792,-0.0070583355
6.7966561317,-0.0043607918,0.0002384226,-0.0095119802,0.0171303526,-0.0118010752,-0.0123766679
6.8066511154,-0.0042390344,0.0013153594,-0.0045222966,0.0128184278,-0.0054489030,-0.0156020224
6.8166460991,-0.0021445868,0.0023975412,0.0004697117,0.0107388990,-0.0097911870,-0.0208816081
6.8266668320,0.0018997374,0.0044845981,0.0073949369,0.0075542908,-0.0119534079,-0.0208653621
6.8366432190,0.0002395097,0.0006210249,0.0045261057,0.0076080868,-0.0173231401,-0.0240182765
6.8466310501,0.0005408559,-0.0051792222,0.0025617154,-0.0041596238,-0.0142077729,-0.0240302607
6.8566260338,-0.0011692611,-0.0012372691,0.0014964613,-0.0020417450,-0.0120572709,-0.0251108408
6.8666348457,-0.0019365069,0.0046855849,0.0053466232,0.0043714135,-0.0130764628,-0.0251087099
6.8766160011,0.0002816501,-0.0000998933,0.0063730152,0.0021818960,-0.0087661361,-0.0187595990
6.8866100311,-0.0005411920,-0.0010371763,0.0092851790,-0.0053159688,-0.0077099269,-0.0134492572
6.8966407776,-0.0033396152,0.0009034913,0.0072440179,-0.0043003717,-0.0012911761,-0.0134906694
6.9066638947,-0.0051713851,-0.0010398586,0.0072344812,0.0052798181,0.0019893060,-0.0135186324
6.9166212082,-0.0011709598,-0.0028922518,0.0112639936,0.0127282795,0.0041981312,-0.0124780014
6.9265727997,0.0018747183,-0.0028142293,0.0084925564,0.0105583360,0.0084565263,-0.0125041008
6.9366302490,0.0009750757,-0.0017917712,0.0066825422,0.0190299861,0.0149751455,-0.0072378330
6.9466328621,0.0000310424,-0.0036694964,0.0098480256,0.0222337674,0.0160414763,-0.0104341591
6.9565949440,0.0010505798,-0.0026006659,0.0110414298,0.0179760382,0.0138845807,-0.0093570435
6.9665737152,0.0011297348,-0.0083788596,0.0151660712,0.0158764031,0.0095931636,-0.0093277488
6.9765720367,-0.0007425513,-0.0122394525,0.0162567180,0.0052250903,0.0052713854,-0.0039755935
6.9865751266,0.0002554688,-0.0102851950,0.0133648189,0.0041419831,0.0063499655,-0.0018570492
6.9966259003,-0.0007123616,-0.0083430968,0.0094350846,-0.0001060255,0.0031224811,-0.0007720774
7.0065650940,-0.0027176556,-0.0044802981,0.0103022726,-0.0129110366,0.0009221772,0.0035006981
7.0165338516,-0.0057038185,-0.0055398899,0.0110916765,-0.0246842057,0.0019589460,0.0098743085
7.0265827179,-0.0077200052,-0.0047053057,0.0068894299,-0.0278443135,-0.0023588373,0.0077797323
7.0365562439,-0.0117019527,-0.0038545092,0.0056168707,-0.0267870389,-0.0002323030,0.0056409473
7.0465679169,-0.0126955919,-0.0039463001,0.0034082206,-0.0203986466,0.0029962473,0.0024283763
7.0565280914,-0.0088471584,-0.0020305475,0.0051778229,-0.0214782916,0.0040657725,0.0034845860
7.0665340424,-0.0108207874,-0.0030962785,0.0001201304,-0.0129567096,0.0062692720,0.0034643461
7.0765209198,-0.0118472986,-0.0011901815,0.0000387701,-0.0065752426,0.0084711732,0.0055719716
7.0865159035,-0.0100666992,0.0037175457,0.0068605812,0.0030419640,0.0064261323,0.0077032996
7.0965189934,-0.0092032067,0.0066502136,0.0088473232,0.0019609863,0.0074983207,0.0087581780
7.1064882278,-0.0102620535,0.0066414517,0.0098693045,0.0041133533,0.0053773792,0.0087704277
7.1164040565,-0.0083618276,0.0076279086,0.0079461606,0.0020123860,0.0031802715,0.0034731345
7.1264929771,-0.0035321084,0.0086459555,0.0099507840,0.0009572413,0.0020942343,0.0024185225
7.1364769936,-0.0005545434,-0.0001306493,0.0100140842,0.0051780851,0.0064378502,0.0066372361
7.1464862823,0.0101888664,0.0028859416,0.0004672083,0.0202774107,-0.0074486705,-0.0060319537
7.1563968658,0.0062058899,0.0087977089,0.0093815597,0.0191238616,-0.0009564168,0.0045518479
7.1665019989,0.0052563581,0.0068897051,0.0095435055,0.0126963221,0.0042833528,-0.0018519893
7.1766180992,0.0071410420,0.0108413137,0.0125325592,0.0041860575,-0.0010877105,0.0024371648
7.1865911484,0.0081818439,0.0039918465,0.0096507343,-0.0001258664,0.0052644610,-0.0007881895
7.1965250969,0.0023526433,0.0038932601,0.0017286214,-0.0151551487,0.0147849964,0.0012856142
7.2064690590,0.0013621780,0.0048002047,-0.0023036925,-0.0119795958,0.0201081224,-0.0040630787
7.2164707184,0.0004087421,0.0018596094,-0.0023354618,-0.0066491459,0.0222583581,-0.0072672609
7.2264671326,0.0042036059,0.0058032316,0.0044646533,-0.0152338464,0.0264943819,-0.0041015614
7.2367758751,0.0012757066,0.0009032529,0.0083384188,-0.0066665895,0.0264893211,-0.0115404353
7.2464799881,-0.0006014821,-0.0030071696,0.0073730024,-0.0002675466,0.0275985282,-0.0126144886
7.2564749718,-0.0005777743,-0.0020274480,0.0054477723,0.0018756324,0.0265449826,-0.0136753591
7.2664842606,-0.0044622538,0.0028359334,0.0044699581,-0.0034315148,0.0232884698,-0.0147129269
7.2765040398,-0.0073148427,0.0018895309,0.0064425739,0.0008511143,0.0222421139,-0.0157707334
7.2864718437,-0.0052619693,-0.0019803008,0.0055751475,0.0030037472,0.0180289932,-0.0104329605
7.2964568138,-0.0052407649,0.0009863417,0.0056419047,0.0019383496,0.0180146117,-0.0114959618
7.3064107895,-0.0061329422,-0.0009887774,-0.0021084277,0.0029868362,0.0170265790,-0.0029911564
7.3163919449,-0.0032765088,0.0009970706,-0.0020319549,0.0040445109,0.0149690211,0.0055209724
7.3263950348,-0.0063076136,0.0048795384,-0.0039276211,0.0125836702,0.0150350668,0.0055145808
7.3363890648,-0.0103159063,0.0068293852,-0.0028211800,0.0168360732,0.0161578543,0.0076276655
7.3463850021,-0.0094311200,0.0049251956,-0.0006498424,0.0200486444,0.0161554590,0.0044382643
7.3563809395,-0.0046028313,-0.0008742173,-0.0023309914,0.0147080738,0.0150787421,0.0086999871
7.3663778305,-0.0027653691,-0.0018014271,-0.0020894138,0.0264211893,0.0194263533,0.0065388326
7.3763709068,-0.0008619544,-0.0017062981,-0.0027107326,0.0328888074,0.0140808569,0.0001931854
7.3863558769,0.0058968249,-0.0035006960,0.0045194300,0.0308051519,0.0066104233,0.0034302576
7.3963689804,0.0039258781,-0.0063685733,0.0057563456,0.0211812854,0.0086730411,0.0034238661
7.4063420296,0.0009278241,0.0014252107,0.0000036629,0.0158951785,0.0032700198,0.0013378120
7.4164028168,0.0028336677,-0.0004678328,0.0021339925,0.0159047656,0.0001080488,0.0066707917
7.4263677597,0.0047823372,-0.0043399292,0.0022623809,0.0052694315,-0.0042584701,0.0056441436
7.4363412857,0.0037042084,-0.0033681949,0.0081025036,-0.0064558014,-0.0085733235,0.0120563693
7.4463400841,0.0016839686,-0.0044164616,0.0060261758,-0.0139432773,-0.0075442782,0.0141797075
7.4563322067,0.0005895976,-0.0006366331,-0.0010140863,-0.0214327537,-0.0065112379,0.0163010489
7.4663300514,-0.0034617898,0.0050752801,-0.0080807535,-0.0108027449,-0.0010850475,0.0162584372
7.4763298035,0.0022713575,0.0031133930,-0.0071341721,-0.0032777172,-0.0053490344,0.0109696668
7.4863200188,0.0050267461,0.0080280341,0.0006805333,0.0010006512,-0.0063847378,0.0109733948
7.4963006973,0.0010462436,0.0070179147,0.0083847912,-0.0128547112,-0.0065463916,0.0046097720
7.5063099861,-0.0008945283,0.0040254039,0.0015333566,0.0149169993,-0.0095198108,0.0067344410
7.5163021088,-0.0018165824,0.0059878272,-0.0061386554,0.0234321915,-0.0010243274,-0.0071363663
7.5263137817,-0.0047088978,0.0080083646,-0.0039749471,0.0308970325,-0.0009484272,-0.0050172890
7.5363230705,-0.0026653525,0.0022540132,-0.0036697714,0.0212613158,0.0032359315,-0.0071633980
7.5463428497,-0.0016817567,0.0062679094,0.0004576119,0.0234472379,-0.0042014783,-0.0039295214
7.5563049316,-0.0016003218,0.0043834490,-0.0022257892,0.0266555473,-0.0041932226,-0.0060573868
7.5662679672,-0.0045352695,0.0054509086,0.0048060091,0.0256182458,-0.0095088920,-0.0017726270
7.5762577057,-0.0045232442,0.0084295310,0.0049518617,0.0149324453,-0.0085144676,-0.0007088273
7.5862951279,-0.0035140929,0.0064838571,0.0011379989,0.0106578059,-0.0095799984,0.0035506326
7.5962848663,-0.0044289944,0.0035565535,-0.0055837957,0.0159891881,-0.0074337572,-0.0007184148
7.6062622070,-0.0043855128,0.0006660264,-0.0035047857,0.0106170587,-0.0032001298,-0.0007421169
7.6162419319,-0.0024605659,0.0017188232,0.0043457421,-0.0064114584,-0.0086897034,-0.0017546507
7.6263060570,0.0034242752,-0.0001739819,0.0073110135,0.0063727796,-0.0064350716,0.0003465833
7.6362729073,-0.0003939983,0.0007527511,0.0004691752,0.0053659710,-0.0107861441,-0.0081258640
7.6462402344,0.0006518248,0.0047084731,0.0024214657,0.0064261756,-0.0086675994,-0.0113275163
7.6562242508,-0.0001175818,-0.0040180045,0.0034753354,0.0000577588,-0.0119467499,-0.0134239569
7.6662807465,0.0000678185,-0.0059553939,0.0014890108,0.0000226051,-0.0076718433,-0.0134516535
7.6762132645,-0.0016876129,-0.0040000635,-0.0043863384,0.0032074796,-0.0044653974,-0.0166631602
7.6862411499,-0.0015905318,0.0019220154,-0.0023895232,0.0117274644,-0.0033034605,-0.0134894708
7.6962242126,-0.0024279770,0.0019975344,-0.0012774793,0.0170685668,-0.0032704372,-0.0134893376
7.7062177658,-0.0023160991,0.0001413863,0.0046975287,0.0053413366,-0.0054896493,-0.0124043655
7.7162361145,-0.0021907506,-0.0017654259,0.0066734226,-0.0000407780,-0.0012317877,-0.0103064608
7.7262010574,-0.0010862467,-0.0036898216,0.0047323378,0.0021379534,-0.0065589086,-0.0102734370
7.7362060547,-0.0019663391,-0.0007238943,0.0057021650,0.0053378753,-0.0065274835,-0.0092123011
7.7461910248,-0.0028641638,-0.0016834695,0.0057421597,0.0064036720,-0.0075607901,-0.0060191704
7.7561879158,-0.0018279669,0.0012956898,0.0057924064,0.0043073646,-0.0129078850,-0.0049226140
7.7661690712,-0.0008441624,0.0032885114,0.0116212042,-0.0031659976,-0.0140072377,-0.0017230922
7.7761878967,-0.0007238802,-0.0016128976,0.0096178325,-0.0052742893,-0.0172301941,-0.0017005884
7.7861709595,-0.0006617423,-0.0016497929,0.0065703066,-0.0073877731,-0.0214853939,0.0025780459
7.7961502075,-0.0015889523,-0.0026603302,0.0035447748,-0.0031363033,-0.0193138514,0.0025604691
7.8062520027,-0.0015555886,-0.0007166822,0.0044284733,-0.0009945892,-0.0193154495,0.0004342014
7.8161792755,-0.0035181460,0.0012395423,0.0092206271,-0.0042126197,-0.0182531141,0.0025542106
7.8261528015,-0.0034967628,-0.0017031390,0.0110852988,-0.0074480940,-0.0150535936,0.0046605049
7.8361568451,-0.0034455624,-0.0046853381,0.0061363848,-0.0021159137,-0.0129089495,0.0003922565
7.8461418152,-0.0014673588,-0.0046862918,0.0070495280,-0.0031955596,-0.0118394243,0.0014484664
7.8561391830,0.0014251801,-0.0026815494,0.0128692659,-0.0042718751,-0.0097317984,-0.0006875219
7.8661327362,-0.0023945984,-0.0076085883,0.0118067535,-0.0075057512,-0.0054907147,-0.0017751569
7.8761429787,-0.0052504358,-0.0076837498,0.0058278115,-0.0075221304,-0.0033556586,-0.0017878070
7.8861160278,-0.0042899069,-0.0037993749,0.0047619017,-0.0086632948,0.0051949527,-0.0007800669
7.8961372375,-0.0023122844,-0.0067390758,0.0027574571,-0.0076045552,0.0062716687,-0.0007876568
7.9060850143,-0.0013710973,-0.0067509371,0.0065877708,-0.0108453566,0.0105308620,0.0002493782
7.9161081314,-0.0024263826,-0.0038543900,0.0084549459,-0.0087274779,0.0116366073,0.0023643274
7.9261050224,-0.0034293649,-0.0048728543,0.0044929059,-0.0087362658,0.0127053335,0.0023574030
7.9360990524,-0.0025413600,-0.0039210874,0.0054123076,-0.0097992653,0.0105945123,0.0066220565
7.9460968971,-0.0016785678,-0.0029690226,0.0073176296,-0.0033807820,0.0085156485,0.0076934462
7.9560890198,0.0001690272,-0.0010189969,0.0092757018,0.0009294115,0.0032138273,0.0087873396
7.9660840034,0.0000777725,0.0008826297,0.0034405263,0.0030293139,0.0054130657,0.0140835671
7.9761018753,-0.0000842628,0.0018377941,0.0025228532,0.0083809355,0.0022779924,0.0172860194
7.9860739708,-0.0012506512,0.0066880030,0.0025639208,0.0062900879,-0.0030821520,0.0173222385
7.9960699081,-0.0013979939,0.0047019166,0.0026128562,0.0062996754,-0.0051993649,0.0194596909
8.0061817169,0.0023517492,0.0037564675,0.0075510414,0.0031361058,-0.0095080929,0.0184274502
8.0160617828,0.0021751705,0.0076224846,0.0094685825,-0.0000463706,-0.0116745755,0.0184458271
8.0261096954,0.0010988596,0.0065677208,0.0025992664,0.0031576781,-0.0127004236,0.0205750242
8.0360774994,0.0010166946,0.0016231578,-0.0032093255,0.0105997492,-0.0083807772,0.0194813963
8.0460462570,-0.0001291451,0.0035551826,-0.0012182919,0.0063229785,-0.0063035116,0.0162837394
8.0560512543,0.0036458406,0.0016358536,0.0056601437,-0.0043011708,-0.0107009225,0.0110050868
8.0660753250,0.0006374899,0.0025670568,0.0084591182,-0.0107074035,-0.0096998401,0.0088782860
8.0760602951,0.0016108933,0.0015192669,0.0025039585,-0.0053561814,-0.0096955802,0.0046253512
8.0860462189,0.0025836411,0.0015086572,0.0014547381,-0.0042959768,-0.0075770351,0.0014236988
8.0960187912,0.0015743556,0.0014717620,0.0052343281,-0.0171055160,-0.0087192645,0.0046280143
8.1060161591,-0.0023679850,-0.0005588491,0.0060251029,-0.0160836596,-0.0044089388,0.0077865236
8.1160078049,-0.0014382568,0.0013214987,0.0029216083,-0.0203605667,-0.0033782953,0.0067184623
8.1260061264,-0.0035273549,0.0080809034,0.0065827044,-0.0193280578,-0.0011873129,0.0120154899
8.1359996796,-0.0065250811,0.0031016509,0.0035258802,-0.0118871843,0.0041816197,0.0087909345
8.1459960938,-0.0085491352,0.0020462314,0.0033671530,-0.0193413720,0.0019863765,0.0088103758
8.1559686661,-0.0067177233,0.0000624697,0.0081099542,-0.0150474235,-0.0022275434,0.0120214820
8.1659860611,-0.0107207112,0.0019230883,0.0098897489,-0.0161081608,-0.0001617293,0.0045720879
8.1759815216,-0.0078809671,0.0048447889,0.0136482390,-0.0117763979,-0.0086580124,0.0067477571
8.1858510971,-0.0068622348,-0.0020217856,0.0106744440,-0.0053440640,-0.0107730944,0.0035698069
8.1959047318,-0.0068512973,-0.0001310666,0.0046919258,-0.0107055409,-0.0086588115,0.0056846235
8.2059860229,-0.0049526808,0.0037544409,0.0055638226,-0.0074682022,-0.0129089504,0.0057099238
8.2160177231,-0.0030602333,0.0047371429,0.0113130482,-0.0149518177,-0.0118897576,0.0067713261
8.2259597778,-0.0040829000,0.0085505284,0.0081613334,-0.0192213971,-0.0119227823,0.0067745224
8.2360086441,-0.0031474647,0.0094618239,0.0088784369,-0.0245671589,-0.0108953342,0.0067715924
8.2459621429,-0.0021634516,0.0074326438,0.0057171257,-0.0224534106,-0.0087323152,0.0078184810
8.2559413910,-0.0040547964,0.0034104029,0.0015628609,-0.0214223675,-0.0023551090,0.0024635301
8.2659368515,-0.0040224609,0.0023844282,-0.0005652038,-0.0150411660,0.0029837301,-0.0039498946
8.2759475708,-0.0001393226,0.0053412956,0.0022926005,-0.0065647233,0.0105332593,-0.0040059537
8.2859277725,-0.0001537767,0.0082943477,0.0052064927,-0.0001869863,0.0158811547,-0.0093570435
8.2959280014,-0.0000624326,0.0053866548,0.0023815902,0.0104731154,0.0191384647,-0.0125706801
8.3059158325,-0.0039116112,0.0064204377,0.0083315047,0.0083345976,0.0212231874,-0.0168322697
8.3159341812,-0.0028488156,0.0094206370,0.0074953707,0.0147421621,0.0212642010,-0.0178996660
8.3259878159,-0.0027435687,0.0114608444,0.0076920660,0.0168838762,0.0212626029,-0.0200259313
8.3359403610,-0.0055312333,0.0134555735,0.0020323666,0.0211193673,0.0266131591,-0.0232512858
8.3459501266,-0.0072639403,0.0086495914,-0.0035282103,0.0285754204,0.0277577862,-0.0211391337
8.3559560776,-0.0022339639,0.0029892365,-0.0001581041,0.0350321196,0.0224426500,-0.0232325122
8.3659067154,-0.0021213708,0.0090045966,0.0030754479,0.0254482031,0.0212634020,-0.0274677370
8.3758726120,-0.0029659090,0.0111081637,0.0130692990,0.0180159863,0.0158728976,-0.0263661221
8.3859443665,-0.0007382598,0.0053544086,0.0112687023,0.0020788312,0.0071901926,-0.0273610763
8.3958950043,-0.0004506525,0.0014691394,0.0044346126,-0.0043263361,0.0060974983,-0.0241615549
8.4058437347,-0.0049853143,-0.0044448334,-0.0102537004,-0.0021811603,0.0060868459,-0.0273501575
8.4156370163,-0.0027955291,-0.0014393289,-0.0102734296,-0.0042838594,0.0038953302,-0.0315833874
8.4259042740,0.0003218237,0.0006480258,0.0014215383,-0.0084881922,-0.0057200128,-0.0272685327
8.4358711243,-0.0023503420,0.0016440790,0.0032141479,-0.0223741792,-0.0037095926,-0.0293958653
8.4458503723,-0.0039930460,0.0016140979,0.0009753379,-0.0287276804,-0.0091208695,-0.0314811207
8.4557342529,0.0002196017,-0.0022604426,0.0036323341,-0.0297909509,-0.0122780465,-0.0250870027
8.4658660889,0.0033839825,0.0006988685,0.0072225006,-0.0308391694,-0.0133821936,-0.0282662846
8.4758625031,-0.0022024629,0.0054952544,0.0019737752,-0.0244527794,-0.0111944061,-0.0282853283
8.4858655930,-0.0038796184,0.0054789823,-0.0011497466,-0.0117106168,-0.0046467585,-0.0240871198
8.4957761765,-0.0036526737,0.0025929252,-0.0031175343,0.0021025334,0.0008529348,-0.0188221838
8.5058670044,-0.0035195467,0.0046289605,0.0008446249,0.0095284916,0.0073049748,-0.0209939908
8.5158596039,-0.0042917249,0.0037590901,0.0010435256,0.0265817773,0.0127322320,-0.0263514742
8.5258703232,-0.0030733165,-0.0019503791,0.0042953165,0.0265641995,0.0148696844,-0.0263653211
8.5360202789,0.0029838416,-0.0046784836,0.0056417855,0.0308159366,0.0170406941,-0.0263826326
8.5458660126,0.0051441672,-0.0045278626,0.0030761035,0.0361545086,0.0181235354,-0.0295805559
8.5558528900,0.0072792056,-0.0043431479,0.0083162459,0.0319316685,0.0106475083,-0.0252804831
8.5658483505,0.0084074922,-0.0031942686,0.0154109271,0.0170445982,0.0020183341,-0.0209645648
8.5760211945,0.0047112140,-0.0051167565,0.0135422619,0.0031622052,0.0019277870,-0.0188288409
8.5857992172,0.0030131820,-0.0100055300,0.0057159932,-0.0042989068,-0.0002493474,-0.0166847315
8.5958566666,0.0012654248,-0.0129680596,-0.0012098877,-0.0128282122,-0.0013862510,-0.0166703500
8.6057138443,-0.0005376902,-0.0129985772,-0.0042961566,-0.0139499363,0.0039762901,-0.0135171674
8.6160116196,-0.0004095551,-0.0139705501,-0.0034081070,-0.0139755029,0.0082256291,-0.0167326685
8.6258573532,-0.0022876975,-0.0081221424,-0.0045141308,-0.0097304229,0.0104142167,-0.0146250427
8.6358299255,-0.0031444547,-0.0061847526,-0.0075196950,-0.0075915055,0.0114650987,-0.0188838374
8.6458206177,0.0008454207,-0.0090270601,0.0012465987,-0.0086410576,0.0072272103,-0.0135436663
8.6558475494,0.0019014361,-0.0080102049,0.0050840648,-0.0075322501,0.0029437826,-0.0156421028
8.6658229828,-0.0019658175,-0.0002034266,0.0088544162,-0.0064611267,0.0008508044,-0.0113797151
8.6757898331,-0.0028450456,0.0007818978,0.0088312300,0.0010366039,-0.0022946552,-0.0102991369
8.6857395172,-0.0027258811,-0.0050228792,0.0117779644,-0.0042756042,-0.0065836762,-0.0070804404
8.6956377029,-0.0036134836,-0.0079705678,0.0107364925,-0.0095926048,-0.0098140901,-0.0049304701
8.7057075500,-0.0035539386,-0.0050911265,0.0057277950,-0.0074468954,-0.0140091022,0.0025319734
8.7157392502,-0.0016568122,-0.0021561941,0.0085783275,-0.0063761733,-0.0161034111,0.0057281661
8.7257051468,-0.0075130877,-0.0022552570,0.0035419138,-0.0074414369,-0.0192544647,0.0131860822
8.7357025146,-0.0075649139,-0.0062193829,0.0034321221,-0.0095758261,-0.0203165319,0.0163836069
8.7457036972,-0.0077062962,-0.0033765396,0.0051849755,-0.0234676749,-0.0193370208,0.0185117386
8.7557029724,-0.0069250283,-0.0024915298,0.0107026370,-0.0320144221,-0.0214731432,0.0270331874
8.7657032013,-0.0051477966,-0.0045536119,0.0133383544,-0.0255717039,-0.0236153901,0.0206682328
8.7756900787,-0.0043752012,0.0031045715,0.0119760903,-0.0351612121,-0.0268729683,0.0228184685
8.7856950760,-0.0054542539,-0.0029049476,0.0106392177,-0.0330826193,-0.0204350427,0.0238376595
8.7956924438,-0.0045959470,-0.0069478708,0.0093509229,-0.0298444778,-0.0236441530,0.0196024366
8.8057117462,-0.0018028137,-0.0050867754,0.0119080814,-0.0405306779,-0.0226489287,0.0206658375
8.8157110214,-0.0019704816,-0.0042487341,0.0163612049,-0.0416466780,-0.0152061926,0.0184994880
8.8257112503,0.0037424448,-0.0024027785,0.0159728210,-0.0394871198,-0.0194374230,0.0217125919
8.8357124329,0.0054844799,0.0062262458,0.0125854881,-0.0427429676,-0.0140948556,0.0238022413
8.8457126617,0.0042974832,0.0090001263,0.0169996303,-0.0427253917,-0.0162323080,0.0238160901
8.8557062149,0.0051064524,0.0069012088,0.0214129966,-0.0533761680,-0.0174208768,0.0195821971
8.8657007217,0.0088883080,0.0057451171,0.0227784198,-0.0683250278,-0.0164767876,0.0185241234
8.8756322861,0.0097922869,0.0025702755,0.0181060117,-0.0854008123,-0.0155691812,0.0153439082
8.8856916428,0.0116419382,0.0013483207,0.0201713126,-0.0928672552,-0.0166866444,0.0164187606
8.8956861496,0.0115446635,0.0000913780,0.0182740372,-0.0982194096,-0.0145973936,0.0153455064
8.9056816101,0.0055735293,0.0026447813,0.0171751063,-0.1153504625,-0.0083171278,0.0153167434
8.9156179428,-0.0042487648,-0.0016894896,0.0092346938,-0.1058556288,0.0077350754,0.0088310149
8.9256153107,-0.0052485880,-0.0029873212,0.0004786524,-0.0941901803,0.0195275545,0.0023720504
8.9356079102,-0.0072785732,-0.0032189449,0.0016252669,-0.0814336389,0.0281295646,-0.0030038063
8.9456071854,-0.0112354122,-0.0034350713,0.0028568180,-0.0815409645,0.0420048982,-0.0052184910
8.9556159973,-0.0113627426,0.0041874689,0.0022455128,-0.0613185167,0.0496337898,-0.0063444758
8.9656181335,-0.0094871931,0.0060625714,0.0000078353,-0.0282716174,0.0562749133,-0.0095977932
8.9756069183,-0.0125112943,0.0089421906,0.0028252872,-0.0144305043,0.0606590062,-0.0085699465
8.9856176376,-0.0184281580,0.0088833608,-0.0000557629,0.0036819214,0.0640236512,-0.0064796312
8.9956178665,-0.0224123411,0.0069550318,-0.0007364479,0.0260876268,0.0652652159,-0.0075699296
9.0056190491,-0.0156982951,0.0071150702,0.0017180714,0.0335788354,0.0621349365,-0.0054300791
9.0155973434,-0.0137914978,0.0013960045,0.0032359632,0.0399985164,0.0600536726,-0.0043574912
9.0256195068,-0.0148770921,0.0005232733,0.0037802728,0.0496175885,0.0569580123,-0.0000945693
9.0356197357,-0.0120797567,0.0036085884,0.0034485133,0.0582116097,0.0495605506,0.0020724451
9.0456132889,-0.0072991964,0.0027725736,-0.0036747186,0.0603658408,0.0463889912,0.0042162896
9.0555353165,-0.0044998047,0.0009898584,-0.0029921858,0.0518823415,0.0399025977,0.0032013590
9.0656232834,-0.0007850197,0.0040695709,0.0033883126,0.0380626656,0.0312816799,0.0075164791
9.0755958557,0.0039252522,0.0051760715,0.0067504914,0.0295513347,0.0269596372,0.0096748378
9.0855360031,0.0019029560,0.0041993302,-0.0017230239,0.0295777023,0.0237534568,0.0096956100
9.0955295563,0.0027670297,0.0061768931,-0.0053779809,0.0114712678,0.0203725733,0.0054796925
9.1056003571,0.0046727839,0.0023131410,-0.0042375056,0.0071944976,0.0224498399,0.0022820358
9.1155204773,0.0046688202,-0.0006130297,-0.0060896603,0.0051132371,0.0181110185,-0.0029992789
9.1254978180,0.0085537173,0.0013960045,-0.0049992530,0.0019195741,0.0191097036,-0.0083154812
9.1354866028,0.0066066268,0.0043327254,-0.0059454767,-0.0023773024,0.0233294815,-0.0115295164
9.1457061768,0.0066728476,0.0033900181,-0.0039882390,-0.0077004284,0.0232519824,-0.0157748628
9.1573133469,0.0067457589,0.0063428921,-0.0011582701,-0.0236751363,0.0219896454,-0.0231891032
9.1655769348,0.0040031257,0.0043410105,-0.0023656217,-0.0354218073,0.0229585040,-0.0242495742
9.1755533218,0.0012763026,0.0033037106,-0.0046084253,-0.0354075581,0.0229214858,-0.0284985118
9.1854553223,0.0034010443,0.0052593988,-0.0038562147,-0.0278883893,0.0176265892,-0.0295318216
9.1954126358,0.0026149186,0.0071761650,-0.0070205061,-0.0279115569,0.0187325999,-0.0252899379
9.2054710388,-0.0030501601,0.0051605147,-0.0111054508,-0.0183153898,0.0188340656,-0.0221101232
9.2154693604,-0.0039061126,0.0081118979,-0.0092496602,-0.0108428262,0.0188902579,-0.0221149176
9.2254648209,-0.0028074053,0.0062381667,-0.0033693640,-0.0033340435,0.0136225261,-0.0199612193
9.2356691360,-0.0026965854,0.0062628430,-0.0024097888,-0.0076238643,0.0136406356,-0.0146492776
9.2454710007,-0.0026372191,0.0092166103,-0.0024235575,0.0020181108,0.0073478520,-0.0093032476
9.2554435730,0.0013625803,0.0083224215,-0.0013175337,0.0148998220,-0.0000613283,-0.0113845076
9.2654304504,0.0024731639,0.0064387363,-0.0050558774,0.0181126595,-0.0021559044,-0.0092483861
9.2754631042,0.0035737636,0.0016292374,-0.0067874519,0.0234674774,-0.0063463887,-0.0049788067
9.2853307724,0.0026683095,0.0007268231,-0.0036564795,0.0202951208,-0.0095863901,-0.0060179718
9.2954969406,-0.0001998511,0.0017398041,-0.0054567782,0.0234766640,-0.0084628025,-0.0028417530
9.3054141998,-0.0040075597,-0.0021476706,-0.0101563660,0.0255816281,-0.0052310564,-0.0018017886
9.3154182434,-0.0029587564,-0.0030585488,-0.0118411509,0.0320327356,-0.0094859889,-0.0049646916
9.3253641129,-0.0009384271,-0.0058417278,-0.0076191155,0.0299083311,-0.0095296651,-0.0081500988
9.3354101181,-0.0008820709,-0.0047442871,-0.0015160170,0.0288675688,-0.0127425026,-0.0070624640
9.3454170227,0.0001319531,-0.0007258017,0.0026309760,0.0331723019,-0.0169843845,-0.0070379628
9.3553771973,0.0012296024,-0.0025573333,0.0029436620,0.0331840217,-0.0180632323,-0.0091597028
9.3655595779,-0.0015647975,-0.0015196163,-0.0017008510,0.0353172123,-0.0190882832,-0.0059673721
9.3753814697,-0.0044210670,-0.0014206726,0.0005631121,0.0416956171,-0.0158333667,-0.0059925392
9.3853893280,-0.0043100980,-0.0012841780,0.0019238266,0.0438743494,-0.0211604871,-0.0059595155
9.3953809738,-0.0042145369,-0.0021423658,0.0022571953,0.0342341065,-0.0180097036,-0.0038488274
9.4056177139,-0.0050695059,-0.0059554535,0.0006351742,0.0406208970,-0.0158227142,-0.0038674697
9.4153633118,-0.0021107462,-0.0009311397,0.0019371185,0.0364056453,-0.0233181827,-0.0016914008
9.4253616333,-0.0020543155,-0.0028036197,0.0040854486,0.0150316479,-0.0223692954,0.0036293289
9.4353561401,-0.0049626646,-0.0076961475,0.0080203088,0.0000497689,-0.0192462076,0.0078709451
9.4454383850,-0.0049735722,-0.0067617851,0.0040274533,-0.0052818786,-0.0203471575,0.0089441994
9.4553432465,-0.0020619002,-0.0058034020,0.0010255249,-0.0041822605,-0.0246058200,0.0100339651
9.4653396606,-0.0030865786,-0.0048800069,0.0018826994,-0.0031359037,-0.0224510562,0.0110816527
9.4753332138,-0.0041043875,-0.0039319354,0.0018046173,0.0021748384,-0.0192038640,0.0110570183
9.4853982925,-0.0051396606,-0.0000667531,-0.0011517135,0.0074854484,-0.0159564056,0.0110322507
9.4953432083,-0.0071596322,0.0038232247,-0.0059656231,0.0245427284,-0.0136778047,0.0120679541
9.5053253174,-0.0053326008,0.0087779202,-0.0037334887,0.0405501910,-0.0135449125,0.0131183043
9.5152740479,-0.0044622836,0.0108526386,0.0015318069,0.0480227545,-0.0134887202,0.0131135117
9.5253658295,-0.0045921919,0.0129244365,0.0058864625,0.0533139221,-0.0070531913,0.0109433010
9.5352802277,-0.0026760218,0.0120955147,0.0044687064,0.0629837289,-0.0123739205,0.0045952573
9.5453014374,-0.0025955257,0.0073831719,0.0040794285,0.0662349164,-0.0166602787,0.0003712175
9.5552959442,0.0004039589,0.0027041475,0.0076321634,0.0651908219,-0.0188216995,-0.0017400034
9.5653600693,0.0033584419,0.0039013068,0.0111421617,0.0662635416,-0.0198731162,-0.0006715432
9.5752706528,0.0024642232,0.0040378016,0.0096992524,0.0556088984,-0.0210518297,-0.0038435010
9.5852737427,0.0035183313,0.0002872388,0.0130414041,0.0364365391,-0.0286271926,0.0025933592
9.5952777863,0.0045538726,-0.0045312005,0.0151861580,0.0097314250,-0.0277355649,0.0057923482
9.6053075790,0.0045839134,-0.0055234986,0.0151027711,-0.0094201658,-0.0353652574,0.0058551994
9.6152687073,0.0017054710,-0.0056139785,0.0109362276,-0.0222554021,-0.0333026387,0.0090394076
9.6251811981,-0.0041556624,-0.0038309058,0.0056786211,-0.0276871845,-0.0226385426,0.0110988300
9.6352720261,-0.0032616970,0.0029071013,0.0053379210,-0.0255530607,-0.0215738099,0.0089668361
9.6453218460,-0.0043103513,0.0057712835,0.0079924138,-0.0202443171,-0.0172757357,0.0068104751
9.6552486420,-0.0024224934,0.0066998047,0.0164697450,-0.0405734256,-0.0110306228,0.0057224408
9.6652488708,-0.0034528193,0.0036689083,0.0180912893,-0.0266935602,-0.0130245313,0.0099752424
9.6752376556,-0.0064433184,0.0113433041,0.0147871645,-0.0342107341,-0.0056441128,0.0046194922
9.6852455139,-0.0103480630,0.0121745504,0.0047881277,-0.0065253098,0.0031112954,0.0034809909
9.6954278946,-0.0093426667,0.0121661462,-0.0000685183,0.0105173234,0.0117026530,-0.0072105355
9.7052259445,-0.0083388500,0.0132594146,0.0060270103,0.0372581258,0.0075798132,-0.0135768224
9.7152147293,-0.0012934175,0.0057084602,0.0143649848,0.0448120497,0.0042857500,-0.0305586010
9.7252159119,0.0057570520,0.0059983772,0.0264635365,0.0256306306,-0.0001287062,-0.0294541884
9.7352228165,0.0041341218,0.0031702558,0.0208555143,0.0320385918,0.0009562655,-0.0337167121
9.7452068329,-0.0013205973,0.0051841778,0.0093422802,0.0288361441,0.0030236777,-0.0390398353
9.7552938461,-0.0009385165,0.0024052302,0.0066796215,0.0309770592,0.0009320308,-0.0358416475
9.7651700974,0.0004015747,-0.0013697107,0.0030193003,0.0128033813,0.0029562996,-0.0326549113
9.7751884460,0.0015419009,0.0036548416,0.0118355425,-0.0011200244,0.0050649904,-0.0230958927
9.7851810455,-0.0001788255,0.0007086437,0.0059167417,-0.0139426114,0.0050021401,-0.0188369658
9.7951860428,-0.0039241430,0.0045587462,0.0027373107,-0.0256962068,0.0059891078,-0.0177727658
9.8052272797,-0.0037894961,0.0006243627,0.0035321983,-0.0150520848,0.0092868991,-0.0167391934
9.8151702881,-0.0045980331,-0.0061915475,0.0063929828,-0.0097004632,0.0082456032,-0.0177962016
9.8251657486,-0.0054279682,-0.0081368648,0.0053730281,-0.0033400347,0.0136387702,-0.0178356171
9.8351602554,-0.0101823919,-0.0062099057,0.0004441413,-0.0023289658,0.0211134665,-0.0200112872
9.8452253342,-0.0091473274,0.0006818812,0.0005263361,0.0115245311,0.0223257374,-0.0157792568
9.8551530838,-0.0051500318,-0.0021230539,0.0008320483,0.0285750218,0.0267138276,-0.0179440081
9.8651475906,-0.0030912575,-0.0019476969,0.0070322426,0.0297441483,0.0159985982,-0.0221249033
9.8751497269,-0.0019495306,-0.0086129867,0.0141954096,0.0244268812,0.0127687166,-0.0199752003
9.8852157593,-0.0027615544,-0.0075446325,0.0124607356,0.0201695524,0.0116579123,-0.0210274141
9.8953704834,-0.0026311395,-0.0006436069,0.0067523392,0.0212369468,0.0095745213,-0.0157029554
9.9053678513,-0.0005189594,-0.0054276544,0.0041071447,0.0244322084,0.0096173985,-0.0135806836
9.9176712036,0.0005516890,-0.0092414580,0.0043474706,0.0158742722,0.0085547967,-0.0050685555
9.9252347946,0.0024968269,-0.0062438804,0.0045095356,0.0136992689,0.0117806839,-0.0008383901
9.9351367950,0.0024283412,-0.0042413431,0.0075791152,0.0115933735,0.0064591556,0.0034459701
9.9449443817,0.0052810195,-0.0042023617,0.0096507343,0.0040955101,0.0075153648,0.0087563135
9.9549465179,0.0022502723,-0.0032703837,0.0086903246,0.0072819823,0.0086269677,0.0108716618
9.9650630951,-0.0017072675,-0.0052941400,0.0018960509,0.0072801183,0.0096775852,0.0087400684
9.9753103256,-0.0007926640,-0.0053150016,-0.0038269488,0.0147566767,0.0107684163,0.0044779452
9.9849319458,-0.0008261916,-0.0082237683,-0.0065409271,0.0200672857,0.0140158748,0.0044531776
9.9949836731,0.0009989324,-0.0061591822,0.0005334886,0.0222321711,0.0108166188,0.0034102842
10.0049276352,0.0047793570,-0.0041074711,0.0085675390,0.0147763845,0.0075798132,0.0066236537
10.0152082443,-0.0011739847,-0.0022134145,0.0037864121,0.0211695693,0.0076602409,0.0108708637
10.0250787735,-0.0042450544,0.0026744048,0.0000762614,0.0286237560,0.0098554846,0.0108514223
10.0350856781,-0.0014697430,0.0047166985,0.0033409270,0.0361547768,0.0013919587,0.0140875624
10.0450601578,0.0013574245,-0.0000674088,0.0037471922,0.0403910652,0.0046492708,0.0161882639
10.0551242828,-0.0036694226,-0.0010457594,0.0011399064,0.0328829512,0.0088687837,0.0161649603
10.0650577545,-0.0077487943,0.0077332896,-0.0035098521,0.0275579579,0.0098419031,0.0097880224
10.0751094818,-0.0019467887,0.0019910375,-0.0040676324,0.0372248366,0.0045291623,0.0045028459
10.0850400925,0.0038883570,-0.0056592780,0.0022158893,0.0330149084,-0.0019343295,0.0024229169
10.0950422287,0.0028582397,-0.0055763680,0.0063761743,0.0212670416,-0.0020078328,0.0045567746
10.1050291061,0.0018079164,-0.0016300638,0.0075004371,0.0180648565,-0.0020326001,0.0045591714
10.1150341034,0.0046563628,0.0042734784,0.0076328190,0.0170580484,-0.0095179472,0.0056733051
10.1250896454,0.0037105861,-0.0025829037,0.0018796000,0.0073955669,-0.0052630147,0.0120268082
10.1350154877,-0.0022431728,-0.0026720723,-0.0010906784,-0.0044017043,0.0000201645,0.0151863834
10.1450147629,-0.0033072946,0.0001982491,-0.0031450121,-0.0107924920,0.0020265898,0.0056163138
10.1550073624,-0.0043405411,-0.0017915923,-0.0002734986,-0.0043578958,-0.0011399084,0.0045703570
10.1650209427,-0.0072313664,-0.0047684270,-0.0071090786,0.0030483557,0.0105923815,-0.0050724167
10.1749963760,-0.0101682954,0.0030217806,-0.0119563667,0.0168692283,0.0181640144,-0.0072566085
10.1849908829,-0.0100925080,0.0011767786,-0.0125885336,0.0424494222,0.0257798564,-0.0147605976
10.1949949265,-0.0070596752,-0.0015768964,-0.0178671796,0.0627441779,0.0248549394,-0.0158291906
10.2050514221,-0.0012775180,0.0055832309,-0.0044536320,0.0702441707,0.0206559338,-0.0136824157
10.2149848938,-0.0012984094,0.0078088683,0.0098743113,0.0606815591,0.0141911115,-0.0115108751
10.2249746323,-0.0012267348,0.0050774855,0.0133903893,0.0575323701,0.0056618052,-0.0061414093
