0.0000000000,-0.0072375773,0.0020549374,0.0010865447,0.0794920921,-0.0305984877,-0.1598101556
0.0096369982,0.0048157335,-0.0016472858,0.0044726846,0.0635791793,-0.0393445753,-0.1682414562
0.0197780132,0.0091584381,-0.0035645885,0.0076210615,0.0401454903,-0.0438373275,-0.1724455208
0.0296159983,0.0174274202,-0.0036506576,0.0038262126,0.0240988806,-0.0449302904,-0.1671421081
0.0400979519,0.0207191762,0.0009812195,0.0066475985,-0.0025592279,-0.0504353121,-0.1617756933
0.0505139828,0.0201401468,-0.0024013442,0.0073887822,-0.0122462101,-0.0440248139,-0.1533113718
0.0601979494,0.0281442460,0.0088601187,0.0022832868,-0.0101997051,-0.0375014022,-0.1416663080
0.0713499784,0.0350930467,0.0112646893,0.0011166451,-0.0156325530,-0.0320632271,-0.1257619113
0.0798789263,0.0408617631,0.0146023706,0.0058250544,-0.0136148091,-0.0254673772,-0.1066850200
0.0901199579,0.0416225269,0.0208026841,0.0046876189,0.0012589460,-0.0209863428,-0.0961005539
0.0998890400,0.0462148860,0.0193033293,0.0134799602,0.0097822603,-0.0250612441,-0.0801432952
0.1096279621,0.0487902835,0.0187257007,0.0183782093,0.0193491336,-0.0259289034,-0.0652708709
0.1198519468,0.0445452407,0.0141578987,0.0135254981,0.0246727914,-0.0279441178,-0.0556997359
0.1327140331,0.0402784720,0.0018040616,0.0155409696,0.0235968754,-0.0289758258,-0.0503803380
0.1398810148,0.0408376530,-0.0037404222,0.0136539461,0.0214481037,-0.0300027393,-0.0439998023
0.1526019573,0.0393908694,-0.0103031322,0.0165752880,0.0075421417,-0.0268948302,-0.0429478548
0.1598910093,0.0034766556,-0.0386969969,0.0108794691,-0.0148686254,-0.0249856096,-0.0482518040
0.1695549488,-0.0164413098,-0.0457531735,0.0043042419,-0.0309373401,-0.0197295956,-0.0440251008
0.1795530319,-0.0319839045,-0.0560016558,0.0053455350,-0.0373323858,-0.0218979418,-0.0429489203
0.1895279884,-0.0414150581,-0.0587990806,0.0023921249,-0.0374026969,-0.0133481296,-0.0430043116
0.1995120049,-0.0457059368,-0.0530193970,0.0073203561,-0.0416898541,-0.0112415692,-0.0419491716
0.2094939947,-0.0477449819,-0.0510196611,0.0166224353,-0.0523603372,-0.0113331815,-0.0430035144
0.2195429802,-0.0488895699,-0.0449659154,0.0154166939,-0.0523795113,-0.0091925329,-0.0430189632
0.2298059464,-0.0458060429,-0.0447168872,0.0141441347,-0.0480939560,-0.0123385256,-0.0398143791
0.2395319939,-0.0419418737,-0.0408476517,0.0150751593,-0.0534471758,-0.0112919034,-0.0376931727
0.2501389980,-0.0413172171,-0.0436249301,0.0148977162,-0.0811232775,-0.0388950333,0.0092503689
0.2603099346,-0.1624568105,-0.0685921833,-0.0029288414,-0.1751425862,-0.1481461525,0.3181194067
0.2700989246,-0.1869754493,-0.0769128129,0.0023935554,-0.1280509681,0.0000449072,0.2310718447
0.2796440125,-0.0677757785,-0.0420303866,0.0098484876,-0.0379507765,0.0267790500,0.0257933941
0.2900660038,0.0230270382,-0.0256469771,0.0097903730,-0.0534599610,-0.0133494604,-0.0281175096
0.2997139692,-0.0372816846,-0.0477480814,0.0037595746,-0.0822304860,-0.0199754070,-0.0269921906
0.3098649979,0.0145708378,-0.0260858461,0.0151726725,-0.0929236114,-0.0189620741,-0.0238041207
0.3194040060,-0.0059019267,-0.0277047083,0.0163233988,-0.0908242390,-0.0146679915,-0.0227678847
0.3297569752,0.0076130391,-0.0260248110,0.0140465023,-0.0856095031,-0.0059410799,-0.0068922490
0.3397430182,0.0108540114,-0.0306046531,0.0054252264,-0.0835408941,0.0036574854,-0.0122722331
0.3504970074,0.0164632257,-0.0329770371,0.0054201600,-0.0665978640,0.0198295303,-0.0113265449
0.3596910238,0.0232651290,-0.0280797407,0.0023104069,-0.0518142581,0.0391877852,-0.0103983004
0.3697199821,0.0184411462,-0.0333473012,0.0021390435,-0.0359069332,0.0510857217,-0.0083617810
0.3794460297,0.0297852810,-0.0292560384,0.0038836715,-0.0114608454,0.0620057434,-0.0031365256
0.3895620108,0.0322879627,-0.0264214799,0.0133323194,-0.0019152761,0.0653767735,0.0074588605
0.3997310400,0.0345539227,-0.0184723064,0.0186339132,0.0171235297,0.0785303935,0.0286084861
0.4098689556,0.0342872217,-0.0018700283,0.0172919147,0.0223558415,0.0851198584,0.0444979705
0.4196900129,0.0371035412,-0.0064338963,0.0212128870,0.0308057852,0.0896030143,0.0614625737
0.4297599792,0.0371085182,-0.0109985396,0.0124545814,0.0435940176,0.0876642317,0.0731525198
0.4410790205,0.0349792913,-0.0186058804,0.0056499359,0.0360849686,0.0887470767,0.0805832669
0.4500960112,0.0329013541,-0.0222462937,0.0017587659,0.0403636061,0.0856191963,0.0859125182
0.4596409798,0.0295733567,-0.0163048431,-0.0022476199,0.0276390202,0.0758893341,0.0849236920
0.4693959951,0.0224293824,-0.0174570009,0.0002657888,0.0138683468,0.0629572943,0.0850171670
0.4793950319,0.0231363829,-0.0158759281,0.0035050628,0.0001097908,0.0489477329,0.0840551034
0.4894019365,0.0160511192,-0.0147219226,0.0043947217,-0.0232341476,0.0327170976,0.0820518732
0.4994779825,0.0100593325,-0.0147114918,-0.0046576741,-0.0509292893,0.0239853933,0.0853122473
0.5098270178,0.0031161965,-0.0176260397,-0.0146607636,-0.0733094290,0.0195371155,0.0853567272
0.5198979378,-0.0018700897,-0.0145231411,-0.0255156644,-0.0818296820,0.0162861943,0.0885738209
0.5296839476,-0.0039630472,-0.0073968093,-0.0333933719,-0.0924559608,0.0087587703,0.0928796232
0.5395989418,-0.0051515042,0.0017052967,-0.0315090902,-0.0881782621,0.0066796402,0.0960782096
0.5496419668,-0.0003407239,0.0139376596,-0.0256903656,-0.0795967579,0.0003604919,0.0993003696
0.5593730211,0.0055017234,0.0203076079,-0.0159445293,-0.0571222007,-0.0079874527,0.1025253236
0.5693709850,0.0066972137,0.0316089466,-0.0179809220,-0.0389184356,-0.0153191350,0.1036225483
0.5797679424,0.0119542833,0.0324735716,-0.0090270517,-0.0345917307,-0.0206625015,0.1004697606
0.5896599293,0.0203462299,0.0286828950,-0.0047812345,-0.0249412321,-0.0259318314,0.1004971936
0.5996879339,0.0219643768,0.0307169631,-0.0200419910,-0.0238627847,-0.0269989595,0.0994397849
0.6093640327,0.0196929034,0.0209878162,-0.0265332945,-0.0313646421,-0.0217493363,0.0951614156
0.6194729805,0.0212145504,0.0159216598,-0.0244805105,-0.0516057312,-0.0230553523,0.0856219754
0.6338889599,0.0207090434,0.0124741271,-0.0237259157,-0.0590479374,-0.0242361985,0.0792604834
0.6399079561,0.0259036776,0.0205300525,-0.0231943615,-0.0761627406,-0.0179990754,0.0739189833
0.6511499882,0.0243179258,0.0127461627,-0.0169533975,-0.0921459645,-0.0181953497,0.0654322878
0.6595499516,0.0246386584,0.0165647343,-0.0225413330,-0.0868622586,-0.0096489992,0.0600609556
0.6695410013,0.0239349362,0.0145992115,-0.0182644613,-0.0911291763,-0.0034145392,0.0430252440
0.6793680191,0.0242019650,0.0118110850,-0.0186979659,-0.0847214758,-0.0002352573,0.0345029943
0.6894209385,0.0206206795,0.0141503885,-0.0170224793,-0.0644273907,0.0019775631,0.0249129534
0.6995959282,0.0190361198,0.0186762288,-0.0170752294,-0.0366345048,-0.0010509833,0.0206640121
0.7095600367,0.0203686710,0.0254497007,-0.0032741311,-0.0087733157,-0.0136701055,0.0196639951
0.7194629908,0.0177569147,0.0332348421,0.0086233141,0.0147362715,-0.0177426115,0.0217974521
0.7293959856,0.0104386564,0.0381538942,0.0108179571,0.0361195914,-0.0239445828,0.0271346942
0.7417089939,0.0060449005,0.0411669090,0.0043749926,0.0542530529,-0.0237712096,0.0313720480
0.7512919903,-0.0012145578,0.0393596366,-0.0029838565,0.0648902506,-0.0204553064,0.0345302895
0.7610069513,-0.0007010936,0.0346966460,-0.0044052484,0.0552703813,-0.0194496978,0.0355918296
0.7705179453,-0.0010743677,0.0240490511,-0.0069232467,0.0424826816,-0.0216952749,0.0345529318
0.7795059681,-0.0043640076,0.0171771720,-0.0115330694,0.0306934007,-0.0143385595,0.0313294381
0.7892569304,-0.0077080368,0.0149436072,-0.0144997118,0.0029427297,-0.0135116484,0.0281562824
0.7992309332,-0.0080721620,0.0115089491,-0.0108852265,-0.0141269350,-0.0136674428,0.0249803290
0.8092349768,-0.0102652553,0.0128119066,-0.0104539273,-0.0396743752,-0.0203232151,0.0197293758
0.8191909790,-0.0074934303,0.0112043694,-0.0013081315,-0.0502565801,-0.0300581325,0.0155491438
0.8292750120,-0.0094790403,0.0212974027,-0.0049466374,-0.0522827134,-0.0408162400,0.0092459749
0.8395550251,-0.0123427454,0.0285468772,-0.0036928537,-0.0511488654,-0.0472562984,0.0050372481
0.8495589495,-0.0072529255,0.0310985520,-0.0013005021,-0.0563702621,-0.0580572784,-0.0033881944
0.8595919609,-0.0029427051,0.0269562081,0.0031197187,-0.0466870070,-0.0634112954,-0.0129201803
0.8694239855,-0.0004380881,0.0258388594,-0.0021626833,-0.0295546241,-0.0665578172,-0.0214108713
0.8793790340,-0.0007784009,0.0219324902,-0.0015060188,-0.0177747998,-0.0686590523,-0.0277796872
0.8905589581,0.0018620850,0.0191282704,0.0001929519,-0.0027612289,-0.0750011057,-0.0330610014
0.9014990330,0.0035349787,0.0182972029,0.0048124311,0.0047169272,-0.0749603584,-0.0351917967
0.9095779657,0.0042211474,0.0174784735,0.0113937380,0.0154329548,-0.0791708156,-0.0372967608
0.9204419851,0.0048330487,0.0254346803,0.0149920108,0.0239184499,-0.0747800693,-0.0309545752
0.9301489592,0.0043807984,0.0313806608,0.0157071464,0.0260007754,-0.0704433769,-0.0256721955
0.9393470287,0.0019701184,0.0255565718,0.0184143893,0.0173983686,-0.0630248711,-0.0257160030
0.9491820335,0.0034166635,0.0138766840,0.0202313177,0.0152180381,-0.0587393120,-0.0225550979
0.9591640234,0.0019374848,0.0041353186,0.0152283432,0.0193766970,-0.0427299887,-0.0290360339
0.9692239761,0.0003424943,-0.0007522625,0.0102287056,0.0075402777,-0.0300232470,-0.0322973393
0.9791619778,0.0025944472,-0.0085821077,0.0110750319,-0.0042677801,-0.0194819216,-0.0387314036
0.9894329309,0.0038074316,-0.0096710846,0.0137481214,-0.0170874372,-0.0153694693,-0.0461858585
0.9994419813,0.0030697645,-0.0099197552,0.0182033293,-0.0267258175,-0.0090860073,-0.0525940880
1.0093369484,0.0042691291,-0.0073238532,0.0177040808,-0.0373736694,-0.0102825649,-0.0578908511
1.0193289518,0.0046432675,-0.0125421211,0.0230081789,-0.0490903780,-0.0114844497,-0.0631882772
1.0292879343,0.0090384837,-0.0186705515,0.0263933055,-0.0565112792,-0.0169039816,-0.0652727336
1.0401970148,0.0085481461,-0.0179285333,0.0287580006,-0.0639689267,-0.0201349296,-0.0609954335
1.0495309830,0.0070303143,-0.0084088966,0.0281844847,-0.0650728047,-0.0190020204,-0.0525028780
1.0595630407,0.0054943920,-0.0037410182,0.0296067111,-0.0682757869,-0.0221637264,-0.0450462922
1.0757550001,0.0058849514,-0.0011202615,0.0280807726,-0.0746743008,-0.0274572894,-0.0333211906
1.0798749924,0.0013817907,-0.0005456132,0.0235620253,-0.0672814995,-0.0230092779,-0.0195429288
1.0892540216,-0.0032932996,0.0048369844,0.0161177628,-0.0684572831,-0.0143681206,-0.0079118395
1.1000800133,-0.0050877868,0.0043819626,0.0097471001,-0.0599813722,-0.0109986886,0.0037478791
1.1093519926,-0.0069577335,-0.0008888167,0.0074117896,-0.0471989997,-0.0076934397,0.0037175189
1.1191769838,-0.0010964214,-0.0060092132,0.0110686542,-0.0365949571,-0.0011535152,0.0089797918
1.1290749311,0.0007982910,-0.0033082885,0.0089035751,-0.0067414558,0.0043941159,0.0057357950
1.1390630007,-0.0022091209,0.0014476854,0.0097459676,0.0060382546,0.0097984681,0.0014433123
1.1492589712,0.0006396234,0.0023971277,0.0087786438,0.0134801921,0.0130714932,0.0024792820
1.1593569517,0.0025568069,0.0014576394,0.0078846933,0.0198571309,0.0173762273,0.0003229205
1.1700309515,0.0025294186,0.0005608278,0.0050780294,0.0251815878,0.0205874667,-0.0039511868
1.1794190407,0.0006201327,-0.0071625034,0.0003776071,0.0198308993,0.0237185452,-0.0082185026
1.1901789904,0.0016322793,-0.0099683926,-0.0043248418,0.0134054907,0.0258155186,-0.0071652224
1.2053899765,0.0044580461,-0.0049784700,-0.0061407569,0.0048663309,0.0257494710,-0.0071588308
1.2095810175,0.0033916594,-0.0059555690,-0.0012466791,-0.0110918637,0.0192132760,-0.0071053011
1.2192449570,0.0091198739,0.0017702657,0.0025448320,-0.0292231981,0.0148523487,-0.0006900129
1.2294540405,0.0081059393,0.0015043098,0.0032675383,-0.0397898182,0.0008944557,0.0015326615
1.2393779755,0.0119648036,0.0002113062,0.0097438814,-0.0621141717,-0.0131129725,0.0080109341
1.2492660284,0.0129792746,-0.0002775115,0.0092142941,-0.0769783333,-0.0249392707,0.0134099601
1.2591710091,0.0091348346,0.0030371028,0.0075802323,-0.0929604992,-0.0324573740,0.0240956284
1.2690759897,0.0063157142,0.0004196841,0.0010175821,-0.1014940664,-0.0356752723,0.0304968022
1.2798889875,0.0053379894,-0.0022652668,0.0022229669,-0.1185127273,-0.0432825908,0.0316219851
1.2892199755,0.0034068585,-0.0020907444,0.0032850620,-0.1174679622,-0.0421693884,0.0358636044
1.2992019653,0.0003154636,0.0096792653,-0.0035139802,-0.1111364365,-0.0346097425,0.0389964134
1.3091930151,0.0001854659,0.0079066232,-0.0032837871,-0.0951622650,-0.0312525593,0.0421506613
1.3192440271,0.0009148479,0.0111506656,-0.0009824516,-0.0696088374,-0.0225192569,0.0410165563
1.3290039301,-0.0022799312,0.0135751441,0.0015358445,-0.0344447233,-0.0137241678,0.0377477929
1.3392759562,0.0003779889,0.0172292069,0.0004167078,-0.0024685478,-0.0060377526,0.0323622115
1.3492490053,0.0031182826,0.0114122108,0.0006113765,0.0294861905,0.0048428583,0.0258949921
1.3589919806,-0.0009831428,0.0106337145,-0.0058418396,0.0614393279,0.0178183112,0.0141009185
1.3691660166,-0.0011592745,0.0062064012,-0.0061631086,0.0859308243,0.0296645835,0.0023206908
1.3800840378,0.0016359151,-0.0009730381,-0.0063316110,0.0966027752,0.0349813215,-0.0104695400
1.3891270161,0.0025072158,-0.0061677615,-0.0055320146,0.0944533348,0.0412775651,-0.0221951716
1.3992270231,0.0014130832,-0.0036379022,-0.0097100018,0.0827151835,0.0432698764,-0.0285742413
1.4089839458,0.0043256343,-0.0098858401,-0.0012825015,0.0635755807,0.0366545841,-0.0348923244
1.4191160202,0.0063287378,-0.0153716728,-0.0008734944,0.0412648171,0.0247052461,-0.0369231179
1.4291909933,0.0054286183,-0.0141664669,-0.0016546729,0.0199749768,0.0170680992,-0.0357963368
1.4401220083,0.0045534135,-0.0111145899,0.0003349302,-0.0055728611,0.0072767213,-0.0325269029
1.4505749941,0.0046482147,-0.0023353619,0.0011658785,-0.0183371268,-0.0023503397,-0.0218316503
1.4590339661,0.0047233463,0.0044379313,0.0048732278,-0.0331871770,-0.0163050368,-0.0153564401
1.4711209536,0.0048503042,0.0091555193,0.0055473563,-0.0406107418,-0.0279920548,-0.0004019919
1.4792250395,0.0049534501,0.0128426030,0.0071545360,-0.0459164232,-0.0354347900,0.0092124185
1.4891450405,0.0040600360,0.0164266899,0.0086748125,-0.0523183979,-0.0407193005,0.0219998546
1.4994889498,0.0031806291,0.0150592998,0.0033761975,-0.0576618984,-0.0417901576,0.0262586474
1.5128499269,-0.0006190478,0.0077551682,-0.0019420865,-0.0609306619,-0.0353663452,0.0304688383
1.5191159248,0.0023719133,0.0014569837,-0.0082076071,-0.0588153154,-0.0342534110,0.0336470529
1.5291420221,0.0023222030,0.0039299806,-0.0106201051,-0.0492210090,-0.0331013277,0.0346952751
1.5388839245,0.0071280361,0.0064749797,-0.0090714572,-0.0481107309,-0.0352960378,0.0272730459
1.5490909815,0.0100704189,0.0002846796,0.0003097770,-0.0363030806,-0.0395616218,0.0177309383
1.5595270395,0.0081868228,0.0018861968,0.0056848046,-0.0394452102,-0.0439260118,0.0103253536
1.5690690279,0.0074199797,-0.0013812702,0.0052392599,-0.0341050364,-0.0418016091,0.0039335014
1.5789549351,0.0018131793,-0.0026886386,-0.0010552290,-0.0287598073,-0.0407363437,-0.0013893589
1.5890679359,-0.0037194728,-0.0068043987,-0.0043271068,-0.0244976841,-0.0365008526,-0.0099189309
1.5988680124,-0.0064177751,-0.0049530189,-0.0045927647,-0.0298750047,-0.0312078204,-0.0110117598
1.6088759899,-0.0042405664,-0.0050528566,-0.0048300507,-0.0352157056,-0.0291478653,-0.0152709531
1.6188659668,-0.0031201183,-0.0052254121,-0.0041293385,-0.0342260785,-0.0216175113,-0.0110732783
1.6290879250,-0.0039891838,-0.0024579687,-0.0063164118,-0.0257886499,-0.0108279809,-0.0068995720
1.6389830112,-0.0030082404,0.0022766667,-0.0055578831,-0.0247307085,-0.0118413130,-0.0015827045
1.6489069462,-0.0010731458,0.0002116639,0.0011337517,-0.0215477012,-0.0107206553,0.0015949791
1.6586530209,-0.0000790595,0.0010991771,0.0029568193,-0.0172967613,-0.0085459175,0.0026426669
1.6690080166,0.0008860588,0.0059382995,0.0057796952,-0.0162187144,-0.0106570050,0.0047803866
1.6800639629,0.0019331337,0.0039609750,0.0086252214,-0.0140844574,-0.0106394282,0.0047782557
1.6890059710,0.0049913884,-0.0057985107,0.0096125724,-0.0065706158,-0.0148746530,0.0026756902
1.6985609531,0.0050955475,-0.0067853848,0.0085731270,-0.0065563666,-0.0180502068,0.0058817370
1.7108889818,0.0041886629,-0.0029133481,0.0094403746,-0.0097391112,-0.0212630443,0.0080295764
1.7189010382,0.0081242081,0.0029164033,0.0112756016,-0.0107890619,-0.0244532451,0.0112396181
1.7288140059,0.0081470665,0.0067074378,0.0110911848,-0.0118756322,-0.0233656112,0.0144204963
1.7389359474,0.0072129429,0.0055227359,0.0079565765,-0.0236477349,-0.0212840848,0.0186654422
1.7489080429,0.0082216319,0.0023477750,0.0077084419,-0.0268587079,-0.0202401243,0.0186609142
1.7588099241,0.0082606729,-0.0009234470,0.0024978635,-0.0375248045,-0.0224343017,0.0218704250
1.7688919306,0.0101853367,-0.0012069863,0.0012341259,-0.0343471207,-0.0202539712,0.0239788480
1.7790409327,0.0091463085,-0.0005047840,0.0068027494,-0.0311332159,-0.0213059224,0.0229205079
1.7890290022,0.0100426730,0.0050954302,0.0064988849,-0.0225586370,-0.0276069604,0.0282673370
1.7989879847,0.0109077152,0.0058245142,0.0082336189,-0.0108340690,-0.0274719372,0.0335707553
1.8090449572,0.0088444706,0.0094843581,0.0079960348,-0.0022736043,-0.0316445790,0.0378414020
1.8189870119,0.0018631876,0.0161084607,0.0087778689,0.0073262923,-0.0315526985,0.0399591438
1.8286869526,-0.0012232303,0.0179334953,0.0106536867,0.0126704574,-0.0336217098,0.0431560017
1.8387219906,-0.0022965013,0.0130064562,0.0126330378,0.0201000106,-0.0282258801,0.0420517251
1.8486880064,-0.0092306975,0.0109235719,0.0067804572,0.0136602204,-0.0219083279,0.0367032997
1.8591129780,-0.0102755670,0.0039638956,0.0028731939,0.0029837415,-0.0209368076,0.0356448255
1.8688839674,-0.0094331447,-0.0000870150,0.0008767364,0.0018809270,-0.0145779774,0.0302924030
1.8787399530,-0.0134572033,-0.0022559089,-0.0031312588,-0.0099146143,-0.0051170979,0.0217373986
1.8886480331,-0.0106273834,-0.0044161002,-0.0071528438,-0.0173762590,-0.0031098733,0.0132304635
1.9008059502,-0.0107027534,-0.0075003426,-0.0014329436,-0.0098949056,0.0000608864,0.0025820800
1.9088469744,-0.0107836965,-0.0037267727,0.0003829715,-0.0142491739,0.0127982534,-0.0038718246
1.9189499617,-0.0088830534,-0.0008886379,0.0041455743,-0.0184467137,0.0073483605,-0.0123322876
1.9290919304,-0.0078438465,0.0000554997,0.0069694039,-0.0099219372,0.0116349841,-0.0187403858
1.9389449358,-0.0077238916,0.0020629840,0.0088853361,-0.0023935800,0.0073622083,-0.0250916258
1.9489250183,-0.0046675741,0.0061227758,0.0070051071,0.0124972193,0.0138901481,-0.0251443572
1.9589999914,-0.0035303771,0.0073325713,0.0042318222,0.0157080591,0.0138933454,-0.0272696912
1.9686269760,-0.0013554334,-0.0002166551,0.0044649360,0.0125215873,0.0127817411,-0.0293850414
1.9789429903,0.0037120641,-0.0008960885,0.0056488034,0.0114507293,0.0127804102,-0.0293877032
1.9888679981,0.0087629016,-0.0026053709,0.0058246967,0.0178764053,0.0085912580,-0.0251154602
1.9986119270,0.0108030792,0.0063960035,0.0030141589,0.0199896246,0.0086658262,-0.0176780522
2.0092110634,0.0137092229,0.0134490803,0.0080406191,0.0231483988,0.0098498678,-0.0070640226
2.0229339600,0.0165982004,0.0185130909,0.0120800259,0.0231721010,0.0035126095,0.0014748706
2.0288691521,0.0117026921,0.0166177228,0.0083047869,0.0305631720,0.0121473763,0.0046008890
2.0388150215,0.0096922871,0.0157731250,0.0007277844,0.0401500203,0.0143655241,0.0056435168
2.0487990379,0.0115634557,0.0111352280,0.0001185653,0.0433045328,0.0218351576,0.0013433108
2.0590989590,0.0095020588,0.0074617942,-0.0034070495,0.0486144796,0.0261308365,-0.0008118525
2.0685820580,0.0074022175,0.0067703207,-0.0088247536,0.0539317429,0.0314523652,-0.0082868133
2.0785739422,0.0033515752,0.0032076912,-0.0073633674,0.0571598969,0.0314081535,-0.0167896207
2.0885610580,0.0022082091,0.0026008564,0.0008898494,0.0550706461,0.0270895753,-0.0199473314
2.0985620022,0.0030552805,0.0029177146,0.0090548517,0.0412648171,0.0184324365,-0.0198815502
2.1085729599,0.0010980130,0.0040807207,0.0111690285,0.0178907849,0.0075092153,-0.0261687413
2.1185460091,0.0002612234,-0.0036499423,0.0112567665,0.0029648328,0.0063009392,-0.0293392334
2.1285638809,-0.0034826635,-0.0046747248,0.0072494862,-0.0215500966,0.0018361495,-0.0292931609
2.1387038231,-0.0042643188,-0.0087015554,0.0041360972,-0.0332669392,-0.0004080962,-0.0303293988
2.1488859653,-0.0050638258,-0.0088682100,-0.0000246050,-0.0407070145,-0.0047317380,-0.0292337742
2.1585369110,-0.0077687143,-0.0100504085,-0.0022927406,-0.0524873771,0.0015517238,-0.0345817991
2.1699738503,-0.0066548227,-0.0024761481,-0.0046460512,-0.0578190200,0.0004507732,-0.0335085467
2.1802949905,-0.0006106436,-0.0036788506,0.0008421657,-0.0631227046,-0.0028147949,-0.0356084481
2.1887898445,0.0035612346,-0.0068216841,0.0072503802,-0.0598624684,-0.0102620590,-0.0345000401
2.1987280846,0.0048282803,-0.0041487138,0.0048444984,-0.0491720028,-0.0133595811,-0.0312997214
2.2087500095,0.0051141144,-0.0013759654,0.0035077450,-0.0427497923,-0.0175396800,-0.0259651430
2.2186899185,0.0034440518,-0.0014984530,0.0061153290,-0.0331191346,-0.0227565449,-0.0195627697
2.2285490036,0.0017465414,0.0003163296,0.0048319218,-0.0406063460,-0.0238196794,-0.0121139083
2.2384870052,-0.0019331812,0.0030232149,0.0054139611,-0.0459391922,-0.0280546378,-0.0025210690
2.2487299442,-0.0027313470,0.0027732926,-0.0007834318,-0.0342817381,-0.0214699712,0.0069896113
2.2587759495,-0.0046227514,-0.0004140061,0.0008821008,-0.0343283415,-0.0192574188,0.0154731106
2.2699179649,-0.0045549809,-0.0036290807,-0.0101033924,-0.0236927439,-0.0169830769,0.0218252819
2.2818050385,-0.0046760379,-0.0009087247,-0.0092981933,-0.0183850639,-0.0147723882,0.0260589104
2.2887339592,-0.0019127964,-0.0019673628,-0.0015374901,0.0018938435,-0.0156570897,0.0292376578
2.2984650135,0.0027519525,0.0077884872,0.0033197519,0.0179440491,-0.0219101924,0.0335169584
2.3084521294,0.0045628906,0.0078634694,0.0102746608,0.0318097956,-0.0217757020,0.0366935767
2.3182711601,0.0034746290,0.0098711327,0.0094085457,0.0317799710,-0.0185604692,0.0377351381
2.3282690048,-0.0004836261,0.0030233937,0.0065912721,0.0254144818,-0.0249861442,0.0420308188
2.3383650780,-0.0005331576,-0.0057136337,0.0048142192,0.0339043736,-0.0185167920,0.0409205481
2.3487510681,-0.0016336977,-0.0056688110,0.0001036046,0.0231903419,-0.0143124610,0.0419617109
2.3587360382,-0.0027949451,-0.0086560771,-0.0007914784,0.0049578105,-0.0048124325,0.0451026410
2.3684229851,-0.0020532547,-0.0097923800,-0.0076108458,-0.0014516190,-0.0058944747,0.0493636988
2.3805060387,0.0015147091,-0.0099969432,-0.0008484604,-0.0163678527,-0.0102649881,0.0515263192
2.3886480331,0.0050335885,-0.0053775827,0.0077556488,-0.0174123421,-0.0134703685,0.0526102260
2.3988409042,0.0066032768,0.0059852083,0.0113796117,-0.0216493011,-0.0188179966,0.0558341146
2.4090280533,0.0083160754,0.0047020991,0.0179734938,-0.0236820914,-0.0316501707,0.0569811389
2.4187598228,0.0081574973,0.0043441136,0.0167208426,-0.0300624929,-0.0338542014,0.0548745804
2.4286360741,0.0090037640,0.0039562662,0.0124816420,-0.0342950523,-0.0392127484,0.0570370667
2.4385550022,0.0098885652,0.0015947301,0.0101910355,-0.0406790525,-0.0414074622,0.0559927076
2.4485011101,0.0068691433,-0.0017796677,0.0107649090,-0.0513514020,-0.0404484570,0.0528067686
2.4586730003,0.0048169852,-0.0003184598,0.0073722121,-0.0460386612,-0.0372052565,0.0527841337
2.4684190750,-0.0011691689,0.0011074621,0.0020065424,-0.0471854210,-0.0255027972,0.0473970883
2.4794368744,-0.0033244728,0.0044687469,-0.0033451798,-0.0461920574,-0.0158903822,0.0452074371
2.4886479378,-0.0006236970,0.0030794817,-0.0007576825,-0.0397900864,-0.0106058726,0.0324200019
2.5009179115,-0.0046821772,-0.0001940053,0.0057783839,-0.0248518810,-0.0062920847,0.0238845721
2.5086479187,-0.0048554181,0.0073846062,0.0026552198,-0.0163010061,-0.0031194608,0.0121717239
2.5186548233,-0.0098040048,0.0052747210,0.0025513885,-0.0045611262,0.0011575760,0.0015109568
2.5286140442,-0.0078560356,0.0053023775,0.0025830981,0.0072289538,-0.0009705561,-0.0080449972
2.5386409760,-0.0107122008,0.0043997844,0.0026307222,0.0072133741,0.0032524185,-0.0144479033
2.5484590530,-0.0076954006,0.0055001457,0.0046404121,0.0029911986,-0.0021332921,-0.0154724214
2.5584268570,-0.0075548529,0.0026705938,0.0046909568,0.0083199181,-0.0010243519,-0.0154828075
2.5685889721,-0.0093985442,0.0056427200,0.0017457721,0.0008851709,-0.0064076656,-0.0133179240
2.5785639286,-0.0083097462,0.0076217134,-0.0002543809,-0.0023428462,-0.0063637234,-0.0048149833
2.5886359215,-0.0072706579,0.0095860437,-0.0003033163,0.0040721763,-0.0084335320,-0.0026812584
2.5986018181,-0.0013905405,0.0126133636,0.0055769202,0.0083426880,-0.0115409084,0.0047714650
2.6082530022,0.0015600980,0.0127351359,0.0115192654,0.0286303833,-0.0134943370,0.0079571381
2.6183028221,-0.0013688146,0.0187468603,0.0077492711,0.0424565822,-0.0080271345,0.0100377323
2.6283049583,-0.0033333241,0.0219472721,0.0080276849,0.0626947433,-0.0014850788,0.0067940028
2.6385810375,-0.0023772060,0.0243530348,0.0094826939,0.0851079077,0.0007842008,0.0014498371
2.6485538483,-0.0013878583,0.0239664391,0.0081864120,0.1021137834,0.0126089025,-0.0060754567
2.6593670845,-0.0032731234,0.0168737844,0.0051129577,0.1223486215,0.0233430397,-0.0189072322
2.6685149670,0.0007014633,0.0099663213,0.0041850922,0.1329639852,0.0350819863,-0.0306770727
2.6785488129,0.0026981593,0.0031010585,0.0062123057,0.1318550408,0.0456406213,-0.0445545390
2.6888680458,0.0047000707,0.0010962564,0.0062322137,0.1189893037,0.0582395047,-0.0595007315
2.6984500885,0.0057796896,-0.0048532407,0.0071773049,0.1008450538,0.0612326302,-0.0680064708
2.7092308998,0.0088137444,-0.0070303003,0.0089350464,0.0709593296,0.0641352087,-0.0765035525
2.7187571526,0.0089190360,-0.0084172413,0.0104373218,0.0410622843,0.0660220608,-0.0786190331
2.7284650803,0.0079976376,-0.0021611971,0.0136907818,0.0208539516,0.0562647693,-0.0764168650
2.7382240295,0.0090450700,0.0059476574,0.0177634470,-0.0036706980,0.0507789254,-0.0710533932
2.7484500408,0.0062563182,0.0079784468,0.0177568905,-0.0292176045,0.0399387926,-0.0656533018
2.7607378960,0.0084039327,0.0060197790,0.0195885412,-0.0430263579,0.0291979983,-0.0591993965
2.7699179649,0.0056709708,0.0107275322,0.0153688909,-0.0525602065,0.0153389089,-0.0463541709
2.7784619331,0.0029771687,0.0094747618,0.0120584490,-0.0642533526,0.0067574047,-0.0388515145
2.7882838249,0.0002163709,0.0110980943,0.0106084468,-0.0727480426,-0.0028366330,-0.0281594545
2.7985668182,-0.0025618910,0.0155588463,0.0090464475,-0.0748510063,-0.0102577973,-0.0196127035
2.8084759712,-0.0053214668,0.0190307572,0.0084757330,-0.0651983768,-0.0186699238,-0.0121281566
2.8184828758,-0.0042189895,0.0235074833,0.0050054309,-0.0588158406,-0.0175170414,-0.0078897355
2.8282189369,-0.0059300005,0.0162645653,-0.0022908333,-0.0481243171,-0.0195719376,-0.0078838766
2.8384108543,-0.0046968698,0.0081684068,-0.0065528634,-0.0417110249,-0.0184997488,-0.0132068694
2.8483760357,-0.0034848987,0.0001421648,-0.0068647745,-0.0374734029,-0.0121086948,-0.0196256209
2.8584508896,-0.0003260314,0.0000266510,-0.0071101668,-0.0257135481,-0.0110207936,-0.0281404126
2.8684079647,0.0008443356,0.0029159861,-0.0005175354,-0.0289282501,-0.0078755999,-0.0324081294
2.8784551620,0.0010803700,0.0067510088,-0.0007824185,-0.0236065909,-0.0057035256,-0.0334895030
2.8884439468,0.0003696144,0.0067005833,-0.0029218677,-0.0161806308,0.0007485144,-0.0356613100
2.8982520103,-0.0022769808,-0.0001869720,-0.0069571021,-0.0108709540,0.0039978372,-0.0356870145
2.9081430435,-0.0039884388,-0.0021374149,-0.0128805516,-0.0173317827,0.0124618961,-0.0399869531
2.9181959629,-0.0009065508,-0.0059268991,-0.0031340602,-0.0173059516,0.0092589119,-0.0389009155
2.9284210205,0.0021539987,-0.0009346527,0.0017033337,-0.0151906023,0.0124634942,-0.0410479531
2.9381418228,0.0004166425,-0.0008883995,0.0016259667,-0.0247605368,0.0102008721,-0.0474026576
2.9483330250,0.0006913901,-0.0057365219,0.0034852144,-0.0215335824,0.0059778979,-0.0441903546
2.9581561089,0.0019445778,-0.0047382633,-0.0005368473,-0.0247353707,0.0080439774,-0.0495128110
2.9684879780,0.0042304755,-0.0105693266,0.0003193734,-0.0257553626,0.0026830349,-0.0505397283
2.9785161018,0.0045519830,-0.0104910657,-0.0007647159,-0.0172181986,0.0027552063,-0.0494823195
2.9881730080,0.0038842619,-0.0055345218,-0.0038061622,-0.0225429218,0.0016361461,-0.0505337343
2.9983968735,0.0051624835,-0.0035093350,-0.0010303737,-0.0278672464,-0.0026222484,-0.0441297665
3.0087239742,0.0073566497,0.0004431087,0.0036885259,-0.0214399733,-0.0057698386,-0.0430514514
3.0207490921,0.0095959064,-0.0014597696,0.0045302031,-0.0172233917,-0.0014155703,-0.0377712026
3.0290329456,0.0079118963,0.0005003291,-0.0004693153,-0.0150867384,-0.0024496757,-0.0356412083
3.0383999348,0.0101336893,-0.0062653939,0.0024212119,-0.0172209963,-0.0035120104,-0.0324435495
3.0480871201,0.0103567597,-0.0081380531,0.0053025601,-0.0087047396,-0.0002488394,-0.0335330479
3.0580811501,0.0066169859,-0.0041968743,-0.0006145122,-0.0034342101,0.0062407516,-0.0293291155
3.0680918694,0.0067298771,-0.0031157059,-0.0015461923,0.0029264838,0.0095417397,-0.0240430068
3.0780739784,-0.0000485718,-0.0010991018,-0.0034760120,0.0050455616,0.0095981983,-0.0197971296
3.0890059471,0.0019204379,-0.0039006991,0.0053970334,0.0018313928,0.0085590333,-0.0134137971
3.0983400345,0.0018583299,0.0020335990,0.0074162004,0.0103754783,0.0065214490,-0.0091558024
3.1080698967,0.0018570186,0.0011358935,0.0094387056,0.0050739236,0.0001130842,-0.0037985877
3.1182351112,0.0028678239,-0.0037013215,0.0095160725,0.0061582294,-0.0030595397,-0.0005906769
3.1289489269,0.0009382129,-0.0027689261,0.0055749533,-0.0087376293,-0.0106199877,0.0037183180
3.1383399963,0.0010210634,-0.0077562849,0.0044788239,-0.0204495452,-0.0160168838,0.0080104005
3.1485149860,0.0010395707,-0.0059942524,0.0081332447,-0.0395694450,-0.0279124249,0.0091632828
3.1582579613,-0.0008096635,-0.0083004162,0.0115719559,-0.0608780608,-0.0344544798,0.0134705473
3.1680788994,0.0002939463,-0.0088059232,0.0080442550,-0.0875592083,-0.0367621072,0.0177537091
3.1780228615,0.0014263452,-0.0153510496,0.0062897322,-0.1045989096,-0.0432719402,0.0209913142
3.1880178452,-0.0023357510,-0.0151976869,0.0004643319,-0.1120879874,-0.0432844572,0.0263085812
3.1980128288,-0.0003167927,-0.0140510723,0.0004980085,-0.1206304729,-0.0433395840,0.0284432396
3.2080190182,0.0006662369,-0.0100432560,0.0024004695,-0.1280915886,-0.0455167182,0.0305873509
3.2180199623,0.0036088885,-0.0069693248,0.0072696921,-0.1227713898,-0.0443864726,0.0327000320
3.2281570435,0.0006826878,-0.0000479740,0.0042660949,-0.1206893399,-0.0379576012,0.0326568894
3.2380509377,-0.0002962887,0.0021035748,0.0014507291,-0.0919242576,-0.0313164778,0.0336577073
3.2479889393,-0.0042147278,0.0014700968,0.0007724283,-0.0748619214,-0.0280053690,0.0304371472
3.2583899498,-0.0042454540,-0.0028866453,0.0012949823,-0.0471771620,-0.0182038713,0.0261024516
3.2699108124,-0.0043248474,0.0075886925,-0.0087461947,-0.0194571167,-0.0095390100,0.0143406028
3.2782268524,-0.0053170859,0.0007216412,-0.0028793099,0.0050173318,0.0023520037,0.0078723170
3.2897930145,-0.0004686057,-0.0059224884,0.0012781140,0.0295458436,0.0088727530,-0.0017486194
3.2981548309,-0.0004961431,-0.0047317068,-0.0013717891,0.0316589288,0.0152225280,-0.0102871135
3.3079681396,0.0043504895,-0.0073489468,0.0048219678,0.0316623896,0.0152134737,-0.0113494480
3.3179659843,0.0023851753,-0.0071436088,0.0040657637,0.0274006687,0.0130688306,-0.0081447335
3.3279571533,0.0013659061,-0.0020679159,0.0032956121,0.0241827704,0.0141308997,-0.0060245907
3.3382899761,0.0042564035,-0.0009198707,0.0073929545,0.0114338184,0.0055073164,-0.0038385349
3.3480868340,0.0051567019,0.0010653216,0.0084158899,-0.0046117278,0.0054740272,0.0067967987
3.3581259251,0.0060735703,0.0009595829,0.0063919541,-0.0195471346,0.0032462932,0.0100097694
3.3679790497,0.0030811490,-0.0022103710,0.0032819626,-0.0302154906,0.0000118841,0.0164125413
3.3784270287,0.0058707059,-0.0014412325,0.0050700423,-0.0280522052,-0.0042289337,0.0185635760
3.3965878487,0.0057519735,-0.0007144731,0.0077703712,-0.0365631357,-0.0085517764,0.0207223352
3.3995838165,0.0066614808,-0.0039039773,0.0143325450,-0.0375884548,-0.0128530478,0.0186261609
3.4084968567,0.0065774084,-0.0012800616,0.0140118720,-0.0386486575,-0.0149715925,0.0218278132
3.4182138443,0.0026007355,0.0003560859,0.0127310278,-0.0269279517,-0.0137798283,0.0260634385
3.4281301498,0.0004913867,0.0059109409,0.0075865504,-0.0216612816,-0.0051887371,0.0260040499
3.4379110336,-0.0006740033,0.0086236075,0.0045333025,-0.0099945078,0.0024156533,0.0291311350
3.4478909969,-0.0018542348,0.0094387010,0.0006002305,-0.0004020687,0.0046183537,0.0280477591
3.4580960274,-0.0021433174,0.0123084858,0.0035795090,0.0113360807,0.0047176899,0.0291015729
3.4680659771,0.0005615712,0.0084086731,0.0056979177,0.0166360363,0.0100844922,0.0269382857
3.4779291153,0.0003758133,0.0064650257,0.0019598720,0.0208998919,0.0132696331,0.0205401741
3.4878790379,0.0002061189,-0.0003084463,0.0022058007,0.0273181088,0.0132829491,0.0162860397
3.4978690147,0.0000632167,-0.0011569184,-0.0004599573,0.0380063057,0.0133284889,0.0120291114
3.5078699589,-0.0020605861,0.0028968530,-0.0002406123,0.0305553153,0.0132163698,0.0056606946
3.5180821419,-0.0021676957,-0.0008367819,0.0058713076,0.0295062959,0.0121159516,0.0035464107
3.5315370560,-0.0061785816,0.0041515310,0.0021253345,0.0231000632,0.0131170340,0.0014196103
3.5381219387,-0.0042857467,0.0012931902,0.0003364799,0.0070895366,0.0129902661,0.0003661967
3.5479698181,-0.0033347248,-0.0055159251,0.0033418653,-0.0013705269,0.0033056815,0.0004349065
3.5581469536,-0.0024041175,-0.0036032719,0.0042923209,-0.0034990581,0.0022276342,0.0015066955
3.5681469440,-0.0024747490,0.0031697231,0.0051577804,-0.0141218742,-0.0053088451,0.0047501596
3.5778551102,-0.0025048791,0.0059830029,0.0069667813,-0.0183869265,-0.0074447002,0.0090173418
3.5879669189,-0.0034645139,0.0038821178,0.0048754928,-0.0141120208,-0.0084713493,0.0100834053
3.5980739594,-0.0024820506,0.0037129002,0.0037081954,-0.0183320679,-0.0159550980,0.0133204777
3.6081118584,-0.0005183160,0.0045744260,0.0045401570,-0.0108408602,-0.0190853775,0.0154603291
3.6178150177,-0.0015011071,0.0074370583,0.0063722250,-0.0012231208,-0.0190398358,0.0122669321
3.6278629303,-0.0024112402,0.0034902173,0.0034188745,0.0115435403,-0.0146477520,0.0143543184
3.6382899284,-0.0043518483,0.0044849594,0.0005295394,0.0189955980,-0.0124461176,0.0153985424
3.6481060982,-0.0034621893,0.0084684566,-0.0003426554,0.0231967345,-0.0049138987,0.0174715482
3.6590480804,-0.0006311476,0.0056815823,0.0066800830,0.0274490044,-0.0027439550,0.0174547695
3.6679620743,0.0002430142,0.0038576799,0.0088364603,0.0327596143,0.0005035037,0.0174300019
3.6778299809,0.0010836483,0.0098131970,0.0002392051,0.0295057632,0.0058420766,0.0195216499
3.6880798340,0.0028972686,0.0030939060,0.0044044969,0.0230872780,0.0079209395,0.0184502602
3.6977670193,0.0066797794,-0.0036446971,0.0055921790,0.0177682806,0.0067861667,0.0152729750
3.7078838348,0.0104711112,-0.0045596878,0.0076947925,0.0103156902,0.0056324853,0.0120984875
3.7180500031,0.0093889590,-0.0035980267,0.0067501781,0.0007329714,0.0023591942,0.0131897172
3.7300391197,0.0111823436,0.0002172071,0.0076781628,-0.0142209446,0.0022707772,0.0163879078
3.7379839420,0.0061829151,-0.0000354570,0.0065068123,-0.0259789322,0.0022239054,0.0217090361
3.7479200363,0.0050825537,-0.0003696602,0.0003897665,-0.0376939103,-0.0010730878,0.0217385963
3.7578969002,0.0020197690,-0.0027112884,0.0029807803,-0.0504689626,-0.0064888922,0.0249699447
3.7677130699,0.0018700124,-0.0011485141,0.0045567271,-0.0493664145,-0.0107555427,0.0249968432
3.7777228355,0.0076228441,-0.0054038088,0.0110371830,-0.0557015426,-0.0193527602,0.0250559635
3.7877230644,0.0066050650,-0.0068246047,0.0086419107,-0.0481980890,-0.0235608183,0.0261404030
3.7977180481,0.0055308701,0.0015509803,0.0013920781,-0.0354221016,-0.0212854147,0.0303649772
3.8077819347,0.0044728876,0.0012594539,0.0020782468,-0.0161948800,-0.0232652090,0.0314267762
3.8177070618,0.0004343749,0.0078870729,-0.0019914987,0.0072558513,-0.0198619552,0.0335144289
3.8277168274,-0.0065482794,0.0126879290,-0.0039799693,0.0210632756,-0.0101632550,0.0302547216
3.8380990028,-0.0095835272,0.0078876093,-0.0037797573,0.0423845425,-0.0057445383,0.0280879736
3.8487200737,-0.0096930210,0.0041953404,-0.0043924334,0.0572769381,0.0018249641,0.0248413123
3.8581228256,-0.0079190675,0.0025652724,-0.0048791054,0.0668299645,0.0104048699,0.0194665212
3.8678569794,-0.0090509001,-0.0019853634,-0.0072867158,0.0667961463,0.0178135186,0.0109193716
3.8780250549,-0.0072778701,-0.0025759859,-0.0086793778,0.0689579695,0.0146225188,0.0109392125
3.8891110420,-0.0045325099,-0.0011544746,-0.0051849368,0.0753921643,0.0114568193,0.0098928567
3.8979430199,-0.0008365154,0.0060746153,-0.0017740013,0.0519630015,0.0048612338,0.0099527780
3.9077100754,0.0039695562,0.0043976386,0.0043887016,0.0285399687,-0.0017508623,0.0078872303
3.9179799557,0.0097961780,0.0084239915,-0.0003373506,0.0157895517,-0.0093224952,0.0090078879
3.9279580116,0.0118691381,-0.0013183277,0.0016337155,-0.0075930022,-0.0212691687,0.0080392966
3.9376859665,0.0119676050,-0.0004543584,0.0014412520,-0.0192908049,-0.0267028175,0.0080823069
3.9474380016,0.0111282226,0.0032593089,-0.0047005895,-0.0278246365,-0.0278285351,0.0091579575
3.9577031136,0.0083142277,0.0030431824,-0.0021020058,-0.0320902206,-0.0278716795,0.0080993511
3.9676461220,0.0055042268,0.0047495444,-0.0024526599,-0.0299359895,-0.0310432371,0.0102431960
3.9783668518,0.0016840757,0.0084296539,-0.0037525180,-0.0235666428,-0.0256743040,0.0070153112
3.9877560139,0.0027182759,0.0112279132,-0.0020301822,-0.0107824039,-0.0234196726,0.0091165453
3.9979100227,-0.0001599132,0.0111591294,-0.0021356824,0.0062844632,-0.0201218799,0.0037689176
4.0076489449,-0.0040585934,0.0141170695,-0.0011535170,0.0200852305,-0.0124972491,0.0079594012
4.0178518295,-0.0050252615,0.0122501925,-0.0029817107,0.0264620371,-0.0092370082,0.0089984341
4.0280680656,-0.0030839085,0.0065643867,0.0021215198,0.0318235122,-0.0113512911,0.0068836175
4.0381550789,0.0008012414,0.0068059047,0.0052926061,0.0371611528,-0.0113113439,0.0068802889
4.0478610992,0.0037020207,0.0099215582,0.0054789302,0.0243771821,-0.0156581551,0.0101045780
4.0578660965,0.0047038854,0.0032184201,0.0143948318,0.0211977661,-0.0199266709,0.0133196795
4.0677242279,0.0057421089,0.0042244871,0.0095428349,0.0127025489,-0.0253363475,0.0133606913
4.0776219368,0.0067698420,0.0041970690,0.0094557526,-0.0086087324,-0.0297793001,0.0134058315
4.0875921249,0.0020316304,-0.0028321070,0.0131055834,-0.0299427826,-0.0299806353,0.0091724712
4.0976238251,0.0031800331,-0.0041128318,0.0049296138,-0.0480862334,-0.0290828850,0.0049269935
4.1080908775,0.0014698566,-0.0123074576,0.0054051992,-0.0608425066,-0.0335021354,-0.0003473973
4.1177997589,-0.0011723875,-0.0205390975,0.0048355577,-0.0725795925,-0.0304650646,-0.0088551315
4.1277627945,-0.0019202172,-0.0180684850,0.0032029864,-0.0789807662,-0.0284314752,-0.0152381957
4.1378469467,-0.0016730963,-0.0175232217,0.0044999835,-0.0800922364,-0.0220510736,-0.0184676778
4.1479220390,-0.0043903231,-0.0101724789,-0.0010533811,-0.0662512556,-0.0176688433,-0.0185057614
4.1576137543,-0.0052087246,-0.0045615952,0.0023947475,-0.0406778492,-0.0100330273,-0.0228191502
4.1678299904,-0.0060408353,0.0011763651,0.0011381623,-0.0161962099,-0.0023439480,-0.0207613260
4.1777992249,-0.0059379875,0.0041648229,0.0030587432,0.0029460583,0.0053086448,-0.0187019017
4.1877760887,-0.0058891713,0.0072606285,0.0032072184,0.0306477286,0.0087928586,-0.0113071045
4.1977567673,-0.0010424494,0.0105543211,0.0045486209,0.0487484336,0.0132342130,-0.0081608454
4.2077698708,-0.0039373576,0.0031471925,0.0099056484,0.0615502484,0.0133513920,-0.0060457629
4.2175250053,-0.0009976565,-0.0002825779,0.0075572846,0.0743287653,0.0166664943,-0.0050141877
4.2276496887,-0.0029917299,0.0001850802,0.0013204333,0.0806979835,0.0209909361,-0.0050466778
4.2377929688,-0.0011476218,0.0027013498,0.0078079221,0.0753801763,0.0198537670,-0.0082227634
4.2474451065,-0.0011834144,-0.0017098706,0.0141931297,0.0561984926,0.0175314900,-0.0124438740
4.2577700615,-0.0021052896,-0.0052842419,0.0136107327,0.0391376168,0.0173538569,-0.0177426320
4.2684240341,-0.0009763479,-0.0158107802,0.0109438421,0.0081932843,0.0191794541,-0.0262319911
4.2778840065,-0.0008623540,-0.0206096098,0.0090729119,-0.0110531142,0.0253915414,-0.0326344967
4.2877950668,0.0002134205,-0.0186872408,0.0070274589,-0.0302595682,0.0273170099,-0.0400703065
4.2975420952,-0.0016552149,-0.0177829787,0.0107520344,-0.0409502946,0.0314619504,-0.0454006232
4.3074769974,-0.0035401522,-0.0091290995,0.0056495187,-0.0388788879,0.0400101654,-0.0475822873
4.3174700737,-0.0054478287,-0.0043042223,0.0026070592,-0.0293702036,0.0539345033,-0.0529920980
4.3277368546,-0.0054147481,-0.0042753140,-0.0012442352,-0.0166354999,0.0646846145,-0.0573202670
4.3374700546,0.0004015625,0.0008263069,-0.0020004394,0.0014648084,0.0722653121,-0.0616293959
4.3474488258,0.0013180734,0.0031408148,0.0003531096,0.0216622204,0.0862341225,-0.0712956041
4.3579587936,-0.0025489866,-0.0003483218,-0.0001407149,0.0302133635,0.0862676725,-0.0755532011
4.3677721024,0.0043495954,-0.0075407545,-0.0003938558,0.0515593998,0.0874834061,-0.0777007714
4.3777289391,0.0102142449,-0.0048765461,0.0003467319,0.0579950586,0.0853595361,-0.0819411948
4.3874912262,0.0122726019,-0.0110245273,0.0001427052,0.0623069853,0.0790073648,-0.0787158385
4.3974370956,0.0084016677,-0.0074476521,0.0037124869,0.0559494868,0.0725614503,-0.0765437633
4.4076700211,0.0045746625,-0.0039576809,0.0013516067,0.0549372211,0.0609058589,-0.0637187809
4.4176959991,0.0026103021,0.0043517430,0.0027960059,0.0411407128,0.0449039936,-0.0476697721
4.4274120331,0.0016225935,0.0057103117,0.0090189101,0.0316087306,0.0299942829,-0.0326929539
4.4373888969,0.0006161988,0.0118390992,0.0150799276,0.0210707337,0.0055038547,-0.0123417424
4.4476580620,0.0034747780,0.0158919767,0.0220376961,0.0083070016,-0.0083075650,0.0090045594
4.4573960304,-0.0014523505,0.0177296475,0.0209510438,-0.0055050841,-0.0232207347,0.0282372423
4.4674568176,-0.0054479777,0.0223477557,0.0100147845,-0.0076494617,-0.0294866189,0.0474024154
4.4776148796,-0.0055624186,0.0191835836,0.0079253437,-0.0044290340,-0.0336944163,0.0516739935
4.4876561165,-0.0066868900,0.0198859051,0.0077000973,-0.0193371437,-0.0401770808,0.0570383966
4.4978260994,-0.0038705110,0.0146621540,0.0074437973,-0.0225328021,-0.0412639156,0.0581112504
4.5102262497,-0.0020118295,0.0123360828,0.0042126295,-0.0225487836,-0.0380849019,0.0549034774
4.5175790787,-0.0011438667,0.0099944547,-0.0000193598,-0.0289271884,-0.0402929261,0.0527989119
4.5274257660,-0.0002779304,0.0066440781,0.0025304076,-0.0364080071,-0.0371898115,0.0474720597
4.5373659134,0.0015904368,0.0091535524,0.0030625579,-0.0385039113,-0.0404460616,0.0432437547
4.5473561287,0.0005557001,0.0106626824,0.0054897782,-0.0491392463,-0.0448125787,0.0422171056
4.5573520660,-0.0004008948,0.0091794208,0.0029876945,-0.0502179600,-0.0427001603,0.0400787219
4.5680508614,0.0005286396,0.0145575479,-0.0014366390,-0.0449004285,-0.0394708104,0.0379292816
4.5781621933,-0.0014134585,0.0092802718,0.0010854719,-0.0353450030,-0.0319425873,0.0346866176
4.5876216888,-0.0004962325,0.0128282979,0.0006923196,-0.0364230536,-0.0298314989,0.0325488970
4.5973262787,-0.0015682518,0.0154703334,0.0052553532,-0.0236408114,-0.0265259836,0.0325184092
4.6076030731,-0.0016697287,0.0191488340,0.0079195024,-0.0193680376,-0.0244098343,0.0261273533
4.6175308228,-0.0007162928,0.0140704587,0.0067895767,-0.0066236118,-0.0157750677,0.0250025671
4.6275649071,-0.0046027838,0.0090437606,-0.0010712625,0.0093870461,-0.0135590527,0.0196650606
4.6377940178,-0.0065707802,0.0061220010,-0.0019947174,0.0200448837,-0.0092524542,0.0132536320
4.6482548714,-0.0008499562,0.0111792758,0.0030664918,0.0338824019,-0.0048611681,0.0142778838
4.6578779221,0.0010116459,0.0123730376,0.0062546250,0.0423935987,0.0005059005,0.0089238649
4.6681118011,-0.0020286082,0.0204278901,0.0026539085,0.0615784787,0.0049113017,0.0067571178
4.6781039238,-0.0031401454,0.0246773437,0.0059855101,0.0615470521,0.0102235088,0.0035376220
4.6879110336,-0.0031360327,0.0172520950,0.0045484421,0.0711514801,0.0134406071,-0.0039266855
4.6972780228,-0.0050416528,0.0098489597,0.0001915810,0.0636709258,0.0196795948,-0.0177740566
4.7074079514,-0.0049176752,-0.0004386824,-0.0031629088,0.0647167489,0.0260187183,-0.0273774154
4.7175321579,-0.0049103140,0.0039310534,-0.0055959704,0.0486625433,0.0343735851,-0.0359201729
4.7277250290,-0.0058191358,-0.0006077212,0.0005984423,0.0177586935,0.0308646038,-0.0433125757
4.7375431061,-0.0057169735,0.0005784112,0.0046379087,-0.0056873774,0.0295415465,-0.0517866202
4.7494459152,-0.0015664040,-0.0052265446,0.0026528952,-0.0451128148,0.0238290671,-0.0591587797
4.7573409081,-0.0002522408,-0.0112256929,0.0033149240,-0.0642292500,0.0119244698,-0.0590682328
4.7672810555,0.0029902519,-0.0066198031,-0.0001249792,-0.0919410437,0.0063752416,-0.0579505041
4.7772378922,0.0013780058,-0.0041186730,0.0040220139,-0.1132275462,-0.0033623409,-0.0525609329
4.7875328064,-0.0021551489,0.0031022506,0.0001716135,-0.1323684901,-0.0131113753,-0.0503595620
4.7972021103,-0.0036496161,-0.0024930162,0.0001198766,-0.1483324021,-0.0196318589,-0.0481801666
4.8078718185,-0.0022240221,-0.0003070754,-0.0058414820,-0.1440308690,-0.0259568654,-0.0417678095
4.8209190369,-0.0017979383,-0.0000366491,-0.0059322598,-0.1344096661,-0.0301036742,-0.0353730246
4.8286991119,-0.0004266142,-0.0025995297,-0.0010219100,-0.1205314025,-0.0331391469,-0.0279262960
4.8374781609,0.0009021223,0.0036653357,-0.0048361304,-0.0991937593,-0.0339940190,-0.0226254053
4.8471779823,0.0002240003,0.0051564653,-0.0065194252,-0.0768218711,-0.0326613747,-0.0120257577
4.8574409485,0.0043558241,0.0078057726,-0.0070094350,-0.0405549482,-0.0312698744,-0.0067465738
4.8673000336,0.0045344890,0.0115742758,-0.0102108596,-0.0075181667,-0.0266937632,-0.0014873631
4.8772687912,0.0095300730,0.0106919482,-0.0053239944,0.0148236230,-0.0200537033,0.0048283231
4.8872089386,0.0106323119,0.0040629585,-0.0022095921,0.0393665172,-0.0177535303,0.0016090940
4.8976297379,0.0166094359,-0.0024201793,0.0000924585,0.0532359928,-0.0165838711,0.0005281172
4.9073886871,0.0157610234,-0.0089121982,-0.0024294141,0.0670593977,-0.0100641865,0.0004761855
4.9171710014,0.0148953553,-0.0152802989,-0.0038492563,0.0861988664,0.0007346659,-0.0038563781
4.9272379875,0.0119313654,-0.0108387992,-0.0023025754,0.0840217322,0.0071033495,-0.0070833303
4.9371781349,0.0089550074,-0.0103221461,-0.0036241892,0.0871149972,0.0210087784,-0.0082362127
4.9474968910,0.0088220891,-0.0069010775,-0.0059343460,0.0678544864,0.0262128618,-0.0071941176
4.9571762085,0.0057956041,-0.0113798305,-0.0005348804,0.0582691021,0.0239896551,-0.0093010776
4.9675359726,0.0066176713,-0.0051715295,-0.0001141312,0.0412136838,0.0206604376,-0.0082051875
4.9772658348,0.0045554996,-0.0039840857,0.0040522930,0.0273846891,0.0131114405,-0.0028317270
4.9874291420,0.0044747354,-0.0019391697,-0.0016285065,0.0114286263,0.0034324480,0.0046789199
4.9971446991,0.0054429234,-0.0067982594,0.0023304340,-0.0119374171,-0.0106495479,0.0037231115
5.0071840286,0.0045195282,-0.0069441120,0.0040652868,-0.0331481621,-0.0279052332,0.0049122130
5.0174407959,0.0007507861,-0.0042951624,0.0026726243,-0.0437516719,-0.0375826284,0.0081712566
5.0277018547,-0.0000339686,-0.0016927045,0.0012086150,-0.0479402915,-0.0482848063,0.0103683639
5.0372352600,-0.0027559637,0.0037841278,-0.0022922638,-0.0521900319,-0.0515067019,0.0125174019
5.0474271774,-0.0054722666,0.0043452461,-0.0048343423,-0.0543317460,-0.0515051037,0.0146436691
5.0574660301,-0.0110634211,0.0009688216,-0.0083508966,-0.0543566421,-0.0472570919,0.0114288349
5.0673508644,-0.0118428413,0.0035180526,-0.0147517798,-0.0458387956,-0.0429523587,0.0071454067
5.0783729553,-0.0126553718,0.0042416533,-0.0122299669,-0.0309650376,-0.0342901647,0.0060135629
5.0876021385,-0.0145206992,0.0128579214,-0.0096552847,-0.0192218274,-0.0352499671,0.0081363684
5.1002459526,-0.0105091576,0.0118669346,-0.0029511931,-0.0053716600,-0.0298456140,0.0027803523
5.1073908806,-0.0122308973,0.0059982021,-0.0030440572,0.0074474663,-0.0297737084,-0.0004162400
5.1171069145,-0.0080894176,0.0041726311,-0.0078728674,0.0245056786,-0.0254053250,-0.0047048614
5.1270952225,-0.0039691566,-0.0004431528,-0.0038061622,0.0352267660,-0.0285832752,-0.0110660875
5.1371231079,-0.0017753481,0.0018396456,-0.0026220563,0.0501382053,-0.0242010430,-0.0121677043
5.1472868919,0.0013563395,0.0061763008,-0.0023296955,0.0576168969,-0.0241613630,-0.0142979668
5.1570820808,0.0064894916,0.0037260728,0.0009889123,0.0597400963,-0.0230684020,-0.0132434880
5.1673641205,0.0086759683,0.0031874257,0.0081281187,0.0491082259,-0.0274439752,-0.0153324716
5.1770420074,0.0089227911,0.0074208458,0.0044190404,0.0512086600,-0.0262905601,-0.0068401839
5.1871008873,0.0101211127,0.0067871292,0.0046775457,0.0469566584,-0.0284610372,-0.0068231397
5.1970272064,0.0084615108,-0.0007554215,0.0058400151,0.0320390984,-0.0328288861,-0.0046618516
5.2070951462,0.0087254997,-0.0044591944,0.0078618051,0.0181893259,-0.0361423902,-0.0046306923
5.2170267105,0.0079900976,-0.0073389928,0.0097300531,-0.0010280441,-0.0383719914,0.0017704815
5.2270770073,0.0062501789,-0.0054721753,0.0075673577,-0.0138349198,-0.0395216756,0.0039116633
5.2370100021,0.0103051420,-0.0016580742,0.0102288844,-0.0223437212,-0.0438487828,0.0060725529
5.2470102310,0.0114883240,-0.0008833927,0.0098593356,-0.0287390351,-0.0470592231,0.0114097930
5.2570080757,0.0077668191,0.0007727820,0.0074662087,-0.0330138057,-0.0470797308,0.0124735925
5.2670516968,0.0059545995,0.0014594275,0.0109277489,-0.0362458192,-0.0438892618,0.0135175521
5.2769799232,0.0051538409,0.0001611191,0.0056241271,-0.0394959413,-0.0385581441,0.0156129263
5.2870407104,0.0003549815,-0.0001465004,0.0100789787,-0.0363166593,-0.0353362523,0.0145274214
5.2971382141,-0.0043797134,-0.0033426208,0.0097115757,-0.0288560800,-0.0321132950,0.0091872523
5.3069829941,-0.0051942407,-0.0064864676,0.0065192101,-0.0203539394,-0.0267217252,0.0070215696
5.3169708252,-0.0040909587,-0.0114871189,0.0073171970,-0.0140024312,-0.0192148071,0.0037795701
5.3270249367,-0.0059574782,-0.0125297830,0.0081504108,-0.0044294335,-0.0138240363,0.0005507539
5.3369708061,-0.0049741506,-0.0056934874,0.0090543749,0.0094248625,-0.0115664750,0.0026538523
5.3469719887,-0.0059613823,-0.0007067841,0.0091276290,0.0317805037,-0.0049626343,0.0047201989
5.3569531441,-0.0069818734,0.0033658224,0.0083415629,0.0370793939,-0.0006384599,0.0057513746
5.3669490814,-0.0070295869,0.0025898295,0.0105543258,0.0381292105,0.0015072490,0.0057367277
5.3770160675,-0.0021852492,0.0009080249,0.0118525149,0.0467133820,-0.0069110030,0.0132210087
5.3869199753,0.0045720995,0.0031588154,0.0160719864,0.0381830111,-0.0080457758,0.0132343248
5.3969306946,0.0046094717,-0.0035169048,0.0211408846,0.0211683400,-0.0167101044,0.0154274385
5.4069981575,0.0036938251,-0.0045093815,0.0162401907,-0.0012080735,-0.0232596174,0.0197351016
5.4169349670,-0.0001045405,-0.0105758235,0.0092311623,-0.0193561837,-0.0244399291,0.0229418129
5.4271297455,-0.0020509600,-0.0079611465,0.0069258926,-0.0406881049,-0.0277840607,0.0261655692
5.4370698929,-0.0010827421,-0.0054346840,0.0045028445,-0.0577563010,-0.0289875437,0.0261866096
5.4471440315,-0.0001571118,-0.0020072383,0.0068833348,-0.0673892274,-0.0258556660,0.0261730272
5.4570770264,0.0017803968,-0.0015270036,0.0082369568,-0.0716329664,-0.0270021576,0.0208712053
5.4670748711,0.0017888607,-0.0020390672,0.0096005322,-0.0663172975,-0.0227221902,0.0165901743
5.4770526886,0.0008080364,0.0014208037,0.0100436928,-0.0577930547,-0.0194792598,0.0133770704
5.4871349335,0.0008945227,-0.0009374541,0.0047136662,-0.0482096709,-0.0141156521,0.0069612493
5.4970588684,-0.0039617657,0.0007078129,0.0024026749,-0.0312039219,-0.0043823319,0.0047610784
5.5070438385,-0.0039797961,0.0044739922,0.0002628086,-0.0162974112,0.0010587729,0.0025906023
5.5170359612,-0.0040305494,0.0063718637,0.0031429050,-0.0013758531,0.0054143728,-0.0016982855
5.5270872116,0.0008542598,0.0025520998,0.0071376082,-0.0002980717,0.0053954641,-0.0048860894
5.5370321274,-0.0010637580,-0.0013308447,0.0062112925,0.0071266885,0.0118499016,-0.0070590954
5.5470948219,-0.0001475751,0.0045877774,-0.0005103233,0.0156149818,0.0172776897,-0.0049754386
5.5570249557,-0.0031384169,0.0017249066,0.0015682696,0.0070896698,0.0161306653,-0.0060228598
5.5670619011,-0.0041617989,-0.0001664084,0.0007004259,0.0071091112,0.0129425954,-0.0038774172
5.5770301819,-0.0051386296,-0.0011194270,-0.0021490338,-0.0014124708,0.0117838550,-0.0070527038
5.5870771408,-0.0041316091,-0.0040357630,-0.0060152295,-0.0013930304,0.0085957851,-0.0049072616
5.5970110893,0.0017036260,-0.0030342264,-0.0030672434,-0.0077384114,0.0000254663,-0.0016610014
5.6070680618,0.0007111490,-0.0011162084,0.0026841876,-0.0108841360,-0.0085128946,0.0026461291
5.6169891357,0.0036078454,0.0075731953,0.0025121090,-0.0172433667,-0.0170469936,0.0101417284
5.6270351410,0.0035889209,0.0103663281,0.0071743247,-0.0193443336,-0.0244721528,0.0186904762
5.6369838715,0.0017028810,0.0052605351,0.0049905893,-0.0182636231,-0.0265885685,0.0208308585
5.6470208168,0.0007405937,0.0099082068,-0.0020986083,-0.0161338933,-0.0276045632,0.0250855237
5.6569719315,-0.0002469062,0.0107075050,-0.0013306024,-0.0108256796,-0.0253970698,0.0282538868
5.6670050621,-0.0032262742,0.0095374659,-0.0015159729,-0.0151216248,-0.0222239122,0.0282363091
5.6772022247,-0.0013037859,0.0044863899,-0.0045323255,-0.0066501107,-0.0125686228,0.0249816608
5.6871600151,-0.0033115386,0.0023853260,-0.0085330484,-0.0055936351,-0.0083488440,0.0175168198
5.6989789009,-0.0023498177,-0.0054875533,-0.0056049111,-0.0034825457,-0.0030419626,0.0111060599
5.7072677612,-0.0014140247,-0.0045260708,-0.0036700252,0.0018890500,-0.0030912310,0.0004787154
5.7170529366,0.0025124908,-0.0044386308,-0.0016464473,0.0094071534,-0.0062923506,-0.0058809132
5.7269949913,0.0035477639,-0.0033489389,0.0022969958,0.0062169526,-0.0053027198,-0.0122594498
5.7369389534,0.0036580027,-0.0023117585,0.0032631275,0.0041006715,-0.0085054375,-0.0101133417
5.7469987869,0.0017553926,0.0075145443,0.0031928536,0.0094307223,-0.0084460489,-0.0079926662
5.7569227219,0.0008962810,0.0095061138,0.0021875617,-0.0012047440,-0.0138570601,-0.0058239214
5.7669181824,0.0000518919,0.0075518568,0.0040559885,-0.0065134903,-0.0181551352,-0.0036675602
5.7769117355,0.0012039901,0.0045694192,0.0019822237,-0.0150109716,-0.0246050451,-0.0004332841
5.7871298790,0.0043039382,-0.0003498119,0.0047666547,-0.0171263199,-0.0278096274,0.0017137565
5.7970309258,0.0025267364,-0.0014748495,0.0015960453,-0.0203305036,-0.0288751572,0.0049096830
5.8069219589,0.0026533664,-0.0045475285,0.0042815921,-0.0235254988,-0.0310102142,0.0081129326
5.8168888092,0.0008073509,-0.0027771515,0.0049755094,-0.0213795211,-0.0320672207,0.0081206560
5.8269309998,0.0008770883,-0.0000056547,0.0066703078,-0.0139743369,-0.0255608540,0.0123228580
5.8368859291,0.0008782208,0.0076877554,0.0074265716,-0.0086405566,-0.0265579410,0.0155111952
5.8469200134,-0.0020488440,0.0105091408,0.0082458975,-0.0001312243,-0.0232766606,0.0165463649
5.8568940163,-0.0059371828,0.0103960708,0.0032641408,0.0019363211,-0.0147185922,0.0154266395
5.8669137955,-0.0078602377,0.0064265211,0.0003168700,0.0072293533,-0.0093336804,0.0153880231
5.8768749237,-0.0088551883,0.0035030919,-0.0006138565,0.0147041809,-0.0071924990,0.0089944396
5.8868761063,-0.0059432029,0.0035975056,-0.0024256590,0.0210555531,0.0013615740,0.0036225771
5.8968572617,-0.0020394563,-0.0001423281,0.0006882665,0.0211145431,-0.0040206742,-0.0005909433
5.9070777893,0.0009213448,0.0019806700,0.0047115800,0.0168958288,-0.0094154393,-0.0026777962
5.9169688225,0.0029530884,0.0040375669,0.0067111966,0.0094897114,-0.0159199443,-0.0068809302
5.9269380569,0.0031258524,0.0031240659,0.0047295806,0.0041490081,-0.0138599891,-0.0111401239
5.9368419647,0.0023215772,0.0031505900,0.0065785167,-0.0107424557,-0.0193397105,-0.0132177882
5.9468460083,-0.0013006567,-0.0008628887,0.0024456498,-0.0224555731,-0.0236873198,-0.0110566337
5.9568328857,-0.0000769436,0.0009981472,0.0002306817,-0.0277601890,-0.0269510243,-0.0131574683
5.9668321609,0.0031179548,-0.0039840857,0.0067841527,-0.0362554044,-0.0323607028,-0.0131164556
5.9768271446,0.0023936988,-0.0012322586,0.0063808081,-0.0426957309,-0.0270868447,-0.0152698876
5.9868478775,0.0026625753,-0.0024492664,0.0050013182,-0.0459258780,-0.0249469951,-0.0120943338
5.9969148636,0.0009502232,-0.0046231668,0.0016878365,-0.0353246331,-0.0163077004,-0.0110943168
6.0068092346,-0.0018330156,-0.0038430018,0.0023509380,-0.0300121587,-0.0141108586,-0.0089874901
6.0168070793,-0.0047017871,-0.0000841540,0.0011367319,-0.0119777629,-0.0032235903,-0.0026989684
6.0267930031,-0.0076643466,0.0057491143,0.0030234572,0.0029218234,0.0022356233,-0.0027447748
6.0367951393,-0.0067063808,0.0029294568,0.0099653723,0.0178397857,0.0034641400,0.0025493230
6.0468721390,-0.0077291070,0.0050196727,0.0072086570,0.0359591357,0.0068106679,0.0025149684
6.0567779541,-0.0039114594,0.0081877783,0.0084745409,0.0359882973,0.0025520071,0.0046682674
6.0668311119,0.0019080699,0.0025985318,0.0127458097,0.0413516387,-0.0006128935,0.0046850452
6.0767650604,0.0029362203,-0.0020742936,0.0081560137,0.0339007787,-0.0017700369,0.0015122881
6.0869359970,0.0078942534,-0.0077148001,0.0074186441,0.0232811570,-0.0072233919,-0.0016321059
6.0968499184,0.0089469906,-0.0095477030,0.0094576599,0.0094475001,-0.0126714204,-0.0015885633
6.1067500114,0.0089910086,-0.0037144346,0.0093401195,-0.0140120191,-0.0181423519,0.0048376443
6.1170759201,0.0081134196,-0.0038872284,0.0071542379,-0.0321693160,-0.0182531402,0.0080370326
6.1269669533,0.0072367848,-0.0081060454,0.0038688895,-0.0460435860,-0.0194110814,0.0101790130
6.1373810768,0.0062582255,-0.0055240314,0.0044157025,-0.0492829233,-0.0161995776,0.0144130392
6.1479439735,0.0042110146,0.0028952437,0.0068738577,-0.0471444055,-0.0182842985,0.0186746307
6.1577448845,0.0041220547,0.0074337800,0.0093954923,-0.0482359007,-0.0161399208,0.0197208524
6.1667819023,0.0011862279,0.0022226053,0.0100472094,-0.0322619937,-0.0106905615,0.0175495762
6.1765589714,-0.0007819771,0.0009714442,0.0010473250,-0.0216299929,-0.0042236075,0.0143134370
6.1865472794,-0.0037988960,-0.0011441034,0.0028727171,-0.0131315775,0.0032691967,0.0078845667
6.1965560913,-0.0029599606,0.0036794024,0.0038076160,-0.0024919845,0.0076250625,0.0078496803
6.2065448761,-0.0030795275,0.0036789256,0.0067861197,0.0039139837,0.0087161604,0.0046509570
6.2165989876,-0.0002182364,0.0017659742,0.0039965031,0.0124254460,0.0130379368,0.0024927310
6.2265262604,-0.0003225743,0.0008674341,0.0060882685,0.0134928413,0.0130461939,0.0024919319
6.2366890907,-0.0013450026,-0.0029919071,0.0042703864,0.0103226146,0.0108466884,-0.0017406298
6.2467379570,-0.0014047264,-0.0019815487,0.0024213311,0.0038777646,0.0161317308,-0.0028327922
6.2566757202,-0.0014504730,-0.0058680098,0.0034574387,-0.0057246611,0.0160470419,-0.0038872710
6.2666821480,-0.0024662255,-0.0049368064,0.0024562594,-0.0142164174,0.0106283091,-0.0049085934
6.2766690254,-0.0063792407,-0.0060231010,0.0033257720,-0.0174018238,0.0084676873,-0.0048931465
6.2867331505,-0.0093053225,-0.0022873206,-0.0007713320,-0.0258970428,0.0030580077,-0.0048521338
6.2966842651,-0.0122214798,-0.0043787281,0.0029581306,-0.0258524343,-0.0012421983,-0.0080123739
6.3067417145,-0.0131418053,-0.0025386733,0.0037287590,-0.0215793923,-0.0012182299,-0.0090779047
6.3164510727,-0.0072265803,0.0003568012,0.0046040532,-0.0183664206,-0.0012214258,-0.0122669078
6.3268890381,-0.0061324774,-0.0006556434,0.0035360572,-0.0076501276,-0.0075240629,-0.0090463459
6.3366422653,-0.0070190667,0.0022859054,0.0024926183,-0.0012746518,-0.0032163998,-0.0112041729
6.3466229439,-0.0059621572,0.0043050726,-0.0004227044,0.0008406965,-0.0000118180,-0.0133512132
6.3565187454,-0.0048928498,0.0034116583,-0.0003617885,0.0114986664,0.0001133506,-0.0080461968
6.3666710854,-0.0000100374,0.0065041860,-0.0002319100,0.0124941561,0.0076298565,-0.0049084602
6.3766231537,0.0029594363,0.0056161960,-0.0049887779,0.0114283599,0.0055246274,-0.0006466033
6.3866157532,0.0058561326,0.0057443460,-0.0009386422,0.0189054497,0.0045227464,0.0004170632
6.3965878487,0.0087717231,0.0049028476,-0.0017461063,0.0157105885,0.0034343123,0.0014907168
6.4066019058,0.0126384255,0.0050423821,0.0023037908,0.0178877227,-0.0029343709,0.0047176690
6.4165978432,0.0155441221,0.0070962389,0.0043483493,0.0104355328,-0.0061804978,0.0068688369
6.4266080856,0.0155763086,0.0042159637,0.0073117134,0.0094525600,-0.0168669652,0.0080012139
6.4368181229,0.0146668013,0.0061671813,0.0043565151,0.0073274905,-0.0169093087,0.0048151407
6.4467921257,0.0079649743,0.0012385327,0.0042790887,0.0030842759,-0.0201485120,0.0048391088
6.4568228722,0.0041604103,-0.0007855219,0.0031703231,-0.0096934373,-0.0234652124,0.0038083326
6.4669532776,0.0042955042,-0.0057660262,0.0059340713,-0.0214576870,-0.0203589015,0.0027340134
6.4768457413,0.0024370314,-0.0040042917,0.0037053344,-0.0300301351,-0.0161559004,0.0016487755
6.4865570068,0.0005501867,-0.0042350213,0.0014573452,-0.0321473479,-0.0183098651,0.0016642215
6.4965729713,-0.0023375093,-0.0034995002,0.0021250960,-0.0311579853,-0.0086852014,0.0016021701
6.5065560341,-0.0062152683,0.0001334030,-0.0050241831,-0.0343955904,-0.0023428830,-0.0037486532
6.5167040825,-0.0022901832,-0.0029532833,-0.0042370441,-0.0312175062,0.0008814060,-0.0048353560
6.5266981125,-0.0061991452,-0.0021744890,-0.0054170373,-0.0227081720,0.0041626869,-0.0038001854
6.5372209549,-0.0013813018,0.0046390970,-0.0045163515,-0.0056475634,0.0074793873,-0.0059566800
6.5466442108,-0.0004475056,0.0046966155,0.0013874291,0.0061465115,0.0011578423,-0.0059239231
6.5566549301,-0.0014678775,0.0106259063,0.0004868624,0.0199858956,0.0034537534,0.0004274496
6.5665631294,-0.0034808456,0.0166019276,-0.0032673362,0.0284795128,0.0078218710,0.0035803660
6.5765247345,-0.0025199293,0.0099836066,-0.0039238813,0.0444701985,0.0100884866,0.0035518701
6.5863552094,0.0002790452,0.0141966417,-0.0035271528,0.0529867187,0.0112594776,0.0077878940
6.5965032578,0.0001584054,0.0164707378,-0.0021301988,0.0605097488,0.0049099699,0.0088881785
6.6066789627,0.0000236095,0.0177764371,0.0031690714,0.0551709160,0.0059193075,0.0067605795
6.6164951324,-0.0019182502,0.0073288162,0.0055311439,0.0488015637,0.0015951334,0.0067929365
6.6263160706,-0.0028652190,0.0036556798,0.0048466441,0.0371409133,-0.0070726573,0.0036701143
6.6363320351,-0.0027992367,-0.0029937548,0.0041005132,0.0296628904,-0.0050241537,-0.0005900110
6.6463308334,-0.0075665354,-0.0048674862,0.0031818864,0.0083743790,-0.0095275594,-0.0079826796
6.6563167572,-0.0093847755,-0.0058085243,0.0060657975,-0.0075866105,-0.0139643848,-0.0121914074
6.6664938927,-0.0111772064,-0.0029157919,0.0088002207,-0.0235943384,-0.0120050972,-0.0185672808
6.6765022278,-0.0060780882,-0.0039834897,0.0095351459,-0.0374065600,-0.0175087862,-0.0248970818
6.6865038872,-0.0047488450,-0.0090056583,0.0062894342,-0.0384688936,-0.0164845344,-0.0291525461
6.6964731216,-0.0005328595,-0.0091229603,0.0049751517,-0.0470298901,-0.0123108290,-0.0334237255
6.7065320015,-0.0031814515,-0.0044191401,0.0045489785,-0.0438173190,-0.0123132253,-0.0366131254
6.7164592743,-0.0019510030,0.0062162359,0.0002890346,-0.0353033245,-0.0100902850,-0.0345093645
6.7265429497,0.0032339455,0.0052481373,0.0020499942,-0.0246679932,-0.0057237661,-0.0334827118
6.7365951538,0.0006046355,0.0023641067,0.0038733599,-0.0044127889,-0.0013159680,-0.0356473289
6.7467379570,0.0028198720,0.0054242690,-0.0039317491,0.0094460351,-0.0011633688,-0.0303460434
6.7565889359,0.0049553574,0.0047261794,0.0030482528,0.0264989212,0.0000813927,-0.0250534080
6.7665238380,0.0069956542,0.0079771355,0.0110855224,0.0328947678,-0.0008925253,-0.0197396036
6.7764458656,0.0090774354,0.0073009213,0.0094003798,0.0403405651,-0.0007678893,-0.0123105831
6.7865109444,0.0072226585,0.0085457042,0.0067430851,0.0413887873,0.0003362573,-0.0091313012
6.7964138985,0.0092794057,0.0039210399,0.0079802396,0.0307354778,-0.0029367679,-0.0069766706
6.8064250946,0.0142340716,-0.0007166785,0.0101831676,0.0200404897,-0.0008728181,-0.0059201950
6.8164539337,0.0133738276,-0.0055463831,0.0092543485,-0.0023167478,-0.0074734627,-0.0079881400
6.8264708519,0.0125224050,-0.0134251043,0.0053060767,-0.0173287205,-0.0000898486,-0.0059007537
6.8364090919,0.0125868674,-0.0136135146,0.0011650440,-0.0450800583,-0.0003063637,-0.0058790492
6.8463230133,0.0125523265,-0.0139034316,0.0076429960,-0.0568458997,0.0017583850,-0.0037594391
6.8563842773,0.0095529016,-0.0045534889,0.0071143028,-0.0718035474,0.0016795555,0.0005008196
6.8666172028,0.0046272338,-0.0030972285,0.0056031463,-0.0739892051,0.0070247864,0.0025924663
6.8765931129,-0.0022385358,-0.0055585424,0.0011896609,-0.0622812808,0.0113870436,0.0025577124
6.8864140511,-0.0052273213,-0.0069046537,-0.0011197807,-0.0473555960,0.0157322586,-0.0027928448
6.8966269493,-0.0072871088,-0.0032139344,-0.0013210060,-0.0249657352,0.0201547034,-0.0060249902
6.9064049721,-0.0103595499,-0.0003365201,0.0015834091,-0.0015219273,0.0267124698,-0.0103334524
6.9163589478,-0.0094778482,-0.0002189201,0.0017778394,0.0112757599,0.0310233273,-0.0178072136
6.9273200035,-0.0104516689,-0.0049480121,-0.0047659758,0.0294001698,0.0354023650,-0.0220978316
6.9368538857,-0.0085254554,-0.0085411593,-0.0053329947,0.0358290412,0.0332963355,-0.0242134482
6.9465332031,-0.0085412804,-0.0072508971,-0.0049630287,0.0337416530,0.0279271379,-0.0252395645
6.9593949318,-0.0065840422,-0.0059806625,-0.0036802175,0.0263377987,0.0182795711,-0.0219854470
6.9672632217,-0.0045489608,-0.0086973235,-0.0034665349,0.0082362946,0.0107034110,-0.0166117214
6.9764771461,-0.0063562929,-0.0154393837,-0.0033834460,0.0008546785,-0.0021399502,-0.0122751631
6.9861812592,-0.0082182232,-0.0125334784,-0.0034850123,-0.0108371312,-0.0107262479,-0.0058369711
6.9962081909,-0.0071913539,-0.0086644217,0.0002662656,-0.0097473655,-0.0170483254,0.0048313858
7.0062646866,-0.0062657534,0.0029815512,0.0001108763,-0.0065710135,-0.0180017371,0.0154592618
7.0163321495,-0.0082474891,0.0067624529,-0.0010288241,-0.0065814005,-0.0211152397,0.0250354558
7.0263848305,-0.0053807436,0.0086538270,-0.0030239704,0.0115592536,-0.0220073983,0.0292781368
7.0363130569,-0.0015733778,0.0096740201,0.0009546993,0.0254613534,-0.0261502117,0.0324836522
7.0463171005,0.0041719736,0.0127026513,0.0020668623,0.0297224112,-0.0271406416,0.0377990566
7.0563697815,0.0031128586,0.0137454942,0.0031728861,0.0361575410,-0.0313529633,0.0399491601
7.0662822723,0.0069825710,0.0060166200,0.0023713824,0.0276130550,-0.0303593390,0.0388862900
7.0762901306,0.0079997536,-0.0037153882,0.0024764654,0.0223362669,-0.0368321501,0.0368076935
7.0862998962,0.0080114361,-0.0027986688,-0.0014763358,0.0085091349,-0.0412506014,0.0325964391
7.0963439941,0.0071106018,-0.0077872793,0.0003395198,-0.0042721741,-0.0445601083,0.0315620676
7.1062769890,0.0071611465,-0.0069938819,0.0039508459,-0.0223582350,-0.0511309281,0.0294925217
7.1163110733,0.0042715431,0.0004791695,0.0054057357,-0.0426123738,-0.0544939674,0.0295284744
7.1262159348,0.0033382536,0.0039712866,0.0068104980,-0.0490183383,-0.0555850640,0.0327272005
7.1362700462,0.0024532438,0.0015701134,0.0081990482,-0.0565255210,-0.0503205284,0.0305750985
7.1462659836,0.0035316409,-0.0018409413,0.0027582762,-0.0523137376,-0.0449076518,0.0347866230
7.1562170982,0.0015695454,0.0016182739,-0.0006862166,-0.0384531803,-0.0437137596,0.0368941128
7.1664991379,0.0004662634,0.0100869015,0.0037708995,-0.0225019082,-0.0371594541,0.0389652550
7.1762919426,0.0002819658,0.0176677778,0.0093748095,-0.0054717949,-0.0327178314,0.0431749150
7.1861958504,0.0011479319,0.0165301040,0.0073326346,0.0105164926,-0.0314890519,0.0474053435
7.1962537766,-0.0019027530,0.0154669359,0.0053981063,0.0318437517,-0.0302251149,0.0505679846
7.2062320709,-0.0001231372,0.0155400112,0.0046166894,0.0510126539,-0.0226406977,0.0451934561
7.2162470818,-0.0021946072,0.0108143762,0.0039462564,0.0638199300,-0.0204470530,0.0398571491
7.2261219025,-0.0013610362,0.0091125444,0.0043545482,0.0669882894,-0.0130136367,0.0313076004
7.2361707687,-0.0043976246,0.0093551353,0.0008297680,0.0659344792,-0.0120128207,0.0238632672
7.2462019920,-0.0035002767,0.0086808875,0.0031626937,0.0542280227,-0.0142863607,0.0185742285
7.2562718391,-0.0025000512,0.0001135546,0.0064054248,0.0382354707,-0.0134107135,0.0111458749
7.2661809921,-0.0005025804,-0.0007485074,0.0065061566,0.0105513800,-0.0190323815,0.0037649232
7.2762169838,-0.0023266911,-0.0046611349,0.0103290798,-0.0107381949,-0.0245784149,-0.0004332841
7.2862019539,-0.0021397709,-0.0058280150,0.0090395929,-0.0459079035,-0.0302216522,-0.0035593025
7.2962570190,-0.0038939654,-0.0071469466,0.0143324854,-0.0714831650,-0.0357599594,-0.0035072376
7.3062620163,-0.0027618348,-0.0007722300,0.0155695202,-0.0864088535,-0.0401051752,0.0018433190
7.3162479401,-0.0025541126,0.0015685040,0.0176296942,-0.1109496206,-0.0413648486,0.0018691518
7.3262128830,-0.0013568043,0.0028501826,0.0137770893,-0.1077807248,-0.0381157920,0.0039706524
7.3361201286,-0.0021471917,0.0041221459,0.0060603139,-0.0961196721,-0.0284019131,0.0049641449
7.3464488983,-0.0078736190,0.0064385016,0.0023492095,-0.0887360573,-0.0155646792,-0.0004362136
7.3561530113,-0.0048876046,0.0089057758,0.0007734416,-0.0749482065,-0.0026776423,-0.0058414983
7.3660979271,-0.0018653809,0.0066329916,0.0003618119,-0.0514569953,-0.0014725619,-0.0111776749
7.3761682510,0.0021422864,0.0016307313,0.0050278422,-0.0280225109,0.0061549973,-0.0154935932
7.3863477707,0.0012463690,0.0054803570,0.0058344719,-0.0109005161,0.0030356371,-0.0207972787
7.3963551521,0.0023720325,0.0036234932,0.0087761404,0.0029824097,0.0031251195,-0.0229324680
7.4086499214,0.0005677700,0.0018133003,0.0098320367,0.0136158802,0.0085422555,-0.0240374133
7.4163131714,0.0026429058,0.0039455374,0.0060727117,0.0211022906,0.0064705824,-0.0229662899
7.4260840416,0.0056924880,0.0003072697,0.0082625868,0.0275069289,0.0044279378,-0.0176455602
7.4359312057,0.0028108717,0.0034486728,0.0103985788,0.0296084285,0.0076687383,-0.0155432615
7.4458990097,0.0018423558,0.0046126326,0.0106045725,0.0252794586,0.0119740041,-0.0081314174
7.4560928345,-0.0001265048,0.0028340893,0.0098647596,0.0338038392,0.0120781343,-0.0038894014
7.4661817551,-0.0050713955,0.0019850212,0.0062087295,0.0305281505,0.0185200535,0.0024454598
7.4761037827,-0.0042583584,0.0031278210,0.0074586389,0.0304892678,0.0228045471,0.0034798319
7.4860539436,-0.0034261583,0.0003846365,0.0145737054,0.0198696479,0.0173511934,0.0003354375
7.4960908890,-0.0024934649,-0.0063388865,0.0138426544,0.0230798218,0.0163088311,0.0003391658
7.5061197281,0.0003191293,-0.0013455075,0.0081634047,0.0134889800,0.0151476935,-0.0017713895
7.5160398483,-0.0007016003,-0.0052143852,0.0092476131,0.0028232858,0.0150443623,-0.0038867383
7.5260772705,0.0050961436,-0.0022712273,0.0073356149,-0.0153013896,0.0127575062,-0.0049216426
7.5361390114,0.0060650767,-0.0062686126,0.0121124508,-0.0291140079,0.0051651010,-0.0048607895
7.5460109711,-0.0017299890,-0.0045954506,0.0098345997,-0.0451142788,0.0029219205,-0.0027102868
7.5560579300,-0.0065041720,-0.0107776448,0.0046205041,-0.0472365543,0.0018249641,-0.0048296303
7.5660538673,-0.0065440773,-0.0023332161,-0.0016547324,-0.0590250343,0.0049946583,0.0015323949
7.5760650635,-0.0056194006,-0.0055629532,0.0067575094,-0.0536450483,-0.0013505891,0.0047576162
7.5860528946,-0.0115874354,0.0018748719,0.0111832144,-0.0525563471,-0.0055810204,0.0090338532
7.5960488319,-0.0126186851,0.0083370879,0.0058791158,-0.0461715534,-0.0044347961,0.0122087412
7.6059880257,-0.0107594673,0.0129125789,0.0026159999,-0.0376126878,-0.0096489992,0.0196733158
7.6160168648,-0.0069061159,0.0078237131,0.0053564426,-0.0204812363,-0.0159300640,0.0197024774
7.6259970665,-0.0079131071,0.0057172258,0.0081262114,-0.0108642969,-0.0158829261,0.0165082812
7.6359949112,-0.0137129668,-0.0002852005,0.0089563848,-0.0119408788,-0.0127300099,0.0111765005
7.6460247040,-0.0126471464,-0.0072134654,0.0030285832,-0.0055543529,-0.0084508425,0.0058323354
7.6560788155,-0.0145206694,-0.0111896917,0.0010221121,-0.0077083176,-0.0031881700,-0.0016365001
7.6659498215,-0.0144450609,-0.0151202604,0.0009791371,-0.0045538032,0.0042814640,-0.0059367064
7.6760058403,-0.0105106775,-0.0121788308,-0.0010092737,-0.0120378183,0.0073931012,-0.0102009596
7.6859922409,-0.0066239475,-0.0092274472,0.0028565642,-0.0120450081,0.0095033897,-0.0134018138
7.6959991455,-0.0036941110,-0.0043581645,0.0028025624,-0.0152983265,0.0158856548,-0.0145051610
7.7059979439,0.0021245838,-0.0023990793,0.0028081653,-0.0110444603,0.0170055144,-0.0123906108
7.7159919739,0.0069641829,-0.0013805550,0.0038291928,-0.0078948708,0.0223954860,-0.0103046894
7.7259387970,0.0127042886,-0.0013036650,0.0088248374,0.0016592192,0.0267899688,-0.0050279028
7.7359910011,0.0154753979,0.0046414812,0.0041371104,0.0165486857,0.0322779454,-0.0008206409
7.7459611893,0.0201285835,0.0067554195,0.0015499112,0.0250071511,0.0409209691,0.0023045784
7.7559480667,0.0257410761,0.0050258120,0.0010150193,0.0367177352,0.0431841202,0.0065319473
7.7659339905,0.0302728470,0.0053221066,0.0025360105,0.0547952726,0.0487314835,0.0139200883
7.7760319710,0.0299044307,0.0065686782,-0.0027105692,0.0665259659,0.0478031076,0.0192277692
7.7859706879,0.0275304373,0.0069199880,-0.0029991153,0.0771823376,0.0500231199,0.0192059316
7.7959861755,0.0309677776,0.0083351210,0.0036069271,0.0793678612,0.0436333977,0.0203096773
7.8059949875,0.0324722007,0.0087238625,0.0062921760,0.0761957690,0.0383012183,0.0245960355
7.8159050941,0.0243008789,0.0060205539,0.0097451331,0.0549244396,0.0274799932,0.0289331265
7.8259010315,0.0171273705,0.0051273783,0.0042584655,0.0453533046,0.0210386068,0.0342935361
7.8359661102,0.0080472287,0.0021650868,0.0005874751,0.0241059382,0.0070138676,0.0375832096
7.8458991051,0.0009127021,-0.0008781475,0.0035779593,0.0028230194,-0.0006413894,0.0365853235
7.8558850288,-0.0100421254,-0.0021485609,0.0005219696,-0.0142184151,-0.0040070927,0.0334320031
7.8658928871,-0.0180749241,-0.0015099567,0.0002667425,-0.0301555693,-0.0126897963,0.0324370451
7.8759222031,-0.0220783595,-0.0077137272,0.0019298313,-0.0386478603,-0.0149710607,0.0228944086
7.8859019279,-0.0232024137,-0.0031784100,0.0025376198,-0.0396872908,-0.0171439331,0.0197220519
7.8958797455,-0.0242634956,0.0033476430,0.0011975882,-0.0311330818,-0.0171165019,0.0154675189
7.9059429169,-0.0262295250,0.0050458391,-0.0020155790,-0.0236546621,-0.0149846422,0.0080117323
7.9159488678,-0.0242914502,0.0068904837,0.0017339108,-0.0119362194,-0.0116967028,0.0069198371
7.9277896881,-0.0213246290,0.0049142917,0.0016778824,-0.0034199627,-0.0084335320,0.0058303378
7.9402451515,-0.0242263321,0.0058522900,-0.0012820843,0.0115059903,-0.0061804978,0.0058053038
7.9459419250,-0.0223509911,0.0147230700,-0.0041262987,0.0252998322,0.0014622416,0.0121204574
7.9559369087,-0.0156370047,0.0149405077,0.0000644443,0.0348720327,0.0037182055,0.0174116250
7.9669589996,-0.0070386170,0.0200516656,0.0042674062,0.0327407047,0.0036926388,0.0163508896
7.9759230614,-0.0003398299,0.0192447975,0.0084274532,0.0189161040,-0.0028225183,0.0174674205
7.9859600067,0.0094355103,0.0105533078,0.0105329277,-0.0044736424,-0.0126589034,0.0132979741
7.9957427979,0.0134510454,-0.0022417230,0.0152890207,-0.0342571065,-0.0246662982,0.0102060447
8.0056438446,0.0185229536,-0.0103318021,0.0129706981,-0.0598202534,-0.0302352346,0.0070728362
8.0156421661,0.0158471819,-0.0137684867,0.0035314676,-0.0864924788,-0.0304733198,0.0039080679
8.0256738663,0.0209358092,-0.0182236359,0.0047270772,-0.1088587642,-0.0349578150,-0.0002967971
8.0356531143,0.0181280132,-0.0140600130,0.0037656543,-0.1207239479,-0.0190379731,-0.0025154767
8.0456295013,0.0084384736,-0.0031704826,-0.0041255238,-0.1218688488,-0.0083861277,-0.0057709245
8.0557441711,0.0064844550,-0.0028803868,0.0008729813,-0.1123954430,0.0077217352,-0.0058833100
8.0656318665,0.0054925145,-0.0054494063,-0.0036941650,-0.0890429839,0.0249758251,-0.0091986796
8.0762424469,0.0024702908,-0.0058436315,-0.0079625128,-0.0432756320,0.0434509702,-0.0146609554
8.0857877731,0.0042266906,-0.0039571445,-0.0050392034,-0.0134205306,0.0500401631,-0.0210988820
8.0958995819,0.0069047869,-0.0047675292,0.0079043629,0.0078904834,0.0555305369,-0.0232740175
8.1055955887,0.0086417850,-0.0045146863,0.0131860496,0.0335274041,0.0525406078,-0.0211477503
8.1175012589,0.0055157007,-0.0032451672,0.0165489428,0.0410460383,0.0430613533,-0.0125968726
8.1258268356,0.0014402629,-0.0049459259,0.0140851857,0.0410359204,0.0409963354,-0.0040843450
8.1394796371,-0.0006496250,-0.0106214210,0.0115614058,0.0314735733,0.0334862173,0.0012829902
8.1465816498,0.0020609559,-0.0134048387,0.0080196382,0.0207895041,0.0313386470,0.0098035075
8.1558675766,0.0037704469,-0.0153263137,0.0043433425,0.0058634174,0.0259494744,0.0183491930
8.1657209396,-0.0013997494,-0.0154190585,0.0073372242,-0.0037162388,0.0184846334,0.0290282015
8.1755971909,-0.0057368218,-0.0019411367,0.0092008235,-0.0111766849,0.0142145222,0.0364982374
8.1855754852,-0.0090291742,0.0007242042,0.0100683691,-0.0175352488,0.0077707376,0.0386692472
8.1959514618,-0.0151316170,-0.0015552562,0.0060084579,-0.0175010264,0.0055893422,0.0333707519
8.2057189941,-0.0182783548,-0.0037199778,0.0049451706,-0.0078771627,0.0056183711,0.0280518867
8.2157840729,-0.0174823944,-0.0057971398,0.0039640185,-0.0014319122,0.0034710641,0.0216894615
8.2274827957,-0.0176951531,0.0000287968,0.0078954222,0.0082060676,0.0013716940,0.0174467806
8.2358217239,-0.0159298722,0.0068631847,0.0089032175,0.0082055349,0.0013727592,0.0174462479
8.2462139130,-0.0151082519,0.0156111196,-0.0007974388,0.0113707017,0.0067230500,0.0152845588
8.2557659149,-0.0142716412,0.0146365240,-0.0026330831,0.0070836786,0.0077824555,0.0184695683
8.2656192780,-0.0095115844,0.0106956437,-0.0054853442,-0.0014501549,0.0066567380,0.0195452161
8.2757472992,-0.0018625497,0.0106683448,-0.0083350418,0.0006810399,0.0077294586,0.0184760913
8.2856435776,0.0086522754,0.0155663565,-0.0062984708,-0.0014079437,0.0013186974,0.0206439048
8.2955150604,0.0143443998,0.0165414885,0.0005696533,-0.0013830429,-0.0018845529,0.0206632130
8.3055763245,0.0142030474,0.0203604177,0.0014991281,-0.0024206107,-0.0051080431,0.0196224488
8.3155155182,0.0151222404,0.0202716067,-0.0053490880,0.0050295820,-0.0008131632,0.0142737571
8.3255004883,0.0141331013,0.0153642371,-0.0082271574,0.0071587791,0.0023551993,0.0078773759
8.3355026245,0.0122027453,0.0085159019,-0.0110957501,0.0061288020,0.0001591567,0.0025828790
8.3454942703,0.0121542867,0.0144103244,-0.0110832928,0.0018642824,0.0011586412,-0.0016701892
8.3554706573,0.0092910584,0.0066205938,-0.0052229050,-0.0044805659,-0.0032294490,-0.0090739103
8.3655653000,0.0074122013,0.0066235741,-0.0004092934,-0.0108641637,-0.0033333125,-0.0154431267
8.3757705688,0.0046445192,0.0016823489,-0.0015113237,-0.0172371082,-0.0066034077,-0.0175440945
8.3880634308,0.0009210766,-0.0013236325,-0.0026548388,-0.0161715783,-0.0055445349,-0.0196764860
8.3957376480,-0.0067225932,-0.0043457071,0.0020285961,-0.0204259753,-0.0056164404,-0.0239212979
8.4056205750,-0.0114450399,-0.0014885586,0.0008465169,-0.0193868130,-0.0013513879,-0.0260744654
8.4154701233,-0.0151424948,-0.0024925990,0.0016688821,-0.0225973856,0.0017834189,-0.0314038508
8.4254503250,-0.0139177982,-0.0073767225,-0.0032875421,-0.0098309889,0.0082676839,-0.0346419886
8.4357337952,-0.0117857996,-0.0062802355,-0.0061910036,0.0029315446,0.0147596709,-0.0378839895
8.4454517365,-0.0125889424,-0.0090142414,-0.0031172517,0.0167584103,0.0212703012,-0.0389982536
8.4556703568,-0.0076270639,-0.0047938148,-0.0018896939,0.0209796540,0.0266600065,-0.0369088687
8.4657449722,-0.0007675826,-0.0015175861,0.0033025858,0.0305798166,0.0225680582,-0.0241403449
8.4757080078,-0.0008745432,0.0124287680,0.0026058671,0.0401537456,0.0216820240,-0.0113924583
8.4868650436,0.0029715062,0.0146896318,0.0010505436,0.0476241820,0.0186060742,-0.0028785986
8.4958744049,0.0038900436,0.0101296380,0.0034245369,0.0476480126,0.0133154383,0.0035306981
8.5054941177,0.0067955912,0.0026041942,0.0028825519,0.0444687307,0.0100935465,0.0046162028
8.5158004761,0.0116719361,-0.0039647142,0.0013261554,0.0380818062,0.0079068253,0.0046347119
8.5255708694,0.0106902774,-0.0086365864,0.0035464284,0.0296236090,-0.0028283771,0.0068350146
8.5355653763,0.0106869098,-0.0085065886,0.0046674726,0.0147237545,-0.0072423005,0.0036850283
8.5457000732,0.0107531603,-0.0104595348,0.0056267497,-0.0033409996,-0.0180518050,0.0058925222
8.5582809448,0.0097830649,-0.0047030370,0.0073856828,-0.0150161646,-0.0287715606,0.0134094283
8.5654706955,0.0049483241,-0.0010480207,0.0080019953,-0.0320800990,-0.0331242308,0.0198239181
8.5756788254,0.0010192753,0.0074041565,0.0075420854,-0.0352585837,-0.0394841246,0.0294310041
8.5854396820,0.0000058473,0.0138862208,0.0041816947,-0.0309868734,-0.0425939001,0.0368849263
8.5953931808,0.0019055665,0.0135864690,0.0077399132,-0.0277996026,-0.0435798019,0.0421947353
8.6051778793,-0.0010434627,0.0142622665,0.0044842479,-0.0149980551,-0.0413704440,0.0389842950
8.6153593063,-0.0030116378,0.0120619610,0.0013137577,-0.0086323004,-0.0349431708,0.0357546806
8.6253948212,-0.0049956082,0.0080024078,0.0002294300,0.0051873745,-0.0263222512,0.0314395614
8.6353693008,-0.0108338837,0.0010450560,0.0011274335,0.0019969074,-0.0232404415,0.0197355002
8.6451721191,-0.0156299416,-0.0068548243,-0.0047653201,0.0093996963,-0.0114990976,0.0111550614
8.6556940079,-0.0116967801,-0.0077643911,-0.0056704762,0.0115512637,-0.0094351470,0.0005159997
8.6653413773,-0.0097111408,-0.0096045062,0.0041365144,-0.0001607854,-0.0085568363,-0.0111678205
8.6753444672,-0.0076737045,-0.0075655500,0.0099744918,-0.0001717042,-0.0053900718,-0.0154363355
8.6878089905,-0.0056101023,-0.0006694120,0.0069844243,0.0009148652,-0.0064777071,-0.0186172146
8.6955728531,-0.0024928092,-0.0025360507,0.0060111997,-0.0012018150,-0.0075879786,-0.0217967629
8.7063417435,-0.0003661155,-0.0005055589,0.0079308273,-0.0033541825,-0.0054670372,-0.0218090136
8.7174835205,-0.0011726855,0.0024751502,0.0068641421,-0.0065791374,-0.0033418345,-0.0207598601
8.7253303528,0.0019022585,0.0025332647,0.0049161431,-0.0045269048,0.0063022710,-0.0197614413
8.7356033325,-0.0018489896,-0.0013772171,-0.0019190791,-0.0046086637,0.0148835089,-0.0155650992
8.7452402115,-0.0017687022,-0.0052401940,-0.0086653112,0.0006580036,0.0234746002,-0.0156244878
8.7554502487,0.0001120627,-0.0002852601,-0.0085865734,0.0006339019,0.0245824754,-0.0113835372
8.7656621933,0.0058235289,-0.0020755453,0.0042972085,0.0049088076,0.0235558264,-0.0103174737
8.7752914429,0.0105833467,0.0019598680,0.0093153240,0.0081521384,0.0171977952,-0.0070925183
8.7852621078,0.0085730311,0.0039596637,0.0074414727,0.0082032708,0.0097438740,-0.0038570440
8.7962608337,0.0076187910,-0.0008615774,0.0065855500,0.0157040656,0.0055454001,-0.0006436738
8.8060379028,0.0066460432,-0.0047247331,0.0066865799,0.0082711820,-0.0008885307,0.0036528038
8.8154840469,0.0066413344,-0.0046868245,0.0057577011,0.0104319379,-0.0061690463,0.0089968359
8.8264589310,0.0056726993,-0.0046446244,0.0067787287,0.0105038434,-0.0136772962,0.0058583012
8.8354682922,0.0027293623,0.0021495300,0.0018385169,0.0040910845,-0.0168421976,0.0165070817
8.8454208374,-0.0011993884,0.0020882564,0.0027629850,0.0115577895,-0.0178169142,0.0207577534
8.8552522659,0.0016217590,0.0069658835,0.0047047255,0.0062214797,-0.0189064126,0.0228921454
8.8655414581,0.0025436641,0.0030015188,0.0095492126,-0.0001687752,-0.0210843459,0.0239731222
8.8753776550,0.0035247565,0.0018982369,0.0055286405,-0.0108369989,-0.0201378595,0.0186597165
8.8856306076,-0.0002654731,-0.0119060203,0.0093092443,-0.0161603913,-0.0181231778,0.0090888478
8.8952312469,-0.0030941009,-0.0120980069,0.0022530076,-0.0215213336,-0.0118266661,0.0005536834
8.9052677155,-0.0059138476,-0.0151894614,-0.0018643620,-0.0215514265,-0.0065192524,-0.0037302775
8.9152116776,-0.0126518253,-0.0173013136,-0.0040218118,-0.0215923078,0.0009077715,-0.0101528894
8.9268598557,-0.0184722785,-0.0105886385,-0.0042343023,-0.0184026398,0.0041024992,-0.0144253988
8.9389219284,-0.0155821387,-0.0057247798,0.0015251753,-0.0173911713,0.0094847474,-0.0112754116
8.9455709457,-0.0156292263,0.0030362087,0.0033806083,-0.0078075202,0.0127561744,-0.0123657100
8.9586124420,-0.0108192805,0.0099367574,0.0014752862,0.0060690138,0.0107731856,-0.0059846435
8.9656867981,-0.0030529140,0.0101119354,0.0065609929,0.0199840292,0.0045043705,-0.0017041444
8.9752807617,0.0017814399,0.0103380159,0.0078019616,0.0359985493,0.0025272397,0.0025469263
8.9851903915,0.0066620470,0.0096051171,0.0032548425,0.0402982235,-0.0027471506,0.0068276916
8.9951553345,0.0115605351,0.0020816999,0.0065539000,0.0403209925,-0.0069908984,0.0100403950
9.0053052902,0.0154922064,-0.0006320995,0.0048856256,0.0339765437,-0.0155630810,0.0132875890
9.0156087875,0.0193893667,0.0005151111,0.0031182286,0.0296973772,-0.0176621825,0.0218038447
9.0254726410,0.0183315929,0.0044728001,0.0051241037,0.0201105308,-0.0230167359,0.0292819999
9.0352230072,0.0163042601,0.0054017385,0.0060854075,0.0083952853,-0.0273579545,0.0325068198
9.0451459885,0.0152947064,0.0023350792,0.0059986827,-0.0022752024,-0.0274495669,0.0314524770
9.0559873581,0.0084368046,-0.0008298081,0.0047975299,-0.0108224843,-0.0274951085,0.0335823409
9.0672550201,0.0044871629,-0.0069182436,0.0075234887,-0.0140265338,-0.0264692567,0.0314531438
9.0771923065,0.0023981393,-0.0032174510,0.0102391960,-0.0140690105,-0.0200837962,0.0282244608
9.0878705978,-0.0035543977,-0.0044234912,0.0119904997,-0.0109179588,-0.0126051074,0.0249865893
9.0961103439,-0.0046367585,-0.0036217493,0.0128142359,-0.0173183344,-0.0116200037,0.0207340531
9.1052331924,-0.0028472482,-0.0028146429,0.0175348632,-0.0237666480,-0.0063259066,0.0207042266
9.1151170731,-0.0010078191,-0.0050023119,0.0163955204,-0.0259416476,-0.0010083728,0.0196091346
9.1251296997,-0.0040640174,-0.0072541158,0.0142120244,-0.0366243869,-0.0000222044,0.0196102001
9.1354045868,-0.0072005629,-0.0046639959,0.0158501975,-0.0462907292,0.0063342284,0.0217003804
9.1454153061,-0.0103580002,-0.0021912975,0.0173878185,-0.0687214732,0.0051555131,0.0291604269
9.1553802490,-0.0086539332,-0.0027279181,0.0120404484,-0.0740973204,0.0083560999,0.0344601162
9.1653928757,-0.0002241074,0.0045031984,0.0037451503,-0.0827222466,0.0158345234,0.0418543816
9.1750745773,-0.0054315864,0.0028081613,-0.0046115997,-0.0806301981,0.0222348981,0.0375580415
9.1855983734,-0.0077769696,0.0119230822,-0.0197384842,-0.0604130775,0.0309234597,0.0353627987
9.1953353882,-0.0043500899,0.0222304538,-0.0278018005,-0.0369639397,0.0374684446,0.0299938619
9.2053585052,-0.0144644622,0.0141376331,-0.0239332803,-0.0081695775,0.0461234525,0.0161065422
9.2150983810,-0.0263878647,0.0091602281,-0.0325657018,0.0238797031,0.0504803844,-0.0041326811
9.2252502441,-0.0265206937,0.0026049095,-0.0320765264,0.0559638701,0.0505650714,-0.0232786778
9.2353324890,-0.0236699525,-0.0035973114,-0.0176678784,0.0859812945,0.0410453379,-0.0381086245
9.2450380325,-0.0217415635,0.0010708052,-0.0042119506,0.0946783796,0.0239664856,-0.0433159024
9.2550582886,-0.0215725843,0.0096619204,-0.0034681442,0.1065375656,0.0101545323,-0.0442968793
9.2653465271,-0.0203584377,0.0143593028,0.0011575934,0.0981270373,-0.0080255363,-0.0377987660
9.2751379013,-0.0161533002,0.0131335333,0.0076372144,0.0865231082,-0.0293907449,-0.0259660743
9.2850198746,-0.0080187861,0.0147160962,0.0139276506,0.0588787012,-0.0476650931,-0.0130795706
9.2952804565,0.0001857937,0.0092452839,0.0209588520,0.0237630568,-0.0649535283,-0.0033824686
9.3052167892,0.0056006373,-0.0043103020,0.0198994391,-0.0082215080,-0.0726189092,0.0041263141
9.3153133392,0.0138479825,-0.0122229382,0.0214926712,-0.0445009507,-0.0771132559,0.0116185853
9.3253154755,0.0172014888,-0.0165114924,0.0188490264,-0.0776253492,-0.0730942786,0.0116156554
9.3350381851,0.0225158688,-0.0209785029,0.0131086828,-0.1043455154,-0.0679807514,0.0084122717
9.3450117111,0.0267153438,-0.0167728588,0.0091659548,-0.1151321232,-0.0531282984,0.0051363180
9.3550224304,0.0298459288,-0.0106182024,0.0120331766,-0.1205242202,-0.0446586460,0.0008369107
9.3652305603,0.0330093876,-0.0103249475,0.0100792767,-0.1152948365,-0.0286498535,-0.0067072921
9.3753042221,0.0351409391,-0.0060316841,0.0014507888,-0.0855344012,-0.0103107942,-0.0142851844
9.3853034973,0.0323725715,-0.0045149843,-0.0049726847,-0.0579017140,0.0048569730,-0.0154652297
9.3949832916,0.0275660809,-0.0076461951,-0.0052374485,-0.0195612498,0.0168819427,-0.0187566299
9.4050483704,0.0197038408,0.0011648614,-0.0071773413,0.0294457078,0.0290086493,-0.0199318845
9.4149637222,0.0156415757,0.0073657711,-0.0018672229,0.0656368732,0.0400099009,-0.0157774854
9.4286460876,0.0153825041,0.0098755434,0.0057069776,0.0922341272,0.0488113835,-0.0105411792
9.4352312088,0.0102308150,0.0094835833,0.0066110012,0.1135063916,0.0544026904,-0.0010312969
9.4461956024,0.0099070128,0.0062647541,0.0067052958,0.1220125258,0.0556008443,0.0063917320
9.4552087784,0.0066056014,0.0000491816,0.0058023450,0.1123889238,0.0534796380,0.0170361195
9.4652051926,0.0051925541,-0.0062509100,0.0116313221,0.0899986699,0.0469663441,0.0255931225
9.4749727249,0.0008775652,-0.0146948025,0.0152849676,0.0623199046,0.0361017138,0.0299319439
9.4852361679,-0.0053569614,-0.0194685385,0.0157220475,0.0314623863,0.0220141225,0.0353568047
9.4950084686,-0.0076483130,-0.0244483277,0.0148953917,-0.0090542799,0.0142643237,0.0407474414
9.5049209595,-0.0108669344,-0.0316494629,0.0127876522,-0.0441976190,0.0054149050,0.0376421958
9.5149631500,-0.0140911881,-0.0283062384,0.0093816044,-0.0697265416,-0.0065165889,0.0409268066
9.5253057480,-0.0163258258,-0.0211576149,0.0058042523,-0.0824945420,-0.0140424157,0.0473588705
9.5358428955,-0.0205454174,-0.0120702907,0.0051139113,-0.0739298165,-0.0192725975,0.0526977107
9.5451278687,-0.0170298759,0.0049303253,0.0045131561,-0.0589878820,-0.0201985780,0.0558804572
9.5551452637,-0.0202892367,0.0131817535,0.0049811122,-0.0397579968,-0.0232327189,0.0580088533
9.5649061203,-0.0186235551,0.0177191570,0.0027669785,-0.0077590514,-0.0197879206,0.0569017790
9.5752029419,-0.0139186028,0.0106943920,-0.0050212624,0.0146771492,-0.0217607897,0.0558363795
9.5851192474,-0.0073153614,0.0097817853,-0.0028645280,0.0381470546,-0.0163170211,0.0462231673
9.5947999954,0.0013230206,0.0002036172,0.0023519513,0.0392408147,-0.0163764097,0.0387881547
9.6051187515,0.0002138675,0.0012736398,-0.0013278606,0.0392370857,-0.0142751765,0.0345249660
9.6170282364,0.0079074558,-0.0005423349,-0.0049638036,0.0274757706,-0.0122216120,0.0355833061
9.6256952286,0.0077032805,0.0043357690,-0.0097163795,0.0327743925,-0.0099885520,0.0419394746
9.6366004944,0.0064057768,0.0092181042,-0.0047171596,0.0145891318,-0.0089816106,0.0504417494
9.6457662582,0.0070504905,0.0120178536,-0.0027693990,0.0028600376,-0.0101502053,0.0493951254
9.6556568146,0.0057675005,0.0147090033,-0.0067428234,-0.0056594145,-0.0134048546,0.0515472256
9.6654682159,0.0064442516,0.0095926598,-0.0009661200,-0.0109961238,-0.0155383134,0.0568767451
9.6768989563,0.0071703256,0.0054008444,-0.0011240724,-0.0226979218,-0.0178233050,0.0505265705
9.6859312057,0.0011017383,0.0060486873,-0.0003967168,-0.0130495531,-0.0199498385,0.0430968814
9.6949958801,0.0028771819,0.0087732151,0.0023460505,-0.0161891542,-0.0243214183,0.0346280299
9.7060852051,0.0008258880,0.0085680559,0.0050688502,-0.0150799481,-0.0265139975,0.0272047352
9.7152833939,-0.0021297871,0.0083704069,0.0038793799,-0.0129277129,-0.0265430287,0.0218915958
9.7263193130,-0.0001467108,0.0062877615,0.0027514813,-0.0150822103,-0.0212792903,0.0144222267
9.7351055145,-0.0021150648,0.0080734566,0.0035161492,-0.0129932277,-0.0159154162,0.0143841458
9.7450752258,-0.0011551618,0.0089309290,0.0004647491,-0.0088152606,-0.0030938943,0.0100485189
9.7551422119,-0.0021690070,0.0088322237,-0.0054327729,-0.0003265673,0.0054716310,0.0046775881
9.7648696899,-0.0023019551,0.0117656663,-0.0053506973,0.0113074519,0.0194377806,0.0024541153
9.7748165131,0.0013931454,0.0118771270,0.0007044790,0.0080430824,0.0279423185,0.0002776468
9.7847967148,0.0050924481,0.0119900778,0.0028897640,0.0175969061,0.0344289802,0.0002289109
9.7947912216,0.0068566264,0.0121250227,0.0012324569,0.0218506400,0.0376407504,-0.0029819291
9.8048324585,0.0105553921,0.0113787726,0.0084278109,0.0282829739,0.0355256684,-0.0061598793
9.8147783279,0.0045276047,0.0125247315,0.0106547000,0.0314823613,0.0366029181,-0.0082948022
9.8250322342,0.0024532438,0.0136823729,0.0051456210,0.0389858186,0.0323948562,-0.0072103627
9.8348550797,-0.0005895435,0.0119591430,0.0064790961,0.0347472653,0.0301889610,-0.0114430580
9.8449821472,-0.0035818159,0.0102089718,0.0058229682,0.0326441638,0.0259065982,-0.0103514288
9.8549880981,-0.0056035756,0.0133315399,0.0021942970,0.0327006243,0.0194846522,-0.0113719516
9.8651313782,-0.0065539717,0.0076612313,0.0014872669,0.0252762642,0.0140741747,-0.0123940734
9.8750247955,-0.0074981390,0.0049368818,0.0036698100,0.0253134146,0.0097952727,-0.0123643782
9.8850364685,-0.0094504002,0.0109260753,0.0018409012,0.0179015715,0.0012148339,-0.0091163879
9.8947277069,-0.0084060077,0.0100894049,0.0038986919,0.0158169828,-0.0052089766,-0.0090757748
9.9047431946,-0.0102306250,0.0062899073,0.0078751566,0.0094634788,-0.0106202541,-0.0111610293
9.9150791168,-0.0081481878,0.0063906391,0.0088588120,0.0052062827,-0.0127782132,-0.0100833811
9.9249382019,-0.0059846281,0.0025281387,0.0049491045,-0.0022550961,-0.0128631676,-0.0132647939
9.9349737167,-0.0066893934,-0.0052810232,0.0038837907,-0.0107311383,-0.0183218494,-0.0185335912
9.9449815750,-0.0035056411,-0.0072346847,0.0037352559,-0.0225095022,-0.0130871404,-0.0206840951
9.9554929733,-0.0032097041,-0.0112215802,0.0054376838,-0.0384635665,-0.0185889639,-0.0248877592
9.9662075043,0.0009571970,-0.0113487765,0.0089855911,-0.0491569601,-0.0154834520,-0.0270252135
9.9748134613,0.0031724037,-0.0115730092,0.0094998600,-0.0694756806,-0.0103123933,-0.0291705243
9.9847640991,0.0044249655,-0.0128972456,0.0060352799,-0.0705761015,-0.0091885384,-0.0217403043
9.9944887161,0.0104059335,-0.0063442509,0.0045675752,-0.0653198138,-0.0005702829,-0.0186126884
10.0045156479,0.0144095775,-0.0075744907,0.0041980860,-0.0504551157,0.0070716576,-0.0133606680
10.0147743225,0.0163456555,0.0009805638,-0.0029191258,-0.0324304439,0.0200785380,-0.0081439344
10.0252933502,0.0171910878,-0.0000641268,0.0019254205,-0.0090281805,0.0267449617,0.0002956230
10.0349721909,0.0091261324,0.0067300280,0.0019979593,0.0207160003,0.0409438722,0.0086809844
10.0446710587,0.0038805366,0.0136299208,-0.0084102629,0.0451470390,0.0519025140,0.0181543808
10.0546569824,0.0005278051,0.0070589860,-0.0058113816,0.0749518126,0.0607159808,0.0223278217
10.0648555756,-0.0087166671,0.0015727956,-0.0088937758,0.0994718000,0.0662132725,0.0180254839
10.0748929977,-0.0091867987,-0.0056747715,-0.0049421075,0.1112859771,0.0567023270,0.0202043504
10.0886707306,-0.0115809087,-0.0127963945,0.0059027788,0.1263208538,0.0461215861,0.0192000717
10.0954723358,-0.0159395579,-0.0072749178,0.0078615667,0.1274726689,0.0344068781,0.0235263761
10.1049299240,-0.0162967388,-0.0075696032,0.0166588537,0.1190829203,0.0161724780,0.0236504804
10.1149263382,-0.0145660285,-0.0127931163,0.0272553675,0.0989696607,-0.0053376071,0.0259272158
10.1247463226,-0.0097585265,-0.0172559544,0.0258945934,0.0670780391,-0.0226577409,0.0292489789
10.1346349716,-0.0068489253,-0.0190163776,0.0242192261,0.0351740345,-0.0368081816,0.0283007585
10.1446447372,-0.0048162579,-0.0219520852,0.0232178085,-0.0063963104,-0.0446021892,0.0294427220
10.1546182632,-0.0027774512,-0.0202564523,0.0170313828,-0.0384253487,-0.0448312201,0.0315910950
10.1646003723,-0.0016757785,-0.0226681158,0.0106189968,-0.0693763420,-0.0450796932,0.0305519290
10.1748628616,-0.0005829274,-0.0261710212,0.0040920493,-0.0833025426,-0.0377373584,0.0262621082
10.1848859787,0.0033322931,-0.0219019577,0.0023515937,-0.0919069499,-0.0282210857,0.0219568424
10.1946239471,0.0052371384,-0.0166580006,0.0015855548,-0.0909395590,-0.0143564027,0.0176170897
10.2048435211,0.0041459561,-0.0094577596,0.0028041122,-0.0920860469,-0.0047461195,0.0175555702
10.2155666351,-0.0037050187,-0.0101157352,-0.0018076184,-0.0878823847,0.0069622025,0.0079147946
10.2248954773,0.0020149709,-0.0047627608,-0.0072246077,-0.0772558302,0.0123974476,0.0089345183
