0.0000000000,-0.0133478325,0.0243991334,-0.0110556465,-0.0758697018,-0.0130087417,-0.0609518439
0.0097659826,-0.0141431671,0.0287148673,-0.0106817465,-0.0318724141,-0.0091554141,-0.0607827343
0.0197010040,-0.0106563549,0.0294572432,-0.0072209225,0.0063929516,-0.0119583914,-0.0651228875
0.0298609734,-0.0047534686,0.0295667965,-0.0078201275,0.0060355011,-0.0209119618,-0.0479864292
0.0398789644,-0.0073820632,0.0200302321,-0.0088650566,-0.0451671779,-0.0078010852,-0.0496756211
0.0497679710,-0.0075298827,0.0123614389,0.0060761585,-0.0941067562,-0.0025722350,-0.0523992367
0.0598930120,0.0023935456,0.0251036007,0.0101171751,-0.0932035744,-0.0147841154,-0.0460978225
0.0711690187,0.0018382985,0.0540442169,0.0076384558,-0.0038947333,-0.0224609450,-0.0348486304
0.0797770023,-0.0077723544,0.0477650464,-0.0256375056,0.0607005581,-0.0156638473,-0.0363828242
0.0896630287,-0.0130887907,0.0380648673,-0.0345408916,0.1030237749,0.0039580576,-0.0296753868
0.0996370316,-0.0189272743,0.0223431308,-0.0392484069,0.1173878610,0.0191007908,-0.0425309464
0.1096559763,-0.0192260426,0.0052923872,-0.0367318392,0.0990565270,0.0333537646,-0.0523313768
0.1195529699,-0.0146992784,0.0010683851,-0.0289118867,0.0579883419,0.0385081582,-0.0458183251
0.1296479702,-0.0099473577,-0.0038241430,-0.0164295416,-0.0186238773,0.0461652763,-0.0327683017
0.1394929886,-0.0124934595,-0.0146675389,0.0115981121,-0.0925114676,0.0376874581,-0.0449925326
0.1494710445,-0.0178831201,-0.0114867371,0.0056366338,-0.1095969751,0.0449648127,-0.0481736772
0.1594990492,-0.0121591669,-0.0022233410,0.0033667698,-0.0847692341,0.0537712649,-0.0438195132
0.1697649956,-0.0089071970,0.0103870351,0.0222499985,-0.0463177189,0.0578877144,-0.0477269031
0.1793789864,0.0028199572,0.0153385717,0.0440713167,-0.0129388804,0.0399239585,-0.0551297180
0.1894340515,0.0076079983,0.0164652187,0.0429227948,0.0026754988,0.0363380127,-0.0560570322
0.1993089914,0.0037793834,0.0138765294,0.0342759490,0.0104208235,0.0466099828,-0.0643198341
0.2092350721,-0.0036285501,0.0145719964,0.0319380760,0.0097137541,0.0608331263,-0.0620257854
0.2192649841,0.0016129930,0.0107663590,0.0304481406,-0.0288359281,0.0644266233,-0.0542234220
0.2292430401,0.0091475267,-0.0051410482,0.0423064828,-0.0684927925,0.0566896014,-0.0679751784
0.2392300367,0.0078501124,-0.0079176705,0.0401775241,-0.0768321678,0.0500365794,-0.0717906430
0.2492040396,0.0057827253,0.0094730575,0.0286406893,-0.0445362777,-0.0328527093,0.0012319027
0.2591730356,-0.0311858337,0.0085158665,0.0243471880,0.0133209527,-0.3309822381,0.3873314559
0.2691110373,0.0893418193,0.0218433458,0.0556415319,0.0748484954,-0.3702388406,0.3966048360
0.2791510820,0.0824902654,0.0173032600,0.0434626937,0.0684019923,-0.0634484738,0.0172529481
0.2890490294,0.0170911569,-0.0034064932,0.0298802275,0.0404563770,0.0137557602,-0.1003762186
0.2989590168,-0.0100286882,-0.0181159060,0.0353137851,0.0187561437,0.0250254832,-0.0816098526
0.3090310097,0.0010681171,-0.0224808138,0.0533624887,-0.0057710381,0.0048333947,-0.0819709748
0.3189669847,-0.0060610753,-0.0227921288,0.0496692061,0.0018861908,-0.0067987158,-0.0882098600
0.3290320635,-0.0110667627,-0.0120223444,0.0358123779,0.0414996482,-0.0144007094,-0.0901281312
0.3389140368,-0.0039221626,0.0013263540,0.0268507022,0.1082694605,-0.0192608684,-0.0911811665
0.3489080667,0.0008238572,0.0094044525,0.0250051040,0.1749278456,-0.0413480587,-0.0928632244
0.3588989973,0.0016722102,0.0070782020,0.0302098412,0.2514631748,-0.0583069585,-0.1038797349
0.3688470125,0.0052276272,0.0037659721,0.0279318709,0.2830740809,-0.0783589631,-0.1065106764
0.3788300753,0.0046760757,0.0020042376,0.0227343459,0.2263629287,-0.0846568719,-0.0884787515
0.3887959719,-0.0036396068,-0.0172772091,0.0283588190,0.1198998615,-0.0796040595,-0.0941723287
0.3987530470,-0.0116960388,-0.0376644433,0.0263744015,0.0564258657,-0.0684634149,-0.1053773910
0.4087150097,-0.0156338494,-0.0239597242,0.0278593916,0.0674841106,-0.0509110503,-0.1005091295
0.4186990261,-0.0050147157,0.0015735344,0.0227708239,0.1107213274,-0.0557851456,-0.0854746550
0.4286590815,0.0031028111,0.0190967638,0.0113471169,0.1644540578,-0.0662487000,-0.0828546360
0.4386080503,-0.0013637226,0.0235197861,0.0050661578,0.2086573690,-0.0604311414,-0.0874499008
0.4488010406,-0.0022144895,0.0324198306,-0.0017972573,0.2220184505,-0.0553479642,-0.0716256648
0.4585640430,0.0031838138,0.0275846440,0.0064426078,0.1923472136,-0.0541332290,-0.0699702650
0.4685440063,0.0012244005,0.0058129146,0.0222696681,0.1389644146,-0.0586094707,-0.0780510977
0.4784929752,-0.0035440605,0.0115381200,0.0063332333,0.1013284698,-0.0508478656,-0.0704079792
0.4884880781,-0.0060545485,0.0319649279,-0.0074902163,0.0834429413,-0.0406080112,-0.0540559068
0.4984710217,-0.0033710878,0.0303287227,-0.0176517945,0.0647080839,-0.0257070716,-0.0500048921
0.5084370375,-0.0037710052,0.0176421124,-0.0143212657,0.0540730171,-0.0160307400,-0.0574545525
0.5186060667,-0.0012679677,0.0185280163,-0.0221539717,0.0407114588,-0.0079307817,-0.0538773425
0.5283750296,-0.0001431983,0.0231391508,-0.0228110533,0.0012764335,-0.0034609321,-0.0459395237
0.5383480787,0.0011130590,0.0246436317,-0.0275193434,-0.0320790708,-0.0009097566,-0.0391129889
0.5483070612,-0.0021450203,0.0300353486,-0.0392008424,-0.0464249924,0.0064387037,-0.0298236180
0.5582870245,-0.0061109047,0.0307519753,-0.0325568318,-0.0809052512,0.0154671753,-0.0129967537
0.5683820248,-0.0083131175,0.0121888239,-0.0079950076,-0.1532550901,0.0134732667,-0.0112039139
0.5782510042,-0.0072695296,0.0115859825,-0.0083579998,-0.1940691918,0.0134258615,-0.0032273207
0.5884250402,-0.0110985022,0.0329276621,-0.0259725433,-0.1794977039,0.0308727622,0.0100535974
0.5981609821,-0.0093817692,0.0476970375,-0.0320051312,-0.1410503536,0.0371857435,0.0203803759
0.6080950499,-0.0052704196,0.0471484363,-0.0333146453,-0.1249709874,0.0408672951,0.0314069279
0.6180690527,-0.0075824540,0.0372555554,-0.0226823073,-0.1430348903,0.0482533053,0.0382228084
0.6280760765,-0.0076739769,0.0151468236,-0.0101580601,-0.2007927299,0.0537303649,0.0427179597
0.6380480528,-0.0046841782,0.0087305028,0.0016719118,-0.2270992696,0.0454920493,0.0391380303
0.6480190754,-0.0080476385,0.0323271453,-0.0157777052,-0.1763170511,0.0508489981,0.0494130403
0.6582059860,-0.0043512266,0.0650275052,-0.0298723560,-0.0952892527,0.0473433249,0.0639657974
0.6679869890,-0.0068369787,0.0675651133,-0.0315570831,-0.0370451212,0.0473659635,0.0721257254
0.6779390574,-0.0082862359,0.0503362715,-0.0215890389,-0.0273906849,0.0485400185,0.0728138313
0.6878980398,-0.0063939970,0.0342631042,-0.0205358248,-0.0368667431,0.0391222797,0.0802746788
0.6978780031,-0.0070963483,0.0314407051,-0.0294688921,-0.0866833553,0.0536249690,0.1031967252
0.7078510523,-0.0138088446,0.0063895895,-0.0134811383,-0.1818679273,0.0632632151,0.1064673513
0.7179780006,-0.0139238816,-0.0168409627,0.0013930813,-0.2014953643,0.0564171374,0.0849161744
0.7277840376,-0.0198414605,0.0084843952,-0.0231201034,-0.1361605674,0.0640015528,0.1014900878
0.7377229929,-0.0152699333,0.0507903397,-0.0261918288,-0.0416334830,0.0530116223,0.1197311953
0.7477200031,-0.0032525640,0.0437386930,-0.0204699617,0.0304332525,0.0342387334,0.1219381541
0.7576500177,-0.0022343379,0.0159259755,-0.0144137125,0.0678661615,0.0250842273,0.1084395871
0.7676340342,-0.0121147018,0.0046759560,-0.0158671718,0.0669239387,0.0332281701,0.1061047912
0.7776269913,-0.0109790843,-0.0003660007,-0.0130688529,0.0574653484,0.0380990729,0.1073133573
0.7875699997,-0.0084745269,-0.0112763327,0.0006724611,0.0413710698,0.0343062021,0.1004099101
0.7975630760,-0.0078634005,-0.0054753111,0.0066614165,0.0210644640,0.0294262003,0.1082280278
0.8075129986,-0.0055339616,0.0055730655,-0.0004029259,0.0420059636,0.0280179214,0.1114872023
0.8175619841,-0.0053474288,0.0039411499,-0.0020412789,0.0816338584,0.0333654583,0.1062299013
0.8274830580,-0.0006443244,0.0004469471,0.0018507853,0.1004453599,0.0241714269,0.1047153622
0.8393260241,-0.0020076018,-0.0011326356,0.0037543192,0.1077558994,0.0201518759,0.0996368751
0.8475940228,-0.0040546935,-0.0033325835,0.0108171720,0.1149128750,0.0090504875,0.0949230790
0.8573980331,-0.0030192714,-0.0033173247,0.0088188667,0.1062180772,0.0046898057,0.0990755036
0.8674050570,-0.0040845256,-0.0136059206,-0.0007638916,0.0540957600,0.0226658769,0.1106346920
0.8775410652,-0.0068188589,-0.0418786705,0.0142084975,-0.0112588517,0.0344026722,0.0951668099
0.8873549700,-0.0063623767,-0.0444124639,0.0190234203,-0.0363610089,0.0338407457,0.0869930387
0.8972600698,-0.0064394157,-0.0226083677,0.0077826395,-0.0360886231,0.0387298204,0.1026774049
0.9072160721,-0.0063645821,-0.0126535576,0.0126584191,-0.0222708099,0.0403394364,0.0943587571
0.9172120094,0.0042456705,-0.0198420566,0.0230230708,-0.0129725439,0.0271922518,0.0813189596
0.9271800518,0.0021874029,-0.0143341105,0.0201706309,-0.0075551411,0.0242148377,0.0729046986
0.9371650219,-0.0029844623,-0.0016376062,0.0186079759,0.0006370610,0.0271574762,0.0677226484
0.9469220638,-0.0012297016,0.0014351325,0.0131773967,-0.0074056853,0.0225273035,0.0677242428
0.9570959806,0.0031939168,-0.0149142426,0.0077066435,-0.0294287466,0.0264510717,0.0586875528
0.9671790600,0.0028226990,-0.0282570999,-0.0034981952,-0.0902313814,0.0349620022,0.0561482273
0.9770079851,0.0022460539,-0.0328491628,-0.0057803378,-0.1713080704,0.0453226753,0.0547594428
0.9870669842,-0.0015748125,-0.0423754156,0.0097156782,-0.2417865098,0.0519938953,0.0317681059
0.9970309734,-0.0000000280,-0.0406217277,0.0106489081,-0.2480824292,0.0470591895,0.0192390513
1.0069299936,-0.0001865905,-0.0065727518,-0.0036193714,-0.2071957141,0.0421336740,0.0276884623
1.0169640779,0.0008605737,0.0148408134,-0.0154901128,-0.1229071394,0.0308971759,0.0233672727
1.0270910263,0.0002610702,0.0102607924,-0.0111286622,-0.0711006671,0.0243143737,0.0128408615
1.0368729830,-0.0028017145,-0.0002222939,-0.0008096084,-0.0458788276,0.0198280551,0.0108843446
1.0467480421,-0.0046602767,-0.0166760962,0.0026606934,-0.0575309545,0.0261109862,0.0121677211
1.0568370819,-0.0058668535,-0.0340469778,0.0096145291,-0.0694705993,0.0271136872,-0.0013071018
1.0670050383,-0.0073280912,-0.0332377255,0.0036182418,-0.0543033630,0.0255967509,-0.0007872527
1.0769740343,-0.0045138877,-0.0073107765,-0.0047190771,-0.0239555277,0.0294127744,0.0085656885
1.0867170095,-0.0002638381,-0.0070002363,0.0025033965,0.0185061805,0.0234632716,-0.0044121612
1.0967210531,-0.0009208602,-0.0106619876,-0.0049502836,0.0454388335,0.0161555130,-0.0104984427
1.1067650318,-0.0072367769,0.0000026540,-0.0010691866,0.0578978993,0.0150604211,-0.0097125443
1.1166120768,-0.0043255668,0.0044320538,-0.0020867570,0.0664634258,0.0082627246,-0.0081563257
1.1266089678,-0.0022222083,-0.0138802808,-0.0027487858,0.0500620827,-0.0028759465,-0.0209501516
1.1366050243,-0.0116876047,-0.0175289195,-0.0089842658,0.0055185822,0.0113597596,-0.0086335642
1.1468670368,-0.0160900038,-0.0237661880,-0.0047303424,-0.0547815114,0.0127653759,-0.0182595588
1.1565880775,-0.0135351401,-0.0310372990,-0.0019850121,-0.0845010057,0.0109580215,-0.0242010206
1.1664720774,-0.0131294709,-0.0165842455,-0.0094613414,-0.0767810345,0.0116035724,-0.0227991324
1.1766370535,-0.0183909219,-0.0029173179,-0.0007958993,-0.0337743349,0.0120512936,-0.0288039185
1.1864490509,-0.0080153029,0.0158363301,-0.0000950083,0.0054391134,-0.0082896641,-0.0160564333
1.1964390278,-0.0013858955,0.0194090325,-0.0012595638,0.0410650186,-0.0178854987,-0.0177548639
1.2063620090,-0.0106722694,0.0039039569,0.0044127717,0.0387978703,-0.0065060789,-0.0204252172
1.2165780067,-0.0105742496,0.0019022541,0.0109984893,0.0351997241,0.0038289167,-0.0120336749
1.2263450623,-0.0048512202,-0.0161267202,0.0210091490,0.0300853923,0.0056680958,-0.0195091683
1.2362719774,-0.0002832991,-0.0208411496,0.0200485606,0.0249360632,0.0032781751,-0.0146423485
1.2462580204,-0.0087606292,-0.0014263673,0.0107656140,-0.0029847845,0.0159364454,-0.0028192445
1.2561990023,-0.0029104631,0.0028622465,0.0131275672,-0.0361625515,0.0082252407,-0.0050517456
1.2662000656,0.0042566974,-0.0033833666,0.0092985649,-0.0242347866,0.0079860892,-0.0127791734
1.2759519815,0.0031801779,0.0049719526,0.0003863588,-0.0008112192,0.0036528595,-0.0105543686
1.2862000465,0.0019744951,0.0122551043,-0.0029796348,0.0143403038,0.0034083812,-0.0029816704
1.2960959673,0.0067975838,0.0043447926,-0.0085721593,0.0200884156,0.0010912315,-0.0100344410
1.3061239719,0.0069858748,-0.0031447692,-0.0171455722,0.0226796716,0.0028273463,-0.0110546974
1.3160229921,-0.0001653415,0.0009516196,-0.0200018864,0.0192332752,0.0119271455,-0.0112539018
1.3260509968,-0.0012180787,0.0082905609,-0.0208136421,0.0083446763,0.0156353321,-0.0050825588
1.3359479904,0.0042854566,0.0097912867,-0.0183934551,0.0104900654,0.0133389095,-0.0099565955
1.3459130526,0.0050369222,0.0048781945,-0.0100367051,-0.0036941962,0.0109804142,-0.0088718906
1.3560950756,0.0037942547,0.0040681078,0.0048387661,-0.0308980681,0.0012062135,-0.0106220664
1.3658699989,0.0013653059,0.0008161978,0.0171554107,-0.0285656713,0.0001553301,-0.0205404777
1.3759200573,-0.0020303708,0.0094042141,0.0063269152,-0.0018434608,0.0044221804,-0.0132498872
1.3858100176,-0.0069121402,0.0157121141,0.0081440229,0.0130984709,0.0152718993,-0.0085195806
1.3957680464,-0.0035684090,0.0102631170,0.0142465252,0.0157481581,0.0115939174,-0.0034180563
1.4057500362,0.0017434973,0.0006625371,0.0162987728,0.0143342856,0.0071384492,-0.0081182690
1.4157110453,-0.0027932506,0.0000107603,0.0038588657,0.0180143993,0.0146245062,-0.0041300259
1.4256429672,-0.0051472168,0.0070578768,-0.0016716107,0.0126305539,0.0150532750,0.0012309176
1.4356690645,0.0025220532,0.0117078740,-0.0115208607,-0.0115331067,0.0173978992,0.0170044210
1.4456280470,0.0066015143,-0.0065586851,-0.0044570551,-0.0517633483,0.0140785361,0.0062031727
1.4555870295,0.0018954296,-0.0219484251,0.0019752397,-0.0632482320,0.0110976603,-0.0034590424
1.4655569792,-0.0020290297,0.0084613878,-0.0098201018,-0.0451653674,0.0112569174,0.0070396713
1.4755220413,-0.0025943797,0.0270082075,-0.0146244746,-0.0097765373,0.0068350267,0.0126401130
1.4856610298,-0.0026134234,0.0207457263,-0.0094471555,0.0110810734,0.0055809440,0.0165437739
1.4954670668,-0.0056250673,0.0086856801,0.0009682790,0.0067313332,0.0063541261,0.0109382197
1.5055400133,-0.0029254239,0.0041739657,0.0068073287,-0.0072518596,0.0084843887,0.0133473147
1.5154249668,0.0003528017,0.0001464204,0.0052434220,-0.0209738519,0.0052553499,0.0180898178
1.5253629684,-0.0027363878,-0.0031244440,0.0052433028,-0.0515480042,0.0113957999,0.0201276690
1.5353679657,-0.0103120189,0.0029698329,0.0040159239,-0.0760673583,0.0147176730,0.0254225396
1.5454020500,-0.0114720147,-0.0030657335,0.0032451169,-0.0584723875,0.0154622933,0.0207715947
1.5553070307,-0.0064107757,0.0010760145,0.0011538282,-0.0184803866,0.0104675554,0.0220211241
1.5653240681,0.0000762362,0.0140422303,-0.0061675296,0.0216491893,0.0106222853,0.0273509081
1.5751640797,-0.0015463214,0.0119499881,-0.0038104043,0.0340659134,0.0044325446,0.0223807842
1.5852910280,-0.0011837464,-0.0006730838,0.0007834450,0.0268894918,0.0110957734,0.0161670968
1.5951900482,-0.0001150649,-0.0036008640,0.0037518754,0.0135581326,0.0054543773,0.0202817079
1.6051599979,-0.0012617689,0.0016323046,-0.0026748166,-0.0076065399,0.0152481524,0.0255307984
1.6152449846,-0.0029974263,-0.0061940835,0.0000332013,-0.0329830572,0.0162479915,0.0168464426
1.6251549721,0.0031275470,-0.0128984135,0.0046123280,-0.0258801393,0.0102329757,0.0115526114
1.6353610754,-0.0011294167,0.0028844790,-0.0033848865,0.0097346855,0.0119134970,0.0100247283
1.6450520754,-0.0007876736,0.0127843935,-0.0032675846,0.0378342308,0.0069379131,0.0144570274
1.6550129652,0.0009978432,0.0031708197,-0.0005391225,0.0454885811,0.0082604392,0.0015818689
1.6649750471,-0.0028092843,-0.0071335719,0.0023984327,0.0365358330,0.0076306015,-0.0033811980
1.6749399900,-0.0013176184,-0.0040185140,0.0060300841,0.0302399602,0.0138006574,-0.0018566982
1.6849169731,0.0044739265,-0.0058536218,0.0096209068,0.0075620785,0.0005194732,0.0005020635
1.6948920488,0.0007326919,-0.0095284265,0.0057241931,-0.0277110115,0.0052581024,-0.0001647119
1.7050490379,-0.0044534486,-0.0045408891,-0.0049864040,-0.0777014717,0.0228791721,0.0158283692
1.7148140669,-0.0007799548,-0.0131290834,0.0104198474,-0.1343911141,0.0135583542,0.0101732798
1.7248259783,0.0029340703,-0.0182502549,0.0032775416,-0.1736061573,0.0167885013,0.0120103285
1.7348030806,-0.0077044945,-0.0079622548,0.0060223355,-0.1470703781,0.0194207262,0.0080811530
1.7447410822,-0.0095059853,0.0098343808,-0.0004974589,-0.0818881765,0.0144587252,0.0128021389
1.7547160387,0.0000411886,0.0232371408,-0.0018388614,-0.0332567208,0.0038142914,0.0236084480
1.7646620274,-0.0045608860,0.0041441037,0.0059130206,-0.0151022216,0.0071552270,0.0136599429
1.7748939991,-0.0043017250,-0.0090583842,0.0029712336,-0.0210923105,0.0111861210,0.0103376769
1.7846800089,0.0013030786,-0.0055263923,-0.0035299645,-0.0232406817,0.0119493827,0.0059956592
1.7946059704,-0.0009395462,-0.0026318117,-0.0059981928,-0.0214776695,0.0234865304,0.0090893200
1.8045240641,0.0050945897,-0.0016524477,-0.0035353885,-0.0337268785,0.0184379760,0.0028750999
1.8145949841,0.0030407626,0.0002537088,-0.0047103153,-0.0378621817,0.0254472606,0.0034422735
1.8245110512,-0.0020349305,0.0052895262,0.0007237211,-0.0492796861,0.0196357109,-0.0015748558
1.8344750404,0.0003416855,0.0083068330,0.0088608880,-0.0234069135,0.0140837729,-0.0050445287
1.8446730375,-0.0000557881,0.0136215407,-0.0050180540,0.0167543534,0.0121697597,-0.0038005661
1.8544250727,-0.0047634225,0.0181032140,-0.0080668312,0.0480097458,0.0186302997,-0.0019732381
1.8643940687,-0.0059494656,0.0111808497,-0.0068671093,0.0694601759,0.0133729530,-0.0026789759
1.8743619919,-0.0026934724,-0.0044389055,-0.0062285052,0.0672921985,0.0071526971,-0.0024525006
1.8843300343,-0.0032557528,-0.0191984456,-0.0110234004,0.0409223810,0.0135123255,-0.0035230911
1.8943010569,-0.0011736732,-0.0190807860,-0.0047341571,0.0307064932,0.0090666665,-0.0122662494
1.9042769670,0.0021306891,-0.0093932431,-0.0036252127,0.0416707247,-0.0010853035,-0.0150258169
1.9144580364,-0.0034828763,0.0028907375,0.0044516935,0.0596630983,0.0022403635,-0.0142947258
1.9241989851,-0.0041882377,0.0058633997,0.0012930051,0.0654794425,-0.0047712075,-0.0094797304
1.9342460632,-0.0024943333,0.0017381625,0.0022710576,0.0626299083,-0.0005496307,-0.0107994061
1.9442380667,-0.0065613966,0.0081463773,0.0145867486,0.0416641757,0.0042515160,-0.0029161838
1.9541070461,-0.0003774148,0.0048942282,0.0132824201,0.0172094330,-0.0031864487,0.0005396674
1.9641010761,-0.0061615687,-0.0042741583,0.0076952591,0.0086079566,0.0047814627,-0.0008052289
1.9740660191,-0.0100480895,0.0013132410,0.0054749860,0.0060299090,0.0072570266,0.0112384111
1.9842360020,-0.0050984006,-0.0006401821,0.0076861396,0.0051968722,0.0020803739,0.0138850603
1.9940479994,-0.0024699848,-0.0089007895,0.0062710657,-0.0058400128,0.0043236436,0.0128230443
2.0040030479,-0.0018493813,-0.0099867862,0.0043720021,-0.0105178542,0.0008460875,0.0087982090
2.0139741898,-0.0021736305,-0.0055539892,0.0056739463,0.0022399118,0.0006416013,0.0023844126
2.0239219666,0.0019720215,-0.0018745943,-0.0027474149,0.0169794429,-0.0035358332,0.0062843459
2.0338768959,0.0002226252,0.0010971145,-0.0018869623,0.0132410573,0.0078099654,0.0068401736
2.0439548492,-0.0026918631,-0.0003456159,0.0036337986,-0.0015575960,0.0112030990,0.0020954860
2.0543880463,0.0009483117,-0.0044842050,0.0018903032,-0.0202035606,0.0109076658,0.0012607450
2.0638031960,0.0001282114,0.0044346764,-0.0002149328,-0.0229854956,0.0155918999,0.0048408322
2.0737729073,0.0030520577,0.0087444503,-0.0044413195,-0.0043689888,0.0103194844,0.0061221593
2.0837190151,0.0036861915,0.0082093794,-0.0046825991,0.0035856063,0.0130889053,0.0090068951
2.0936930180,-0.0012391191,0.0050360276,-0.0027700646,0.0073202113,0.0120812980,0.0073185042
2.1036901474,0.0015354175,-0.0023551269,0.0027542724,-0.0047449740,0.0034023225,0.0022166865
2.1136469841,0.0051495451,0.0015369968,-0.0000813588,0.0089700390,0.0007469293,0.0015831207
2.1236860752,0.0022273380,0.0033061223,-0.0084674340,0.0213758424,0.0020883635,0.0003282392
2.1335940361,0.0002681631,0.0006446557,-0.0007458910,0.0168515574,0.0052438984,0.0033231233
2.1435830593,0.0002123136,-0.0034930392,-0.0043324814,0.0164664648,0.0091219936,-0.0011861409
2.1535260677,-0.0038303714,-0.0083532613,-0.0034831748,0.0097581754,0.0120255277,-0.0055613685
2.1635031700,-0.0012755375,-0.0041064308,0.0012947336,0.0030683149,0.0144910822,0.0022331714
2.1734750271,-0.0010058265,-0.0012615009,0.0105456728,-0.0025781738,0.0093038213,0.0020863779
2.1834678650,-0.0007491690,0.0026641206,0.0140722413,0.0010722214,0.0042832298,0.0006804953
2.1934139729,-0.0045166593,0.0036590414,0.0055048480,0.0045493520,0.0077152452,0.0041504344
2.2033870220,-0.0031133574,0.0021974163,0.0131473560,0.0066122366,0.0058702077,0.0086554382
2.2133200169,-0.0002302807,-0.0079817455,0.0096390862,0.0071271313,0.0027003358,0.0038189776
2.2233901024,-0.0055924635,-0.0071857260,0.0057113185,0.0079969196,0.0091819372,0.0004554051
2.2332549095,-0.0037966054,-0.0005296750,0.0078618545,0.0110311667,-0.0002599233,0.0067010238
2.2432918549,0.0024749953,-0.0028774424,0.0102467556,0.0128447795,-0.0030959235,0.0049270922
2.2532210350,-0.0003145319,-0.0083323997,0.0075043454,-0.0046693403,0.0011235448,0.0047325748
2.2632009983,-0.0016298275,-0.0081727188,0.0014622227,-0.0233415626,0.0026245022,0.0006997501
2.2731740475,-0.0004772824,-0.0023561998,-0.0009634480,-0.0117173959,0.0087012807,-0.0046088621
2.2831599712,0.0025981087,0.0058795526,0.0011214629,-0.0098550469,0.0040460755,0.0025023106
2.2931108475,0.0026277620,0.0066452338,0.0076474561,-0.0273068994,-0.0003494497,0.0046450635
2.3031458855,-0.0017791968,-0.0080052894,0.0108038802,-0.0299804471,-0.0026448281,0.0005959932
2.3130569458,-0.0017081480,-0.0011168404,0.0017813459,-0.0165941231,-0.0059084431,0.0020761248
2.3230209351,-0.0043368023,0.0102068502,-0.0087671261,0.0156346522,0.0036112920,0.0055163964
2.3329858780,-0.0017830413,0.0068914606,-0.0019572957,0.0233620815,-0.0044629015,0.0040129088
2.3429780006,0.0008721966,-0.0081925672,0.0046795025,0.0178690441,-0.0083812103,-0.0033043926
2.3529210091,-0.0059255045,-0.0100143831,0.0035920157,0.0054412978,-0.0008437103,-0.0059455559
2.3629109859,-0.0039556306,-0.0004523082,-0.0005748257,0.0068743448,-0.0011744748,-0.0008117803
2.3729000092,-0.0012297612,0.0016280727,0.0016809121,0.0133019369,-0.0039986460,-0.0007162527
2.3828349113,-0.0032988172,-0.0003840609,-0.0036206229,0.0147427069,-0.0004340051,-0.0016187979
2.3929820061,-0.0046306830,0.0034058408,-0.0056353197,0.0068618278,0.0074871681,-0.0002694275
2.4029300213,0.0001711566,0.0101065356,-0.0045406208,0.0119977342,0.0026066592,0.0031498051
2.4127049446,0.0032739062,0.0002587156,0.0024065985,0.0043775779,-0.0005548684,0.0002399819
2.4225270748,-0.0020114463,-0.0057431147,0.0036504879,-0.0157625787,0.0038971382,0.0030850368
2.4326949120,-0.0069273096,0.0000251250,-0.0025624020,-0.0036008805,0.0103766760,0.0028101720
2.4427571297,-0.0062491279,0.0069671585,0.0007446423,0.0203475952,0.0048186583,0.0016253318
2.4527449608,-0.0030812602,0.0096965749,0.0050500645,0.0268595573,-0.0027963845,0.0073569869
2.4628190994,-0.0042192619,0.0053000166,0.0044105067,0.0202256218,0.0056045572,0.0046442915
2.4728419781,-0.0041129570,-0.0038079305,0.0013328806,0.0080584921,0.0034867672,0.0064180098
2.4825601578,0.0046887714,-0.0043986128,-0.0042832480,0.0096803568,-0.0022962871,0.0039924025
2.4925589561,-0.0021986943,-0.0025419875,-0.0066174851,-0.0054060239,0.0056336299,0.0060269511
2.5025010109,-0.0035482030,-0.0031826182,-0.0006499275,-0.0311713088,0.0073447106,0.0076845028
2.5126581192,-0.0046197157,-0.0121157449,0.0090083499,-0.0468983389,0.0046653496,-0.0025273887
2.5224630833,-0.0064123850,-0.0011743589,0.0054900064,-0.0335974507,0.0061122449,0.0018194229
2.5326089859,-0.0049804728,0.0132981855,0.0008195654,-0.0063040946,0.0071366075,0.0068936236
2.5423960686,0.0012901444,0.0168032367,0.0023073570,0.0112290923,-0.0021658144,0.0123323305
2.5523471832,0.0024576206,0.0075053885,0.0027368083,0.0148479016,-0.0035770009,0.0090491595
2.5623588562,-0.0036497694,-0.0046459720,-0.0035161362,0.0078911921,0.0066964091,0.0044466844
2.5722918510,-0.0066431742,0.0000180320,-0.0114167910,-0.0091952765,0.0099614877,0.0100785783
2.5823240280,-0.0024004560,-0.0026161356,-0.0146508794,-0.0330135226,0.0214309245,0.0194963142
2.5922379494,-0.0021397155,-0.0227275174,0.0096962471,-0.0676548555,0.0167089403,0.0025142680
2.6024379730,-0.0007470232,-0.0175466221,0.0027744784,-0.0736802593,0.0168298464,0.0071905130
2.6121659279,-0.0070891958,0.0128624160,-0.0064463601,-0.0227820314,0.0138962874,0.0080910875
2.6221530437,0.0000602025,0.0239726622,-0.0107541662,0.0287184436,0.0081196241,0.0145596396
2.6320869923,0.0041759331,0.0207947809,-0.0056081400,0.0480789877,0.0005806370,0.0171714276
2.6420879364,-0.0040887576,-0.0014411493,0.0015699879,0.0341570452,0.0073242937,0.0037022245
2.6520810127,-0.0057015400,-0.0084361117,0.0066081299,0.0061571556,0.0095777493,0.0047948393
2.6620559692,-0.0037667137,-0.0013200326,-0.0015063867,-0.0144099053,0.0184021331,0.0149406837
2.6721889973,-0.0028218608,0.0011229829,-0.0083308797,-0.0331042856,0.0202159248,0.0173281543
2.6819980145,-0.0017568152,-0.0039338158,-0.0002451524,-0.0363416225,0.0139939804,0.0093045831
2.6919159889,-0.0016119163,0.0020396428,-0.0006366357,-0.0373342894,0.0158626325,0.0147213470
2.7019860744,-0.0003067535,0.0050775125,0.0009198800,-0.0448246971,0.0119579053,0.0131096011
2.7119669914,-0.0013141911,-0.0044989274,0.0015555635,-0.0198316202,0.0100659952,0.0056997286
2.7218399048,0.0005181152,-0.0037215634,0.0019520536,0.0006057434,0.0036898553,0.0088965874
2.7318649292,0.0015186388,0.0114263613,0.0055217757,0.0191347394,0.0026405035,0.0155360335
2.7419738770,-0.0006951672,0.0045169904,0.0040093078,0.0149162924,0.0010926742,0.0151360268
2.7518329620,0.0023669321,-0.0043126629,0.0002065316,0.0153481495,0.0026870642,0.0146674709
2.7617268562,0.0007765609,-0.0087230485,-0.0009655937,0.0174211543,0.0090293828,0.0095504727
2.7717640400,-0.0017058831,0.0024524049,-0.0080787521,0.0095577454,0.0169134047,0.0241244622
2.7816910744,0.0044418592,-0.0023471995,-0.0013946876,-0.0156719778,0.0103196837,0.0183392782
2.7916340828,0.0060835499,-0.0148256104,0.0179880876,-0.0194872227,0.0039664246,0.0048787291
2.8016829491,-0.0036000591,0.0018993930,0.0104250927,0.0004822249,0.0050106505,0.0091608260
2.8117830753,-0.0048727971,0.0232341606,0.0020353808,0.0391954258,0.0053219735,0.0164756235
2.8215570450,-0.0023798924,0.0102284867,-0.0042063580,0.0479327254,0.0003964572,0.0141485538
2.8315591812,-0.0095660370,-0.0123207849,0.0006837860,0.0314883962,0.0084055811,0.0006932254
2.8414969444,-0.0114747267,-0.0158986133,0.0000031606,0.0129472036,0.0116312020,-0.0004380854
2.8515360355,-0.0035133343,-0.0049134181,0.0011832729,0.0095477859,0.0018844318,0.0089286249
2.8614420891,0.0045814831,0.0037104802,0.0036087646,0.0169204809,-0.0080339788,0.0134461448
2.8714718819,-0.0032478552,0.0003387050,0.0019665970,0.0251109265,-0.0054838024,0.0047839740
2.8815720081,-0.0113592129,0.0059268191,-0.0059307800,0.0191206783,-0.0018405982,0.0127601419
2.8913779259,-0.0093967598,0.0040827109,-0.0123467427,0.0036250222,0.0092621865,0.0108222384
2.9013161659,-0.0042354744,-0.0159414094,0.0141391773,-0.0210472997,-0.0018690273,-0.0051604556
2.9112901688,0.0043793935,-0.0080394428,0.0122075099,-0.0064106220,-0.0067057940,-0.0090395361
2.9213180542,0.0063018817,0.0194964129,-0.0014854654,0.0317301080,-0.0125381164,-0.0095127802
2.9312250614,0.0050217528,0.0291356761,-0.0086007100,0.0674604028,-0.0107534882,-0.0085817389
2.9412269592,0.0040025730,0.0174613912,-0.0128657799,0.0720266625,-0.0050620465,-0.0063726469
2.9513721466,0.0009347516,-0.0025201722,-0.0118252020,0.0505784154,0.0079417471,-0.0128335552
2.9612078667,0.0016610939,-0.0081502479,-0.0124785881,0.0260799974,0.0141993770,-0.0106910430
2.9712650776,0.0060364921,0.0021926479,-0.0088217836,0.0166753102,0.0165872108,-0.0059479526
2.9814050198,0.0051588733,0.0020741539,0.0024757995,0.0179395117,0.0094320960,-0.0040733535
2.9913558960,0.0012322087,0.0127747972,0.0027374043,0.0299235769,0.0093535557,0.0108507080
3.0010859966,-0.0005171281,0.0184563715,-0.0034377561,0.0482011177,0.0122526726,0.0183027666
3.0110111237,-0.0007460695,0.0075016930,0.0026504414,0.0439534858,0.0101981098,0.0247774143
3.0212540627,0.0012961049,0.0005631165,0.0031749622,0.0444847867,0.0019433765,0.0273723993
3.0309469700,-0.0045942646,-0.0048612044,-0.0035495744,0.0479923785,0.0100234514,0.0278740879
3.0409510136,-0.0066889506,-0.0025620742,-0.0029885755,0.0607598387,0.0100948242,0.0327679105
3.0508899689,-0.0046068411,-0.0060209916,0.0027046220,0.0602168217,0.0033119973,0.0365097858
3.0608558655,-0.0035322290,-0.0073583410,0.0062983050,0.0474842489,0.0007878533,0.0357683636
3.0708270073,-0.0051148515,-0.0025193973,-0.0010420069,0.0390975811,0.0090418328,0.0450267345
3.0808329582,-0.0006453377,0.0000287013,0.0003796831,0.0186282583,0.0066409931,0.0437846370
3.0907900333,0.0031317491,-0.0062054680,0.0074242963,0.0062828031,0.0018864294,0.0315445065
3.1007671356,-0.0002082568,0.0027349906,0.0008310095,0.0052505620,0.0082678953,0.0292704348
3.1107149124,-0.0049052816,0.0191749055,-0.0024316295,0.0153312124,0.0108022932,0.0378850177
3.1207561493,-0.0032696109,0.0130670387,0.0048004999,0.0110043753,0.0102137346,0.0429394320
3.1306500435,-0.0037851911,-0.0043152855,0.0114331264,-0.0028999364,0.0056095286,0.0389138497
3.1406919956,-0.0068363529,-0.0132838767,0.0029693262,-0.0101927361,0.0126685034,0.0349321552
3.1505930424,-0.0012755971,-0.0065045641,-0.0051308856,0.0062409383,0.0117822923,0.0350608900
3.1608350277,0.0020754952,-0.0046868608,-0.0036935792,0.0212688893,0.0096086189,0.0299478900
3.1705341339,-0.0026654582,-0.0103392880,0.0005021706,0.0157894902,0.0086609339,0.0217701737
3.1805491447,-0.0068255048,-0.0123507064,0.0027715580,0.0085028149,0.0205229204,0.0133473948
3.1904480457,-0.0002010446,-0.0051121996,0.0072574629,0.0209302958,0.0128011284,0.0167899039
3.2004880905,0.0044206101,-0.0008287712,0.0054935827,0.0355225541,0.0110999011,0.0109237581
3.2104010582,-0.0006820541,-0.0013995452,0.0016135589,0.0502919666,0.0184037760,0.0040750937
3.2204298973,0.0009207446,-0.0049403594,-0.0033311232,0.0671620220,0.0174298584,0.0024726696
3.2305309772,0.0016924758,-0.0069468305,-0.0014317021,0.0698587447,0.0152323954,-0.0075788996
3.2403669357,-0.0018749814,-0.0079288762,-0.0017233476,0.0227197260,0.0233238768,0.0053291759
3.2502660751,-0.0026145261,-0.0240504425,0.0179982204,-0.0572575033,0.0111833690,-0.0043938654
3.2602620125,-0.0022418182,-0.0319446027,0.0159464497,-0.0603265315,0.0149429534,-0.0142467618
3.2702288628,-0.0013576727,-0.0070797489,-0.0104061347,-0.0182750039,0.0145778786,-0.0053273560
3.2802739143,-0.0046388786,0.0086904485,-0.0067386613,0.0162486173,0.0121805007,0.0024155183
3.2902011871,-0.0073741060,0.0001052336,0.0026839389,0.0195147190,0.0097727366,-0.0040655504
3.3004159927,-0.0052985232,-0.0077357576,0.0065569296,0.0081147915,0.0102353273,-0.0044487794
3.3101119995,-0.0040239673,-0.0171091836,0.0020607726,0.0124057299,0.0135673862,-0.0134704504
3.3201520443,-0.0045160931,-0.0039844201,0.0101860184,0.0140819233,0.0145807192,-0.0125479316
3.3300650120,-0.0030064266,0.0045915558,0.0145437140,0.0141149471,0.0056040469,-0.0076394593
3.3401010036,-0.0050573330,-0.0003831072,0.0041819229,0.0065465095,0.0094973221,-0.0161682311
3.3499929905,0.0017956514,0.0053395345,-0.0066126571,0.0056865220,0.0098082460,-0.0105620660
3.3600430489,0.0015059430,0.0047778203,0.0080526490,-0.0062955720,0.0158767924,-0.0116939088
3.3701481819,0.0006866175,-0.0031423254,0.0245170612,-0.0227472484,0.0047292649,-0.0082076974
3.3799760342,-0.0047619622,-0.0030511899,0.0164614934,-0.0288464203,0.0048059640,-0.0020659161
3.3898890018,-0.0095957499,-0.0035091324,0.0033478751,-0.0148730278,0.0098986821,-0.0018067372
3.3999149799,0.0012325365,-0.0101522487,-0.0003780111,-0.0051839165,0.0064927656,-0.0040224870
3.4098150730,0.0086506624,-0.0097103398,0.0042151823,0.0108307898,-0.0001863755,-0.0089709861
3.4197959900,0.0045557041,-0.0051659034,-0.0005080685,0.0261218622,-0.0020359410,-0.0105217453
3.4298269749,-0.0013070386,0.0000579671,0.0009532586,0.0388817042,-0.0011502847,-0.0071605965
3.4397411346,0.0006667990,0.0043370440,-0.0008805975,0.0448751487,-0.0056369118,-0.0066663139
3.4497699738,-0.0003032666,0.0018272118,0.0032082214,0.0400897674,-0.0078474693,-0.0118490383
3.4596509933,0.0005133766,0.0014694051,0.0034335868,0.0263446625,-0.0082418835,-0.0057093869
3.4697098732,-0.0012553018,0.0034466700,0.0050014867,0.0120419422,-0.0100977067,0.0019752178
3.4796171188,-0.0018660706,0.0031956749,0.0051611676,-0.0066214912,-0.0063458458,0.0015062352
3.4896578789,-0.0008398574,0.0067408397,0.0010660306,-0.0060427859,-0.0027969170,0.0033222446
3.4995598793,0.0005752760,0.0071692183,-0.0025242551,-0.0026728213,-0.0049191904,-0.0026877108
3.5095901489,0.0012823362,0.0078261811,0.0017610207,0.0070876107,-0.0069390866,-0.0044485135
3.5194911957,-0.0025228541,0.0074543669,-0.0014013633,0.0100626275,-0.0041422350,-0.0056227008
3.5295381546,-0.0024586301,0.0001631693,0.0033316626,0.0111914352,-0.0082600592,-0.0080249794
3.5394339561,0.0023225863,-0.0014161749,0.0035070195,0.0164189544,-0.0119796963,-0.0033125153
3.5494019985,-0.0018166881,-0.0033882542,0.0043840422,0.0164042003,-0.0104862843,-0.0014926174
3.5593838692,-0.0059495252,-0.0010337515,0.0008402482,0.0125772376,-0.0063698357,0.0029450078
3.5695729256,-0.0033188444,-0.0070156143,-0.0018148407,0.0038222019,-0.0015222393,0.0036312777
3.5793218613,0.0011716504,-0.0075595067,-0.0061179386,-0.0023869583,-0.0027219933,0.0038842780
3.5893590450,0.0036043245,-0.0012744351,-0.0072287307,0.0045447177,0.0016120351,0.0029822653
3.5992679596,0.0009312052,0.0033950524,-0.0032717572,0.0149560794,0.0027183122,-0.0025800129
3.6093091965,0.0032393951,0.0027075724,-0.0004630670,0.0187319629,0.0015389754,-0.0091084326
3.6192040443,0.0038777012,0.0066303923,-0.0010231122,0.0229030065,-0.0029346026,-0.0102517279
3.6292071342,0.0016578455,0.0124306399,0.0022686734,0.0366703235,-0.0055897743,-0.0096942214
3.6393561363,-0.0028693061,0.0155474860,-0.0043677078,0.0343578979,0.0014063499,-0.0000146962
3.6491889954,-0.0062462967,-0.0011533184,0.0071194782,0.0067890170,0.0051277848,-0.0026618517
3.6590590477,-0.0098657291,-0.0166058224,0.0101692099,-0.0218066759,0.0058425772,-0.0078933658
3.6690909863,-0.0110990684,-0.0074240253,0.0016418115,-0.0201096013,0.0173251517,-0.0049792281
3.6790299416,-0.0072510224,-0.0016232415,-0.0042890892,-0.0003611976,0.0144699756,-0.0043927999
3.6890711784,0.0060861725,-0.0000733419,-0.0067837820,0.0147521887,-0.0034868310,-0.0057891486
3.6989679337,0.0035729427,-0.0014432354,-0.0098752957,0.0316400900,-0.0016489836,-0.0103143919
3.7092130184,-0.0063538831,-0.0013656898,-0.0009108767,0.0282025896,-0.0029029774,-0.0087621957
3.7188868523,-0.0054534357,-0.0022520705,-0.0064824806,0.0072400500,0.0035456009,0.0006531448
3.7304220200,-0.0045982581,-0.0128980558,0.0024740710,-0.0192516912,0.0093458099,-0.0026449938
3.7398481369,-0.0020105820,-0.0159033816,0.0180070419,-0.0314172767,0.0030405102,-0.0077223107
3.7492871284,-0.0022415500,0.0083023030,0.0089486260,-0.0140037201,0.0000105432,0.0001712458
3.7592580318,-0.0083239060,0.0207189042,0.0015661732,-0.0066496674,0.0066284984,0.0080536697
3.7691709995,-0.0053199809,0.0104727466,0.0096359272,-0.0205228738,0.0063310233,0.0087455595
3.7793531418,0.0016324837,-0.0119797867,0.0226352829,-0.0418654457,-0.0009380748,-0.0002804263
3.7918190956,0.0048780162,-0.0127793830,0.0101603884,-0.0458709970,-0.0075810417,-0.0027758349
3.7999958992,0.0002232212,0.0040067150,-0.0033808930,-0.0196013115,-0.0040781861,-0.0006405125
3.8087239265,-0.0000488740,0.0121795852,-0.0110776406,0.0118717132,-0.0124075999,0.0039328542
3.8187351227,0.0058193523,-0.0005487485,-0.0111343842,0.0096583599,-0.0169679951,0.0015826146
3.8286790848,-0.0001315456,-0.0133391302,-0.0073117004,-0.0135468272,-0.0042743059,-0.0016187713
3.8385050297,0.0018689651,-0.0122425836,-0.0049706087,-0.0296299234,-0.0051126685,-0.0072175348
3.8486609459,0.0041188616,0.0036446766,-0.0107310992,-0.0117372628,-0.0007492347,-0.0024426735
3.8584351540,0.0001688618,0.0179202873,-0.0038379417,0.0056435918,0.0014039311,0.0022636647
3.8682398796,0.0008103270,0.0160640199,0.0106144566,0.0079696495,-0.0039334879,0.0032879699
3.8784630299,0.0075096507,0.0082133133,0.0075312271,0.0129883764,-0.0064613600,-0.0021954789
3.8882899284,0.0062725563,0.0069510653,-0.0011095389,0.0143864285,-0.0051185498,0.0000523887
3.8982739449,0.0049094576,0.0130532701,-0.0006830677,0.0260982122,-0.0020063799,-0.0060803387
3.9082310200,0.0045545716,0.0070487573,-0.0031052215,0.0420317985,-0.0047754012,-0.0093625244
3.9185471535,-0.0031003635,0.0035063939,-0.0044204579,0.0410088785,0.0032769323,-0.0083119078
3.9281148911,-0.0075034183,-0.0002795740,-0.0027884231,0.0222871229,0.0110475253,0.0001395009
3.9381129742,-0.0005401653,-0.0070845769,0.0004856006,-0.0014150105,0.0036876139,-0.0031697429
3.9481201172,0.0028375108,-0.0115129631,0.0029702799,0.0087290220,-0.0015817608,-0.0090680588
3.9580879211,-0.0039873105,0.0060272529,-0.0060707913,0.0243878774,0.0018103075,0.0019702110
3.9681849480,-0.0068334620,0.0168186743,-0.0031344877,0.0328002721,0.0054172482,0.0043763770
3.9783148766,-0.0042480808,0.0066842749,0.0011184231,0.0264070854,-0.0032321664,0.0068648350
3.9883718491,-0.0042205732,0.0010647492,0.0023163573,0.0185432509,0.0007631967,0.0087697404
3.9981360435,-0.0103380065,0.0053301766,-0.0001287445,0.0099353818,0.0048737857,0.0147876861
4.0080871582,-0.0068452638,0.0056753471,-0.0025825484,0.0016519381,0.0027108775,0.0240817722
4.0180621147,-0.0060079079,-0.0035789891,0.0048275008,0.0007571159,-0.0012825327,0.0199504104
4.0280289650,-0.0047439616,-0.0054678009,-0.0001462683,-0.0046412172,-0.0065848865,0.0249964613
4.0379528999,-0.0042792242,0.0073752715,-0.0150117856,0.0044169929,0.0040978515,0.0289917346
4.0479722023,-0.0051439386,0.0054822876,-0.0152860861,0.0085117090,0.0148411766,0.0224154312
4.0581240654,-0.0001448673,-0.0068579600,0.0004100815,-0.0072765760,0.0091979383,0.0168536846
4.0679130554,-0.0010327678,-0.0085462015,0.0093038101,-0.0302585363,0.0167648662,0.0087886220
4.0778827667,0.0002024788,0.0056164577,0.0070155277,-0.0227311105,0.0156047940,0.0095923636
4.0878539085,0.0083823819,0.0192819554,-0.0027629719,0.0015065297,0.0098801516,0.0112155080
4.0978250504,0.0045993943,0.0162799079,-0.0034126623,0.0092217075,0.0138634415,0.0141580347
4.1078062057,0.0023930985,0.0009960847,-0.0020417555,-0.0004858868,0.0146181360,0.0048696212
4.1177668571,0.0001299995,-0.0042900131,-0.0102159362,-0.0010970822,0.0205497965,0.0062968088
4.1279182434,-0.0028053503,-0.0012722297,-0.0027367459,-0.0118885841,0.0251702908,0.0097031519
4.1375880241,-0.0015267711,-0.0041496442,0.0085126180,-0.0406725630,0.0251002498,0.0089334985
4.1476497650,-0.0001575333,-0.0036303683,0.0036396398,-0.0358339697,0.0124955308,0.0035329007
4.1577272415,-0.0008065086,0.0013976411,0.0039079203,-0.0068686306,0.0156971831,0.0057896636
4.1676940918,0.0045258421,0.0092270691,0.0095396657,-0.0022115614,0.0027504920,0.0125050899
4.1774759293,0.0022133607,0.0017774419,0.0163072962,-0.0112601835,0.0009467329,0.0032450131
4.1876358986,-0.0076360684,-0.0061077760,0.0113812704,-0.0118940687,0.0083802585,0.0048589683
4.1977481842,-0.0031354707,0.0058946325,0.0063378825,-0.0047464119,0.0036952263,0.0165925901
4.2074918747,0.0021955986,0.0048111989,0.0094589014,0.0132831354,-0.0036840383,0.0191180110
4.2174611092,0.0017268080,-0.0061977194,0.0076833381,0.0017106356,-0.0065037934,0.0179419592
4.2274217606,-0.0045217555,-0.0043013976,-0.0018432125,-0.0088891722,0.0021842371,0.0233490821
4.2373938560,-0.0066087227,0.0034205632,-0.0044377432,-0.0202038791,0.0023861048,0.0271419566
4.2473688126,-0.0040445309,-0.0088217538,0.0083462615,-0.0409262031,0.0032814818,0.0248182155
4.2573370934,-0.0044152122,-0.0147561114,0.0069399490,-0.0322203264,0.0029475214,0.0199446306
4.2674999237,-0.0040644389,-0.0015269800,0.0006148234,0.0001025647,0.0035537458,0.0237024575
4.2772817612,0.0048231203,0.0183297116,0.0032986416,0.0312431734,-0.0133083249,0.0250910297
4.2872638702,0.0075730998,0.0073156669,0.0061850562,0.0457676798,-0.0220228322,0.0166618843
4.2972378731,0.0008545536,0.0014297084,0.0001627222,0.0472808927,-0.0169835985,0.0128666144
4.3072147369,-0.0011709612,0.0042667701,-0.0109915715,0.0427604392,-0.0037885671,0.0162086152
4.3171849251,0.0030129571,-0.0074878619,0.0007448212,0.0111979861,-0.0090970462,0.0100428648
4.3271899223,-0.0002706927,-0.0171439331,0.0119344611,-0.0113774156,-0.0061158813,-0.0031202617
4.3371100426,-0.0061349850,0.0017923431,-0.0028185234,-0.0026837932,0.0008440235,0.0021189752
4.3470659256,0.0009819586,0.0188525636,-0.0103698950,0.0279583242,0.0031786838,0.0062101767
4.3570337296,0.0084516425,0.0089416821,-0.0041103349,0.0396583900,-0.0002024656,0.0021666992
4.3670101166,0.0062527675,-0.0082294624,0.0038702504,0.0254910663,-0.0009656164,-0.0038767860
4.3770451546,-0.0020158868,-0.0074488805,-0.0010931477,0.0262532625,0.0034078266,-0.0060147718
4.3869342804,-0.0079369526,-0.0014359041,-0.0013579711,0.0304113608,0.0105055058,0.0002765205
4.3969068527,-0.0037341099,-0.0045792148,0.0113644619,0.0236647762,0.0012704623,0.0038281120
4.4068570137,-0.0011639278,-0.0161173027,0.0153576154,0.0033358554,-0.0046399576,0.0060661528
4.4168591499,-0.0034602862,-0.0122737568,0.0031502857,-0.0139014544,0.0043878919,0.0099431826
4.4270849228,-0.0036546867,-0.0066672848,0.0060724630,-0.0301070549,0.0068402416,0.0098479744
4.4367718697,-0.0032979231,-0.0058694170,0.0121890325,-0.0290873311,0.0084682321,0.0096391831
4.4468307495,-0.0061520617,-0.0012911840,0.0122515578,-0.0230289605,0.0017376917,0.0085002286
4.4567661285,-0.0033934694,0.0042056157,0.0089296121,-0.0102473833,0.0000279424,0.0086171413
4.4667448997,-0.0057351273,0.0057352497,0.0076282634,-0.0069308961,-0.0095018027,0.0106109697
4.4766840935,-0.0033135992,0.0074031069,0.0073856725,-0.0016067047,-0.0150824562,0.0107830102
4.4866542816,-0.0027350169,-0.0004583283,-0.0019752369,-0.0022065556,-0.0129171060,0.0092613073
4.4966320992,-0.0030446034,-0.0089479368,-0.0060623870,-0.0101736682,-0.0123376027,0.0087371971
4.5066041946,0.0023981351,-0.0057409094,-0.0071356879,-0.0147341173,-0.0168811120,0.0097024059
4.5166029930,0.0036928076,-0.0018749519,-0.0119865518,-0.0103793163,-0.0129912980,0.0111104194
4.5265860558,0.0019264836,-0.0011239334,-0.0098305326,-0.0028852886,-0.0136707146,0.0089997575
4.5365839005,0.0059945006,0.0013121681,-0.0057621584,0.0177667253,-0.0162473228,0.0056063579
4.5464801788,0.0029100198,0.0083266217,-0.0018049463,0.0406848267,-0.0173607673,0.0043300381
4.5564370155,0.0000386256,0.0108582694,0.0005286947,0.0569234490,-0.0214362033,0.0063641607
4.5664567947,-0.0017480534,0.0015490965,0.0047969236,0.0582843237,-0.0197745692,0.0003291713
4.5764541626,-0.0029351395,-0.0011931940,0.0034664883,0.0623752065,-0.0194232985,0.0011121406
4.5863552094,-0.0062656384,0.0007749514,0.0015991345,0.0605437011,-0.0120168030,0.0033548684
4.5963649750,-0.0089125615,-0.0043342398,0.0099566001,0.0344220847,-0.0087336581,-0.0019722527
4.6063423157,-0.0049231034,-0.0098024290,0.0026292815,0.0295464210,-0.0082857590,-0.0061086211
4.6162590981,0.0007360894,-0.0006737395,-0.0081389528,0.0365444086,-0.0056044878,-0.0060186065
4.6262249947,0.0040360708,0.0028068142,-0.0020987971,0.0392077826,-0.0145403482,-0.0092966119
4.6361870766,-0.0013785940,0.0040445044,0.0006315723,0.0369784534,-0.0118279187,-0.0093378909
4.6461539268,-0.0092650037,0.0047910525,-0.0020537956,0.0291145630,-0.0032589310,-0.0094519807
4.6561269760,-0.0077542942,-0.0047123716,0.0031908168,0.0177556481,-0.0042696004,-0.0089678178
4.6661672592,-0.0010120254,-0.0074568079,0.0042738332,0.0059338757,-0.0037109139,-0.0073914928
4.6760702133,-0.0006068033,-0.0023841544,-0.0016980752,-0.0012864862,-0.0038379468,-0.0011429178
4.6860408783,0.0011297483,-0.0028363748,-0.0006729349,-0.0181792900,-0.0022396727,0.0028116368
4.6960310936,0.0024339575,-0.0067994283,0.0079380292,-0.0249972492,-0.0105311582,0.0012997603
4.7060279846,-0.0022719186,-0.0001681133,-0.0022422655,-0.0192777365,-0.0032430852,0.0063232547
4.7159371376,-0.0014680009,0.0034220533,-0.0045396076,-0.0047917385,-0.0007567581,0.0047101779
4.7259340286,0.0018170495,0.0010357813,0.0007635370,0.0008975184,-0.0041226386,0.0045319591
4.7359018326,0.0006853360,0.0001759843,0.0016350165,-0.0031859074,0.0016313872,0.0049306341
4.7458639145,-0.0052111726,0.0014183240,-0.0031734689,-0.0136589473,0.0066911937,0.0064355601
4.7558650970,-0.0068630558,0.0018989758,0.0012549773,-0.0266394578,0.0152601795,0.0083232084
4.7658081055,0.0002477187,0.0028832869,0.0070255413,-0.0230332725,0.0061398968,0.0118855853
4.7758531570,0.0012846012,0.0019774155,-0.0026953206,-0.0090644611,0.0046426677,0.0085606296
4.7857451439,-0.0020539146,0.0092193801,-0.0068103061,0.0172180627,-0.0009542981,0.0079994211
4.7957687378,-0.0006002468,0.0091062505,-0.0170788746,0.0461285412,-0.0008483042,0.0062502571
4.8057117462,-0.0033165794,0.0002213435,-0.0148394089,0.0475824662,-0.0018954147,0.0038364744
4.8158211708,-0.0043760519,-0.0098429006,-0.0080856066,0.0416931510,0.0022721661,0.0046050623
4.8256411552,-0.0103157740,-0.0147022288,-0.0000092968,0.0198993329,0.0041413945,-0.0032742724
4.8356361389,-0.0085026901,-0.0114705842,0.0049072518,0.0125194471,-0.0008408474,-0.0030534961
4.8455691338,-0.0030003469,-0.0014919920,-0.0030112849,0.0196050517,0.0069046682,0.0008463038
4.8555603027,-0.0021117311,-0.0011174961,0.0025841610,0.0078085810,0.0117018195,0.0031960108
4.8655910492,-0.0007954222,-0.0090650599,0.0125994701,-0.0047929641,0.0053602788,-0.0013671825
4.8754868507,-0.0030383449,0.0000880675,0.0117228050,0.0012950217,0.0035224312,0.0065410743
4.8854780197,-0.0064427834,0.0034555511,0.0111684818,0.0153977908,0.0032449297,0.0106327552
4.8954420090,-0.0052680951,-0.0043465779,0.0032669320,0.0227438547,-0.0003596586,0.0089152828
4.9054150581,-0.0075072926,-0.0179521721,-0.0019557462,0.0131146628,0.0031783953,0.0100300815
4.9153580666,-0.0080120545,-0.0213526171,-0.0056259618,0.0044516670,0.0027363105,0.0047626155
4.9253430367,-0.0018246155,-0.0196460765,-0.0074854479,-0.0041255765,0.0030913099,0.0019242184
4.9353227615,-0.0018334966,-0.0131007712,-0.0040850625,-0.0079506747,0.0086671701,-0.0046119778
4.9453549385,-0.0005740505,0.0005749182,0.0027617232,0.0004901085,0.0020419802,-0.0088177491
4.9554653168,0.0004036743,0.0100704748,0.0017510072,0.0029274337,0.0027695554,-0.0059854765
4.9652209282,-0.0049442332,0.0038333253,0.0041583790,-0.0106933033,0.0067846258,-0.0087509034
4.9751629829,-0.0006464702,0.0031809525,0.0043604984,-0.0185568184,0.0074000829,-0.0016027126
4.9851942062,0.0041584987,0.0058669164,0.0004215852,-0.0182896517,0.0052060373,0.0122258049
4.9951353073,0.0026453454,-0.0043012784,0.0007817164,-0.0302680172,0.0161071550,0.0029231166
5.0050930977,-0.0017517786,-0.0080111306,0.0038074269,-0.0389131680,0.0196265001,0.0036580160
5.0150852203,-0.0015557986,-0.0029208942,0.0051159277,-0.0355884805,0.0156298950,-0.0051123062
5.0253219604,0.0021950025,0.0032052116,0.0040425076,-0.0599296689,0.0166914538,0.0011290517
5.0350017548,-0.0053220969,-0.0049743936,0.0113058109,-0.0440039635,0.0251816101,-0.0157162417
5.0449762344,-0.0071600657,-0.0047389553,0.0034055724,-0.0500480607,0.0222733486,-0.0144707346
5.0549602509,0.0024412591,0.0070321872,0.0016791240,-0.0199753791,0.0178437121,-0.0130360890
5.0649232864,0.0001605767,0.0073744371,-0.0070132599,-0.0061282739,0.0166886114,-0.0117937243
5.0749049187,-0.0009729546,0.0036250667,0.0003794447,-0.0159825012,0.0096490774,-0.0074642235
5.0848350525,-0.0020757299,0.0000100450,-0.0020793066,-0.0187159702,0.0096461922,-0.0094006080
5.0950570107,-0.0014906805,0.0022068934,-0.0011495337,-0.0184336752,0.0126483738,-0.0087752976
5.1048669815,0.0013130624,0.0047919466,-0.0007159099,-0.0150169451,0.0069558006,-0.0046260664
5.1147799492,0.0058768410,0.0051191165,-0.0030180798,-0.0065784529,0.0090003097,-0.0092320032
5.1247472763,0.0022466797,0.0000674443,0.0027107014,-0.0056530591,0.0073430687,-0.0133762015
5.1347289085,0.0043960232,0.0065154745,0.0070130839,0.0021247026,-0.0010165939,-0.0099148909
5.1447691917,-0.0021492522,0.0125831086,0.0058518066,0.0107923867,0.0018577336,-0.0042929309
5.1546611786,-0.0064495783,0.0062446906,0.0051509156,0.0087353615,0.0021605350,-0.0038942562
5.1646661758,-0.0051674824,-0.0014580770,0.0023674979,-0.0018086256,-0.0010080718,-0.0014221768
5.1746058464,-0.0014833193,-0.0065414594,-0.0025768860,-0.0051588826,0.0031834776,-0.0027276583
5.1845140457,0.0021806676,-0.0086255353,-0.0012940749,0.0013685254,-0.0093768341,-0.0044347448
5.1945619583,0.0025167484,0.0020218210,-0.0091736894,0.0202117208,-0.0071831876,-0.0028086184
5.2046670914,-0.0025023203,0.0074323728,-0.0178763252,0.0282320976,-0.0024265379,-0.0003908677
5.2145590782,-0.0005964321,0.0053567602,-0.0073559866,0.0270533822,-0.0023479748,-0.0049217036
5.2244911194,-0.0032388549,0.0081073958,0.0026799454,0.0221625939,-0.0027009987,-0.0019136898
5.2346639633,-0.0044960361,0.0131342728,0.0085204262,0.0251807533,-0.0059604417,0.0057679317
5.2445950508,-0.0032139998,0.0147231538,0.0091868658,0.0278568044,-0.0023766258,0.0123604275
5.2544322014,-0.0055773538,0.0082927067,0.0079131741,0.0188526567,-0.0019025831,0.0149373021
5.2643489838,-0.0122625213,0.0052678301,0.0013185159,0.0128512243,0.0078350659,0.0182701144
5.2743239403,-0.0134506207,-0.0048100636,-0.0059442506,0.0014291927,0.0159451906,0.0114050182
5.2844300270,-0.0100516658,-0.0084206145,-0.0004724845,-0.0165241361,0.0137267541,0.0076517994
5.2943220139,-0.0042184275,-0.0010539575,0.0013462320,-0.0232875012,0.0147941494,0.0075599197
5.3044338226,-0.0032717567,0.0092204530,0.0036208646,-0.0141194081,0.0110691637,0.0084089618
5.3142619133,0.0019258577,0.0120606739,0.0018634215,-0.0020438358,0.0072920024,0.0138881495
5.3241629601,0.0024202485,0.0043093874,0.0029730811,-0.0005979529,0.0063310009,0.0111443475
5.3342027664,0.0027103443,0.0002661066,-0.0025732503,0.0018699979,0.0060830610,0.0156940930
5.3441119194,0.0022239108,0.0045320108,-0.0113635641,0.0087237498,0.0108922860,0.0146710128
5.3541350365,0.0045857448,-0.0000084324,-0.0073064552,0.0181257725,0.0120496955,0.0112571064
5.3640289307,0.0096869487,-0.0037699027,-0.0027629719,0.0141754001,0.0064870846,0.0095870653
5.3742570877,0.0095441360,0.0031240301,-0.0023049100,-0.0020475117,0.0105294967,0.0139756883
5.3839721680,0.0062930603,0.0027213411,0.0092275161,-0.0268385597,0.0059551843,0.0052745282
5.3940267563,0.0096620638,0.0037801580,0.0168700833,-0.0244425125,-0.0004182924,0.0059874561
5.4039278030,0.0101095755,0.0173603017,0.0018950716,0.0048457081,-0.0011510835,0.0121622346
5.4139800072,0.0020926911,0.0141496379,-0.0058967457,0.0318688042,0.0097774640,0.0127515923
5.4238662720,0.0009972472,0.0025430040,-0.0056797252,0.0324095339,0.0091657359,0.0140481256
5.4338369370,-0.0003179294,-0.0006181283,-0.0049529062,0.0308225546,0.0123418216,0.0102496594
5.4438180923,-0.0062719267,-0.0012897535,-0.0023068173,0.0235571302,0.0145350471,0.0141281011
5.4537601471,-0.0020044725,-0.0035540743,0.0080264229,0.0167050846,0.0047431355,0.0160266683
5.4638180733,-0.0021259170,-0.0028589054,0.0063340082,0.0119394101,0.0040348456,0.0155570731
5.4737181664,-0.0056345742,-0.0004298969,0.0004156247,0.0120877484,0.0054327389,0.0205550268
5.4837498665,-0.0010017734,0.0022217946,-0.0070950375,0.0028338498,0.0113520585,0.0211867839
5.4936590195,-0.0013340693,-0.0005795045,-0.0022612200,-0.0148181142,0.0167151336,0.0165566113
5.5036592484,-0.0002556425,0.0019943432,-0.0002298340,-0.0221833549,0.0170897953,0.0176679473
5.5136013031,0.0017083008,0.0061208322,0.0026277916,-0.0219463333,0.0171672925,0.0240219831
5.5236449242,-0.0030899625,0.0081136543,0.0076839342,-0.0221171454,0.0186538920,0.0293099824
5.5335817337,-0.0069359522,0.0031376199,0.0098661203,-0.0195930004,0.0205101147,0.0291946679
5.5435299873,-0.0109596830,-0.0025973602,0.0070455684,-0.0151686389,0.0218221210,0.0315833092
5.5534539223,-0.0101394933,-0.0031179471,0.0072610988,-0.0133731365,0.0197525788,0.0309137907
5.5635232925,-0.0031212848,-0.0050206468,0.0049046292,-0.0213889834,0.0088184597,0.0226812959
5.5734238625,-0.0020801108,-0.0093392413,0.0014463082,-0.0441393033,0.0147799458,0.0295077767
5.5834679604,-0.0010232609,-0.0109260958,-0.0003264531,-0.0378079042,0.0134427724,0.0161807854
5.5933661461,0.0025066454,-0.0209213775,-0.0031990991,-0.0219863337,0.0128872376,0.0158942305
5.6034069061,0.0046168584,-0.0086514037,-0.0034672008,-0.0202457979,0.0127387661,0.0187943038
5.6133089066,0.0003418047,-0.0099181216,0.0039601340,-0.0197224841,0.0163430870,0.0084833438
5.6232852936,-0.0010699611,-0.0025091453,0.0031169071,-0.0136840884,0.0166499950,0.0102909114
5.6332139969,-0.0026290100,0.0071952655,0.0023202910,0.0118337888,0.0169900805,0.0056029488
5.6432490349,-0.0015508514,0.0080065448,0.0072653904,0.0169917475,0.0109696947,0.0048787827
5.6531839371,-0.0013833623,-0.0014260693,0.0154318828,0.0135496110,0.0053352448,-0.0015527515
5.6631870270,-0.0079505723,-0.0110963266,0.0131974239,0.0063783573,0.0029700473,-0.0039494904
5.6731328964,-0.0098281484,-0.0139276665,0.0030503883,0.0005572196,0.0051274742,0.0012133140
5.6831741333,-0.0075310450,-0.0218580645,-0.0001833424,-0.0001590634,0.0027343798,-0.0036824015
5.6930799484,-0.0061176103,-0.0234335344,-0.0052473531,0.0002121814,0.0007766900,-0.0081354734
5.7031097412,-0.0043905359,-0.0139047187,-0.0106705409,0.0129963132,0.0024797816,-0.0084434412
5.7129311562,-0.0070401710,-0.0085142534,-0.0057133422,0.0194076076,0.0084362077,-0.0163666103
5.7229418755,-0.0048639160,-0.0059581683,0.0057464852,0.0180625506,-0.0036968214,-0.0162369423
5.7329597473,-0.0023468714,-0.0026067777,0.0167692918,0.0069020414,-0.0084100841,-0.0180588122
5.7429881096,-0.0039072912,-0.0021269007,0.0196138639,-0.0063644964,-0.0101297097,-0.0159012508
5.7529358864,-0.0018664282,-0.0044880197,0.0199024100,-0.0087621398,-0.0162975900,-0.0185095500
5.7628931999,-0.0030300003,-0.0031265302,0.0059541478,-0.0002147239,-0.0086753126,-0.0148034953
5.7728338242,-0.0040829759,-0.0082722586,-0.0057825432,0.0123375533,-0.0067607663,-0.0238252208
5.7828741074,-0.0049625915,-0.0119862836,-0.0113430601,0.0227583945,0.0011978245,-0.0303143859
5.7929878235,-0.0021142643,-0.0067863748,-0.0066859708,0.0168216769,-0.0028784098,-0.0338105857
5.8028192520,-0.0028180163,-0.0089591425,-0.0001036510,0.0055632172,0.0093306750,-0.0363852754
5.8126811981,-0.0015742760,-0.0024688526,0.0066981926,-0.0011356985,0.0018967270,-0.0330989324
5.8227500916,0.0017426629,0.0061762645,0.0064538135,0.0008411659,-0.0007062691,-0.0221995469
5.8326492310,0.0012994427,0.0123932082,0.0026393547,-0.0000504600,0.0009038781,-0.0178852249
5.8426251411,-0.0009570402,0.0057055666,0.0059906854,-0.0057118079,0.0035382770,-0.0182601977
5.8525900841,0.0018913765,0.0086736400,0.0000813619,-0.0069262097,0.0025332002,-0.0147088738
5.8625941277,-0.0006630105,0.0105156023,-0.0023173676,-0.0106222518,0.0048239627,-0.0084441602
5.8725557327,0.0064463038,0.0082483012,-0.0025730119,-0.0078333896,0.0017325652,-0.0028121073
5.8827161789,0.0131448526,0.0068078949,-0.0102311354,-0.0015913649,-0.0056288117,0.0012192263
5.8924741745,0.0020578224,0.0136126000,-0.0067597614,0.0069728284,-0.0039057464,0.0076915063
5.9024748802,-0.0015433710,0.0133222658,-0.0046630488,0.0179340802,-0.0041821161,0.0079749469
5.9124298096,-0.0066541415,0.0057824566,-0.0054794536,0.0127142835,0.0027016229,0.0066652037
5.9225850105,-0.0134986024,0.0040823533,0.0011295095,-0.0131722810,0.0121183163,0.0137905180
5.9323272705,-0.0064049046,0.0065604164,0.0136883873,-0.0488120355,0.0037983349,0.0176800638
5.9423942566,0.0027357060,0.0046076491,0.0117558260,-0.0364291891,-0.0066628279,0.0151880924
5.9523162842,0.0002035219,0.0145525653,-0.0023001418,-0.0135313291,-0.0037530586,0.0222715680
5.9623351097,-0.0028043371,0.0171287972,-0.0072496519,-0.0021412019,0.0002346924,0.0322591402
5.9722452164,-0.0002069753,0.0027329044,-0.0043188320,-0.0117879706,0.0019212721,0.0337395929
5.9824109077,0.0046204943,-0.0002781434,0.0007505432,-0.0123320548,-0.0043174708,0.0325277187
5.9923381805,0.0013597626,0.0074342801,-0.0031064735,-0.0007092198,-0.0062179030,0.0365062170
6.0022330284,-0.0012124162,0.0160181243,-0.0055688606,0.0228943229,-0.0100755803,0.0375123061
6.0121178627,-0.0007323009,0.0122371037,-0.0086756926,0.0206724480,-0.0040866635,0.0392593406
6.0221300125,0.0034429748,0.0033349709,-0.0071061240,-0.0067353677,0.0075145764,0.0407187231
6.0320591927,0.0083596725,-0.0087786596,0.0109046120,-0.0293362848,-0.0017897096,0.0287621971
6.0420608521,0.0080600400,0.0104484875,0.0107013006,-0.0131073538,-0.0052265408,0.0360936411
6.0519981384,-0.0018016379,0.0340072811,0.0037200465,0.0080970014,-0.0065581212,0.0533139035
6.0622410774,-0.0106219929,0.0275395829,0.0055662408,0.0372236222,-0.0026005977,0.0548609607
6.0719480515,-0.0065258723,-0.0016925617,0.0056067719,0.0323060937,-0.0080334460,0.0432794094
6.0819602013,0.0037170667,-0.0076692984,-0.0125676375,0.0373209864,-0.0054205968,0.0355024710
6.0918807983,0.0031364877,-0.0001821800,-0.0195789319,0.0331310332,0.0035012588,0.0223712232
6.1019291878,-0.0002298039,0.0088677723,-0.0030316100,0.0233007222,-0.0030581288,0.0197214577
6.1118311882,0.0003949720,-0.0021088405,0.0094338674,-0.0093914438,-0.0006831216,0.0226378851
6.1218709946,0.0015052576,-0.0083852690,0.0138486642,-0.0221158154,-0.0045622154,0.0197977051
6.1319618225,-0.0082788747,-0.0017205162,0.0015318409,-0.0117372097,0.0091029964,0.0172288194
6.1417450905,-0.0041870754,0.0129035432,-0.0065770731,0.0200216249,-0.0025770732,0.0226006564
6.1517429352,-0.0017002802,0.0055467798,-0.0079777818,0.0245141108,-0.0003698452,0.0309813563
6.1616888046,-0.0086687189,-0.0125916880,0.0101304073,0.0039065713,-0.0047826585,0.0247090794
6.1716470718,-0.0057281833,-0.0261863153,0.0172458310,-0.0092710154,-0.0080394382,0.0234518014
6.1816577911,-0.0069963913,-0.0152308028,0.0103639383,0.0023647603,-0.0045739557,0.0275468361
6.1915979385,-0.0076783281,-0.0091579836,0.0044043674,0.0334686190,-0.0042458540,0.0276935771
6.2018432617,-0.0063523035,-0.0143949073,0.0053182258,0.0460894443,-0.0048042526,0.0164771155
6.2115297318,-0.0064845365,-0.0159406941,0.0039415373,0.0412275791,-0.0039768084,0.0105190910
6.2215480804,-0.0036290865,-0.0132471006,0.0072883382,0.0165803954,0.0009269369,0.0150621515
6.2314777374,0.0019858200,-0.0154557507,0.0085283536,-0.0138408933,-0.0046595763,0.0103816455
6.2414870262,0.0000954885,-0.0162498038,0.0058811917,-0.0361737907,0.0070828558,0.0064225639
6.2514171600,-0.0019838791,-0.0134756248,0.0065810098,-0.0447427779,0.0076426524,-0.0036170210
6.2613897324,-0.0004449468,-0.0068438337,0.0064620986,-0.0368339866,0.0004966366,-0.0136294411
6.2714390755,0.0026566405,0.0018327550,0.0019882931,-0.0148706324,-0.0015968743,-0.0170785002
6.2813291550,-0.0023342054,0.0022262649,0.0100888629,-0.0039901808,-0.0062645744,-0.0217808709
6.2913007736,-0.0014321785,0.0044471337,0.0091487188,0.0040576253,-0.0128921168,-0.0186897404
6.3013420105,-0.0020347219,-0.0063726590,0.0031135692,-0.0103996648,-0.0149219343,-0.0197108500
6.3112421036,-0.0036154967,-0.0206609648,-0.0009416327,-0.0411543809,-0.0081609674,-0.0156924073
6.3212842941,-0.0052217823,-0.0274550002,-0.0025854690,-0.0570502020,-0.0011108698,-0.0168223325
6.3311829567,-0.0049289446,-0.0249921959,-0.0039185868,-0.0490660481,-0.0052113389,-0.0132297277
6.3412251472,-0.0017484408,-0.0106235426,-0.0045834170,-0.0190813560,-0.0065671760,-0.0081374701
6.3511261940,-0.0039506834,-0.0016248508,-0.0020768628,0.0113527160,-0.0027260992,-0.0092160506
6.3611669540,-0.0037895720,0.0050446703,0.0049300804,0.0291417800,-0.0045939740,-0.0097776316
6.3710651398,-0.0025784355,0.0090817530,0.0075529232,0.0380995870,-0.0074600675,-0.0074311201
6.3809118271,-0.0045691710,0.0060209348,0.0096510667,0.0264743567,-0.0040024854,-0.0069730566
6.3908381462,-0.0020626765,-0.0042975233,0.0105632562,-0.0034217564,-0.0069852262,-0.0084412573
6.4010372162,-0.0002382379,-0.0142272394,0.0041997447,-0.0247355122,-0.0059024957,-0.0118957236
6.4109811783,0.0014319438,-0.0090558212,-0.0138121229,-0.0255019721,-0.0013647357,-0.0163048543
6.4209198952,0.0035023708,-0.0007762595,-0.0241177063,-0.0066823177,0.0012989360,-0.0172156263
6.4309229851,0.0058182497,0.0011388378,-0.0193799715,0.0082257921,0.0020755138,-0.0252671614
6.4408621788,0.0024528820,-0.0004601760,-0.0103576165,0.0131545570,0.0028231964,-0.0314893164
6.4508247375,0.0017575044,0.0064035370,-0.0014243111,0.0173096210,0.0063494877,-0.0277132224
6.4608011246,0.0003002304,0.0087694246,0.0031757965,0.0269735418,0.0028832285,-0.0316986702
6.4708433151,0.0046411175,0.0057843640,0.0072249784,0.0242866762,-0.0023157946,-0.0261782035
6.4807271957,0.0042541046,0.0064030602,0.0065136566,0.0056695305,-0.0064052343,-0.0213612635
6.4907102585,-0.0020078700,0.0014799552,0.0015752331,0.0008124569,0.0025307366,-0.0186008979
6.5006818771,-0.0035967212,-0.0045067952,-0.0011475071,-0.0068291640,0.0038057028,-0.0146025065
6.5107169151,-0.0032368582,-0.0080007594,-0.0093494039,-0.0077362368,0.0079024434,-0.0110639650
6.5206422806,-0.0066654067,-0.0089099091,-0.0126465540,-0.0009646704,0.0155620500,-0.0099870358
6.5304260254,-0.0072456580,-0.0071591423,-0.0012776837,-0.0018672161,0.0130043495,-0.0109423120
6.5405621529,-0.0067642611,-0.0039784000,0.0104416627,-0.0057218214,0.0113212103,-0.0116595812
6.5505661964,-0.0035833102,0.0038720684,0.0087056179,-0.0021148361,0.0007900058,-0.0087508764
6.5605039597,-0.0057194810,0.0085010249,0.0019773855,0.0084145563,0.0039741476,-0.0097275376
6.5704469681,-0.0054855626,0.0142747480,0.0024252550,0.0002583591,-0.0016230178,-0.0001713168
6.5804328918,0.0017528553,0.0184673984,0.0041311397,-0.0088019799,-0.0096678277,0.0077812816
6.5904188156,-0.0009168666,0.0062273457,-0.0050063715,-0.0218916833,-0.0064347507,0.0137161361
6.6003580093,-0.0044098478,0.0010003166,-0.0047588930,-0.0414515361,-0.0020463716,0.0182646830
6.6107449532,-0.0052248221,0.0034406499,-0.0031280504,-0.0408999957,-0.0047548064,0.0206143893
6.6203002930,-0.0055195075,0.0037761645,-0.0052757845,-0.0281700306,-0.0042279442,0.0228775963
6.6303009987,-0.0076585095,0.0008924918,0.0010710374,-0.0196860004,-0.0054234373,0.0280007198
6.6402430534,-0.0040191989,-0.0004598780,0.0005681530,-0.0034563243,-0.0085246442,0.0283688754
6.6503739357,-0.0000858289,-0.0017034693,-0.0023944364,0.0142536974,-0.0120626539,0.0201966986
6.6602320671,0.0005508679,0.0008169727,0.0020735278,0.0186203755,-0.0069605475,0.0161348730
6.6701908112,0.0049713273,0.0021692829,-0.0003108367,0.0113922916,-0.0113787316,0.0135995429
6.6804237366,0.0048186798,-0.0010817929,-0.0002336487,-0.0069214683,-0.0078279609,0.0090949386
6.6902160645,0.0043019373,0.0010024027,0.0039881482,-0.0149415787,-0.0021144156,0.0052330894
6.7001700401,0.0058264751,0.0081708152,0.0014403478,-0.0015209513,-0.0029770799,0.0041191159
6.7100400925,0.0044682343,0.0110154469,-0.0025677071,0.0134598622,-0.0032077096,-0.0012953570
6.7200288773,0.0026983339,0.0074503138,-0.0039233551,0.0273273159,-0.0012092291,-0.0066902824
6.7300710678,0.0019479711,-0.0003161116,-0.0105185490,0.0300440062,0.0049245637,-0.0173261482
6.7399730682,-0.0016354304,-0.0065042661,-0.0042541013,0.0164380223,0.0133098587,-0.0255955569
6.7502150536,-0.0000647586,-0.0049007223,-0.0010210261,0.0010524075,0.0137580689,-0.0297333114
6.7599000931,-0.0037658196,0.0042195036,0.0045143380,-0.0118077835,0.0163297057,-0.0294278990
6.7699561119,-0.0068715792,0.0092135388,0.0133084673,-0.0137111442,0.0100768693,-0.0172458012
6.7798891068,-0.0059833508,0.0059476211,0.0078684110,-0.0085910577,0.0124052502,-0.0125644701
6.7898588181,-0.0050024372,0.0046978309,0.0005745903,-0.0007363306,0.0151491053,-0.0099889273
6.7997989655,-0.0015476029,0.0015635805,-0.0071222768,0.0119560827,0.0109827891,-0.0019225581
6.8098402023,-0.0023754220,0.0030272321,-0.0085244756,0.0146860890,0.0104288515,-0.0001864435
6.8199429512,-0.0033390205,-0.0038385673,-0.0065272436,0.0003667502,0.0086956881,0.0064949752
6.8297500610,0.0034995694,-0.0080856364,-0.0015582427,-0.0173802897,0.0020031645,0.0077503892
6.8396821022,0.0022665877,-0.0062277601,0.0018320695,-0.0202027597,0.0017926416,0.0125685269
6.8497209549,0.0015391130,0.0038417296,0.0017950550,-0.0157885700,0.0042928173,0.0193931442
6.8596181870,0.0037003178,0.0115335304,-0.0012335762,0.0013783788,0.0049014161,0.0207074936
6.8696622849,0.0030099768,0.0056488230,-0.0043752776,0.0145445140,0.0111372070,0.0161241926
6.8795590401,-0.0026372653,0.0040807440,0.0019307748,0.0175275747,0.0163747817,0.0130396402
6.8897619247,-0.0016167741,0.0058058812,0.0116838831,0.0242509916,0.0155193722,0.0090904385
6.8994989395,0.0015086550,0.0061809137,0.0089504737,0.0295997914,0.0071110185,0.0093528656
6.9094762802,-0.0028107148,0.0008385496,0.0045630350,0.0254031811,0.0136493454,0.0098636607
6.9195117950,-0.0056456905,-0.0081016105,0.0032105460,0.0055540553,0.0167384576,0.0075212237
6.9294147491,-0.0055361670,-0.0096556228,0.0011451259,-0.0116188060,0.0118070813,-0.0048816497
6.9394650459,-0.0066965204,-0.0085770767,-0.0004999026,-0.0151532469,0.0133598149,-0.0021466098
6.9493589401,-0.0021900516,-0.0045914338,-0.0006494507,-0.0205456130,0.0132487612,-0.0017748326
6.9595999718,-0.0030825716,-0.0046117590,0.0040500774,-0.0261296798,0.0148837864,-0.0019733179
6.9692931175,-0.0004824680,-0.0051929639,0.0052150502,-0.0231876839,0.0098703858,-0.0048892130
6.9793462753,0.0010411162,-0.0039229081,0.0087689180,-0.0186173804,0.0086334590,-0.0072368691
6.9894380569,-0.0003136378,-0.0020349903,0.0116965789,-0.0084481006,0.0033393612,-0.0079063876
6.9992241859,0.0023598392,0.0033791380,0.0167147536,0.0025543775,-0.0016706218,-0.0049783490
7.0091881752,0.0049565453,-0.0021955057,0.0143334884,-0.0078961337,-0.0106414799,-0.0047573065
7.0192179680,0.0019363780,-0.0103603285,0.0130560417,-0.0288615506,-0.0077555007,0.0011621547
7.0293231010,-0.0006132704,-0.0110388678,0.0112713594,-0.0196294356,-0.0107134739,-0.0030658797
7.0391082764,0.0049011726,-0.0139882844,0.0009290591,-0.0272749960,-0.0120615214,0.0033140951
7.0490617752,0.0031792838,-0.0030999465,-0.0061232434,-0.0320516452,-0.0102013033,0.0019079461
7.0591011047,-0.0021653455,-0.0030999465,0.0020372288,-0.0120868823,-0.0053638490,-0.0046028434
7.0689601898,0.0030252356,0.0039257123,0.0055413260,-0.0080194371,-0.0115378555,0.0049411268
7.0790281296,0.0033876318,0.0084305722,0.0114039797,0.0018935939,-0.0098650353,0.0049269591
7.0890102386,0.0008182246,0.0028518157,0.0140967984,-0.0017709155,-0.0148970783,0.0069347164
7.0989818573,0.0026342291,0.0025201158,0.0201063175,0.0000556931,-0.0150037818,0.0008647860
7.1089439392,0.0038411040,0.0024298744,0.0115294475,-0.0012125047,-0.0184877291,0.0039625750
7.1188769341,0.0059476215,0.0078088953,-0.0018820748,0.0034769503,-0.0212866683,0.0037057397
7.1288852692,-0.0027749222,-0.0004417582,-0.0043940530,-0.0154139157,-0.0145355538,-0.0052725747
7.1388640404,-0.0028612595,-0.0081692617,0.0015543118,-0.0326993242,-0.0146045964,-0.0110575203
7.1488251686,0.0020774920,-0.0016233011,-0.0061805234,-0.0162106287,-0.0141009931,-0.0078662541
7.1590528488,0.0008422154,0.0119244773,-0.0089375358,0.0108755305,-0.0135521377,-0.0065055653
7.1687221527,-0.0006628018,0.0151346046,-0.0059034214,0.0240951963,-0.0146352453,-0.0058898428
7.1786971092,-0.0031032544,0.0123088080,-0.0035435543,0.0243958142,-0.0138309263,-0.0044496581
7.1886367798,-0.0073943119,0.0090775806,-0.0020797832,0.0237143114,-0.0055096131,-0.0060938941
7.1986370087,-0.0034937244,0.0043647005,-0.0009005055,0.0071189292,-0.0095322514,0.0020737280
7.2086200714,-0.0003066045,-0.0034975095,-0.0012561068,-0.0377404206,-0.0018021597,0.0066485060
7.2185769081,-0.0026280265,-0.0121758264,0.0104663391,-0.0707770362,-0.0047115521,0.0001331093
7.2287611961,0.0004984754,-0.0084499400,0.0056611910,-0.0487114191,-0.0092168227,0.0006976995
7.2385201454,-0.0017147046,0.0100779254,-0.0059690461,-0.0188341625,-0.0066231918,0.0057570930
7.2484898567,-0.0004811567,0.0147670228,-0.0064113722,-0.0055947891,-0.0051965360,0.0028124359
7.2584648132,-0.0020322781,0.0016658024,-0.0053431378,-0.0028686170,0.0025452068,-0.0045061707
7.2684311867,-0.0009946804,0.0042275502,-0.0043417797,-0.0050433548,0.0018908681,-0.0020225067
7.2783179283,-0.0012006145,0.0087505300,0.0000199691,-0.0110719521,0.0058336118,0.0049431240
7.2883648872,-0.0051130634,0.0017859654,0.0047793402,-0.0350704938,0.0106318286,0.0064555332
7.2983460426,-0.0042385142,-0.0072191642,0.0085123796,-0.0568258576,0.0064031282,0.0021856874
7.3083152771,-0.0024369340,-0.0018186255,-0.0027148710,-0.0495314598,0.0086769350,0.0038586850
7.3182849884,-0.0007721466,0.0111569483,-0.0121971946,-0.0357452855,0.0122696059,0.0079036811
7.3282561302,0.0020049829,0.0042129471,-0.0050394521,-0.0361743197,0.0113252485,0.0013371245
7.3382291794,0.0026936550,-0.0089273732,-0.0000219330,-0.0513260588,0.0082020489,-0.0009799056
7.3481960297,-0.0019015055,-0.0041008876,-0.0032839761,-0.0431181975,0.0120732198,-0.0026656864
7.3581647873,-0.0039660614,0.0104918201,-0.0012972936,-0.0111114196,0.0065752128,0.0049840841
7.3683528900,0.0005477089,0.0235703904,-0.0027020557,0.0138261542,-0.0048976853,0.0187699366
7.3781347275,-0.0034835916,0.0092162210,-0.0021857009,0.0138139566,0.0005347198,0.0190208610
7.3880901337,-0.0104556959,-0.0084290784,-0.0060172067,-0.0047160517,0.0095226225,0.0191910360
7.3980617523,-0.0083403569,-0.0083514135,-0.0095835906,-0.0042766305,0.0122761084,0.0227436926
7.4080300331,-0.0017709117,-0.0048182295,-0.0151467901,0.0040864940,0.0126023451,0.0277834591
7.4179449081,-0.0026288610,-0.0076611922,-0.0080965143,0.0046553989,0.0133104362,0.0241586845
7.4281988144,-0.0023142975,-0.0056431578,0.0001685038,0.0162025988,0.0061358805,0.0180083811
7.4381890297,0.0006724912,0.0023018436,-0.0010523185,0.0311943851,0.0033572931,0.0131911738
7.4479460716,-0.0076909941,0.0079785902,0.0066594495,0.0352855325,0.0033322594,0.0110563841
7.4579119682,-0.0073868614,0.0069544031,0.0119768996,0.0352995917,0.0011701055,0.0069165803
7.4678921700,-0.0047611576,0.0037881450,0.0093661565,0.0309354719,0.0035280681,0.0058443914
7.4778971672,-0.0062074047,-0.0005147143,0.0041744723,0.0274777859,0.0082542691,0.0047384072
7.4878411293,-0.0062503796,-0.0033597632,0.0040184273,0.0009814622,0.0084971497,0.0116003081
7.4978113174,-0.0002935511,-0.0063177631,-0.0016769752,-0.0142785050,0.0048863473,0.0109227467
7.5079760551,0.0049732346,-0.0229570549,0.0001936570,-0.0273562223,0.0018641921,-0.0000747772
7.5177059174,0.0036272425,-0.0196886342,0.0017502323,-0.0136170285,-0.0025676854,-0.0066785375
7.5276880264,-0.0027757864,0.0020143704,0.0036461963,0.0128768962,-0.0014624737,-0.0033961916
7.5375843048,-0.0032240432,0.0051084473,0.0079350490,0.0126161193,-0.0047708964,-0.0048067882
7.5476760864,0.0049591679,-0.0029095693,0.0110765714,-0.0039319647,-0.0017886886,-0.0034192812
7.5575790405,0.0009669382,-0.0094650667,0.0195118207,-0.0113634625,0.0019638385,-0.0110984528
7.5675268173,0.0000159759,-0.0044347928,0.0177321453,-0.0182964690,-0.0060871635,-0.0024266678
7.5777530670,-0.0011965614,0.0007613020,0.0089708585,-0.0156024694,-0.0067765005,0.0058244178
7.5874872208,-0.0050155800,-0.0046373294,0.0020146384,-0.0175617561,-0.0029247710,0.0118825762
7.5974688530,0.0007932502,-0.0087467711,0.0048825159,-0.0187274218,-0.0143052349,0.0097638983
7.6074271202,0.0041868705,-0.0106916111,-0.0054925070,-0.0034786938,-0.0144367954,0.0074940864
7.6173958778,-0.0017900448,-0.0042286203,-0.0055308328,-0.0007295134,-0.0083273044,0.0105011947
7.6273660660,-0.0003643912,0.0011716203,-0.0021181093,-0.0177902561,-0.0092335781,0.0145204384
7.6373701096,0.0050907452,-0.0085628312,0.0090504903,-0.0353809148,-0.0129958922,0.0096923131
7.6473150253,0.0031915326,-0.0097872894,0.0089865942,-0.0450804122,-0.0111258198,0.0035231004
7.6573061943,-0.0002029520,0.0116674025,-0.0031343682,-0.0422103778,-0.0040360414,0.0126880491
7.6672630310,-0.0028175693,0.0097611267,-0.0052731023,-0.0172110181,-0.0018525156,0.0059534479
7.6772298813,-0.0019624513,0.0039855554,0.0002435461,0.0072562946,-0.0025997101,0.0057929126
7.6872000694,-0.0004443806,0.0012887435,0.0130146760,0.0051955408,-0.0164715834,-0.0016663354
7.6971678734,-0.0066996198,-0.0022061153,0.0082191844,-0.0056674927,-0.0105267866,-0.0057830499
7.7073287964,-0.0067371707,0.0010172443,-0.0071979151,0.0037739449,-0.0132501349,-0.0112068430
7.7170639038,0.0042818803,0.0117782671,-0.0112091880,0.0183209833,-0.0154652856,-0.0098476466
7.7270631790,0.0038584489,0.0044471337,-0.0101513844,0.0091711609,-0.0110899787,-0.0187849477
7.7370910645,-0.0018705707,-0.0053603933,0.0038987414,-0.0171802845,-0.0111157447,-0.0169986337
7.7470231056,0.0003778356,-0.0028753562,-0.0006168470,-0.0192679372,-0.0119146928,-0.0173815954
7.7569761276,-0.0022023898,0.0116029698,-0.0060955868,0.0023729634,-0.0102525251,-0.0095870029
7.7669329643,-0.0025171023,0.0134853441,-0.0080739837,0.0211634301,-0.0133364657,0.0001361985
7.7769250870,-0.0035709124,0.0013043003,-0.0050362335,0.0197957344,-0.0062947348,-0.0055832327
7.7868919373,-0.0029678326,-0.0014162345,0.0001292244,0.0174678676,-0.0037615362,-0.0054159863
7.7968811989,-0.0014237147,0.0008696036,-0.0039049969,0.0292155482,-0.0045350734,-0.0062159202
7.8069081306,-0.0007270259,0.0012455897,0.0004063264,0.0390884206,-0.0041912594,-0.0091941329
7.8167848587,-0.0039809924,0.0045078709,0.0060393824,0.0366372988,-0.0060021421,-0.0049834889
7.8267831802,-0.0024971049,0.0066431477,0.0045422926,0.0373243950,-0.0063411626,-0.0081326766
7.8367428780,0.0005930680,0.0030840354,0.0030766143,0.0375561938,-0.0094401725,-0.0089670718
7.8467121124,0.0004761237,0.0031332688,0.0062154545,0.0346445628,-0.0093640061,-0.0044261161
7.8566789627,-0.0010986608,0.0086338837,-0.0017669186,0.0237023272,-0.0035985508,0.0018749498
7.8666849136,-0.0042169373,-0.0057651089,0.0020089163,0.0103612216,-0.0027822920,-0.0055893580
7.8766388893,-0.0027452689,-0.0159240048,0.0021592991,0.0141910072,-0.0030606366,-0.0040624081
7.8866081238,-0.0060109776,-0.0064438866,-0.0003606066,0.0216031168,0.0015176035,-0.0124894492
7.8963708878,0.0001772362,0.0011124329,-0.0016038403,0.0201865807,-0.0031666525,-0.0066391500
7.9065971375,0.0059297998,-0.0032667203,0.0009498611,0.0103640445,-0.0027306930,-0.0149498107
7.9165759087,0.0021086652,-0.0125729721,0.0148465652,0.0003756452,-0.0055207317,-0.0239899904
7.9264802933,0.0016707201,-0.0051135109,0.0085100550,-0.0073805442,-0.0055641411,-0.0206844732
7.9365091324,0.0002020020,0.0031007247,-0.0018582329,-0.0080257747,0.0031623943,-0.0199923981
7.9464502335,0.0045536775,0.0102821905,-0.0045664893,-0.0017473735,0.0006904482,-0.0081975246
7.9564380646,0.0072277207,0.0094423015,0.0069004311,-0.0004408257,-0.0044259503,-0.0062889708
7.9663591385,0.0024808068,-0.0044414685,0.0129882712,-0.0278016087,-0.0105419001,-0.0090346895
7.9765391350,-0.0015057009,-0.0065201209,0.0009695903,-0.0203045476,-0.0001295392,-0.0049138474
7.9863538742,-0.0052750986,-0.0075185583,-0.0023719058,-0.0144341402,0.0038212603,-0.0015260400
7.9962620735,-0.0016980749,-0.0129347127,0.0118617434,-0.0124867298,-0.0074933348,-0.0049181348
8.0062370300,-0.0021177214,-0.0098551791,0.0096159596,-0.0107902959,-0.0089058755,-0.0007601417
8.0164079666,-0.0009671432,0.0088507254,0.0032383217,-0.0024561463,-0.0102021908,0.0082953246
8.0261669159,0.0033977348,0.0134957749,0.0011258140,0.0165617522,-0.0129684163,0.0044470574
8.0361385345,0.0034424085,0.0098769385,0.0030999198,0.0248388574,-0.0162185393,0.0034952436
8.0461082458,0.0001535136,0.0101830084,-0.0062535391,0.0139065813,-0.0114608016,0.0105278529
8.0561132431,0.0006199497,0.0049502566,-0.0055470453,0.0019482430,-0.0090153757,0.0098238997
8.0660657883,0.0029158015,0.0028823332,-0.0040747509,-0.0067578964,-0.0130223678,0.0058499305
8.0760946274,0.0008068699,0.0125474650,-0.0101572853,-0.0047481172,-0.0058022500,0.0144341243
8.0859918594,-0.0023390036,0.0159105379,-0.0103158336,-0.0101306308,0.0001584372,0.0179175381
8.0960311890,0.0000575501,0.0030395107,0.0109568257,-0.0102010975,-0.0099175442,0.0157229342
8.1059322357,0.0012242217,0.0001420097,0.0056190505,-0.0040899422,-0.0102871908,0.0136778932
8.1159725189,-0.0057224315,0.0078451950,-0.0000779018,0.0174984932,-0.0040630279,0.0100573795
8.1258583069,0.0036275405,0.0137378890,0.0002239958,0.0405156612,-0.0133830272,0.0142760929
8.1359024048,0.0036208946,0.0009749846,0.0039848699,0.0439819247,-0.0118682869,0.0061444230
8.1458129883,-0.0013853591,-0.0087181013,0.0078251380,0.0260018595,-0.0096464120,0.0045388034
8.1558532715,-0.0056382995,0.0014759020,-0.0024899228,0.0265795533,-0.0029296759,0.0084160194
8.1657533646,-0.0066596847,0.0019592361,-0.0032843933,0.0358191244,0.0024517737,0.0104341628
8.1757221222,-0.0053513329,-0.0011260195,0.0041719689,0.0239542611,-0.0043256381,0.0121302512
8.1856937408,-0.0059108716,-0.0005248471,0.0047945394,0.0082860859,-0.0084231785,0.0145153776
8.1957645416,-0.0103094559,0.0014406757,-0.0029426203,-0.0062853461,0.0018288828,0.0169261247
8.2056369781,-0.0086779278,-0.0059660957,0.0038014068,-0.0122002279,-0.0001013762,0.0077741710
8.2156629562,-0.0051133018,-0.0108225625,0.0143019576,-0.0139189791,-0.0089008603,0.0082733007
8.2255811691,-0.0010234695,-0.0024430437,0.0112229604,-0.0007230155,-0.0159409251,0.0097628068
8.2356204987,-0.0010924321,0.0041820719,0.0079099555,0.0163694192,-0.0204094443,0.0057195956
8.2455196381,-0.0010797661,0.0039363219,-0.0001052603,0.0291307531,-0.0234081633,0.0069718137
8.2555637360,-0.0002124291,-0.0051178024,-0.0078030811,0.0265668221,-0.0219096467,0.0042835129
8.2654619217,-0.0035276394,-0.0133670252,-0.0068391548,0.0079981983,-0.0134668946,0.0014997104
8.2755031586,-0.0010148864,-0.0190353077,0.0016331688,-0.0089882957,-0.0135738859,-0.0032078798
8.2854118347,0.0033803601,-0.0082612317,0.0007095948,-0.0074588424,-0.0190549381,0.0002273319
8.2954425812,0.0031963009,0.0073120906,-0.0038743005,0.0034136726,-0.0110583091,0.0007508027
8.3052453995,-0.0023941677,0.0073084547,0.0066653504,0.0034850454,-0.0147451889,-0.0040218481
8.3153038025,-0.0029461663,0.0019041614,0.0122972745,-0.0006792853,-0.0137897134,0.0021347678
8.3253688812,-0.0060376804,-0.0019235893,0.0071138158,0.0048334580,-0.0082103908,-0.0050400542
8.3352460861,-0.0048622470,-0.0032717271,0.0028898732,0.0105423694,-0.0066308924,-0.0051406953
8.3452196121,0.0032608826,0.0036136226,0.0021312251,0.0227271300,-0.0138824135,-0.0044874218
8.3552665710,0.0006218571,0.0056743338,-0.0024110063,0.0312140379,-0.0115278689,-0.0020626669
8.3651561737,-0.0059860926,-0.0064641521,-0.0020263181,0.0044953423,-0.0028576814,-0.0032485726
8.3751964569,-0.0004948658,-0.0188679378,0.0075601353,-0.0140781282,-0.0065146456,-0.0138762370
8.3850975037,0.0032985825,-0.0101998728,-0.0021302088,-0.0010789735,-0.0082901744,-0.0120719448
8.3951349258,-0.0004861933,0.0130523760,-0.0051286207,0.0143320477,-0.0089625120,0.0013000267
8.4050407410,-0.0043632071,0.0089230258,-0.0030781014,0.0071774651,0.0025162448,0.0006614006
8.4150896072,-0.0050453525,-0.0156708639,0.0141211171,-0.0239554197,0.0002981200,-0.0027798028
8.4249811172,-0.0056742411,-0.0179690402,0.0115544815,-0.0403463766,0.0065389718,-0.0049255118
8.4350204468,-0.0052431803,-0.0042499588,0.0096946973,-0.0331782140,0.0065803174,-0.0035242895
8.4448394775,0.0057697315,0.0115111191,0.0127230305,-0.0105658453,-0.0130738113,0.0118432147
8.4549551010,0.0054685194,0.0057431771,0.0145505685,0.0055321110,-0.0277467854,0.0057630315
8.4650774002,0.0007125455,-0.0085712951,0.0006991044,-0.0048422329,-0.0254868269,0.0030740381
8.4748640060,-0.0071434658,-0.0115773957,-0.0173178297,-0.0228310879,-0.0136387125,0.0046805898
8.4848661423,-0.0072595458,-0.0084305685,-0.0066228495,-0.0687684864,-0.0069885328,0.0013710797
8.4948444366,-0.0012999456,-0.0038076921,0.0021602528,-0.1115098223,-0.0115835071,0.0132189505
8.5047426224,-0.0073874276,-0.0110555571,0.0096653719,-0.0904644579,-0.0130964490,0.0004922366
8.5147838593,-0.0042095464,0.0102711637,0.0101130027,-0.0459958985,-0.0252971668,0.0196502451
8.5248956680,-0.0014976244,0.0259515960,0.0051414981,-0.0060303761,-0.0308714285,0.0222076792
8.5349273682,-0.0039548855,0.0060820295,0.0060451045,0.0008447878,-0.0351918302,0.0191708226
8.5446271896,-0.0063373428,-0.0068437145,-0.0016027674,0.0077381139,-0.0218762904,0.0059530213
8.5546264648,-0.0021769684,-0.0055007027,-0.0012198671,0.0126185166,-0.0194430053,0.0008801260
8.5645656586,0.0035201926,-0.0006715341,0.0039057748,0.0104656173,-0.0165087339,-0.0035476456
8.5745906830,0.0005015749,0.0045787408,0.0082587618,-0.0028305873,-0.0133116981,-0.0038422977
8.5845117569,0.0016944427,0.0058337166,0.0047033443,-0.0081150979,-0.0138682984,-0.0022265580
8.5945100784,0.0079868753,0.0079937298,-0.0004076943,0.0045761424,-0.0185921248,-0.0033142462
8.6046886444,0.0085261185,0.0116036851,-0.0118217450,0.0260508079,-0.0157907475,-0.0022231494
8.6144905090,0.0053336043,0.0091435034,-0.0123437624,0.0333346054,-0.0178979058,-0.0053588348
8.6243982315,0.0040162224,0.0015284733,-0.0038692341,0.0277502257,-0.0237826928,-0.0073977509
8.6344423294,0.0043138582,-0.0006697460,-0.0000842198,0.0237002485,-0.0254384689,-0.0103491722
8.6443243027,0.0031073708,0.0061502769,-0.0062397704,0.0335403644,-0.0266118571,-0.0090636648
8.6543474197,0.0032157619,0.0065333559,-0.0102956872,0.0369288623,-0.0195520837,-0.0072855782
8.6642751694,0.0016625840,0.0004754977,-0.0019665940,0.0279723853,-0.0203068238,-0.0069486890
8.6744680405,0.0032424945,-0.0071122930,-0.0005228504,-0.0002554702,-0.0177316796,-0.0052838931
8.6842069626,-0.0038983505,-0.0067655132,0.0019832863,-0.0274428818,-0.0047050938,-0.0014233752
8.6942348480,-0.0037133377,-0.0022628589,0.0060114278,-0.0297484882,-0.0038760966,0.0009091810
8.7041616440,-0.0001129788,0.0049191429,0.0041833534,-0.0147911105,-0.0022414483,0.0051020617
8.7141656876,-0.0053372961,0.0125631411,-0.0001956209,0.0046847463,0.0034132637,0.0082187857
8.7245616913,-0.0067851227,0.0120055396,0.0102848429,0.0011842875,0.0008387862,0.0127352411
8.7368373871,-0.0083689075,0.0036518292,0.0070025935,-0.0066446606,-0.0023234291,0.0135854017
8.7447605133,-0.0087365489,-0.0033495708,-0.0004416689,-0.0202677939,0.0000627632,0.0170797352
8.7546405792,-0.0109800976,-0.0129193347,-0.0048413859,-0.0365173370,0.0014124531,0.0133001776
8.7646636963,-0.0075973254,-0.0183139127,-0.0106873494,-0.0483798534,0.0035970442,0.0056824712
8.7746210098,-0.0040037613,-0.0128534716,-0.0123935323,-0.0492216274,0.0038126714,0.0081217140
8.7838306427,-0.0035048705,-0.0067360089,-0.0056657181,-0.0350291096,0.0018515198,0.0024241470
8.7939872742,-0.0003240984,0.0028928237,-0.0024272187,-0.0169148222,-0.0078887036,0.0026232181
8.8045845032,0.0003717262,0.0080346186,-0.0046800957,0.0023808461,-0.0076303771,0.0010969606
8.8171548843,-0.0036543589,0.0075421049,-0.0057120309,0.0168329161,-0.0037582736,-0.0027173252
8.8238906860,-0.0007798058,0.0045655682,0.0016206518,0.0195400193,-0.0028682454,-0.0057903468
8.8339281082,-0.0007449967,-0.0011843129,0.0048660054,0.0104027139,0.0010730554,-0.0040936470
8.8436632156,-0.0074472409,-0.0044098780,0.0057109608,-0.0008227760,0.0002378881,-0.0041857921
8.8535594940,-0.0075898748,-0.0045601414,0.0002794877,-0.0016791429,0.0065106978,-0.0050062058
8.8638887405,-0.0029542428,-0.0099788588,-0.0038589225,0.0124883410,0.0054880437,-0.0107290726
8.8738174438,0.0007824022,-0.0087718051,-0.0098071080,0.0246250592,0.0023910096,-0.0113443686
8.8837203979,-0.0004176181,-0.0041284249,-0.0077766762,0.0379906669,-0.0029859124,-0.0097294282
8.8934621811,-0.0006111544,-0.0052897618,0.0003082767,0.0424597710,-0.0072438638,-0.0121904025
8.9034252167,-0.0014848392,-0.0020189567,-0.0005414471,0.0406916961,-0.0109318094,-0.0124159716
8.9133806229,-0.0019580405,0.0015514807,-0.0020853863,0.0421831198,-0.0094378861,-0.0099811237
8.9234037399,-0.0027385037,0.0059732511,-0.0003305658,0.0373087376,-0.0066309148,-0.0062441761
8.9331560135,-0.0041056853,0.0023954825,0.0005772725,0.0263716653,-0.0032865168,-0.0076133078
8.9431028366,-0.0034473222,-0.0042448328,0.0026846544,0.0120337391,-0.0027885057,-0.0032846050
8.9536399841,-0.0038318019,-0.0055795000,0.0074574961,0.0113396663,-0.0027615193,-0.0069417111
8.9633474350,-0.0031100791,-0.0053436444,0.0121265072,0.0034705582,-0.0074713193,-0.0044599115
8.9732246399,-0.0030415338,0.0018124895,0.0068840398,0.0142933251,-0.0100952648,-0.0032105430
8.9832010269,-0.0028324705,0.0006845312,-0.0035333023,0.0227845479,-0.0058187614,-0.0040310626
8.9933624268,-0.0044012051,-0.0034312888,-0.0051342235,0.0187379811,0.0047009466,-0.0118931402
9.0031204224,-0.0006143433,-0.0050220774,-0.0014935121,0.0135506764,0.0070866062,-0.0120100528
9.0131549835,0.0020291228,0.0013891773,0.0009345427,0.0072872946,0.0073805312,-0.0093766134
9.0232677460,-0.0001210850,0.0024532394,0.0061877384,-0.0092293639,0.0137699870,-0.0038518852
9.0330953598,-0.0019218903,0.0007399635,0.0110891480,-0.0218878463,0.0102017717,0.0009161585
9.0429973602,-0.0008495432,0.0021238641,0.0059675588,-0.0126006072,0.0060501704,0.0035745259
9.0529804230,-0.0053881090,-0.0019024296,-0.0024383648,-0.0006033322,0.0113396747,-0.0000152821
9.0629472733,-0.0018188339,-0.0070146606,-0.0032500015,0.0047461595,0.0042109247,-0.0043690177
9.0729513168,0.0029881317,-0.0088251512,-0.0040696845,0.0068692314,-0.0014173330,-0.0067116674
9.0828876495,0.0031988043,-0.0028044863,-0.0025216921,0.0059416522,0.0007408927,-0.0051638382
9.0931091309,0.0019643623,0.0020290927,0.0004094854,0.0021627862,-0.0041758129,-0.0045997542
9.1028308868,-0.0016368013,0.0030025558,0.0031862273,0.0009782128,-0.0007986584,-0.0045518172
9.1128396988,-0.0053774398,0.0040576174,0.0047537698,-0.0141174905,0.0001826054,0.0029905478
9.1227626801,-0.0079052132,-0.0024909659,0.0110216159,-0.0241733212,0.0021706552,0.0064539891
9.1328010559,-0.0064523499,-0.0054173754,0.0077237501,-0.0323313288,0.0004386905,0.0117024668
9.1426477432,-0.0051906686,0.0039298846,-0.0014798030,-0.0228451490,0.0031971927,0.0172391795
9.1527347565,-0.0066884439,0.0013401823,0.0060143485,-0.0085967574,0.0008132641,0.0088379178
9.1628236771,-0.0046183746,-0.0041522072,0.0047980561,-0.0051277243,-0.0013287164,0.0060719587
9.1728229523,-0.0077006798,-0.0022473021,0.0061455979,-0.0049615949,0.0005823014,0.0020469367
9.1827449799,-0.0021000486,0.0003046112,0.0102068204,-0.0082149133,-0.0043059308,0.0003635526
9.1927518845,0.0022409577,0.0025836544,0.0085781831,-0.0026169484,-0.0107573271,0.0001221371
9.2027082443,0.0018396992,0.0064928844,0.0007224694,-0.0111489175,-0.0071945507,0.0008822032
9.2126760483,0.0051629264,0.0102745611,-0.0059005008,-0.0152409710,-0.0100332135,0.0055958917
9.2226362228,0.0112677235,0.0087855179,-0.0072249756,-0.0198341254,-0.0091551691,0.0062156091
9.2325897217,0.0048084874,0.0089134295,-0.0120424014,-0.0231759138,0.0008802205,0.0081065334
9.2426147461,-0.0017263573,0.0150887091,-0.0078055249,-0.0473667383,0.0132410163,0.0165887009
9.2525444031,-0.0012192111,-0.0009225889,0.0036308779,-0.0725408494,0.0083601298,0.0068229698
9.2622852325,-0.0028527360,-0.0019436164,0.0065119280,-0.0599579439,0.0182985142,0.0154116647
9.2724933624,0.0017909426,0.0198785979,0.0044893040,-0.0242943317,-0.0008070252,0.0146614788
9.2825250626,0.0001106578,0.0185377318,0.0045614257,-0.0054117218,0.0054884213,0.0178929567
9.2924213409,0.0048197228,0.0022597031,-0.0017647132,-0.0000293683,-0.0005537365,0.0201084148
9.3023118973,0.0049095768,-0.0020699783,-0.0104702096,-0.0084825065,0.0064253430,0.0189289004
9.3123626709,0.0046778340,0.0010328011,-0.0134010892,-0.0179292727,0.0115025928,0.0233996827
9.3223056793,0.0045186002,0.0002890544,-0.0059131966,-0.0316932872,0.0089704599,0.0166530963
9.3323202133,-0.0013528150,0.0090277512,-0.0039117322,-0.0242606215,0.0115056783,0.0165957585
9.3423976898,-0.0089556556,0.0202541072,-0.0070700035,-0.0123094181,0.0171862021,0.0197713114
9.3522558212,-0.0101377051,0.0210311133,-0.0053709731,-0.0038938811,0.0191749614,0.0250254087
9.3622951508,-0.0099147540,0.0049885823,0.0051589622,-0.0045610033,0.0171389747,0.0240546875
9.3721981049,-0.0095101576,-0.0049872682,0.0030724423,-0.0000690483,0.0152769368,0.0256238207
9.3823776245,-0.0124784689,0.0010285096,-0.0058775530,0.0104666827,0.0204914063,0.0371542461
9.3921289444,-0.0082994085,-0.0055596516,-0.0045725093,0.0260041505,0.0190073606,0.0337148272
9.4021358490,0.0012972672,-0.0239776652,0.0046108975,0.0258286484,0.0097430209,0.0267983302
9.4120168686,0.0028781313,-0.0233822744,0.0038752572,0.0159178004,0.0065123849,0.0202641040
9.4222612381,-0.0052698832,-0.0076632784,-0.0012670740,0.0070425505,0.0132086370,0.0223869104
9.4322128296,-0.0024159234,0.0004574375,0.0037969365,-0.0151682142,0.0159093030,0.0227304585
9.4420146942,0.0019103307,-0.0115717929,0.0138692278,-0.0415553451,0.0130578578,0.0097052027
9.4519567490,0.0044492204,-0.0106994193,0.0142725725,-0.0446468517,0.0159854498,0.0056705400
9.4621429443,0.0075705070,0.0013752298,0.0094102044,-0.0317126773,0.0083304578,0.0069043827
9.4718999863,0.0065259952,0.0051452830,0.0052737012,-0.0185541026,0.0079423692,0.0025791693
9.4819402695,-0.0020804983,-0.0011115356,0.0049636378,-0.0152645661,0.0058270199,-0.0072470964
9.4918251038,-0.0071179848,0.0022295432,0.0045288815,-0.0027096793,0.0043637683,-0.0137059800
9.5020484924,-0.0069361608,0.0048928573,0.0008609310,0.0064625139,-0.0002773225,-0.0207665544
9.5117683411,-0.0090379398,0.0050577237,-0.0012293443,0.0112804379,0.0053597018,-0.0220688395
9.5218200684,-0.0081999879,0.0009787993,0.0000697986,0.0042747264,0.0056132348,-0.0229636617
9.5317153931,-0.0043348651,-0.0048212097,0.0016471163,-0.0030548796,0.0107482979,-0.0217000451
9.5416860580,0.0008856374,-0.0030886217,-0.0006271586,-0.0046405261,0.0125105111,-0.0221660975
9.5516557693,0.0026981253,0.0056311800,-0.0047048912,0.0122244218,0.0187281948,-0.0118543906
9.5616645813,0.0034941752,0.0085283238,-0.0005791768,0.0190738067,0.0138080027,-0.0060002306
9.5717992783,0.0075893719,0.0028355436,0.0049721017,0.0158739649,0.0081390655,-0.0021570760
9.5816383362,0.0095499773,0.0016832666,0.0038737075,0.0175357778,0.0068266597,0.0022355418
9.5915346146,0.0072815139,-0.0006169362,0.0039937510,0.0275995973,0.0028351583,0.0049999030
9.6015682220,0.0074126739,-0.0006487651,0.0104950089,0.0301250722,-0.0084459921,0.0041181305
9.6114788055,-0.0004423541,-0.0068998025,0.0061164512,0.0365036614,-0.0020305701,-0.0090548769
9.6214418411,-0.0046399217,-0.0062020109,0.0022236719,0.0398858786,0.0010041019,-0.0100144129
9.6314506531,-0.0022168737,0.0014081912,0.0015827433,0.0416721664,-0.0011663523,-0.0081494283
9.6413993835,-0.0068525653,0.0022000389,0.0117313880,0.0213360004,-0.0016947234,-0.0044130133
9.6513614655,-0.0143604260,-0.0002466126,0.0156953949,-0.0052822409,-0.0013451613,-0.0027390299
9.6613540649,-0.0170557480,-0.0035901947,0.0140785594,-0.0270173624,0.0042426833,-0.0007283434
9.6713123322,-0.0140973311,-0.0072409199,0.0151998419,-0.0317947567,-0.0030341824,0.0031271679
9.6813077927,-0.0080710333,-0.0001879616,0.0084654707,-0.0251789298,-0.0019817012,0.0072875582
9.6912317276,-0.0054230075,0.0096853096,0.0024896876,-0.0177369397,-0.0065421648,0.0114638479
9.7012729645,0.0012290794,0.0047484948,0.0022920386,-0.0099059138,-0.0097779054,0.0130609460
9.7111463547,0.0015308578,-0.0049954937,-0.0038404451,-0.0117357718,-0.0079439199,0.0095287953
9.7211475372,0.0025115628,-0.0057522939,-0.0036572800,-0.0156894997,-0.0036450450,0.0098331943
9.7311477661,0.0096143205,-0.0090312045,-0.0051433430,-0.0189700872,-0.0030958790,0.0088539766
9.7411079407,0.0078497250,-0.0130902808,-0.0023815618,-0.0268908627,-0.0055118985,-0.0024838992
9.7511291504,0.0083875079,-0.0049572275,0.0008605138,-0.0188765582,-0.0103853066,-0.0145634124
9.7610273361,0.0060251672,0.0110114533,0.0001390591,0.0027304664,-0.0097528053,-0.0235939231
9.7709951401,0.0062529463,0.0207795817,0.0047062649,0.0224324241,-0.0117377480,-0.0216270201
9.7809991837,0.0041782875,0.0222909171,0.0091427583,0.0278663393,-0.0080892174,-0.0218645744
9.7909040451,0.0020763893,0.0192799885,0.0170021076,0.0254114382,-0.0054824264,-0.0167542361
9.8009996414,0.0014089365,0.0132903177,0.0107827205,0.0254641678,-0.0066941646,-0.0152828386
9.8108787537,-0.0048862081,0.0099714119,0.0029623522,0.0352615118,0.0060452661,-0.0074379914
9.8209218979,-0.0078422409,0.0049993708,-0.0034988509,0.0408227220,0.0079608774,0.0012953128
9.8308486938,-0.0055152159,-0.0146252196,0.0030459182,0.0306968521,0.0002816750,0.0016232810
9.8408622742,-0.0042162221,-0.0203361791,0.0064296140,0.0112312762,-0.0073544066,0.0056425240
9.8509674072,-0.0047256928,-0.0123628061,-0.0036878572,0.0018015029,-0.0082599930,0.0151839107
9.8608026505,0.0008397120,-0.0096125882,-0.0047687278,-0.0049328329,-0.0180079602,0.0120570930
9.8713636398,0.0015069563,-0.0126427691,-0.0044748769,-0.0156810321,-0.0150367832,0.0103019904
9.8808898926,-0.0020605307,-0.0057623670,-0.0006780609,-0.0314506739,-0.0146237267,0.0122282542
9.8906993866,-0.0013923030,0.0013744549,0.0003858820,-0.0230190530,-0.0086855656,0.0136084910
9.9006853104,0.0064033885,0.0081227142,0.0007943526,-0.0055508474,-0.0170982238,0.0188253578
9.9106731415,0.0026967246,0.0125559289,0.0017446891,0.0037597250,-0.0169911664,0.0156057552
9.9205713272,-0.0013024192,0.0120560247,-0.0013113007,0.0066900011,-0.0082413508,0.0129178269
9.9307556152,-0.0006781202,-0.0007104559,0.0008801237,-0.0057599582,0.0012159564,0.0071061971
9.9405479431,-0.0035527032,-0.0091575664,0.0041205897,-0.0314349607,-0.0010445347,-0.0018225830
9.9504947662,-0.0075888019,-0.0080132764,0.0045857443,-0.0389690958,0.0099682361,-0.0080582947
9.9605121613,-0.0101340096,-0.0022462888,0.0093168635,-0.0303519070,0.0095282821,-0.0177713763
9.9703903198,-0.0066270512,0.0065672710,0.0061129942,-0.0104914354,0.0066947220,-0.0210990496
9.9803981781,-0.0031044763,0.0168360192,-0.0008077606,0.0158240572,0.0012554820,-0.0196279194
9.9903469086,-0.0065576117,0.0142120440,-0.0056371675,0.0242667571,0.0047449553,-0.0200555418
10.0004367828,-0.0089509469,0.0045899465,-0.0046349154,0.0197345894,0.0036360149,-0.0187814850
10.0103178024,-0.0063067954,-0.0054133222,-0.0064923153,0.0044167791,0.0024028383,-0.0126560554
10.0206460953,-0.0091553014,-0.0092570465,-0.0082507711,-0.0114284959,-0.0022811294,-0.0073097604
10.0303936005,-0.0097597521,-0.0093704145,-0.0058687911,-0.0133070890,-0.0074392948,-0.0032810632
10.0402069092,-0.0084716957,-0.0072030709,-0.0026764856,-0.0083898287,-0.0128361909,0.0016694870
10.0502643585,-0.0076943617,-0.0059067891,-0.0056177960,0.0087142698,-0.0099500781,0.0054740254
10.0603551865,-0.0077169817,-0.0025083704,-0.0042116628,0.0244050808,-0.0041441214,0.0032689283
10.0701770782,-0.0047155302,0.0011109428,0.0025132911,0.0306042284,-0.0009679246,0.0027956578
10.0800952911,-0.0020715278,0.0023063140,0.0065556183,0.0385455079,-0.0002440775,-0.0002944079
10.0901336670,0.0030519683,0.0012739615,0.0076349988,0.0361107960,-0.0039732130,0.0007702706
10.1000223160,0.0069345552,-0.0000390096,0.0079617519,0.0269111693,-0.0058358274,0.0008954391
10.1100759506,0.0088102538,-0.0051802681,0.0089867134,0.0082918927,-0.0074115093,0.0041254009
10.1199302673,0.0129589457,-0.0069523738,0.0047050728,0.0036713080,-0.0117519293,0.0057571195
10.1301631927,0.0083996970,-0.0117227715,-0.0043509589,0.0049071736,-0.0040387264,0.0030119596
10.1399230957,0.0059698243,-0.0165288728,-0.0032182916,0.0047236816,-0.0026426977,-0.0008240576
10.1499195099,0.0038405079,-0.0161167663,-0.0019797073,0.0149609800,0.0013987824,-0.0054892767
10.1598587036,0.0043397564,-0.0137109440,-0.0039141760,0.0196795687,0.0011582989,-0.0193353165
10.1698265076,0.0010517258,-0.0063837455,0.0025340929,0.0291386917,0.0041477191,-0.0213715956
10.1798305511,0.0009116846,-0.0008774085,0.0056273951,0.0265737996,-0.0041456306,-0.0289208591
10.1897764206,-0.0002310556,-0.0007149263,0.0079840440,0.0104984799,-0.0038703927,-0.0283644721
10.2000255585,-0.0055270772,-0.0101809185,0.0095967669,-0.0231452323,-0.0029574612,-0.0323602781
