0.0000000000,0.0123924520,-0.0129318489,-0.0009246535,0.0048016654,0.0889906511,-0.0360440984
0.0098719597,0.0212719347,-0.0130466474,0.0066063935,-0.0100230873,0.0771614239,-0.0402934402
0.0201029778,0.0223684218,-0.0006488216,0.0002135568,-0.0484258682,0.0758064091,-0.0339135714
0.0300679207,0.0165686514,0.0029491533,-0.0151302880,-0.0399768576,0.0844197944,-0.0264811534
0.0402349234,0.0125854816,-0.0147322072,-0.0205361322,-0.0260392837,0.0782599673,-0.0137481140
0.0503169298,0.0095004942,-0.0226026420,-0.0122519201,-0.0259940103,0.0740505755,-0.0084412331
0.0605089664,0.0015029219,-0.0178473238,-0.0185884908,-0.0163559765,0.0720862374,0.0032375273
0.0725979805,0.0012445954,-0.0149318827,-0.0237723067,0.0017782850,0.0733541697,0.0106661487
0.0807379484,0.0008847025,-0.0167891625,-0.0151885813,0.0061237644,0.0660204813,0.0191551074
0.0907099247,0.0102823880,-0.0088910116,-0.0065556830,0.0051658256,0.0554357506,0.0244590603
0.1006689072,0.0050378945,-0.0049114479,-0.0134577816,0.0264603831,0.0598183163,0.0170226488
0.1109160185,0.0076644327,-0.0037749659,-0.0103928512,0.0425935462,0.0472053178,0.0138268545
0.1209509373,0.0162165668,0.0022638191,-0.0081293648,0.0543868504,0.0420164801,0.0159450658
0.1311190128,0.0120482948,-0.0023626338,-0.0106233424,0.0682914779,0.0389546454,0.0159400068
0.1410629749,0.0088504162,-0.0059550656,-0.0071544116,0.0843547061,0.0337741300,0.0138112083
0.1511119604,0.0096080508,-0.0046534194,-0.0025180643,0.1004654989,0.0232692920,0.0084928758
0.1611369848,0.0029175191,-0.0046744002,0.0084507400,0.1228918508,0.0212948918,0.0010532691
0.1712399721,-0.0053415094,-0.0151114715,0.0084302956,0.1357762218,0.0128356274,-0.0116958153
0.1813139915,-0.0019344183,-0.0081930412,0.0063104564,0.1506806165,0.0161219016,-0.0159456208
0.1913459301,-0.0012145432,-0.0022219073,0.0006149345,0.1688415110,0.0141375801,-0.0191366207
0.2014529705,0.0004790632,0.0010428178,0.0002499752,0.1657047570,0.0077077774,-0.0244468320
0.2115650177,0.0020131080,-0.0034737240,-0.0030670231,0.1401032507,0.0064092195,-0.0265645776
0.2215309143,-0.0030441673,-0.0189208034,-0.0097343391,0.1059222966,0.0093298424,-0.0212467108
0.2316439152,-0.0082123969,-0.0307090525,-0.0161755159,0.0566878989,0.0237897411,-0.0159179904
0.2416999340,-0.0160345826,-0.0309018139,-0.0167460516,0.0171434470,0.0298453029,-0.0105957296
0.2517669201,-0.0170385931,-0.0262086634,-0.0133808320,0.0041613355,-0.0558570847,0.0445783101
0.2618019581,-0.1228270009,-0.0419759415,-0.0269526914,0.0411913618,-0.5361889601,0.3734881282
0.2718689442,-0.1615624577,-0.0509915017,0.0171551630,0.0815907195,-0.4173254073,0.3225708902
0.2819989920,-0.0440863147,-0.0112173809,0.0375749990,0.0251138359,-0.0164078791,0.0456557572
0.2921249866,0.0293808188,0.0149308788,-0.0040951436,-0.0236292034,0.0493511595,-0.0562317222
0.3020559549,-0.0106565449,0.0101445662,-0.0261470750,-0.0306916125,0.0101947701,-0.0307661127
0.3121799231,0.0110741165,0.0036726941,0.0012459689,-0.0084331799,0.0240173750,-0.0562480390
0.3223259449,0.0010464397,0.0125598060,-0.0063680476,0.0299384445,0.0285906885,-0.0573179610
0.3323719501,-0.0010912510,0.0165552255,-0.0090699261,0.0567098707,0.0192400627,-0.0626384243
0.3423479795,-0.0034441145,0.0018216717,-0.0072612232,0.0843561739,0.0290325731,-0.0626416877
0.3524909019,0.0010881332,-0.0128603829,-0.0042276448,0.1004595011,0.0196302831,-0.0615886711
0.3624910116,0.0053068902,-0.0126651181,-0.0011703438,0.1015703678,0.0153951906,-0.0615906715
0.3726229668,-0.0006219241,0.0003912199,-0.0146651333,0.0780434683,0.0205366891,-0.0552113354
0.3826109171,-0.0060941074,-0.0042800559,-0.0263244584,0.0512497239,0.0331309102,-0.0403313190
0.3927609921,-0.0039335284,-0.0128755821,-0.0208623484,-0.0010688733,0.0358918086,-0.0350076631
0.4027769566,0.0046366360,-0.0168169383,-0.0067222184,-0.0457568765,0.0228096973,-0.0286319219
0.4128450155,0.0104664471,-0.0073371781,-0.0122826761,-0.0681852177,0.0247705821,-0.0233162530
0.4228929281,0.0114521887,-0.0065439595,-0.0118116802,-0.0543568358,0.0291363690,-0.0233181845
0.4330449104,0.0181990173,-0.0065346612,0.0055883462,-0.0305881239,0.0007497362,-0.0148440059
0.4430229664,0.0258884933,0.0100154029,0.0045205886,-0.0123996390,-0.0032948067,-0.0084793167
0.4531559944,0.0143166687,0.0100713121,-0.0194002464,0.0301757827,0.0088460119,0.0063811224
0.4631569386,0.0076185968,0.0046222555,-0.0200855806,0.0696392506,0.0113409944,0.0106191440
0.4732869864,0.0045472588,-0.0006287348,-0.0069697564,0.1059013829,0.0137937656,0.0127347587
0.4834129810,0.0021217375,-0.0019383085,0.0039672786,0.1315227598,0.0129566006,0.0127277011
0.4934049845,-0.0051882062,0.0035992016,0.0092055136,0.1454476267,0.0077589098,0.0105979713
0.5034389496,-0.0084878299,0.0003543246,0.0106014544,0.1529627144,0.0024366488,-0.0021487828
0.5135849714,-0.0079707000,-0.0040127886,0.0095619494,0.1455412805,-0.0029959334,-0.0117058028
0.5235719681,-0.0044318233,0.0051053511,0.0033977563,0.1242414042,-0.0074477401,-0.0148874149
0.5336949825,0.0004492310,0.0083507644,-0.0063630408,0.0719425157,-0.0068296203,-0.0127502279
0.5436859131,0.0044691768,-0.0021702896,-0.0106074875,0.0186046436,-0.0094309300,-0.0148621807
0.5538319349,0.0045735147,-0.0158576611,-0.0097015565,-0.0283905603,-0.0055831946,-0.0127247274
0.5638329983,0.0056000557,-0.0209740642,-0.0045344299,-0.0636000857,-0.0058786059,-0.0105906706
0.5739089251,0.0028581230,-0.0243452433,-0.0016803212,-0.0870955586,-0.0039270408,-0.0052747345
0.5839959383,0.0000701753,-0.0189660434,0.0039730007,-0.1020332500,-0.0040227147,0.0000378058
0.5940359831,0.0021400659,-0.0145479096,0.0019079380,-0.0999629125,0.0023619472,0.0000404689
0.6041419506,-0.0006914231,-0.0129348887,0.0030258233,-0.0594818741,0.0090273730,-0.0084614735
0.6141569614,0.0052961614,-0.0023380171,0.0125346715,-0.0155181475,-0.0118313031,-0.0116684521
0.6242339611,0.0131458249,0.0240171906,0.0060366923,0.0198510829,-0.0263296850,-0.0042516813
0.6343269348,0.0062290337,0.0203663465,-0.0088424152,0.0454557762,-0.0249895826,0.0042368784
0.6443699598,0.0050110128,0.0168376323,-0.0197312906,0.0657658428,-0.0279110707,0.0169705171
0.6546449661,0.0076543894,0.0065621482,-0.0382075980,0.0967498571,-0.0307545289,0.0275792200
0.6644889116,0.0054038670,-0.0036432992,-0.0371580794,0.1170914844,-0.0369015671,0.0339414477
0.6746180058,0.0060809162,-0.0069797887,-0.0340300277,0.1268037558,-0.0474069379,0.0371191278
0.6846460104,-0.0029485018,-0.0113193048,-0.0347987488,0.1321768016,-0.0505523980,0.0360565260
0.6946899891,-0.0159401689,-0.0157113913,-0.0212610438,0.1278630048,-0.0463802926,0.0307507105
0.7048130035,-0.0112540219,-0.0162549261,-0.0018747515,0.1279006451,-0.0506865568,0.0211922936
0.7149089575,-0.0024134309,-0.0080299629,0.0196937248,0.1119975746,-0.0614710227,0.0158819500
0.7249069214,0.0035500436,0.0079197036,0.0198363587,0.0863990262,-0.0627137274,0.0222581569
0.7350349426,0.0006807355,0.0025086750,0.0045525962,0.0798652321,-0.0500791557,0.0158953313
0.7450339794,0.0085167792,-0.0058526648,-0.0069407886,0.0392634198,-0.0451078340,0.0190937892
0.7551479340,0.0084151234,0.0041247951,-0.0112354225,-0.0100162420,-0.0264385417,0.0191156268
0.7651739120,0.0044436958,-0.0035374414,-0.0167890266,-0.0283152461,-0.0106613096,0.0223136824
0.7752410173,0.0034969358,-0.0200775508,-0.0167675689,-0.0391063765,0.0008818954,0.0170131940
0.7853009701,-0.0014540347,-0.0201994423,-0.0132907098,-0.0529837608,0.0007268330,0.0117069120
0.7954499722,0.0004091171,-0.0049301637,-0.0151255792,-0.0614707246,-0.0046942979,0.0053355657
0.8054399490,-0.0055360589,0.0034824957,-0.0219371989,-0.0572074801,-0.0035908171,0.0063985665
0.8155869246,-0.0036024542,0.0022737135,-0.0303053930,-0.0540060923,-0.0035628537,0.0063977675
0.8256709576,-0.0008564087,0.0061167227,-0.0277292207,-0.0560881346,-0.0088576842,0.0106417146
0.8357189894,-0.0039298628,0.0050865756,-0.0202852562,-0.0539133921,-0.0131107522,0.0063918415
0.8459619284,-0.0020190568,-0.0036658298,-0.0193605497,-0.0281625427,-0.0266734324,0.0074405945
0.8558139801,-0.0001408848,-0.0035190831,-0.0132111376,-0.0003112042,-0.0370480418,0.0063665416
0.8658369780,-0.0011059138,-0.0022990357,-0.0038589304,0.0467385165,-0.0461870134,0.0063500968
0.8759779930,-0.0039444361,-0.0116839064,-0.0009101100,0.0948003158,-0.0500323512,0.0031505749
0.8859800100,-0.0046720598,-0.0131948246,-0.0024069017,0.1374802738,-0.0496647656,0.0020764556
0.8960520029,-0.0034008713,-0.0106688989,-0.0063874191,0.1770359427,-0.0567815341,-0.0032461379
0.9061340094,-0.0030767114,-0.0100088967,-0.0111545986,0.2025640160,-0.0481132790,-0.0096171517
0.9162019491,-0.0056709740,-0.0073845042,-0.0177701190,0.2334249914,-0.0393618643,-0.0106824161
0.9262609482,-0.0015570315,-0.0007231486,-0.0212451890,0.2547297180,-0.0348619856,-0.0000677886
0.9363369942,0.0024132042,-0.0017928135,-0.0218418911,0.2419401556,-0.0359655991,0.0105528980
0.9463849068,0.0005189386,-0.0175255779,-0.0187696889,0.2333452106,-0.0307832900,0.0031247423
0.9564379454,-0.0023785026,-0.0255239252,-0.0119899577,0.2088433206,-0.0352486111,0.0020669349
0.9665759802,-0.0013131591,-0.0307269935,-0.0122536486,0.1778737605,-0.0333892591,0.0031367932
0.9765789509,-0.0061327610,-0.0321328305,-0.0118463701,0.1415477097,-0.0294760093,0.0010243738
0.9866399765,-0.0050543044,-0.0258559231,-0.0019420452,0.1063406467,-0.0308792964,-0.0042763157
0.9967319965,-0.0019102785,-0.0216436032,-0.0009467668,0.0871621594,-0.0342577808,-0.0085203294
1.0067960024,0.0061769392,-0.0087667359,-0.0059268540,0.0701755285,-0.0428886227,-0.0074579273
1.0168819427,0.0122754183,-0.0056514395,-0.0119685000,0.0552138910,-0.0409040339,-0.0085149361
1.0269199610,0.0056110229,-0.0083704246,-0.0113443201,0.0337955803,-0.0336985849,-0.0138143599
1.0369919538,0.0037981181,-0.0082239164,0.0017401510,0.0145648941,-0.0317582078,-0.0159321055
1.0472840071,0.0107911136,-0.0052333130,0.0020734007,0.0007246053,-0.0350269675,-0.0106220292
1.0571699142,0.0138845053,-0.0051904572,0.0033218795,-0.0066914996,-0.0403903089,-0.0095610255
1.0671859980,0.0131097343,-0.0061959280,0.0004942351,-0.0098706214,-0.0425477363,-0.0106225610
1.0773249865,0.0142533984,0.0024975885,-0.0043323701,-0.0131023666,-0.0393719152,-0.0074347579
1.0873279572,0.0113849845,0.0024600972,-0.0150336688,-0.0153275179,-0.0297792777,0.0021268558
1.0974270105,0.0112694409,0.0083289491,-0.0208792165,-0.0142848911,-0.0264900066,0.0169934202
1.1074779034,0.0111366119,0.0045256363,-0.0227403715,-0.0068661226,-0.0210920461,0.0212414283
1.1175179482,0.0079838540,-0.0041545285,-0.0256697610,-0.0047819326,-0.0157268420,0.0276143737
1.1275739670,0.0047298279,-0.0060069812,-0.0286548808,-0.0070009325,-0.0072362851,0.0308041740
1.1376949549,-0.0005693528,-0.0049292101,-0.0277972892,-0.0027111117,-0.0093210079,0.0308020432
1.1477289200,0.0010116604,0.0010812628,-0.0160952285,-0.0057194177,-0.0284546204,0.0297321193
1.1578090191,-0.0061033461,0.0118807303,-0.0122813052,-0.0164120104,-0.0264258254,0.0297358483
1.1678659916,-0.0170683060,0.0041891085,-0.0151618188,-0.0057754787,-0.0231984071,0.0223024972
1.1818679571,-0.0220987890,-0.0034433256,-0.0139811700,0.0059384364,-0.0210154131,0.0159298200
1.1879990101,-0.0241902564,0.0103135454,-0.0118467277,0.0005410081,-0.0146683026,0.0201815553
1.1980819702,-0.0204552505,0.0201920625,-0.0155031150,0.0026555574,-0.0125068808,0.0233674962
1.2081660032,-0.0167313907,0.0145498263,-0.0113194054,-0.0069471356,-0.0125841796,0.0244320277
1.2182139158,-0.0051432941,0.0107692229,-0.0101646846,-0.0229519326,-0.0126962978,0.0286832321
1.2282599211,-0.0004782768,0.0108205425,-0.0131711429,-0.0293532964,-0.0126815839,0.0393014550
1.2383509874,0.0031878261,-0.0008542788,-0.0094994372,-0.0507027954,-0.0117585324,0.0467399284
1.2484480143,0.0029996841,-0.0019030225,-0.0098725026,-0.0625066161,-0.0054945108,0.0467455238
1.2585319281,0.0008599070,-0.0039626611,-0.0161287859,-0.0613968745,-0.0097292028,0.0467431247
1.2685849667,-0.0021758766,-0.0021191488,-0.0184111670,-0.0357836820,-0.0095204785,0.0446142629
1.2786829472,0.0016254095,0.0154148089,-0.0126546687,-0.0068300627,-0.0230272319,0.0499091595
1.2886879444,0.0024471788,0.0301346537,-0.0202584341,0.0294895153,-0.0258525126,0.0562700555
1.2988079786,-0.0057079289,0.0255681034,-0.0324287489,0.0603435710,-0.0159916263,0.0626379326
1.3088859320,-0.0110470150,0.0241169687,-0.0316735581,0.0944719762,-0.0135505740,0.0658158883
1.3189589977,-0.0096278880,0.0150640951,-0.0275967792,0.1382679194,-0.0173985753,0.0679264441
1.3289909363,-0.0121678505,0.0081312405,-0.0193210915,0.1734843701,-0.0170629490,0.0721645281
1.3390709162,-0.0146955941,0.0022782434,-0.0136873191,0.1884678453,-0.0211626198,0.0742822737
1.3490949869,-0.0152401421,-0.0093919290,-0.0060408181,0.1841529161,-0.0169829875,0.0700376630
1.3593009710,-0.0088667665,-0.0153324855,0.0033670599,0.1724096984,-0.0171478391,0.0604843684
1.3692749739,0.0044936147,-0.0155420555,0.0106933648,0.1489201933,-0.0163480900,0.0519971438
1.3792979717,0.0170600321,-0.0139442934,0.0178741738,0.1138136163,-0.0284375101,0.0350112356
1.3893640041,0.0250260737,-0.0184592847,0.0072122151,0.0817334130,-0.0235995464,0.0063536922
1.3994259834,0.0184901562,-0.0163608436,-0.0115600890,0.0581697598,-0.0165368430,-0.0180581734
1.4097579718,0.0130215492,-0.0095091714,-0.0149616068,0.0484588370,-0.0071460698,-0.0297326054
1.4195640087,0.0114909317,-0.0075478805,-0.0203958824,0.0377566591,-0.0040424224,-0.0276047401
1.4296299219,0.0078484919,-0.0017236125,-0.0201974586,0.0226451904,0.0139319170,-0.0169724710
1.4396979809,0.0078555550,-0.0036195170,-0.0171498731,0.0247336421,0.0193525162,-0.0021051066
1.4500579834,0.0047142114,-0.0122697009,-0.0141820377,0.0235739946,0.0289408267,0.0053324364
1.4598429203,0.0023530035,-0.0120996488,-0.0064326590,0.0246246122,0.0311344750,0.0148894563
1.4698759317,0.0057573821,-0.0108620776,-0.0004447765,0.0385857821,0.0227877945,0.0180677380
1.4800039530,0.0072959866,-0.0115505112,0.0008385115,0.0279469863,0.0195184965,0.0191306062
1.4903179407,0.0050520804,-0.0123228086,-0.0047904914,0.0256905407,0.0311157648,0.0106423134
1.5000969172,0.0037884621,-0.0159951691,0.0022476846,0.0193490218,0.0246591978,0.0053317039
1.5101809502,0.0114443209,-0.0129385246,0.0082228715,-0.0030217431,0.0202065241,0.0032106293
1.5202149153,0.0113834646,-0.0100633753,0.0022752816,-0.0201746300,0.0274290163,-0.0052757999
1.5305509567,0.0025474040,-0.0159955863,-0.0028556651,-0.0329965241,0.0283090603,-0.0158902276
1.5403609276,-0.0003765019,-0.0190956835,-0.0003521509,-0.0489938669,0.0270943921,-0.0180103686
1.5505239964,-0.0032748671,-0.0183937196,-0.0058223074,-0.0660685599,0.0269170254,-0.0222527869
1.5605049133,-0.0091407988,-0.0138346804,-0.0142872995,-0.0576055758,0.0344255418,-0.0211893842
1.5708619356,-0.0130040143,-0.0159886125,-0.0195767954,-0.0212285239,0.0251653977,-0.0254501104
1.5806399584,-0.0080692861,-0.0199115518,-0.0089403456,0.0066228155,0.0147907864,-0.0265241638
1.5907089710,-0.0079796407,-0.0062814010,-0.0001421041,0.0206343438,0.0011187836,-0.0265344158
1.6007629633,-0.0117696617,0.0005776632,0.0049557621,0.0292693786,-0.0083279815,-0.0222941302
1.6111299992,-0.0135771725,-0.0052005304,-0.0035095878,0.0291761160,0.0012699182,-0.0148571208
1.6209119558,-0.0105685983,-0.0099564446,-0.0022062128,0.0302533619,0.0002113115,-0.0159197226
1.6309559345,-0.0055575762,-0.0088756336,0.0020239884,0.0259782430,0.0012478139,-0.0137934545
1.6410069466,-0.0073908363,0.0009126413,0.0042148167,0.0131636448,0.0022177373,-0.0106043192
1.6514109373,-0.0043476913,-0.0048696650,0.0083261067,-0.0017321343,-0.0021359317,-0.0074173808
1.6611169577,-0.0022419186,-0.0146443499,0.0044836337,-0.0092286663,-0.0001484149,-0.0180324744
1.6712889671,0.0048468616,-0.0079952730,-0.0033882922,-0.0081571955,-0.0012547586,-0.0265284255
1.6813019514,0.0090689864,0.0006168830,-0.0034549304,0.0015327157,-0.0096519720,-0.0254732799
1.6916329861,0.0103930142,0.0005242574,-0.0043307608,0.0090029631,-0.0096295346,-0.0318446942
1.7014420033,0.0107951667,-0.0102669252,-0.0109189218,0.0271404199,-0.0095195463,-0.0392818376
1.7115269899,0.0082512405,-0.0093209399,-0.0193866566,0.0409128778,0.0001664374,-0.0371588320
1.7215650082,0.0066341665,0.0043450342,-0.0131630367,0.0602298491,-0.0102481199,-0.0329217426
1.7319499254,0.0069010761,0.0074256407,0.0000625186,0.0688322037,-0.0165187325,-0.0297417287
1.7416889668,0.0012967495,0.0056472169,-0.0002962417,0.0698929429,-0.0153930150,-0.0212470423
1.7518309355,-0.0014791581,0.0029271592,-0.0084276265,0.0603527538,-0.0207074862,-0.0095657529
1.7618339062,0.0014904347,-0.0046592606,-0.0050317710,0.0283458196,-0.0208971016,0.0042456668
1.7722449303,-0.0025092454,-0.0045724763,-0.0049177473,-0.0058513517,-0.0158207193,0.0148744760
1.7819780111,-0.0027313621,-0.0006210458,-0.0040162271,-0.0240191706,-0.0127269235,0.0254986249
1.7920960188,0.0058483388,0.0004164922,-0.0011520452,-0.0292701796,-0.0212542322,0.0265570972
1.8020999432,0.0095901396,0.0101165520,-0.0032767719,-0.0345616154,-0.0255240779,0.0297417045
1.8125259876,0.0113486554,0.0100880014,-0.0054552620,-0.0324482843,-0.0233835634,0.0297423713
1.8222309351,0.0132029559,0.0090506421,-0.0124967759,-0.0303401295,-0.0213052332,0.0201866832
1.8322999477,0.0082361009,0.0119116651,-0.0204373673,-0.0207124837,-0.0233299006,0.0223072246
1.8424379826,0.0032410233,0.0128901945,-0.0311979726,0.0004809527,-0.0082894312,0.0223093554
1.8527230024,0.0030589013,0.0013852465,-0.0261334255,0.0218678936,-0.0123191942,0.0265489761
1.8625129461,0.0058084633,0.0064926492,-0.0112030571,0.0294885300,-0.0270872209,0.0297250617
1.8725569248,0.0046272483,0.0116267549,-0.0029998487,0.0476812236,-0.0322118104,0.0329020806
1.8826689720,0.0005507973,0.0031832804,-0.0034060546,0.0658309311,-0.0331420526,0.0286498107
1.8929829597,-0.0025584192,-0.0051741851,0.0012156897,0.0744135529,-0.0373125635,0.0286466125
1.9028439522,-0.0007348153,-0.0038061987,0.0049241120,0.0722899511,-0.0383922085,0.0286466125
1.9128669500,-0.0047645364,0.0014323342,-0.0040639704,0.0690608919,-0.0351888910,0.0360818245
1.9229369164,-0.0059574042,-0.0030336033,-0.0072000688,0.0561536178,-0.0246283896,0.0456465669
1.9332619905,-0.0052893255,-0.0026874195,-0.0066899126,0.0283146091,-0.0153153837,0.0467206873
1.9430699348,-0.0027680488,-0.0004818094,-0.0054908460,0.0101238871,-0.0101203546,0.0541604944
1.9530969858,0.0046235826,-0.0032060395,0.0004039936,-0.0069222879,-0.0134581607,0.0531000942
1.9632409811,0.0071685519,-0.0099199666,0.0051304037,-0.0400261804,-0.0116458805,0.0499240085
1.9735279083,0.0029638319,-0.0090334667,-0.0040747589,-0.0571168512,-0.0108314855,0.0350641012
1.9834899902,0.0027776270,-0.0160060171,-0.0142856902,-0.0549671501,-0.0130110169,0.0233826768
1.9935629368,0.0027424602,-0.0122941388,-0.0254095271,-0.0433311909,-0.0034424788,0.0106428461
2.0035810471,-0.0012042018,0.0002134192,-0.0286597088,-0.0295123141,0.0019767876,0.0095802452
2.0138709545,0.0026715307,0.0089639174,-0.0161117390,-0.0069736606,-0.0105599100,0.0095686605
2.0235810280,0.0016416219,0.0129315006,-0.0082589453,0.0080225989,-0.0156928878,0.0159330815
2.0336759090,-0.0033582242,0.0052662836,-0.0071082776,0.0187274404,-0.0187619142,0.0191142280
2.0437331200,-0.0084468815,-0.0101002706,-0.0039070910,0.0325495116,-0.0133011015,0.0244224407
2.0540690422,-0.0125768874,-0.0127465380,-0.0064444607,0.0463697463,-0.0078467485,0.0286683850
2.0638518333,-0.0108992252,-0.0123960627,-0.0000590152,0.0474390090,-0.0078097302,0.0329153277
2.0739188194,-0.0043017063,-0.0140002025,0.0024516517,0.0378894731,-0.0132133504,0.0307923220
2.0841441154,0.0023651330,-0.0157014970,0.0018744998,0.0133124897,-0.0102585731,0.0286764409
2.0943140984,0.0090336706,-0.0126852645,-0.0038678714,-0.0091351084,-0.0072762985,0.0276198983
2.1041519642,0.0147191193,-0.0127268685,-0.0099058216,-0.0423018485,0.0009158509,0.0265706144
2.1141700745,0.0135587659,-0.0051111234,-0.0075689023,-0.0818584785,0.0079404712,0.0180919077
2.1243319511,0.0114729311,-0.0073333634,-0.0053895777,-0.0925452113,0.0088459458,0.0085388822
2.1346178055,0.0094992127,-0.0096180690,-0.0090907877,-0.0893286690,0.0067042978,0.0011035363
2.1445519924,0.0056475308,-0.0041380180,-0.0127591556,-0.0775716081,0.0046502016,-0.0042094700
2.1545479298,-0.0041005705,-0.0053965701,-0.0240740851,-0.0445559509,0.0112843355,-0.0073998705
2.1644499302,-0.0080215428,-0.0064813150,-0.0282058194,-0.0039288951,0.0042322855,-0.0042283116
2.1747040749,-0.0110105369,-0.0015163672,-0.0193495825,0.0237980206,0.0066240700,0.0000133046
2.1845679283,-0.0092013869,0.0035575975,-0.0112330383,0.0388379544,-0.0027390711,0.0084992014
2.1945447922,-0.0054743681,-0.0039119972,-0.0000183649,0.0539102480,-0.0152924806,0.0159220304
2.2047879696,-0.0085455272,-0.0142846359,0.0044755870,0.0582101904,-0.0184451304,0.0148575651
2.2151229382,-0.0086966846,-0.0120507730,0.0040342147,0.0421836600,-0.0164208617,0.0212329049
2.2249879837,-0.0068949554,-0.0089047207,0.0034458570,0.0314367376,-0.0091008972,0.0191156920
2.2349910736,-0.0030723901,-0.0145329488,0.0038412742,0.0260856748,-0.0081061395,0.0159310177
2.2450609207,-0.0001258942,-0.0153620495,0.0071005756,0.0133152865,-0.0125589455,0.0010668512
2.2553899288,0.0039240625,-0.0075781597,0.0024071271,0.0037432984,-0.0158828367,-0.0074251704
2.2651939392,0.0041543152,-0.0086054457,-0.0062508648,0.0079425704,-0.0095487749,-0.0180410631
2.2752728462,0.0043883231,-0.0116029633,-0.0100841587,0.0004806602,-0.0107096462,-0.0233487431
2.2854030132,0.0046285894,-0.0020111452,-0.0140575236,-0.0113424435,-0.0023172267,-0.0222797487
2.2956359386,-0.0000765117,-0.0011590373,-0.0141935414,-0.0124627817,0.0030140223,-0.0169687420
2.3055169582,0.0000656751,-0.0071035279,-0.0094650453,-0.0188660864,0.0029511717,-0.0180289466
2.3155450821,-0.0047173295,-0.0130862845,-0.0155135458,-0.0220972728,0.0061267912,-0.0148409428
2.3256068230,-0.0075831506,-0.0112766279,-0.0167383626,-0.0210945923,0.0124952085,-0.0158998165
2.3359451294,-0.0094996784,-0.0104101552,-0.0130847162,-0.0232490115,0.0145910494,-0.0169594213
2.3457429409,-0.0055699740,-0.0066019548,-0.0015894837,-0.0221163668,0.0082551232,-0.0137774758
2.3558020592,-0.0006313416,-0.0057026399,0.0079801613,-0.0284422040,0.0007855557,-0.0116555346
2.3659079075,0.0024206846,-0.0077814115,0.0010071330,-0.0283782855,-0.0055804644,-0.0116587309
2.3762121201,0.0025641827,-0.0147205247,-0.0001284546,-0.0262377150,-0.0066568479,-0.0169694070
2.3860020638,0.0037146716,-0.0090310229,-0.0070881313,-0.0219793208,-0.0055516362,-0.0159081370
2.3960559368,0.0058293249,-0.0033075463,-0.0081721609,-0.0241334736,-0.0034274317,-0.0127211986
2.4062108994,0.0079131331,-0.0005024922,-0.0073264902,-0.0294456780,-0.0055683469,-0.0084737232
2.4165070057,0.0070512202,0.0042229639,-0.0104565090,-0.0337468982,-0.0024223549,-0.0084713269
2.4263401031,0.0042490568,0.0011476028,-0.0136163896,-0.0230670907,-0.0034178447,-0.0127217313
2.4363389015,0.0053132679,-0.0008989227,-0.0089229411,-0.0209335517,-0.0034060602,-0.0137841338
2.4464488029,0.0005469230,-0.0039206995,-0.0080876416,-0.0123874675,-0.0044132676,-0.0169722047
2.4567508698,-0.0051900838,-0.0059686555,-0.0169267729,-0.0049794596,0.0020243917,-0.0159085374
2.4666159153,-0.0050698910,-0.0060198558,-0.0178962424,-0.0017903242,0.0030925856,-0.0190942101
2.4767708778,-0.0030175538,-0.0050658239,-0.0101168221,-0.0071019707,0.0009514706,-0.0148465345
2.4875669479,0.0019343105,-0.0031897079,-0.0043573445,-0.0240892135,-0.0076649208,-0.0116611272
2.4972980022,0.0000595955,-0.0062255515,-0.0036375588,-0.0348811373,0.0038927989,-0.0148386788
2.5075500011,0.0001622347,-0.0122608794,-0.0088135069,-0.0423723422,0.0059495582,-0.0148357488
2.5175759792,0.0022278337,-0.0046850694,-0.0082224673,-0.0423840098,0.0069824653,-0.0190820266
2.5275378227,0.0043199863,0.0048306333,-0.0076031154,-0.0370270610,0.0049070641,-0.0190844238
2.5377068520,0.0015385059,0.0056362497,-0.0117324656,-0.0284775682,0.0039342111,-0.0169632155
2.5470747948,-0.0022033246,0.0045342194,-0.0157917812,-0.0210508108,0.0082365479,-0.0180247519
2.5569849014,-0.0050331745,0.0034653891,-0.0178465918,-0.0007838616,0.0094952239,-0.0148436716
2.5668909550,-0.0040001366,0.0015362847,-0.0187369660,0.0184585415,0.0065076901,-0.0106028542
2.5772070885,-0.0029721947,0.0016027439,-0.0165845230,0.0227701999,0.0023078851,-0.0095442478
2.5869917870,-0.0048799310,0.0026620377,-0.0144020384,0.0280935913,0.0033947211,-0.0127304541
2.5972528458,-0.0057960842,0.0008311021,-0.0111939972,0.0302619375,0.0002580499,-0.0084853750
2.6074409485,-0.0038061829,0.0028795947,-0.0021896427,0.0207339469,-0.0072320905,-0.0053012995
2.6176040173,-0.0017904731,-0.0048432006,-0.0029589601,0.0153759066,-0.0051634135,-0.0063609043
2.6274449825,-0.0016856584,-0.0145364655,-0.0066583222,0.0100402636,-0.0052100187,-0.0063595735
2.6375179291,-0.0016064438,-0.0145275248,-0.0055899685,-0.0028062388,-0.0010713334,-0.0052920454
2.6475949287,-0.0025398524,-0.0135690225,0.0041003162,-0.0177998357,0.0040962640,-0.0063474560
2.6579120159,-0.0024945529,-0.0155980838,0.0116737420,-0.0402192846,0.0049683163,-0.0052793953
2.6677339077,-0.0034112425,-0.0041878475,0.0014513665,-0.0584776551,0.0164808948,-0.0052690087
2.6777758598,-0.0062742326,-0.0025249373,-0.0146652525,-0.0520759188,0.0165158492,-0.0084558139
2.6878519058,-0.0052926037,0.0001581061,-0.0210153535,-0.0478585362,0.0218858477,-0.0042070067
2.6981778145,0.0005187002,0.0087222802,-0.0195179060,-0.0435698628,0.0198086482,-0.0031479339
2.7079699039,0.0043978598,0.0163817760,-0.0140156811,-0.0327824615,0.0082169734,-0.0052800607
2.7180600166,0.0034274666,0.0095091807,-0.0093387431,-0.0168191548,0.0125727067,-0.0095287347
2.7281260490,0.0005234090,0.0045863139,-0.0104199713,0.0002650237,0.0116539160,-0.0105953300
2.7384657860,-0.0043272469,0.0016776669,-0.0016264982,0.0205605756,0.0096809799,-0.0148483329
2.7482891083,-0.0032883973,0.0037024368,0.0005468660,0.0397822075,0.0088223768,-0.0095446473
2.7583990097,-0.0012503954,-0.0039250506,-0.0019329257,0.0472415350,0.0099770566,-0.0052995021
2.7684698105,-0.0002230498,-0.0124988211,0.0014772349,0.0430150963,0.0056888349,-0.0063623693
2.7787461281,-0.0001636835,-0.0084913028,0.0007931524,0.0216541495,0.0076376027,-0.0042317077
2.7885549068,0.0008170513,-0.0026117216,-0.0020162528,0.0078592412,0.0001309507,0.0021388400
2.7987108231,0.0017595497,-0.0065063490,-0.0059251254,-0.0135174198,0.0031496438,0.0053298399
2.8087148666,-0.0002816411,-0.0046398295,-0.0110297864,-0.0317725912,0.0147037683,0.0117110405
2.8190240860,0.0015460757,0.0030171026,-0.0124074882,-0.0477601849,0.0124213062,0.0085284291
2.8288450241,0.0033910482,0.0067522870,-0.0050882166,-0.0509194955,0.0081424052,0.0074652955
2.8388900757,0.0033273010,0.0085316049,-0.0084550446,-0.0413367227,0.0103198718,0.0032174869
2.8489689827,0.0071914103,0.0103394138,-0.0107451146,-0.0327597447,0.0061158063,-0.0020957857
2.8593058586,0.0091054644,0.0112348543,-0.0080244606,-0.0124822492,0.0062921741,-0.0021001133
2.8692009449,0.0061696377,0.0024962772,-0.0012553401,0.0024767267,0.0042729652,-0.0063521164
2.8793139458,0.0003130940,-0.0013708126,-0.0002222128,0.0162720867,0.0118079130,-0.0084760543
2.8893799782,-0.0006424281,-0.0032444249,-0.0009958214,0.0322683640,0.0130087323,-0.0084795160
2.8997149467,0.0013470558,-0.0040832413,0.0012882882,0.0398258828,0.0045922119,-0.0074231736
2.9095249176,-0.0005828234,-0.0010289204,-0.0003362960,0.0429963768,0.0078170337,-0.0052987696
2.9195849895,0.0003814010,-0.0008998167,-0.0009914703,0.0323695391,0.0035360684,0.0031953161
2.9296641350,0.0052625742,0.0021224369,-0.0065659946,0.0249960423,-0.0060712853,0.0042541893
2.9400219917,-0.0016356501,0.0012345064,-0.0190421417,0.0195600260,0.0045397473,0.0116943289
2.9497690201,-0.0008302423,0.0042699324,-0.0121346777,0.0132238325,-0.0018475782,0.0170017425
2.9598770142,0.0019227472,0.0024777402,0.0025960142,0.0069199172,-0.0114037991,0.0244308971
2.9700250626,-0.0021825822,0.0016129363,0.0016809040,0.0036892369,-0.0082141310,0.0297423042
2.9803869724,-0.0063413177,-0.0041260971,-0.0041504567,-0.0006626360,0.0002359459,0.0297482982
2.9901559353,-0.0095357690,-0.0089019788,-0.0012712545,-0.0060531395,0.0054735849,0.0265668854
3.0001339912,-0.0019445213,-0.0010333312,0.0074659521,0.0015188931,-0.0050909752,0.0233732872
3.0101737976,0.0057134237,0.0010131943,0.0065804059,0.0079200678,-0.0050558215,0.0201862827
3.0205760002,0.0065925922,0.0049758898,0.0008534127,0.0047431560,-0.0072069238,0.0201871488
3.0303568840,0.0055279341,0.0079315053,-0.0088399714,0.0025108941,0.0022957677,0.0159452669
3.0404210091,0.0073743667,0.0128265368,-0.0137202805,0.0003733886,0.0022498283,0.0116981901
3.0504889488,0.0072652008,0.0099315988,-0.0205391720,0.0056882594,0.0044253645,0.0127597265
3.0608301163,0.0051759090,-0.0064938916,-0.0126485890,0.0056894841,0.0044462704,0.0159450006
3.0706329346,0.0030714183,-0.0034659158,-0.0009297795,-0.0006594919,-0.0009077487,0.0170057379
3.0806989670,0.0000008849,-0.0034273516,0.0029356414,-0.0005711289,-0.0093897842,0.0180642102
3.0907588005,-0.0050313864,-0.0082423342,0.0028840236,-0.0048939725,-0.0041358992,0.0159443337
3.1010460854,-0.0090612266,-0.0140493764,0.0009190374,-0.0006243121,-0.0041061388,0.0148820654
3.1108608246,-0.0052946601,-0.0013403547,0.0067710215,0.0005301684,-0.0125571480,0.0191247482
3.1210041046,-0.0005457195,0.0046115862,0.0088356072,0.0133546740,-0.0145380069,0.0233660974
3.1310248375,-0.0006947907,-0.0049776090,0.0041680867,0.0069641527,-0.0156341642,0.0265525691
3.1413860321,0.0010907856,-0.0009866011,-0.0083427494,0.0101063354,-0.0103061777,0.0254907012
3.1511368752,0.0008775798,-0.0008329403,-0.0140081709,0.0271276645,-0.0048450991,0.0265509058
3.1612048149,0.0036047606,0.0003773320,-0.0049400991,0.0347198546,-0.0164740570,0.0233601741
3.1712651253,0.0025192408,-0.0062403334,-0.0065133637,0.0378967412,-0.0143656339,0.0169896260
3.1816449165,-0.0024426670,-0.0040965928,-0.0090602702,0.0410951711,-0.0143437283,0.0159261581
3.1913800240,0.0023786335,-0.0009759319,-0.0047745174,0.0390360132,-0.0217824709,0.0169847645
3.2015380859,0.0033268242,-0.0046940101,-0.0043913787,0.0400689468,-0.0186391398,0.0095540117
3.2115030289,0.0013700334,-0.0045241965,-0.0069382852,0.0411355421,-0.0186367445,0.0084919445
3.2219538689,0.0052793529,-0.0004334700,-0.0006573267,0.0390429422,-0.0228919443,0.0095516164
3.2316749096,0.0023518710,0.0007189858,-0.0031669205,0.0379220173,-0.0176031720,0.0084927427
3.2417929173,-0.0045412276,-0.0029941450,-0.0037937229,0.0357120968,-0.0102015156,0.0074350019
3.2518010139,-0.0045771096,-0.0067067398,0.0052957470,0.0229694042,-0.0166932363,0.0053113974
3.2621588707,-0.0104385708,-0.0047019375,0.0005967551,0.0089815501,-0.0051298579,0.0074446560
3.2719678879,-0.0144244824,-0.0027295004,-0.0023422902,-0.0102789626,0.0000212283,0.0095757181
3.2820000648,-0.0116105769,-0.0095554842,0.0052984888,-0.0295076258,0.0019679992,0.0085203070
3.2921600342,-0.0077822302,-0.0057704104,0.0059651071,-0.0423153006,0.0018284497,0.0042762933
3.3024239540,-0.0049111936,0.0008729446,-0.0002921290,-0.0497950837,0.0028666162,0.0106486380
3.3122689724,0.0008832720,0.0016789186,-0.0045923060,-0.0454546623,-0.0045577437,0.0053348332
3.3223028183,0.0038143306,-0.0013427389,-0.0029006072,-0.0230147596,-0.0075728418,0.0010805664
3.3323531151,0.0048610475,0.0024829854,-0.0087892478,0.0080150627,-0.0158182550,-0.0031786272
3.3427281380,0.0059747901,0.0025326360,-0.0114457672,0.0357507393,-0.0145294853,-0.0053078909
3.3524780273,0.0041704085,-0.0060872687,-0.0168254450,0.0527917743,-0.0112111857,-0.0074341591
3.3626139164,0.0062405672,-0.0000668418,-0.0114529794,0.0570489950,-0.0100913262,-0.0042500836
3.3726119995,0.0141437557,0.0011474836,-0.0030900305,0.0666744635,-0.0121294437,-0.0042535458
3.3830208778,0.0171849634,-0.0132102622,-0.0034020012,0.0625044256,-0.0217166916,-0.0042563416
3.3927919865,0.0055452790,-0.0247152094,-0.0155636733,0.0494618639,0.0014789097,-0.0095504392
3.4028267860,-0.0061390493,-0.0226072315,-0.0025929874,0.0387581959,0.0045332890,-0.0148543911
3.4128999710,0.0046697762,-0.0069195880,0.0093778903,0.0260634385,-0.0061332034,-0.0063621029
3.4232339859,0.0037838726,-0.0011007440,-0.0090051955,0.0025014663,0.0021781891,-0.0021055064
3.4330821037,-0.0079900119,-0.0108987940,-0.0179371908,-0.0328740999,0.0177787207,-0.0031505306
3.4430799484,-0.0070843790,-0.0129794134,-0.0028027361,-0.0595332719,0.0153818093,-0.0095154196
3.4532151222,-0.0022506507,0.0052546607,0.0053257877,-0.0722067207,0.0025933094,-0.0010241962
3.4635009766,-0.0032724829,0.0108188735,-0.0069741076,-0.0626344234,0.0058815144,0.0021598791
3.4733569622,-0.0052576158,-0.0097987307,-0.0112838214,-0.0551139154,0.0006071239,-0.0031536599
3.4834249020,-0.0033024342,-0.0050982488,0.0019397669,-0.0486679785,-0.0035811630,-0.0031571887
3.4934349060,-0.0023136826,0.0064296471,-0.0032550758,-0.0176978111,-0.0054051620,0.0010812323
3.5037589073,-0.0003503653,-0.0042562140,-0.0090283817,0.0153761460,-0.0040280414,0.0053212512
3.5136218071,-0.0023176463,-0.0128700985,-0.0067657297,0.0324379541,-0.0028386735,0.0021321157
3.5236299038,0.0015875605,0.0047985064,0.0013564759,0.0431727543,-0.0091042258,0.0031877263
3.5337328911,0.0075015333,0.0098547088,-0.0010753936,0.0582094975,-0.0185089149,0.0053028087
3.5440399647,0.0026666133,0.0023151983,-0.0053528612,0.0592289269,-0.0142893344,-0.0000052042
3.5539488792,-0.0031644793,-0.0071971668,-0.0087183779,0.0463264436,-0.0048660049,-0.0021208194
3.5640997887,-0.0021434517,-0.0109294904,0.0013889008,0.0261143856,-0.0114160497,-0.0031807576
3.5740249157,-0.0010952445,-0.0079723848,0.0054194862,0.0005027642,-0.0116466796,-0.0042361682
3.5842909813,-0.0088099930,-0.0129142059,-0.0024380751,-0.0166914538,-0.0001735152,-0.0116583984
3.5941190720,-0.0106771681,-0.0130478991,-0.0007234878,-0.0391442999,0.0038678318,-0.0127124777
3.6041460037,-0.0056896303,-0.0093696965,0.0047163898,-0.0508476160,0.0005882820,-0.0116484109
3.6142649651,-0.0046165977,-0.0086354865,-0.0015665359,-0.0497250967,-0.0046797171,-0.0074041318
3.6245918274,-0.0015953573,-0.0030316364,-0.0078305667,-0.0476033501,-0.0035994058,-0.0074047977
3.6343650818,-0.0005268547,-0.0032245766,-0.0101007884,-0.0347770341,-0.0056164837,-0.0084708603
3.6445178986,0.0044343974,-0.0052590622,-0.0111946529,-0.0069859913,-0.0095979087,-0.0052939756
3.6544928551,0.0055012014,-0.0033274542,-0.0111411279,0.0111434776,-0.0083922967,-0.0074215755
3.6649150848,0.0017050115,-0.0023194205,-0.0080581969,0.0207541324,-0.0094034988,-0.0127340490
3.6746158600,0.0048006084,-0.0032372128,-0.0058425134,0.0239773579,-0.0114906188,-0.0116741108
3.6846950054,0.0029995947,0.0006776798,-0.0075861281,0.0239658244,-0.0104435300,-0.0137971155
3.6947770119,0.0002310184,0.0016866076,-0.0102790063,0.0271112844,-0.0051451707,-0.0191042628
3.7051069736,0.0023796766,-0.0011612427,-0.0012199945,0.0250400379,-0.0115366243,-0.0201688632
3.7149758339,0.0025859682,0.0008238900,0.0068114931,0.0133538209,-0.0169580206,-0.0222922005
3.7249739170,-0.0030570121,0.0036998738,0.0059263641,-0.0048015062,-0.0149685722,-0.0180376023
3.7351078987,-0.0126804505,-0.0031984102,-0.0009573764,-0.0187780410,-0.0044450928,-0.0127198007
3.7453839779,-0.0165126417,-0.0120963110,-0.0089681214,-0.0295486376,0.0050332975,-0.0095287357
3.7552118301,-0.0145449731,-0.0132175935,-0.0111985868,-0.0359791070,0.0082157757,-0.0010311205
3.7652001381,-0.0107063148,-0.0055653704,-0.0047862595,-0.0541500710,0.0112537760,0.0010990090
3.7753138542,-0.0077932272,-0.0077223433,-0.0004133648,-0.0605038367,0.0058374391,-0.0073964749
3.7856740952,-0.0038628073,-0.0050420417,0.0000203185,-0.0604276471,-0.0015759359,-0.0052763987
3.7954859734,-0.0008269044,0.0024411429,-0.0063644713,-0.0625560433,-0.0027178992,-0.0148326196
3.8054969311,0.0003203658,0.0002052534,-0.0107579893,-0.0486983880,-0.0015626198,-0.0190835577
3.8156399727,0.0034579544,0.0009566295,-0.0101068085,-0.0295028575,-0.0003615343,-0.0233350284
3.8258948326,0.0105341282,0.0134590017,-0.0053582257,-0.0123061882,-0.0118426885,-0.0169735346
3.8357779980,0.0137028899,0.0153494822,-0.0062263077,0.0176048391,-0.0147716329,-0.0180443916
3.8457579613,0.0129581001,0.0027779688,-0.0097163385,0.0528527349,-0.0176330656,-0.0159313083
3.8559298515,0.0102344360,-0.0038400542,-0.0120201772,0.0677946657,-0.0174748730,-0.0116878264
3.8661818504,0.0103824046,0.0022166718,-0.0123625463,0.0688729286,-0.0185053851,-0.0085036177
3.8760399818,0.0065860357,0.0014884222,-0.0126786297,0.0678201765,-0.0195272397,-0.0010712678
3.8860309124,0.0046707299,-0.0060515655,-0.0120846098,0.0507272929,-0.0175196826,0.0042430037
3.8961400986,0.0007589665,-0.0039213551,-0.0087621277,0.0282973498,-0.0155795682,0.0063732662
3.9064388275,-0.0021944137,-0.0018889558,-0.0105384057,0.0090503134,-0.0114976093,0.0074431915
3.9162299633,-0.0022401006,-0.0028251063,-0.0104878014,-0.0037546977,-0.0116025377,0.0085081896
3.9263200760,0.0026081412,0.0040138708,-0.0007612772,-0.0090293549,-0.0180283450,0.0063820546
3.9364449978,0.0084534194,0.0108446823,0.0041165287,-0.0089436024,-0.0265094489,0.0074395961
3.9467020035,0.0074793305,0.0031092514,0.0042180950,0.0059310850,-0.0200409628,0.0031921868
3.9565489292,0.0045714285,0.0022024859,-0.0024054116,0.0229433589,-0.0134981088,0.0074383309
3.9665479660,0.0045233574,0.0101162540,-0.0069943136,0.0303935520,-0.0112402812,0.0180542227
3.9767141342,0.0024359135,0.0132481800,-0.0095544523,0.0473722667,-0.0015351896,0.0191165581
3.9869771004,-0.0006383153,-0.0010618222,-0.0109826988,0.0580895208,-0.0056871907,0.0191129632
3.9967679977,0.0001594630,-0.0017142546,-0.0065578884,0.0601619929,0.0007251685,0.0233628340
4.0068359375,-0.0039503668,-0.0014378083,-0.0051449006,0.0463067368,-0.0015237380,0.0223022308
4.0169839859,-0.0090289507,-0.0099993004,-0.0077920025,0.0227643941,0.0046164463,0.0191258788
4.0272922516,-0.0092096422,-0.0079713715,-0.0058335131,-0.0060391594,0.0032688202,0.0138238594
4.0371026993,-0.0044412408,0.0017646301,0.0028071934,-0.0209171753,-0.0032553915,0.0095771812
4.0470609665,0.0003639368,0.0075212466,0.0074239904,-0.0400690846,-0.0087221954,0.0106420470
4.0572366714,-0.0015913340,0.0044343816,0.0060599977,-0.0549817197,-0.0120980190,0.0010879567
4.0675768852,-0.0064299796,-0.0055046333,0.0046813423,-0.0550463274,-0.0057459800,-0.0010323190
4.0773181915,-0.0054330323,-0.0027778398,0.0081490809,-0.0518231019,-0.0078330990,0.0000276192
4.0873861313,-0.0024561973,-0.0029446136,0.0087587172,-0.0401079915,-0.0056220763,-0.0020981827
4.0974607468,-0.0033735724,-0.0031137120,0.0026420290,-0.0316039883,-0.0023783464,-0.0042223199
4.1078457832,-0.0042871926,-0.0051953448,-0.0043907827,-0.0273672715,0.0008490055,-0.0031601181
4.1175937653,-0.0042677019,-0.0024131786,-0.0104945367,-0.0274290554,0.0072427224,0.0010902871
4.1276240349,-0.0052883718,-0.0005673420,-0.0098143285,-0.0273534469,-0.0001633286,0.0042717662
4.1377248764,-0.0023935528,-0.0016034496,-0.0061079329,-0.0177040156,-0.0042888313,0.0095762499
4.1480951309,-0.0014960262,0.0022576202,-0.0139877861,-0.0058630686,-0.0136736771,0.0191254150
4.1578807831,-0.0025962682,0.0023132910,-0.0197959617,0.0101252180,-0.0113772340,0.0244314969
4.1679267883,-0.0096086357,-0.0033728133,-0.0225271657,0.0293195527,-0.0101543777,0.0233644322
4.1779928207,-0.0078463051,-0.0040733470,-0.0104633039,0.0486461110,-0.0216437858,0.0254773870
4.1884031296,-0.0001258942,0.0020911444,-0.0010702080,0.0647486225,-0.0310742371,0.0222836565
4.1981368065,-0.0011661741,0.0033771147,-0.0023512905,0.0615147464,-0.0279261172,0.0212242510
4.2081670761,0.0007614401,-0.0021659981,-0.0085188216,0.0678147748,-0.0183756221,0.0127320960
4.2182617188,0.0046801176,-0.0145021928,-0.0077956980,0.0731349662,-0.0173303317,0.0031750761
4.2286977768,0.0067070629,-0.0132403029,-0.0002937383,0.0656760707,-0.0184993912,-0.0031931410
4.2384462357,0.0078346040,0.0015385497,-0.0045913523,0.0560282320,-0.0143531170,-0.0053122183
4.2485260963,0.0050350931,-0.0021603953,-0.0079408949,0.0484799854,-0.0070255627,-0.0106160371
4.2585539818,0.0022336154,-0.0127375377,-0.0065732663,0.0366968289,-0.0029117772,-0.0148581862
4.2688970566,0.0053192880,-0.0078096641,-0.0063155955,0.0291976854,0.0002263584,-0.0116689177
4.2786750793,0.0073598828,-0.0048303856,-0.0060950583,0.0228071641,-0.0008697987,-0.0084824450
4.2887449265,0.0024791269,-0.0135240210,0.0056926543,-0.0049889414,0.0042204345,-0.0042255153
4.2988128662,-0.0024502666,-0.0194190387,0.0103656584,-0.0381439663,0.0113654286,-0.0031517288
4.3091506958,-0.0064183865,-0.0137571348,0.0099106366,-0.0509198979,0.0080998605,0.0010954802
4.3189458847,-0.0074579809,-0.0110559119,0.0006491476,-0.0530621409,0.0091768429,0.0064055570
4.3290410042,-0.0055850539,-0.0092916144,-0.0046544140,-0.0423998013,0.0103233345,0.0053424230
4.3390870094,-0.0017370674,-0.0035739790,-0.0117668575,-0.0242399722,0.0083251651,0.0000278190
4.3494439125,0.0011771527,0.0041504847,-0.0099706119,-0.0102726258,-0.0011307218,-0.0042273132
4.3592262268,0.0041568782,0.0099705206,-0.0012420482,-0.0027095135,-0.0106491260,-0.0095429830
4.3692808151,0.0072196331,0.0090116011,-0.0020805662,0.0208165571,-0.0157689862,-0.0127377771
4.3793506622,0.0074062850,0.0032369245,-0.0017460651,0.0421665870,-0.0166851133,-0.0191144496
4.3896980286,0.0027287214,0.0004687059,-0.0012269086,0.0624349192,-0.0154482760,-0.0191177130
4.3994908333,-0.0009476634,-0.0032189141,-0.0025416678,0.0752415285,-0.0153225735,-0.0169973038
4.4094877243,-0.0056158993,-0.0097908033,-0.0037404364,0.0805337429,-0.0110103171,-0.0138119636
4.4196271896,-0.0044648144,-0.0085480465,-0.0020228690,0.0816205740,-0.0131437760,-0.0169987008
4.4300022125,-0.0013697537,-0.0024360667,-0.0061504310,0.0784345791,-0.0141561758,-0.0053190095
4.4397411346,0.0006818083,0.0045986520,-0.0104225939,0.0580856353,-0.0068924045,-0.0031866166
4.4498291016,-0.0061346386,0.0008538115,-0.0178278163,0.0345813446,-0.0038733780,0.0031921202
4.4599070549,-0.0042570923,0.0039055098,-0.0127449697,0.0132654039,-0.0061125644,0.0138144046
4.4702596664,-0.0043746922,-0.0018504512,-0.0116952723,-0.0027425643,-0.0062235519,0.0180644765
4.4800081253,-0.0084496830,-0.0028097879,-0.0118060773,-0.0241261497,-0.0021451863,0.0212573409
4.4901118279,-0.0125393067,-0.0018736374,-0.0110927885,-0.0358821936,-0.0001127950,0.0233858712
4.5001811981,-0.0118023250,0.0048899399,-0.0026905006,-0.0422412902,-0.0043988866,0.0255089439
4.5104618073,-0.0041541252,0.0106867300,0.0067945654,-0.0271980260,-0.0149057899,0.0212523472
4.5203189850,0.0016234127,0.0068024145,0.0028488571,-0.0089950524,-0.0211410485,0.0169974137
4.5303869247,-0.0003326627,0.0000265586,-0.0019208259,0.0059211529,-0.0189233012,0.0116858734
4.5404157639,-0.0003421100,0.0001076210,-0.0046471423,0.0208817273,-0.0209217370,0.0106192771
4.5507960320,0.0036062209,0.0002560961,-0.0013728208,0.0315515213,-0.0208777934,0.0031847968
4.5605778694,0.0085687246,-0.0015101683,0.0048989588,0.0390315428,-0.0218804739,0.0021205975
4.5706448555,0.0096841063,-0.0033228646,-0.0004811353,0.0422638468,-0.0250564944,-0.0010670066
4.5807127953,0.0059139635,-0.0070901169,-0.0097889369,0.0421796925,-0.0165546201,0.0010608591
4.5910558701,0.0000891594,-0.0089025153,-0.0065721935,0.0250488278,-0.0113974735,0.0010665182
4.6007571220,-0.0028538199,-0.0068724407,0.0032792024,-0.0026310030,-0.0179850701,0.0042556538
4.6109528542,-0.0058181379,-0.0010743391,-0.0065299934,-0.0144783678,-0.0063270149,0.0180683378
4.6210207939,-0.0098815653,-0.0049759997,-0.0086427396,-0.0241230056,-0.0021391944,0.0223200750
4.6313161850,-0.0051870439,0.0027825583,-0.0039896434,-0.0220180694,0.0010544017,0.0212604702
4.6411128044,0.0053989496,0.0144671546,-0.0040979451,-0.0069504380,-0.0115471436,0.0212503504
4.6511530876,0.0072600450,0.0106543647,-0.0117819970,0.0176079292,-0.0135021042,0.0138094109
4.6612191200,0.0072107222,0.0059055435,-0.0183507279,0.0271982383,-0.0123987552,0.0074367328
4.6715979576,0.0062422361,0.0041017877,-0.0170407370,0.0378672332,-0.0123402998,0.0021251915
4.6814241409,0.0072479453,0.0042851912,-0.0117679900,0.0496056490,-0.0122377686,0.0021222620
4.6913890839,0.0053590145,0.0006386983,-0.0053888625,0.0581366867,-0.0122037455,-0.0042516813
4.7015571594,-0.0004311296,0.0018309701,0.0009624892,0.0495788828,-0.0101493830,-0.0031866829
4.7118387222,-0.0003607961,-0.0028563987,0.0043244893,0.0484301560,-0.0016933149,-0.0063656983
4.7216978073,-0.0022643597,-0.0153524531,0.0018009477,0.0398617014,0.0014220511,-0.0053001675
4.7316999435,-0.0051867459,-0.0133103980,-0.0038064783,0.0216327384,0.0097881053,0.0000157681
4.7418279648,-0.0052474532,-0.0054726852,-0.0095444387,0.0109092528,0.0150137600,0.0021446990
4.7521128654,-0.0033858211,-0.0044421805,-0.0056484407,0.0002825744,0.0106900511,0.0042691692
4.7619590759,-0.0015335771,-0.0064013852,-0.0047897166,-0.0231495146,0.0062686717,0.0085201068
4.7719597816,-0.0026215704,-0.0075096739,-0.0148686832,-0.0455665663,0.0071469820,0.0106506357
4.7820777893,-0.0076281819,-0.0067119254,-0.0231229141,-0.0413720869,0.0146182142,0.0117151011
4.7923669815,-0.0067880843,-0.0039088381,-0.0186351016,-0.0327945538,0.0104139484,0.0064020283
4.8021650314,-0.0010247919,0.0048228251,-0.0071262186,-0.0113140270,-0.0031995983,0.0053279754
4.8122849464,0.0058275666,0.0106686102,-0.0051683849,0.0068965349,-0.0104734236,0.0042562531
4.8222942352,0.0029249100,0.0039536702,-0.0020384854,0.0229556635,-0.0156524722,0.0021259903
4.8327407837,0.0039195325,-0.0046452535,0.0109311277,0.0272272937,-0.0156020718,0.0042492622
4.8424301147,0.0000281838,-0.0054849638,0.0131588513,0.0282512791,-0.0113556627,0.0031893239
4.8525648117,-0.0009302589,-0.0053339256,0.0106207663,0.0431615449,-0.0080430228,0.0031880590
4.8625640869,0.0020247011,-0.0080117835,0.0092037851,0.0560022406,-0.0110726357,0.0095540788
4.8729887009,0.0000619796,-0.0087625040,0.0048339302,0.0506316051,-0.0079707187,0.0042478638
4.8827009201,-0.0067990515,-0.0134396208,-0.0054505533,0.0452458933,-0.0026707612,0.0106226727
4.8928370476,-0.0059139226,-0.0132623566,-0.0109716123,0.0302434564,0.0035714218,0.0116916653
4.9028201103,-0.0070178602,-0.0082739247,-0.0069296425,0.0089440262,-0.0008520887,0.0127566634
4.9132490158,-0.0071720872,0.0014959919,-0.0030986136,-0.0113326162,-0.0010074174,0.0159461312
4.9229707718,-0.0004696938,0.0014984357,0.0016567641,-0.0144818034,-0.0063542454,0.0138206631
4.9331207275,0.0014211742,-0.0033957015,0.0034812624,-0.0186888780,-0.0127922380,0.0085095875
4.9431028366,0.0053355303,0.0004237044,-0.0015137262,-0.0143809505,-0.0170405116,0.0021355776
4.9535241127,0.0053769257,0.0032927145,-0.0074287122,-0.0080173267,-0.0127204657,0.0053221830
4.9632387161,0.0063888635,0.0042774426,-0.0005797810,-0.0016065659,-0.0137601644,0.0000110409
4.9733028412,0.0074140634,0.0062578665,0.0024638111,0.0133246332,-0.0125693986,0.0000085776
4.9834499359,0.0084543135,0.0063253390,-0.0012070007,0.0229074843,-0.0103635015,0.0000072459
4.9937009811,0.0084973481,0.0054564821,0.0029329592,0.0239821225,-0.0114211766,-0.0010562874
5.0035071373,0.0026372282,0.0006794083,0.0031249458,0.0165047664,-0.0103838751,0.0053169234
5.0136451721,-0.0013088080,-0.0041357530,-0.0045743054,0.0068266531,-0.0030053875,0.0106313275
5.0236430168,-0.0053115580,-0.0118423356,0.0003350311,-0.0017103758,-0.0030799562,0.0106334584
5.0340518951,-0.0044297967,-0.0059615029,0.0042362744,-0.0016314136,-0.0104872053,0.0138161350
5.0437779427,-0.0015626046,0.0037713994,-0.0055286950,-0.0048296032,-0.0104736239,0.0201877486
5.0539059639,-0.0075732563,0.0018291819,-0.0143436855,-0.0059580375,-0.0041178567,0.0201921426
5.0639109612,-0.0067666266,0.0018713224,-0.0134229129,-0.0048802570,-0.0051695388,0.0201913435
5.0742831230,-0.0020250769,0.0009730804,-0.0114407009,0.0037272926,-0.0125347767,0.0180608146
5.0840420723,-0.0021168382,0.0020262350,-0.0123448437,0.0080069927,-0.0135515723,0.0191210192
5.0941839218,-0.0031906457,-0.0056454791,-0.0121634668,0.0186646171,-0.0124389697,0.0127481418
5.1041822433,-0.0032495947,-0.0132867945,0.0016722613,0.0133795738,-0.0178252142,0.0074377982
5.1145191193,0.0045938399,-0.0112436069,0.0164534971,0.0038040178,-0.0211407151,0.0000061141
5.1243138313,0.0086458232,-0.0015155923,0.0146300728,0.0049547702,-0.0296401922,-0.0031838203
5.1343970299,0.0039384868,0.0023609747,0.0031031901,0.0155172404,-0.0189219024,-0.0010587508
5.1442828178,0.0040504243,-0.0005209100,-0.0025554961,0.0101278014,-0.0136704165,-0.0021165584
5.1545391083,0.0050936546,-0.0004782927,0.0034325058,0.0090936963,-0.0168488976,0.0000057147
5.1644530296,0.0022236018,-0.0014217150,-0.0022848910,0.0111549832,-0.0093824603,0.0031943175
5.1747932434,-0.0026501806,-0.0023499380,-0.0080006188,0.0090447478,-0.0115027362,0.0063795913
5.1847939491,-0.0026847215,-0.0003639710,-0.0118138259,0.0068705427,-0.0072427439,0.0116912657
5.1949911118,-0.0037629993,-0.0022430669,-0.0195203498,0.0175683796,-0.0092307264,0.0180590842
5.2048530579,-0.0029555054,-0.0001639378,-0.0213010386,0.0196962450,-0.0080956873,0.0265535023
5.2148780823,-0.0041355584,0.0068166004,-0.0124101108,0.0122342547,-0.0092351874,0.0244306307
5.2250556946,-0.0033424289,0.0020946015,-0.0074259704,0.0079417722,-0.0071850857,0.0191237498
5.2352490425,-0.0034730227,0.0012438047,0.0004755788,0.0080468878,-0.0178159587,0.0159330815
5.2451930046,0.0003689734,0.0081350552,0.0025567941,0.0070005320,-0.0199542120,0.0148704816
5.2551460266,-0.0006289872,0.0033659686,0.0046822960,0.0144995395,-0.0231065284,0.0095579410
5.2653031349,0.0003746060,-0.0062690629,0.0068550045,0.0102411453,-0.0242117401,0.0084966710
5.2755489349,0.0013967959,-0.0071783317,0.0021569068,0.0090666385,-0.0136320665,0.0053171231
5.2854590416,0.0033640771,-0.0100304736,0.0004115038,0.0112333866,-0.0167895108,0.0063767950
5.2954559326,0.0063551571,-0.0099740876,-0.0013667411,0.0133217564,-0.0125470273,0.0031923866
5.3056077957,0.0034767298,-0.0060442341,-0.0051422184,0.0100980001,-0.0104668327,0.0010706462
5.3158397675,0.0005925206,-0.0060614599,-0.0109344190,-0.0005717417,-0.0105748232,-0.0010493631
5.3256897926,-0.0023065300,-0.0070759906,-0.0158847645,-0.0197981670,-0.0085790511,0.0053273095
5.3357300758,-0.0043067429,-0.0023030888,-0.0141431754,-0.0230506845,-0.0032743001,0.0095779803
5.3458290100,-0.0033986659,-0.0003708255,-0.0065009063,-0.0144284358,-0.0116877584,0.0095715895
5.3561468124,0.0014456419,0.0054864036,-0.0026145047,0.0005956292,-0.0200378355,0.0106248697
5.3659687042,0.0043612625,0.0045675980,-0.0024880832,0.0101875365,-0.0189137142,0.0074375984
5.3759961128,0.0024489074,0.0017298806,-0.0061614579,0.0230121221,-0.0209657457,0.0010628564
5.3861298561,-0.0004179867,-0.0020505439,-0.0058596199,0.0262023229,-0.0198837034,0.0000007878
5.3963818550,-0.0012878570,-0.0038746248,-0.0084369844,0.0357580371,-0.0155892884,-0.0053096218
5.4062647820,-0.0041450653,-0.0056642545,-0.0041886037,0.0293254368,-0.0124345087,-0.0010592169
5.4162616730,-0.0050832722,-0.0074776066,0.0038988523,0.0240039602,-0.0135362586,0.0000044496
5.4263658524,-0.0040468369,-0.0074028624,0.0089566642,0.0090519097,-0.0126265232,-0.0031766961
5.4367117882,-0.0029807182,-0.0093460334,0.0100133354,-0.0016072318,-0.0137812691,-0.0031740330
5.4464550018,-0.0019148680,-0.0104067577,-0.0007619328,-0.0198331065,-0.0054447763,-0.0021034423
5.4565057755,-0.0038249583,-0.0095509542,-0.0087421602,-0.0220093913,-0.0012267288,-0.0031621819
5.4666280746,-0.0038063021,-0.0086828722,-0.0060267514,-0.0284004435,-0.0023298101,-0.0010375121
5.4769129753,0.0001070408,-0.0039221300,0.0005540185,-0.0325865299,-0.0108541232,-0.0010417065
5.4867401123,-0.0047170613,-0.0011641037,-0.0074886149,-0.0293947347,-0.0097513068,0.0010816318
5.4968042374,-0.0085738990,0.0016264069,-0.0164795592,-0.0219466947,-0.0075638536,0.0010806331
5.5069408417,-0.0095553789,0.0015688288,-0.0098203486,-0.0144538945,-0.0095998403,0.0042631105
5.5172109604,-0.0056300256,0.0054558860,-0.0029957956,0.0059481296,-0.0221685637,0.0021279878
5.5270709991,0.0022613613,0.0055213915,-0.0047379201,0.0166423190,-0.0241765864,0.0053096660
5.5370826721,0.0052642431,0.0036681045,-0.0054245060,0.0230297782,-0.0231077932,-0.0021243482
5.5472068787,0.0034212975,-0.0059391512,-0.0021813577,0.0272849761,-0.0220441259,-0.0074338927
5.5575017929,0.0084862318,-0.0039153947,-0.0057331389,0.0294319913,-0.0231014676,-0.0095574306
5.5673027039,0.0096212532,0.0010269630,-0.0102710193,0.0336499065,-0.0177245457,-0.0042468207
5.5773429871,0.0048093107,-0.0017611635,-0.0012236900,0.0186261069,-0.0093461070,-0.0010535577
5.5874490738,-0.0010351929,-0.0075425161,0.0056884820,-0.0006115027,-0.0062962552,0.0042618457
5.5977506638,-0.0039776955,-0.0065872921,-0.0011366672,-0.0027744956,-0.0030974662,0.0095731877
5.6076130867,-0.0079554413,-0.0055986894,-0.0070117777,-0.0027942024,-0.0009546869,0.0127596594
5.6176090240,-0.0100215767,-0.0026655446,-0.0138525432,0.0035653468,0.0033597006,0.0148831978
5.6277160645,-0.0111450944,0.0012795079,-0.0167755559,0.0025413614,-0.0008867097,0.0159431361
5.6380429268,-0.0044491980,0.0043000923,-0.0127807921,0.0100346440,-0.0029513254,0.0148793366
5.6478118896,-0.0026114078,0.0034394611,-0.0136401718,0.0068875863,-0.0082704574,0.0170010757
5.6578779221,0.0011903552,0.0044855224,-0.0086859530,0.0026551578,-0.0125992252,0.0095663965
5.6679468155,0.0050815251,0.0035723795,-0.0037465759,0.0058650663,-0.0136599634,0.0053178556
5.6783289909,0.0110179987,0.0065096961,-0.0036306446,0.0048035569,-0.0147782899,-0.0021154932
5.6880841255,0.0091839042,0.0094601260,-0.0044454401,0.0197614674,-0.0168113485,-0.0084911007
5.6981496811,0.0073727872,0.0017441857,-0.0031807488,0.0261634141,-0.0167835839,-0.0127394414
5.7081871033,0.0055905785,-0.0059800399,-0.0009805626,0.0185960419,-0.0073205736,-0.0159181915
5.7186360359,0.0018405226,-0.0088697327,0.0040519768,0.0100282794,-0.0041912263,-0.0127291884
5.7283630371,0.0000015405,-0.0069492711,0.0031199390,0.0003729891,0.0010575975,-0.0084769186
5.7384400368,-0.0068209562,-0.0089430464,-0.0037583180,-0.0039421320,0.0063869823,0.0010836957
5.7485380173,-0.0127626155,-0.0089710606,-0.0077762073,-0.0124876816,0.0074011143,0.0053335680
5.7589092255,-0.0099636409,-0.0051259054,-0.0079965061,-0.0338469781,0.0094062081,0.0159577169
5.7687001228,-0.0082205329,-0.0032938968,-0.0123018092,-0.0477814376,0.0156787522,0.0202115830
5.7787570953,-0.0035838576,-0.0024709951,-0.0176360086,-0.0531178564,0.0156395361,0.0212742519
5.7887930870,0.0020513146,0.0013056147,-0.0151709979,-0.0424284562,0.0135691948,0.0148997093
5.7991089821,0.0068169739,0.0070647942,-0.0125339096,-0.0241727009,0.0020077471,0.0074571064
5.8089017868,0.0077616777,0.0089713680,-0.0116830533,-0.0028237365,0.0010777711,-0.0010431714
5.8190197945,0.0058447625,0.0012073267,-0.0067378348,0.0100408755,-0.0052244663,-0.0084825791
5.8290538788,0.0079401042,0.0031887640,-0.0036270090,0.0249774810,-0.0051355166,-0.0148571208
5.8394041061,0.0051502492,0.0052472698,0.0035011701,0.0388869047,-0.0081848372,-0.0127372444
5.8491897583,-0.0005750152,0.0005079854,0.0029078657,0.0474031605,-0.0059813368,-0.0116765080
5.8592429161,-0.0043775830,-0.0061481846,-0.0054108566,0.0537328832,0.0015437577,-0.0053041624
5.8693070412,-0.0063317511,-0.0107872738,-0.0078442162,0.0547696501,0.0047568614,-0.0021174238
5.8796629906,-0.0063544605,-0.0096073402,-0.0016098685,0.0376751944,0.0067365221,-0.0010501621
5.8894491196,-0.0073769186,-0.0036778699,-0.0063003367,0.0152479149,0.0087112561,0.0063891122
5.8995060921,-0.0055044387,-0.0065726293,-0.0101988381,-0.0093415314,0.0127134547,0.0021498923
5.9095749855,-0.0045888517,-0.0076241745,-0.0084872907,-0.0360426493,0.0145816626,-0.0010277915
5.9199090004,-0.0026874037,-0.0049175275,-0.0089690154,-0.0584875867,0.0175487567,-0.0042066071
5.9297080040,0.0002099482,-0.0002804649,-0.0026815003,-0.0530773774,0.0101683382,-0.0042116675
5.9397687912,0.0031133799,0.0121473419,0.0016797715,-0.0572724640,0.0038114395,0.0032208825
5.9498100281,0.0001485256,0.0168196317,-0.0026372140,-0.0369751826,0.0018734570,0.0042765597
5.9602160454,-0.0018500778,0.0011753190,-0.0135038560,-0.0060522081,0.0043235654,0.0127619235
5.9699978828,-0.0059055779,-0.0016610873,-0.0124759143,0.0174480584,0.0024343187,0.0170022082
5.9800620079,-0.0070712361,0.0034229506,-0.0024974411,0.0409634523,-0.0005175290,0.0212435592
5.9901309013,-0.0072446261,-0.0001577389,0.0009090834,0.0623720698,-0.0066694310,0.0254822448
6.0004730225,-0.0074188206,-0.0037070166,0.0005211764,0.0644927472,-0.0056029679,0.0233579762
6.0102167130,-0.0056312177,-0.0043770326,-0.0096461838,0.0580478981,-0.0014079569,0.0244235061
6.0203318596,0.0020138829,-0.0021202813,-0.0003792710,0.0527922288,-0.0099834027,0.0180490315
6.0304012299,0.0077999141,-0.0008893263,-0.0037761398,0.0507005826,-0.0142460587,0.0180474333
6.0407691002,0.0116872694,-0.0016468418,-0.0081978505,0.0336619429,-0.0187077858,0.0074308738
6.0505361557,0.0019445625,-0.0034914266,-0.0157145932,0.0271606334,-0.0092493016,0.0021282542
6.0606031418,-0.0009612235,-0.0033808004,-0.0096376007,0.0239721909,-0.0103533156,0.0000061141
6.0706787109,0.0010248927,-0.0003305924,-0.0035322970,0.0261522550,-0.0145371407,0.0063742651
6.0809788704,0.0000355748,0.0036576141,-0.0004279680,0.0143382065,-0.0072264974,0.0042573181
6.0908041000,-0.0029056759,-0.0079510463,-0.0022258824,0.0121395011,-0.0008860438,0.0031992442
6.1008238792,-0.0029159577,-0.0137443794,-0.0021450585,0.0056703091,0.0053964863,-0.0010433045
6.1109380722,-0.0000292751,-0.0049966229,-0.0031768149,-0.0071650622,0.0084953401,0.0032086987
6.1212797165,0.0018114952,-0.0001195323,0.0044948393,-0.0146428989,0.0095114689,0.0063969018
6.1309938431,0.0036706536,-0.0030944597,0.0033594901,-0.0253237709,0.0104931109,0.0085237026
6.1411509514,0.0006648210,-0.0022522460,-0.0086194938,-0.0296574272,0.0168009400,0.0053426893
6.1511759758,-0.0023782046,-0.0013561499,-0.0098759001,-0.0200309008,0.0147766713,0.0074628321
6.1615781784,0.0014098493,-0.0004035485,-0.0100110834,-0.0061160168,0.0106610898,0.0085187089
6.1713118553,-0.0006525012,0.0035006155,-0.0081380671,0.0024108924,0.0118035860,0.0095789135
6.1813950539,-0.0007317456,0.0035636772,-0.0090494817,0.0174212139,0.0044444725,0.0000155019
6.1916856766,-0.0017271134,-0.0001970184,-0.0049205488,0.0419960655,0.0014619986,-0.0021158259
6.2018241882,0.0022011010,-0.0009799850,0.0003691249,0.0505834296,-0.0037816323,-0.0042448901
6.2115898132,0.0042176154,-0.0007962835,0.0008067422,0.0516478941,-0.0038069326,-0.0095541673
6.2216959000,0.0023447780,-0.0064350022,0.0090308124,0.0399661511,-0.0092299273,-0.0116759092
6.2317128181,0.0005328563,-0.0063382639,0.0093517238,0.0281734075,-0.0040412908,-0.0137939211
6.2421078682,-0.0032597871,-0.0121672405,0.0007560187,0.0110011324,0.0053878976,-0.0095392540
6.2518491745,-0.0081615243,-0.0111969961,-0.0012286968,-0.0050750384,0.0127443476,0.0010864921
6.2619829178,-0.0043295417,-0.0092977537,0.0005685621,-0.0189676620,0.0147802671,0.0063995649
6.2719821930,-0.0015354546,-0.0103497757,-0.0016259617,-0.0328152999,0.0125855561,0.0138345780
6.2823848724,-0.0046221707,-0.0094946278,-0.0068761772,-0.0402829349,0.0125123858,0.0127756391
6.2921161652,-0.0067422781,-0.0115533723,-0.0072852438,-0.0413394123,0.0114420615,0.0127753727
6.3022150993,-0.0059523378,-0.0048601283,-0.0086228317,-0.0306558460,0.0104879178,0.0148959812
6.3122539520,-0.0031984539,-0.0048865331,-0.0020576185,-0.0178316608,0.0084431423,0.0095827086
6.3226690292,-0.0013379845,-0.0020122181,-0.0031946965,-0.0210126489,0.0062863813,0.0085205063
6.3325181007,-0.0014178845,0.0018507588,0.0015118056,-0.0124452589,0.0031571672,0.0053313710
6.3425130844,0.0024940877,-0.0001538050,-0.0024477905,-0.0060387859,0.0020691995,-0.0074125868
6.3525090218,0.0035336523,0.0007935512,0.0023932389,-0.0027857339,-0.0032286271,-0.0106014553
6.3628749847,0.0066052284,0.0007755506,0.0092480117,-0.0005780803,-0.0106721623,-0.0159141961
6.3726639748,0.0038537292,-0.0099663986,0.0132039124,0.0004970385,-0.0117584653,-0.0212240070
6.3827819824,-0.0007849428,-0.0110610379,0.0063790614,-0.0091402754,-0.0086375736,-0.0180356037
6.3928170204,-0.0015996190,-0.0014401925,0.0033638412,-0.0145057458,-0.0054734722,-0.0137854647
6.4031739235,-0.0044192467,0.0023393382,0.0032080943,-0.0219891202,-0.0033697081,-0.0063484544
6.4129409790,-0.0063420329,-0.0026560675,0.0019891197,-0.0295431782,0.0050669201,-0.0042187246
6.4230589867,-0.0073317979,-0.0105741872,-0.0002459354,-0.0380564518,0.0029121563,0.0021528881
6.4330596924,-0.0034650655,-0.0029520046,-0.0025343960,-0.0338193625,0.0061393748,0.0032152231
6.4434862137,-0.0015588197,0.0008213270,-0.0076855486,-0.0199294593,0.0041328827,0.0021476285
6.4531936646,0.0023180752,0.0065978514,-0.0039465493,-0.0145091284,-0.0043154629,0.0010802336
6.4633250237,0.0091845002,0.0084983455,-0.0030524796,-0.0112557299,-0.0096062990,-0.0010468998
6.4733347893,0.0073011722,0.0064958083,-0.0030969449,-0.0080351699,-0.0117280390,-0.0052959733
6.4836630821,0.0054478254,-0.0042356504,-0.0050105518,0.0058674626,-0.0148033900,-0.0074249702
6.4933629036,0.0055853035,-0.0003248703,-0.0019695230,0.0123229651,-0.0200594068,-0.0084910337
6.5036020279,0.0018008855,0.0036136855,0.0001700454,0.0197675657,-0.0167992972,-0.0063656983
6.5135970116,0.0009403733,0.0007581461,0.0023457343,0.0176125355,-0.0146890078,-0.0053022979
6.5239911079,-0.0028748305,-0.0089330925,-0.0013758010,0.0111518400,-0.0094382530,-0.0052997018
6.5336999893,-0.0067532752,-0.0079756035,-0.0081642931,-0.0028124452,0.0000449971,0.0032029725
6.5438208580,-0.0058214758,-0.0050925864,-0.0034328168,-0.0273949131,0.0040731616,0.0032126931
6.5538668633,-0.0049087200,0.0016153204,-0.0027630990,-0.0369751044,0.0019018862,0.0085230367
6.5642108917,0.0028369932,0.0121635543,-0.0002152390,-0.0560695156,-0.0099073024,0.0127672497
6.5740680695,0.0017576126,0.0100467550,0.0012858444,-0.0581803396,-0.0120202545,0.0170139261
6.5840568542,0.0026500730,0.0040234672,-0.0069269603,-0.0507076643,-0.0119488817,0.0180746634
6.5941390991,-0.0003871115,0.0000124920,-0.0130973523,-0.0357444286,-0.0139126964,0.0223170780
6.6045370102,-0.0005366298,0.0029103507,-0.0122835105,-0.0143910432,-0.0147802206,0.0233728886
6.6142477989,0.0012771395,0.0069094049,-0.0073256558,0.0155530069,-0.0208783280,0.0244240388
6.6244058609,0.0031012206,0.0061492668,-0.0031042760,0.0379854813,-0.0227979999,0.0254795179
6.6344017982,0.0020145385,0.0044755684,-0.0016638107,0.0497015230,-0.0205873102,0.0233540460
6.6447896957,-0.0029955299,-0.0030319940,-0.0031341380,0.0528278872,-0.0131606199,0.0191103667
6.6545391083,-0.0031021328,-0.0008436692,-0.0046506589,0.0485146306,-0.0089815874,0.0148663539
6.6645960808,-0.0011940094,0.0032927145,0.0006624990,0.0464176051,-0.0132992370,0.0063699372
6.6747016907,0.0066661742,0.0102950083,0.0011185937,0.0400760844,-0.0197558068,0.0010593277
6.6850051880,0.0077598896,0.0084627615,-0.0063041514,0.0283239298,-0.0188175738,-0.0021231496
6.6948781013,0.0039422419,-0.0031656276,-0.0129243797,0.0079515465,-0.0094594918,-0.0042369007
6.7048459053,0.0030160754,-0.0051260842,-0.0109629100,-0.0081052650,-0.0043026134,-0.0052906466
6.7150130272,0.0000741390,0.0026193012,-0.0101040071,-0.0123988129,-0.0010668726,0.0085154464
6.7252850533,-0.0010022017,-0.0003233206,-0.0053840941,-0.0220782869,0.0062765279,0.0085213054
6.7351169586,-0.0050214920,-0.0140027059,0.0040884549,-0.0381081179,0.0082379458,0.0053409585
6.7451581955,-0.0021597834,-0.0141484393,0.0095648700,-0.0434003770,0.0039399369,0.0042788233
6.7552680969,-0.0051356647,-0.0046146167,0.0013580852,-0.0338500142,0.0093219187,0.0032172874
6.7655639648,-0.0052098129,0.0020609249,-0.0048186844,-0.0306726005,0.0114870686,0.0053398265
6.7754130363,-0.0004066619,0.0029324044,-0.0080032414,-0.0285159703,0.0093975533,0.0074618333
6.7854127884,-0.0005114170,0.0077433931,-0.0111225313,-0.0093079219,0.0095867701,0.0106417807
6.7955560684,0.0013726560,-0.0019384277,-0.0110708540,0.0142956749,-0.0029540553,0.0085059255
6.8058218956,0.0013330189,-0.0008555901,-0.0108807152,0.0218177736,-0.0082076723,0.0063777934
6.8156847954,-0.0035884173,-0.0056149615,-0.0145601099,0.0218071193,-0.0071466696,0.0063783261
6.8256816864,-0.0065685008,-0.0094065322,-0.0124600595,0.0111168195,-0.0051329201,0.0042596487
6.8358168602,-0.0075766537,-0.0141796125,-0.0026081270,0.0079468582,-0.0083508175,0.0031970472
6.8461499214,-0.0075531099,-0.0170877222,-0.0035191246,-0.0027137753,-0.0095050316,0.0031991778
6.8559508324,-0.0085254405,-0.0093228472,0.0002921157,-0.0198948942,0.0009489406,0.0021469628
6.8659477234,-0.0075545106,-0.0094209565,-0.0008803076,-0.0305806398,0.0018896358,-0.0020976500
6.8760900497,-0.0085265134,-0.0144454492,0.0017039113,-0.0509109460,0.0069967797,-0.0052753338
6.8863577843,-0.0045927558,-0.0156647209,0.0060663754,-0.0638155639,0.0163924117,-0.0116381580
6.8961911201,0.0033051579,-0.0111077083,0.0084157521,-0.0658997521,0.0110272076,-0.0180111025
6.9062180519,0.0093035903,-0.0026695977,0.0029935769,-0.0615874790,0.0068129548,-0.0190755017
6.9163560867,0.0045951810,0.0008846867,-0.0053309267,-0.0509396307,0.0090004755,-0.0233243089
6.9266290665,-0.0020968111,-0.0032841216,-0.0106474822,-0.0424559154,0.0143943084,-0.0212005712
6.9364738464,-0.0000470969,-0.0073851002,-0.0090574687,-0.0360281095,0.0123766977,-0.0137706175
6.9464712143,-0.0019208285,-0.0056223525,-0.0113149947,-0.0232644565,0.0167394225,-0.0127098141
6.9565930367,-0.0008920523,-0.0027888070,-0.0104981726,-0.0060838731,0.0062785251,-0.0127194012
6.9669008255,0.0079911854,0.0020372022,-0.0046787923,0.0014495971,-0.0000292384,-0.0137861967
6.9767498970,0.0061749723,0.0058499919,-0.0134453839,0.0046504512,-0.0000081994,-0.0148487985
6.9867582321,0.0042909887,0.0106829153,-0.0163568929,0.0014535664,0.0000049167,-0.0084767193
6.9968566895,0.0004274455,0.0087089287,-0.0192942098,0.0024471916,0.0074551096,-0.0063496530
7.0071697235,-0.0035045238,-0.0000266683,-0.0183101371,0.0034602042,0.0127982097,-0.0021011122
7.0169749260,-0.0016613993,0.0019926776,-0.0037168928,-0.0039638896,0.0085304938,0.0042694355
7.0270681381,-0.0017635318,0.0049401866,0.0001373821,-0.0028841123,0.0074923276,0.0063925739
7.0371661186,-0.0028296204,-0.0018639815,-0.0067058271,0.0024211714,0.0107427156,0.0095782466
7.0474481583,-0.0000481101,-0.0047376407,-0.0057546562,-0.0018681679,0.0128486101,0.0127653861
7.0572967529,0.0017275420,0.0020997275,-0.0116772121,-0.0029629935,0.0160776917,0.0212616678
7.0672669411,-0.0014936420,-0.0065697683,-0.0117578572,-0.0082682502,0.0139698666,0.0308196861
7.0774331093,-0.0047167037,-0.0045724167,-0.0089891618,-0.0179080945,0.0170205180,0.0233910643
7.0877051353,-0.0010620448,-0.0026287686,-0.0082306927,-0.0275062881,0.0158844143,0.0244528688
7.0975708961,-0.0023067386,-0.0036295902,-0.0017322964,-0.0350012220,0.0178927034,0.0170231815
7.1075668335,0.0014059750,-0.0027290832,0.0018110805,-0.0318127498,0.0189397931,0.0106524341
7.1177110672,0.0110372212,0.0020726670,0.0103254253,-0.0263396893,0.0051795049,0.0085205734
7.1278886795,0.0119654443,0.0049111592,0.0062016184,-0.0167920962,0.0105055608,-0.0010348489
7.1378540993,0.0070919897,0.0038708795,-0.0016869969,0.0014007557,0.0053382297,-0.0042274464
7.1478271484,0.0012566951,0.0048608528,-0.0045362180,0.0248199813,0.0108142877,-0.0095402533
7.1580128670,-0.0026184113,0.0098460065,-0.0081601208,0.0472648367,0.0078685656,-0.0031766295
7.1683406830,-0.0026458891,0.0129653560,-0.0077460473,0.0547405444,0.0079744263,0.0031932523
7.1778831482,-0.0066379104,0.0083476054,-0.0082507199,0.0600889698,0.0069877249,0.0074385973
7.1879291534,-0.0116627906,0.0037371267,-0.0039544171,0.0419287421,0.0089931525,0.0138146710
7.1981749535,-0.0108742509,0.0029468883,0.0001511507,0.0237886198,0.0088485423,0.0159428027
7.2085351944,-0.0120368693,-0.0037162553,0.0022288496,0.0141754597,0.0098321810,0.0170079339
7.2182970047,-0.0083077941,-0.0074922694,0.0042557651,0.0035675569,0.0033660256,0.0159455985
7.2284488678,-0.0025929899,-0.0064685000,0.0052230293,-0.0039129965,0.0043617813,0.0159479957
7.2385067940,0.0031484275,-0.0016127479,0.0061065489,-0.0198331065,-0.0042452887,0.0191331375
7.2488589287,0.0069398489,-0.0026430737,0.0078129703,-0.0358796641,-0.0012420421,0.0127663175
7.2586598396,0.0058595147,-0.0037475477,0.0026020939,-0.0476692133,0.0039881403,0.0170191191
7.2686901093,0.0057237651,0.0048572170,0.0050553614,-0.0476659648,0.0039656362,0.0138354432
7.2787237167,0.0036369769,-0.0020737897,0.0066201026,-0.0444432721,0.0018715927,0.0138335787
7.2890658379,-0.0003765615,0.0007036674,0.0003917747,-0.0337814651,0.0030111596,0.0117086424
7.2988576889,-0.0043681059,0.0025573720,-0.0105511015,-0.0135486322,0.0074322736,0.0117057133
7.3089246750,-0.0035362632,0.0035449613,-0.0115977591,0.0024226103,0.0107564311,0.0117019843
7.3189907074,-0.0027119608,-0.0012610209,-0.0077122515,0.0003197780,0.0075478544,0.0106391180
7.3293590546,-0.0047711227,-0.0022192250,-0.0116851395,-0.0040483652,0.0170182548,0.0042739632
7.3391542435,-0.0029144378,-0.0002773058,-0.0098404950,-0.0082529625,0.0106149502,0.0042718323
7.3492169380,0.0058353450,0.0045479285,-0.0060438579,-0.0124696000,0.0052446863,0.0000232916
7.3592987061,0.0077722576,-0.0042433394,-0.0061302250,-0.0113726435,0.0020433001,-0.0042257821
7.3696117401,0.0068119969,-0.0101307286,0.0005596810,-0.0198538788,-0.0033158455,-0.0010405746
7.3794178963,0.0038771241,0.0043917643,0.0042571360,-0.0230094604,-0.0075462768,0.0053289076
7.3894410133,-0.0010639521,0.0072319256,-0.0027523702,-0.0209024176,-0.0042680586,0.0170093980
7.3995428085,-0.0041682813,0.0004142273,-0.0038933225,-0.0209508874,0.0010992761,0.0265682824
7.4098911285,-0.0034920664,-0.0034304510,-0.0021237200,-0.0220312290,0.0032873291,0.0382502414
7.4196829796,-0.0029016228,0.0015055883,-0.0013069577,-0.0113977576,0.0076868711,0.0478059277
7.4297070503,-0.0023808570,0.0065012323,-0.0043437546,-0.0134546757,0.0002971319,0.0562966205
7.4397931099,-0.0028827579,0.0028100957,-0.0034135645,0.0025410680,0.0014910271,0.0552313551
7.4501848221,-0.0024011822,-0.0047793640,-0.0014554925,-0.0070103593,-0.0039048037,0.0541692860
7.4599628448,0.0001344887,0.0012126315,0.0004529291,-0.0059160665,-0.0071408106,0.0446112007
7.4700179100,0.0056781080,0.0023415436,0.0053504044,-0.0004432434,-0.0208867826,0.0446024798
7.4800391197,0.0073777940,0.0034608592,0.0064086253,0.0027869046,-0.0240833759,0.0382292680
7.4937949181,0.0033055751,0.0055376040,0.0007327133,0.0209479313,-0.0261033159,0.0297302529
7.5011239052,0.0002641884,0.0047304975,-0.0077253645,0.0337747820,-0.0281134695,0.0297259931
7.5108308792,-0.0008371564,0.0069309222,-0.0073217815,0.0423195064,-0.0291059650,0.0286606625
7.5208921432,-0.0009763631,0.0043318020,-0.0019072361,0.0551687256,-0.0332242772,0.0307789408
7.5311980247,-0.0030529590,0.0007647026,-0.0013253159,0.0519122407,-0.0279536806,0.0297201332
7.5408358574,-0.0070990119,-0.0028671275,-0.0076662963,0.0411546677,-0.0195727125,0.0276034530
7.5503649712,-0.0092228446,-0.0026581537,-0.0073744124,0.0207939204,-0.0112902150,0.0233662985
7.5605988503,-0.0074345265,-0.0034984599,-0.0062709516,0.0046895193,-0.0019017737,0.0201896802
7.5707840919,-0.0036968382,-0.0004978430,-0.0033394163,0.0014522877,0.0012475476,0.0191290751
7.5806312561,0.0010351447,0.0015421259,0.0035152964,0.0047165249,-0.0051043583,0.0170014761
7.5906829834,0.0058049764,-0.0003149760,0.0065318281,0.0047262982,-0.0061792759,0.0148774059
7.6007442474,0.0018397478,-0.0022176753,-0.0002301998,0.0100704636,-0.0072213709,0.0106283324
7.6111307144,-0.0031154545,0.0007796633,-0.0108094281,0.0249499977,-0.0007048158,0.0138139380
7.6208291054,-0.0012579950,-0.0009768259,-0.0134047335,0.0463037565,-0.0015724737,0.0148698818
7.6309618950,0.0035131483,-0.0104036583,0.0017110639,0.0485496223,-0.0132299960,0.0137998909
7.6410069466,0.0054139104,-0.0043597473,-0.0008095569,0.0325410962,-0.0133905839,0.0106184781
7.6513366699,-0.0024334283,-0.0032641541,-0.0054221218,0.0250120219,-0.0071128476,0.0074403947
7.6612577438,-0.0024905892,-0.0119055761,0.0015595489,0.0047482960,-0.0083371028,0.0095685273
7.6713209152,-0.0015859398,-0.0089771999,0.0015256339,-0.0166398957,-0.0042713210,0.0106365206
7.6814699173,-0.0007208678,-0.0051390780,-0.0016274519,-0.0380320065,0.0008957440,0.0180771258
7.6917400360,-0.0018515977,-0.0081777228,-0.0010358758,-0.0509015694,0.0071286056,0.0148986438
7.7015919685,-0.0058906768,-0.0151791228,-0.0064169830,-0.0616602078,0.0154957250,0.0106583592
7.7115941048,-0.0060549472,-0.0134307398,-0.0040683812,-0.0541462041,0.0113164261,0.0106548965
7.7215147018,-0.0032883973,-0.0067408932,-0.0005998082,-0.0359613411,0.0072447201,0.0127718439
7.7318110466,-0.0034129114,-0.0058461679,-0.0008518166,-0.0210550986,0.0105374530,0.0095843058
7.7416300774,0.0013896135,-0.0039235009,-0.0087321466,0.0056449552,0.0086553963,0.0106383851
7.7520909309,0.0052077677,-0.0067273630,-0.0153753823,0.0376556739,0.0089290366,0.0095676612
7.7619891167,0.0080155935,-0.0123030795,-0.0042414134,0.0548240058,-0.0004916298,0.0063731996
7.7721638680,0.0050717499,-0.0130010499,-0.0027019449,0.0772638023,-0.0035280329,-0.0010659412
7.7821550369,-0.0046500955,-0.0117276562,-0.0049489206,0.0825962499,-0.0035229726,-0.0074380869
7.7921380997,-0.0133390520,-0.0104553951,-0.0042527979,0.0804253444,-0.0003996177,-0.0138073033
7.8022651672,-0.0093044732,-0.0073054684,-0.0065386957,0.0665548071,-0.0004930946,-0.0095566316
7.8124589920,-0.0092342589,-0.0061463369,-0.0089749163,0.0440929830,0.0046086567,-0.0106095783
7.8223781586,-0.0062404666,-0.0177297238,-0.0077551669,0.0109795062,0.0074957898,-0.0116615277
7.8324189186,-0.0032354386,-0.0168046001,-0.0039227670,-0.0274369121,0.0071530407,-0.0127134752
7.8425416946,-0.0061102007,-0.0150726689,0.0005261236,-0.0584608726,0.0142751327,-0.0180110354
7.8527669907,-0.0050469134,-0.0193085317,0.0008678966,-0.0766605958,0.0193880014,-0.0233137906
7.8626780510,-0.0039450619,-0.0148442639,0.0049604112,-0.0767607316,0.0288816392,-0.0318034142
7.8726677895,-0.0018155071,-0.0064754738,0.0101168687,-0.0692048147,0.0204443447,-0.0339324810
7.8828139305,0.0052955654,0.0038218249,0.0095192129,-0.0542351827,0.0173641331,-0.0381850153
7.8930559158,0.0075429883,0.0005771267,-0.0025724834,-0.0296478420,0.0133271143,-0.0392546058
7.9029588699,0.0038971810,0.0042550312,-0.0105563467,-0.0061566290,0.0125196427,-0.0318283811
7.9129447937,0.0050719883,0.0003167737,-0.0133957928,0.0248804875,0.0043641115,-0.0222840123
7.9230909348,-0.0026219280,-0.0034961950,-0.0121504134,0.0398666263,0.0002990628,-0.0148572540
7.9333438873,-0.0064436290,-0.0033555280,-0.0049768155,0.0452423766,-0.0038761080,-0.0116767744
7.9432168007,-0.0092529748,-0.0041667474,-0.0026142662,0.0506206304,-0.0080735162,-0.0116802361
7.9532179832,-0.0071993265,-0.0040152324,-0.0041100448,0.0453226194,-0.0112766996,-0.0074320282
7.9633550644,-0.0071135554,-0.0009455335,0.0040248567,0.0346188433,-0.0081938244,-0.0084895696
7.9736390114,-0.0030948014,0.0020568122,0.0052691633,0.0165223181,-0.0125970282,-0.0084864404
7.9834957123,0.0028946607,0.0010632622,0.0053492123,-0.0112336800,-0.0117783733,-0.0084789833
7.9935231209,0.0040104296,-0.0010492456,-0.0016520686,-0.0412160531,-0.0025376696,-0.0159004796
8.0035839081,0.0071059372,-0.0022970687,-0.0011362500,-0.0679507330,0.0024927752,-0.0222619735
8.0138950348,0.0092794504,0.0002243269,0.0001775556,-0.0786345601,0.0034185564,-0.0286291260
8.0236759186,0.0095152762,0.0026842703,-0.0015705890,-0.0915572792,0.0149777401,-0.0286200717
8.0337715149,0.0096900370,0.0041624056,0.0004988842,-0.0968745798,0.0128030702,-0.0296824723
8.0438261032,0.0118289199,0.0017641532,0.0074394280,-0.0989960507,0.0117511218,-0.0254352633
8.0542488098,0.0051476564,-0.0006779683,0.0026393468,-0.0905634984,0.0224349909,-0.0254313350
8.0639638901,0.0003747252,0.0028124799,-0.0029888814,-0.0606066622,0.0153035782,-0.0201335102
8.0740537643,0.0044013765,0.0181417819,-0.0014780826,-0.0274258852,0.0060919039,-0.0127138756
8.0840921402,0.0044149961,0.0268124696,-0.0026140278,-0.0081035867,-0.0042534112,0.0021412370
8.0945014954,-0.0004965755,0.0141651975,-0.0142551726,0.0099992771,0.0001973300,0.0095716566
8.1042222977,-0.0045028124,0.0103507983,-0.0238771513,0.0206939988,-0.0018037693,0.0138151366
8.1142787933,-0.0046502743,0.0163551327,-0.0275172666,0.0388691425,-0.0047650049,0.0233642329
8.1243896484,-0.0019565017,0.0195688363,-0.0222483352,0.0517002493,-0.0067197643,0.0318543911
8.1347866058,-0.0052074883,0.0121670710,-0.0139907664,0.0516832881,-0.0045637363,0.0371650681
8.1445026398,-0.0045839045,-0.0010913265,0.0078441435,0.0229784064,-0.0154115912,0.0392905362
8.1545705795,0.0039282944,0.0030510772,0.0304447934,0.0018143710,-0.0336483866,0.0371626690
8.1646299362,0.0047523286,0.0011712658,0.0188165233,-0.0109895747,-0.0337394662,0.0403512716
8.1750516891,0.0007035938,0.0012070882,0.0080782110,-0.0227627959,-0.0306935422,0.0350467227
8.1847639084,0.0063909795,0.0060835825,0.0050496394,-0.0333994627,-0.0339351408,0.0403568000
8.1948337555,0.0120530035,0.0051418887,0.0020364458,-0.0239038803,-0.0232404843,0.0403589979
8.2049045563,0.0088927653,0.0032160629,-0.0039349264,-0.0271366946,-0.0200785138,0.0414231978
8.2152109146,0.0125140455,0.0139373289,-0.0080221361,-0.0261291135,-0.0136762746,0.0456741340
8.2251129150,0.0053224172,0.0247108098,-0.0111166900,-0.0048382059,-0.0081640640,0.0488568768
8.2350988388,-0.0019662173,0.0161442515,-0.0120722121,0.0111490712,-0.0058459155,0.0573474355
8.2452354431,-0.0083532427,0.0134778367,-0.0110372966,0.0121544143,0.0005571231,0.0615975745
8.2555599213,-0.0186871383,0.0118072378,-0.0090374416,0.0068343235,-0.0005166635,0.0669081807
8.2653694153,-0.0202759299,0.0091489302,-0.0022223657,-0.0027581155,-0.0016477082,0.0690336525
8.2753677368,-0.0208704565,0.0006760705,0.0075352723,0.0005593561,-0.0132975066,0.0679649860
8.2855091095,-0.0115564559,0.0019067276,0.0076913172,0.0081640128,-0.0270737726,0.0605235882
8.2957820892,0.0018408803,0.0079366909,-0.0105423396,0.0199961178,-0.0365835205,0.0509605743
8.3056430817,0.0025774746,0.0062280642,-0.0189758614,0.0273978412,-0.0302076489,0.0424674898
8.3156366348,0.0072767343,-0.0061239256,-0.0000732607,0.0263734572,-0.0356462859,0.0233523156
8.3257741928,0.0150943305,-0.0059172763,0.0139598185,0.0221741833,-0.0431798361,0.0127316294
8.3360586166,0.0102905538,-0.0028882872,0.0171395466,0.0124959378,-0.0358653329,0.0084914779
8.3458766937,-0.0003644916,-0.0077417148,0.0114207799,0.0016307728,-0.0168881789,0.0042565190
8.3559198380,-0.0042411182,-0.0135859502,0.0104841525,-0.0005881730,-0.0084118713,0.0053231153
8.3660469055,-0.0052618776,-0.0126083149,0.0084935362,-0.0060164938,0.0011320994,0.0117000546
8.3763275146,-0.0024671049,0.0000489700,0.0064718062,-0.0049573006,0.0022725984,0.0223174114
8.3861751556,-0.0036284418,0.0040158378,0.0016033583,0.0046905326,-0.0018736771,0.0244364887
8.3961448669,-0.0057652090,-0.0104674352,-0.0119135445,0.0142739434,0.0003320195,0.0244353563
8.4062824249,-0.0001103672,-0.0141998781,-0.0185456946,0.0250107422,-0.0059200171,0.0276149046
8.4165868759,0.0045776274,-0.0033092152,-0.0212190226,0.0325225107,-0.0100985169,0.0276106428
8.4264478683,0.0034022836,-0.0001682889,-0.0209325626,0.0272081718,-0.0122671295,0.0276109092
8.4364175797,0.0042088535,-0.0029356133,-0.0159092024,-0.0005813017,-0.0083076078,0.0212497506
8.4465551376,0.0040644016,0.0038867344,-0.0150418347,-0.0198455453,-0.0032049916,0.0159481950
8.4568519592,0.0058933403,0.0106725441,-0.0142335957,-0.0134451948,-0.0031481998,0.0159457326
8.4667282104,0.0106844511,0.0097114788,-0.0123611158,-0.0145022050,-0.0042254487,0.0148836644
8.4766883850,0.0027409999,0.0067967521,-0.0115042990,-0.0071815727,0.0106796660,0.0127659850
8.4867954254,0.0005631355,0.0058939802,-0.0086545413,-0.0029620612,0.0160773601,0.0212620012
8.4971246719,0.0061027911,0.0050672041,0.0039855177,0.0023693731,0.0172538105,0.0318796262
8.5069866180,-0.0001704785,-0.0044961823,0.0059110457,0.0023001311,0.0247500781,0.0425013788
8.5169849396,-0.0035990567,-0.0150376810,0.0009686284,-0.0020773858,0.0353379399,0.0446301065
8.5271167755,-0.0031389685,-0.0139262928,-0.0021240776,-0.0105819246,0.0320872851,0.0456924401
8.5374069214,-0.0017028245,-0.0099552525,-0.0024231141,-0.0329989754,0.0329655968,0.0478229709
8.5472612381,0.0016850737,-0.0109081520,0.0009974175,-0.0521678738,0.0285122581,0.0414548218
8.5572795868,0.0041978564,-0.0148802055,0.0072776610,-0.0606334247,0.0209406242,0.0308359973
8.5674266815,0.0127615836,-0.0121165765,0.0019032293,-0.0519845448,0.0092749149,0.0202099849
8.5778036118,0.0175202694,-0.0054503335,-0.0004590220,-0.0422505811,-0.0045022834,0.0095814439
8.5875329971,0.0116724875,-0.0016880286,-0.0104528731,-0.0133795217,-0.0106858769,-0.0010469664
8.5975198746,0.0019424466,0.0032119502,-0.0074531501,0.0283372719,-0.0198510792,0.0021237268
8.6076192856,-0.0058487747,0.0063314186,-0.0002258486,0.0561167076,-0.0227640457,0.0063624140
8.6179294586,-0.0176127050,-0.0001426589,0.0081820423,0.0731855184,-0.0215060338,0.0137919001
8.6277866364,-0.0216238592,-0.0055772318,0.0196130201,0.0753101856,-0.0204125419,0.0159155056
8.6378297806,-0.0237076376,-0.0071313633,0.0222752020,0.0731586739,-0.0182465911,0.0254730582
8.6478595734,-0.0170227382,-0.0107024563,0.0131332809,0.0453419536,-0.0110203708,0.0318545252
8.6582307816,-0.0172863398,-0.0192135219,0.0095407302,0.0239127483,-0.0027396041,0.0286787711
8.6679954529,-0.0077398513,-0.0180775169,0.0116326148,0.0005019652,-0.0092829913,0.0329286456
8.6780595779,0.0038244633,-0.0083280457,0.0018435054,-0.0261497535,-0.0127326502,0.0276236925
8.6881275177,-0.0002150627,-0.0181887392,-0.0150149530,-0.0508364588,0.0007906157,0.0191423241
8.6985015869,0.0026177673,-0.0076854480,-0.0136214560,-0.0720436648,-0.0132517666,0.0095851049
8.7082452774,0.0143948700,0.0095183598,-0.0161329582,-0.0720143691,-0.0164693985,0.0042744954
8.7183322906,0.0095708873,0.0140675651,-0.0264371112,-0.0635173321,-0.0121517479,0.0042754277
8.7284479141,0.0086271074,0.0060893046,-0.0190780237,-0.0496143065,-0.0152343567,0.0010849606
8.7388296127,0.0057181921,-0.0027721177,-0.0018366642,-0.0367608778,-0.0204327144,0.0000155685
8.7485523224,0.0028434901,-0.0018903267,0.0009403162,-0.0143485134,-0.0202023517,0.0053189872
8.7586879730,-0.0020349713,-0.0028695713,-0.0068555539,0.0016007060,-0.0136631578,0.0106284656
8.7687530518,-0.0050446782,-0.0095916046,-0.0057607358,0.0089859180,-0.0051029599,0.0116926637
8.7790813446,-0.0042262767,-0.0104506863,-0.0027583903,0.0004026294,0.0001961314,0.0223160796
8.7888736725,-0.0025161000,-0.0084489835,0.0000516706,-0.0284386091,0.0031690183,0.0286956821
8.7988739014,-0.0027790756,-0.0085107340,-0.0051860278,-0.0499014743,0.0146405185,0.0265825316
8.8089666367,0.0037991910,-0.0096317185,-0.0076528257,-0.0680458620,0.0144405151,0.0202162452
8.8192911148,0.0055204537,-0.0020439278,-0.0044055646,-0.0627219379,0.0155342752,0.0180918407
8.8290824890,0.0072978642,-0.0002775443,-0.0136748618,-0.0519441180,0.0050174519,0.0180838518
8.8391380310,0.0071730521,0.0063597905,-0.0229024962,-0.0476882271,0.0060951002,0.0148977786
8.8492469788,-0.0027373226,0.0023620476,-0.0291077569,-0.0263238139,0.0041664387,0.0159531888
8.8595809937,-0.0087859128,-0.0024813663,-0.0224156454,-0.0038379757,-0.0030369461,0.0201908778
8.8693809509,-0.0070128534,-0.0042655719,-0.0125399893,0.0229478329,-0.0134001058,0.0223024972
8.8793964386,-0.0120558832,-0.0040492667,-0.0103205508,0.0293980893,-0.0175472461,0.0286701825
8.8894891739,-0.0210352633,-0.0057871593,-0.0090754097,0.0261540916,-0.0133311953,0.0286731124
8.8997917175,-0.0192538295,0.0021939625,-0.0039594835,0.0187656302,-0.0219186917,0.0233613048
8.9096374512,-0.0095990989,0.0052768933,-0.0036996074,0.0155104492,-0.0166485626,0.0223029628
8.9196968079,-0.0038431378,0.0015316355,0.0033160383,0.0006108349,-0.0210720059,0.0148724122
8.9297552109,-0.0009078177,-0.0062269224,0.0082366401,-0.0133427978,-0.0138492454,0.0021379746
8.9401168823,-0.0017994138,-0.0092162145,0.0042971307,-0.0144453989,-0.0107312184,-0.0063543133
8.9499063492,-0.0046125744,-0.0112363948,0.0022758776,-0.0134235444,-0.0065125045,-0.0116614606
8.9599733353,-0.0044732783,-0.0025919925,0.0021631056,-0.0070597073,-0.0032995336,-0.0159104019
8.9700412750,0.0005886761,-0.0046354188,-0.0094986623,-0.0017416412,-0.0010824520,-0.0084780511
8.9803714752,-0.0012694093,-0.0037411104,-0.0231736377,0.0023500398,0.0169974826,-0.0074069276
8.9901752472,-0.0052086208,-0.0086393608,-0.0281048492,-0.0019589551,0.0212319084,-0.0031565228
9.0002317429,-0.0033432932,-0.0076397909,-0.0087395972,-0.0040535303,0.0169560704,-0.0052823913
9.0102586746,-0.0053278897,-0.0076797856,-0.0098307794,-0.0082794344,0.0126747731,-0.0052834563
9.0206499100,-0.0063349102,0.0019685973,-0.0139153069,-0.0178721137,0.0115580428,-0.0010348490
9.0304470062,-0.0073795114,0.0048028575,-0.0122308200,-0.0274970457,0.0136030838,0.0000304155
9.0407848358,-0.0005656573,-0.0011316192,-0.0056594079,-0.0295538865,0.0061421711,-0.0020949868
9.0506401062,0.0033266752,-0.0041453494,-0.0019968813,-0.0338325202,0.0071728146,-0.0010315866
9.0608930588,0.0003732947,-0.0052548302,0.0122427279,-0.0540696643,0.0027105552,-0.0073998701
9.0707511902,0.0062791612,-0.0064326180,0.0273599550,-0.0678885505,-0.0027087112,-0.0063372692
9.0808086395,0.0024613349,-0.0086582555,0.0181001946,-0.0444368497,-0.0004016149,-0.0095282691
9.0908851624,-0.0013702902,-0.0098111285,0.0051940018,-0.0156110637,-0.0011763286,-0.0042269803
9.1011753082,-0.0003373715,-0.0166671518,-0.0006728239,0.0046240054,0.0032439863,-0.0042291107
9.1109523773,-0.0041846130,-0.0069452180,-0.0045314496,0.0142366849,0.0022391756,-0.0084792497
9.1210880280,-0.0060775969,0.0038114537,-0.0043760007,0.0344769247,0.0055719884,-0.0127303209
9.1311130524,-0.0049910042,0.0048695551,-0.0108669465,0.0462254584,0.0046065925,-0.0137955854
9.1414289474,0.0058862772,0.0088531123,-0.0124448007,0.0366193317,0.0045020636,-0.0169787277
9.1512708664,0.0099167731,0.0089163529,-0.0102727478,0.0270146392,0.0044112499,-0.0180381332
9.1613025665,0.0110318568,0.0021471728,-0.0168374851,0.0334478505,0.0012918226,-0.0169802606
9.1713590622,0.0062541272,-0.0006742132,-0.0155646270,0.0388069302,-0.0007558819,-0.0127354469
9.1816949844,0.0024097471,-0.0015230429,-0.0084461039,0.0366326198,0.0034828051,-0.0106086461
9.1915216446,-0.0024392100,-0.0033703696,-0.0101416772,0.0302223898,0.0045294277,-0.0042357021
9.2015581131,-0.0053665731,-0.0032624255,-0.0070263809,0.0248360410,0.0098011550,-0.0021075702
9.2117061615,-0.0005313250,0.0017163503,-0.0029258793,0.0227603726,0.0045467382,0.0085083228
9.2219524384,-0.0006553027,0.0028027047,-0.0066639846,0.0184392855,0.0098284520,0.0106355231
9.2318286896,-0.0047452543,-0.0058328165,0.0021181041,-0.0061025415,0.0096417647,0.0148888566
9.2418270111,-0.0059184525,-0.0077805771,0.0155191356,-0.0402862132,0.0124922125,0.0095896320
9.2519617081,-0.0011918041,-0.0078852428,0.0258228704,-0.0562611818,0.0091693867,0.0095920293
9.2622680664,0.0026727526,-0.0022859226,0.0184754059,-0.0552210882,0.0112387296,0.0000362744
9.2721004486,0.0046092477,0.0013757694,0.0063492591,-0.0424048901,0.0102895787,0.0000325460
9.2820987701,0.0075480547,0.0012410033,0.0109177167,-0.0210480131,0.0082853502,-0.0105924681
9.2922430038,0.0076262858,0.0040915953,0.0069656903,0.0110212388,0.0032876623,-0.0063559115
9.3025054932,0.0047734287,0.0129037844,-0.0044961041,0.0483817942,0.0025456389,-0.0074272342
9.3123550415,-0.0010444614,0.0150407301,-0.0137438839,0.0750541538,0.0039019869,0.0021228613
9.3223667145,-0.0010975095,0.0163666960,-0.0140200919,0.0921954811,-0.0022662936,0.0095478874
9.3325033188,-0.0021814199,0.0119055854,-0.0142262047,0.0943441167,-0.0032601852,0.0169794392
9.3427896500,-0.0052487049,0.0055106031,-0.0163588598,0.0922012553,-0.0022185568,0.0169812366
9.3525991440,-0.0044227336,-0.0028232585,-0.0136432713,0.0794814676,-0.0108115124,0.0180419721
9.3626356125,0.0013166574,-0.0005148900,-0.0004022188,0.0496359542,-0.0142776165,0.0148637565
9.3727731705,0.0022041707,0.0036180962,0.0213948414,0.0241292641,-0.0251390524,0.0106176129
9.3830518723,0.0041839983,0.0066543566,0.0313621685,0.0092313811,-0.0295275412,0.0084957387
9.3929033279,0.0022970347,0.0095557319,0.0110052759,-0.0004984774,-0.0168516934,0.0127517367
9.4029150009,-0.0007011982,0.0095421420,-0.0036356514,-0.0102482047,-0.0020401247,0.0191325378
9.4131412506,0.0000811127,0.0046925293,-0.0076338714,-0.0104255714,0.0160454027,0.0265742093
9.4233036041,0.0017188099,0.0038174142,-0.0038680502,-0.0082899546,0.0160991326,0.0318822227
9.4331340790,-0.0044992957,0.0000166047,0.0018167429,-0.0073416037,0.0277587175,0.0287024081
9.4431724548,0.0011033026,-0.0028379213,0.0055953795,-0.0072119338,0.0138834473,0.0159529895
9.4533100128,0.0136997309,0.0020255793,0.0006625586,-0.0028518056,0.0043163081,0.0074527119
9.4636049271,0.0156143811,0.0107163535,-0.0062839454,-0.0156795606,0.0063196709,0.0063950373
9.4734411240,0.0165675785,0.0037974466,-0.0181827620,-0.0231952667,0.0104568917,0.0000282184
9.4834432602,0.0214548018,-0.0050433530,-0.0241801813,-0.0146953091,0.0136878388,-0.0042205891
9.4935150146,0.0194385853,-0.0041186465,-0.0175475553,-0.0157059785,0.0084150461,0.0021478282
9.5038509369,0.0163942482,-0.0002528083,-0.0118967956,-0.0188913345,0.0073810741,0.0106429122
9.5137157440,0.0045196321,-0.0100271953,-0.0082390970,-0.0264262147,0.0136679979,0.0085243676
9.5237121582,-0.0064022038,-0.0159248952,0.0030825669,-0.0381621271,0.0135930302,0.0127746398
9.5337495804,-0.0056150649,-0.0150149716,0.0211855695,-0.0466054119,0.0039417343,0.0085247671
9.5442008972,0.0001129416,-0.0063677086,0.0266523287,-0.0433329195,-0.0023277462,0.0191394612
9.5539016724,-0.0019725056,-0.0006236088,0.0156423971,-0.0294053853,-0.0074908161,0.0223187432
9.5640621185,-0.0060464833,0.0032233943,-0.0001161761,-0.0187211838,-0.0084167309,0.0286860280
9.5740547180,-0.0101682339,-0.0005808723,-0.0078782504,0.0249991324,-0.0048515573,0.0286767073
9.5844411850,-0.0113816950,-0.0099822534,-0.0054694479,0.0635257512,-0.0151059264,0.0318478644
9.5941810608,-0.0076640341,-0.0037633430,-0.0125746196,0.0774207935,-0.0170929097,0.0339669436
9.6043157578,-0.0196258817,0.0053961026,-0.0216471627,0.0890634432,-0.0074200425,0.0371536836
9.6142873764,-0.0208914075,0.0040162550,-0.0178506449,0.1083804145,-0.0178346019,0.0413907729
9.6247272491,-0.0143524501,0.0036526669,-0.0100299185,0.1094796583,-0.0210012328,0.0424505770
9.6344499588,-0.0145922992,0.0071007358,-0.0178654268,0.0966405571,-0.0179508477,0.0392699614
9.6445159912,-0.0118930433,0.0036935557,-0.0083227819,0.0688566789,-0.0150932102,0.0265367925
9.6546697617,-0.0041806791,-0.0076238168,0.0107676322,0.0411656648,-0.0218262132,0.0074280775
9.6649503708,0.0047072079,-0.0065479530,0.0120599801,0.0112906974,-0.0232314300,-0.0053064930
9.6747102737,0.0029340594,-0.0095373644,0.0111245448,-0.0196831990,-0.0214559007,-0.0169775300
9.6847963333,0.0061384942,-0.0174889807,0.0207219645,-0.0506191663,-0.0228157118,-0.0212167501
9.6948871613,0.0034845083,-0.0227321032,0.0182498619,-0.0944252461,-0.0178997815,-0.0222649705
9.7051982880,-0.0030768008,-0.0194193963,0.0056367451,-0.1213323474,0.0041430029,-0.0233105943
9.7150039673,-0.0038982125,-0.0219848994,-0.0091168350,-0.1332598478,0.0231731534,-0.0179890655
9.7250576019,0.0009597448,-0.0254342798,0.0072035724,-0.1439209729,0.0231474526,-0.0073666475
9.7351942062,0.0097038057,-0.0134184612,0.0077703530,-0.1556881517,0.0262694769,-0.0009913063
9.7454891205,0.0067187455,-0.0101995720,-0.0208752230,-0.1334180981,0.0402729101,0.0011328311
9.7552728653,0.0035974293,-0.0038935195,-0.0337750390,-0.1067478731,0.0416015610,0.0064357175
9.7652950287,0.0141036417,0.0094516622,-0.0180999711,-0.0682125390,0.0302584264,0.0053592012
9.7754631042,0.0158954170,0.0170722362,-0.0108366674,-0.0328705311,0.0178201329,0.0032204164
9.7857713699,0.0138938334,0.0121508585,-0.0139275258,-0.0018647863,0.0116906008,-0.0021003131
9.7955913544,-0.0007438156,0.0033971418,-0.0207257941,0.0257766955,0.0213781148,-0.0180294793
9.8055934906,-0.0045626853,0.0034742702,-0.0166043118,0.0439668596,0.0161832869,-0.0254694838
9.8156986237,0.0004370121,0.0084712254,-0.0055251783,0.0515118614,0.0088284351,-0.0244132746
9.8260021210,0.0035278408,-0.0001636398,-0.0050907200,0.0429866537,0.0077280169,-0.0191031974
9.8358659744,0.0065658297,-0.0097825183,-0.0047739213,0.0227016229,0.0086257691,-0.0169740003
9.8458614349,0.0047064628,-0.0204808358,0.0001889997,0.0045592384,0.0084392810,-0.0212163497
9.8559417725,-0.0010182949,-0.0186242703,-0.0008661217,-0.0061024604,0.0072712181,-0.0233378243
9.8663263321,-0.0077259634,-0.0197010878,0.0029108459,-0.0125025958,0.0072072358,-0.0243968964
9.8760681152,-0.0085330699,-0.0218135361,-0.0021213954,-0.0221360475,0.0103409775,-0.0190838911
9.8861351013,-0.0133380983,-0.0112920655,-0.0063287085,-0.0307790972,0.0209402926,-0.0095217442
9.8962411880,-0.0084794853,0.0002376783,-0.0086087054,-0.0286384486,0.0210420247,0.0032193512
9.9065427780,-0.0115729962,0.0030769457,-0.0070210164,-0.0276208036,0.0263905842,0.0085311588
9.9163942337,-0.0147024188,-0.0028164040,-0.0044047898,-0.0286666267,0.0242592581,0.0085303597
9.9263858795,-0.0099781547,0.0039458023,0.0011631184,-0.0147771481,0.0222173445,0.0021545528
9.9364700317,-0.0031913014,0.0068824040,0.0059966976,0.0077997991,0.0053954879,-0.0042303763
9.9467620850,0.0056586172,0.0176371690,0.0071427161,0.0293160081,-0.0114024011,-0.0053046951
9.9567346573,0.0038292317,0.0167773124,-0.0012106366,0.0528445058,-0.0165231265,-0.0084986240
9.9666490555,-0.0018621775,0.0004603612,-0.0063991016,0.0816401243,-0.0152438115,-0.0138155585
9.9767980576,-0.0026553364,-0.0031202685,-0.0055590337,0.0998036787,-0.0171935111,-0.0116975466
9.9872312546,-0.0024952979,0.0060361372,0.0041844184,0.1137142703,-0.0202076770,-0.0042691915
9.9969844818,-0.0033797116,0.0074527012,0.0061865980,0.1115927994,-0.0212596264,-0.0000219822
10.0067720413,-0.0062119458,-0.0009261620,0.0041725570,0.0859169438,-0.0151383504,-0.0031975354
10.0169076920,-0.0051604602,-0.0103984131,0.0067200596,0.0388887152,-0.0081214532,-0.0031820890
10.0271816254,-0.0021472366,-0.0094192280,0.0039069587,-0.0081957858,0.0041588489,-0.0095347278
10.0369729996,0.0038146286,-0.0067312373,-0.0110268658,-0.0584483072,0.0132490164,-0.0127028227
10.0470733643,0.0106903818,-0.0051412834,-0.0059365099,-0.1086458564,0.0170762446,-0.0095033012
10.0570964813,0.0097418930,-0.0047137393,-0.0002806849,-0.1460523456,0.0220065545,-0.0169239342
10.0676488876,0.0087865498,-0.0083089126,0.0002470546,-0.1631761640,0.0271682926,-0.0158541407
10.0774211884,0.0010030476,-0.0031589519,-0.0041154092,-0.1407866925,0.0294998921,-0.0137350652
10.0874671936,0.0009996799,0.0060457932,-0.0043196147,-0.1034147143,0.0277392752,-0.0084369723
10.0975475311,0.0029093532,0.0047053443,-0.0128799742,-0.0607167855,0.0270788111,-0.0042009479
10.1079587936,-0.0000811311,0.0064783441,-0.0142875379,-0.0147885736,0.0232359357,-0.0042148633
10.1176815033,0.0047705676,0.0104005681,-0.0162013248,0.0312375072,0.0098575475,-0.0021096342
10.1277170181,-0.0010968837,0.0105713950,-0.0177728012,0.0654055700,0.0079987273,-0.0074277674
10.1378383636,-0.0050084088,0.0137908207,-0.0035612648,0.0793304369,0.0028010360,-0.0095574968
10.1481647491,0.0009277371,0.0160205122,-0.0028890437,0.0750699416,0.0017108044,-0.0084962938
10.1579570770,0.0029390960,0.0123664485,-0.0042445725,0.0537502728,-0.0005768510,-0.0053066257
10.1679449081,0.0000128952,-0.0040185703,0.0038698248,0.0152926557,0.0033452529,-0.0031711033
10.1780776978,0.0048897173,-0.0244193915,0.0194497034,-0.0348735750,0.0039612418,-0.0042198561
10.1888837814,0.0019591956,-0.0304963831,0.0169928595,-0.0701931119,0.0142628821,-0.0042049428
10.1984930038,-0.0009676906,-0.0230365638,0.0075616175,-0.0670897290,0.0238121785,-0.0084481575
10.2082481384,0.0029818325,-0.0116655482,0.0030603341,-0.0542767011,0.0228143577,-0.0158843026
10.2183570862,0.0079685356,-0.0002688420,-0.0032633611,-0.0392841697,0.0176329128,-0.0169524960
10.2287063599,0.0109858122,0.0092333304,-0.0133665269,-0.0244090836,0.0241439417,-0.0148300892
10.2385282516,0.0071231332,0.0091230022,-0.0232781842,0.0054838345,0.0233785491,-0.0095290681
10.2485580444,-0.0017232987,0.0101306783,-0.0164798573,0.0194222070,0.0171544086,-0.0063502523
10.2586956024,-0.0056845937,0.0131715881,-0.0123996800,0.0397748835,0.0099391062,-0.0010500288
10.2689990997,-0.0077078436,0.0085400091,-0.0051688617,0.0580256321,-0.0004779813,0.0042492622
10.2787704468,-0.0077692363,-0.0008929026,-0.0045889681,0.0655732974,-0.0077982116,0.0106144836
10.2888107300,-0.0088236425,-0.0074074520,-0.0040026968,0.0623701289,-0.0078468816,0.0074298088
10.2987489700,0.0028655438,-0.0051562442,0.0102343494,0.0582619309,-0.0237922929,0.0084846867
