0.0000000000,0.0052736313,-0.0131581426,-0.0171034578,0.0258625858,0.0096614845,0.1009074450
0.0098859072,0.0053706379,-0.0088005662,-0.0150716547,0.0129356021,0.0211652759,0.0924220830
0.0201009512,0.0025318174,-0.0054470892,-0.0092389230,0.0149516147,0.0328411087,0.0903038085
0.0301809311,0.0056100697,-0.0070002670,-0.0121883396,0.0116809346,0.0391241685,0.0818129778
0.0402269363,0.0047891052,-0.0046785469,-0.0132535929,0.0116065266,0.0465582497,0.0828783736
0.0502899885,0.0019561856,-0.0081527829,-0.0094447369,0.0137748718,0.0434215777,0.0871234536
0.0603109598,0.0089225080,-0.0155259371,-0.0191720370,0.0138780149,0.0328198671,0.0881785378
0.0705199242,0.0149475839,-0.0160851479,-0.0230145101,0.0225210376,0.0222774781,0.0871092752
0.0805670023,0.0151045527,-0.0224283934,-0.0257681254,0.0301023666,0.0117665138,0.0924118981
0.0909999609,0.0152635183,-0.0267747641,-0.0245076660,0.0398034602,0.0023152218,0.0945283100
0.1007879972,0.0134850945,-0.0281798840,-0.0241009239,0.0515826792,-0.0018398419,0.0923993811
0.1106849909,0.0107924845,-0.0247153044,-0.0245945100,0.0611820407,-0.0018182707,0.0828407630
0.1206939220,0.0042674155,-0.0193271041,-0.0201950911,0.0601147488,-0.0018844502,0.0743480772
0.1308898926,-0.0022983940,-0.0216779113,-0.0108807916,0.0749054179,0.0131000914,0.0743518025
0.1408389807,-0.0020360143,-0.0220825076,-0.0102954144,0.0843280777,0.0312282965,0.0754199252
0.1508919001,0.0021824448,-0.0137538910,-0.0126294727,0.0905849114,0.0449803248,0.0605600215
0.1609759331,-0.0025086196,-0.0040190215,-0.0009652018,0.1001631841,0.0471665151,0.0573722199
0.1710509062,-0.0047368794,-0.0026499627,0.0035902620,0.0904514343,0.0576788113,0.0552563369
0.1810929775,-0.0043016463,-0.0121789575,0.0064481259,0.0925992429,0.0566567555,0.0584411472
0.1911509037,-0.0027259679,-0.0117082596,0.0061574341,0.0989823118,0.0588554628,0.0616260208
0.2013069391,0.0029114692,-0.0063663120,0.0020527006,0.1011462063,0.0556634627,0.0573766157
0.2113139629,0.0047115893,-0.0062545533,-0.0067592501,0.1033252031,0.0514657907,0.0616211630
0.2214030027,0.0088238623,-0.0085771680,-0.0006479262,0.1074446067,0.0675494820,0.0818025321
0.2314459085,0.0001508503,0.0076797013,0.0055273534,0.0358585753,0.0729724765,0.0329806581
0.2415139675,0.0108885672,-0.0059664841,-0.0081007117,0.0424830541,0.0507338196,0.0308439396
0.2516919374,0.0126129594,-0.0010524986,-0.0112066502,0.0329603925,0.0433129221,0.0446460396
0.2616969347,0.0109343138,-0.0017044542,0.0012737871,-0.0164027140,-0.1309343129,0.2388821691
0.2716919184,0.1768614799,0.0130318403,-0.0246197823,-0.0743488371,-0.3058017492,0.3492366374
0.2817538977,0.1507177502,0.0377019644,0.0149455424,-0.0434166454,-0.1055494621,0.0998061597
0.2918659449,0.0316571519,0.0274052024,0.0205666777,-0.0087859649,0.0532186180,-0.0073650312
0.3018939495,-0.0071802824,0.0101180673,0.0055296184,-0.0097599616,0.0448465049,0.0117428172
0.3119879961,0.0212717857,0.0165862441,-0.0038682460,-0.0097407876,0.0426968001,0.0074945423
0.3220299482,0.0110109653,0.0246751904,-0.0018502711,-0.0053259600,0.0278383587,0.0011153393
0.3321199417,0.0056828768,0.0172381997,0.0052055479,0.0043591578,0.0205783155,0.0138508417
0.3421659470,0.0051822574,0.0135472417,0.0079361564,0.0044254446,0.0142256767,0.0159717165
0.3522919416,-0.0006016882,0.0150796175,0.0076682926,0.0066715549,0.0037035276,0.0265838820
0.3623059988,-0.0032413991,0.0184313655,0.0080982205,0.0130990408,0.0016718020,0.0318904966
0.3724418879,-0.0067679076,0.0164600015,0.0120682484,0.0206376500,-0.0045666527,0.0414416566
0.3824329376,-0.0054763346,0.0250441432,0.0101171490,0.0270272121,-0.0034630387,0.0393164530
0.3925409317,-0.0068194657,0.0213997960,0.0092700487,0.0270543769,-0.0055088787,0.0509952158
0.4025518894,-0.0079539809,0.0147107244,0.0132339364,0.0249241423,-0.0054578129,0.0616133027
0.4126288891,-0.0013005526,0.0206174254,0.0102154370,0.0195368342,-0.0001786288,0.0648027062
0.4226520061,-0.0006126256,0.0197498798,0.0042571784,0.0227950513,-0.0054142699,0.0711701885
0.4327439070,0.0020469634,0.0198444128,0.0041291476,0.0185366571,-0.0065194825,0.0701089203
0.4428169727,0.0057190866,0.0179122686,0.0009256364,-0.0080499463,-0.0152072469,0.0754216611
0.4529109001,0.0016106574,0.0149478912,0.0004893304,0.0358338878,-0.0275086518,0.0828369707
0.4629549980,0.0053657205,0.0227744579,0.0052768947,0.0230577439,-0.0308168344,0.0807144269
0.4730789661,-0.0016670914,0.0073154573,0.0120261069,0.0370182991,-0.0391490646,0.0860157162
0.4830909967,0.0050388188,0.0209912062,0.0071586133,0.0349661782,-0.0477257743,0.0753947645
0.4932199717,0.0077929110,0.0055546169,-0.0005381941,0.0309128463,-0.0689554289,0.0796323866
0.5031929016,0.0056741745,0.0018640759,0.0026719929,0.0416976102,-0.0805390477,0.0785609335
0.5132769346,0.0044848234,0.0011870863,0.0069753886,0.0395857207,-0.0826658532,0.0806840062
0.5233409405,-0.0026942582,-0.0081896782,0.0113034602,0.0448336415,-0.0741587803,0.0764395893
0.5334109068,-0.0018749924,-0.0020970104,0.0039565922,0.0372944996,-0.0679272488,0.0658266246
0.5435019732,-0.0030666383,-0.0087296367,0.0031533600,0.0350113697,-0.0531132817,0.0626498759
0.5535389185,-0.0062999516,-0.0134107471,0.0060934783,0.0273822136,-0.0372565538,0.0637215301
0.5635939837,-0.0085321460,-0.0133074522,0.0011073113,0.0144769596,-0.0278393514,0.0605433136
0.5736739635,-0.0051542609,-0.0139997602,0.0020698071,0.0014375905,-0.0046022059,0.0616200306
0.5837659836,-0.0047493964,-0.0088902712,0.0008535148,-0.0040487871,0.0101844631,0.0584434122
0.5938029289,-0.0053254454,-0.0019221900,-0.0034505366,-0.0116364006,0.0217833277,0.0573893301
0.6038719416,-0.0019527467,-0.0086424947,-0.0058890819,-0.0297746584,0.0216380544,0.0595181286
0.6139459610,0.0024389832,-0.0074999924,-0.0100559229,0.0022844756,0.0177082922,0.0648170188
0.6240239143,0.0009393899,0.0073296432,-0.0111990208,-0.0094260545,0.0143672908,0.0563239977
0.6340649128,0.0024069457,-0.0031452773,-0.0084074382,-0.0072135003,0.0070073786,0.0637523532
0.6441448927,0.0068954141,0.0009571913,-0.0152076129,-0.0060943607,0.0016979009,0.0616257526
0.6541739702,0.0044662566,0.0002809766,-0.0132289762,0.0056765443,-0.0013756533,0.0626830310
0.6642719507,0.0050116391,-0.0013666747,-0.0150081757,0.0185359381,-0.0065761404,0.0616157688
0.6743719578,0.0007391779,-0.0039662118,-0.0127707953,0.0303510521,-0.0138729354,0.0658563226
0.6844259501,0.0022676496,-0.0064554210,-0.0171308164,0.0357829407,-0.0233754944,0.0658503324
0.6945179701,-0.0001433582,-0.0069417353,-0.0165389422,0.0411505401,-0.0265118983,0.0658473969
0.7045379877,-0.0014793666,-0.0094481111,-0.0111658806,0.0304355286,-0.0223606974,0.0658517927
0.7145949602,-0.0038471611,-0.0042291279,-0.0118237371,0.0185847264,-0.0119293611,0.0541802198
0.7246719599,-0.0071722656,-0.0077905650,-0.0105982656,-0.0017898669,-0.0026274056,0.0435727872
0.7348119020,-0.0094814692,-0.0163317919,-0.0134774679,-0.0126326615,0.0142415892,0.0414603651
0.7447979450,-0.0108302031,-0.0103235245,-0.0107032293,-0.0298726056,0.0299456511,0.0319159292
0.7548660040,-0.0091831181,-0.0141608119,-0.0109992260,-0.0448347777,0.0319233164,0.0297971182
0.7649449110,-0.0055857687,-0.0160446167,-0.0113060707,-0.0555397794,0.0349852815,0.0255543031
0.7750649452,-0.0009621175,-0.0131424665,-0.0146164540,-0.0608668998,0.0338499770,0.0213078931
0.7851639986,0.0007345884,-0.0121956468,-0.0121410722,-0.0543649569,0.0243699234,0.0234259050
0.7951709032,0.0054622204,-0.0112429857,-0.0105179781,-0.0510597080,0.0137532325,0.0181107689
0.8052079678,0.0083742347,-0.0064677591,-0.0127028469,-0.0498646386,-0.0000978685,0.0074836900
0.8152610064,0.0015647321,-0.0075072045,-0.0118568176,-0.0476685949,-0.0064729438,0.0032327522
0.8253349066,-0.0061974316,-0.0134109855,-0.0061182021,-0.0380490720,-0.0074161682,0.0085395668
0.8354099989,-0.0110957716,-0.0124316812,-0.0012985705,-0.0359563604,-0.0031396644,0.0106647685
0.8461399078,-0.0102039371,-0.0114240646,0.0015859366,-0.0275139268,0.0064905919,0.0117295003
0.8557898998,-0.0045243292,-0.0151957273,0.0016578794,-0.0189630482,0.0055457028,0.0180976521
0.8656909466,-0.0018008740,-0.0102167130,-0.0012728809,-0.0136712659,0.0098225400,0.0159747787
0.8756690025,-0.0020968707,-0.0100287795,-0.0002897619,-0.0062407814,0.0141733466,0.0223458596
0.8857469559,-0.0024259181,-0.0137311220,-0.0051425933,-0.0041666860,0.0205495525,0.0212882534
0.8958148956,-0.0007103474,-0.0116685629,-0.0119626764,-0.0095694410,0.0268274210,0.0149219651
0.9058649540,-0.0018393190,-0.0077580805,-0.0121146673,-0.0171005931,0.0320131294,0.0064307423
0.9159328938,0.0020553379,-0.0127425790,-0.0115034217,-0.0522673652,0.0263381992,-0.0031193530
0.9260129929,0.0109120514,-0.0021694896,-0.0175558571,0.0011226460,0.0224852059,-0.0148157571
0.9360939264,0.0040633292,0.0016155841,-0.0023272275,-0.0426658466,0.0252306573,-0.0232976582
0.9464319944,0.0041895718,-0.0034477112,-0.0133084888,-0.0127003053,0.0169606768,-0.0296787918
0.9562059641,0.0053407461,0.0021857622,-0.0126322154,-0.0361792631,0.0167279169,-0.0339201428
0.9662759304,-0.0003155858,-0.0009420511,-0.0099605564,-0.0381966643,0.0050241225,-0.0360488072
0.9763889313,0.0009117930,-0.0040755863,-0.0043123006,-0.0530832037,-0.0004113892,-0.0360477418
0.9865969419,0.0001802354,-0.0062728520,-0.0016681193,-0.0594280511,-0.0057241954,-0.0286158584
0.9965199232,0.0062418492,-0.0035766361,-0.0048935055,-0.0679208711,-0.0100220051,-0.0254304521
1.0067809820,0.0092671122,-0.0037612913,-0.0052165031,-0.0700342208,-0.0121055953,-0.0169382282
1.0166049004,0.0064040632,-0.0069192047,-0.0057670115,-0.0689916015,-0.0088163251,-0.0020716654
1.0268639326,0.0024326651,-0.0079939961,-0.0070747971,-0.0625801384,-0.0086923558,0.0085459584
1.0367588997,0.0022902696,-0.0041390057,-0.0054446696,-0.0455763899,-0.0010608009,0.0170398448
1.0468029976,-0.0047281771,-0.0012276766,-0.0028597354,-0.0510177091,0.0095236665,0.0202316418
1.0569258928,-0.0079271588,-0.0002616641,-0.0022678613,-0.0382739455,0.0160292368,0.0244788509
1.0671159029,-0.0043063848,-0.0011910794,-0.0074495911,-0.0286973827,0.0193230342,0.0287260618
1.0770679712,0.0001992791,-0.0049342508,-0.0076228022,-0.0137224272,0.0163120646,0.0350915492
1.0870509148,0.0037134795,0.0010985734,-0.0038288473,-0.0062331120,0.0142132938,0.0287182704
1.0971359015,0.0043970854,0.0012626650,-0.0028484105,-0.0060972916,0.0003856285,0.0234023351
1.1074270010,0.0051769824,-0.0083215833,-0.0056892275,-0.0017330889,-0.0091260504,0.0233964100
1.1172399521,0.0030771701,-0.0120927095,-0.0085089449,0.0015423326,-0.0165320355,0.0223300792
1.1273258924,0.0040136785,-0.0023251770,-0.0084599499,-0.0091655189,-0.0135046216,0.0127781872
1.1374549866,0.0020870774,-0.0042898054,-0.0084900493,-0.0124009931,-0.0103772711,0.0085333753
1.1476689577,0.0001089184,-0.0081797242,-0.0056123971,-0.0220799334,-0.0030269462,0.0096010361
1.1575379372,-0.0009344311,-0.0072434540,-0.0028814315,-0.0360309035,0.0042304341,0.0021756103
1.1675779819,-0.0009553523,-0.0073887701,-0.0091220969,-0.0563942045,0.0124996156,-0.0041856826
1.1774868965,-0.0009900720,-0.0085905790,-0.0087909941,-0.0778875127,0.0271464679,-0.0073583061
1.1878370047,-0.0079862867,-0.0136460066,-0.0056885718,-0.0844047964,0.0387962013,-0.0020418381
1.1976519823,-0.0081510339,-0.0138829947,-0.0094648236,-0.0983951837,0.0503391400,-0.0030943193
1.2081189156,-0.0034198554,-0.0025272963,-0.0095787877,-0.1145371571,0.0628699139,-0.0126410192
1.2179949284,-0.0045293360,-0.0019303558,-0.0088578099,-0.1274044812,0.0691517815,-0.0083874185
1.2280958891,-0.0037305148,-0.0042683478,-0.0082510952,-0.1402097195,0.0690540373,-0.0062608840
1.2380659580,0.0019558875,-0.0046983357,-0.0125589604,-0.1359619796,0.0712202489,-0.0051990822
1.2481729984,0.0047422857,-0.0011874435,-0.0157727245,-0.1295230687,0.0680703297,-0.0083856210
1.2582049370,0.0085039344,-0.0034859774,-0.0159877185,-0.1262471080,0.0606712736,-0.0083901482
1.2684339285,0.0074561448,-0.0019205806,-0.0161556248,-0.1197291762,0.0490497723,-0.0094599398
1.2783799171,0.0044753761,0.0006742480,-0.0142309312,-0.1068591923,0.0428025275,-0.0084045297
1.2884299755,0.0014859049,0.0003957751,-0.0102421278,-0.0908525512,0.0429709032,-0.0041621802
1.2984759808,0.0023811071,0.0088997483,-0.0042866110,-0.0910150036,0.0588513352,-0.0094632022
1.3087129593,0.0032975285,0.0124872923,-0.0061568259,-0.0857344121,0.0641822517,-0.0126473447
1.3187339306,0.0031896441,0.0064294939,-0.0098617310,-0.0665346161,0.0654387325,-0.0084043965
1.3286859989,0.0040149302,0.0111276507,-0.0096140141,-0.0623437539,0.0728828013,-0.0115876729
1.3387349844,-0.0011160166,0.0081107020,-0.0054251193,-0.0485850684,0.0847165585,-0.0052144621
1.3489439487,-0.0013729127,0.0070607667,-0.0050670146,-0.0400455110,0.0848115608,-0.0020308525
1.3588799238,0.0003085344,0.0060604219,-0.0036620735,-0.0261360854,0.0818120465,0.0075203087
1.3689498901,0.0019329994,0.0022085311,-0.0050450801,-0.0132493433,0.0745656490,0.0181318745
1.3790580034,0.0035601465,0.0071179871,-0.0083518857,-0.0046478659,0.0682811216,0.0191883482
1.3893249035,0.0021911471,0.0033870342,-0.0036894321,0.0178999212,0.0558407679,0.0340425968
1.3991519213,0.0017572253,0.0055800085,-0.0056300401,0.0233341008,0.0463729575,0.0393454805
1.4092088938,0.0033162443,0.0019695761,-0.0055344938,0.0309632849,0.0305589102,0.0446435064
1.4192678928,0.0048719556,-0.0025944707,-0.0082279090,0.0375050753,0.0168287177,0.0456967875
1.4295558929,0.0045353384,0.0015761855,-0.0070294975,0.0311629158,0.0103439204,0.0361395031
1.4394038916,-0.0006207617,0.0008105043,-0.0049203276,0.0236892886,0.0102302032,0.0287087504
1.4494479895,-0.0018605383,-0.0009266135,-0.0047860979,0.0182796624,0.0176032968,0.0276524089
1.4595719576,-0.0011203082,-0.0007928607,-0.0057728528,0.0021624770,0.0280250460,0.0202291124
1.4697779417,-0.0023532899,0.0002580884,-0.0010897755,-0.0033391342,0.0438530110,0.0138665540
1.4796589613,-0.0055177598,0.0061017280,0.0062746764,-0.0313124470,0.0658363402,0.0053902455
1.4897019863,-0.0067305653,0.0050286655,0.0065758587,-0.0495609865,0.0762597471,0.0011533559
1.4997969866,-0.0001202018,0.0029124620,-0.0020530461,-0.0731763020,0.0898477286,0.0011661391
1.5100529194,0.0044492693,-0.0040873880,0.0007992149,-0.0839060396,0.0961541608,0.0064820079
1.5199309587,0.0060597868,-0.0023407338,-0.0013128757,-0.0849902183,0.0983222425,0.0149777588
1.5299979448,0.0057056756,0.0042511229,-0.0005729436,-0.1052822247,0.0991442278,0.0054267310
1.5400629044,0.0053884597,0.0001271966,-0.0017701625,-0.0902524069,0.0908490121,0.0149749620
1.5503408909,0.0010797887,-0.0019682047,-0.0019123196,-0.0816602036,0.0856534541,0.0202789120
1.5602068901,-0.0032561512,-0.0001317856,0.0048146606,-0.0698845014,0.0826422200,0.0308924094
1.5702579021,-0.0046904772,0.0008069280,0.0097545739,-0.0516959839,0.0785905570,0.0361954980
1.5803359747,-0.0022581012,0.0047537689,0.0090713268,-0.0356688164,0.0765945166,0.0340668298
1.5906109810,-0.0007960589,0.0048865681,0.0076178075,-0.0077984640,0.0641129389,0.0351141170
1.6004319191,-0.0022465379,0.0041033630,0.0083480841,0.0114721693,0.0578939281,0.0319207236
1.6105169058,-0.0036253126,0.0004278424,0.0073265196,0.0286960043,0.0431674458,0.0287243966
1.6205669641,0.0018969385,-0.0032106040,0.0055362941,0.0415862352,0.0347843468,0.0276551377
1.6308759451,0.0045617432,-0.0010372994,0.0028539659,0.0437884554,0.0273000672,0.0159707852
1.6406949759,0.0024899750,-0.0009091494,-0.0018408536,0.0342119932,0.0239777751,0.0074771652
1.6507619619,-0.0015434416,-0.0076389904,0.0030107857,0.0116488971,0.0386304855,0.0064270804
1.6607869864,-0.0085990224,-0.0173340440,0.0075816871,-0.0013547866,0.0587330908,0.0149348155
1.6711059809,-0.0059691458,-0.0124628544,0.0022724033,-0.0174735691,0.0702837557,0.0181314070
1.6809499264,-0.0023696811,-0.0134794712,-0.0012978553,-0.0314650163,0.0818128437,0.0149553213
1.6910139322,-0.0007644685,-0.0135235190,-0.0030039190,-0.0357651971,0.0849798024,0.0181429256
1.7011119127,0.0007848351,-0.0086759925,-0.0008324622,-0.0368328616,0.0849635601,0.0170813892
1.7113649845,0.0043271990,-0.0077337022,-0.0025534271,-0.0431626886,0.0774669647,0.0149554536
1.7212429047,0.0079300012,-0.0038877127,-0.0041739582,-0.0302399658,0.0659077764,0.0149463993
1.7312599421,0.0096008983,0.0000053051,-0.0095103020,-0.0183271915,0.0490328595,0.0149363466
1.7413779497,0.0073834867,0.0010294917,-0.0088444585,-0.0011673803,0.0407008938,0.0159896258
1.7516149282,0.0032271950,0.0021296742,-0.0021296977,0.0181132667,0.0334424488,0.0159803052
1.7615139484,-0.0029061825,0.0052552824,0.0067209960,0.0384313241,0.0293755345,0.0159731153
1.7715349197,-0.0060733943,0.0054721837,0.0069574476,0.0490705185,0.0326375738,0.0138487779
1.7816389799,-0.0043210178,-0.0011132953,0.0043744207,0.0661562905,0.0317395553,0.0159675889
1.7918930054,-0.0006579550,-0.0017660854,-0.0009527444,0.0757633597,0.0318437517,0.0191510636
1.8017719984,-0.0058079748,-0.0043808217,0.0043403865,0.0789748579,0.0308037885,0.0180879310
1.8118048906,-0.0032001527,-0.0078429580,0.0011335374,0.0949540734,0.0341891311,0.0276415553
1.8219178915,-0.0054645925,-0.0094203353,0.0074987174,0.0799759179,0.0371585563,0.0149052534
1.8321559429,-0.0027200074,-0.0091726184,0.0001542331,0.0671800673,0.0359433554,0.0085379025
1.8420358896,0.0001448600,-0.0109810829,-0.0034386753,0.0576558001,0.0273021981,-0.0020819851
1.8521089554,0.0030766039,-0.0118451118,-0.0011984943,0.0502553284,0.0197904184,-0.0052705212
1.8622210026,0.0031469672,-0.0060006971,0.0028155209,0.0245824568,0.0247609429,-0.0222503040
1.8724259138,0.0013532548,-0.0022109745,-0.0010791658,0.0150147853,0.0203783102,-0.0307451226
1.8823219538,0.0006145446,-0.0043214555,0.0047020675,0.0022257529,0.0180821344,-0.0402992144
1.8923469782,0.0019149987,-0.0006650683,0.0055575133,-0.0137185650,0.0115269627,-0.0477301627
1.9024339914,0.0032455532,-0.0057960744,0.0034218193,-0.0083387131,0.0073503270,-0.0445482172
1.9127209187,0.0006307571,-0.0089371204,0.0052602054,-0.0146941608,0.0030842759,-0.0392390080
1.9225279093,-0.0020499916,-0.0032955406,0.0070945979,-0.0082780728,0.0021138201,-0.0339321271
1.9326149225,-0.0018536241,0.0014212730,0.0089327460,-0.0072960593,0.0106324740,-0.0307432599
1.9426749945,-0.0036489756,0.0032266977,0.0078272587,-0.0019790577,0.0128357075,-0.0254345126
1.9529548883,-0.0035379322,0.0041065817,0.0077377320,0.0043301042,0.0224825423,-0.0190608352
1.9630129337,-0.0074482947,-0.0007829067,0.0095860725,0.0085608019,0.0268261582,-0.0095035490
1.9729019403,-0.0045521050,0.0030870440,0.0114196297,0.0063844668,0.0310584530,-0.0084390845
1.9829509258,0.0002678840,0.0001748803,0.0093679782,0.0095235342,0.0374732092,-0.0052512800
1.9932899475,0.0021409004,-0.0017831919,0.0014505149,0.0105683189,0.0395835638,-0.0084356880
2.0030729771,0.0001337736,-0.0018054245,0.0032293559,0.0041975053,0.0363446251,-0.0084356880
2.0132098198,-0.0028682144,-0.0027990339,0.0088614589,0.0031321878,0.0363488905,-0.0063115507
2.0232009888,0.0000636189,0.0029495361,0.0057179094,-0.0042748619,0.0299037732,-0.0084364871
2.0334489346,0.0030281155,0.0018797519,0.0016026259,-0.0096053937,0.0287839137,-0.0105608907
2.0437350273,0.0010833351,0.0017932656,0.0042772056,-0.0063480819,0.0235414822,-0.0052553415
2.0535299778,0.0020576327,0.0017334225,0.0040971995,-0.0030268002,0.0119187804,-0.0020761930
2.0634350777,0.0079369154,0.0065371399,0.0010480643,-0.0072127562,0.0033588479,-0.0073883999
2.0737609863,0.0040793926,0.0055201058,0.0048868419,-0.0028461041,-0.0061608208,-0.0084550623
2.0835938454,0.0011981933,0.0016039612,0.0068171979,-0.0017672572,-0.0071986550,-0.0063322568
2.0936799049,0.0042528124,0.0054008369,0.0048389197,-0.0071399715,-0.0041386830,-0.0180088859
2.1037487984,-0.0014593394,0.0043248539,0.0057309628,-0.0049615055,-0.0083432812,-0.0148261441
2.1140198708,-0.0033071430,-0.0006263849,0.0066261054,-0.0136069246,0.0021928495,-0.0148193520
2.1239058971,-0.0051989346,-0.0045979018,0.0103835827,-0.0051641725,0.0118372208,-0.0116312820
2.1339478493,-0.0041563897,0.0001466873,0.0072697164,-0.0127008371,0.0181034394,-0.0169353001
2.1440529823,-0.0031115205,0.0029705765,0.0031888844,-0.0030940175,0.0182219502,-0.0116286855
2.1542677879,-0.0031108351,0.0009782913,0.0040055872,-0.0031198217,0.0214525647,-0.0041936059
2.1641469002,-0.0002305300,0.0067803268,0.0057928325,-0.0020084856,0.0172386430,-0.0010105956
2.1741960049,-0.0012735517,0.0116437674,0.0076017738,-0.0009202920,0.0151402727,0.0011112116
2.1842949390,0.0005914180,0.0087398291,0.0046090842,0.0076316511,0.0142092314,0.0096029667
2.1945228577,0.0004764705,0.0078239441,0.0016462565,-0.0029187016,0.0024863298,0.0159707852
2.2043600082,0.0022567718,0.0059687500,0.0035407306,0.0024425089,0.0004663221,0.0244628061
2.2144589424,0.0040195198,0.0050983434,-0.0003967523,-0.0060370229,-0.0049005467,0.0265870113
2.2245559692,0.0048189969,0.0071019535,-0.0053624748,-0.0167189632,-0.0039327536,0.0265902057
2.2348160744,0.0006987064,0.0032827856,-0.0026297807,-0.0242151748,-0.0018813210,0.0255297348
2.2446827888,-0.0044232993,0.0004146698,0.0019623400,-0.0317271501,0.0023043694,0.0265955329
2.2547020912,-0.0016510875,0.0033026340,0.0016059042,-0.0402582437,0.0010851076,0.0138561018
2.2648401260,0.0022512286,0.0070830588,-0.0026290654,-0.0390584879,-0.0127747813,0.0021690857
2.2750649452,0.0082085934,0.0059543257,-0.0067661642,-0.0410697088,-0.0255877823,-0.0073929941
2.2849509716,0.0113135185,0.0077130203,-0.0089553827,-0.0453195795,-0.0277816951,-0.0127020059
2.2950921059,0.0105164852,0.0046230559,-0.0062505840,-0.0441890955,-0.0341381915,-0.0127056679
2.3052310944,0.0028425066,0.0025281312,-0.0015834211,-0.0431299545,-0.0330332480,-0.0073963897
2.3153648376,-0.0058306842,-0.0005121228,0.0050142766,-0.0422344431,-0.0160332266,-0.0052653281
2.3251857758,-0.0107031260,-0.0035363433,0.0086065894,-0.0370319597,-0.0021243342,0.0053582876
2.3352539539,-0.0078532789,-0.0045680399,0.0053854943,-0.0285712536,0.0064991144,0.0149181038
2.3453249931,-0.0080346558,-0.0016075370,0.0041975142,-0.0115872100,0.0162734482,0.0265984628
2.3555829525,-0.0015007646,0.0034007432,0.0070274831,0.0012090662,0.0174742676,0.0308427420
2.3654627800,0.0049792738,0.0055486565,0.0011865855,0.0160577875,0.0272161104,0.0404000245
2.3755350113,0.0045260997,0.0097157359,0.0021685124,0.0171722118,0.0230224319,0.0467689745
2.3856759071,0.0020565598,0.0051934724,0.0061242343,0.0256394669,0.0305863414,0.0563267954
2.3958640099,0.0015766828,0.0044949059,0.0022285939,0.0139491484,0.0251166075,0.0467707105
2.4057989120,0.0011939614,0.0007984641,-0.0046748160,-0.0030732444,0.0196416806,0.0435869023
2.4157958031,0.0027759878,-0.0087329745,-0.0047435402,0.0055159554,0.0144045083,0.0425201021
2.4259119034,0.0014627187,-0.0076048966,-0.0038888692,-0.0136646628,0.0109983254,0.0340288803
2.4361219406,-0.0036936195,-0.0104357600,0.0016815425,-0.0253881104,0.0087262494,0.0265971981
2.4467380047,-0.0049158423,-0.0074991579,0.0032717944,-0.0383039080,0.0191759616,0.0191731025
2.4560608864,-0.0060376315,-0.0037106273,0.0036632777,-0.0682640672,0.0262516458,0.0053811907
2.4661350250,-0.0070889681,-0.0087606907,0.0068197013,-0.0746604502,0.0250793230,-0.0031121625
2.4764537811,-0.0061275153,-0.0080507398,0.0060328008,-0.0853760540,0.0291880481,-0.0094776498
2.4862527847,-0.0100057516,-0.0132039785,0.0041940571,-0.0906286016,0.0206257179,-0.0137277888
2.4963130951,-0.0070662885,-0.0144430995,0.0044045807,-0.0842117667,0.0196549967,-0.0084206415
2.5064468384,-0.0060763150,-0.0117919445,0.0103649860,-0.1002000570,0.0173585527,-0.0137267234
2.5166609287,-0.0030742080,-0.0150225759,0.0066477419,-0.0851512775,0.0069208257,-0.0073652305
2.5265359879,-0.0030292065,-0.0065039392,0.0079152947,-0.0722599849,-0.0014484241,-0.0063108858
2.5368080139,0.0019259064,-0.0086504817,0.0064777494,-0.0539998375,-0.0129402969,-0.0031357983
2.5469970703,0.0059185536,-0.0058597918,0.0033126832,-0.0282811560,-0.0233127754,-0.0010239114
2.5570759773,0.0020418970,-0.0049288268,0.0051768185,-0.0175644346,-0.0274219010,0.0053419759
2.5667290688,0.0030448942,-0.0107624531,0.0033358098,-0.0025271624,-0.0368196666,0.0085188607
2.5768508911,-0.0028264613,-0.0165127516,0.0016034008,0.0050108870,-0.0430579185,0.0180698205
2.5869231224,-0.0067845373,-0.0183540583,0.0047334791,-0.0003045155,-0.0452403799,0.0159464832
2.5972700119,-0.0068240552,-0.0192394257,0.0078525301,-0.0057247151,-0.0368276536,0.0117058652
2.6070427895,-0.0038182230,-0.0153878331,0.0049755932,-0.0196474548,-0.0328017548,-0.0031537742
2.6171069145,-0.0017390044,-0.0232757926,0.0048963786,-0.0335565023,-0.0298023652,-0.0127048027
2.6271820068,0.0014353602,-0.0215527415,-0.0031070947,-0.0506481379,-0.0289805140,-0.0265034381
2.6374678612,0.0007737784,-0.0160203576,-0.0025280952,-0.0625577718,-0.0132492892,-0.0392359458
2.6473050117,-0.0067452579,-0.0192718506,0.0009019733,-0.0614783913,-0.0142802000,-0.0360513367
2.6574189663,-0.0005443485,-0.0098944306,-0.0024878024,-0.0626106113,-0.0079586543,-0.0413563550
2.6674399376,0.0037258475,-0.0063744183,-0.0010438799,-0.0627187341,0.0026306065,-0.0445364341
2.6777749062,0.0001356809,-0.0048068757,-0.0054717301,-0.0521211065,0.0101576317,-0.0434734337
2.6875820160,-0.0005771311,-0.0021997688,-0.0040242313,-0.0490251817,0.0208094772,-0.0413453020
2.6976318359,-0.0022914798,-0.0005705950,-0.0035862564,-0.0490648374,0.0250595510,-0.0402805023
2.7078239918,0.0008596985,0.0001309517,-0.0069804429,-0.0448154956,0.0272465385,-0.0360332951
2.7180089951,0.0000879078,0.0027709010,-0.0074775456,-0.0458629206,0.0250944383,-0.0392194986
2.7278289795,0.0031705110,0.0005962256,-0.0020992397,-0.0427318439,0.0326048173,-0.0307221524
2.7379829884,0.0053106458,0.0061472659,-0.0026554107,-0.0565897562,0.0303212907,-0.0370917693
2.7479939461,0.0064766319,0.0029153826,-0.0071492433,-0.0533889048,0.0303423293,-0.0381543711
2.7582459450,0.0057110996,0.0074685221,-0.0067902445,-0.0587223656,0.0303091742,-0.0360290334
2.7681169510,0.0029817729,0.0022769573,-0.0054635047,-0.0597559400,0.0271376148,-0.0328449570
2.7781767845,0.0032088368,0.0107223988,-0.0070570349,-0.0618260130,0.0207315125,-0.0360323638
2.7883009911,0.0054338188,0.0113444328,-0.0066539287,-0.0628100485,0.0122064678,-0.0402835682
2.7986009121,0.0057366700,0.0139331818,-0.0071916818,-0.0595752671,0.0090651363,-0.0381622240
2.8084368706,0.0050424547,0.0126312375,-0.0095930332,-0.0498523340,-0.0025012384,-0.0349850729
2.8184728622,0.0003903716,0.0123916268,-0.0050966977,-0.0401970707,-0.0065932516,-0.0243704449
2.8285160065,-0.0014077218,0.0122416615,-0.0014168262,-0.0241869465,-0.0064118905,-0.0180036258
2.8387870789,-0.0002597959,0.0159956813,-0.0015499829,-0.0145446239,-0.0105775408,-0.0190713555
2.8486847878,0.0037834852,0.0100882649,-0.0034469008,0.0046802023,-0.0113945985,-0.0073968563
2.8586909771,0.0018670766,0.0062152748,-0.0072102188,0.0110450778,-0.0070109689,0.0053447057
2.8687920570,-0.0001633556,0.0063128476,-0.0040986179,0.0238655359,-0.0079047251,0.0138353957
2.8790519238,0.0006839542,0.0064707403,-0.0019294857,0.0237730965,0.0016715358,0.0180878658
2.8889169693,-0.0004692466,0.0076057320,-0.0007916330,0.0247352980,0.0123116625,0.0212783329
2.8989977837,0.0042479844,0.0077144508,-0.0074743866,0.0172126666,0.0175085552,0.0149133764
2.9090249538,0.0051141293,0.0077844863,-0.0094394917,0.0075637675,0.0216409825,0.0106706945
2.9193429947,0.0040119500,0.0058729057,-0.0114808911,-0.0031527393,0.0257927179,0.0106745558
2.9291889668,0.0039012639,0.0058805351,-0.0097766761,-0.0170941222,0.0319752470,0.0011249934
2.9392659664,0.0018575101,0.0058121090,-0.0081861848,-0.0394946635,0.0307190344,0.0011295207
2.9493250847,0.0047208280,0.0027939680,-0.0096366638,-0.0256773829,0.0361175276,-0.0031184878
2.9595990181,0.0046123774,0.0124547482,-0.0109762792,-0.0234927647,0.0319605321,0.0074977381
2.9695730209,0.0054421634,0.0027212503,-0.0073985695,-0.0212615691,0.0224439930,0.0096160164
2.9796249866,0.0082846489,0.0095180869,-0.0086133126,-0.0147990100,0.0160926860,0.0032400759
2.9898939133,0.0023476391,0.0095013380,-0.0068488955,-0.0147558656,0.0118555967,0.0042997478
2.9999408722,-0.0006525011,0.0046288972,-0.0070197224,-0.0253867544,0.0075120474,0.0032378787
3.0097408295,-0.0026485713,0.0055585508,-0.0014456152,-0.0296467468,0.0063860631,-0.0010087979
3.0198040009,-0.0046115308,0.0025596621,-0.0026661395,-0.0264555067,0.0074890777,0.0011143406
3.0298480988,-0.0026967914,-0.0013792512,-0.0019537448,-0.0328897014,0.0106230853,0.0021793386
3.0401511192,-0.0037080438,-0.0033895371,-0.0003026961,-0.0317861959,0.0074620470,0.0043022777
3.0499720573,-0.0018021257,0.0004384521,0.0003776313,-0.0328661054,0.0084860325,0.0000558675
3.0600719452,-0.0008592696,-0.0044938321,-0.0047457456,-0.0200181641,0.0044108629,0.0085433619
3.0701379776,-0.0009487064,-0.0025337336,-0.0048948764,-0.0104342485,0.0066306079,0.0106656346
3.0804069042,-0.0010296495,0.0023490789,-0.0039888262,0.0002391422,0.0067088380,0.0085404990
3.0902409554,-0.0030939968,0.0014444592,-0.0020345091,0.0055556106,0.0089051472,0.0127874417
3.1003580093,0.0007152169,0.0015166404,-0.0029755472,0.0066325129,0.0078395503,0.0106631042
3.1104409695,-0.0013718994,-0.0013085601,-0.0029120683,0.0183837116,0.0069087753,0.0149068516
3.1206459999,0.0014116971,-0.0011751649,-0.0027860045,0.0258205347,0.0101574324,0.0149061857
3.1305680275,0.0032383709,0.0038087370,-0.0084229345,0.0396617837,0.0134685403,0.0159661248
3.1405611038,0.0010987131,0.0040080552,-0.0023074984,0.0396652967,0.0134743992,0.0170289911
3.1506900787,-0.0020075233,0.0012802484,-0.0039909719,0.0417361706,0.0198659860,0.0180934556
3.1609020233,0.0007226078,-0.0024256704,-0.0037565469,0.0427156538,0.0283642001,0.0180965867
3.1708297729,-0.0034243257,-0.0032137034,-0.0026644110,0.0213192850,0.0334758684,0.0170427747
3.1808381081,-0.0036530287,-0.0069735642,0.0031620623,0.0266217999,0.0366703309,0.0117345611
3.1909198761,-0.0009062381,-0.0020236371,-0.0065813898,0.0148865813,0.0366093442,0.0181083046
3.2011828423,-0.0021106990,-0.0125837326,0.0001898170,0.0117237316,0.0323317125,0.0170439053
3.2110657692,-0.0013404281,-0.0085937381,0.0020683170,0.0042511681,0.0322318412,0.0117367581
3.2210619450,-0.0044172793,-0.0104928613,0.0029018284,0.0011312487,0.0236745048,0.0053622825
3.2329998016,-0.0025439949,-0.0114594102,0.0027463199,-0.0127339680,0.0224507824,-0.0010056021
3.2421319485,-0.0025562437,-0.0124922395,0.0015628100,-0.0126995062,0.0192455370,-0.0041911425
3.2518410683,-0.0054666190,-0.0125684738,0.0032893182,-0.0180612504,0.0212586187,-0.0137449661
3.2620201111,-0.0083261523,-0.0126837492,0.0059430362,-0.0148855355,0.0233816914,-0.0179927088
3.2721009254,-0.0062711625,-0.0108755231,0.0076695443,-0.0128178559,0.0297317337,-0.0232990570
3.2821178436,-0.0031567605,-0.0062036510,0.0044771791,-0.0181283318,0.0264262818,-0.0349794813
3.2913630009,0.0010040610,-0.0083660483,0.0022823573,-0.0149290776,0.0264265500,-0.0392274894
3.3015389442,0.0002695530,-0.0076297517,0.0000597597,-0.0180975217,0.0232009944,-0.0413511619
3.3115279675,-0.0014320703,-0.0078794956,0.0026705624,-0.0255663563,0.0231495965,-0.0392256938
3.3218669891,-0.0021879168,-0.0119782686,0.0043179751,-0.0213130228,0.0253636166,-0.0307306089
3.3316698074,-0.0000611336,-0.0043962593,0.0059337378,-0.0234696493,0.0274531320,-0.0328526124
3.3417887688,0.0069805593,-0.0026558635,0.0037142993,-0.0117154680,0.0265212916,-0.0286078006
3.3517990112,0.0081188586,-0.0038039086,0.0025007487,-0.0138704982,0.0286315810,-0.0275444016
3.3621368408,0.0033488481,-0.0039374824,0.0041954876,-0.0095919967,0.0276365560,-0.0232997872
3.3719220161,-0.0004986317,-0.0079321265,0.0069107772,-0.0085110199,0.0266264193,-0.0169297755
3.3820538521,0.0005264489,-0.0070463414,0.0067047239,-0.0127465110,0.0234199744,-0.0148067018
3.3920588493,0.0015638082,-0.0081205964,0.0035547377,-0.0127134882,0.0202508122,-0.0126846954
3.4023981094,0.0016140847,-0.0111396313,0.0014025928,-0.0126515692,0.0138712768,-0.0148118287
3.4121928215,-0.0012230070,-0.0083302259,0.0041277767,-0.0147581296,0.0106142312,-0.0233073123
3.4223248959,-0.0059582978,-0.0075073238,0.0068341256,-0.0147975711,0.0137572270,-0.0296780597
3.4323348999,-0.0047420054,-0.0018718836,0.0114751812,-0.0201497264,0.0146954581,-0.0413560234
3.4426560402,-0.0034518631,-0.0030969975,0.0093060499,-0.0157926083,0.0062363935,-0.0424217507
3.4524478912,-0.0011583359,-0.0023677347,0.0081847673,-0.0146849984,0.0019740043,-0.0466713570
3.4627180099,0.0012076704,0.0012477639,0.0090183383,-0.0146101648,-0.0054744575,-0.0498598292
3.4727478027,-0.0042789369,-0.0029001830,0.0147249456,-0.0156549215,-0.0075919367,-0.0477370247
3.4830529690,-0.0068583577,-0.0069895978,0.0166622158,0.0014949292,-0.0147991180,-0.0371284522
3.4928817749,-0.0074996143,-0.0100883842,0.0148130413,0.0047394587,-0.0190082435,-0.0360695794
3.5030009747,-0.0071572452,-0.0063553448,0.0149363633,0.0090541253,-0.0232162382,-0.0360715091
3.5130228996,-0.0038435848,-0.0026227830,0.0141629931,0.0165442657,-0.0252868459,-0.0381980427
3.5233678818,-0.0005174668,-0.0018115637,0.0105110174,0.0176629797,-0.0305819400,-0.0382015742
3.5330910683,0.0008814542,-0.0010023711,0.0078627830,0.0187828392,-0.0358845629,-0.0392663032
3.5432419777,-0.0006845982,-0.0001639125,0.0062491060,0.0241538491,-0.0389866121,-0.0339599587
3.5532770157,0.0016650765,0.0035855176,0.0046407343,0.0220387653,-0.0411549583,-0.0382076986
3.5635480881,0.0050393254,0.0073197489,0.0049466849,0.0166730303,-0.0380192176,-0.0382041037
3.5734848976,0.0034942834,0.0023018124,0.0032939077,0.0187657420,-0.0337427147,-0.0360789001
3.5834779739,0.0028427152,0.0012167098,0.0045125247,0.0123000126,-0.0273902770,-0.0297040921
3.5936188698,0.0031291156,0.0030520561,0.0037157298,0.0122510111,-0.0220298655,-0.0212070104
3.6038260460,0.0033010452,0.0059021716,-0.0000238656,0.0143039348,-0.0134676695,-0.0127089964
3.6137437820,0.0024700670,0.0097557306,-0.0018670796,0.0089262128,-0.0092633367,-0.0116437320
3.6236939430,-0.0013738663,0.0097402930,0.0001677037,0.0131569915,-0.0049410937,-0.0052712536
3.6338748932,0.0006159155,0.0117141604,-0.0035633682,0.0217073373,-0.0058929073,0.0000350946
3.6440799236,0.0006392805,0.0185644627,-0.0024091839,0.0206795689,-0.0101735396,-0.0042143781
3.6540079117,0.0006932227,0.0147038698,-0.0012293695,0.0207227133,-0.0144106289,-0.0031547064
3.6640079021,0.0037018268,0.0167157054,-0.0008695363,0.0389972180,-0.0280575976,-0.0052912273
3.6741149426,0.0019062667,0.0196658969,-0.0053289770,0.0358363092,-0.0323572680,-0.0095397681
3.6843628883,0.0010867326,0.0090153217,-0.0057977079,0.0348771736,-0.0429700352,-0.0084826928
3.6942729950,0.0012629537,0.0109972954,-0.0033815741,0.0285276659,-0.0483309776,-0.0084837582
3.7042808533,0.0024844317,0.0119673610,-0.0049069761,0.0220708847,-0.0431314223,-0.0159110483
3.7143731117,0.0027416854,0.0021689537,-0.0104084248,0.0039419485,-0.0443301126,-0.0127216466
3.7246298790,-0.0038930567,0.0001771453,-0.0043986081,-0.0015303418,-0.0305772163,-0.0116511229
3.7345027924,-0.0076747029,0.0039954786,0.0014191032,-0.0176528525,-0.0190252215,-0.0084558623
3.7445058823,-0.0055856793,0.0058190827,-0.0016424297,-0.0241958946,-0.0053088088,-0.0116328131
3.7544260025,-0.0035369785,0.0056940918,-0.0038094758,-0.0296151601,0.0031533851,-0.0084418133
3.7647459507,-0.0044768839,0.0085090399,-0.0002408265,-0.0350344256,0.0116155799,-0.0052508139
3.7747530937,-0.0025780590,0.0094162822,0.0033643008,-0.0180217288,0.0181938540,0.0043035429
3.7847990990,0.0042054863,0.0132859945,0.0002887012,-0.0030672513,0.0172832515,0.0074855541
3.7948827744,0.0060614855,0.0094524622,-0.0055133938,0.0162390675,0.0079296976,0.0117231756
3.8050229549,0.0069114179,0.0096109509,-0.0033289432,0.0356320217,-0.0098910443,0.0191418771
3.8150858879,0.0126937833,0.0088163018,-0.0087142233,0.0475840196,-0.0310016572,0.0201900974
3.8250617981,0.0106745567,0.0070941453,-0.0100363726,0.0594848879,-0.0467795543,0.0254881904
3.8351697922,0.0086611118,0.0093172193,-0.0044228076,0.0584784783,-0.0531964414,0.0191144478
3.8453350067,0.0047454447,0.0075873737,-0.0007924675,0.0488951728,-0.0554306321,0.0148691684
3.8553290367,-0.0020693929,0.0019116404,-0.0050407886,0.0456527770,-0.0511938110,0.0180575028
3.8653368950,-0.0021033676,-0.0046819444,-0.0005620955,0.0423664078,-0.0426982604,0.0233707111
3.8754730225,-0.0022178085,-0.0025301573,0.0008561374,0.0315449201,-0.0279512703,0.0212572254
3.8856320381,-0.0033166201,-0.0013886688,0.0002329708,0.0271920897,-0.0194937382,0.0223244876
3.8955209255,-0.0044356971,-0.0002346036,-0.0004654168,0.0228596590,-0.0131650018,0.0223287474
3.9056010246,-0.0007141621,0.0009232166,0.0017272593,0.0206595697,-0.0068027093,0.0244550165
3.9156818390,0.0000731557,0.0000824335,-0.0020302772,0.0025295671,-0.0080152471,0.0255208127
3.9259259701,0.0008431284,-0.0026860235,-0.0029348969,0.0078480318,-0.0058054226,0.0318916962
3.9358611107,0.0035371988,0.0003910664,-0.0038112043,0.0046668863,-0.0079692407,0.0297678225
3.9458928108,0.0082897749,0.0034000280,-0.0144485477,0.0036627688,-0.0144011751,0.0212716721
3.9559559822,0.0091560092,-0.0013526676,-0.0123657817,0.0069264732,-0.0207600035,0.0180822723
3.9661989212,0.0002411513,-0.0041596289,-0.0092991227,0.0111736553,-0.0185935888,0.0191438738
3.9762630463,-0.0057336180,-0.0040230150,-0.0023268103,0.0121853901,-0.0133069484,0.0148990620
3.9861388206,-0.0077248006,-0.0000766513,-0.0041402220,0.0153700514,-0.0122869564,0.0042805066
3.9962320328,0.0011308102,-0.0019943712,-0.0087821130,0.0132533703,-0.0144760748,-0.0031526426
4.0064768791,0.0012231080,-0.0049185152,-0.0115081305,0.0133136651,-0.0208692607,-0.0074035795
4.0163679123,-0.0006463917,-0.0039159651,-0.0064390539,0.0164841581,-0.0176444389,-0.0052791769
4.0263891220,-0.0024985464,-0.0000066754,0.0005903007,0.0132158473,-0.0113479933,-0.0116459299
4.0364542007,-0.0033732445,-0.0039095278,0.0007401467,0.0089057870,-0.0071274154,-0.0095191291
4.0467238426,-0.0052712648,-0.0116755366,-0.0020218729,0.0132020256,-0.0091361711,0.0021587659
4.0566291809,-0.0072880178,-0.0125760436,-0.0018975972,0.0120986775,-0.0048183883,0.0149027910
4.0666518211,-0.0044561415,-0.0056636329,-0.0017376184,0.0227561165,-0.0036559184,0.0159611311
4.0767588615,-0.0016512664,-0.0074393149,-0.0024422049,0.0281364992,-0.0078256298,0.0202048793
4.0870046616,0.0002166240,-0.0014792678,-0.0002451180,0.0121963089,-0.0154892746,0.0053397785
4.0968670845,0.0011989682,-0.0023867486,-0.0009773015,0.0282362625,-0.0185186211,0.0074577909
4.1069107056,0.0021185486,-0.0090551972,-0.0025865673,0.0260954536,-0.0174279232,0.0148916058
4.1170859337,0.0010830967,-0.0098836422,-0.0003215312,0.0303852744,-0.0195126459,0.0148894750
4.1273198128,0.0049818368,-0.0049058790,-0.0067678927,0.0304370169,-0.0248598065,0.0085165966
4.1371526718,0.0049697966,-0.0096456409,-0.0054154634,0.0283245984,-0.0269935317,0.0095778666
4.1471838951,0.0020222871,-0.0114789009,-0.0079527730,0.0336623974,-0.0269263536,0.0127621423
4.1573171616,-0.0018735917,-0.0055270190,-0.0066496371,0.0271802656,-0.0196175743,0.0032112470
4.1675176620,-0.0028193982,-0.0074005718,-0.0073204278,0.0281297341,-0.0079583880,0.0000318324
4.1774110794,-0.0047462075,-0.0083088279,-0.0061022281,0.0290860757,0.0026055728,-0.0084575256
4.1874542236,-0.0036971660,-0.0034174321,-0.0058915853,0.0300781839,0.0100136213,-0.0127006741
4.1975588799,-0.0045519858,0.0004396442,-0.0057918071,0.0193254054,0.0172574203,-0.0264977142
4.2079229355,-0.0004751773,0.0003648999,-0.0057007908,0.0193112902,0.0182983167,-0.0296832528
4.2176132202,0.0026667921,0.0031771066,-0.0066239475,0.0064615379,0.0224097054,-0.0328633338
4.2277469635,0.0038385002,0.0020634534,-0.0057225465,0.0000400180,0.0244891010,-0.0307365321
4.2378082275,0.0010790734,0.0029063227,-0.0029374599,-0.0031821411,0.0265900679,-0.0296728667
4.2481179237,0.0042075724,0.0066140299,-0.0050838231,-0.0095870439,0.0265064463,-0.0339184776
4.2579779625,0.0073451609,0.0054621701,-0.0081703896,-0.0105774719,0.0190977976,-0.0296747312
4.2680120468,0.0065493793,0.0043268208,-0.0083405012,-0.0158371907,0.0116592553,-0.0243685823
4.2780761719,0.0057335109,0.0061249142,-0.0094643468,-0.0115010310,0.0053789886,-0.0169402268
4.2882518768,0.0028684943,0.0031439068,-0.0095559591,-0.0083178878,0.0076061236,-0.0052611334
4.2982249260,-0.0020631941,0.0041214232,-0.0009388565,-0.0094244312,0.0118823620,0.0011120769
4.3082709312,-0.0031125338,0.0050899391,0.0008695484,-0.0094738323,0.0172002278,0.0032393436
4.3183250427,-0.0012149008,0.0060422425,-0.0031788587,-0.0105191227,0.0150758252,0.0043003466
4.3286457062,-0.0013062747,0.0041062240,0.0005669952,-0.0041788286,0.0215114858,0.0064256825
4.3385219574,-0.0043949871,0.0041465168,0.0004173280,-0.0042091897,0.0247152690,0.0096126879
4.3485431671,-0.0055105477,0.0051696305,0.0022639991,0.0064182887,0.0290244650,0.0053652781
4.3585820198,-0.0026976259,0.0052261953,0.0002638460,0.0106649650,0.0311768316,0.0043034758
4.3688588142,-0.0018247755,0.0081952214,0.0012079836,0.0191636179,0.0344082452,0.0000542027
4.3787260056,-0.0048267930,0.0091966391,0.0011669160,0.0159606338,0.0343595073,-0.0031304054
4.3887600899,-0.0049004345,0.0024313929,0.0069983960,0.0234244615,0.0355054662,0.0000547356
4.3988699913,-0.0029840560,0.0034329894,0.0050924779,0.0255976021,0.0312316250,-0.0073805433
4.4091529846,-0.0000383050,0.0054053073,0.0013113976,0.0299746394,0.0206723902,-0.0052629979
4.4190068245,0.0077877850,0.0006023648,0.0053799511,0.0236240663,0.0152975991,-0.0073876679
4.4290299416,0.0039207549,0.0015711191,0.0054868222,0.0215444043,0.0099663511,-0.0084509347
4.4391222000,0.0049717636,-0.0013437269,0.0056082965,0.0152076781,0.0035721008,-0.0042053238
4.4494037628,0.0030280559,-0.0013253090,0.0056960345,0.0120625384,-0.0017121437,0.0032251622
4.4592666626,0.0020726232,0.0006324056,0.0048201443,0.0078781797,-0.0102513032,0.0010983617
4.4693021774,0.0030758588,0.0006515387,0.0039241076,-0.0006173048,-0.0145339323,0.0064060418
4.4794068336,0.0040485174,0.0035737159,0.0039411546,-0.0048964713,-0.0135102132,0.0064076399
4.4896841049,0.0030258505,0.0026377442,0.0059175850,-0.0006263321,-0.0134592811,0.0085303783
4.4995317459,0.0029346554,-0.0011780260,0.0078930017,-0.0017222231,-0.0102440454,0.0149030574
4.5095977783,0.0028495400,-0.0001535413,0.0050066472,0.0046808422,-0.0102166822,0.0106551154
4.5196638107,0.0008354692,-0.0010763404,0.0011784793,0.0035902783,-0.0081316940,0.0064092376
4.5299558640,-0.0041147857,-0.0078296661,0.0012469054,0.0142209241,-0.0037738297,0.0095942449
4.5397777557,-0.0130278263,-0.0028622744,0.0052507878,0.0205379426,0.0047631990,0.0085351057
4.5498628616,-0.0150716100,-0.0027443764,0.0131698614,0.0247709043,0.0079492051,0.0032262942
4.5599379539,-0.0062671094,0.0001934770,0.0055442811,0.0258108675,0.0100043667,-0.0084527321
4.5701990128,-0.0022940428,0.0011938813,0.0027980567,0.0237484351,0.0025454520,-0.0105801327
4.5800600052,0.0007524102,-0.0027006266,0.0039903284,0.0249210261,-0.0080691092,-0.0127093298
4.5901260376,0.0019107966,-0.0027466414,0.0003049136,0.0132341422,-0.0135116111,-0.0180177409
4.6001586914,-0.0027658434,-0.0018489955,0.0013929368,0.0004381863,-0.0146983154,-0.0201386828
4.6104760170,-0.0055185347,-0.0038808582,0.0062942863,-0.0112855006,-0.0158561915,-0.0190732200
4.6202917099,-0.0033439787,-0.0021036861,0.0013453127,-0.0198976304,-0.0085106604,-0.0201291628
4.6304259300,-0.0021882446,-0.0022840498,-0.0018038987,-0.0295320414,-0.0053694630,-0.0137548866
4.6404929161,0.0057605118,-0.0024502871,-0.0040281652,-0.0412805788,-0.0044040671,-0.0126896221
4.6506986618,0.0039267750,0.0012601616,-0.0053542494,-0.0434053540,-0.0054690652,-0.0105668167
4.6605858803,0.0010467379,0.0011062028,-0.0018440126,-0.0466472208,-0.0012253178,-0.0063166777
4.6706199646,-0.0008713396,0.0068172221,0.0026333095,-0.0434526242,-0.0001235013,-0.0041923407
4.6807618141,-0.0037990303,0.0047781472,0.0042559863,-0.0317099504,0.0000344240,0.0042991485
4.6909689903,0.0010447113,0.0066810255,0.0021241070,-0.0167714246,0.0002080619,0.0106646363
4.7008891106,0.0048558326,0.0096403956,0.0030693174,0.0036355779,-0.0122984089,0.0180858001
4.7108860016,0.0086626615,0.0078138709,-0.0015925406,0.0229434706,-0.0216738675,0.0191391464
4.7210216522,0.0085663702,0.0050826077,-0.0040849685,0.0433488786,-0.0342011116,0.0233749058
4.7312541008,0.0045466931,0.0053304438,-0.0034993528,0.0540840253,-0.0404596739,0.0254922528
4.7411231995,0.0005144088,0.0007690194,-0.0018120049,0.0637105554,-0.0424839407,0.0276123937
4.7511501312,-0.0015436204,0.0000743273,-0.0021128892,0.0572833866,-0.0404381007,0.0244291183
4.7612838745,-0.0006148012,-0.0065398212,-0.0073488592,0.0391619056,-0.0427393392,0.0212471727
4.7714881897,0.0003227203,-0.0092480779,-0.0106965536,0.0434369445,-0.0427043810,0.0212484375
4.7814178467,0.0013023822,-0.0062066908,-0.0112263802,0.0220341869,-0.0376758054,0.0074529969
4.7913846970,0.0013509004,-0.0139199495,-0.0090050334,0.0037890831,-0.0283250455,0.0010897731
4.8015480042,-0.0034560950,-0.0129713416,-0.0089587206,-0.0101837246,-0.0189525839,-0.0073963897
4.8118710518,-0.0014064701,-0.0130586624,-0.0080641750,-0.0241741650,-0.0073953960,-0.0063256659
4.8217649460,-0.0042543798,-0.0102718472,-0.0102813477,-0.0359988660,0.0009762510,-0.0084420796
4.8316788673,-0.0031927319,-0.0045983787,-0.0106530422,-0.0361166820,0.0126190586,-0.0126828970
4.8417549133,-0.0001840980,0.0010737183,-0.0129781598,-0.0340362191,0.0179357938,-0.0137425689
4.8520860672,-0.0011589320,0.0029113295,-0.0094157094,-0.0223409757,0.0223323386,-0.0063122832
4.8619151115,-0.0022021921,0.0057917242,-0.0047946214,-0.0149323279,0.0287982281,-0.0010019401
4.8719806671,0.0035854189,0.0096771121,-0.0069066524,0.0000569019,0.0247036181,0.0021794718
4.8820109367,0.0084137525,0.0106756091,-0.0078778509,0.0139705874,0.0205600057,-0.0010115276
4.8923606873,0.0063979239,0.0107447505,-0.0077752112,0.0268304311,0.0153878145,0.0021678207
4.9021420479,0.0033541529,0.0070135002,-0.0045882701,0.0440163426,0.0049961591,0.0127762565
4.9122729301,0.0061998577,0.0042723422,-0.0070518493,0.0494462885,-0.0045341626,0.0085231215
4.9222769737,0.0042377622,0.0024875405,-0.0056314110,0.0474265479,-0.0162584633,0.0032087837
4.9325671196,0.0023014157,0.0026693942,-0.0069908737,0.0613757335,-0.0235365480,0.0074487356
4.9424190521,-0.0015871318,-0.0029969213,-0.0044759749,0.0495931096,-0.0194158386,0.0042683887
4.9525442123,-0.0045345514,-0.0067187543,-0.0010912656,0.0441479012,-0.0088370983,0.0063971868
4.9625411034,-0.0104134176,0.0021368864,0.0050139190,0.0247744732,0.0068409308,-0.0042080535
4.9728231430,-0.0123869572,-0.0056144590,0.0089857345,0.0064836950,0.0215082243,-0.0084426794
4.9827990532,-0.0084615741,-0.0075991149,0.0078874594,-0.0053303530,0.0288188681,-0.0105596259
4.9927778244,-0.0035490186,-0.0057517285,-0.0020339130,-0.0095874704,0.0277203135,-0.0105588268
5.0028219223,0.0042842538,-0.0067837830,-0.0012349128,-0.0127126891,0.0202861000,-0.0073763495
5.0130867958,0.0052660317,-0.0020016429,-0.0004651784,-0.0148103815,0.0170970298,-0.0052525452
5.0230069160,0.0022984354,-0.0030081270,0.0032306672,-0.0136867929,0.0118428804,0.0011153393
5.0330009460,-0.0006735714,-0.0020499227,0.0040596486,-0.0082994588,0.0066063730,0.0042956201
5.0431032181,0.0002742319,0.0008645657,0.0049377442,-0.0050453432,0.0013223953,0.0032303554
5.0533409119,0.0022268204,0.0018232467,0.0010106326,-0.0007005539,-0.0060750670,0.0021645583
5.0632700920,0.0071263821,-0.0010868905,-0.0008486151,0.0089579318,-0.0112823453,0.0042831032
5.0732688904,0.0051705153,-0.0039478536,-0.0016372441,0.0133323604,-0.0218406469,0.0063997172
5.0834016800,0.0032365529,0.0019466283,-0.0004392504,0.0144287841,-0.0250489581,0.0010888410
5.0935688019,0.0022880642,-0.0028402207,0.0017660619,0.0186369773,-0.0186113659,0.0064003160
5.1034641266,-0.0035956891,-0.0008031723,0.0078023435,0.0154228089,-0.0176060218,0.0021544383
5.1135759354,-0.0025678070,0.0001846555,0.0021508695,0.0132882325,-0.0176387802,0.0000316325
5.1236248016,-0.0005820782,-0.0056104059,-0.0025193929,0.0153931947,-0.0144025050,0.0053417096
5.1339588165,0.0003894775,-0.0036167500,-0.0013811230,0.0110569280,-0.0080937436,0.0021597645
5.1437301636,-0.0064599304,0.0003072026,0.0025371076,0.0034783706,0.0024233460,-0.0020802540
5.1538629532,-0.0094007049,-0.0045781727,0.0024898411,-0.0040587746,0.0087181926,-0.0031379953
5.1638622284,-0.0045196800,-0.0055730934,0.0053279162,-0.0094279721,0.0118338261,-0.0063204728
5.1742010117,0.0014052002,-0.0017710922,-0.0045513748,-0.0147218583,0.0075221676,-0.0095064119
5.1839418411,0.0034220426,-0.0028157232,-0.0046785711,-0.0082967142,0.0054699359,-0.0073854709
5.1940631866,0.0015273897,0.0000323656,-0.0018366813,-0.0007997304,0.0023112269,-0.0137603451
5.2041440010,0.0016784875,0.0028625729,-0.0038069724,-0.0039952574,0.0011599425,-0.0233162995
5.2143950462,0.0008954613,0.0076014404,-0.0019085645,-0.0018013464,-0.0041429438,-0.0254404396
5.2242736816,0.0011446981,0.0055065756,-0.0028620004,-0.0007256959,-0.0052223229,-0.0296884477
5.2343268394,0.0014420359,0.0063310866,-0.0047809719,0.0078020403,-0.0051515494,-0.0307555087
5.2444100380,-0.0002891810,0.0042864089,-0.0017736792,0.0110066216,-0.0050820410,-0.0243854932
5.2546682358,0.0018494336,0.0013186338,-0.0006160974,0.0217070691,-0.0070709568,-0.0180167425
5.2645597458,0.0049463720,0.0042262082,-0.0013439893,0.0302243922,-0.0048536081,-0.0148324016
5.2745909691,0.0050614686,-0.0005987880,-0.0048847436,0.0399200842,-0.0132030835,-0.0063439086
5.2847347260,0.0041458816,-0.0005235073,-0.0054753660,0.0409792215,-0.0120981392,-0.0010346307
5.2949218750,-0.0007232816,0.0025044086,-0.0032007932,0.0355589166,-0.0036569168,-0.0010288381
5.3047618866,-0.0026505978,0.0025817754,-0.0029334067,0.0280458741,0.0005149250,-0.0020866457
5.3148398399,0.0003073423,0.0035762789,-0.0027666329,0.0141094439,0.0056669433,-0.0073923287
5.3249349594,0.0023229031,0.0025923254,-0.0046439408,0.0087413099,0.0087964237,-0.0084512010
5.3352031708,0.0014112203,0.0044879322,-0.0066122054,-0.0019164206,0.0076127155,-0.0126944818
5.3450698853,0.0024597256,0.0034599307,-0.0047363876,-0.0083399657,0.0096857194,-0.0116300164
5.3551239967,-0.0013757439,0.0043240790,-0.0058999895,-0.0179750957,0.0127702588,-0.0137488944
5.3652548790,0.0025792627,0.0032814147,-0.0022034287,-0.0222521313,0.0138216754,-0.0095000872
5.3754568100,-0.0003247650,0.0070467000,-0.0044651269,-0.0265328437,0.0148601746,-0.0073758168
5.3852901459,-0.0003486068,0.0069604521,-0.0027916669,-0.0233389176,0.0159906875,-0.0010052691
5.3953771591,0.0025640337,0.0088404417,-0.0040345429,-0.0265046395,0.0127855064,0.0000568660
5.4055180550,0.0015154092,0.0078186989,-0.0043163537,-0.0211652704,0.0128805814,0.0074881506
5.4157328606,-0.0025264116,0.0107342005,-0.0016592382,-0.0297242422,0.0149495909,0.0106759546
5.4256501198,-0.0056301444,0.0117433667,0.0049451352,0.0022486029,0.0194940083,0.0138555029
5.4356489182,-0.0038282068,0.0156950951,0.0009771348,0.0043729004,0.0205876343,0.0159789734
5.4457898140,-0.0020811351,0.0070636873,0.0000563622,0.0193798132,0.0143936565,0.0223428626
5.4559979439,-0.0003280730,0.0149908662,-0.0017854213,0.0215262137,0.0133507624,0.0223423298
5.4658789635,0.0043541999,0.0112977028,-0.0025531291,0.0269273706,0.0070521198,0.0255232099
5.4759178162,0.0080595817,0.0104925036,-0.0062544583,0.0226899087,0.0038250342,0.0244607423
5.4860348701,0.0039373250,0.0097020268,-0.0021960973,0.0173739735,0.0016356496,0.0212756023
5.4962630272,0.0008504300,0.0049535041,-0.0060009598,0.0077580977,0.0025989150,0.0191549268
5.5061721802,-0.0022583695,-0.0007759926,-0.0040489673,0.0013366835,0.0046996167,0.0244666021
5.5161628723,-0.0014647634,0.0031996968,-0.0031374334,-0.0093608070,0.0066945907,0.0191605203
5.5262527466,0.0042539448,0.0032384398,-0.0052190064,-0.0210997555,0.0065851342,0.0181016475
5.5365338326,0.0031052439,-0.0006161925,-0.0063905953,-0.0200167000,0.0055671409,0.0234107915
5.5464158058,0.0019136874,-0.0015131829,-0.0036468743,-0.0157364681,0.0045572706,0.0255327970
5.5564451218,0.0006572513,-0.0013946292,0.0030309916,-0.0114635862,0.0046214527,0.0297797397
5.5665788651,-0.0005631240,-0.0022748706,-0.0009795665,-0.0124966260,0.0014568184,0.0340256207
5.5767807961,-0.0048100739,-0.0098784566,-0.0020362972,-0.0039495844,0.0005417562,0.0446388498
5.5867471695,-0.0071491688,-0.0067406292,0.0027928711,-0.0018590027,0.0047905631,0.0425168425
5.5967068672,-0.0084963832,-0.0055548544,0.0047257305,0.0023702299,0.0090777865,0.0435807072
5.6068277359,-0.0098551307,-0.0072875614,0.0047183991,0.0066382117,0.0091081467,0.0425178409
5.6170578003,-0.0043339520,-0.0089905262,0.0038605691,0.0195275657,0.0007111332,0.0393250436
5.6269769669,0.0002588241,-0.0058359499,0.0040780664,0.0260421894,-0.0109732198,0.0286995620
5.6369991302,0.0001073091,-0.0056360359,0.0024545551,0.0293687172,-0.0237047933,0.0244449638
5.6470980644,-0.0019741745,-0.0112713575,-0.0000654696,0.0358476564,-0.0310551189,0.0276250429
5.6573109627,-0.0050708442,-0.0129593611,0.0062521459,0.0390584953,-0.0321161896,0.0233768355
5.6671729088,-0.0041277199,-0.0079392195,0.0008526207,0.0336967558,-0.0301031042,0.0138230119
5.6772460938,-0.0011919530,-0.0097765326,-0.0055696010,0.0261729248,-0.0248844419,0.0106424652
5.6872072220,-0.0021792145,-0.0125790834,-0.0003994941,0.0229267981,-0.0206960887,0.0063981852
5.6976461411,-0.0031121464,-0.0096383095,0.0016960860,-0.0006642826,-0.0103666186,-0.0052711209
5.7074370384,-0.0049990802,-0.0155161023,-0.0002728938,-0.0082524270,0.0012253231,-0.0073870020
5.7175030708,-0.0049694865,-0.0155785680,-0.0004103421,-0.0147497412,0.0107108364,-0.0084417472
5.7275772095,-0.0030016692,-0.0117847919,0.0022616149,-0.0233847760,0.0201576017,-0.0126820318
5.7378849983,0.0010140745,-0.0070802565,-0.0038917898,-0.0244776830,0.0222220849,-0.0201135818
5.7477450371,0.0010799973,-0.0111063123,-0.0002994179,-0.0244760849,0.0222428571,-0.0169281755
5.7578401566,0.0001731126,-0.0112546086,-0.0006281375,-0.0297882110,0.0200805701,-0.0158655085
5.7678651810,0.0022200553,-0.0065549011,-0.0009544729,-0.0297578536,0.0168767869,-0.0190525129
5.7781758308,0.0052260072,-0.0037640331,0.0026910664,-0.0158314891,0.0117283640,-0.0137504255
5.7879886627,0.0063083381,-0.0009475944,0.0015759827,-0.0093552144,0.0043434184,-0.0158793572
5.7980980873,0.0093601551,0.0009147528,0.0005872608,0.0035579465,-0.0061480384,-0.0148258777
5.8081297874,0.0055843503,0.0018422010,-0.0003219484,0.0089271460,-0.0092636701,-0.0116433995
5.8183927536,-0.0001962573,0.0008576515,0.0027212859,0.0131759262,-0.0070764823,-0.0073963897
5.8282508850,0.0008260815,-0.0000901815,0.0028597475,0.0088344412,0.0003340296,-0.0042061890
5.8383250237,0.0008514731,-0.0030162332,0.0009781481,0.0066691847,0.0034909407,-0.0052653281
5.8483161926,-0.0001137049,-0.0039854641,-0.0038889288,0.0033852411,0.0119856261,0.0000487433
5.8586487770,-0.0021083744,-0.0020477173,-0.0010216474,0.0001734691,0.0129972277,-0.0031346660
5.8685121536,-0.0001684220,-0.0020675657,-0.0020672916,-0.0009373361,0.0172180720,-0.0052558738
5.8786368370,-0.0011302622,-0.0001608130,-0.0041319965,-0.0030222172,0.0118886866,-0.0063210055
5.8887157440,-0.0021271498,-0.0040439363,-0.0031719445,0.0045259790,0.0045753801,0.0011060184
5.8990540504,-0.0021361501,-0.0040178890,0.0017398358,0.0088917259,-0.0049510798,-0.0010225798
5.9087910652,-0.0010928304,-0.0001220700,0.0009165765,0.0164569672,-0.0144417863,-0.0020910399
5.9188599586,-0.0019998343,-0.0029925106,0.0040706755,0.0208061486,-0.0229193624,-0.0063444413
5.9288930893,-0.0038285346,-0.0058930512,0.0014676810,0.0229819529,-0.0271585826,-0.0084707085
5.9392318726,-0.0046405583,-0.0049036141,0.0008240105,0.0230039246,-0.0293092839,-0.0127179846
5.9490556717,-0.0053890138,-0.0039780731,0.0020818473,0.0123278433,-0.0294648111,-0.0222715437
5.9591507912,-0.0031335147,-0.0031175611,-0.0006760596,-0.0006014043,-0.0179530997,-0.0296961032
5.9692249298,-0.0018520148,-0.0023255346,-0.0016275882,-0.0102929147,-0.0095766578,-0.0339366533
5.9794731140,-0.0015449019,-0.0005966422,0.0001864792,-0.0242849234,0.0019526323,-0.0371129401
5.9894981384,0.0007075577,-0.0008599159,-0.0000856160,-0.0296850149,0.0082651228,-0.0381702147
5.9994287491,0.0009984581,0.0027464631,-0.0053026318,-0.0371534489,0.0082064671,-0.0371062160
6.0094881058,0.0022272377,0.0034404399,-0.0056730746,-0.0361257344,0.0125013469,-0.0307335351
6.0197710991,0.0053830654,0.0061387424,-0.0059921979,-0.0318032950,0.0072547197,-0.0275521912
6.0295500755,0.0055529685,0.0059250598,-0.0072760223,-0.0350009501,0.0072752265,-0.0201187767
6.0396356583,0.0037099330,0.0057601337,-0.0037159561,-0.0339167491,0.0062497091,-0.0158708356
6.0497188568,0.0047880621,0.0056064730,-0.0040078401,-0.0307142995,0.0062915208,-0.0137480292
6.0599899292,0.0028906076,0.0015861990,-0.0043071746,-0.0318152271,0.0095085530,-0.0073771486
6.0698518753,0.0019192605,0.0053809886,-0.0017004251,-0.0318258777,0.0105695557,-0.0073766159
6.0799260139,0.0000164418,0.0071986322,-0.0029738783,-0.0264982507,0.0116691086,-0.0084380861
6.0899848938,0.0000280349,0.0003023747,-0.0032188534,-0.0254060887,0.0096048927,-0.0010068007
6.1002688408,0.0000112860,0.0041098599,-0.0035076379,-0.0275759250,0.0127420966,-0.0052524116
6.1101169586,-0.0019451769,0.0069490676,-0.0018240451,-0.0190282427,0.0117556620,-0.0052550752
6.1201848984,-0.0009569020,0.0097817779,-0.0001237630,-0.0254863538,0.0169628076,-0.0116212294
6.1302499771,0.0010427146,0.0048031812,-0.0003976463,-0.0254639834,0.0148546491,-0.0094986893
6.1405220032,0.0039924593,0.0056734090,-0.0006778478,-0.0276431181,0.0190879442,-0.0084352223
6.1503567696,0.0040226490,0.0074923639,-0.0029471754,-0.0329473354,0.0158514045,-0.0094972914
6.1604828835,0.0001228063,-0.0003977415,-0.0032724976,-0.0264828540,0.0106846718,0.0032408084
6.1704778671,0.0010152666,-0.0033468006,-0.0044939159,-0.0254135951,0.0107216900,0.0074877515
6.1808156967,-0.0029766650,0.0034193995,-0.0037977933,-0.0243247095,0.0085874982,0.0043017450
6.1906099319,-0.0020562799,0.0014577510,0.0008461834,-0.0200221073,0.0054694698,0.0085462909
6.2006931305,-0.0001485140,0.0033564570,-0.0003198623,-0.0189752989,0.0064863311,0.0000502081
6.2107419968,-0.0011431666,0.0072089438,0.0004886151,-0.0146742938,0.0033475296,0.0011093472
6.2210688591,-0.0011742802,0.0052355533,0.0032630325,-0.0114919497,0.0054895766,0.0000488100
6.2310547829,0.0037498681,0.0100440383,-0.0017072200,-0.0178435892,0.0001009365,-0.0041994648
6.2410020828,0.0047553391,0.0089912415,-0.0047604083,-0.0167454593,-0.0030652958,-0.0031400591
6.2510080338,0.0018584935,0.0070002084,-0.0029300093,-0.0124444561,-0.0062040975,-0.0020809199
6.2613139153,0.0038295595,0.0040706997,-0.0010397672,-0.0124060540,-0.0093680657,0.0011046202
6.2711400986,0.0077892155,0.0059594517,-0.0088589424,-0.0102409041,-0.0125462823,-0.0010211149
6.2812671661,0.0048898966,0.0059217219,-0.0060086488,-0.0166402906,-0.0125607299,0.0053513632
6.2912569046,-0.0000484974,0.0030033591,-0.0051330565,-0.0166583993,-0.0103971781,0.0117232427
6.3014941216,0.0018035381,0.0040078168,-0.0061901449,-0.0135414656,-0.0018387770,0.0180966519
6.3114080429,-0.0013184340,0.0079573989,-0.0034283637,-0.0125558283,0.0067070406,0.0255332626
6.3215417862,0.0003718345,0.0061207418,-0.0016350388,-0.0147010051,0.0077708401,0.0287190694
6.3313560486,0.0001485555,0.0100603700,-0.0057749986,-0.0339535326,0.0118263019,0.0255405884
6.3416347504,0.0018498509,0.0062879329,-0.0087880725,0.0066761887,0.0048088729,0.0340211578
6.3517251015,-0.0003684552,0.0132361650,-0.0088373059,-0.0061848555,0.0099530341,0.0265949331
6.3617777824,0.0042414875,-0.0002193448,-0.0088003520,0.0098590925,0.0069507197,0.0329608209
6.3718051910,0.0010553508,0.0077175503,-0.0068302988,0.0077519999,0.0036867498,0.0234035328
6.3820466995,0.0008772223,0.0058916812,-0.0077318191,0.0088502076,0.0004991456,0.0212781318
6.3919348717,0.0017434566,0.0050241356,-0.0076658963,0.0045998022,-0.0017016907,0.0149073172
6.4020690918,-0.0022797377,0.0012069347,-0.0017957925,-0.0007611411,0.0003466795,0.0106618404
6.4121150970,-0.0004121454,0.0002599958,-0.0018439530,-0.0072283614,0.0066498490,0.0096048303
6.4223699570,-0.0044307201,-0.0016512868,-0.0029572486,-0.0104499068,0.0087861707,0.0159767773
6.4321689606,-0.0016666444,-0.0054927464,-0.0021127104,-0.0105026383,0.0140981115,0.0170412436
6.4423360825,-0.0009062679,0.0004134777,-0.0032418608,-0.0073398957,0.0184042435,0.0223520510
6.4523320198,-0.0011647434,-0.0004385111,-0.0004569530,-0.0020335466,0.0216684807,0.0276613291
6.4626030922,-0.0014927776,0.0006822351,-0.0015329956,0.0033175163,0.0207235236,0.0382772908
6.4724960327,0.0010725765,0.0038122537,-0.0034886836,0.0129765347,0.0155231692,0.0414576381
6.4825310707,0.0036175160,0.0060020690,-0.0053679585,0.0183714889,0.0102910567,0.0457022488
6.4926648140,0.0031875579,0.0053294902,-0.0032680868,0.0237832963,0.0029314107,0.0488825962
6.5028648376,0.0047386498,0.0027304294,-0.0030148863,0.0303035155,-0.0086553376,0.0531216823
6.5127968788,0.0092478003,-0.0008326170,-0.0046069860,0.0293093584,-0.0161124542,0.0499328114
6.5227937698,0.0089307632,0.0013897421,-0.0043121814,0.0218679532,-0.0194306187,0.0393157229
6.5329279900,-0.0030685456,-0.0051800604,-0.0050535440,0.0143762138,-0.0173807852,0.0382568501
6.5431518555,-0.0102169011,-0.0117570162,0.0038351179,0.0057084765,-0.0047507435,0.0340178981
6.5530281067,-0.0114325378,-0.0106627941,0.0028199912,-0.0083186589,0.0099128876,0.0234107915
6.5630617142,-0.0096716080,-0.0125409961,0.0026400448,-0.0201610178,0.0193266962,0.0181075726
6.5731959343,-0.0039922982,-0.0144858956,0.0042540790,-0.0373245589,0.0276101921,0.0096216751
6.5833997726,-0.0031152458,-0.0145977736,-0.0001524924,-0.0480261222,0.0306495912,0.0021952512
6.5932788849,-0.0032525153,-0.0195546746,0.0041270615,-0.0587288365,0.0337463133,0.0032613145
6.6033258438,-0.0033905597,-0.0128893256,0.0063720704,-0.0587214604,0.0326651372,0.0000747757
6.6134691238,-0.0004902573,-0.0082111955,0.0018033744,-0.0619143248,0.0315484740,-0.0041721673
6.6236257553,0.0004653542,-0.0093726516,-0.0007599830,-0.0565051734,0.0241542067,-0.0063008317
6.6335916519,-0.0024755092,-0.0095348954,0.0025741816,-0.0490246229,0.0231584515,-0.0063032289
6.6435861588,-0.0064056902,-0.0067647095,0.0040207864,-0.0436483920,0.0189546514,-0.0073690256
6.6537399292,-0.0063961535,-0.0069119330,0.0045453669,-0.0361694396,0.0179381240,-0.0105568301
6.6639170647,-0.0034208091,-0.0050868387,0.0013273121,-0.0233106595,0.0127520841,-0.0095010856
6.6737880707,-0.0033845396,-0.0042037363,0.0059442283,-0.0211465750,0.0095600188,-0.0137504255
6.6838512421,-0.0013340504,-0.0053020115,0.0018667341,-0.0125522055,0.0043352293,-0.0126921525
6.6939520836,0.0036619513,-0.0034437177,-0.0011181473,-0.0050066728,-0.0030126981,-0.0105741397
6.7042050362,0.0027798323,-0.0054421420,0.0008185864,-0.0071096113,-0.0061927792,-0.0073905978
6.7140769958,-0.0001147778,-0.0045039053,0.0027282001,-0.0017824899,-0.0050574737,-0.0031441867
6.7241191864,-0.0020544322,-0.0025636551,0.0026967288,-0.0018896302,0.0055670077,-0.0010158552
6.7342228889,-0.0010988505,0.0013131502,0.0026605488,0.0002675308,0.0034844161,0.0021679536
6.7444548607,0.0008484332,0.0003480318,-0.0022098660,0.0044960724,0.0077576577,0.0011083485
6.7543840408,-0.0001780183,-0.0035069583,-0.0031497120,0.0109654237,0.0014821851,0.0064125666
6.7643828392,0.0046576471,-0.0034278629,-0.0029983162,0.0185330622,-0.0080022644,0.0064065745
6.7744750977,0.0065846057,-0.0014035103,-0.0047081946,0.0207850300,-0.0196477342,0.0074619851
6.7847218513,0.0075661154,-0.0042189355,-0.0024287342,0.0315387696,-0.0280486755,0.0063924594
6.7946438789,0.0046087713,-0.0079402924,-0.0000206470,0.0444545671,-0.0384983905,0.0138165541
6.8046131134,0.0026700108,-0.0048628445,-0.0013785004,0.0519982353,-0.0458954498,0.0085026156
6.8147268295,-0.0012024434,-0.0095294714,-0.0036055087,0.0616583191,-0.0510819554,0.0138065666
6.8249731064,-0.0070572882,-0.0122035146,-0.0008681058,0.0712165684,-0.0467671044,0.0116818966
6.8348789215,-0.0119333658,-0.0080432296,0.0067466260,0.0796444044,-0.0361171216,0.0063760811
6.8448910713,-0.0158201847,-0.0078064795,0.0094661480,0.0741251335,-0.0181471091,0.0032007277
6.8550357819,-0.0119026694,-0.0056607123,0.0082021113,0.0708358660,-0.0097216666,-0.0021032239
6.8653221130,-0.0059626787,-0.0026108024,0.0048756362,0.0600879081,-0.0024226753,-0.0074056443
6.8751697540,-0.0019754560,-0.0073570604,0.0043821097,0.0462376066,-0.0046520075,-0.0052796430
6.8851380348,0.0098989811,-0.0054075713,-0.0098370556,0.0291673280,-0.0059166094,-0.0137712648
6.8952960968,0.0051213414,-0.0063911076,-0.0087241177,0.0067373882,-0.0039764959,-0.0116410023
6.9055271149,-0.0026460977,-0.0142129660,-0.0039050817,-0.0125760688,0.0064937212,-0.0073839398
6.9154458046,-0.0035618634,-0.0085283518,-0.0022778749,-0.0446900651,0.0157077257,-0.0158655737
6.9254808426,-0.0063698678,-0.0048840637,-0.0038169860,-0.0575667173,0.0229932033,-0.0201038625
6.9355769157,-0.0003520043,-0.0042047496,-0.0034929155,-0.0704196617,0.0270630457,-0.0296547562
6.9457788467,0.0008390753,0.0022400620,-0.0032685040,-0.0735735893,0.0216894522,-0.0360283665
6.9556980133,0.0059911818,0.0047774916,-0.0039718985,-0.0714409277,0.0216873214,-0.0392143093
6.9657077789,0.0062705488,0.0073397760,-0.0036548614,-0.0628065914,0.0122265751,-0.0370974950
6.9758439064,0.0065417499,0.0109061003,-0.0070622205,-0.0467346795,0.0060142195,-0.0349810794
6.9860339165,0.0048659951,0.0145350695,-0.0064178347,-0.0274432451,-0.0022910484,-0.0328676626
6.9961171150,0.0031415431,0.0124090314,-0.0016955375,-0.0135556599,-0.0031754840,-0.0243772380
7.0059700012,0.0033434241,0.0152027011,0.0011895061,-0.0028677806,-0.0041382834,-0.0233167000
7.0160541534,0.0015671460,0.0141437650,-0.0006971001,0.0120634977,-0.0029190881,-0.0190726873
7.0262880325,0.0016771166,0.0063571339,-0.0044121384,0.0205850266,-0.0006320984,-0.0052707214
7.0362386703,0.0016908853,0.0073689227,-0.0071554421,0.0258807242,0.0036931415,0.0000390894
7.0462360382,0.0006659238,0.0074554686,-0.0050324439,0.0258062072,0.0111557180,0.0053508971
7.0563850403,-0.0014021785,0.0036802890,-0.0048621534,0.0268030278,0.0186474565,0.0138487779
7.0665760040,-0.0035558732,0.0067408686,-0.0047571897,0.0257167518,0.0207807142,0.0170357153
7.0764479637,-0.0007946582,0.0146495104,-0.0037344932,0.0171573535,0.0228143036,0.0149153080
7.0864992142,0.0009698777,0.0069852476,-0.0046566962,0.0203620140,0.0228624418,0.0181005150
7.0965690613,0.0046971352,0.0090642571,-0.0055788397,0.0140114399,0.0174876507,0.0159758441
7.1068391800,0.0055358917,0.0110738873,-0.0084883217,0.0087459972,0.0099871233,0.0117254397
7.1167030334,0.0073975236,0.0092017055,-0.0064817904,0.0045499206,0.0024951182,0.0074755671
7.1267728806,0.0054220171,0.0111579895,-0.0084333066,-0.0007659346,0.0002843617,0.0011056188
7.1368169785,0.0014662056,0.0073027019,-0.0064944266,-0.0007627392,0.0003259070,0.0074764327
7.1471347809,-0.0034787448,0.0063522463,-0.0007179617,-0.0061214715,0.0023806023,0.0042933561
7.1570339203,-0.0006035061,0.0044236784,-0.0017355322,-0.0061411783,0.0045233816,0.0074798283
7.1670289040,0.0023008196,0.0063579683,-0.0076465844,-0.0082367416,0.0002621242,0.0074768318
7.1771650314,0.0031683652,0.0034959915,-0.0047728061,-0.0049783625,-0.0049664597,0.0149059864
7.1874017715,0.0020522682,0.0035750868,-0.0028283834,-0.0060387542,-0.0049355002,0.0212783329
7.1972799301,0.0018917529,0.0056090956,-0.0028367876,-0.0006700875,-0.0080580572,0.0233990084
7.2072920799,0.0017107038,0.0047561531,-0.0018530129,-0.0092402203,-0.0049420921,0.0244639385
7.2174010277,-0.0014401765,0.0039176350,-0.0008223294,0.0174081679,-0.0014983581,0.0287060887
7.2276721001,-0.0026344450,0.0089458227,0.0021806718,0.0109522399,0.0037222363,0.0244639385
7.2374830246,-0.0009116621,0.0022968652,-0.0006515621,0.0151477847,0.0112073170,0.0276520085
7.2475628853,-0.0031235011,0.0014963152,-0.0025295257,0.0161838606,0.0144064389,0.0287152752
7.2576379776,0.0024963228,-0.0002766249,-0.0024514436,0.0119350534,0.0122263758,0.0255298670
7.2679619789,0.0032684414,0.0008249882,-0.0053463220,0.0087503921,0.0100566978,0.0223431289
7.2778282166,0.0050004334,-0.0058495398,-0.0053141951,0.0034163464,0.0100308657,0.0255298670
7.2878332138,0.0027904122,-0.0096073151,-0.0043671369,-0.0008520344,0.0100077624,0.0276542064
7.2979569435,0.0025639443,-0.0056080814,-0.0044627427,-0.0051450497,0.0120509397,0.0212855227
7.3081879616,0.0014021604,-0.0045668478,-0.0046038865,-0.0105218925,0.0162193850,0.0170430411
7.3180909157,-0.0016896517,-0.0026053188,-0.0058233975,-0.0202038139,0.0235209744,0.0106783509
7.3281202316,-0.0028145106,-0.0026021597,-0.0012428998,-0.0202263705,0.0256292000,0.0085557457
7.3381690979,-0.0019508393,0.0002731684,-0.0044875978,-0.0223941840,0.0287727956,0.0053724688
7.3484392166,0.0008588640,0.0022062662,-0.0009182929,-0.0234788880,0.0308841486,0.0053751320
7.3583087921,-0.0032090337,-0.0017189977,-0.0022298335,-0.0181725398,0.0341483839,0.0106844101
7.3685708046,-0.0033940764,0.0002616051,-0.0005524396,-0.0085319253,0.0299904589,0.0106776860
7.3783278465,0.0003231077,0.0003337267,0.0012407065,0.0000599641,0.0247807819,0.0138582988
7.3887376785,0.0020944683,-0.0005709526,-0.0056586503,0.0043963892,0.0184790790,0.0181019139
7.3985557556,0.0018894284,-0.0024061201,-0.0046928166,0.0097544035,0.0164175257,0.0202231202
7.4086380005,0.0016955046,0.0025752189,-0.0047112941,0.0076163122,0.0163789093,0.0170374475
7.4187002182,0.0005384295,-0.0012015102,-0.0018069982,0.0033483300,0.0163485482,0.0181003157
7.4289960861,0.0013200848,-0.0011095998,-0.0028583645,0.0000841990,0.0226719584,0.0159815047
7.4388360977,-0.0008029731,-0.0020408628,-0.0059165596,-0.0073553408,0.0194029287,0.0127963638
7.4488849640,-0.0039169579,-0.0058727856,-0.0021904348,-0.0106099909,0.0246799830,0.0127998255
7.4589810371,-0.0040884404,-0.0009879468,-0.0024753450,-0.0192130655,0.0309437383,0.0085579427
7.4692530632,-0.0042308359,-0.0009977219,-0.0037532686,-0.0170685016,0.0298943855,0.0074951416
7.4790410995,0.0005126803,-0.0029541848,-0.0040421127,-0.0181249790,0.0288240612,0.0074948752
7.4891800880,0.0003874509,-0.0019838212,-0.0043002605,-0.0127228620,0.0225179605,0.0096144853
7.4992461205,0.0032025187,-0.0019724367,-0.0054433583,-0.0083701918,0.0140533708,0.0074855541
7.5095310211,0.0031032173,-0.0067887898,-0.0035491823,-0.0018516798,0.0024743457,0.0127856443
7.5193901062,0.0000401943,-0.0086564422,-0.0006345152,-0.0007520607,-0.0006924190,0.0138455816
7.5294461250,-0.0029945166,-0.0066459174,-0.0035470962,-0.0007098215,-0.0049362998,0.0138433184
7.5394959450,-0.0011360140,-0.0124232173,-0.0034978627,-0.0017551128,-0.0070607029,0.0149043212
7.5497846603,0.0017112999,-0.0142947435,-0.0034559011,0.0003175726,-0.0007053355,0.0106613738
7.5596456528,0.0006779043,-0.0084384680,-0.0054295897,-0.0039775735,0.0013101449,0.0000454809
7.5696086884,-0.0081762467,-0.0103698373,-0.0045088171,-0.0018807333,0.0056278612,0.0085418299
7.5799522400,-0.0092537794,-0.0112873316,-0.0006895899,-0.0041023418,0.0140695488,0.0042994148
7.5900821686,-0.0054005771,-0.0064226980,-0.0017568110,-0.0009770710,0.0214895159,-0.0010062677
7.5999851227,-0.0024924667,0.0003528002,-0.0009172796,-0.0053132288,0.0277697816,-0.0084346235
7.6098318100,0.0033698587,-0.0035853384,0.0008715154,-0.0074932650,0.0319962837,-0.0084330915
7.6198830605,0.0023771732,-0.0056016441,-0.0003386973,-0.0138853844,0.0308793560,-0.0084320270
7.6302957535,0.0043152184,-0.0066250558,-0.0005970835,-0.0117054004,0.0266670994,-0.0063103526
7.6401810646,0.0042836280,-0.0057095285,-0.0027429103,-0.0116500072,0.0213897787,-0.0020658064
7.6502580643,0.0023017733,-0.0096462369,-0.0029454469,-0.0126861632,0.0182120297,0.0000557341
7.6601839066,0.0022808521,-0.0058180685,-0.0060687899,-0.0169578735,0.0181332007,-0.0063140146
7.6705870628,-0.0016120465,-0.0029900072,-0.0034423112,-0.0244715847,0.0222839359,-0.0105568953
7.6804070473,-0.0064642220,-0.0011681912,-0.0018554567,-0.0298077613,0.0222304072,-0.0116173662
7.6905560493,-0.0074212342,-0.0032441614,0.0026323558,-0.0320092067,0.0285576116,-0.0147996452
7.7005748749,-0.0034385712,-0.0014603136,-0.0026306151,-0.0309202410,0.0264518503,-0.0137391742
7.7108917236,-0.0004561932,0.0013203027,0.0009076358,-0.0255327448,0.0211725999,-0.0169285089
7.7206678391,0.0006315319,0.0011677744,-0.0022675632,-0.0179999955,0.0148579786,-0.0190571733
7.7308020592,-0.0041477173,0.0010469558,0.0013954402,-0.0190351643,0.0116656469,-0.0190585051
7.7407999039,-0.0031052025,-0.0077867503,0.0051797391,-0.0062029911,0.0097247353,-0.0084447423
7.7511439323,-0.0030443461,-0.0059074755,0.0021475316,-0.0062123388,0.0107852723,-0.0084437449
7.7609319687,-0.0029988082,-0.0049898620,-0.0017975806,0.0023364080,0.0098126857,-0.0063228030
7.7710618973,-0.0010315271,-0.0088781118,0.0011186362,0.0087104980,0.0130717959,-0.0031367969
7.7810831070,-0.0000341923,-0.0069399471,-0.0027110218,0.0183455478,0.0099588269,-0.0052643963
7.7913827896,-0.0000211389,-0.0059302445,-0.0016002893,0.0247340724,0.0110912696,-0.0031435213
7.8012061119,-0.0039413064,-0.0068424935,0.0014611841,0.0278912485,0.0153424731,-0.0063275965
7.8113327026,-0.0029708536,-0.0087155104,0.0016754032,0.0364419930,0.0143834027,-0.0020827176
7.8213300705,0.0018958657,-0.0086414814,0.0019002915,0.0353626162,0.0154143125,-0.0052673258
7.8316149712,0.0019278734,-0.0095826983,-0.0017940640,0.0311391614,0.0111250253,-0.0063291281
7.8415307999,0.0039086551,-0.0144035816,-0.0035270690,0.0279899724,0.0057781967,-0.0084545966
7.8515281677,0.0059629292,-0.0173168778,-0.0033423542,0.0216333531,0.0003771062,-0.0148278736
7.8616719246,0.0080631878,-0.0173421502,-0.0070613264,0.0184522066,-0.0017867119,-0.0169517454
7.8718647957,0.0043043108,-0.0174123645,-0.0069413423,0.0078021465,-0.0040303590,-0.0211966243
7.8817949295,-0.0003988535,-0.0165119767,-0.0039487123,0.0067121144,-0.0019384457,-0.0243807007
7.8917989731,-0.0021575184,-0.0127329230,-0.0000328063,0.0045208391,0.0033065835,-0.0307485182
7.9018568993,-0.0028705688,-0.0060871239,-0.0000589131,0.0023189373,0.0096054915,-0.0381774046
7.9121789932,0.0003518670,-0.0120905042,-0.0048949360,0.0098137651,0.0075758966,-0.0339325964
7.9220170975,0.0064860792,-0.0044441815,-0.0048365234,0.0119256517,0.0097026974,-0.0360556617
7.9320611954,0.0047788830,-0.0016394255,-0.0056970357,0.0310804378,0.0151969315,-0.0328730531
7.9421272278,-0.0067729144,-0.0026602743,-0.0016175746,0.0406435803,0.0195456073,-0.0296879131
7.9524698257,-0.0056302934,0.0002636912,0.0016112686,0.0502066202,0.0238729771,-0.0296876468
7.9622778893,-0.0054410486,0.0021831992,0.0009367228,0.0512077026,0.0302206222,-0.0339319259
7.9723467827,-0.0042544096,0.0002136829,-0.0007180809,0.0533849709,0.0259879939,-0.0349960588
7.9823827744,-0.0040597408,-0.0046727653,0.0005831481,0.0512959883,0.0217599608,-0.0296886470
7.9927248955,-0.0018933208,-0.0037228463,0.0009026290,0.0449443497,0.0163713191,-0.0339369215
8.0026721954,-0.0026229115,-0.0057396288,0.0001895786,0.0332474783,0.0120109254,-0.0360597260
8.0126247406,-0.0042526512,-0.0088135004,0.0051524998,-0.0094371065,0.0104881963,-0.0498541705
8.0226449966,-0.0068082004,-0.0070511694,0.0023514391,0.0322400331,0.0056228675,-0.0381873921
8.0329961777,-0.0103428755,-0.0004370210,0.0053177834,0.0012116488,0.0126825077,-0.0530410409
8.0427837372,-0.0050686984,-0.0142942667,0.0052820207,-0.0052316040,0.0168982930,-0.0487901010
8.0528745651,-0.0066389530,0.0029142501,0.0069978000,-0.0149223665,0.0252744667,-0.0530303866
8.0629281998,-0.0042794137,-0.0013041494,0.0047439695,-0.0277731828,0.0293720067,-0.0583340712
8.0732421875,-0.0009430440,-0.0016703603,0.0062844516,-0.0331507176,0.0335762724,-0.0572687425
8.0830411911,-0.0015280040,-0.0000995991,0.0048615099,-0.0374080464,0.0324849077,-0.0562064089
8.0930566788,0.0027790873,0.0034214261,0.0034163357,-0.0341631472,0.0282756481,-0.0551474020
8.1032524109,0.0051165433,0.0050264006,0.0049667121,-0.0320059843,0.0261930563,-0.0519635901
8.1134681702,0.0094186272,0.0056481366,0.0036223293,-0.0308718253,0.0198494736,-0.0498427153
8.1233177185,0.0087978747,0.0082592964,0.0013559819,-0.0265484508,0.0146025140,-0.0466610380
8.1333837509,0.0052268715,0.0108941793,0.0049348236,-0.0275956597,0.0124930246,-0.0434774943
8.1434803009,-0.0003227980,0.0096490383,0.0046589733,-0.0179696623,0.0104618315,-0.0424191542
8.1537160873,-0.0009816678,0.0113429427,0.0044486881,-0.0147143211,0.0051987595,-0.0402991474
8.1636505127,0.0032403676,0.0111380219,0.0043424130,-0.0072428230,0.0052847797,-0.0371156037
8.1736545563,0.0035605638,0.0167734027,0.0014071823,0.0088583035,-0.0041238358,-0.0371249914
8.1837806702,0.0038734882,0.0185664296,0.0044191838,0.0099776294,-0.0094333794,-0.0392515250
8.1939964294,0.0012771694,0.0194051862,0.0084690815,0.0196051430,-0.0114722298,-0.0392542519
8.2039127350,0.0055392594,0.0212173462,0.0067486526,0.0186131150,-0.0189016499,-0.0381959118
8.2138700485,0.0098469462,0.0249316096,0.0021182657,0.0143563459,-0.0199932121,-0.0371333808
8.2239561081,0.0052771480,0.0180133581,-0.0015663742,0.0165412035,-0.0241147205,-0.0212090071
8.2342739105,0.0044836015,0.0189421177,0.0015651942,0.0100914799,-0.0188109688,-0.0127095962
8.2443227768,-0.0012730451,0.0218235254,-0.0012442707,0.0068213842,-0.0113357417,-0.0010252430
8.2548303604,-0.0052233427,0.0170230269,0.0027114511,0.0003151484,-0.0007044701,0.0106605086
8.2649154663,-0.0023886950,0.0238494873,0.0006984831,-0.0093635786,0.0066386638,0.0106666340
8.2751626968,-0.0015312822,0.0228953958,0.0005192519,-0.0158377495,0.0140584307,0.0181043763
8.2847757339,0.0002002328,0.0190781355,0.0003081919,-0.0200599227,0.0098256022,0.0255359281
8.2943496704,0.0048552961,0.0239964128,-0.0008961200,-0.0285415053,0.0044594659,0.0276593994
8.3043298721,0.0075375051,0.0230799317,-0.0021276115,-0.0295638926,0.0002338281,0.0319047458
8.3146305084,0.0082379486,0.0192854404,-0.0023187040,-0.0251651257,-0.0124119921,0.0393294357
8.3245487213,0.0059922845,0.0184522271,-0.0005145906,-0.0251107961,-0.0177031606,0.0414503776
8.3345212936,0.0027633517,0.0147032738,0.0022926093,-0.0250112712,-0.0272321496,0.0446317233
8.3445940018,0.0044154734,0.0090460777,0.0013233186,-0.0163773056,-0.0366927646,0.0467484035
8.3549022675,0.0071172328,0.0140392780,-0.0025171875,-0.0142263491,-0.0388585143,0.0371906534
8.3647270203,0.0029821305,0.0083544254,-0.0005131005,-0.0142236874,-0.0388238914,0.0424996652
8.3748083115,0.0017647354,0.0026791098,-0.0004526614,-0.0164236445,-0.0324972197,0.0393179171
8.3849172592,-0.0043908744,0.0038132670,-0.0023894547,-0.0090144631,-0.0260244068,0.0456900634
8.3950719833,-0.0017988475,0.0030627849,-0.0023548841,-0.0101856161,-0.0153961312,0.0499430001
8.4050149918,-0.0012052448,0.0032668712,-0.0033424138,-0.0038451608,-0.0089534121,0.0531300046
8.4150733948,-0.0065420060,-0.0032634733,-0.0023510098,0.0014371118,-0.0035732936,0.0573777445
8.4253196716,-0.0080214236,-0.0039376612,0.0035033585,0.0034962678,0.0038654478,0.0563191399
8.4355869293,-0.0016097517,0.0021497610,-0.0004099249,0.0023547579,0.0112332823,0.0488919169
8.4454679489,-0.0020119937,-0.0005557534,-0.0033592223,0.0055114026,0.0154775623,0.0446460396
8.4555072784,-0.0004358382,-0.0042343731,-0.0023942231,0.0034492370,0.0079972092,0.0393338948
8.4656448364,0.0012082069,-0.0069581862,-0.0053064465,0.0045573786,0.0037417440,0.0361460969
8.4758129120,0.0018859117,-0.0087245107,-0.0062298416,0.0024835216,-0.0026487776,0.0350805633
8.4857158661,0.0006367175,-0.0095155239,-0.0012989282,0.0068143536,-0.0089982860,0.0318908952
8.4957628250,0.0004161208,-0.0083913803,-0.0031925081,-0.0017432896,-0.0069866669,0.0265862793
8.5059032440,-0.0007345171,-0.0112050176,-0.0051149963,-0.0006766934,-0.0069842706,0.0255242102
8.5161018372,-0.0029011758,-0.0110797286,-0.0022214293,-0.0039668679,0.0014841823,0.0265896060
8.5259675980,-0.0099651013,-0.0109802485,-0.0003821491,-0.0072545409,0.0099303974,0.0244710613
8.5360326767,-0.0092204902,-0.0079612732,0.0014308454,-0.0073267641,0.0173281264,0.0202291794
8.5461044312,-0.0054908185,-0.0079039931,-0.0035820841,-0.0062718866,0.0183776785,0.0170440394
8.5563688278,-0.0017627270,-0.0107609034,-0.0046482920,-0.0019543171,0.0130901048,0.0138539709
8.5662622452,-0.0029114874,-0.0116418004,-0.0027642488,0.0034042289,0.0110354759,0.0170369819
8.5762968063,-0.0020673068,-0.0105842352,-0.0008012890,0.0087871961,0.0057222703,0.0085379686
8.5864381790,-0.0001848729,-0.0153730512,0.0012384416,0.0067701181,-0.0059674084,0.0085326424
8.5966615677,0.0017620234,-0.0192199349,-0.0015435456,0.0122206770,-0.0176337194,0.0021549710
8.6065559387,-0.0001247318,-0.0191956758,-0.0042457818,0.0134257572,-0.0314243659,0.0010859781
8.6165561676,0.0068188519,-0.0211154819,-0.0019961237,0.0070954766,-0.0389492624,-0.0052865669
8.6266908646,0.0070196302,-0.0163140297,-0.0037446856,0.0017214837,-0.0358959474,-0.0180252660
8.6369161606,-0.0015733631,-0.0212405920,-0.0006820797,-0.0036561051,-0.0316774324,-0.0148367295
8.6468162537,-0.0053177862,-0.0242395997,-0.0015941500,-0.0123422695,-0.0168979540,-0.0148271406
8.6568212509,-0.0120399985,-0.0175184608,0.0021890760,-0.0178796202,0.0032284863,-0.0126922186
8.6669015884,-0.0109785292,-0.0137664676,0.0009724856,-0.0254896022,0.0169355106,-0.0158688370
8.6771640778,-0.0089478288,-0.0080785751,-0.0003592013,-0.0266953483,0.0307050515,-0.0179849193
8.6870489120,-0.0069372146,-0.0062938328,0.0021307827,-0.0353175998,0.0391185097,-0.0179785267
8.6970758438,-0.0020129473,-0.0084114075,-0.0012561320,-0.0385415964,0.0412130170,-0.0179771297
8.7072238922,0.0029726236,-0.0027833579,-0.0027072071,-0.0288351737,0.0306314807,-0.0264792703
8.7174406052,0.0031082837,0.0019081237,-0.0040157079,-0.0223494172,0.0222001802,-0.0264859293
8.7273483276,0.0042854161,-0.0060891504,-0.0033445596,-0.0361395329,0.0135563575,-0.0317957401
8.7373552322,0.0035498647,-0.0063212509,-0.0046202182,-0.0264135338,0.0019675461,-0.0318023302
8.7474613190,0.0028381555,-0.0036080477,-0.0067248582,-0.0209601820,-0.0096499622,-0.0307477191
8.7577438354,0.0002202599,-0.0047984715,-0.0029579042,-0.0219895951,-0.0139371185,-0.0360593908
8.7675514221,-0.0004021914,-0.0011414883,-0.0030622124,-0.0187471993,-0.0181739405,-0.0392477289
8.7776203156,-0.0009951980,0.0024904015,-0.0041189431,-0.0177145042,-0.0150162969,-0.0445553437
8.7877445221,-0.0015664489,0.0041871076,-0.0022464632,-0.0134555781,-0.0139041618,-0.0424322709
8.7980384827,-0.0011921914,0.0049339538,-0.0032608747,-0.0049723722,-0.0085243769,-0.0424319357
8.8078241348,0.0001107960,0.0076560979,-0.0022915839,-0.0039670281,-0.0021213384,-0.0381818004
8.8179693222,0.0013708977,0.0074777012,-0.0051999330,0.0055992063,0.0022475773,-0.0318107195
8.8280334473,0.0025728254,0.0064141159,-0.0051336526,0.0066919015,0.0001902855,-0.0233176313
8.8382673264,-0.0001914294,0.0082626343,-0.0070288419,0.0141422544,0.0024053697,-0.0190713555
8.8481159210,0.0018703251,0.0043472056,-0.0049537062,0.0141347982,0.0035079182,-0.0127000082
8.8582324982,0.0029701798,0.0072163348,-0.0087369923,0.0152139105,0.0024486461,-0.0137619441
8.8682823181,0.0060149641,0.0033206942,-0.0085962648,0.0141691528,0.0003311669,-0.0116391378
8.8784923553,0.0061230571,0.0023139718,-0.0094650025,0.0078054750,-0.0039746324,-0.0127025386
8.8883686066,0.0023172407,0.0012841823,-0.0074811219,0.0003361069,-0.0040329555,-0.0116388723
8.8984308243,-0.0005032213,-0.0026825664,-0.0084987516,-0.0125019001,-0.0009758461,-0.0137574831
8.9083595276,-0.0003809423,-0.0018281338,-0.0066854595,-0.0157485604,0.0032055830,-0.0190635640
8.9185972214,-0.0021774562,-0.0029539464,-0.0039856671,-0.0275530219,0.0094413748,-0.0233046487
8.9286727905,-0.0029915960,-0.0070136185,-0.0062152385,-0.0233485270,0.0158731751,-0.0190561078
8.9387102127,-0.0038500221,-0.0013229249,-0.0006897687,-0.0308691896,0.0210907087,-0.0222355239
8.9488420486,-0.0047132163,0.0004384521,0.0009246231,-0.0233337767,0.0148107074,-0.0190551765
8.9589672089,-0.0016725452,0.0012794139,-0.0031824945,-0.0105270604,0.0149577139,-0.0137498928
8.9689531326,-0.0006116421,0.0021860602,-0.0052349805,-0.0008579213,0.0086894315,-0.0116318809
8.9789142609,0.0014296381,0.0031030776,-0.0061739325,0.0098587470,0.0045447536,-0.0105740726
8.9890270233,-0.0014458688,0.0002066496,-0.0031168102,0.0206504073,-0.0069915270,-0.0042117815
8.9993743896,0.0015781729,-0.0017181037,-0.0038315891,0.0270994902,-0.0122737084,-0.0095265862
9.0093498230,0.0036679415,-0.0046265717,-0.0083804363,0.0271522216,-0.0175856482,-0.0105910515
9.0192899704,0.0038131087,-0.0104653239,-0.0061524152,0.0154576432,-0.0219610892,-0.0148362638
9.0293369293,0.0020219295,-0.0143678784,-0.0049550175,0.0133042112,-0.0198300276,-0.0105874557
9.0396080017,-0.0036968084,-0.0134325027,-0.0028701066,0.0068269763,-0.0124874264,-0.0148285395
9.0493545532,-0.0084473584,-0.0174050927,-0.0037846803,-0.0007606354,-0.0008885611,-0.0158826187
9.0594377518,-0.0132003222,-0.0136037469,-0.0019324659,-0.0073237550,0.0138708781,-0.0222472399
9.0696697235,-0.0091391597,-0.0156759024,-0.0001130938,-0.0063338578,0.0212725997,-0.0275527909
9.0807857513,-0.0059937029,-0.0080876946,-0.0012985109,-0.0096514383,0.0328512937,-0.0371002890
9.0897979736,-0.0037855895,-0.0063490267,-0.0015225648,-0.0032731676,0.0349876806,-0.0434716381
9.0996341705,0.0004185646,-0.0046319957,-0.0036539673,0.0009900201,0.0350055248,-0.0466594398
9.1099853516,0.0017113297,0.0009654763,-0.0038341521,0.0009655189,0.0370859839,-0.0530291870
9.1200675964,0.0020480661,-0.0011967418,-0.0019834875,0.0127722444,0.0308422707,-0.0498489067
9.1300048828,0.0033542125,-0.0052723284,-0.0029293536,0.0224206112,0.0267029200,-0.0466680266
9.1400775909,0.0066516609,0.0023186805,-0.0077020167,0.0278104767,0.0214370508,-0.0477332920
9.1501483917,0.0079508033,0.0002290013,-0.0055942773,0.0256879367,0.0203712545,-0.0456096865
9.1604938507,0.0062975497,-0.0018352268,-0.0005978583,0.0246447511,0.0182816703,-0.0392398760
9.1702013016,0.0056145997,0.0018928649,-0.0025270819,0.0149441855,0.0277398881,-0.0402944870
9.1803531647,0.0029511659,0.0065741544,-0.0065111159,0.0073853885,0.0361497514,-0.0424128957
9.1903991699,0.0021953790,0.0015415552,-0.0056996583,-0.0044036265,0.0413868576,-0.0370982923
9.2006807327,0.0043222518,0.0042688851,-0.0069689988,-0.0130158355,0.0487537608,-0.0349694304
9.2104740143,0.0054813237,0.0079347491,-0.0034822463,-0.0269108787,0.0507407449,-0.0370885059
9.2205591202,0.0076428265,0.0086452961,-0.0049513816,-0.0343386233,0.0464031883,-0.0413353816
9.2306089401,0.0079055931,0.0073381071,-0.0055434941,-0.0439353213,0.0452167504,-0.0477043316
9.2408838272,0.0110913720,0.0197264552,-0.0117622251,-0.0085662277,0.0307539869,-0.0349795483
9.2507457733,0.0044394643,0.0146952868,-0.0051996945,-0.0085007129,0.0244087391,-0.0317973383
9.2608604431,0.0085487869,0.0135954022,-0.0033090352,0.0118621625,0.0161041375,-0.0307442546
9.2708578110,0.0019572882,0.0260956883,-0.0023479699,0.0119351326,0.0086563416,-0.0339333937
9.2812023163,0.0012353270,0.0152834058,0.0006722570,0.0162363779,0.0055032251,-0.0349973924
9.2909984589,0.0005340783,0.0151483417,0.0007434250,0.0119247194,0.0097030299,-0.0360559970
9.3011331558,-0.0011634321,0.0111237168,-0.0001951694,0.0086800838,0.0139406528,-0.0328684598
9.3111305237,-0.0039272099,0.0032484534,0.0065988661,0.0011286903,0.0224119015,-0.0254297201
9.3214759827,-0.0067459135,0.0011914971,0.0054688216,-0.0031980146,0.0288026221,-0.0158689041
9.3312549591,-0.0057467311,-0.0008229014,0.0014000894,-0.0096050464,0.0298907906,-0.0031251453
9.3413925171,-0.0058384626,-0.0008577702,0.0030734302,-0.0139353732,0.0362543464,0.0021879275
9.3513879776,-0.0059459000,0.0010650756,0.0056798221,-0.0181815177,0.0341089033,0.0043115322
9.3617248535,-0.0031132491,0.0039376025,0.0014833570,-0.0181272961,0.0287964307,0.0032475994
9.3715200424,-0.0002667696,0.0039110188,0.0041264654,-0.0212647654,0.0224024467,0.0032452026
9.3815870285,-0.0013306828,0.0087745786,0.0039292336,-0.0051618293,0.0130074136,0.0053596860
9.3916530609,-0.0023743303,0.0078045134,0.0057897330,0.0002270779,0.0077490024,0.0053556906
9.4020109177,-0.0005081089,-0.0008734462,0.0048987628,0.0152787846,-0.0026755424,0.0138414539
9.4117851257,0.0003803878,0.0060408716,0.0060308934,0.0206559729,-0.0068867989,0.0117143877
9.4218482971,0.0012806265,0.0012887719,0.0043376447,0.0260782503,-0.0153073817,0.0148941353
9.4319620132,0.0051378519,-0.0014954207,-0.0021121739,0.0335588008,-0.0163031369,0.0148917390
9.4421882629,0.0021267144,0.0005977157,0.0021098615,0.0314316824,-0.0173886418,0.0138288708
9.4520568848,-0.0018679590,-0.0031582115,0.0043791295,0.0313672349,-0.0110295452,0.0127702644
9.4621171951,-0.0039070039,-0.0010921357,0.0046089650,0.0237802342,0.0005548722,0.0095931794
9.4722261429,-0.0059410124,-0.0009967086,0.0057371021,0.0279747136,0.0080261044,0.0106576448
9.4824590683,-0.0040865331,-0.0009007451,0.0049104453,0.0183069054,0.0142867966,0.0074784965
9.4923648834,-0.0022074075,-0.0008559224,0.0020277263,0.0139947152,0.0184796788,0.0053580878
9.5023918152,-0.0013317855,-0.0027359722,0.0030057789,0.0128845228,0.0227358751,0.0085451594
9.5124492645,-0.0024292262,0.0002442601,0.0039573670,0.0075898920,0.0184244830,0.0053589530
9.5228023529,-0.0005310567,0.0012415054,0.0039372803,0.0033521643,0.0151690356,0.0000499419
9.5325822830,0.0063521476,0.0012047889,0.0000213147,0.0034432439,0.0055576870,-0.0095110722
9.5427513123,0.0074101300,0.0021235349,-0.0019192337,-0.0017636623,-0.0072141672,-0.0084541971
9.5527095795,0.0055409879,-0.0027817485,0.0000455142,-0.0006416719,-0.0124890907,-0.0052717198
9.5630149841,0.0046259374,-0.0047350521,-0.0008657216,-0.0037983423,-0.0167262461,0.0000357606
9.5728244781,0.0027630536,0.0020238759,-0.0027955412,-0.0048462963,-0.0188852716,-0.0042122472
9.5829772949,0.0008862822,0.0049136286,-0.0037090420,-0.0059429333,-0.0157195721,-0.0052711205
9.5929555893,-0.0019737275,0.0068181758,-0.0017877459,-0.0070862286,-0.0083226413,-0.0084525328
9.6033306122,-0.0048323064,0.0077273850,0.0010647536,-0.0082824146,0.0043791719,-0.0116311489
9.6131114960,-0.0077053695,0.0066862111,0.0028711916,-0.0083793541,0.0139143541,-0.0137499599
9.6232070923,-0.0017510445,0.0056194072,0.0027502538,-0.0094503434,0.0138921831,-0.0158742964
9.6332530975,0.0042177648,0.0055097942,-0.0022689342,-0.0116053736,0.0160024706,-0.0148108965
9.6435270309,0.0013432114,0.0054171090,-0.0014856099,-0.0094702914,0.0160492770,-0.0105646858
9.6534519196,-0.0006301196,0.0015193822,0.0042231441,-0.0073296409,0.0161510091,0.0021764094
9.6634521484,-0.0007287951,-0.0004171130,0.0031293989,-0.0041032499,0.0141125591,0.0106687639
9.6735410690,0.0010765700,0.0025446417,-0.0008776425,-0.0019860361,0.0163086019,0.0191637147
9.6837816238,-0.0001134069,0.0026372673,-0.0019512414,-0.0020048646,0.0184652973,0.0244737249
9.6937084198,0.0006187169,0.0056455140,-0.0069488524,-0.0030917013,0.0205987561,0.0276604630
9.7037143707,-0.0016203912,0.0096548200,-0.0061371564,-0.0042214673,0.0269621126,0.0287259948
9.7138023376,-0.0039426475,0.0078776479,-0.0024351715,-0.0000008885,0.0323736556,0.0393456146
9.7240591049,-0.0033747943,0.0080495477,-0.0045425533,0.0032126149,0.0313472040,0.0404064171
9.7339744568,0.0011244623,0.0131205320,-0.0046079396,0.0085993903,0.0260610972,0.0361552127
9.7439546585,0.0066866190,0.0161957145,-0.0036753058,0.0075798263,0.0206776503,0.0255346615
9.7541112900,0.0054410310,0.0085682273,-0.0065871119,0.0129921688,0.0133249294,0.0297768116
9.7643232346,0.0002564399,0.0058308844,-0.0026729940,0.0076514119,0.0132516921,0.0255298670
9.7742004395,-0.0019338520,0.0040133004,-0.0017116307,0.0055485796,0.0100431163,0.0244670007
9.7842330933,-0.0021366866,0.0021852257,-0.0017177104,-0.0008097971,0.0057140812,0.0202206578
9.7943792343,0.0026191680,0.0012684467,-0.0056817769,-0.0082733054,0.0045324364,0.0117275696
9.8045186996,0.0034982173,0.0003173950,-0.0077525615,-0.0157763362,0.0076648463,0.0138538377
9.8144998550,-0.0015609057,-0.0015864966,-0.0030678748,-0.0136612551,0.0098331925,0.0181015804
9.8244972229,-0.0017623098,0.0004147294,-0.0003669499,-0.0223127473,0.0214500334,0.0212953761
9.8346328735,-0.0020457895,-0.0004888770,0.0002836348,-0.0224171411,0.0320877656,0.0255479123
9.8448362350,-0.0062618642,0.0034632685,-0.0010679006,-0.0203547105,0.0395466797,0.0276753101
9.8547515869,-0.0046608835,-0.0002980825,-0.0003747582,-0.0043552369,0.0407890417,0.0340426639
9.8647422791,-0.0011116357,0.0027583840,-0.0025061010,0.0031509623,0.0366054177,0.0329748020
9.8748779297,0.0024643748,0.0029371383,-0.0035358905,0.0139500806,0.0239665881,0.0329657495
9.8850955963,0.0030855148,-0.0026605723,-0.0044070720,0.0247473083,0.0124354335,0.0403916389
9.8950347900,0.0037297814,-0.0004743931,-0.0042137145,0.0269742422,0.0028635000,0.0340154991
9.9050321579,0.0035008995,-0.0002868173,-0.0078935260,0.0248875506,-0.0025292679,0.0233952124
9.9151296616,-0.0005668791,-0.0069508548,-0.0077002882,0.0089509282,-0.0101515008,0.0149010597
9.9253778458,-0.0025722773,-0.0117495656,-0.0037364005,-0.0102726202,-0.0093277851,0.0042886287
9.9352979660,-0.0015142353,-0.0118498802,-0.0058480739,-0.0475683287,-0.0161516033,-0.0158794895
9.9452905655,-0.0013096721,-0.0140240788,-0.0013889312,-0.0434217863,-0.0045055998,-0.0254309159
9.9554948807,-0.0000965388,-0.0074960585,-0.0105841989,-0.0573924631,0.0048945597,-0.0296698697
9.9657793045,-0.0067803352,-0.0203730464,-0.0023835539,-0.0564469099,0.0177048314,-0.0190453902
9.9754962921,-0.0057312339,-0.0108702779,-0.0010458468,-0.0576509237,0.0315093249,-0.0158527903
9.9855537415,-0.0056536584,-0.0023505089,0.0011872412,-0.0577077568,0.0367729291,-0.0222210754
9.9958248138,-0.0036690028,-0.0103284121,0.0006059171,-0.0469970517,0.0337800682,-0.0073601045
10.0061941147,-0.0017907412,-0.0104068518,0.0011104108,-0.0331001729,0.0318493471,0.0032525263
10.0162839890,0.0000596254,-0.0046252008,0.0026810528,-0.0191960763,0.0287805833,0.0021856637
10.0258064270,-0.0020267160,-0.0065587754,0.0024601580,-0.0021210583,0.0289720651,0.0085514178
10.0358591080,-0.0031707080,-0.0113301873,0.0033831359,0.0129284654,0.0185340717,0.0149131771
10.0461568832,-0.0003885419,-0.0102508068,0.0025054575,0.0193879362,0.0132624116,0.0117253065
10.0560550690,-0.0004846246,-0.0062673087,0.0026196004,0.0236756243,0.0111499932,0.0074759666
10.0660877228,-0.0035084875,-0.0129741430,0.0037943483,0.0300866254,0.0101457806,0.0074729705
10.0762023926,-0.0045488267,-0.0138521194,0.0030314685,0.0268825777,0.0100831967,0.0021647580
10.0864076614,-0.0055348366,-0.0099135041,0.0002849461,0.0258535855,0.0057816589,-0.0052699884
10.0961866379,0.0004064052,-0.0108685493,0.0014464618,0.0173447840,0.0024756107,-0.0127020720
10.1063776016,-0.0004513056,-0.0138361454,-0.0013780235,0.0130735543,0.0024179530,-0.0158868134
10.1166906357,-0.0002665908,-0.0061532850,-0.0032984852,0.0002845228,0.0001217755,-0.0254409052
10.1267166138,-0.0000700743,-0.0140333176,0.0015768171,-0.0008479347,0.0064576361,-0.0286227819
10.1365699768,-0.0017744692,-0.0064399834,0.0004659058,-0.0158244874,0.0094478326,-0.0381736755
10.1466503143,-0.0004754455,-0.0057156081,-0.0017019748,-0.0233073309,0.0104088346,-0.0434801579
10.1567468643,0.0047521801,-0.0069633122,-0.0019693016,-0.0287068896,0.0167282503,-0.0434756316
10.1668605804,0.0001658409,-0.0052979584,-0.0013318895,-0.0266088769,0.0210313182,-0.0371020846
10.1768131256,-0.0025492103,-0.0064610238,0.0042017461,-0.0191570856,0.0232601166,-0.0307320710
10.1869010925,-0.0023697109,0.0001550320,-0.0019356846,-0.0159982592,0.0275676474,-0.0254226606
10.1969451904,-0.0051748543,0.0019420984,-0.0012204885,-0.0138512170,0.0265529845,-0.0211765170
10.2072992325,-0.0021410973,0.0018272998,0.0024408461,-0.0138787013,0.0297343954,-0.0211733207
10.2170467377,0.0009510426,0.0035865309,0.0011352063,-0.0255888868,0.0264003836,-0.0286046062
10.2270488739,0.0069944472,0.0082939863,-0.0048923730,-0.0041679898,0.0192011278,-0.0222426467
10.2372074127,0.0061957450,0.0091150403,-0.0040731668,-0.0136906551,0.0105807409,-0.0296771284
10.2474975586,0.0064313025,0.0001887682,-0.0061570047,-0.0136523051,0.0063311355,-0.0307423938
10.2573299408,-0.0001736374,0.0077759628,-0.0014790534,-0.0168233328,0.0030993894,-0.0339285955
10.2674131393,-0.0008960159,0.0056445603,0.0051489235,-0.0232661329,0.0072936686,-0.0328623354
10.2775239944,0.0003593175,0.0063630347,0.0009487034,-0.0339810923,0.0114306230,-0.0349811465
10.2877235413,-0.0003795416,0.0051685576,0.0015823008,-0.0318477936,0.0115065221,-0.0264891256
10.2976455688,0.0017537980,0.0069164042,0.0002673627,-0.0308110267,0.0147196259,-0.0233023856
