0.0000000000,-0.0076074493,-0.0141363489,-0.0042196824,-0.3886388540,-0.0555150583,0.1223260835
0.0099049807,-0.0038275910,-0.0081577646,0.0009781409,-0.3449185193,-0.0446070135,0.1084137261
0.0198969841,-0.0009024335,-0.0029833065,0.0097425273,-0.2606284320,-0.0344539806,0.0944779366
0.0299030542,0.0089963479,0.0053193821,0.0106689623,-0.1614343226,-0.0115073854,0.0730532110
0.0400390625,0.0083986623,0.0156538151,0.0017501402,-0.0568256304,-0.0023439808,0.0495462865
0.0500739813,0.0060990858,0.0223233365,-0.0041749193,0.0477548391,0.0121231088,0.0217572656
0.0599700212,0.0050000953,0.0214708112,0.0025325108,0.1203695238,0.0188744888,-0.0048989803
0.0720549822,0.0031239199,0.0168512128,0.0118214181,0.1759156138,0.0191951320,-0.0176885445
0.0800560713,0.0091761155,0.0182121061,0.0098238280,0.2080262750,0.0139838606,-0.0304225832
0.0899740458,0.0085074706,0.0166621469,0.0089501431,0.2251677066,0.0076764291,-0.0335808247
0.0998979807,0.0079847975,0.0014381660,0.0071590827,0.2092109770,-0.0009564740,-0.0292663723
0.1098229885,0.0043626237,-0.0050884830,0.0058574365,0.1442024112,-0.0184600987,-0.0174211636
0.1202189922,0.0044476497,-0.0000127898,0.0087009361,0.0673771501,-0.0285372362,-0.0013662974
0.1300940514,0.0015098260,-0.0019690143,0.0088489344,-0.0084278695,-0.0353434756,0.0221068040
0.1400690079,-0.0036335778,-0.0002191411,0.0102018407,-0.0810564011,-0.0378753431,0.0423618741
0.1499470472,-0.0020676446,-0.0015268670,0.0071053789,-0.1419623643,-0.0350401439,0.0540723279
0.1599980593,-0.0045019579,-0.0078887688,0.0015079069,-0.1911221743,-0.0373560265,0.0774932280
0.1700360775,-0.0133640962,-0.0121806012,-0.0091089318,-0.2146874219,-0.0279100612,0.0785108209
0.1799889803,-0.0091497796,-0.0041900622,-0.0127176950,-0.2211438715,-0.0225954577,0.0806044638
0.1900210381,-0.0076991511,0.0052716387,-0.0080933282,-0.1827919483,-0.0095550222,0.0709315985
0.2000089884,-0.0013688995,0.0035541905,-0.0013220024,-0.1197369546,-0.0103190839,0.0496453531
0.2099810839,0.0014352010,0.0079213632,0.0116701415,-0.0557254776,-0.0013735250,0.0378563404
0.2200540304,0.0056444216,0.0104060424,0.0120139411,0.0104478169,0.0054257913,0.0228916388
0.2299760580,0.0046036649,0.0147468103,0.0052609132,0.0692080706,0.0067856014,0.0037187424
0.2399770021,0.0019077467,0.0193109177,0.0022155929,0.1044403613,0.0122653218,-0.0122770015
0.2499560118,0.0029664445,0.0170728825,0.0061439560,0.1342906654,0.0021351899,0.0260139275
0.2599710226,0.0130653484,0.0137167824,0.0123015931,0.1838021576,-0.1731998771,0.3511452973
0.2699650526,-0.0090282457,0.0248117112,0.0303370040,0.1507416666,-0.3290091753,0.4095478654
0.2799650431,-0.1409860402,0.0102576865,0.0555329621,0.0987409279,-0.0994305834,0.0553822033
0.2899800539,-0.0643132851,0.0016638888,0.0312035363,0.0543420389,0.0137878507,-0.0388114080
0.2999600172,0.0200903825,0.0037807478,0.0053791688,0.0052587814,-0.0065059690,0.0070361095
0.3099859953,0.0029538083,-0.0025501000,0.0072468207,-0.0469892435,-0.0122813005,0.0039228732
0.3199660778,0.0025303173,-0.0087489830,0.0061795400,-0.0971442908,-0.0189756881,0.0167513192
0.3299790621,-0.0028221798,-0.0013925182,0.0006397056,-0.1345292181,-0.0181506407,0.0220840331
0.3399890661,-0.0017110599,-0.0049393522,-0.0070545985,-0.1538580358,-0.0085840337,0.0337232463
0.3499820232,-0.0055852127,-0.0034275996,-0.0127561400,-0.1549097300,-0.0096791256,0.0316063017
0.3599309921,0.0029818821,0.0069111241,-0.0135830352,-0.1452336460,-0.0160613917,0.0263284482
0.3699160814,0.0013216244,0.0104159964,-0.0030974459,-0.1302989125,-0.0148770828,0.0263103377
0.3799510002,0.0029629874,0.0089482320,0.0021475244,-0.1025415882,-0.0136299245,0.0220333021
0.3898800611,0.0073844600,0.0185600780,0.0018242884,-0.0417022035,-0.0100165475,0.0145306438
0.3999140263,0.0062177288,0.0175099634,-0.0018146349,0.0095569901,-0.0096836528,0.0070559499
0.4099240303,0.0041075158,0.0224405192,-0.0011269761,0.0382536128,0.0055014249,0.0069374391
0.4200280905,0.0070044207,0.0118104471,-0.0038121056,0.0499992222,0.0066263443,0.0026715873
0.4299420118,0.0070953178,0.0090539707,-0.0084204981,0.0510785989,0.0076489979,-0.0037101456
0.4398829937,0.0118640764,0.0082391156,-0.0044347956,0.0457641296,0.0085946862,-0.0132739563
0.4498910904,0.0168715529,-0.0023478614,0.0009886313,0.0393666849,0.0085270423,-0.0153938327
0.4598870277,0.0178459696,-0.0042572366,0.0050220178,0.0170050524,0.0008925586,-0.0132048465
0.4698899984,0.0214834027,-0.0053329812,0.0038605023,-0.0182501413,0.0007016100,-0.0036174674
0.4798730612,0.0182699077,-0.0016374933,-0.0005133462,-0.0555698127,-0.0070087742,0.0038971743
0.4898780584,0.0160132162,-0.0018819319,-0.0003692818,-0.0993029177,-0.0126546752,0.0082138926
0.4997490644,0.0137084527,-0.0031065689,0.0053251670,-0.1472520679,-0.0257944465,0.0147058796
0.5098620653,0.0132908626,-0.0014186846,0.0119712045,-0.1505804807,-0.0129401665,0.0209991969
0.5198960304,0.0080012782,-0.0047422396,0.0059035108,-0.1430920810,-0.0150179649,0.0210065190
0.5298430920,0.0093758507,0.0076017631,-0.0001266909,-0.1239913478,-0.0020265323,0.0230337176
0.5398809910,0.0041500735,0.0003932966,-0.0126336524,-0.0632520989,0.0133540211,0.0175830256
0.5498390198,-0.0040623737,-0.0056954967,-0.0154979536,0.0380774476,0.0300152916,-0.0006564317
0.5598440170,0.0004405784,0.0081145419,-0.0112678120,0.1660395414,0.0532945134,-0.0189570077
0.5698090792,0.0004225181,0.0006679548,-0.0038425040,0.2844737768,0.0668816939,-0.0371884778
0.5799890757,0.0006020176,0.0021625413,-0.0062957122,0.4017626047,0.0890280157,-0.0544164665
0.5898630619,0.0067677307,0.0018952144,-0.0137963006,0.4914847612,0.0864247754,-0.0650861561
0.5998210907,0.0131417913,0.0077797426,-0.0041541769,0.5228237510,0.0532433800,-0.0978222638
0.6098880768,0.0195845179,0.0127529157,0.0112166693,0.4888109565,0.0379626974,-0.1040737703
0.6200660467,0.0242610686,0.0040690554,0.0301637929,0.4205626547,0.0257587600,-0.0954517871
0.6298400164,0.0251532607,0.0049699796,0.0316312015,0.3331739604,0.0038068558,-0.0835620984
0.6398630142,0.0170245580,0.0073609008,0.0181455892,0.2147157341,-0.0086705862,-0.0600237511
0.6498490572,0.0078021693,-0.0032593952,0.0023675251,0.0684104562,-0.0137958396,-0.0269542150
0.6598730087,0.0069586742,-0.0082549797,-0.0087608406,-0.0672889203,-0.0092484923,0.0028586744
0.6698120832,0.0017496155,-0.0086325156,-0.0119569013,-0.1645225286,-0.0076450030,0.0284135696
0.6797930002,-0.0008588625,-0.0141181694,-0.0110743353,-0.2361028343,-0.0101196123,0.0539776534
0.6898100376,-0.0028588963,-0.0158723332,-0.0050649955,-0.2766505182,-0.0198798310,0.0742546916
0.6998090744,-0.0059328568,-0.0157944895,0.0005274105,-0.2842124403,-0.0123822344,0.0827095658
0.7097800970,-0.0012911750,-0.0058413493,0.0052981065,-0.2723973095,-0.0208502859,0.0816938356
0.7197390795,-0.0052506221,0.0051100506,0.0036742974,-0.2360997796,-0.0216308590,0.0827367306
0.7297960520,-0.0010613991,0.0046267761,0.0010286260,-0.1741807461,-0.0190870073,0.0741778612
0.7398450375,-0.0006779624,0.0052961959,0.0040670917,-0.1101422459,-0.0133489612,0.0624102838
0.7497919798,0.0067677307,0.0100662960,0.0009188938,-0.0481675565,-0.0130421650,0.0421795845
0.7598110437,0.0106136603,0.0042405976,0.0012117315,0.0020427480,-0.0106756799,0.0230041556
0.7697920799,0.0068737078,-0.0064013945,0.0047132657,0.0458631963,-0.0115326857,0.0081056338
0.7798570395,0.0090482635,-0.0061520683,0.0093688658,0.0779084861,-0.0092551503,-0.0046807341
0.7898160219,0.0111993356,-0.0011247741,0.0003915119,0.0918019265,-0.0091930982,-0.0100027956
0.7998030186,0.0075307894,-0.0000105845,-0.0056935265,0.0864403248,-0.0049847718,-0.0121475719
0.8097770214,0.0077314782,-0.0018158900,-0.0088999579,0.0629539043,-0.0030651651,-0.0163931847
0.8197610378,0.0039228904,0.0001775874,-0.0105743119,0.0244513843,0.0020651487,-0.0068392265
0.8297669888,0.0008745598,0.0030317558,-0.0125888297,-0.0160880536,-0.0045794384,0.0027936934
0.8405259848,-0.0003518356,0.0048501147,-0.0110062072,-0.0449077152,-0.0089856386,0.0134657789
0.8498810530,-0.0025419784,0.0056417240,-0.0097405622,-0.0747518986,-0.0197863542,0.0273677465
0.8597320318,-0.0018863274,0.0004570140,-0.0136348316,-0.1014175937,-0.0284083374,0.0433789343
0.8697130680,0.0015026139,-0.0047220336,-0.0088276574,-0.1227316782,-0.0359821022,0.0519420654
0.8797260523,0.0048658657,-0.0040162550,-0.0020893526,-0.1173704639,-0.0391406119,0.0530225076
0.8896660805,0.0072796750,-0.0042990195,-0.0000503969,-0.0970566720,-0.0422080383,0.0509034321
0.8997600079,0.0098347766,-0.0084480392,-0.0036509347,-0.0778572708,-0.0388870761,0.0466177389
0.9097540379,0.0123863025,-0.0037449943,-0.0041609718,-0.0607933365,-0.0345344059,0.0402032509
0.9197610617,0.0160102658,0.0039561046,-0.0064124777,-0.0309567470,-0.0226673614,0.0262955576
0.9297100306,0.0167995505,0.0098055257,-0.0035052013,-0.0032103378,-0.0172086805,0.0145544801
0.9397150278,0.0168041997,0.0078878654,-0.0032438349,0.0116635505,-0.0033165675,0.0006425250
0.9497120380,0.0149604483,0.0030719293,-0.0009159756,0.0244629681,0.0020355873,-0.0100250328
0.9597049952,0.0082103414,0.0002123965,0.0052770660,0.0297691841,0.0063408539,-0.0111181270
0.9698040485,0.0092392666,-0.0017046677,0.0017093705,0.0222414918,0.0106122978,-0.0047662221
0.9797000885,0.0053080129,0.0002313508,-0.0010180783,0.0062044691,0.0136941075,-0.0047747437
0.9896870852,0.0012787984,0.0001901044,0.0010196256,-0.0065739099,0.0061954446,0.0048443275
0.9996780157,0.0000046300,-0.0008554207,0.0088013699,-0.0204508416,0.0019064241,0.0155044291
1.0096820593,-0.0033548665,0.0038464917,0.0114555648,-0.0384801775,-0.0152701661,0.0230651423
1.0196779966,-0.0027827215,0.0065421714,0.0070345686,-0.0661994219,-0.0218471102,0.0284367390
1.0297110081,-0.0011986090,0.0043509854,0.0033915925,-0.0865148157,-0.0198212415,0.0337497480
1.0396260023,0.0024049091,0.0031413091,0.0015370536,-0.0938994959,-0.0284709223,0.0295643210
1.0496780872,0.0010579036,0.0097182048,0.0033747244,-0.1162849590,-0.0318595283,0.0285395365
1.0596690178,0.0028068828,0.0065413965,0.0012083936,-0.1322564781,-0.0362689234,0.0275176819
1.0696610212,-0.0022676182,0.0072396053,-0.0000744176,-0.1227519214,-0.0233789589,0.0263650659
1.0796450377,-0.0014616443,0.0089735640,-0.0031660509,-0.1067071706,-0.0264826063,0.0231839195
1.0896180868,-0.0045246673,0.0116802705,-0.0032731008,-0.0939793885,-0.0157143809,0.0209804196
1.0996620655,-0.0075425101,0.0076031936,-0.0050254776,-0.0620021522,-0.0090748547,0.0187914334
1.1096650362,-0.0134892957,0.0025744094,-0.0054173782,-0.0256915446,-0.0098900478,0.0155841904
1.1196470261,-0.0059020710,0.0094269169,-0.0015704345,-0.0022251010,-0.0075736307,0.0155540975
1.1296290159,-0.0020697904,0.0006545437,0.0015269804,0.0191981643,-0.0149258189,0.0113372477
1.1397150755,-0.0002099467,-0.0002544271,0.0087028435,0.0490984097,-0.0126378974,0.0017396144
1.1498570442,0.0047170925,0.0008884324,0.0122190407,0.0683900788,-0.0179234724,-0.0088634957
1.1596380472,0.0048414278,-0.0008864151,0.0187474173,0.0727016032,-0.0200915523,-0.0162890535
1.1696460247,0.0099490089,-0.0016809450,0.0165121835,0.0716235563,-0.0179804657,-0.0184267741
1.1796050072,0.0122193499,-0.0015349733,0.0063844607,0.0609010048,-0.0116610499,-0.0195219982
1.1895930767,0.0105857952,0.0054068817,-0.0039007377,0.0469247364,-0.0000033288,-0.0185254440
1.1996070147,0.0117669804,0.0006537093,-0.0035050225,0.0308325831,0.0084508760,-0.0153823802
1.2096400261,0.0099453731,-0.0031619417,0.0035300541,0.0104801748,0.0158022661,-0.0122286649
1.2195990086,0.0128997369,0.0027355803,0.0035169411,-0.0109392293,0.0220977124,-0.0069440217
1.2296019793,0.0059974599,0.0016688360,0.0080669811,-0.0397847258,0.0208966266,0.0037078233
1.2395920753,0.0058843303,0.0005596532,0.0074667023,-0.0653758422,0.0143559035,0.0122685554
1.2495640516,0.0046431827,-0.0005802857,0.0125544360,-0.0813635960,0.0089427615,0.0186891686
1.2595850229,-0.0005728794,-0.0008401023,0.0146363666,-0.0888452083,0.0057725352,0.0293372869
1.2695870399,-0.0009017778,-0.0040008174,0.0129424026,-0.0813065991,-0.0027104320,0.0304494239
1.2795820236,0.0016576158,-0.0012373673,0.0133725097,-0.0493051261,0.0017740650,0.0261493493
1.2895650864,-0.0005740119,-0.0023635374,0.0121745756,-0.0023328252,0.0021192108,0.0239895266
1.2995669842,0.0040042507,-0.0004354464,0.0143350651,0.0286762230,-0.0009210540,0.0154889822
1.3095620871,0.0028563249,0.0073364628,0.0106440475,0.0329894796,-0.0041394839,0.0101948846
1.3195570707,0.0018658148,-0.0004932629,0.0080600074,0.0436738133,-0.0030372017,0.0048701600
1.3295680285,0.0097262068,-0.0062346207,0.0065935538,0.0511397198,0.0022646196,-0.0068557379
1.3395529985,0.0098503036,-0.0100502120,0.0079688122,0.0435740799,0.0149998553,-0.0111848395
1.3495370150,0.0080776615,-0.0139251100,0.0014167714,0.0254004020,0.0170241240,-0.0079981014
1.3595750332,0.0051482129,-0.0051735388,-0.0073226406,0.0081991768,0.0287175309,0.0004386599
1.3695360422,0.0021618414,-0.0003533112,-0.0113057205,-0.0067773759,0.0297340583,0.0078792665
1.3795319796,-0.0019931090,0.0034473790,-0.0066030337,-0.0186221842,0.0361869000,0.0227169357
1.3895159960,-0.0023650718,0.0052958978,0.0000484276,-0.0303438194,0.0308158360,0.0301966891
1.3995289803,-0.0056854081,0.0090500368,0.0064734505,-0.0515618883,0.0135811893,0.0345758572
1.4095100164,-0.0061663878,0.0098626269,0.0176405590,-0.0664135367,-0.0014150703,0.0442449935
1.4195120335,0.0012063788,-0.0000529634,0.0248812716,-0.0716991127,-0.0089129340,0.0464189351
1.4295190573,0.0017524766,0.0016678823,0.0242572110,-0.0588605516,-0.0120290983,0.0453677848
1.4395220280,0.0023355889,0.0062947525,0.0149283102,-0.0651598573,-0.0238556638,0.0433255397
1.4495240450,0.0010341810,0.0050750030,0.0084514907,-0.0715852678,-0.0217586923,0.0443788208
1.4595080614,0.0018246578,-0.0068624364,-0.0008248401,-0.0491923429,-0.0142059661,0.0326289535
1.4695010185,0.0016067432,-0.0021275030,-0.0060789897,-0.0246252157,-0.0119691771,0.0219733790
1.4794980288,0.0053475904,0.0046922220,-0.0043142154,-0.0129200891,-0.0044649225,0.0134150451
1.4895000458,0.0053376365,-0.0012151944,-0.0035533023,-0.0118319225,-0.0045109950,0.0070402371
1.4994900227,0.0053216624,0.0007069958,-0.0047132685,0.0020351578,-0.0001958753,-0.0004323267
1.5094550848,0.0053205299,0.0065717353,-0.0048170998,0.0095135802,0.0019359852,-0.0078881122
1.5194300413,0.0033653188,0.0153748645,-0.0019221617,0.0095517961,-0.0023471769,-0.0089231497
1.5294650793,0.0004471349,0.0154367341,0.0088503053,0.0117358547,-0.0087339692,-0.0078208679
1.5395100117,-0.0034213257,0.0154942526,0.0177068394,0.0053357463,-0.0108858040,-0.0035523530
1.5495110750,-0.0072729182,0.0125531806,0.0167932194,0.0020986740,-0.0087278448,0.0017478701
1.5594960451,-0.0063175154,0.0144383563,0.0070181773,0.0009720242,-0.0033533191,0.0059619229
1.5694969893,-0.0064053726,0.0183119439,0.0031529951,0.0052328156,-0.0022515694,0.0059518032
1.5794930458,-0.0035848212,0.0203010105,0.0072011040,0.0137649179,-0.0000733698,0.0038104884
1.5894920826,0.0031748223,0.0193771981,0.0074646757,0.0212031268,0.0053008893,0.0005832696
1.5994759798,0.0060669887,0.0204007290,0.0068269656,0.0371470712,0.0150105078,-0.0037421035
1.6094840765,0.0071308422,0.0174825452,-0.0035153341,0.0446132421,0.0182201490,-0.0101424782
1.6194810867,0.0083356602,0.0107290996,-0.0099429796,0.0424863100,0.0223648269,-0.0239809286
1.6294040680,0.0086783571,0.0001513017,-0.0065962984,0.0456983484,0.0265467893,-0.0378213748
1.6394170523,0.0139765544,-0.0122298943,0.0076895640,0.0531552024,0.0329178683,-0.0495544672
1.6494190693,0.0162809007,-0.0080313431,0.0160938185,0.0563467331,0.0350619778,-0.0516953804
1.6594160795,0.0147632165,-0.0039424645,0.0097959926,0.0563134439,0.0382883996,-0.0485256873
1.6694170237,0.0034102607,-0.0048714625,0.0034259248,0.0499218553,0.0329767279,-0.0389252603
1.6793910265,-0.0023371172,0.0039688600,0.0008067178,0.0263540782,0.0361549407,-0.0208686255
1.6893790960,-0.0072988761,0.0166530870,-0.0010040116,-0.0003880523,0.0371440388,-0.0059828870
1.6994069815,-0.0113753276,0.0243869685,-0.0001367045,-0.0355195403,0.0209426992,0.0058318279
1.7094030380,-0.0155252414,0.0232972763,0.0082212379,-0.0706426427,0.0026286733,0.0208485946
1.7193640471,-0.0157247372,0.0035794033,0.0142769506,-0.1057658792,-0.0146381976,0.0337354988
1.7293879986,-0.0082333582,-0.0103317844,0.0160676520,-0.1302011758,-0.0329058841,0.0444949344
1.7393850088,0.0001244055,-0.0116216885,0.0126142194,-0.1695879996,-0.0481325090,0.0488683768
1.7493900061,0.0016862558,-0.0149241434,0.0099801114,-0.1579731554,-0.0330704674,0.0498249866
1.7593470812,-0.0014393522,-0.0211665966,-0.0088580558,-0.0950288028,-0.0230868086,0.0359073058
1.7693870068,-0.0065355194,-0.0194539167,-0.0144338915,-0.0374408811,-0.0130948955,0.0273031648
1.7793960571,-0.0038144183,-0.0204552747,-0.0077346875,-0.0043757372,-0.0085946862,0.0229985639
1.7893790007,-0.0000314308,-0.0214138962,-0.0037277651,0.0201405250,-0.0009961552,0.0144330394
1.7993110418,0.0037064361,-0.0047113644,0.0023827839,0.0478657633,0.0055645420,0.0069358409
1.8094100952,0.0114565594,0.0051961197,0.0058129118,0.0595874004,0.0109356046,-0.0005439131
1.8193670511,0.0115375919,-0.0005604969,0.0092914393,0.0499889702,0.0118855545,-0.0058557214
1.8293039799,0.0116433008,-0.0043755518,0.0096888831,0.0179530047,0.0137662794,-0.0069079362
1.8392870426,0.0088825626,-0.0082711326,0.0058700130,-0.0161017682,0.0017314542,-0.0089326035
1.8494399786,0.0091044111,-0.0180046894,0.0076238797,-0.0588343143,0.0046345666,-0.0057344139
1.8593140841,0.0111330254,-0.0180476643,0.0060420320,-0.0930744484,0.0119103231,0.0016812910
1.8693360090,0.0072768140,-0.0241161324,-0.0045631840,-0.1027997732,0.0205125976,0.0165057778
1.8792250156,0.0041037011,-0.0214726068,-0.0152370045,-0.0997363478,0.0303114336,0.0344999544
1.8892630339,0.0025493014,-0.0012393938,-0.0152167985,-0.1018745899,0.0303039756,0.0355638899
1.8993330002,-0.0087939696,0.0082146181,-0.0045177653,-0.1050685272,0.0239834972,0.0494187176
1.9093210697,-0.0083733397,-0.0018164860,0.0043122456,-0.1124342978,0.0069166287,0.0601584502
1.9192320108,-0.0042178822,0.0018396629,0.0140883615,-0.1038450748,-0.0015138736,0.0665819943
1.9293659925,0.0000690626,0.0014941944,0.0053247497,-0.1026895195,-0.0142850624,0.0719759613
1.9393050671,0.0111312671,0.0061108721,0.0023951817,-0.1164924204,-0.0187668968,0.0603283569
1.9493080378,0.0156054599,0.0019513620,-0.0005601955,-0.1142774671,-0.0231430028,0.0465441011
1.9593950510,0.0143828494,-0.0090228664,-0.0042592599,-0.0791382566,-0.0090551469,0.0368649773
1.9693130255,0.0141338212,-0.0150168883,-0.0017392945,-0.0343185887,-0.0044968803,0.0293673780
1.9792000055,0.0091100140,-0.0141942250,-0.0087369988,-0.0034031505,0.0031658330,0.0229234640
1.9896119833,0.0002022194,-0.0143172489,-0.0135021517,0.0391925126,0.0152611127,0.0238776747
1.9995959997,-0.0000671936,-0.0123523222,-0.0090329954,0.0764515996,0.0273164436,0.0259020757
2.0092890263,0.0004911827,-0.0015349733,0.0025459218,0.0870696232,0.0317282379,0.0322403982
2.0192251205,-0.0010539485,0.0101695908,0.0102195432,0.0870597735,0.0296605565,0.0396873951
2.0292711258,0.0004125046,0.0101233376,0.0091250231,0.0711247474,0.0178350564,0.0461495556
2.0394721031,0.0029049325,0.0012867702,0.0127885034,0.0551853254,0.0091590108,0.0462181345
2.0493059158,0.0102977557,-0.0084662186,0.0201891940,0.0350172073,-0.0038406774,0.0441917330
2.0592989922,0.0156878643,-0.0036385404,0.0214605611,0.0201586336,-0.0135907764,0.0421395004
2.0693101883,0.0075145769,0.0059151901,0.0136250546,-0.0032886341,-0.0201394893,0.0475102998
2.0794501305,0.0033121812,0.0066364659,-0.0031679582,-0.0225139949,-0.0192103125,0.0485800914
2.0892770290,-0.0057453108,-0.0004995810,-0.0152614424,-0.0299788360,-0.0192862116,0.0464610122
2.0992400646,-0.0061714244,-0.0016628252,-0.0156073878,-0.0193715990,-0.0127548100,0.0506606847
2.1092419624,-0.0047103954,-0.0017711269,-0.0069623305,0.0019533988,-0.0093925698,0.0495615974
2.1194310188,-0.0043546748,0.0059465421,0.0057559893,0.0222510807,-0.0145087680,0.0580806509
2.1292550564,-0.0001355005,0.0195196532,0.0107240966,0.0286764894,-0.0166057404,0.0570273697
2.1391859055,0.0003084647,0.0203315876,0.0098400405,0.0201577023,-0.0167253166,0.0506593511
2.1492030621,0.0008289324,0.0143352402,0.0119063547,0.0136883520,-0.0092847114,0.0516780131
2.1593599319,0.0072481441,0.0103391064,0.0091470769,0.0019012010,0.0001572599,0.0420655981
2.1693859100,0.0118783517,0.0122093214,0.0033451605,-0.0076763248,0.0031442612,0.0250546578
2.1792399883,0.0118227107,0.0014323248,0.0005817103,0.0072119432,0.0138626862,0.0154146804
2.1892490387,0.0128114922,-0.0082973586,0.0019042182,0.0295984745,0.0224772133,0.0025944889
2.1993830204,0.0128324432,-0.0062749730,0.0013928699,0.0616030134,0.0290429704,-0.0091593731
2.2092308998,0.0088699860,0.0035732640,0.0060030506,0.0946200788,0.0388993286,-0.0113711273
2.2192301750,0.0030400562,0.0153680695,-0.0009225321,0.0988688916,0.0431699753,-0.0156508274
2.2291731834,-0.0027512503,0.0193849467,0.0009281325,0.0871696249,0.0387861468,-0.0177390128
2.2392249107,0.0012901233,0.0107601536,0.0028029967,0.0732960254,0.0376247391,-0.0166621637
2.2491841316,0.0042304206,0.0138468994,0.0064385817,0.0541127399,0.0342609026,-0.0176893435
2.2591772079,0.0120111508,0.0228054188,0.0127842715,0.0242919941,0.0275838245,-0.0208092369
2.2691621780,0.0092494888,0.0179588459,0.0138425520,-0.0150977569,0.0134120788,-0.0175026562
2.2791609764,0.0113978786,0.0052696718,0.0107205203,-0.0492185727,0.0067800088,-0.0121234702
2.2891469002,0.0095561547,-0.0045840489,0.0111007383,-0.0812470838,0.0044582654,-0.0046493094
2.2991330624,0.0046800780,-0.0047633993,0.0062062428,-0.1207220629,-0.0000784299,0.0007204225
2.3091480732,-0.0051317406,-0.0021031247,0.0019552994,-0.1346242875,0.0009282450,0.0060355598
2.3191320896,-0.0081727700,-0.0072073089,0.0026918340,-0.1197859496,0.0086378297,0.0187217928
2.3291840553,-0.0084481137,-0.0073769437,0.0076323436,-0.0792334676,0.0079280976,0.0240100324
2.3391840458,-0.0059388471,0.0032069935,0.0089321425,-0.0450560525,0.0050015496,0.0261312388
2.3491830826,-0.0083214240,0.0138159646,0.0125660589,0.0018019984,0.0192401409,0.0238814019
2.3591752052,-0.0076760245,0.0225116871,0.0059658573,0.0454862304,0.0281500127,0.0259161890
2.3692619801,-0.0040254784,0.0254469179,0.0008146453,0.0774636045,0.0379256755,0.0152065530
2.3791310787,-0.0050725532,0.0157080553,-0.0031484079,0.0870368630,0.0443606712,0.0087824762
2.3891181946,-0.0001929296,0.0090135587,-0.0040188744,0.0902297273,0.0496385247,-0.0018778904
2.3991270065,0.0057779956,0.0023769392,-0.0019898724,0.0828714222,0.0409190692,-0.0145633258
2.4091291428,0.0079666777,-0.0042601572,-0.0001693678,0.0702134147,0.0257853922,-0.0229554791
2.4191122055,0.0082937283,-0.0138723599,-0.0015075516,0.0479172990,0.0127513483,-0.0271050818
2.4291138649,0.0026552784,-0.0147678601,0.0026046324,0.0181554053,-0.0055847820,-0.0195286553
2.4390978813,0.0027765441,-0.0059271799,0.0024965692,-0.0159295946,-0.0164930895,-0.0141211078
2.4491648674,0.0008978354,-0.0030576931,0.0000707793,-0.0597255453,-0.0177916475,-0.0013334072
2.4591059685,-0.0010527564,0.0016812338,-0.0055841519,-0.0907630920,-0.0104940534,0.0050145034
2.4691028595,-0.0001182748,0.0054311408,-0.0124191353,-0.1121602505,-0.0042558643,0.0039266022
2.4790980816,0.0046906280,0.0072543873,-0.0125249932,-0.1217614934,-0.0032981916,-0.0003222050
2.4890899658,0.0105160875,0.0013432158,-0.0056536510,-0.0908914581,0.0076194373,-0.0014769516
2.4990749359,0.0163244419,0.0043711914,0.0086774519,-0.0045156861,0.0262836702,-0.0218433421
2.5090861320,0.0135742826,0.0113144172,0.0091075590,0.0797957331,0.0321980156,-0.0315020978
2.5190730095,0.0118804378,0.0183617137,0.0034874964,0.1554088593,0.0562405027,-0.0380844958
2.5290730000,0.0025531161,0.0078392876,-0.0072135641,0.2278915942,0.0685669407,-0.0371526554
2.5390710831,-0.0049610329,0.0111412061,-0.0066092326,0.2770609856,0.0614459179,-0.0392648093
2.5490210056,-0.0019031955,0.0282923840,0.0039410875,0.2654477358,0.0474254377,-0.0434153490
2.5590491295,0.0023587453,0.0151560558,0.0172165316,0.2122294158,0.0267465264,-0.0389962271
2.5690300465,0.0046838629,-0.0039756643,0.0278452318,0.1441747248,-0.0068761483,-0.0344811082
2.5789840221,0.0108290715,-0.0105679380,0.0277794879,0.0578141361,-0.0234876163,-0.0236879829
2.5890159607,0.0150304241,-0.0193574764,0.0122013381,-0.0232687332,-0.0325833783,-0.0140108531
2.5990040302,0.0122417612,-0.0244112350,0.0006740379,-0.1000997350,-0.0416000411,0.0009743550
2.6089859009,0.0054657268,-0.0305859186,-0.0115179727,-0.1738703549,-0.0345346741,0.0190407075
2.6189908981,-0.0016333057,-0.0270904042,-0.0116783092,-0.2358706146,-0.0316390172,0.0381856374
2.6290020943,-0.0089832740,-0.0159144141,-0.0122936675,-0.2604990005,-0.0284869019,0.0541182682
2.6389789581,-0.0135280089,-0.0086181508,-0.0061430051,-0.2617317736,-0.0113289533,0.0625098869
2.6489880085,-0.0122802155,-0.0051572071,0.0031443525,-0.2308614701,-0.0025035045,0.0666806623
2.6589908600,-0.0081933932,0.0052045239,0.0138383796,-0.1732096225,-0.0031360050,0.0655823722
2.6689028740,-0.0060232771,0.0195236467,0.0174320024,-0.0941963047,-0.0036390761,0.0602185018
2.6788148880,0.0042002606,0.0184118412,0.0180340093,-0.0258310940,-0.0032465262,0.0442323461
2.6889660358,0.0059085297,0.0163797401,0.0142306378,0.0190455671,0.0001167797,0.0218687188
2.6990010738,0.0088097258,0.0096178306,0.0167743247,0.0692650601,0.0003689812,0.0058961427
2.7089719772,0.0090151830,-0.0068153488,0.0168485325,0.1130484939,0.0048374990,-0.0111616701
2.7189841270,0.0161680691,-0.0124099003,0.0123896291,0.1450395882,0.0145772118,-0.0261207800
2.7289710045,0.0117703183,-0.0180915929,-0.0037719917,0.1492614895,0.0220551025,-0.0304217841
2.7389421463,0.0052872109,-0.0237765051,-0.0131556699,0.1309635788,0.0379991829,-0.0241376553
2.7489609718,0.0064238715,-0.0206842758,-0.0179360826,0.0839475989,0.0409054905,-0.0166869313
2.7589750290,0.0014857756,-0.0137665616,-0.0096838186,0.0199092291,0.0362140648,-0.0070489505
2.7689380646,0.0013316678,-0.0078866230,-0.0000201178,-0.0355473720,0.0262477156,0.0026159273
2.7791380882,0.0050846743,-0.0059951888,0.0024436999,-0.0621474236,0.0122237764,0.0112228645
2.7889409065,0.0077796387,-0.0012221085,0.0075360225,-0.0866285339,0.0003503391,0.0198160857
2.7989280224,0.0104456944,0.0015438451,0.0076498077,-0.0866102949,-0.0028353340,0.0219603311
2.8090009689,0.0083403094,-0.0054912316,0.0030550647,-0.0642248243,0.0005532720,0.0229851156
2.8189220428,0.0100652976,-0.0017128335,-0.0011753154,-0.0226800442,0.0115518607,0.0218231771
2.8289718628,0.0079552336,-0.0096205818,-0.0059171035,0.0156039633,0.0279071331,0.0248775575
2.8389801979,0.0048668790,-0.0165311433,-0.0104005644,0.0336744450,0.0387030542,0.0216099918
2.8489861488,0.0036001015,-0.0145485150,-0.0010549140,0.0486195721,0.0398601964,0.0184048768
2.8588759899,0.0082124872,-0.0154004442,0.0122946789,0.0496675260,0.0441012830,0.0130631085
2.8688120842,0.0089077754,-0.0104508149,0.0235261004,0.0294309631,0.0386007875,0.0131129110
2.8789339066,0.0096987290,-0.0066352831,0.0120954802,0.0144568067,0.0406572819,0.0173603855
2.8889150620,-0.0002295567,-0.0067860829,0.0044214414,0.0060196458,0.0277755708,0.0185122024
2.8989300728,-0.0034499359,-0.0049236761,0.0063970969,-0.0055635069,0.0053091450,0.0261006132
2.9089269638,0.0021035480,-0.0030128704,0.0082941344,-0.0193533543,-0.0065270080,0.0293741710
2.9189181328,-0.0011642171,0.0017498387,0.0130220344,-0.0054119723,-0.0170467608,0.0368709713
2.9288640022,-0.0043984246,0.0006019128,0.0070604370,-0.0043863906,-0.0148376683,0.0442926697
2.9401931763,-0.0048117531,0.0004122509,0.0010718394,-0.0044477750,-0.0094484957,0.0495695882
2.9497539997,-0.0043216539,0.0060978783,-0.0028941345,0.0125514474,0.0003021359,0.0494944863
2.9595220089,-0.0009403718,0.0050686849,0.0041643069,0.0284940638,0.0089717908,0.0494291037
2.9704020023,0.0044473219,0.0040416373,0.0075326846,0.0411603227,0.0272211004,0.0471771359
2.9796061516,0.0040270495,0.0030019535,0.0061494396,0.0603017956,0.0380116999,0.0407149754
2.9893531799,0.0036434936,0.0029219640,-0.0009008360,0.0772815719,0.0509504005,0.0384944342
2.9989380836,0.0042661834,0.0009549512,-0.0048236563,0.0910754204,0.0627764314,0.0341590755
3.0087971687,0.0039481330,-0.0038857209,-0.0056125834,0.1144963205,0.0725313276,0.0287675038
3.0187029839,0.0046240794,-0.0125656473,0.0006538319,0.1199315637,0.0608134195,0.0288412739
3.0287189484,0.0023459005,-0.0085862027,0.0037644196,0.0965804383,0.0466930717,0.0236371886
3.0386970043,0.0079618497,-0.0114309536,0.0046843574,0.0679264218,0.0261691529,0.0248547867
3.0486860275,0.0056835818,-0.0085158693,0.0090830019,0.0403219610,0.0067445892,0.0281872004
3.0586969852,0.0111214323,0.0002515567,0.0141063621,-0.0076114777,-0.0085289069,0.0346911699
3.0686969757,0.0058782208,0.0020109667,0.0146498969,-0.0544708595,-0.0259012375,0.0454604626
3.0786871910,0.0005729603,0.0056067361,0.0089325598,-0.0907411203,-0.0325098708,0.0561555848
3.0886330605,-0.0029038978,0.0081548346,0.0000692296,-0.1057770625,-0.0271550547,0.0710048378
3.0986981392,-0.0084181027,0.0106483949,-0.0078984806,-0.1091303751,-0.0110996552,0.0762130544
3.1086699963,-0.0130823748,0.0160900019,-0.0118772099,-0.0933229178,0.0104711503,0.0845612660
3.1187701225,-0.0071002138,0.0177656077,-0.0104883621,-0.0464946963,0.0300166234,0.0780277252
3.1288330555,0.0039093900,0.0176362656,-0.0084846327,0.0100008054,0.0463402011,0.0608841591
3.1388349533,0.0071708071,0.0146950139,0.0057031796,0.0622449666,0.0604919754,0.0437583029
3.1487998962,0.0155786974,0.0050209416,0.0107093146,0.1081314981,0.0692428499,0.0256088618
3.1587960720,0.0134125156,0.0080532087,0.0081838062,0.1541125774,0.0672888979,0.0054037245
3.1688079834,0.0084671779,0.0140865101,0.0059806393,0.1755811125,0.0577268153,-0.0072979555
3.1788392067,0.0056667733,0.0065263165,0.0058978484,0.1800424457,0.0352979377,-0.0092801470
3.1888351440,0.0057887542,0.0029228581,0.0105899861,0.1685082912,0.0116589200,-0.0133683654
3.1988229752,0.0039101052,0.0109808100,0.0139321974,0.1356158555,-0.0131649375,-0.0121238697
3.2088370323,-0.0038061333,0.0140228523,0.0128654530,0.0823923126,-0.0338292047,-0.0055783531
3.2187891006,0.0001371311,0.0130946292,0.0083237579,0.0215858221,-0.0438024737,0.0083407918
3.2287759781,-0.0047734571,0.0090119494,-0.0036962938,-0.0360790715,-0.0473186448,0.0243397318
3.2387890816,0.0008044349,0.0156489275,-0.0113404701,-0.0959497243,-0.0391616486,0.0328292213
3.2487468719,0.0014191674,0.0192601942,-0.0117662260,-0.1675754488,-0.0300147571,0.0423814468
3.2587990761,0.0029495168,0.0140069379,-0.0097481320,-0.2167869359,-0.0217371210,0.0551113598
3.2687530518,0.0024510431,0.0066829575,-0.0099714110,-0.2382943630,-0.0057988996,0.0635221601
3.2787761688,0.0037544179,0.0081954850,-0.0081842253,-0.2000576109,0.0200920850,0.0569538660
3.2887969017,0.0041940617,0.0166355036,-0.0087213228,-0.1167755201,0.0258985758,0.0356102288
3.2987630367,-0.0000883533,0.0214256905,0.0082662394,-0.0218049269,0.0403001532,0.0088908672
3.3088068962,0.0048412788,0.0049799932,0.0195938628,0.0773911625,0.0600786507,-0.0178664438
3.3187820911,0.0071275639,-0.0074478732,0.0152991107,0.1852029860,0.0713566095,-0.0467000902
3.3287649155,0.0056608724,0.0007608784,0.0011998700,0.2962355018,0.0784283653,-0.0701960921
3.3387551308,0.0073100734,0.0033899201,-0.0040787174,0.3859744370,0.0778725594,-0.0915032476
3.3487529755,0.0071626115,0.0081718219,0.0010578323,0.4448470771,0.0663895458,-0.1127177179
3.3586969376,0.0110228760,0.0180012845,0.0103265932,0.4460835755,0.0502688959,-0.1243011355
3.3687660694,0.0062861848,0.0140943183,0.0154679110,0.4206013680,0.0340308025,-0.1252404451
3.3787388802,0.0065493393,0.0032778038,0.0104171326,0.3631148040,0.0133183356,-0.1197509915
3.3887329102,0.0037483382,0.0030265702,0.0034817744,0.2596360743,0.0008611332,-0.1079116464
3.3987379074,-0.0002566768,0.0054646982,0.0002516794,0.1251111478,-0.0074154390,-0.0801464617
3.4087319374,-0.0045164716,0.0027523292,-0.0022459340,-0.0052535143,-0.0038670427,-0.0471443050
3.4187159538,-0.0091152089,0.0026408685,-0.0107316086,-0.1132083461,-0.0022217417,-0.0067075333
3.4287240505,-0.0131106572,0.0022688759,-0.0182401258,-0.2179169059,-0.0027591677,0.0252408125
3.4387688637,-0.0145506756,-0.0002233134,-0.0149461338,-0.3087116778,-0.0085161235,0.0593387298
3.4487481117,-0.0084298747,-0.0067277895,-0.0064111068,-0.3674753904,-0.0098668784,0.0795739591
3.4587411880,-0.0015467597,-0.0054988610,0.0007473516,-0.3941931427,-0.0120799653,0.0944784731
3.4687080383,0.0013399528,0.0015021814,0.0047952221,-0.3984587193,-0.0163064022,0.1040703803
3.4786720276,0.0052725184,0.0016913665,0.0059758709,-0.3845197260,-0.0194995329,0.0934592783
3.4887490273,0.0045620608,-0.0058628069,0.0055793212,-0.3288894892,-0.0277649183,0.0764757693
3.4986791611,0.0040035653,-0.0190738179,0.0155736497,-0.2637040913,-0.0305931959,0.0615745857
3.5086851120,0.0044998336,-0.0145763503,0.0202483218,-0.2017698884,-0.0249518212,0.0402469262
3.5186800957,0.0043608355,-0.0148834335,0.0090380600,-0.1142879948,-0.0105635617,0.0188452322
3.5286889076,-0.0024697972,-0.0072991597,-0.0072960570,-0.0298804324,-0.0122208465,-0.0013884016
3.5386638641,-0.0053130877,0.0005028499,-0.0122140953,0.0191192031,0.0051528178,-0.0142854247
3.5487210751,-0.0050836396,-0.0072185146,-0.0156656224,0.0575012118,0.0128858387,-0.0196743328
3.5586810112,-0.0059004021,-0.0021862136,-0.0139931748,0.0831547752,0.0119457422,-0.0271198638
3.5686469078,0.0010470556,0.0078568710,-0.0063320710,0.0745541006,0.0193607807,-0.0271619409
3.5786640644,0.0061368751,0.0070837392,-0.0027285528,0.0532432161,0.0117784962,-0.0196614135
3.5886530876,0.0082163615,0.0081867231,0.0015253711,0.0244677626,0.0041197771,-0.0142796990
3.5986208916,0.0131258471,0.0112059368,0.0055030272,-0.0193421692,0.0049493518,-0.0025680489
3.6086659431,0.0102830930,0.0032858504,0.0002070355,-0.0748515055,0.0013953634,0.0070552835
3.6186389923,0.0053379345,-0.0008188235,-0.0026250195,-0.1111806184,0.0022582277,0.0155730061
3.6286511421,0.0071458328,-0.0068596350,-0.0017574739,-0.1378404498,-0.0042880885,0.0241332036
3.6386270523,0.0088972850,-0.0139037715,0.0018342423,-0.1484451592,-0.0139630865,0.0273910481
3.6486279964,0.0066492367,-0.0190226175,0.0111629656,-0.1399129182,-0.0138789304,0.0295093264
3.6586599350,0.0013990210,-0.0114787566,0.0138979843,-0.0886803642,-0.0134757282,0.0305343773
3.6686348915,-0.0027502370,0.0019108905,-0.0034562063,-0.0383777805,-0.0270354785,0.0242128335
3.6786220074,-0.0030456376,0.0115724457,-0.0047462299,-0.0053315451,-0.0214399118,0.0230885781
3.6886181831,0.0026800442,0.0066980375,-0.0045672967,0.0330994651,-0.0180180147,0.0134780305
3.6987180710,0.0025779414,0.0145650757,-0.0012150122,0.0726384893,-0.0157394148,-0.0056867437
3.7088961601,0.0113736195,0.0226301812,0.0064909146,0.1035431400,-0.0049123336,-0.0174648389
3.7186729908,0.0116616590,0.0121192588,0.0105542829,0.1216872558,0.0004613928,-0.0302602630
3.7286181450,0.0061219144,0.0113488091,0.0106820157,0.1238271073,0.0015104120,-0.0345181264
3.7386059761,0.0054921913,0.0173792504,-0.0009798121,0.1077551916,0.0078197066,-0.0324243493
3.7485589981,0.0088158650,0.0078305257,-0.0058620288,0.0799643099,0.0118890172,-0.0313689373
3.7585802078,0.0052700448,-0.0056829201,-0.0051390245,0.0532910191,0.0074697668,-0.0238842573
3.7685871124,0.0083842082,-0.0123467790,0.0031143713,0.0212499984,0.0083179837,-0.0206802078
3.7785720825,0.0114430590,-0.0141969072,0.0081126979,-0.0011734189,0.0081672492,-0.0174741596
3.7885680199,0.0115375323,-0.0151365148,0.0119445613,-0.0139539279,0.0038113834,-0.0153122069
3.7985639572,0.0057406235,-0.0103071081,0.0116403392,-0.0267867707,0.0037733000,-0.0089319386
3.8085780144,0.0028650570,-0.0084445225,0.0035186696,-0.0193533562,0.0060228724,-0.0025773698
3.8185970783,-0.0039695692,-0.0094918953,0.0024584818,0.0041454467,0.0030273485,0.0016787613
3.8285920620,-0.0080245929,-0.0007319199,0.0053756521,0.0008961242,0.0062630894,0.0080343951
3.8385400772,-0.0053132963,0.0089904917,0.0024593759,0.0018467391,0.0159865562,0.0185915641
3.8485231400,-0.0044822288,0.0040638698,-0.0012665105,0.0157034323,0.0192819517,0.0164357349
3.8585181236,-0.0037304950,0.0069774641,0.0037929702,0.0147369709,0.0075070518,0.0154511649
3.8685178757,-0.0018514885,-0.0037636505,0.0049381540,0.0095262304,-0.0054132743,0.0091642402
3.8785300255,0.0000655459,-0.0076732980,0.0030647207,0.0084802732,-0.0086157247,0.0102466829
3.8885259628,0.0009428369,-0.0028127776,0.0020669389,-0.0043196771,-0.0097835213,0.0102631943
3.8985240459,-0.0049240184,-0.0068272101,-0.0020530534,-0.0288688280,-0.0110200271,0.0134780295
3.9085268974,-0.0069742990,-0.0059703933,-0.0044572069,-0.0523672290,-0.0101148188,0.0156133510
3.9185152054,-0.0061704707,-0.0051113712,-0.0040651872,-0.0716156214,-0.0080798976,0.0209251605
3.9284329414,-0.0054561687,-0.0013501989,0.0019420076,-0.0994203612,-0.0039743679,0.0262299106
3.9385330677,-0.0019110335,0.0063215150,0.0096939495,-0.1132915691,-0.0051405663,0.0273091551
3.9485321045,-0.0002605511,0.0100355400,0.0115769794,-0.1027001739,0.0045695850,0.0283011831
3.9584860802,0.0023866403,0.0157712959,0.0148195317,-0.0428894386,0.0049352371,0.0165692940
3.9685192108,0.0032710242,0.0166996382,0.0117801717,0.0094299568,0.0073866770,0.0058929473
3.9784910679,0.0071896422,0.0128605021,0.0121040633,0.0371272303,0.0182036385,-0.0037563513
3.9886078835,0.0064171064,0.0002380265,0.0069139884,0.0733637959,0.0280394908,-0.0112821776
3.9984622002,0.0017610596,-0.0045688497,-0.0029049825,0.1010795832,0.0356681161,-0.0198527612
4.0084910393,0.0038348543,0.0005335463,-0.0017973494,0.1075015366,0.0335801989,-0.0198437087
4.0184721947,0.0020676362,-0.0070913779,0.0021825123,0.0969109386,0.0228236895,-0.0176394098
4.0284757614,0.0061172354,-0.0107952701,0.0060074017,0.0767060667,0.0130573455,-0.0164995771
4.0384650230,0.0071236896,-0.0057825791,0.0113467267,0.0235099569,-0.0108152302,-0.0099322218
4.0484471321,0.0042367387,-0.0048004733,0.0179214161,-0.0522148982,-0.0220162198,-0.0013075747
4.0584540367,0.0081662340,-0.0097994553,0.0141639998,-0.1076741591,-0.0309303533,0.0062249103
4.0684547424,0.0109682782,-0.0080312835,0.0157398861,-0.1567562222,-0.0376319326,0.0169265568
4.0784978867,0.0067954469,0.0033531440,0.0138670495,-0.2006577700,-0.0261055026,0.0296310354
4.0885038376,0.0094730658,-0.0028949128,0.0059327171,-0.2402403206,-0.0209496245,0.0434363261
4.0983710289,0.0041450667,-0.0034079300,0.0034221101,-0.2671261430,0.0002837600,0.0507532284
4.1085462570,0.0036366689,-0.0058034407,0.0021270800,-0.2235807925,0.0262897946,0.0526789613
4.1184949875,0.0002934741,-0.0121249901,-0.0113506624,-0.1669956744,0.0266924649,0.0483866110
4.1282811165,0.0005586850,0.0130189909,0.0000262546,-0.1083560586,0.0377794728,0.0418994166
4.1383528709,0.0002379226,-0.0067015635,0.0033586312,-0.0603279546,0.0392093211,0.0407948717
4.1483030319,0.0026905346,-0.0019070851,0.0100024035,-0.0058806902,0.0416953824,0.0322415978
4.1583852768,0.0023003328,0.0107138408,0.0101882508,0.0337339640,0.0312280953,0.0227222610
4.1684217453,-0.0036892486,0.0028541340,0.0077556060,0.0455821007,0.0216279291,0.0142771108
4.1784009933,-0.0028245044,-0.0029914128,0.0073055313,0.0413355604,0.0194422733,0.0121680200
4.1884498596,-0.0028528762,-0.0068983184,0.0037483859,0.0201314706,0.0042606588,0.0059069288
4.1983699799,-0.0039120507,-0.0030101286,0.0028447199,-0.0054165004,-0.0055304533,0.0091762245
4.2084827423,0.0019184159,-0.0108291851,0.0017631935,-0.0299295671,-0.0110458592,0.0113538913
4.2183890343,0.0008472609,-0.0109054195,0.0033033777,-0.0469630100,-0.0175703373,0.0135319587
4.2283611298,-0.0012809230,-0.0013033496,-0.0022791338,-0.0704717934,-0.0166379660,0.0188542865
4.2383632660,-0.0005226923,0.0073127998,-0.0070572807,-0.0897497609,-0.0092966957,0.0198826641
4.2482137680,0.0023121047,0.0013316525,-0.0087470720,-0.0620909669,0.0047570718,0.0133978669
4.2584142685,0.0031943130,-0.0006420361,-0.0022223305,-0.0119831897,0.0157591216,0.0047927955
4.2683949471,0.0059927511,0.0062526716,0.0038252163,0.0369321555,0.0406743288,-0.0007148881
4.2783989906,0.0099107726,0.0024743332,0.0046824501,0.1009108722,0.0517983511,-0.0072039464
4.2883501053,0.0060410309,0.0065082563,0.0002208042,0.1681373119,0.0555065349,-0.0093997233
4.2983541489,0.0021917331,0.0096548451,-0.0037103605,0.2076495588,0.0536702871,-0.0104801673
4.3083329201,0.0032024193,0.0109586371,0.0052406476,0.2035765350,0.0322084054,-0.0167124961
4.3183169365,0.0033047008,0.0093354834,0.0168462675,0.1621538550,0.0083432840,-0.0197140127
4.3285722733,0.0044995951,-0.0011449205,0.0230557006,0.1003418863,-0.0059837233,-0.0142659843
4.3383731842,0.0027493048,-0.0079313265,0.0158309620,0.0311218016,-0.0289028883,-0.0076978300
4.3483438492,-0.0010546042,-0.0099798189,0.0048906491,-0.0403523780,-0.0410671420,0.0094292257
4.3583641052,-0.0030070138,-0.0238208510,0.0011458087,-0.1108321398,-0.0425720960,0.0233037621
4.3685460091,-0.0032315743,-0.0241483189,-0.0072494461,-0.1781070381,-0.0461535156,0.0403722301
4.3783249855,-0.0085591273,-0.0148368822,-0.0152498791,-0.2251848131,-0.0389041230,0.0552292056
4.3883237839,-0.0091399150,-0.0104207145,-0.0166641194,-0.2497977316,-0.0347466618,0.0637185648
4.3983340263,-0.0078867869,-0.0069474326,-0.0093683908,-0.2445369363,-0.0271864813,0.0679146424
4.4085030556,-0.0057013226,-0.0014806138,0.0038441706,-0.2296109945,-0.0249334462,0.0678896084
4.4183092117,-0.0025094640,0.0080138100,0.0177014153,-0.1315460801,-0.0008139949,0.0496031418
4.4282922745,0.0029406059,0.0117632998,0.0161034744,-0.0130010508,-0.0011112037,0.0325240232
4.4383077621,0.0025850940,0.0273987912,0.0222350042,0.0680788904,0.0111310817,0.0164547786
4.4485239983,0.0006952690,0.0147428168,0.0136047890,0.1448271871,0.0276839603,0.0077947099
4.4583511353,0.0007626223,0.0149296178,0.0047318623,0.2152656764,0.0366188660,-0.0114370417
4.4683532715,0.0057908106,0.0230983160,0.0013308811,0.2644300461,0.0357850306,-0.0284642279
4.4782981873,0.0091427369,0.0089578284,0.0099959066,0.2816524208,0.0250833817,-0.0454043299
4.4885191917,0.0145703955,-0.0071115242,0.0166284125,0.2497427016,0.0140850591,-0.0527474619
4.4982881546,0.0160459094,-0.0086393105,0.0205645245,0.1697810143,0.0017194704,-0.0515493080
4.5083007812,0.0175240450,-0.0142627107,0.0129059842,0.0768955499,-0.0020781974,-0.0365863368
4.5183119774,0.0129547818,-0.0152341472,0.0003477025,-0.0213571154,-0.0037458688,-0.0173826814
4.5284242630,0.0002606617,-0.0037166225,-0.0044259741,-0.1089386344,-0.0063701477,0.0050057154
4.5382633209,-0.0028373492,-0.0020389901,-0.0068976595,-0.1889903247,-0.0174555555,0.0306290518
4.5483207703,-0.0091930227,-0.0005069124,0.0015850352,-0.2616192400,-0.0231251605,0.0583387129
4.5582780838,-0.0080103474,0.0077677025,0.0046021030,-0.3065236211,-0.0243243817,0.0838757604
4.5682868958,-0.0098687010,0.0100512756,0.0015883732,-0.3012441695,-0.0209954306,0.0934120044
4.5782527924,-0.0107991295,0.0153109683,-0.0002095414,-0.2554111779,-0.0121055320,0.0911959931
4.5882997513,-0.0087409811,0.0148524297,0.0025853205,-0.1839894354,0.0043789027,0.0793529153
4.5982599258,-0.0036034775,0.0116676344,0.0102406433,-0.0826544315,0.0199802332,0.0621828474
4.6082348824,-0.0020446372,0.0036784066,0.0041563795,0.0006820057,0.0204159264,0.0376868285
4.6182541847,0.0035009193,0.0027535809,0.0115300706,0.0700411052,0.0314667150,0.0173818246
4.6282567978,0.0113445623,-0.0146507369,0.0156384390,0.1224601120,0.0263374653,-0.0049317377
4.6382350922,0.0123428507,-0.0036891447,0.0180086773,0.1577385962,0.0264690258,-0.0208905973
4.6482381821,0.0095627112,0.0121604456,0.0185562652,0.1599484980,0.0210604127,-0.0304185878
4.6582212448,0.0021443474,0.0084305657,0.0121046593,0.1236994043,0.0175309237,-0.0356836580
4.6682472229,-0.0033188057,0.0065708412,0.0002885151,0.0639415309,0.0117974048,-0.0271056164
4.6781797409,-0.0060199690,0.0046445979,-0.0062941029,-0.0065371590,0.0113329487,-0.0174913388
4.6882019043,-0.0059178662,0.0075805439,-0.0056906654,-0.0641075075,-0.0007964181,-0.0088733491
4.6981940269,-0.0030461741,0.0094777001,-0.0006524635,-0.1035971269,-0.0073869429,0.0060701799
4.7082209587,0.0007538306,0.0054553999,0.0050135539,-0.1398917437,-0.0097507648,0.0124852024
4.7182397842,-0.0014679028,0.0159644149,0.0073617981,-0.1601549387,-0.0162278395,0.0231644791
4.7323021889,-0.0007861448,0.0274079107,0.0008156585,-0.1580957919,-0.0066018431,0.0220382269
4.7389960289,-0.0029245508,0.0252011083,-0.0015561295,-0.1272441447,0.0064548366,0.0208688341
4.7484769821,-0.0031063450,0.0192114376,0.0005631733,-0.0622526221,0.0219115578,0.0196608230
4.7582678795,0.0026315856,0.0152702583,-0.0005278898,-0.0026105931,0.0436354950,0.0067317095
4.7682499886,0.0054331231,0.0201635025,-0.0050274446,0.0485468656,0.0546918735,0.0034371132
4.7780590057,0.0064079273,0.0173046850,-0.0090316245,0.0933762491,0.0602711998,-0.0093778847
4.7880558968,0.0074978876,0.0106807007,-0.0019594741,0.1169620156,0.0528630838,-0.0220950097
4.7980389595,0.0068091559,-0.0075960504,0.0111486008,0.1256124824,0.0432269648,-0.0315990336
4.8084802628,0.0061842608,-0.0239368416,0.0193324368,0.1171276569,0.0377901234,-0.0347450264
4.8183012009,0.0113560362,-0.0207925774,0.0126452735,0.0894012228,0.0333234705,-0.0325742848
4.8281531334,0.0067240405,-0.0139240371,-0.0013665272,0.0456156582,0.0319977477,-0.0229735877
4.8381481171,0.0029682326,-0.0109823095,-0.0079459259,0.0029373039,0.0253470335,-0.0122774020
4.8482050896,-0.0019069804,-0.0090629207,-0.0061192825,-0.0300390199,0.0080639189,-0.0036431670
4.8581552505,-0.0001063241,0.0006916178,0.0002976346,-0.0545315817,-0.0016864465,0.0038765348
4.8681669235,0.0055742669,0.0055395616,0.0055286572,-0.0779575408,-0.0124738468,0.0135243684
4.8782038689,0.0053476500,0.0131960167,0.0065196441,-0.0971534774,-0.0178976413,0.0210071858
4.8882112503,0.0051279473,0.0159413479,0.0054757283,-0.0961228386,-0.0146560408,0.0241726190
4.8981418610,-0.0009070826,0.0098714484,0.0036950398,-0.0598090366,-0.0175714027,0.0252280291
4.9081811905,0.0027205157,0.0137092127,0.0081390431,-0.0235548895,-0.0098730037,0.0177160520
4.9181699753,0.0046357322,0.0098008169,0.0072565363,0.0308004934,0.0074958671,0.0005706197
4.9283561707,0.0018891500,-0.0096434699,0.0089279106,0.0819997638,0.0163514093,-0.0101464735
4.9381399155,0.0098242564,-0.0055286633,0.0080005815,0.1086432263,0.0260754097,-0.0229806453
4.9480719566,0.0063175964,-0.0141821252,-0.0044007613,0.1417369992,0.0315482058,-0.0379127227
4.9581003189,0.0057154703,-0.0168390609,-0.0048383786,0.1566617489,0.0379890613,-0.0475236736
4.9681053162,0.0032182145,-0.0184895732,-0.0013299895,0.1471129954,0.0325349085,-0.0517312028
4.9781417847,0.0046207714,-0.0172109939,0.0000216055,0.1237080693,0.0216905139,-0.0495229103
4.9881110191,0.0020287442,-0.0091634737,0.0019651938,0.0864445865,0.0065118284,-0.0408993252
4.9980821609,-0.0006713761,-0.0021638619,0.0073480294,0.0363891348,-0.0129912989,-0.0258620512
5.0081009865,-0.0005324674,0.0018148674,0.0112501075,-0.0190916993,-0.0228942633,-0.0087608304
5.0180730820,-0.0044354689,0.0075706495,0.0096798828,-0.0714027062,-0.0274583884,0.0051175677
5.0281391144,-0.0064849448,0.0102969063,0.0028118182,-0.1174157336,-0.0212380439,0.0242324062
5.0380630493,-0.0047771228,0.0080966605,-0.0023871970,-0.1495860666,-0.0085494127,0.0369198360
5.0480709076,-0.0061122668,0.0068059815,-0.0067824437,-0.1571417153,-0.0021133511,0.0464449003
5.0580439568,-0.0036755395,0.0055428399,-0.0071932389,-0.1433554590,0.0065935869,0.0516885333
5.0680589676,-0.0012492730,0.0043420447,-0.0005365920,-0.1156894788,0.0185370650,0.0484045893
5.0780649185,-0.0006963206,-0.0036923634,0.0015920091,-0.0741048828,0.0262961853,0.0440794788
5.0880489349,0.0018729971,-0.0047808634,0.0031552005,-0.0313606150,0.0264996514,0.0291748345
5.0980429649,0.0035456228,0.0010212315,0.0060103224,0.0007801438,0.0180704799,0.0143337026
5.1080679893,0.0073758769,-0.0057472931,0.0130384257,0.0137041975,0.0095020263,0.0005691550
5.1179618835,0.0084650321,-0.0144762145,0.0162397902,0.0212727673,0.0040784981,-0.0153359082
5.1280331612,0.0096477671,-0.0085376846,0.0115630319,0.0224064756,-0.0002696449,-0.0248700269
5.1380438805,0.0070558595,-0.0094884979,0.0009910155,0.0138791669,-0.0003679156,-0.0291149709
5.1480960846,0.0103766127,-0.0191563107,-0.0046855523,0.0031666020,0.0038334874,-0.0280723441
5.1580343246,0.0076981592,-0.0220332481,-0.0037460637,-0.0128856013,0.0059072906,-0.0217031278
5.1680850983,0.0078046727,-0.0132310139,-0.0068652346,-0.0203725472,0.0027519774,-0.0089287423
5.1780409813,0.0067601311,-0.0044699656,-0.0032980156,-0.0406305492,-0.0037376131,0.0006899294
5.1880149841,-0.0002788497,0.0071412576,0.0048136399,-0.0759206265,-0.0017458349,0.0155751351
5.1980657578,0.0004224883,0.0108813895,0.0057994411,-0.1175502315,-0.0093829818,0.0358421914
5.2080078125,-0.0028946889,0.0076630963,0.0063154385,-0.1794391721,-0.0172342472,0.0486850180
5.2179622650,0.0004543470,0.0073461188,0.0112254908,-0.2180014700,-0.0056731990,0.0603219718
5.2278242111,0.0008514928,0.0000933064,0.0092280796,-0.2137385458,-0.0077142455,0.0677689686
5.2377829552,-0.0006364179,-0.0062181698,-0.0025326323,-0.2051362693,-0.0140877226,0.0646171123
5.2480792999,0.0055423188,-0.0016798126,-0.0063774302,-0.1999351233,0.0019945744,0.0655710548
5.2580480576,0.0022859978,-0.0343070962,-0.0109702060,-0.1838333905,-0.0064851963,0.0592401922
5.2680010796,0.0035954523,-0.0248158909,-0.0076617314,-0.1401247829,0.0013162675,0.0570342951
5.2781991959,0.0059402394,-0.0113811241,-0.0068783476,-0.1004946753,-0.0091925655,0.0422014222
5.2879867554,0.0006402241,-0.0057291137,-0.0038875651,-0.0684784204,-0.0057930406,0.0357826687
5.2979631424,0.0003272103,-0.0029133903,-0.0014288735,-0.0224968158,-0.0129761193,0.0294241048
5.3079538345,-0.0028670025,0.0028632535,0.0023389149,0.0138627887,-0.0181024373,0.0219952166
5.3180069923,0.0017004417,0.0263587497,0.0074238465,0.0491504744,-0.0200894233,0.0071076150
5.3279509544,0.0036892402,0.0215366147,0.0051484392,0.0876430050,-0.0241486132,-0.0024544648
5.3379449844,0.0048112380,0.0187170170,0.0012163806,0.1110953316,-0.0176121499,-0.0088859992
5.3479480743,0.0079190535,0.0198550485,-0.0015822960,0.1175361872,-0.0187037792,-0.0173825473
5.3579711914,0.0091368956,0.0102772368,0.0015697170,0.1227402687,-0.0026294719,-0.0174914710
5.3679628372,0.0103583736,0.0016638292,-0.0001132202,0.1248681322,-0.0025948510,-0.0153683992
5.3779730797,0.0056168842,-0.0001609074,0.0029409218,0.1120315716,-0.0015743274,-0.0089899953
5.3879718781,0.0027521658,0.0028411997,-0.0010357809,0.0874029249,0.0036699693,0.0016171089
5.3979587555,-0.0061090183,0.0018414510,-0.0014669610,0.0457701236,-0.0018691394,0.0165557116
5.4079532623,-0.0102013247,0.0046597375,-0.0081298659,0.0105341040,-0.0031559789,0.0229630098
5.4179520607,-0.0134343999,0.0055513037,-0.0042988374,-0.0162008367,-0.0011407648,0.0325288214
5.4279632568,-0.0118393498,0.0025373353,0.0013361262,-0.0385825783,-0.0066306051,0.0357672237
5.4379539490,-0.0063668084,0.0083145751,0.0048215077,-0.0470953695,-0.0078111840,0.0304691326
5.4479532242,-0.0056038094,0.0052241934,-0.0024980616,-0.0512933098,-0.0132602779,0.0220082682
5.4579739571,-0.0017947151,-0.0016746866,-0.0048258021,-0.0299292989,-0.0120911505,0.0145496856
5.4679570198,0.0077922749,0.0081402315,-0.0001356316,-0.0127479164,-0.0195487998,0.0018373523
5.4779481888,0.0057699489,0.0160008930,0.0114179542,-0.0009652926,-0.0227046460,-0.0034647351
5.4879207611,0.0098143620,0.0102039231,0.0125014475,0.0182475504,-0.0204638634,-0.0088046398
5.4979429245,0.0050721574,0.0102164997,0.0097258380,0.0299501456,-0.0160888210,-0.0077789230
5.5079360008,-0.0016603364,0.0170166157,0.0040103481,0.0245271511,-0.0064934520,-0.0057125762
5.5179390907,-0.0034980369,0.0130996360,-0.0026475501,0.0159761403,-0.0065272739,-0.0014548474
5.5279440880,-0.0063837063,0.0091986908,-0.0015350890,0.0159023702,0.0020315929,-0.0004479061
5.5379428864,0.0014396714,0.0044066561,0.0016306925,0.0105791111,-0.0001372858,0.0006318723
5.5479068756,0.0024072337,-0.0043315636,0.0096157482,0.0148590775,-0.0001314268,-0.0025583282
5.5578317642,0.0063506472,-0.0110854255,0.0147087863,0.0170222297,-0.0022803314,-0.0057326830
5.5678291321,0.0073608565,-0.0120225893,0.0158168357,0.0148733258,-0.0001684446,-0.0068072686
5.5778350830,0.0064447033,-0.0081175910,0.0110094836,0.0127586424,-0.0012827113,-0.0099848192
5.5879220963,0.0026064324,0.0006301655,0.0032176662,0.0127991224,-0.0066172890,-0.0088878628
5.5977993011,0.0016978191,0.0064878119,-0.0016547752,-0.0021285610,-0.0088668615,-0.0088645602
5.6077919006,-0.0001895619,0.0084602488,0.0011627364,-0.0096477298,-0.0035719643,-0.0078312540
5.6179480553,-0.0000873698,0.0036086095,0.0059892223,-0.0064352918,-0.0035740952,-0.0110207889
5.6278152466,0.0029171514,0.0046727313,0.0127609065,-0.0042672120,-0.0067818724,-0.0131262839
5.6377921104,0.0059597301,0.0047349585,0.0137143424,0.0021358253,-0.0067296745,-0.0131324101
5.6477937698,0.0071572470,-0.0020649182,0.0089436462,0.0266488902,-0.0012142679,-0.0153100770
5.6577920914,0.0033905017,-0.0010357248,0.0083223274,0.0576217212,-0.0031117704,-0.0142528005
5.6677942276,0.0064965892,-0.0038386928,0.0070238397,0.0746893883,-0.0008603340,-0.0164041035
5.6777949333,0.0086661978,-0.0095290290,0.0097949198,0.0853719935,0.0002454107,-0.0217305571
5.6877951622,0.0098424358,-0.0123123871,0.0116128018,0.0831828713,0.0055996962,-0.0185765754
5.6977949142,0.0119936867,-0.0160739161,0.0113798073,0.0617655963,0.0139803970,-0.0196808558
5.7077851295,0.0092474921,-0.0160062052,0.0089050224,0.0328881443,0.0191373415,-0.0154445656
5.7177801132,0.0034638452,-0.0130919563,0.0080179861,-0.0045111589,0.0210465640,-0.0079927742
5.7278013229,-0.0023983312,-0.0102662789,-0.0000135613,-0.0366131663,0.0251915064,0.0058138510
5.7377958298,-0.0055082035,-0.0025958167,-0.0044416501,-0.0718877986,0.0260969810,0.0185810439
5.7477979660,-0.0067239595,-0.0027428018,-0.0032238674,-0.0910585672,0.0195631832,0.0218239762
5.7578029633,-0.0069848788,-0.0087328302,0.0056926892,-0.0984951779,0.0131388381,0.0271825232
5.7677941322,-0.0004865719,-0.0107646929,0.0155526092,-0.0962426737,-0.0007471497,0.0262086056
5.7777810097,-0.0007736576,-0.0118534314,0.0245383661,-0.0651765019,-0.0133492276,0.0241431911
5.7878031731,0.0019205021,-0.0051000463,0.0259225648,-0.0405284166,-0.0217815936,0.0156815294
5.7977800369,0.0047169137,0.0026306165,0.0177445095,-0.0138247646,-0.0216234028,0.0103513449
5.8078022003,0.0018169688,-0.0003730403,0.0089460304,0.0235479064,-0.0213706680,0.0060740421
5.8178038597,0.0018252538,0.0045040501,0.0024265933,0.0544447042,-0.0115683721,-0.0003847894
5.8278031349,0.0038799453,0.0055648936,-0.0028356027,0.0693948939,-0.0093787210,-0.0078461673
5.8377962112,0.0001450883,-0.0011908757,-0.0011844350,0.0768894255,-0.0114730308,-0.0099643124
5.8477993011,-0.0006702138,-0.0069599496,-0.0014539672,0.0725181103,-0.0007825696,-0.0057810191
5.8577060699,0.0042721438,-0.0136539685,0.0031405378,0.0595964566,0.0119622536,-0.0037303853
5.8677692413,0.0003562378,-0.0107249962,-0.0003828121,0.0296412185,0.0171381086,0.0036937089
5.8777818680,-0.0036908579,-0.0068983184,-0.0042667105,-0.0173870102,0.0190305486,0.0175251029
5.8877749443,-0.0039381576,-0.0031152116,-0.0056314780,-0.0643923357,0.0198175125,0.0271143466
5.8977799416,-0.0062553477,0.0006369008,-0.0005268169,-0.0942497030,0.0142818671,0.0324860737
5.9077720642,-0.0018125070,0.0063507212,0.0043953941,-0.1134537607,0.0109723574,0.0378329009
5.9176969528,-0.0012174441,0.0052001132,0.0101703098,-0.1133099422,-0.0050910320,0.0336855613
5.9277091026,0.0004074382,0.0060289754,0.0140780499,-0.0897657350,-0.0123904897,0.0337164551
5.9377079010,0.0040466893,0.0029499782,0.0114030531,-0.0609226339,-0.0122293690,0.0262577403
5.9477100372,-0.0010042383,0.0018076552,0.0060907290,-0.0182462782,-0.0087110661,0.0240803398
5.9576969147,-0.0012105299,0.0085425032,-0.0017249894,0.0265745893,-0.0072937319,0.0240389276
5.9677100182,-0.0013851119,0.0094977869,-0.0061475351,0.0638593733,0.0036462673,0.0196923837
5.9777112007,-0.0015375210,0.0095169200,-0.0083032558,0.0915694311,0.0102458466,0.0164431930
5.9877080917,-0.0007739259,0.0154540194,-0.0044203117,0.1064881906,0.0146091701,0.0132173058
5.9978218079,0.0029722857,0.0155941499,0.0025104571,0.1011534855,0.0156081216,0.0100280372
6.0077133179,0.0029082107,0.0127368821,0.0044075535,0.0841084570,0.0122517394,0.0079369228
6.0176973343,0.0028673816,0.0030541671,0.0100336960,0.0606109872,0.0141998427,0.0068776505
6.0277099609,0.0038038599,-0.0017864453,0.0104890158,0.0244074427,0.0032318791,0.0069740573
6.0377101898,-0.0030931723,-0.0038169371,0.0105344346,-0.0065219784,-0.0023005714,0.0134077221
6.0476713181,-0.0022484553,-0.0048752176,0.0054924772,-0.0299990736,-0.0056340499,0.0198200811
6.0576982498,-0.0004666639,-0.0010678517,0.0001125621,-0.0640678257,-0.0165855009,0.0199148897
6.0677080154,-0.0045418334,-0.0012296187,0.0012917804,-0.0832545683,-0.0199402850,0.0199500434
6.0777039528,-0.0046848548,-0.0082019912,0.0024081159,-0.0875634328,-0.0167327747,0.0241827369
6.0876879692,-0.0020737839,0.0033934964,0.0034675288,-0.0801286846,-0.0113494601,0.0220178552
6.0977039337,0.0005431580,0.0188800357,0.0007402587,-0.0662673339,-0.0091124047,0.0209306199
6.1076998711,0.0023055780,0.0187774561,-0.0017839981,-0.0513890497,0.0005854962,0.0166077763
6.1176009178,0.0061324048,0.0128803505,-0.0001119089,-0.0183169842,0.0071613733,0.0059190467
6.1276912689,0.0080019636,0.0139333857,0.0116441539,0.0191028249,0.0041535990,-0.0047114938
6.1376228333,0.0080709262,0.0121040000,0.0218443554,0.0574795082,0.0150358090,-0.0175607130
6.1476221085,0.0092779202,0.0083288206,0.0187315028,0.0884374231,0.0152661717,-0.0186462179
6.1575870514,0.0085754497,0.0055147065,0.0118390014,0.1002180502,0.0142102279,-0.0271439645
6.1676073074,0.0098660989,0.0046821488,0.0021603990,0.1086693257,0.0249635410,-0.0272195991
6.1776027679,0.0063049006,-0.0000708448,-0.0036157679,0.0980498344,0.0205546767,-0.0335593857
6.1876058578,0.0007445025,-0.0028497921,0.0010919261,0.0682242960,0.0128424289,-0.0334885456
6.1976041794,0.0010442244,-0.0036950456,0.0015423584,0.0181592666,-0.0014092114,-0.0301753078
6.2075853348,0.0022659707,-0.0036163079,0.0024115730,-0.0319624916,-0.0081914840,-0.0279715415
6.2175493240,0.0064101624,-0.0074783908,0.0038388062,-0.0746633485,-0.0105989818,-0.0204877928
6.2275953293,0.0045672464,-0.0007093893,0.0048399256,-0.0971558765,-0.0022044315,-0.0184017383
6.2375721931,0.0037470269,0.0021451367,0.0019019532,-0.0961139128,0.0010081399,-0.0184223801
6.2475652695,-0.0049542976,0.0029999865,0.0029538560,-0.0748760030,0.0087811081,-0.0036141383
6.2576208115,-0.0010686411,0.0117381467,-0.0024780941,-0.0472546294,0.0260695517,-0.0069333692
6.2678232193,-0.0000772668,0.0185451172,-0.0075983121,-0.0164109617,0.0401933603,-0.0081088888
6.2775712013,0.0009143161,0.0186062716,-0.0016057802,0.0112568857,0.0531778671,-0.0145864952
6.2875590324,0.0088220043,0.0129257096,0.0076424764,0.0315704122,0.0522026196,-0.0220310949
6.2975521088,0.0110056205,0.0023398651,0.0112111261,0.0561058521,0.0566136129,-0.0284514427
6.3075599670,0.0132027669,0.0025161160,0.0149344495,0.0720936060,0.0620267540,-0.0348720588
6.3175201416,0.0106038256,-0.0012629973,0.0089871576,0.0785143524,0.0599433631,-0.0337984078
6.3276100159,0.0031223106,-0.0012140023,-0.0009669972,0.0699999630,0.0556295738,-0.0305773132
6.3375358582,0.0004347371,0.0027773632,-0.0090924213,0.0487255640,0.0458592325,-0.0294388104
6.3475942612,-0.0051908982,-0.0000833617,-0.0076581552,0.0285297483,0.0329319835,-0.0229665302
6.3575100899,-0.0069725108,-0.0097111808,0.0053005503,0.0104981512,0.0188984573,-0.0228630677
6.3675270081,0.0008874940,-0.0056505548,0.0161639135,-0.0022874186,0.0135100838,-0.0164448489
6.3775300980,0.0028764415,0.0041534556,0.0150723150,-0.0171953961,0.0080719087,-0.0142758377
6.3876051903,0.0030143666,0.0060459627,0.0030901122,-0.0289524533,0.0090679303,-0.0121493032
6.3975152969,0.0021427679,0.0079428209,-0.0050217225,-0.0321602300,0.0090586087,-0.0100209052
6.4075098038,-0.0016780092,0.0069054021,-0.0082580158,-0.0311682001,0.0165841710,-0.0058208341
6.4174728394,0.0013124751,0.0049599065,-0.0103270719,-0.0140822921,0.0146051757,-0.0026323642
6.4274649620,0.0052429247,0.0049937023,-0.0093931267,-0.0151006859,0.0102857947,-0.0068532079
6.4375648499,0.0033336091,0.0030966057,0.0021825123,-0.0214422047,0.0027525104,-0.0067986129
6.4474840164,0.0044200229,-0.0143960463,0.0186301153,-0.0267019495,-0.0058566905,-0.0088638943
6.4573321342,0.0025337148,-0.0172953941,0.0262411516,-0.0074217273,-0.0142493760,-0.0077602807
6.4674549103,0.0026392746,-0.0143735157,0.0203174036,0.0075657438,-0.0194774270,-0.0077368449
6.4775500298,-0.0011807276,-0.0105180489,0.0115228584,0.0096689761,-0.0172891077,-0.0045688818
6.4874749184,-0.0039553535,-0.0115667926,-0.0031103801,0.0053466652,-0.0109097725,-0.0046072314
6.4974822998,-0.0048653972,-0.0115787731,-0.0060236170,0.0020977426,-0.0045362953,-0.0057061845
6.5074639320,-0.0028932882,-0.0105589377,-0.0040705516,-0.0086816680,0.0082058655,-0.0057812855
6.5175018311,0.0029780376,-0.0046466934,-0.0041435077,-0.0150716566,0.0070721572,-0.0078955693
6.5274739265,0.0069233882,-0.0016861307,-0.0023945880,-0.0321342647,0.0058532283,-0.0100005316
6.5376491547,0.0040254998,-0.0007201778,0.0059441016,-0.0545571484,0.0057014283,-0.0067939525
6.5474529266,0.0108486814,0.0070899976,0.0034474421,-0.0598922558,0.0046095327,-0.0046583638
6.5574817657,0.0099331243,0.0069877161,-0.0039968207,-0.0620153323,0.0003777696,0.0017422775
6.5674457550,0.0060476768,0.0039596213,-0.0065159514,-0.0577912927,0.0047128629,0.0048983898
6.5776581764,0.0060186493,-0.0029331790,-0.0049906685,-0.0450794920,0.0144768106,0.0101376260
6.5874319077,0.0009960042,0.0008573188,-0.0044211461,-0.0343299098,0.0049498845,0.0112542892
6.5974631310,0.0008171903,0.0017917408,-0.0016185952,-0.0013746200,0.0212431047,0.0121893259
6.6074190140,0.0065588760,-0.0001075016,0.0016247320,0.0370531976,0.0225818753,0.0089666341
6.6176171303,0.0026088762,-0.0049411403,0.0071171210,0.0797507241,0.0260429196,-0.0006501733
6.6274099350,0.0074892449,-0.0047785984,0.0101265600,0.1181729436,0.0305335391,-0.0102676470
6.6374540329,0.0056804228,-0.0075969445,0.0017286228,0.1438089460,0.0296392534,-0.0124017708
6.6474289894,0.0058198976,-0.0054899203,-0.0065666749,0.1470425427,0.0274903476,-0.0166396592
6.6576380730,0.0078947647,0.0015326394,-0.0110295126,0.1289168000,0.0262525100,-0.0198053587
6.6674032211,0.0071018445,-0.0021559941,-0.0020919752,0.0863190144,0.0173000284,-0.0282166861
6.6774282455,0.0063832807,-0.0078629004,0.0024311233,0.0341038778,0.0030710243,-0.0206539743
6.6873912811,0.0046502757,-0.0165940858,0.0035331536,-0.0063583273,-0.0121414838,-0.0130903311
6.6976189613,0.0026726532,-0.0058458792,0.0109594157,-0.0478933863,-0.0273470674,-0.0033997539
6.7073731422,0.0006177532,0.0077022566,0.0081399968,-0.0905444473,-0.0392974727,0.0126433950
6.7173981667,0.0024772095,0.0036061658,0.0031048346,-0.1236881539,-0.0383656286,0.0264709275
6.7273597717,-0.0025993180,0.0003825678,-0.0051068380,-0.1366159320,-0.0276959427,0.0359722860
6.7375822067,-0.0058926237,0.0000797166,-0.0093458006,-0.1239552721,-0.0136166094,0.0454310365
6.7473440170,-0.0102631049,0.0017807139,-0.0056327893,-0.1068979874,-0.0113380086,0.0464667380
6.7573738098,-0.0097869234,0.0035515083,0.0002988863,-0.0802204311,-0.0100658163,0.0464413054
6.7673349380,-0.0044008386,0.0034504784,0.0104440739,-0.0513975695,-0.0077597853,0.0400318764
6.7773900032,-0.0018173350,-0.0024880515,0.0169841927,-0.0182412192,-0.0129066110,0.0336701199
6.7873291969,-0.0001358582,-0.0074344026,0.0188716333,0.0074042240,-0.0148730893,0.0304777864
6.7973790169,0.0015463935,-0.0016680108,0.0102180531,0.0287963301,-0.0200542696,0.0294308979
6.8073239326,0.0013893055,-0.0027418481,-0.0012076211,0.0373458788,-0.0200153869,0.0262374990
6.8173742294,0.0002402471,-0.0028001415,-0.0058176233,0.0320239477,-0.0200931504,0.0230591502
6.8274869919,0.0010392474,-0.0076631652,0.0012972045,0.0299647935,-0.0297191460,0.0241854005
6.8373250961,0.0017817424,-0.0037406432,0.0102201989,0.0171934720,-0.0340997800,0.0231591519
6.8491191864,0.0064416635,0.0021111621,0.0120899966,-0.0137279583,-0.0354713090,0.0157529023
6.8581070900,0.0073515582,0.0000962270,0.0098445108,-0.0223157201,-0.0280906223,0.0114605511
6.8674120903,0.0073379981,-0.0067538964,0.0144818714,-0.0148037430,-0.0312752314,0.0072263917
6.8774023056,0.0101300878,0.0030359281,0.0201537888,-0.0020478675,-0.0226718895,0.0018498690
6.8872299194,0.0111093922,0.0127793206,0.0132593205,0.0128533179,-0.0161711127,-0.0013898662
6.8972682953,0.0043986249,0.0097807301,0.0046418593,0.0394798703,-0.0074452665,-0.0046506408
6.9073290825,0.0035668421,0.0030039800,0.0002902436,0.0671706200,0.0002504706,-0.0047198832
6.9173431396,0.0056071687,-0.0007933723,0.0029764462,0.0767529383,0.0045693191,-0.0090070395
6.9272489548,0.0017147766,0.0041811718,0.0066311643,0.0799234286,0.0088599380,-0.0100994688
6.9372820854,-0.0011284245,-0.0015814053,0.0112607768,0.0649250373,0.0130714606,-0.0037409049
6.9472899437,-0.0069539142,-0.0083948718,0.0137423566,0.0424170680,0.0204606690,0.0057884175
6.9573030472,-0.0061514569,-0.0035366165,0.0110846451,0.0135976709,0.0160539337,0.0164607689
6.9672040939,-0.0083798962,0.0032166494,0.0110316565,-0.0141540645,0.0116549255,0.0271325894
6.9772748947,-0.0067532849,0.0011953963,0.0167113226,-0.0301709808,0.0094556864,0.0345954299
6.9872732162,-0.0022471142,0.0011277450,0.0213319343,-0.0354799926,0.0072497902,0.0314262696
6.9973249435,-0.0025457633,0.0029572500,0.0219358485,-0.0493364185,0.0060455087,0.0282571092
7.0073828697,-0.0018227590,0.0076807393,0.0135948351,-0.0557234772,0.0059507010,0.0229502283
7.0172591209,-0.0009341431,0.0016644849,0.0023888636,-0.0461667292,0.0134762619,0.0197088942
7.0272779465,0.0018529104,0.0016044630,0.0001572060,-0.0194770582,0.0168073438,0.0101071335
7.0372681618,0.0066258418,0.0065428270,0.0031798172,0.0275057629,0.0192145742,-0.0016306161
7.0472679138,0.0037561166,0.0066408766,0.0114888242,0.0681171045,0.0183509104,-0.0144020719
7.0572838783,0.0008429097,0.0156061305,0.0250311177,0.1149578467,0.0378649570,-0.0241204780
7.0672202110,0.0011411713,0.0187187456,0.0138238957,0.1853297353,0.0522036813,-0.0359489098
7.0773029327,-0.0014270736,0.0141198887,0.0120365312,0.2268783897,0.0631924197,-0.0381727815
7.0872888565,-0.0040662182,0.0203077458,0.0086081317,0.2544705868,0.0836947635,-0.0404497832
7.0972661972,-0.0027197492,0.0167755745,0.0007084894,0.2928692400,0.0872005522,-0.0405005179
7.1072359085,-0.0043029678,0.0104101552,0.0048815296,0.3185759485,0.0798451677,-0.0489699021
7.1172618866,0.0000430154,0.0021831049,0.0128602674,0.2718686163,0.0505719632,-0.0551218055
7.1272459030,0.0034813690,-0.0090743648,0.0190645736,0.1759878993,0.0252935067,-0.0495789684
7.1372761726,0.0098461313,-0.0175608732,0.0144492080,0.0725980103,0.0042366902,-0.0440604985
7.1472120285,0.0081555648,-0.0047683464,0.0135644367,-0.0158492997,-0.0187921971,-0.0321630910
7.1572570801,0.0035297084,-0.0019176947,0.0089366129,-0.1033844799,-0.0246732552,-0.0150629347
7.1671900749,0.0075875330,-0.0128402459,0.0016702699,-0.1878287941,-0.0197826251,0.0083369305
7.1772751808,0.0025442648,-0.0024990784,-0.0094418833,-0.2647913396,-0.0127689252,0.0232185405
7.1872038841,-0.0095458226,0.0164801739,-0.0153745720,-0.3086014092,-0.0119390842,0.0349300578
7.1972112656,-0.0080459313,0.0199510716,-0.0134811709,-0.3065495789,-0.0064753424,0.0476443917
7.2071971893,-0.0085163312,0.0156511925,-0.0035232019,-0.2714048922,0.0055078166,0.0422301851
7.2172279358,-0.0070824814,0.0182865523,0.0088485768,-0.2073802352,0.0091883056,0.0389714018
7.2271909714,-0.0034597111,0.0112247718,0.0102827242,-0.1283725053,0.0118370857,0.0272127502
7.2372441292,-0.0016570283,0.0023047579,0.0095963767,-0.0408200324,0.0145385955,0.0143874995
7.2471742630,0.0060731578,0.0013700975,0.0106762936,0.0339777768,0.0107238833,0.0005489148
7.2571821213,0.0061287093,0.0033943309,0.0083511164,0.0788866654,0.0066817384,-0.0132691627
7.2671642303,0.0053942013,0.0025620712,0.0053043650,0.0907310694,-0.0008171907,-0.0259775016
7.2772197723,0.0067107487,-0.0041119801,0.0022790718,0.0800728351,-0.0009418266,-0.0312827826
7.2872629166,0.0041578221,-0.0108332979,-0.0029115390,0.0533301719,0.0042316299,-0.0270480923
7.2971639633,0.0054564881,-0.0107475268,-0.0113925645,0.0084420573,0.0124027412,-0.0302545372
7.3071498871,0.0066625881,-0.0107014524,-0.0124943564,-0.0439335331,0.0163727142,-0.0185574014
7.3171839714,0.0028918195,-0.0127153145,-0.0121087739,-0.0791606233,0.0129699949,-0.0100133149
7.3270621300,0.0018765138,-0.0040018903,-0.0091681788,-0.1185519695,-0.0022433135,-0.0035128053
7.3372111320,0.0027503776,0.0036853207,-0.0046755983,-0.1558604687,-0.0120762372,0.0050750906
7.3471379280,0.0075276899,0.0035475148,-0.0003784013,-0.1717955023,-0.0239017382,0.0115372501
7.3572082520,0.0112738414,-0.0024602162,0.0078193834,-0.1547770947,-0.0183834005,0.0168028511
7.3670568466,0.0091792746,0.0012637628,0.0065420554,-0.0939534158,-0.0136831887,0.0114179412
7.3771481514,0.0022494900,0.0020545376,0.0009241986,-0.0480322726,-0.0175706036,0.0156624857
7.3871192932,-0.0009178711,0.0097546233,0.0006213474,-0.0034051482,0.0042231083,0.0239891261
7.3971800804,-0.0039316607,-0.0001251446,-0.0117726037,0.0509999022,0.0089108041,0.0228579491
7.4072089195,-0.0090109902,-0.0001598941,-0.0121261189,0.0777303204,0.0048151286,0.0196786672
7.4171471596,-0.0043865037,0.0009829653,0.0033750224,0.0874001235,-0.0005056008,0.0133306226
7.4271078110,0.0053397822,-0.0163932182,0.0161304753,0.0906353295,-0.0016129432,0.0058988063
7.4370980263,0.0121461553,-0.0162471868,0.0188922565,0.0736732632,-0.0114591829,-0.0046469122
7.4473190308,0.0142006679,-0.0142406570,0.0116627505,0.0512523726,-0.0084807035,-0.0110249165
7.4571800232,0.0085693700,-0.0181655623,0.0002346325,0.0245721582,-0.0097454377,-0.0099363495
7.4670710564,-0.0020339084,-0.0172901489,-0.0085243890,0.0041723442,0.0029586393,-0.0057549207
7.4771151543,-0.0020615947,-0.0124010788,-0.0085470388,-0.0108611993,0.0103981793,0.0027056758
7.4871168137,-0.0030909968,-0.0075532543,-0.0106076906,-0.0151973590,0.0168137345,0.0069166664
7.4971399307,-0.0013302757,-0.0046018111,-0.0009309960,-0.0120132836,0.0179322623,0.0100954156
7.5070681572,0.0022966373,0.0032279147,0.0087150028,-0.0173428021,0.0136885140,0.0186257865
7.5171232224,-0.0009648693,0.0148604168,0.0133354953,-0.0216203686,0.0126288431,0.0228823181
7.5270757675,-0.0022130203,0.0176945589,0.0142038157,0.0018569920,0.0138701415,0.0217954814
7.5371079445,-0.0004795982,0.0177102350,0.0202976149,0.0361007154,0.0055403076,0.0165131018
7.5470743179,0.0004333066,0.0119203581,0.0228864830,0.0820666105,0.0025804699,0.0037514993
7.5570359230,0.0092895729,0.0052868379,0.0249889176,0.1215242669,0.0123926215,-0.0090868007
7.5670452118,0.0085015101,0.0064013852,0.0165689867,0.1535173655,0.0210814513,-0.0219141841
7.5770950317,0.0118363900,-0.0031488882,0.0008390832,0.2068594098,0.0299332663,-0.0347564779
7.5870399475,0.0143610043,-0.0164856054,-0.0104906866,0.2506550848,0.0333240032,-0.0528696999
7.5971012115,0.0119139953,-0.0150626646,-0.0069116666,0.2804984748,0.0420346707,-0.0614472106
7.6070380211,0.0095860763,-0.0174914934,-0.0031305265,0.2922800481,0.0388830826,-0.0656845644
7.6170911789,0.0061797607,-0.0091730701,0.0034798670,0.2742019594,0.0291534923,-0.0624227263
7.6270251274,-0.0002298249,0.0009640707,0.0038063216,0.2186508179,0.0278003402,-0.0453768969
7.6370859146,-0.0028753770,0.0012321724,0.0015518951,0.1299907267,0.0251965672,-0.0198014956
7.6469960213,-0.0097276764,0.0091223968,0.0042410777,0.0403218269,0.0172030888,0.0015607828
7.6570758820,-0.0118847983,0.0158971213,0.0061373399,-0.0451348834,0.0156685747,0.0250052549
7.6670179367,-0.0122088687,0.0117894663,0.0044589327,-0.1134508178,0.0088727213,0.0420952924
7.6770639420,-0.0097500877,0.0075756563,0.0012038039,-0.1668240428,0.0021961762,0.0602391437
7.6869730949,-0.0054552746,0.0003707660,0.0004970717,-0.2009556442,-0.0044079307,0.0688049346
7.6970357895,-0.0002652598,-0.0019886242,-0.0014433574,-0.2126976401,-0.0065890597,0.0741383135
7.7069883347,0.0009990738,-0.0024214732,-0.0014744115,-0.2040567547,-0.0172464978,0.0699518248
7.7170481682,0.0023112702,-0.0027985321,0.0014425205,-0.2029218525,-0.0247377045,0.0668080971
7.7269840240,0.0066925990,-0.0080308067,0.0005159664,-0.1964935064,-0.0226593725,0.0540414341
7.7370357513,0.0053164172,-0.0074009644,-0.0032534313,-0.1666117907,-0.0140467091,0.0348443054
7.7468800545,0.0040625739,0.0011675609,-0.0017448973,-0.1163941547,-0.0127438912,0.0167401358
7.7569990158,0.0068948078,0.0030430211,0.0012482691,-0.0811691880,-0.0062005045,-0.0003268656
7.7669801712,0.0049845385,0.0059073223,0.0015808630,-0.0524256863,0.0078162448,-0.0121241370
7.7771310806,0.0002578007,0.0116855158,-0.0075443103,-0.0129832067,0.0166225191,-0.0175189003
7.7867789268,-0.0024904800,0.0185278915,-0.0152865360,0.0275809988,0.0190193653,-0.0239371210
7.7967290878,-0.0003543986,0.0186971687,-0.0088775465,0.0691777095,0.0236071926,-0.0250583105
7.8070149422,0.0007651257,0.0179594420,0.0046835230,0.0926817060,0.0216417797,-0.0261241086
7.8170571327,0.0029145884,0.0191448592,0.0086236885,0.1044843048,0.0142520405,-0.0260846913
7.8269243240,0.0012428568,0.0076151146,0.0117128184,0.1162786484,0.0058383150,-0.0207264125
7.8369922638,0.0023716795,0.0077702058,0.0108472994,0.1056631505,-0.0048534777,-0.0110864360
7.8468232155,0.0034645605,0.0049457802,0.0068204091,0.0704553574,-0.0103971139,-0.0025267699
7.8569111824,0.0005525159,0.0049546016,0.0023871351,0.0341863036,-0.0159655176,0.0039082263
7.8668937683,0.0005453037,0.0049371375,-0.0034010720,-0.0074154697,-0.0215858519,0.0092856819
7.8769168854,0.0025097537,-0.0019663917,-0.0094897458,-0.0416441485,-0.0122498749,0.0071243932
7.8869838715,0.0044623422,-0.0137504088,-0.0090050409,-0.0684131756,-0.0038702386,0.0113383131
7.8969078064,0.0072829830,-0.0128493058,-0.0077255084,-0.0683958679,-0.0039176429,0.0049608406
7.9069099426,0.0033058035,-0.0090619670,-0.0074329092,-0.0587999597,-0.0017239971,0.0028151318
7.9168872833,-0.0006639553,-0.0042808400,-0.0080091069,-0.0448901393,-0.0058865175,0.0038967747
7.9269509315,-0.0026726020,0.0024769558,-0.0113233039,-0.0149980215,-0.0046228478,-0.0003818597
7.9401268959,-0.0046653342,0.0083784712,-0.0043968870,0.0469855890,-0.0106130959,-0.0067594647
7.9481058121,-0.0017886056,0.0095626367,0.0158425253,0.0961086601,-0.0134304538,-0.0057131089
7.9577240944,0.0040269899,0.0146926297,0.0286043566,0.1195712388,-0.0111063141,-0.0057470640
7.9675030708,0.0022126841,0.0138359917,0.0210663360,0.1494985074,-0.0141175501,-0.0099980021
7.9774580002,0.0004246639,0.0130293025,0.0157228988,0.1676536798,-0.0150472596,-0.0100039933
7.9874529839,0.0044824290,0.0054662479,0.0182872098,0.1504840255,-0.0044830320,-0.0089981183
7.9967122078,0.0037020850,-0.0099487649,0.0226153415,0.1290736645,0.0028348020,-0.0090315407
8.0068216324,0.0028544473,-0.0117876874,0.0149262240,0.0959335566,0.0079406146,-0.0069167241
8.0166778564,0.0010286974,-0.0156548955,0.0048822449,0.0457259119,0.0107947243,-0.0026504735
8.0266780853,0.0001247929,-0.0196084715,-0.0057105138,-0.0151206590,0.0092916358,0.0016513306
8.0367317200,0.0021190452,-0.0245733596,-0.0129553387,-0.0684663057,0.0056793247,0.0027755839
8.0466957092,0.0010734008,-0.0276052691,-0.0070193722,-0.1121325642,-0.0085073346,0.0082100304
8.0567731857,0.0038365829,-0.0238070227,0.0033964801,-0.1471969336,-0.0290666707,0.0104922261
8.0666608810,0.0084024472,-0.0053741084,0.0182948392,-0.1726841927,-0.0463372692,0.0138091939
8.0766887665,0.0052199173,0.0051186932,0.0269778650,-0.2099360973,-0.0636371672,0.0245722253
8.0866403580,-0.0057944846,0.0144714369,0.0265159886,-0.2249142379,-0.0636622012,0.0352067612
8.0966567993,-0.0099320607,0.0130770458,0.0174442809,-0.2015679032,-0.0484832451,0.0393421166
8.1066665649,-0.0131733017,0.0107590808,0.0077853487,-0.1612244695,-0.0245941598,0.0465957671
8.1166353226,-0.0126600461,0.0153771890,0.0055727051,-0.0921778977,0.0165543426,0.0462805815
8.1266460419,-0.0061387909,0.0103649748,-0.0032903862,0.0357257426,0.0473063961,0.0268688016
8.1366863251,-0.0023380113,-0.0002829181,-0.0041027977,0.1445981562,0.0565166734,0.0044186213
8.1466426849,0.0091995997,0.0059644235,0.0145415356,0.2266951650,0.0762174055,-0.0159518979
8.1568384171,0.0183738582,-0.0189612843,0.0155723980,0.3142591119,0.0851645619,-0.0479388572
8.1667890549,0.0218210034,-0.0164369084,0.0161196273,0.3667920828,0.0682340488,-0.0754879341
8.1768436432,0.0186216645,-0.0089829909,0.0157228392,0.3520408571,0.0508835539,-0.0913012475
8.1867446899,0.0137911839,-0.0220504738,0.0131773641,0.3190988600,0.0356020704,-0.0986158848
8.1967945099,0.0077010798,-0.0009938823,0.0119273355,0.2583875656,0.0149226245,-0.0867517740
8.2067642212,0.0074075270,0.0072649373,0.0108902743,0.1463244259,0.0046092663,-0.0664211959
8.2168197632,0.0021869945,-0.0139965760,0.0127724102,0.0362952612,0.0018955052,-0.0344562083
8.2267646790,-0.0034271670,-0.0130402790,0.0086590340,-0.0598429888,0.0013426328,-0.0120752677
8.2368116379,-0.0093906419,-0.0015406357,0.0036782909,-0.1314805597,0.0042468105,0.0177040659
8.2468051910,-0.0107017057,-0.0008876668,0.0001706171,-0.1902932674,0.0072071794,0.0421609394
8.2567806244,-0.0093315737,-0.0012479769,0.0050396607,-0.2245762795,0.0125004789,0.0665827915
8.2667436600,-0.0120286541,-0.0007845508,0.0057769702,-0.2332131863,0.0189645048,0.0803579912
8.2768154144,-0.0109122591,0.0006919159,0.0046678470,-0.2128953934,0.0127505502,0.0856978968
8.2867641449,-0.0050166440,0.0041699065,0.0057891295,-0.1808698177,0.0108969901,0.0899371132
8.2968330383,-0.0019189907,-0.0010909187,0.0072726295,-0.1370477527,0.0068982532,0.0824951828
8.3067512512,0.0012253927,0.0005744947,0.0110268882,-0.1049228534,-0.0004438155,0.0697716624
8.3167448044,0.0054778564,0.0013482822,0.0161086004,-0.0684684366,-0.0141838621,0.0549620911
8.3267641068,0.0031880247,-0.0076386081,0.0155942729,-0.0363541730,-0.0194065869,0.0401000530
8.3367357254,0.0048054564,-0.0028423415,0.0182063859,-0.0245623644,-0.0204934236,0.0273503028
8.3467636108,0.0046472060,0.0009156717,0.0071582482,-0.0256246980,-0.0194691718,0.0230948366
8.3567256927,0.0016915904,-0.0041082250,-0.0039333417,-0.0384395644,-0.0164131951,0.0177749060
8.3668203354,-0.0004246427,-0.0013185488,-0.0082680890,-0.0374406129,-0.0089057432,0.0198503081
8.3767280579,-0.0005663825,0.0015301956,-0.0096356580,-0.0341904908,-0.0110983234,0.0102999453
8.3867292404,-0.0045648706,0.0053648008,-0.0071296408,-0.0352493636,-0.0100831268,0.0049821460
8.3967123032,0.0011586355,0.0073298467,-0.0006105614,-0.0310020223,-0.0099928454,0.0113514950
8.4067859650,0.0058613825,0.0151010407,-0.0019085121,-0.0268078074,-0.0024425180,0.0155491699
8.4167041779,0.0027775872,0.0208289288,-0.0080376575,-0.0173061825,0.0104554370,0.0154594220
8.4267177582,0.0055225897,0.0217836164,-0.0080584595,-0.0003157482,0.0212747958,0.0153773967
8.4367065430,0.0044086385,0.0168676637,-0.0050270273,0.0050192303,0.0234117173,0.0100461468
8.4467840195,0.0052355635,0.0149624599,0.0039673136,0.0125067076,0.0223826710,0.0079228086
8.4566745758,0.0071873474,0.0061999811,0.0052500651,0.0243457891,0.0128048779,0.0016001977
8.4666881561,0.0081611080,0.0023550047,0.0084972670,0.0319142267,0.0011066766,0.0016707715
8.4766931534,0.0092408760,-0.0093422877,0.0040083216,0.0351567604,-0.0031559789,0.0006354677
8.4867582321,0.0063587236,-0.0113065587,-0.0006183100,0.0299092680,-0.0128429607,-0.0024852245
8.4966888428,0.0014427708,-0.0005811201,-0.0015101148,0.0161066353,-0.0225533787,-0.0002865188
8.5066795349,-0.0044020307,-0.0006425129,-0.0035097313,-0.0063049300,-0.0248279851,0.0039934479
8.5167341232,-0.0044529629,-0.0006825672,-0.0037247848,-0.0222853627,-0.0313069224,0.0104195215
8.5266780853,-0.0016974105,0.0071059717,-0.0002223563,-0.0383032113,-0.0314126499,0.0125561757
8.5367336273,-0.0038705659,0.0148387803,0.0060759471,-0.0501287133,-0.0229174327,0.0167589113
8.5466661453,-0.0040407372,0.0205837153,0.0045656846,-0.0448428690,-0.0154222324,0.0135194408
8.5567178726,-0.0061584306,0.0253916048,0.0080379536,-0.0257003345,-0.0035847477,0.0059944140
8.5666742325,-0.0061339331,0.0185542963,0.0089692762,0.0094864154,0.0041053961,-0.0015167659
8.5766811371,0.0008032428,0.0108602894,0.0103919795,0.0585025623,0.0182989798,-0.0112054786
8.5866394043,0.0058132219,0.0149273528,0.0073898719,0.1107111722,0.0346348062,-0.0230341759
8.5967111588,0.0032853591,0.0023902906,-0.0019504738,0.1469465345,0.0476115942,-0.0380161889
8.6066322327,0.0056218314,-0.0001973258,0.0017418552,0.1779180318,0.0498979166,-0.0486765541
8.6166992188,0.0089775724,0.0002299203,0.0114693930,0.1854333431,0.0487961695,-0.0592984408
8.6266326904,0.0084928675,0.0006557954,0.0220724028,0.1705827564,0.0390258282,-0.0634742752
8.6366806030,0.0080683036,0.0048820032,0.0215720814,0.1248416379,0.0194364153,-0.0633166134
8.6466484070,0.0047681141,0.0060652746,0.0117395213,0.0704857185,0.0062540350,-0.0557564348
8.6566295624,-0.0044161570,-0.0036325799,0.0042627738,0.0096850879,-0.0058268630,-0.0386377685
8.6666202545,-0.0079881744,-0.0065410482,0.0039717243,-0.0543333106,-0.0147543121,-0.0247240849
8.6766710281,-0.0088867741,0.0002316488,0.0069940970,-0.1076652408,-0.0267691631,-0.0065482762
8.6865987778,-0.0137581425,0.0019780053,0.0046796487,-0.1440120637,-0.0269049834,0.0104762474
8.6966562271,-0.0128827887,-0.0031337487,0.0031040001,-0.1717845649,-0.0302027762,0.0253923461
8.7064332962,-0.0072843027,-0.0053574787,-0.0005764079,-0.1814696938,-0.0248428993,0.0359882675
8.7166213989,-0.0027960134,-0.0007412778,-0.0003828121,-0.1698263586,-0.0140403183,0.0380317084
8.7265844345,-0.0012352063,0.0048704995,0.0000313210,-0.1410157382,-0.0106565058,0.0326776914
8.7366580963,0.0013733910,0.0095848097,0.0037364054,-0.1058859825,0.0045035388,0.0240567699
8.7465696335,0.0051637101,0.0065393699,-0.0008809877,-0.0567972660,0.0132791866,0.0059049316
8.7566070557,0.0111302836,-0.0002594339,-0.0010123563,0.0020066611,0.0103427861,-0.0153633393
8.7665662766,0.0191306882,-0.0020022737,0.0100823930,0.0468907766,0.0115952706,-0.0345258489
8.7766294479,0.0185525231,-0.0066603767,0.0185911339,0.0842310935,0.0202984810,-0.0505443625
8.7867279053,0.0172097497,-0.0112932669,0.0147565892,0.1163629293,0.0129383029,-0.0653925538
8.7966384888,0.0100083156,-0.0032812702,0.0079266122,0.1014304608,0.0117473360,-0.0664379746
8.8065652847,0.0058908868,-0.0147947418,0.0000039625,0.0704216734,0.0168787166,-0.0632624179
8.8167772293,0.0005671786,-0.0155934440,-0.0003995610,0.0447697081,0.0167708583,-0.0526197627
8.8269872665,-0.0020890129,-0.0008163797,0.0026626873,-0.0054127714,0.0111931339,-0.0344878994
8.8365936279,-0.0037977290,-0.0047121393,0.0014258910,-0.0567502640,0.0152491275,-0.0132286819
8.8465385437,-0.0067169857,-0.0058085667,-0.0012643647,-0.0962816924,0.0129510853,0.0038120861
8.8565979004,-0.0059193862,-0.0001152502,-0.0042529418,-0.1197653189,0.0064963824,0.0198045000
8.8667383194,-0.0042320681,-0.0051983939,-0.0025440764,-0.1400399506,0.0010954915,0.0315399878
8.8765916824,0.0051924395,-0.0112029659,0.0030764628,-0.1357380301,-0.0041855569,0.0347572193
8.8865251541,0.0038298178,-0.0055618035,0.0057565854,-0.1090619415,-0.0029104352,0.0347303227
8.8965578079,0.0045020389,-0.0008542882,0.0039168284,-0.0663411021,-0.0026451845,0.0272628181
8.9067373276,0.0033723521,-0.0097798454,0.0015303779,-0.0343213864,0.0007452860,0.0197817311
8.9165725708,0.0021604109,-0.0039924728,0.0042245672,-0.0098655773,0.0126842372,0.0186237898
8.9264736176,0.0020596790,-0.0030666934,-0.0024600935,0.0306456313,0.0235856213,0.0068385024
8.9364919662,0.0000829803,-0.0010859119,-0.0029021215,0.0648520738,0.0226734877,-0.0059286915
8.9467630386,0.0030519473,-0.0048479186,-0.0001114917,0.0840529278,0.0238998719,-0.0048876619
8.9565277100,0.0050798464,-0.0105516659,0.0037907052,0.0990969911,0.0143433865,-0.0101440763
8.9665260315,0.0042223739,-0.0104081975,0.0056953118,0.0917269588,0.0035621112,-0.0143185817
8.9764814377,0.0053434777,-0.0073809968,-0.0003890109,0.0671502426,0.0055320519,-0.0121915145
8.9866247177,-0.0013268484,-0.0083455788,-0.0066703870,0.0543170050,0.0075885444,-0.0100711063
8.9964742661,-0.0011835290,-0.0122301327,-0.0150417397,0.0287406705,-0.0000371509,-0.0036290521
9.0065078735,-0.0031477404,-0.0122127282,-0.0119923064,0.0009852070,-0.0023349263,0.0027795788
9.0166082382,-0.0022768569,-0.0092838751,-0.0091814706,-0.0214003958,-0.0088596707,0.0102754449
9.0266408920,-0.0024845195,-0.0005572187,-0.0056537702,-0.0373721719,-0.0174518265,0.0199038368
9.0364589691,0.0011204587,0.0042521013,-0.0012117338,-0.0448412709,-0.0227451269,0.0326923355
9.0465250015,0.0046795416,0.0012562526,0.0081305793,-0.0405469239,-0.0269598458,0.0359038413
9.0564508438,0.0052537727,0.0060383929,0.0145215681,-0.0373487324,-0.0269249585,0.0369632468
9.0665159225,0.0078832312,0.0078513874,0.0092180064,-0.0362954512,-0.0247883033,0.0358862653
9.0764503479,0.0076806652,-0.0000974284,0.0059837983,-0.0298926812,-0.0226439256,0.0305546187
9.0864858627,0.0035801339,-0.0041689025,-0.0001581025,-0.0182216447,-0.0140033010,0.0304904357
9.0964336395,-0.0005663229,-0.0062188255,0.0016917277,0.0073472322,-0.0063584298,0.0261725187
9.1064672470,-0.0008131457,-0.0052851187,0.0028663564,0.0339404941,0.0066364640,0.0218201149
9.1164197922,-0.0020337892,0.0015695347,0.0034613896,0.0893298462,0.0230548531,0.0174281616
9.1265077591,-0.0022118879,0.0026366962,0.0055919574,0.1351905465,0.0308275558,0.0099089947
9.1364192963,-0.0042832089,0.0125144375,0.0003472256,0.1960756034,0.0301385950,-0.0007528381
9.1465120316,-0.0022089076,0.0020451201,-0.0022716832,0.2516674995,0.0240649898,-0.0113761872
9.1564073563,0.0008953320,-0.0014900910,-0.0026297879,0.2678650916,0.0059224712,-0.0229569431
9.1665325165,0.0079622073,-0.0000614272,0.0028305936,0.2541626096,-0.0124165891,-0.0302651897
9.1766567230,0.0179981403,0.0043294085,0.0108998707,0.2084354609,-0.0309977308,-0.0375522636
9.1864023209,0.0222974233,0.0037343157,0.0192935150,0.1360249072,-0.0529245995,-0.0362971164
9.1963939667,0.0188484304,-0.0039009200,0.0180788320,0.0549088940,-0.0577494502,-0.0266456883
9.2064237595,0.0113621755,-0.0068744766,0.0101543358,-0.0327168293,-0.0529379174,-0.0096174367
9.2164192200,0.0007262634,-0.0070725428,0.0024078179,-0.1043859571,-0.0426317491,0.0105512151
9.2264633179,-0.0042390418,-0.0093050944,-0.0038526368,-0.1536661536,-0.0289460309,0.0306823179
9.2363672256,-0.0104800658,-0.0058127986,-0.0095895240,-0.1997359097,-0.0173479654,0.0540129393
9.2463760376,-0.0170153268,0.0005291952,-0.0127345035,-0.2297870219,-0.0066926568,0.0773374289
9.2563686371,-0.0169152208,0.0020101918,-0.0052392199,-0.2383838296,-0.0045176530,0.0890136659
9.2663993835,-0.0140418606,0.0103558553,0.0032118845,-0.2341105342,-0.0065858639,0.0932736546
9.2763719559,-0.0091803269,0.0157753490,0.0108253649,-0.2138080597,-0.0075304871,0.0900812000
9.2864303589,-0.0051252437,0.0125128282,0.0199129861,-0.1411610246,-0.0081826951,0.0730364323
9.2963151932,0.0020794082,0.0094069494,0.0258104485,-0.0726567954,-0.0227949265,0.0518342070
9.3066072464,0.0055312323,0.0141955270,0.0341416895,-0.0117353825,-0.0246247854,0.0326804854
9.3163518906,0.0093982620,0.0014664782,0.0255813282,0.0459592044,-0.0232766941,0.0135101192
9.3263788223,0.0056330073,-0.0024498450,0.0125119379,0.0897916406,-0.0231193006,-0.0077693355
9.3363151550,0.0048628855,0.0005750312,0.0046013282,0.1057820618,-0.0166688580,-0.0184486099
9.3464527130,0.0071552801,-0.0070292698,0.0027369547,0.1100247428,-0.0092452969,-0.0291236266
9.3562917709,0.0035990286,-0.0049282657,-0.0002564502,0.0940247327,-0.0093973633,-0.0322981142
9.3663368225,0.0019480096,-0.0018416392,-0.0005738449,0.0555511154,-0.0043418845,-0.0312416386
9.3763113022,0.0031762528,-0.0075742351,0.0036078978,0.0032037525,-0.0035818182,-0.0195218660
9.3863191605,0.0002667116,0.0041085137,0.0042367862,-0.0470104180,-0.0048936913,-0.0024800312
9.3963251114,-0.0008697403,0.0147289885,0.0034517336,-0.0983781293,0.0034209637,0.0155590232
9.4062929153,-0.0040427041,0.0154881729,0.0023011256,-0.1347566396,0.0075509939,0.0314935185
9.4162845612,-0.0053858054,0.0142262829,0.0009229469,-0.1550706923,0.0074825510,0.0421331078
9.4262866974,-0.0048950803,0.0159143470,0.0024138975,-0.1498125494,0.0150501896,0.0473923236
9.4362888336,-0.0014622404,0.0137632145,0.0090616038,-0.1049426943,0.0132032875,0.0409995355
9.4463329315,-0.0037289155,0.0048426045,0.0171713512,-0.0493385531,0.0060519008,0.0293207746
9.4562692642,-0.0020083678,0.0008937968,0.0228343885,-0.0023140507,0.0031221572,0.0186811797
9.4663000107,-0.0001059068,0.0008634580,0.0162371080,0.0489904173,0.0012451611,0.0027216547
9.4762744904,0.0009463238,0.0009392155,0.0101037910,0.0885119885,0.0035693017,-0.0111315763
9.4862718582,0.0040690708,0.0020409478,0.0022729922,0.1045503467,0.0057128803,-0.0249677636
9.4962854385,0.0053872275,-0.0016833292,-0.0015570832,0.1045636684,0.0088183917,-0.0356068239
9.5062589645,0.0008595990,0.0014345301,-0.0006229592,0.0982381254,0.0012424982,-0.0408652350
9.5162639618,0.0061225104,0.0016882671,0.0012047576,0.0715619028,-0.0021261342,-0.0365790129
9.5263223648,0.0015791761,0.0027678860,0.0016089964,0.0299268439,-0.0045221802,-0.0290976595
9.5362606049,0.0007778215,0.0077109588,0.0044915364,-0.0224352982,-0.0037261616,-0.0141952774
9.5463352203,0.0008559035,0.0105983866,0.0010976482,-0.0609243661,0.0003239738,-0.0056955321
9.5562534332,-0.0010725452,0.0105200661,0.0032891918,-0.0844383463,0.0012709941,0.0017531966
9.5663185120,0.0008055376,0.0124078644,0.0073107765,-0.0972470865,0.0011719244,0.0017627836
9.5761508942,0.0046584117,0.0113709224,0.0113673499,-0.0823356509,0.0055541559,0.0006611671
9.5863113403,0.0056829262,0.0015652431,0.0147189787,-0.0514376573,0.0143071674,-0.0036667357
9.5962209702,0.0076710987,0.0015759720,0.0154523542,-0.0098413425,0.0209874418,-0.0101135829
9.6062698364,0.0048802304,0.0025428189,0.0097442558,0.0371325575,0.0223741494,-0.0154673355
9.6162214279,0.0031310129,-0.0013010250,0.0025593925,0.0786985159,0.0312259644,-0.0176776275
9.6262321472,0.0004021334,-0.0050991522,-0.0013400626,0.1063996479,0.0388945341,-0.0209338740
9.6362161636,-0.0043348265,0.0009026183,-0.0012159062,0.1160557419,0.0336118899,-0.0219666474
9.6462221146,-0.0022393060,-0.0018203603,0.0028892446,0.1075661108,0.0250503588,-0.0155308526
9.6563243866,-0.0021082652,-0.0065638172,0.0048227594,0.0788315386,0.0120541323,-0.0101175774
9.6662187576,0.0008983421,-0.0074259983,0.0063471482,0.0320139639,-0.0075190356,-0.0067707831
9.6762037277,0.0028740573,-0.0054316865,0.0072868750,-0.0266473517,-0.0164560713,0.0018300284
9.6862564087,0.0048576999,-0.0074696289,0.0018921185,-0.0713810027,-0.0306509864,0.0072652739
9.6964168549,0.0038474309,-0.0086064683,-0.0029619050,-0.1044382900,-0.0372649468,0.0137055963
9.7062616348,0.0008855569,-0.0175721981,-0.0013075185,-0.1406876445,-0.0418386608,0.0116357878
9.7162265778,0.0007359194,-0.0157932974,0.0030376005,-0.1503361464,-0.0407587476,0.0211950708
9.7263469696,0.0024915743,-0.0072346078,-0.0033686471,-0.1450518966,-0.0343051106,0.0211495310
9.7413120270,-0.0025535715,-0.0045557963,-0.0057905628,-0.1302194148,-0.0203046054,0.0199857298
9.7488040924,-0.0057040346,-0.0027795779,-0.0030113172,-0.0918597803,-0.0135588180,0.0241647623
9.7565336227,-0.0070192409,0.0049253954,0.0060200975,-0.0481764823,-0.0025533054,0.0219391584
9.7662878036,-0.0053239358,0.0087956442,0.0106646111,-0.0044766702,0.0063168854,0.0197263379
9.7760210037,-0.0054976535,0.0077882661,0.0118425181,0.0360225514,0.0141122248,0.0196472425
9.7860050201,-0.0017412497,0.0078220023,0.0085491231,0.0733792484,0.0175439734,0.0121621620
9.7960014343,0.0001310514,0.0020445241,0.0104455044,0.0925778449,0.0198217742,0.0110711977
9.8060331345,0.0039337683,-0.0046546208,0.0163679402,0.0990296155,0.0145186223,0.0100386897
9.8163490295,0.0078326268,-0.0133238779,0.0164535325,0.0948098376,0.0101728756,0.0058210418
9.8261880875,0.0058745849,-0.0191185214,0.0153338006,0.0746225417,-0.0017309213,0.0069747232
9.8359823227,0.0097304983,-0.0200461484,0.0138614466,0.0276891217,-0.0074074492,0.0102299051
9.8459806442,0.0057745087,-0.0172036625,0.0069475458,-0.0245727487,-0.0131465606,0.0113660097
9.8561296463,0.0037101018,-0.0114698755,0.0034632373,-0.0608143806,-0.0198316276,0.0124975862
9.8662004471,0.0035946178,-0.0086825239,-0.0022560072,-0.0939033553,-0.0221797377,0.0178478770
9.8761291504,0.0034099924,-0.0088211047,0.0025139141,-0.1195101812,-0.0244972203,0.0200055689
9.8861570358,-0.0006754590,-0.0051226960,0.0022259641,-0.1152794883,-0.0180880558,0.0157114901
9.8961029053,0.0010893153,-0.0013559805,0.0031497169,-0.0875663608,-0.0135883801,0.0167248212
9.9061946869,-0.0011308683,0.0083248271,0.0112040928,-0.0427797176,-0.0078980029,0.0166566446
9.9161224365,-0.0003395272,0.0102247251,0.0129658272,0.0019211750,0.0074284882,0.0186510868
9.9261493683,-0.0005614651,0.0140959872,0.0113032153,0.0530120581,0.0249334462,0.0195642859
9.9361181259,-0.0026810360,0.0180030130,0.0062750862,0.1084117964,0.0402777791,0.0141150579
9.9460973740,-0.0009343816,0.0220271014,0.0085649183,0.1361321062,0.0468504652,0.0076787304
9.9561061859,0.0009084748,0.0182653330,0.0091026714,0.1424708366,0.0543914698,0.0086871358
9.9661302567,0.0077237296,0.0086852564,0.0077647255,0.1414718926,0.0468840189,0.0066117346
9.9760875702,0.0077153253,-0.0038577663,0.0111549785,0.1244980916,0.0360207185,0.0013814191
9.9861402512,0.0117182536,-0.0222456791,0.0123966625,0.0914756954,0.0272240322,0.0025239154
9.9960880280,0.0117270751,-0.0241362192,0.0111646345,0.0478419289,0.0129532162,-0.0016013214
10.0061473846,0.0097485585,-0.0182844736,0.0083679846,-0.0118829207,0.0060875872,-0.0004527001
10.0160551071,0.0029012370,-0.0145278918,0.0000903892,-0.0673176795,-0.0060268664,0.0081644906
10.0262346268,-0.0020482731,-0.0118101584,-0.0087000439,-0.1163946837,-0.0116959373,0.0146098733
10.0360326767,-0.0061950875,-0.0042156326,-0.0062089874,-0.1516157836,-0.0151149035,0.0210283566
10.0460567474,-0.0104494588,0.0052817715,-0.0020299864,-0.1719133407,-0.0173186697,0.0316807367
10.0560531616,-0.0108752744,0.0147725595,-0.0008750272,-0.1708500683,-0.0204364322,0.0412623882
10.0660915375,-0.0123684602,0.0242433809,0.0014088439,-0.1453447044,-0.0094876438,0.0486103147
10.0760297775,-0.0128493803,0.0278992318,-0.0007353139,-0.0898843780,-0.0026672888,0.0464041531
10.0861291885,-0.0084276991,0.0277843140,0.0036756087,-0.0227388963,0.0117100524,0.0420144647
10.0960416794,-0.0059103263,0.0267818831,0.0097335270,0.0433530360,0.0260429196,0.0333762355
10.1061058044,-0.0051502180,0.0180182718,0.0115577271,0.0978176072,0.0284837056,0.0195112862
10.1160488129,0.0005743312,0.0171546005,0.0089440634,0.1373224109,0.0318968147,0.0077747367
10.1261138916,0.0074846554,0.0027239574,0.0095584681,0.1512928158,0.0254831221,-0.0049421238
10.1360168457,0.0135378046,-0.0058123814,0.0092242649,0.1556978226,0.0157508664,-0.0218794290
10.1460199356,0.0197235756,-0.0094593512,0.0068307207,0.1344423294,0.0101153515,-0.0367015190
10.1560192108,0.0142902536,-0.0151755558,0.0000710177,0.0831491873,0.0150997248,-0.0324488506
10.1660680771,0.0098269386,-0.0151108848,-0.0121494839,0.0234749354,0.0049645319,-0.0387158021
10.1760053635,0.0023719179,-0.0151061760,-0.0152197788,-0.0363054387,0.0024273384,-0.0312204659
10.1860704422,-0.0013713433,-0.0092723714,-0.0110109160,-0.0897324532,0.0032100414,-0.0163147543
10.1960096359,-0.0033875001,0.0052744998,-0.0062865331,-0.1249831095,-0.0001306278,-0.0003336568
10.2060680389,-0.0065244925,0.0197450779,-0.0038400602,-0.1580646336,-0.0066812048,0.0135430098
10.2160043716,-0.0107069211,0.0234300159,0.0033176232,-0.1645265371,-0.0055347141,0.0284133032
10.2260599136,-0.0090329545,0.0202921294,0.0048811124,-0.1176367775,0.0044380249,0.0272534955
