0.0000000000,-0.0031747750,-0.0441383645,0.0129410056,0.1095659509,-0.0730636418,-0.0800439045
0.0098440647,-0.0072742635,-0.0072824289,0.0011173513,0.1681264639,-0.0659527332,-0.0514463484
0.0198010206,-0.0099132145,0.0059880684,0.0164513011,0.0496048778,-0.0866316482,0.0125139914
0.0300589800,0.0328995064,0.0047640870,0.0523573793,0.0835836157,-0.0691549182,0.0315247029
0.0399950743,0.0097660935,-0.0088928873,0.0225756187,0.0887681246,-0.0572119765,0.0484414957
0.0500229597,0.0001385874,0.0400663689,0.0470603742,0.0233158804,-0.0285883192,0.0801733285
0.0600030422,0.0026559301,0.0076366137,0.0219846983,0.0249581188,0.0218684617,0.1053459272
0.0746420622,-0.0100372368,0.0209590271,-0.0274546128,0.0821726769,0.0694378465,0.1166838035
0.0800839663,-0.0209475085,0.0423042849,-0.0813488960,0.0850985572,0.1172423810,0.0791860968
0.0899369717,-0.0208687410,0.0264757946,-0.1043779254,-0.0902160034,0.1604942530,0.0460939221
0.0999280214,-0.0159829333,-0.0142360264,-0.0768829584,-0.2290376723,0.1784005463,0.0152629064
0.1099699736,0.0056864982,-0.0228216574,-0.0577576719,-0.2222543359,0.1513154060,-0.0334361903
0.1199400425,0.0120180761,-0.0048679044,-0.0288995486,-0.1598266512,0.0971075594,-0.0533089638
0.1301120520,0.0138996011,-0.0156880543,0.0241937060,-0.0323160887,0.0371997468,-0.0498223528
0.1400749683,0.0199527815,-0.0191119835,0.0520159639,0.1142196879,-0.0011521676,-0.0422375351
0.1499639750,0.0075213080,-0.0027250578,0.0571323670,0.2040044367,-0.0196052101,-0.0315566622
0.1599609852,-0.0038633428,0.0069318484,0.0364006795,0.2466849238,-0.0296940636,-0.0007144623
0.1699630022,0.0044940179,0.0331755951,0.0862565041,0.2808215916,-0.0356520861,0.0216105506
0.1799609661,0.0048036641,0.0285833552,0.0832248330,0.2925448120,-0.0396955647,0.0386289507
0.1899250746,0.0011006064,0.0230509713,0.0861535072,0.2508026958,-0.0303084552,0.0492211394
0.2000219822,-0.0044218833,0.0204623416,0.0731303692,0.2271092236,-0.0090242056,0.0597231835
0.2098990679,-0.0029166869,0.0277834609,0.0318157114,0.2482379377,0.0136747155,0.0701851472
0.2199540138,-0.0111796195,0.0413689688,-0.0110618444,0.1637026966,0.0533116050,0.0317393504
0.2299129963,-0.0185437277,0.0353998020,-0.0465220176,-0.0468305834,0.0952313617,-0.0002571973
0.2399420738,-0.0112620676,-0.0054945280,-0.0496637188,-0.1696024388,0.1089791283,-0.0310687721
0.2499070168,0.0030600645,-0.0267436430,-0.0546737276,-0.2506000996,0.1101178974,-0.0745776370
0.2599179745,0.0058759218,-0.0179011151,-0.0508405529,-0.2307611406,0.1856787056,-0.1303234547
0.2699069977,-0.1032033488,-0.0690376088,-0.0294003468,-0.1535896510,0.3147733212,-0.2278920859
0.2799040079,-0.1702145338,-0.0877470896,-0.0160533767,-0.0571051948,0.0920134634,-0.1170912683
0.2899230719,-0.0292288288,-0.0265272185,0.0254476089,0.0377004147,-0.0507231802,-0.0206166655
0.3001630306,0.0456867591,0.0006201933,0.0348567404,0.0867091045,-0.0501029342,0.0080316253
0.3099560738,-0.0116128558,-0.0067958762,0.0299023408,0.1069121137,-0.0528806113,0.0399072655
0.3198840618,0.0194187686,0.0102707213,0.0388521589,0.1195807680,-0.0471859723,0.0696092322
0.3298859596,0.0000264264,0.0150233572,0.0387011804,0.0809710547,-0.0334086418,0.0907946825
0.3398910761,-0.0051668519,0.0279061273,0.0364288725,0.0508708060,-0.0153055368,0.1098199040
0.3498979807,0.0006652094,0.0436849669,0.0088167218,0.0133391470,0.0099553447,0.0979959965
0.3598860502,0.0036137470,0.0576071218,-0.0171149354,-0.0945837274,0.0355682969,0.0660334080
0.3699519634,0.0024263628,0.0385252312,-0.0296235662,-0.2718607783,0.0574381724,0.0341436528
0.3798600435,0.0058074212,0.0003061960,-0.0278064590,-0.3762750626,0.0488113947,-0.0050351750
0.3898769617,0.0130154854,-0.0107549960,-0.0300517660,-0.3877367675,0.0270744115,-0.0367579535
0.3998349905,0.0169900432,-0.0102515751,-0.0118263336,-0.3297352493,-0.0163034238,-0.0375811309
0.4098900557,0.0220492259,-0.0226024911,0.0093753366,-0.2108645290,-0.0603278726,-0.0437530056
0.4198499918,0.0185425654,-0.0257519409,0.0108636646,-0.1166781113,-0.0979157314,-0.0244504176
0.4298859835,0.0116719818,-0.0096030170,0.0215539355,-0.0322282054,-0.1195528507,-0.0063084317
0.4398189783,0.0205297247,-0.0055048992,0.0179216284,0.0276311338,-0.1370900273,0.0139505006
0.4498560429,0.0205182210,0.0059502791,0.0355653204,0.0746638924,-0.1494518816,0.0256841220
0.4598059654,0.0186840668,0.0079412526,0.0431678928,0.1205424368,-0.1521837562,0.0394800939
0.4699220657,0.0195498839,0.0138705438,0.0393106379,0.1267944723,-0.1381411701,0.0510709733
0.4797840118,0.0093315309,0.0308718756,0.0150831370,0.1167125404,-0.0888692364,0.0720044822
0.4897990227,-0.0002086394,0.0543573573,-0.0280677062,0.1258234829,-0.0289371945,0.0726718754
0.4997969866,-0.0057089413,0.0650487021,-0.0771736503,0.0559617095,0.0387129560,0.0478486791
0.5097830296,-0.0081304396,0.0489447787,-0.0941044092,-0.0702228546,0.0791293532,0.0136781922
0.5198050737,-0.0008560800,0.0072852443,-0.0851064920,-0.1258654743,0.1072954759,-0.0172761288
0.5297679901,0.0073306924,-0.0052410294,-0.0649762154,-0.0991100371,0.1104545221,-0.0470622554
0.5398330688,0.0147824949,-0.0029346277,-0.0486379229,-0.0519382618,0.0925013497,-0.0639754534
0.5497499704,0.0175460353,-0.0264936015,0.0006385472,0.0370171778,0.0525025353,-0.0722773299
0.5597699881,0.0284561887,-0.0425682589,0.0324796475,0.1387115866,0.0169682465,-0.0699931309
0.5698070526,0.0274550691,-0.0112723643,0.0427982844,0.2156897187,-0.0047266623,-0.0518455580
0.5797630548,0.0177464560,-0.0038214256,0.0572779812,0.2649474144,-0.0329939872,-0.0272617843
0.5897459984,0.0149051910,-0.0028507640,0.0685036778,0.2799252868,-0.0444714129,-0.0080747735
0.5998179913,0.0100479936,0.0049930285,0.0748802423,0.2639978528,-0.0594548881,0.0037183694
0.6097279787,0.0050462550,0.0104315942,0.0795686245,0.1924339384,-0.0598812625,0.0186445881
0.6197160482,0.0066884672,0.0123099154,0.0716429353,0.1250753999,-0.0506944209,0.0292570200
0.6297099590,0.0074302619,0.0222274140,0.0390673317,0.0661811903,-0.0328805372,0.0408689305
0.6397299767,0.0030885555,0.0265563801,0.0083330302,-0.0589763336,0.0045139743,0.0279676486
0.6497360468,-0.0063545043,0.0232371166,-0.0101147862,-0.1660583019,0.0432765484,0.0331030227
0.6597870588,-0.0039339894,0.0109619563,-0.0144779654,-0.2206227481,0.0682844296,0.0064162854
0.6697469950,-0.0110703344,0.0148176020,-0.0313967429,-0.3080817461,0.0684769750,-0.0168964956
0.6796990633,-0.0062928582,-0.0018134047,-0.0271038990,-0.3048139215,0.0599655136,-0.0147165647
0.6896940470,0.0065373397,-0.0199080035,-0.0143846245,-0.1912772506,0.0200750902,-0.0325978287
0.6998900175,0.0106476313,-0.0189465210,-0.0047411891,-0.1270262152,-0.0050696777,-0.0314173810
0.7097350359,0.0126447147,-0.0232459232,0.0331851877,-0.0585422330,-0.0269483440,-0.0270737652
0.7196600437,0.0167276040,-0.0290053412,0.0535811223,0.0195071623,-0.0455084480,-0.0185097046
0.7297030687,0.0062499410,-0.0081912810,0.0520188846,0.0728950202,-0.0514174700,-0.0078847576
0.7396819592,-0.0003617339,0.0011231373,0.0451144017,0.1037924811,-0.0478914455,0.0016328483
0.7496540546,-0.0050715143,0.0145066446,0.0365515389,0.1153740361,-0.0296051148,0.0046933526
0.7598899603,-0.0108651454,0.0297597721,0.0249807853,0.0682232976,-0.0064766258,0.0024525688
0.7697640657,-0.0090295756,0.0474692658,0.0029080536,-0.0462292433,0.0256890338,-0.0072376085
0.7796310186,-0.0042382115,0.0499122217,-0.0250084978,-0.1478132457,0.0504761413,-0.0168906357
0.7897089720,0.0017743177,0.0284416154,-0.0431525670,-0.2108228505,0.0668079704,-0.0498866700
0.7996180058,-0.0009777182,0.0212512687,-0.0504330955,-0.2705498338,0.0672684312,-0.0668456778
0.8096250296,0.0033039965,0.0082117384,-0.0461913906,-0.2640458643,0.0597372837,-0.0784876868
0.8196350336,0.0048408424,-0.0172665045,-0.0328249894,-0.2030485570,0.0357475281,-0.0645649508
0.8295840025,0.0022942789,-0.0237466618,-0.0099527212,-0.0833431855,0.0122091770,-0.0506848171
0.8413170576,0.0035287209,-0.0091193849,0.0061557917,0.0427729338,-0.0144330850,-0.0304139014
0.8497700691,0.0035608031,0.0089519685,0.0281879324,0.1358323097,-0.0445539691,-0.0122229140
0.8595880270,0.0154083883,0.0060848664,0.0483521856,0.2001116872,-0.0770922080,-0.0003691835
0.8695600033,0.0213704482,0.0151875680,0.0573511161,0.2398005128,-0.1013493389,0.0018851825
0.8796080351,0.0236188248,0.0145895546,0.0616315641,0.2248066515,-0.0961042494,0.0039869491
0.8895549774,0.0200271681,0.0126586026,0.0517709292,0.1563122869,-0.0741984174,0.0028303384
0.8995909691,0.0115912473,0.0102207726,0.0158743877,0.0844163820,-0.0308807697,0.0089746499
0.9095389843,-0.0027841113,-0.0005200436,-0.0226995330,0.0156913847,0.0219547488,0.0001808924
0.9196109772,-0.0164449438,0.0077345441,-0.0671201944,-0.0808034614,0.0756661817,-0.0064762114
0.9295359850,-0.0118965441,0.0089616245,-0.0789391398,-0.1161912754,0.0977826715,-0.0129692648
0.9396229982,-0.0055329138,0.0013877819,-0.0655795336,-0.1321936846,0.1028655767,-0.0289263912
0.9495279789,-0.0060102129,0.0024795006,-0.0408617817,-0.1469092518,0.0791474655,-0.0393862240
0.9595080614,0.0044708615,-0.0167436525,-0.0061808797,-0.1146041751,0.0441450067,-0.0370568894
0.9696819782,0.0169864967,-0.0229024813,0.0290554184,-0.0352808535,0.0010015306,-0.0293957759
0.9795150757,0.0121439910,-0.0199134871,0.0474828519,0.0429108851,-0.0367533043,-0.0153939398
0.9895700216,0.0123919612,-0.0144299204,0.0619675554,0.0997912139,-0.0799977109,0.0007826339
0.9995020628,0.0186000690,-0.0075838496,0.0664159060,0.1404507607,-0.0977207869,0.0157402772
1.0095289946,0.0140544539,0.0022150348,0.0622901954,0.1769043803,-0.1208705828,0.0254264604
1.0195209980,0.0104972636,0.0013099979,0.0582963862,0.1811900586,-0.1250616014,0.0318267047
1.0294960737,0.0069059050,0.0098372167,0.0410429873,0.1266053915,-0.1083649024,0.0338813327
1.0395680666,0.0003360129,0.0100535816,0.0143154291,0.0601929389,-0.0800278112,0.0337472409
1.0494450331,-0.0014605754,0.0057972143,-0.0249830466,-0.0352241285,-0.0252883956,0.0217726044
1.0594769716,-0.0082872594,-0.0018719365,-0.0553856455,-0.1134907082,0.0168441422,0.0194271579
1.0694609880,-0.0025839738,-0.0125985676,-0.0705290437,-0.1436280906,0.0528229177,0.0043414161
1.0795170069,-0.0030572049,-0.0097297365,-0.0712899566,-0.1693845838,0.0707659647,0.0010558742
1.0894620419,-0.0035304509,-0.0165166780,-0.0476012193,-0.1501594931,0.0719289631,-0.0053394409
1.0994590521,0.0097805029,-0.0258616731,-0.0253165346,-0.0912760794,0.0499597527,-0.0031142365
1.1095169783,0.0073984778,-0.0221982524,0.0091957478,-0.0142896846,0.0313804783,0.0043892199
1.1194280386,0.0071411943,-0.0181183740,0.0270121712,0.0724116564,-0.0010019653,0.0141012361
1.1296830177,0.0098325377,-0.0144267017,0.0545564927,0.1420895457,-0.0378435999,0.0174786560
1.1443420649,0.0059309667,-0.0084989006,0.0757589936,0.1701374054,-0.0750040263,0.0208856389
1.1533560753,0.0051738089,-0.0006443193,0.0707169771,0.1564772576,-0.0997282788,0.0168059431
1.1595220566,0.0084051108,0.0041997503,0.0654764175,0.1265987307,-0.1020723879,0.0200304985
1.1696670055,0.0086901253,0.0116413301,0.0577054657,0.0688752457,-0.0939321741,0.0242675878
1.1792989969,0.0040111607,0.0155987209,0.0325968303,-0.0028550029,-0.0719645545,0.0326718576
1.1892529726,0.0021973618,0.0102528995,0.0018077519,-0.0832398534,-0.0340733640,0.0367318466
1.1992360353,-0.0036920093,0.0024623345,-0.0326711498,-0.1594287604,0.0134563362,0.0396659859
1.2094789743,-0.0107622975,-0.0009329846,-0.0728020668,-0.2183906138,0.0460875183,0.0341836028
1.2195709944,-0.0140550369,-0.0122046405,-0.0781903863,-0.2665269971,0.0616734028,0.0256175436
1.2293350697,-0.0087427730,-0.0068438579,-0.0595172606,-0.3133371174,0.0514924042,0.0023436460
1.2392389774,-0.0013486975,-0.0054130484,-0.0274376851,-0.3365653455,0.0213632621,-0.0006339015
1.2493729591,0.0062653786,-0.0175356194,0.0116012720,-0.3020957708,-0.0168376546,0.0006521388
1.2593770027,0.0100914007,-0.0137490565,0.0413543023,-0.2259633243,-0.0610796809,0.0083251055
1.2693710327,0.0100035733,0.0089538163,0.0620219745,-0.1530651450,-0.1042183638,0.0223650225
1.2793539762,0.0141694611,0.0125216907,0.0640790462,-0.0802669749,-0.1345475018,0.0341957211
1.2893580198,0.0126478290,0.0086698597,0.0581992306,-0.0064284327,-0.1585223377,0.0385491885
1.2993609905,0.0042998558,0.0118594831,0.0527483858,0.0362489894,-0.1581425816,0.0448936373
1.3093650341,-0.0032347522,0.0170516446,0.0474274196,0.0649410859,-0.1481743753,0.0596824363
1.3193160295,-0.0050013149,0.0191562846,0.0186495800,0.0689202547,-0.1160089821,0.0679711252
1.3293000460,-0.0099409306,0.0278402045,-0.0182268005,0.0396206826,-0.0574609786,0.0665495321
1.3393080235,-0.0102443332,0.0304039791,-0.0525823198,-0.0142786326,0.0083459970,0.0608465001
1.3492940664,-0.0145581448,0.0189678147,-0.0835036039,-0.0434839204,0.0603729784,0.0467184335
1.3593109846,-0.0130463177,-0.0041172435,-0.1065475941,-0.0554423109,0.0964063480,0.0220602266
1.3693469763,-0.0049897814,-0.0103995139,-0.0963999629,-0.0737150609,0.1154215857,0.0123881577
1.3792879581,0.0001492269,-0.0087319547,-0.0590093099,-0.0778866336,0.1140860096,-0.0152232302
1.3893079758,0.0154301291,-0.0205249116,-0.0242622476,-0.0284719504,0.0770422369,-0.0171423052
1.3992660046,0.0259622559,-0.0318007395,0.0317161120,0.0637677014,0.0284864176,-0.0296426509
1.4093350172,0.0240393355,-0.0194742009,0.0559678711,0.1131847873,-0.0137923295,-0.0187790841
1.4192500114,0.0182428285,-0.0098763043,0.0767755508,0.1603762656,-0.0464370921,-0.0037247664
1.4292620420,0.0145523613,-0.0000544717,0.0766803622,0.2074953169,-0.0705277771,0.0112720262
1.4392659664,0.0069215363,0.0167182758,0.0642179251,0.2235680073,-0.0831136107,0.0251548197
1.4492490292,0.0070243990,0.0169811323,0.0684608221,0.2172099799,-0.0937417522,0.0379768759
1.4592909813,0.0002739198,0.0140054291,0.0663735867,0.1786342263,-0.0790088847,0.0453427769
1.4692620039,-0.0067181075,0.0291349962,0.0402513780,0.1431449354,-0.0482610874,0.0483553447
1.4792339802,-0.0059343213,0.0400425270,-0.0067619057,0.1150560528,-0.0047202706,0.0406553484
1.4891710281,-0.0158227161,0.0329516605,-0.0485963188,-0.0048455819,0.0517493971,0.0031891991
1.4992400408,-0.0265453979,0.0067759226,-0.0758315921,-0.1108452529,0.0967568159,-0.0119002713
1.5092730522,-0.0120969201,-0.0181744620,-0.0718300939,-0.0831166878,0.1064451337,-0.0289807227
1.5192199945,-0.0095503116,0.0066905688,-0.0796259046,-0.0692485422,0.1107559949,-0.0375180170
1.5292119980,-0.0021618686,0.0075424383,-0.0420627557,-0.0125708804,0.0962766483,-0.0321517475
1.5392689705,0.0112830764,-0.0086902315,0.0099502830,0.0709479824,0.0659088865,-0.0341376662
1.5491809845,0.0090682274,0.0084629720,0.0496137179,0.1245640665,0.0343051590,-0.0286582131
1.5592030287,0.0129676824,0.0093333786,0.0773156285,0.1707423478,-0.0005819849,-0.0252763964
1.5692839622,0.0191541687,0.0045670937,0.0878913999,0.1880262643,-0.0250396561,-0.0261922572
1.5792020559,0.0137184327,0.0125056570,0.0887444019,0.1881463677,-0.0420854874,-0.0197071936
1.5892549753,0.0094724065,0.0027760933,0.0710973144,0.1689436436,-0.0422612540,-0.0228798185
1.5991890430,0.0070115691,-0.0003637006,0.0549494065,0.0983579010,-0.0278061479,-0.0186754856
1.6091910601,-0.0034494333,0.0066114138,0.0319303311,0.0041954499,-0.0028288940,-0.0123973498
1.6191910505,-0.0042728418,0.0042968462,-0.0045305463,-0.0643917322,0.0287314299,-0.0093668066
1.6292400360,-0.0053133750,0.0152102178,-0.0379281603,-0.1436798871,0.0675999969,-0.0170002244
1.6391819715,-0.0094488198,0.0199326351,-0.0505473576,-0.2025315017,0.0873947367,-0.0234605223
1.6492329836,-0.0018002026,0.0060281823,-0.0516984425,-0.2527083755,0.0922598019,-0.0340809412
1.6591429710,-0.0028826378,0.0017535160,-0.0464054905,-0.2535819113,0.0708280131,-0.0403183326
1.6692190170,0.0010747529,-0.0168567225,-0.0289478283,-0.2043142170,0.0467176214,-0.0295724757
1.6791440248,-0.0029786609,-0.0194220468,0.0057255654,-0.0984137505,0.0134755112,-0.0124301072
1.6892870665,-0.0079987878,0.0038169692,0.0168720502,0.0192218032,-0.0175694898,0.0004377544
1.6991350651,-0.0041325474,0.0149864024,0.0330182947,0.0930712596,-0.0426194519,0.0037344813
1.7091920376,0.0017667479,0.0216887668,0.0586431064,0.1476964206,-0.0646507144,0.0027768088
1.7191259861,0.0059199249,0.0284844115,0.0602239408,0.1979674548,-0.0760365278,0.0006906216
1.7291290760,0.0102762347,0.0188031271,0.0533361472,0.2011571229,-0.0728418007,-0.0035818878
1.7391309738,0.0049701398,0.0176433995,0.0314550437,0.1402119994,-0.0531716906,-0.0227888729
1.7491090298,0.0007990069,0.0032960246,-0.0097281905,0.0342323110,-0.0165835880,-0.0229521245
1.7591049671,0.0004028149,-0.0192504451,-0.0437667333,-0.0184348952,0.0289324988,-0.0274608564
1.7690950632,-0.0061827833,-0.0158004090,-0.0823844075,-0.0752987117,0.0648135319,-0.0297786053
1.7793200016,-0.0122562284,-0.0026607444,-0.0775465369,-0.1192207634,0.0816218108,-0.0245458912
1.7890750170,-0.0008904570,0.0036463211,-0.0582051836,-0.1309708953,0.0825997218,-0.0245440286
1.7990620136,0.0045754230,0.0089432066,-0.0301834922,-0.1255003661,0.0634680986,-0.0169874430
1.8091449738,0.0091728037,0.0036494206,0.0039505986,-0.0921456069,0.0306116212,-0.0146728884
1.8191430569,0.0177774206,0.0005648801,0.0326549448,-0.0310469568,-0.0051434468,-0.0006693215
1.8290489912,0.0186877921,-0.0021696617,0.0610666908,0.0257992782,-0.0388870314,0.0016345792
1.8390539885,0.0110925501,-0.0135748321,0.0742678046,0.0526571237,-0.0652776286,0.0155963348
1.8491129875,0.0142217940,-0.0150186354,0.0702886581,0.0793965906,-0.0725342110,0.0177494995
1.8590140343,0.0037440427,-0.0029485752,0.0495455302,0.0730205849,-0.0747491568,0.0145815369
1.8690789938,0.0040491438,0.0021663974,0.0256509203,0.0259878300,-0.0623872951,0.0028479153
1.8790160418,0.0053710705,0.0011397670,0.0031876592,-0.0253312849,-0.0458309576,-0.0142208170
1.8890460730,0.0029047795,-0.0079917246,-0.0246239882,-0.0596639551,-0.0226284303,-0.0196592566
1.8990780115,0.0052466458,-0.0212016627,-0.0527391993,-0.0940658748,0.0091196448,-0.0262178238
1.9090039730,-0.0034013323,-0.0248658583,-0.0666319728,-0.1145447791,0.0314422585,-0.0220987126
1.9188870192,-0.0034784905,-0.0186545178,-0.0716919303,-0.0922764912,0.0445511416,-0.0083847651
1.9290950298,-0.0068232352,-0.0121794278,-0.0480628572,-0.0400505736,0.0472470596,0.0096219312
1.9390009642,-0.0142583484,0.0013853381,-0.0181049686,0.0090163033,0.0466656871,0.0212737937
1.9490000010,-0.0071791345,0.0220499709,0.0074433712,0.0283125043,0.0330023393,0.0309104435
1.9589890242,0.0000411488,0.0301154330,0.0322197117,0.0220724512,0.0157929938,0.0246549435
1.9689930677,0.0065776473,0.0284043029,0.0472791232,0.0223131999,-0.0130716776,0.0237795636
1.9790179729,0.0153021431,0.0142415827,0.0695025325,0.0621198677,-0.0449587703,0.0080201738
1.9889770746,0.0147057837,0.0058943699,0.0576940216,0.0783182830,-0.0631028861,-0.0035597833
1.9991320372,0.0094566410,-0.0111941630,0.0391696133,0.1050986275,-0.0725563094,-0.0077642491
2.0089988708,0.0063275164,-0.0302207395,0.0099777607,0.1179438531,-0.0735984072,-0.0162655916
2.0189590454,-0.0037137202,-0.0269191191,-0.0205045324,0.1103642359,-0.0587350354,-0.0216707438
2.0289831161,-0.0070441151,-0.0304741189,-0.0374590121,0.0878048614,-0.0417997278,-0.0207024179
2.0391700268,-0.0067711258,-0.0272586867,-0.0341684185,0.0706419870,-0.0333428606,-0.0154302912
2.0490641594,-0.0009050601,-0.0133678252,-0.0232897382,0.0406023264,-0.0174887963,-0.0091377748
2.0592541695,0.0047904914,0.0022826861,-0.0127099724,0.0159566347,-0.0111550000,0.0035857442
2.0690300465,0.0103579229,0.0149516528,-0.0011781427,0.0061838995,0.0027999631,0.0194379427
2.0791900158,0.0089297062,0.0256328657,0.0114032058,0.0124006495,0.0200729594,0.0341965146
2.0889270306,0.0015769518,0.0391905382,0.0084946183,-0.0080801239,0.0434461907,0.0361840315
2.0989620686,-0.0009653651,0.0448239520,0.0044495491,-0.0788208768,0.0781746134,0.0360056013
2.1089229584,-0.0063552791,0.0336805657,0.0079351095,-0.1205254421,0.0916464776,0.0242610630
2.1191210747,-0.0017345481,0.0077319215,0.0023819236,-0.1705779582,0.0878195167,-0.0033026552
2.1289119720,-0.0028058968,-0.0115507180,-0.0036289666,-0.1833105385,0.0875212476,-0.0266644359
2.1389379501,0.0022221573,-0.0365741774,-0.0017846200,-0.1616591662,0.0597047918,-0.0488071553
2.1488940716,0.0035591193,-0.0652855560,0.0120008616,-0.0876190290,0.0153335985,-0.0549454764
2.1591181755,0.0039986288,-0.0741029903,0.0214378256,0.0065125334,-0.0074710501,-0.0569875874
2.1688761711,0.0032877245,-0.0407054946,0.0156582613,0.0803148523,-0.0323969051,-0.0388168395
2.1789040565,-0.0004087471,-0.0187674090,0.0230109114,0.1038922146,-0.0512869731,-0.0195889510
2.1888680458,-0.0001968377,-0.0104143554,0.0335117020,0.1189036593,-0.0680808648,0.0028196860
2.1990051270,0.0085377907,0.0098526543,0.0540197529,0.1530588269,-0.0761760771,0.0262252763
2.2088508606,0.0084192520,0.0340148285,0.0658892989,0.1519951522,-0.0782855675,0.0304892641
2.2188580036,0.0045031821,0.0480898693,0.0520800985,0.0920406207,-0.0657284930,0.0527576841
2.2288410664,0.0082549220,0.0561342314,0.0244767684,0.1024344042,-0.0398154110,0.0738302097
2.2388448715,0.0021501996,0.0542990044,-0.0176106077,0.1041726470,0.0114344638,0.0660609752
2.2488200665,-0.0158014968,0.0580614284,-0.0572039448,0.0087089743,0.0788446665,0.0359435529
2.2588410378,-0.0249350294,0.0302968696,-0.0720321536,-0.0949681476,0.1024615765,0.0167397633
2.2688550949,-0.0220601484,-0.0152276093,-0.0785896182,-0.1462949812,0.1305406094,-0.0280269086
2.2787551880,-0.0153742963,-0.0324565098,-0.0660701394,-0.1728096902,0.1257061809,-0.0694103017
2.2886738777,-0.0018172198,-0.0242521688,-0.0528023802,-0.1480841041,0.1066137105,-0.0746157169
2.2986631393,0.0062128669,-0.0477893874,-0.0095290514,-0.0376878157,0.0571252555,-0.0871205926
2.3089971542,0.0154462522,-0.0503956005,0.0111103086,0.0554933921,0.0204090513,-0.0912006870
2.3188409805,0.0119103706,-0.0311324522,0.0430511869,0.1305045187,-0.0184712373,-0.0803741366
2.3287940025,0.0115151471,-0.0145090753,0.0599689521,0.1701640487,-0.0436974987,-0.0664271563
2.3388149738,0.0092219627,0.0011460255,0.0614416040,0.1734518558,-0.0648115724,-0.0386704989
2.3487870693,0.0165936276,0.0120402640,0.0660314560,0.1788354218,-0.0774410814,-0.0205317084
2.3587889671,0.0122369146,0.0177925900,0.0557631887,0.1489214748,-0.0828315839,0.0007703833
2.3688590527,0.0017742581,0.0261493400,0.0479444899,0.1018466428,-0.0797713473,0.0262808036
2.3787808418,0.0007989920,0.0381562784,0.0329359211,0.0780992359,-0.0562535003,0.0484564118
2.3887610435,-0.0014569693,0.0576966479,0.0010831383,0.0424957015,-0.0116122654,0.0513789654
2.3987770081,-0.0182671025,0.0619798973,-0.0481007658,-0.0743049532,0.0472379997,0.0393920764
2.4090309143,-0.0213801339,0.0239683464,-0.0696456432,-0.1759562045,0.0837052017,0.0211659372
2.4187588692,-0.0088534588,-0.0073200394,-0.0848271251,-0.2304344922,0.1022146940,-0.0150380079
2.4287319183,-0.0150775695,-0.0153409773,-0.0751464963,-0.2293202281,0.1010546237,-0.0267175678
2.4388179779,-0.0035832308,-0.0258172080,-0.0473671518,-0.1564714611,0.0768693984,-0.0457332022
2.4492239952,0.0091600185,-0.0378479287,-0.0267460328,-0.0707648098,0.0359219611,-0.0370283946
2.4587950706,0.0072415983,-0.0465066358,0.0170353074,0.0383693986,0.0047118468,-0.0358400904
2.4687349796,0.0160711631,-0.0245317742,0.0244602580,0.1207071468,-0.0180467293,-0.0219389237
2.4787490368,0.0102166003,-0.0002902677,0.0422182716,0.1752921045,-0.0410188921,-0.0080175158
2.4887051582,0.0114195412,0.0046647261,0.0536700524,0.1999673545,-0.0589339770,-0.0004818351
2.4987759590,0.0096715754,0.0116559332,0.0585083999,0.2192474455,-0.0694180429,0.0059469030
2.5087099075,0.0100390082,0.0087902611,0.0467428602,0.1978878230,-0.0726897344,0.0176693387
2.5187420845,0.0014010287,0.0096259182,0.0424456634,0.1753309816,-0.0609875359,0.0324862339
2.5286898613,0.0043447232,0.0151064461,0.0183621068,0.1163273156,-0.0261555202,0.0344263464
2.5387501717,-0.0008124345,0.0249234512,-0.0027070616,0.0070190658,0.0222402401,0.0426860079
2.5486760139,-0.0109604383,0.0166471675,-0.0254446249,-0.0605945960,0.0697403848,0.0339260735
2.5586810112,-0.0054532373,0.0042918394,-0.0563232861,-0.1141025573,0.0947868824,0.0114908051
2.5686559677,-0.0088427151,-0.0054086973,-0.0567125641,-0.2112821043,0.1067063883,-0.0065792752
2.5787200928,-0.0043875510,-0.0190654323,-0.0340566002,-0.2174879313,0.0862687528,-0.0160035361
2.5886540413,0.0130027300,-0.0275485441,-0.0149549218,-0.1594946831,0.0523251742,-0.0381341390
2.5987091064,0.0111566102,-0.0357991382,0.0112996725,-0.0833752751,0.0091625219,-0.0294065606
2.6086139679,0.0132722920,-0.0464933440,0.0442158021,0.0151172066,-0.0284887180,-0.0217944477
2.6186189651,0.0134278154,-0.0286572501,0.0483230390,0.0697342455,-0.0557275265,-0.0067826081
2.6286730766,-0.0000560366,-0.0126715833,0.0556319989,0.0997661799,-0.0788815841,0.0082200440
2.6386420727,0.0021702864,-0.0140592987,0.0546250381,0.1158231795,-0.0914295986,0.0252845157
2.6486899853,0.0012164182,0.0031368206,0.0603944696,0.1126146019,-0.0956206173,0.0380626284
2.6585850716,-0.0017962389,0.0220680311,0.0552020110,0.0826091617,-0.0882207528,0.0560982190
2.6686658859,-0.0020163886,0.0377746299,0.0399077572,0.0247434676,-0.0640224740,0.0634184480
2.6785821915,-0.0041467780,0.0510158017,0.0043212799,-0.0886898860,-0.0223109834,0.0441038758
2.6886620522,-0.0061471695,0.0353351310,-0.0341083370,-0.2086146921,0.0258533508,0.0353761651
2.6985678673,-0.0110380584,0.0094844168,-0.0683932900,-0.2792387903,0.0560948774,0.0107935891
2.7086269855,-0.0101126665,-0.0077709486,-0.0896229744,-0.3658748865,0.0872615874,-0.0159077961
2.7186040878,-0.0122619206,-0.0153246457,-0.0771816373,-0.3753825128,0.0806548148,-0.0296682157
2.7285530567,-0.0035142831,-0.0302907154,-0.0515509211,-0.2801089883,0.0524343625,-0.0412380509
2.7385878563,-0.0006331437,-0.0281299874,-0.0096000405,-0.1709802300,0.0201925356,-0.0357938856
2.7486059666,-0.0066398764,-0.0099527771,0.0263354797,-0.0447788835,-0.0160847772,-0.0175861195
2.7585921288,0.0001717127,0.0175505951,0.0312217493,0.0814131349,-0.0502454117,-0.0015155411
2.7685189247,0.0062467819,0.0221584514,0.0391349234,0.1692085117,-0.0826899037,-0.0003040691
2.7786340714,0.0056173867,0.0213765576,0.0566504635,0.2590351999,-0.1033440530,0.0029544416
2.7884449959,0.0129075116,0.0277188495,0.0523362793,0.3018329740,-0.1158294827,0.0040679094
2.7985849380,0.0134184128,0.0330629423,0.0373685397,0.3080915511,-0.1018042043,0.0135337152
2.8085079193,0.0110645508,0.0264993981,0.0133994846,0.2459586859,-0.0692792833,-0.0015072853
2.8186058998,-0.0020203076,0.0193314031,-0.0270474534,0.1505506635,-0.0145622492,-0.0156044615
2.8284711838,-0.0063695097,0.0020715068,-0.0584243499,0.0583882481,0.0358817503,-0.0328654759
2.8386058807,-0.0109652663,-0.0173882768,-0.0756424069,0.0271369852,0.0740645528,-0.0394667871
2.8485231400,-0.0051782662,-0.0103980834,-0.0773478150,0.0217254423,0.0888586789,-0.0544324182
2.8585791588,-0.0024206869,0.0024812887,-0.0625657439,0.0281852037,0.0803967491,-0.0501335450
2.8686199188,0.0112369722,-0.0185238644,-0.0239110570,0.0592997149,0.0603484772,-0.0479004830
2.8785018921,0.0102436310,-0.0228818581,0.0079925684,0.1022061631,0.0339850485,-0.0445709974
2.8885259628,0.0111687100,-0.0142831141,0.0354514755,0.1621549875,0.0078469198,-0.0306322798
2.8985249996,0.0170017555,-0.0054330160,0.0536884107,0.2038351893,-0.0086998325,-0.0039965417
2.9087128639,0.0110879755,0.0005867550,0.0702312589,0.2381454855,-0.0328895897,0.0110098375
2.9184830189,0.0101493066,0.0057077478,0.0695098042,0.2456360310,-0.0391549431,0.0216698069
2.9285578728,0.0070927506,0.0204416588,0.0684725046,0.1879301220,-0.0331521779,0.0259207450
2.9385151863,-0.0017044776,0.0268068388,0.0520005859,0.0714277476,-0.0106375488,0.0141687458
2.9485750198,-0.0025853447,0.0189333633,0.0180963892,-0.0248612352,0.0174388271,0.0098043578
2.9584550858,-0.0102113569,0.0027648280,-0.0175641160,-0.1061801910,0.0518356822,-0.0190468635
2.9684779644,-0.0149314934,-0.0040056040,-0.0568511449,-0.1745834798,0.0651373714,-0.0265220907
2.9784989357,-0.0120128775,-0.0146589810,-0.0554891191,-0.2065748423,0.0689949617,-0.0456445217
2.9888091087,-0.0022529892,-0.0096755559,-0.0494395457,-0.2000863105,0.0604584664,-0.0498432592
2.9985020161,0.0064576780,-0.0083379680,-0.0177354198,-0.1540928632,0.0459234640,-0.0412818603
3.0084559917,0.0064802831,-0.0204381272,0.0202747006,-0.0769850239,0.0113404542,-0.0304875374
3.0184831619,0.0054818606,-0.0068665077,0.0421984829,0.0065034782,-0.0241775922,-0.0101314001
3.0284318924,0.0025906928,0.0051357816,0.0619663037,0.0889149979,-0.0554950349,0.0027628271
3.0385069847,0.0066643124,0.0126252240,0.0707216859,0.1488465071,-0.0784514770,0.0134924371
3.0484061241,0.0051083928,0.0104780262,0.0652065277,0.1575539708,-0.0955574960,0.0050981529
3.0584790707,0.0007714696,0.0032798718,0.0526101030,0.1020106971,-0.0937920958,0.0125652580
3.0684161186,-0.0007345610,-0.0021946360,0.0444586910,0.0614193231,-0.0867062211,0.0029861333
3.0784790516,0.0007817216,-0.0022278954,0.0016215470,-0.0028576665,-0.0594029576,0.0039150440
3.0883889198,-0.0047512734,-0.0065181782,-0.0261904579,-0.0661713928,-0.0192693863,0.0047613964
3.0984630585,-0.0103845531,-0.0189171955,-0.0602450930,-0.1006939486,0.0222058855,0.0108885318
3.1083910465,-0.0135392183,-0.0109236771,-0.0886522532,-0.1116981283,0.0606337041,0.0148965884
3.1184310913,-0.0180177316,-0.0009511640,-0.0898415446,-0.1289231926,0.0755260959,0.0222493112
3.1283979416,-0.0079663778,0.0024409960,-0.0654072762,-0.1138867065,0.0659869164,0.0180511028
3.1384570599,-0.0056451792,0.0060139368,-0.0290868264,-0.0784694701,0.0458861813,0.0107219508
3.1483731270,0.0017429210,0.0117887920,0.0056309132,-0.0280244052,0.0141761890,0.0066427868
3.1583919525,0.0171513930,0.0120309060,0.0350574888,0.0181942228,-0.0229088627,0.0026006405
3.1683659554,0.0153458333,0.0016338299,0.0559875406,0.0686094612,-0.0514036193,-0.0004369610
3.1784060001,0.0118403798,-0.0085174376,0.0666321516,0.1147162393,-0.0746000186,-0.0045667249
3.1883480549,0.0083710318,-0.0029465486,0.0580168404,0.1510534734,-0.0807135701,-0.0024276737
3.1984238625,0.0001289315,-0.0002422263,0.0378977694,0.1755838394,-0.0773350894,-0.0045917584
3.2083039284,0.0025750764,0.0043981741,0.0128559498,0.1391744316,-0.0616211034,-0.0089177974
3.2183439732,0.0031724789,-0.0067841937,-0.0047453018,0.0910738856,-0.0492666997,-0.0206510201
3.2283530235,0.0096386885,-0.0211498663,-0.0266503673,0.0407460034,-0.0272748489,-0.0281952210
3.2383229733,0.0031492331,-0.0261019394,-0.0403816663,-0.0118169384,0.0012377533,-0.0209057499
3.2483549118,0.0002034522,-0.0166316554,-0.0506155454,-0.0505499542,0.0320694335,-0.0051427665
3.2583398819,-0.0011468463,0.0004863212,-0.0533245169,-0.0849466771,0.0533467606,0.0138643468
3.2683510780,-0.0056225592,0.0077391337,-0.0425119363,-0.1042593867,0.0607788451,0.0255159438
3.2783150673,-0.0062696720,0.0102248257,-0.0188794117,-0.0914113671,0.0545009747,0.0297976416
3.2883610725,-0.0041251266,0.0177124217,0.0185229201,-0.0966372862,0.0384831242,0.0362795070
3.2982878685,-0.0019119614,0.0193176940,0.0558580197,-0.1050448865,0.0213419572,0.0395850241
3.3082330227,0.0114314770,0.0170041397,0.0601307787,-0.1015255153,-0.0097893318,0.0206614006
3.3184380531,0.0134684360,0.0039315890,0.0585079826,-0.0895227864,-0.0365256034,0.0080778310
3.3282790184,0.0119111901,-0.0187396929,0.0648994446,-0.0508957654,-0.0503482074,-0.0184192900
3.3382859230,0.0058158552,-0.0345191881,0.0431582369,-0.0080291247,-0.0651055798,-0.0332276635
3.3483290672,0.0018227763,-0.0403716490,0.0080669550,0.0421626717,-0.0647809431,-0.0407015607
3.3582611084,-0.0012471013,-0.0372083113,-0.0218570214,0.0762921423,-0.0602620952,-0.0428784266
3.3683190346,-0.0084644491,-0.0271004364,-0.0302343350,0.0847577974,-0.0537293591,-0.0365523547
3.3782439232,-0.0031484596,-0.0159656927,-0.0269542914,0.0654594749,-0.0463345610,-0.0291495658
3.3882398605,0.0009322829,-0.0000364115,-0.0150501104,0.0504549593,-0.0431534164,-0.0185358040
3.3982369900,0.0058523482,0.0177661255,-0.0100173326,0.0502613448,-0.0269627254,-0.0005829020
3.4082310200,0.0105347103,0.0307324603,0.0030040171,0.0692243874,-0.0062910030,0.0247671958
3.4183001518,0.0052306717,0.0435991362,0.0063614873,0.0583110154,0.0120323431,0.0533439778
3.4282269478,0.0015586383,0.0514865592,-0.0009271476,0.0653958246,0.0476116426,0.0828552619
3.4382920265,-0.0012861871,0.0525521711,-0.0167565923,0.0597716272,0.0838753730,0.0783722401
3.4481911659,-0.0099709118,0.0456534699,-0.0288886409,-0.0000911746,0.1003768519,0.0623711608
3.4582748413,-0.0174356475,0.0092206066,-0.0230013113,-0.0939123407,0.0993651226,0.0295113511
3.4682011604,-0.0137876058,-0.0214657113,-0.0253577810,-0.0829028338,0.0734722689,-0.0085745156
3.4782500267,-0.0010605388,-0.0459703133,-0.0157662611,-0.0504985563,0.0413460247,-0.0455748811
3.4881911278,-0.0017430120,-0.0498727486,0.0054051904,-0.0286912620,-0.0057029771,-0.0675952211
3.4982581139,0.0087580746,-0.0749238059,0.0328238048,0.0357694887,-0.0554478988,-0.0683795288
3.5081770420,0.0193506107,-0.0723741576,0.0450205244,0.0978605524,-0.0721773431,-0.0810630992
3.5181720257,0.0053647822,-0.0269176885,0.0396161713,0.1406534314,-0.0909235999,-0.0618471913
3.5282001495,0.0060664630,-0.0124833519,0.0521412529,0.1086206585,-0.1005543917,-0.0341401957
3.5381720066,0.0105412370,-0.0080277855,0.0653452873,0.0530611277,-0.1071145535,-0.0011251216
3.5481569767,0.0147469109,0.0068262885,0.0683181882,0.0006298767,-0.1009075195,0.0222438499
3.5581798553,-0.0008292728,0.0367575958,0.0540425219,-0.0487029180,-0.0808118433,0.0412677415
3.5681350231,-0.0029085509,0.0527889207,0.0297667403,-0.0938978270,-0.0467420220,0.0665757656
3.5782060623,-0.0043247277,0.0675671771,-0.0045212479,-0.1284940243,0.0012023333,0.0801010281
3.5881409645,-0.0088798786,0.0791496113,-0.0478136502,-0.1642000824,0.0628435910,0.0712271109
3.5981760025,-0.0104497308,0.0623012856,-0.0795370936,-0.2285297960,0.1091090962,0.0401629284
3.6081218719,-0.0129142338,0.0199435428,-0.0785080194,-0.3001853526,0.1350658536,0.0156096499
3.6181900501,-0.0133184129,-0.0253981873,-0.0641194582,-0.3022227883,0.1337502599,-0.0109382039
3.6280899048,-0.0009164297,-0.0392408296,-0.0544960462,-0.2581381500,0.1102417335,-0.0501250215
3.6381809711,-0.0029254637,-0.0498038456,-0.0239853244,-0.1617170870,0.0692703277,-0.0541772880
3.6480789185,0.0039103841,-0.0614751503,0.0350512303,-0.0023838896,0.0383662134,-0.0625872836
3.6581468582,0.0040182536,-0.0209938213,0.0364705957,0.1441589445,-0.0000040788,-0.0571270026
3.6680970192,0.0091171926,0.0093937581,0.0458467044,0.2340139896,-0.0270069335,-0.0463907346
3.6781280041,0.0125294095,0.0030199955,0.0627868176,0.2747276127,-0.0511450246,-0.0313902162
3.6880469322,0.0033207752,0.0024823020,0.0594008006,0.3143290877,-0.0688992590,-0.0185540468
3.6981210709,0.0037532814,0.0196555331,0.0435218252,0.3228092492,-0.0676342547,-0.0036964037
3.7080478668,-0.0036343120,0.0257984474,0.0166423339,0.2639219761,-0.0498384796,0.0057908408
3.7181000710,-0.0111664468,0.0209297016,-0.0038309069,0.2198848575,-0.0212246776,0.0173237920
3.7280340195,-0.0111118490,0.0303710774,-0.0375494324,0.1320610046,0.0175687894,0.0086344313
3.7380659580,-0.0209765658,0.0333600119,-0.0634231567,0.0110898409,0.0635783598,-0.0011409675
3.7480800152,-0.0153622115,0.0069046090,-0.0526609980,-0.0456914157,0.0898317993,-0.0044587338
3.7580518723,-0.0032071702,0.0076641510,-0.0422554575,-0.0735356957,0.1013616920,-0.0055752639
3.7680048943,-0.0016910367,0.0043894718,-0.0271989685,-0.0776630640,0.0852706060,-0.0086552091
3.7780070305,0.0097905314,-0.0191742703,-0.0040117474,-0.0432483666,0.0545331985,-0.0095425751
3.7879991531,0.0173481926,-0.0326715633,0.0341389216,0.0231359843,0.0283631142,-0.0051696645
3.7980508804,0.0161287561,-0.0205387995,0.0523042716,0.1194177791,-0.0028331550,0.0087741148
3.8081140518,0.0140529638,-0.0100516016,0.0593978204,0.1793977618,-0.0290527754,0.0131518189
3.8180310726,0.0131425029,-0.0110469991,0.0610755719,0.2126228213,-0.0479742698,0.0206898954
3.8279461861,0.0093503809,-0.0061307480,0.0598900355,0.2191094905,-0.0554601476,0.0143595617
3.8379778862,0.0046471721,0.0045638154,0.0517433919,0.1934870780,-0.0514630079,0.0047890935
3.8478951454,0.0068628257,0.0140156215,0.0333938040,0.0983773470,-0.0320368446,-0.0122687193
3.8580160141,0.0015798874,-0.0025520255,0.0033867385,-0.0299029984,-0.0032414175,-0.0283005498
3.8679270744,-0.0008827680,-0.0206221864,-0.0304074865,-0.1102300659,0.0292699207,-0.0284552798
3.8780221939,-0.0046155835,-0.0244148299,-0.0532053076,-0.1969662905,0.0617434382,-0.0275442116
3.8879230022,-0.0107481414,-0.0118894512,-0.0580760799,-0.2345195264,0.0797405466,-0.0138236061
3.8979649544,-0.0044643218,0.0025901864,-0.0503405295,-0.2591966391,0.0903417990,-0.0011240564
3.9079439640,-0.0079590911,0.0062313746,-0.0339477025,-0.2558708787,0.0712200329,0.0096215326
3.9179220200,-0.0007230275,0.0071643065,-0.0056278678,-0.2268497497,0.0447719134,0.0150838094
3.9278349876,0.0055025136,0.0181032494,0.0337128080,-0.1731843948,0.0067648776,0.0216671415
3.9380478859,0.0071913814,0.0175572708,0.0589280166,-0.1023425758,-0.0397325829,0.0197945423
3.9478759766,0.0063532656,0.0055963467,0.0671882629,-0.0326665603,-0.0755236074,0.0210403688
3.9578959942,-0.0011190557,-0.0099520022,0.0731165409,0.0528889522,-0.0951606855,0.0221707467
3.9679050446,0.0011580355,0.0011113952,0.0464307703,0.1190394759,-0.0924842134,0.0252943672
3.9779391289,-0.0132461423,0.0181320384,0.0248242635,0.1456533819,-0.0816350281,0.0198930781
3.9880130291,-0.0137369717,0.0127757257,-0.0053753229,0.1113707721,-0.0575177073,-0.0036119814
3.9979450703,-0.0151917720,0.0139922565,-0.0360975228,0.0482633114,-0.0346555337,-0.0228393395
4.0078077316,-0.0048625851,0.0004381011,-0.0592930876,0.0096623870,-0.0083522899,-0.0367940366
4.0178608894,0.0024769821,-0.0055074622,-0.0809163451,-0.0289313458,0.0179323107,-0.0528731383
4.0281329155,0.0008757926,-0.0085747773,-0.0842220187,-0.0375847518,0.0317597091,-0.0529567599
4.0379161835,0.0079302406,-0.0193694159,-0.0660230517,-0.0580625981,0.0509416610,-0.0413815975
4.0478630066,0.0008560783,-0.0097713405,-0.0353391133,-0.0571256950,0.0565199181,-0.0148586435
4.0579228401,0.0062908148,0.0008948515,-0.0141366692,-0.0251210257,0.0494928993,0.0096004931
4.0679187775,0.0027866580,0.0038695405,0.0190674681,0.0036981050,0.0403055251,0.0340749435
4.0779352188,0.0011442668,0.0137623018,0.0436922349,0.0305539519,0.0149658164,0.0459049717
4.0878710747,0.0063897436,0.0257635191,0.0559437908,0.0595390014,-0.0061586443,0.0492088906
4.0979328156,0.0060609346,0.0269823149,0.0536440052,0.0543811209,-0.0244447067,0.0408339128
4.1079039574,0.0059892898,0.0262315944,0.0415355004,0.0544889793,-0.0289097615,0.0185525753
4.1179208755,0.0111825829,0.0156979039,0.0234796423,0.0258300379,-0.0368739478,-0.0121862944
4.1278209686,0.0109768873,-0.0202884004,0.0130132465,0.0089471955,-0.0500661805,-0.0397111326
4.1379141808,0.0051213121,-0.0534559414,-0.0073895426,0.0142625980,-0.0405555032,-0.0567726716
4.1478939056,0.0059497720,-0.0495015904,-0.0386098586,0.0259070043,-0.0266165137,-0.0621831492
4.1578278542,0.0015581317,-0.0327749178,-0.0454976521,0.0257472135,-0.0105126463,-0.0537885986
4.1677460670,-0.0058781886,-0.0307293460,-0.0367892347,0.0010922020,-0.0020621698,-0.0432022661
4.1778531075,0.0019873746,-0.0169356391,-0.0154973241,-0.0160606876,0.0011381509,-0.0283373017
4.1878442764,0.0008497305,0.0103249615,-0.0032256816,-0.0279186778,0.0065811202,-0.0060541001
4.1978211403,0.0035241463,0.0277850702,0.0042552976,-0.0279154815,0.0002976572,0.0088590691
4.2076759338,0.0071345484,0.0374389365,0.0147145418,-0.0364767462,-0.0028478024,0.0237589236
4.2177381516,0.0057676500,0.0460759476,0.0300344843,-0.0418783017,-0.0006299217,0.0375574268
4.2279958725,0.0024408021,0.0477618650,0.0316828527,-0.0654962808,0.0152284047,0.0385334753
4.2381820679,-0.0017360681,0.0404169634,0.0155400662,-0.1029649600,0.0309136212,0.0320847631
4.2481169701,-0.0076265419,0.0114494031,-0.0027655934,-0.1307324022,0.0411960855,0.0097272601
4.2583951950,-0.0065382952,-0.0087622339,-0.0203034263,-0.1412935704,0.0366364904,-0.0136069581
4.2683629990,-0.0102033550,-0.0357508585,-0.0222938638,-0.1336540282,0.0237065777,-0.0326514877
4.2781319618,-0.0010938727,-0.0487126634,-0.0180520993,-0.0340801664,-0.0097895972,-0.0399398953
4.2878880501,0.0072118407,-0.0396526381,-0.0198522191,0.0836765617,-0.0411515161,-0.0642537549
4.2975978851,0.0049365675,-0.0331428573,-0.0064858766,0.1298034489,-0.0717227459,-0.0566526949
4.3076400757,0.0095642870,-0.0351493880,0.0160829443,0.1758034229,-0.0841834098,-0.0555416271
4.3176250458,0.0150705641,-0.0175018236,0.0242540855,0.2078805417,-0.0987218618,-0.0352862887
4.3277411461,0.0136233335,-0.0047237803,0.0383862890,0.1885630339,-0.0944144651,-0.0140529042
4.3376221657,0.0149970120,-0.0028780629,0.0474704541,0.1436002105,-0.0891856179,0.0135684712
4.3476080894,0.0141473478,0.0083661145,0.0405018963,0.1016881838,-0.0636680126,0.0357424840
4.3576087952,0.0061285412,0.0251410678,0.0263408441,0.0597218238,-0.0338264890,0.0631986111
4.3677377701,0.0035495528,0.0436254814,0.0080211787,0.0090682358,0.0182979628,0.0798942298
4.3775610924,-0.0070269341,0.0460523441,-0.0204224568,-0.0480116941,0.0767066777,0.0880574882
4.3875827789,-0.0099571133,0.0395583585,-0.0471107326,-0.0878296793,0.1232621968,0.0686603561
4.3976869583,-0.0088547850,0.0202395990,-0.0614566170,-0.1668805629,0.1447781473,0.0313920751
4.4079179764,-0.0065095359,-0.0236210153,-0.0421732031,-0.2274933159,0.1280231327,0.0017961001
4.4177241325,0.0028862872,-0.0585735962,-0.0142022939,-0.1705276221,0.0908296853,-0.0245626699
4.4276809692,0.0046603745,-0.0541207120,-0.0004671189,-0.0655740425,0.0562168509,-0.0424721614
4.4377150536,0.0037304529,-0.0500572845,0.0287540574,0.0426926427,0.0025160706,-0.0453855284
4.4478492737,0.0060349917,-0.0455449745,0.0508948006,0.1263462603,-0.0417989306,-0.0536557101
4.4577407837,0.0016652561,-0.0261522457,0.0568605103,0.1831380427,-0.0712183416,-0.0460698269
4.4677152634,0.0061038947,-0.0015852381,0.0613134541,0.2303063422,-0.1017123312,-0.0299691539
4.4777297974,0.0038866319,0.0054515670,0.0582131781,0.2357866019,-0.1250509471,-0.0138839260
4.4877891541,0.0045596128,0.0143545335,0.0539631881,0.1952421069,-0.1327280402,0.0000052571
4.4977250099,0.0031672486,0.0218572691,0.0364918150,0.1267164350,-0.1170153916,0.0243852977
4.5077047348,-0.0014289104,0.0250553563,0.0174779911,0.0623275936,-0.0841900632,0.0465276167
4.5176992416,-0.0122374529,0.0316727832,-0.0089166733,-0.0043650158,-0.0300245620,0.0664082468
4.5277051926,-0.0205392614,0.0416946486,-0.0409084521,-0.1288432926,0.0460385159,0.0745010599
4.5376977921,-0.0204529837,0.0376203135,-0.0666379333,-0.2008763552,0.1043550894,0.0847975090
4.5476861000,-0.0137536759,0.0284594968,-0.0810402036,-0.2684026659,0.1453523189,0.0654557720
4.5575971603,-0.0188175961,0.0054285596,-0.0704963803,-0.3069018424,0.1567487717,0.0579714887
4.5676388741,-0.0032904528,-0.0221991464,-0.0393245183,-0.2810273767,0.1364056915,0.0304631665
4.5776381493,0.0006993181,-0.0271146223,-0.0117294760,-0.1738369912,0.0858551711,0.0211524870
4.5876140594,0.0012871093,-0.0382988974,0.0080151586,-0.0473685414,0.0311016403,0.0033585764
4.5976319313,0.0011111564,-0.0273730084,0.0324925818,0.0631281435,-0.0311971512,-0.0069366721
4.6076259613,0.0012026645,-0.0091133052,0.0615613498,0.1500561237,-0.0850878134,-0.0130222607
4.6176147461,0.0074982261,0.0163599327,0.0678761005,0.2304532230,-0.1230120286,-0.0213331878
4.6276168823,0.0082695996,0.0284097865,0.0688122511,0.2712848186,-0.1547782123,-0.0232804921
4.6376118660,0.0083752042,0.0287670568,0.0600596108,0.2575496733,-0.1688474268,-0.0306139048
4.6475958824,0.0105850464,0.0201836899,0.0461955704,0.2126874030,-0.1649283171,-0.0316703804
4.6575961113,0.0087701445,0.0209768489,0.0171222705,0.1515418887,-0.1311413199,-0.0254744031
4.6675839424,-0.0000940197,0.0155149763,-0.0134150358,0.0858829916,-0.0695591867,-0.0141415875
4.6775732040,-0.0073840702,0.0124948686,-0.0562549196,-0.0129746152,0.0066956356,-0.0060647526
4.6875510216,-0.0083339745,0.0110033816,-0.0919561982,-0.1053641960,0.0744656250,0.0031218212
4.6975688934,-0.0145933712,-0.0015199115,-0.1007972360,-0.1538206935,0.1264414787,-0.0003719798
4.7075719833,-0.0085312659,0.0035153101,-0.0884321332,-0.2094679773,0.1462545991,-0.0078983391
4.7175579071,-0.0025650195,-0.0003390839,-0.0500956140,-0.2532064021,0.1427152604,-0.0067806104
4.7275528908,0.0055490648,-0.0070434739,-0.0020070050,-0.2185072601,0.0819533691,-0.0191595163
4.7375202179,0.0237675235,-0.0133244926,0.0436722673,-0.1304784715,0.0227547642,-0.0220244117
4.7475428581,0.0168265924,-0.0164138600,0.1014736891,-0.0638480484,-0.0333396643,-0.0174576230
4.7575411797,0.0121620661,-0.0105777318,0.1206174493,0.0015942072,-0.0776232406,-0.0055297236
4.7675409317,0.0146282976,-0.0064386060,0.1052799225,0.0819231346,-0.1111851931,-0.0032433998
4.7775621414,0.0056577539,-0.0041412641,0.0746579170,0.1216804013,-0.1450331807,0.0022600226
4.7875652313,-0.0023902885,-0.0006467035,0.0637440681,0.1356532127,-0.1566818506,0.0023258023
4.7975611687,0.0012949026,0.0028622816,0.0518230237,0.1099997759,-0.1515565962,0.0001867516
4.8075532913,0.0010717429,0.0148186749,0.0150933294,0.0756375417,-0.1272310168,0.0011153957
4.8174738884,-0.0010979854,0.0099479025,-0.0267373901,0.0357556380,-0.0784176588,-0.0044865636
4.8274998665,-0.0025443516,0.0058257054,-0.0659689307,-0.0159802586,-0.0178965256,-0.0048428942
4.8373250961,-0.0132051343,0.0072236131,-0.0959379673,-0.0860094056,0.0596019924,-0.0031717608
4.8473052979,-0.0221850052,0.0025104354,-0.1251851916,-0.1323537380,0.1127014309,-0.0013589471
4.8573131561,-0.0130756134,0.0038693617,-0.1183001995,-0.1625137627,0.1497851461,-0.0122022731
4.8676538467,-0.0070361728,0.0091270870,-0.0852755308,-0.1773750037,0.1400425136,-0.0131913712
4.8774628639,0.0049685454,-0.0068623354,-0.0227807742,-0.1481964886,0.0985443294,-0.0171899758
4.8874702454,0.0112894839,-0.0050302078,0.0332092680,-0.0537506714,0.0362250321,-0.0157894194
4.8974618912,0.0159462169,0.0020851563,0.0801047087,0.0342269838,-0.0186581910,-0.0144348014
4.9074621201,0.0141238337,-0.0032914807,0.1060644388,0.1007578075,-0.0671719313,0.0017692016
4.9174590111,0.0107131368,-0.0075533320,0.0925442576,0.1917730719,-0.1038210243,0.0083175153
4.9274530411,0.0074332422,-0.0027261307,0.0591084398,0.2517059147,-0.1267801225,0.0190484561
4.9374599457,-0.0028234653,-0.0025269915,0.0610706843,0.2592610419,-0.1373962909,0.0212391727
4.9474058151,-0.0041909749,-0.0063666035,0.0472191609,0.2101608664,-0.1377760619,0.0212759245
4.9574308395,0.0021110245,0.0031809877,0.0279676337,0.1426751614,-0.1062969640,0.0136817880
4.9673919678,0.0054569608,0.0161014274,-0.0095993252,0.0558292158,-0.0578495376,0.0081163142
4.9774198532,0.0008753306,0.0168541744,-0.0458772741,-0.0246355347,-0.0040632691,-0.0038625849
4.9873847961,-0.0076226825,0.0034850310,-0.0943969488,-0.1084145829,0.0604488775,-0.0084719844
4.9974098206,-0.0117092663,-0.0031679203,-0.1149749160,-0.1579283476,0.1113450825,-0.0119567299
5.0074119568,-0.0103065604,-0.0029905965,-0.1064893603,-0.1911757737,0.1303262413,-0.0120565984
5.0173988342,-0.0119242752,-0.0076422621,-0.0707610846,-0.1943049878,0.1238379702,-0.0173214022
5.0273909569,0.0020888217,-0.0149695808,-0.0211474877,-0.1609973609,0.0942419991,-0.0086536109
5.0373029709,0.0023546137,-0.0073704054,0.0405516066,-0.0560333990,0.0480968691,-0.0009940941
5.0473709106,0.0077392375,0.0113740629,0.0766721368,0.0393921845,-0.0056190877,0.0056619449
5.0573730469,0.0095726317,0.0196577385,0.1016779542,0.0963888913,-0.0554415062,0.0027593651
5.0673470497,0.0099138683,0.0144515103,0.1036813855,0.1458302140,-0.0977836400,0.0061865877
5.0772681236,0.0096397167,0.0083772009,0.0835161805,0.1813041717,-0.1243068576,-0.0021628223
5.0873589516,0.0035940178,0.0052234600,0.0691082478,0.1472559273,-0.1332204491,-0.0137675470
5.0973463058,0.0034867593,0.0047838758,0.0503143705,0.0831619054,-0.1273103654,-0.0148245543
5.1073417664,0.0063865846,-0.0057636430,0.0203303713,0.0231640823,-0.0968611166,-0.0245416313
5.1174578667,0.0042609042,-0.0138491327,-0.0191160422,-0.0551677421,-0.0503743067,-0.0173526946
5.1272921562,-0.0041038627,-0.0145019228,-0.0552249514,-0.1079619750,0.0069776638,-0.0123757785
5.1373157501,-0.0138011212,-0.0115591818,-0.0955772996,-0.1543850154,0.0655115470,0.0000256305
5.1472640038,-0.0181556270,0.0001711319,-0.1058605313,-0.1877869070,0.1016285419,0.0040643141
5.1575450897,-0.0169671848,0.0051260660,-0.0859016180,-0.2007185519,0.1133549660,0.0124978796
5.1673021317,-0.0168767050,0.0082852310,-0.0434028469,-0.1782366782,0.1070797592,0.0082733072
5.1772851944,-0.0098530734,0.0184639171,-0.0055288048,-0.1426709592,0.0646292418,0.0117114475
5.1872811317,0.0012611962,0.0211436227,0.0405700244,-0.0793431178,0.0223672725,0.0119412784
5.1973328590,0.0069115376,0.0133944815,0.0755590200,-0.0032141292,-0.0155928927,0.0036350123
5.2072110176,0.0109522408,0.0068934630,0.0886926055,0.0824935809,-0.0513144061,-0.0015051548
5.2172431946,0.0163160190,-0.0051292111,0.0839585066,0.1585352123,-0.0806800127,-0.0045548738
5.2272701263,0.0150425797,-0.0111279422,0.0610734262,0.2034358382,-0.0867909044,-0.0098585589
5.2372312546,0.0137221580,-0.0179382488,0.0491189398,0.2065297812,-0.0718441755,-0.0152720995
5.2472248077,0.0085467165,-0.0249356553,0.0232787151,0.1732626408,-0.0475827828,-0.0228429344
5.2572278976,-0.0016134017,-0.0215118453,-0.0176063757,0.1388733685,-0.0200496912,-0.0219357293
5.2672381401,-0.0012344652,-0.0201224610,-0.0460286699,0.0958944783,0.0148699423,-0.0242569391
5.2772569656,-0.0011548334,-0.0102400118,-0.0710632801,0.0133696403,0.0527592674,-0.0180689506
5.2872271538,-0.0024735413,-0.0005965760,-0.0624979101,-0.0455509312,0.0737793371,-0.0064778090
5.2973551750,-0.0001083248,0.0146160191,-0.0563287102,-0.1140773892,0.0936768726,0.0072509199
5.3074660301,0.0030760088,0.0159582570,-0.0348705016,-0.1567830443,0.0891894400,0.0211209282
5.3172807693,0.0023217716,0.0084174341,-0.0067461105,-0.1599683166,0.0818005055,0.0349825472
5.3272500038,-0.0004221432,0.0057367752,0.0242463965,-0.1693232059,0.0486500077,0.0415783972
5.3372530937,0.0047838157,0.0031185816,0.0523065366,-0.1647779942,0.0144992303,0.0439227819
5.3472380638,0.0063376641,-0.0072452356,0.0737045407,-0.1249541491,-0.0237056799,0.0398931503
5.3572292328,0.0052098697,-0.0116119320,0.0797371864,-0.0766895488,-0.0500829592,0.0368450321
5.3672099113,0.0023571320,-0.0138623649,0.0743650794,-0.0252548531,-0.0690324157,0.0241832975
5.3771939278,0.0017159648,-0.0178471133,0.0605751909,0.0176275019,-0.0827849805,0.0019319209
5.3872032166,0.0023361512,-0.0139363939,0.0245128889,0.0369098559,-0.0828174725,-0.0193291586
5.3971800804,0.0002498395,-0.0197830722,-0.0125192376,0.0240948554,-0.0766269565,-0.0342358053
5.4071969986,0.0012557871,-0.0382966921,-0.0427428447,0.0154704750,-0.0597382486,-0.0513375588
5.4171848297,-0.0009867483,-0.0285429284,-0.0576327406,-0.0071353689,-0.0384968743,-0.0461450629
5.4271879196,-0.0026443384,-0.0080404216,-0.0502292477,-0.0190695263,-0.0192600656,-0.0356375612
5.4371938705,-0.0113247717,0.0073621343,-0.0488403998,-0.0449633077,0.0032239386,-0.0081448145
5.4471693039,-0.0126509750,0.0334484056,-0.0377674066,-0.0591246635,0.0279146377,0.0172023531
5.4572172165,-0.0064288313,0.0497462228,-0.0285657626,-0.0678791478,0.0420059524,0.0479257777
5.4671950340,-0.0073446268,0.0572100952,-0.0065920921,-0.0594268031,0.0443905480,0.0691522360
5.4771928787,-0.0004539423,0.0491830781,0.0186095256,-0.0509263948,0.0456044190,0.0787011310
5.4871683121,0.0005272395,0.0372051075,0.0418605842,-0.0584186614,0.0435087755,0.0904062539
5.4971828461,0.0026141175,0.0251053646,0.0465029515,-0.0689879507,0.0368780382,0.0745207667
5.5071768761,0.0002757676,0.0059837173,0.0264790077,-0.0997927338,0.0299727283,0.0448401086
5.5171728134,-0.0045746798,-0.0405363366,0.0141258268,-0.1155814156,0.0125348829,0.0194653757
5.5271272659,0.0064851409,-0.0760992095,-0.0000868413,-0.0790263340,-0.0056515783,-0.0155011322
5.5371627808,0.0058572656,-0.0674708411,-0.0180136543,0.0258572027,-0.0296234898,-0.0387910083
5.5471639633,0.0074447310,-0.0592442676,-0.0224254709,0.1104716882,-0.0527368002,-0.0684471726
5.5571489334,0.0081562167,-0.0399927422,-0.0177931171,0.1223220825,-0.0644352660,-0.0726305917
5.5671463013,0.0039366549,-0.0264756009,0.0122935800,0.1437581480,-0.0770495981,-0.0672518089
5.5771360397,0.0067068106,-0.0188280866,0.0190944094,0.1405446231,-0.0812286213,-0.0534128286
5.5870742798,0.0022538670,0.0149872964,0.0217072386,0.1137207448,-0.0768884718,-0.0215505026
5.5970950127,-0.0012911790,0.0251663998,0.0193201918,0.0739942417,-0.0608969890,0.0102480408
5.6070871353,-0.0043569589,0.0429624394,0.0196669120,0.0491754413,-0.0436522216,0.0494620241
5.6170668602,-0.0069032395,0.0683817938,0.0159592051,0.0327862166,-0.0103699006,0.0811274052
5.6270651817,-0.0107846642,0.0877715424,0.0131508140,-0.0039033564,0.0311746113,0.0978818834
5.6370720863,-0.0069840187,0.0893556550,0.0023519425,-0.0619995520,0.0873491988,0.0954353735
5.6470589638,-0.0111102099,0.0769797638,0.0009123114,-0.1220996380,0.1327062845,0.0792473480
5.6570549011,-0.0061105276,0.0398645476,-0.0205076318,-0.2173089683,0.1670328528,0.0546554513
5.6670360565,-0.0058483565,-0.0169942304,-0.0305933934,-0.2269115448,0.1763597727,0.0291042849
5.6770467758,0.0054215258,-0.0482784435,-0.0456220470,-0.2276728004,0.1661404222,-0.0398823731
5.6870412827,-0.0005225771,-0.0717222616,-0.0413644277,-0.2252471894,0.1382070631,-0.0588259697
5.6970210075,0.0092862910,-0.1129911467,0.0143843917,-0.0881368741,0.0888474956,-0.0809138268
5.7070031166,0.0230925456,-0.0746591017,0.0163148660,0.0766667202,0.0429953188,-0.0924178809
5.7169961929,0.0126244342,-0.0319402739,0.0356267728,0.1580920666,0.0062301150,-0.0901089162
5.7270178795,0.0112576997,-0.0220765993,0.0536949672,0.2095898837,-0.0327535011,-0.0707690418
5.7370290756,0.0107401079,0.0074603031,0.0651323199,0.2375321686,-0.0623169914,-0.0535992496
5.7469491959,0.0074069565,0.0242493227,0.0678498149,0.2098076046,-0.0761987194,-0.0269300863
5.7570018768,-0.0028785102,0.0348544791,0.0652939081,0.1617694944,-0.0870156735,0.0007926207
5.7669982910,-0.0025585226,0.0432773307,0.0459176935,0.1370540261,-0.0794528350,0.0326325744
5.7769927979,-0.0064628655,0.0525128320,0.0244547147,0.1420904696,-0.0535274893,0.0600835085
5.7869000435,-0.0146781290,0.0683860853,-0.0068383189,0.1170594171,-0.0001723907,0.0725036934
5.7969512939,-0.0123879099,0.0722862557,-0.0384600125,0.0204527173,0.0642912835,0.0742797554
5.8069701195,-0.0247865543,0.0347616151,-0.0529854856,-0.0343839005,0.1161563471,0.0644202009
5.8169717789,-0.0147566879,-0.0006862213,-0.0626314282,-0.0451985970,0.1457235664,0.0323657244
5.8269748688,-0.0164280608,-0.0206311867,-0.0725280643,-0.0558839999,0.1540368795,0.0142586278
5.8369669914,-0.0072518522,-0.0479814336,-0.0489163958,-0.0001574866,0.1392443627,-0.0164951570
5.8469419479,0.0128170168,-0.0572605059,-0.0314649306,0.1015289277,0.1120968908,-0.0333883837
5.8569698334,0.0143190240,-0.0396299288,0.0110229878,0.2246483266,0.0733902454,-0.0459698252
5.8669281006,0.0143441772,-0.0361948535,0.0291045327,0.3273837566,0.0410703868,-0.0437072031
5.8769249916,0.0201938227,-0.0273432657,0.0548270382,0.4172128737,0.0193624292,-0.0393823646
5.8869400024,0.0096119409,-0.0037066271,0.0516715087,0.4738785326,0.0038686898,-0.0276351590
5.8969259262,-0.0018735462,0.0043754647,0.0487069525,0.4536402225,-0.0047647455,-0.0190663040
5.9069190025,0.0041751778,0.0093797510,0.0463402905,0.3425714970,0.0008071200,-0.0169000905
5.9169158936,-0.0016558104,0.0234223679,0.0427672900,0.2122159004,0.0116528440,-0.0051917685
5.9269099236,0.0051023727,0.0320491865,0.0373130478,0.0892718658,0.0363075882,-0.0105777457
5.9369158745,0.0059492057,0.0447170809,0.0101832775,-0.0476014353,0.0641296282,-0.0085402941
5.9469051361,-0.0029309026,0.0255028680,-0.0071504684,-0.1567148715,0.0931937695,-0.0107773496
5.9568691254,-0.0050292099,0.0019361447,-0.0280983429,-0.2369271517,0.1128574908,-0.0129712615
5.9668912888,-0.0054131979,-0.0071563055,-0.0300797801,-0.2785081565,0.1071828306,-0.0139678158
5.9768791199,-0.0007598632,-0.0240830705,-0.0253541451,-0.2825638652,0.0835840181,-0.0201865640
5.9868769646,0.0020225116,-0.0418261811,-0.0029998992,-0.2523324490,0.0431764163,-0.0231328197
5.9969849586,0.0028243728,-0.0299565718,0.0283939261,-0.1654395312,-0.0095760124,-0.0207251869
6.0068669319,0.0087033277,-0.0118487412,0.0457910337,-0.0776156634,-0.0483694784,-0.0120358262
6.0168647766,0.0088355010,0.0065646241,0.0608147420,-0.0079245958,-0.0894292966,-0.0022578971
6.0268888474,0.0033914961,0.0124851530,0.0616843738,0.0477051139,-0.1071049646,0.0052546137
6.0368618965,-0.0068577910,0.0224515274,0.0501795448,0.0851197317,-0.1163730323,0.0127262454
6.0468468666,-0.0092852348,0.0277249292,0.0351480283,0.1182073727,-0.1171586663,0.0158954076
6.0568532944,-0.0175784752,0.0310225561,0.0114352135,0.1083752513,-0.0915457159,0.0199849587
6.0668392181,-0.0212505534,0.0458745435,-0.0203027111,0.0621046871,-0.0470051467,0.0207908303
6.0768108368,-0.0113176340,0.0380895212,-0.0502932630,-0.0109038744,0.0058338363,0.0162494741
6.0868039131,-0.0142058516,0.0191091374,-0.0759881139,-0.0806648433,0.0564874262,0.0032210243
6.0967850685,-0.0103661353,0.0028239558,-0.1011751890,-0.1417445838,0.0921961516,-0.0150268227
6.1067938805,-0.0018288427,-0.0105377370,-0.1031590104,-0.1621310711,0.1090483665,-0.0257457793
6.1167769432,0.0027946301,-0.0198856518,-0.0749941468,-0.1587657630,0.0960968882,-0.0437259749
6.1268291473,0.0113908416,-0.0270556137,-0.0339397751,-0.1211699322,0.0696224049,-0.0488925092
6.1391849518,0.0209965482,-0.0211833045,0.0162837524,-0.0461426899,0.0317439958,-0.0465743616
6.1473007202,0.0151495552,-0.0005773833,0.0404889025,0.0191958379,-0.0007652104,-0.0325980932
6.1568150520,0.0084792590,0.0037006210,0.0575020351,0.0908889323,-0.0278652720,-0.0165355019
6.1668438911,0.0067942506,0.0072755883,0.0594695844,0.1498457193,-0.0615289584,-0.0067968555
6.1765718460,0.0013058550,0.0091060465,0.0550204553,0.2065337747,-0.0791739970,0.0028373958
6.1866259575,0.0056342995,0.0131402677,0.0441455282,0.2225758582,-0.0791316554,-0.0067356033
6.1966171265,0.0031299212,0.0228382424,0.0290473718,0.1594204605,-0.0571906678,-0.0089600086
6.2065739632,0.0055807298,0.0107830232,0.0174607057,0.1080653965,-0.0384494700,-0.0207319800
6.2166419029,0.0071699535,-0.0007052948,-0.0239245277,0.0351969078,-0.0016621631,-0.0272928085
6.2270698547,-0.0070944959,-0.0155965621,-0.0504025184,-0.0355763286,0.0373358354,-0.0274962746
6.2367048264,-0.0020419590,-0.0247593448,-0.0791136026,-0.0752956495,0.0627200231,-0.0223186910
6.2467880249,-0.0081325108,-0.0163924620,-0.0720311999,-0.0966909528,0.0679075941,-0.0212749969
6.2566990852,-0.0056087906,-0.0089642340,-0.0465045534,-0.1180468351,0.0646263137,-0.0106146298
6.2667741776,-0.0002435379,0.0043704580,-0.0131667228,-0.0879153013,0.0338915698,-0.0072491937
6.2767539024,0.0053390926,0.0139789646,0.0165177006,-0.0534699783,-0.0021564455,-0.0049178624
6.2867598534,0.0100669330,0.0198506787,0.0551756658,-0.0339436829,-0.0425651222,0.0017048868
6.2966527939,0.0160632357,0.0198331550,0.0724542141,-0.0336749628,-0.0746391714,0.0008518759
6.3066811562,0.0164612606,0.0177359059,0.0787677169,-0.0730122551,-0.0931310952,-0.0011255211
6.3166790009,0.0063286340,-0.0022336175,0.0711755157,-0.0740600750,-0.1015578657,0.0138010979
6.3266000748,-0.0008039855,-0.0124294097,0.0383199491,-0.0345227830,-0.1045038551,0.0084806345
6.3365421295,-0.0120726908,0.0018848847,0.0094700484,-0.0143512031,-0.0925579816,0.0126402248
6.3466491699,-0.0107482458,0.0085266894,-0.0084924074,-0.0326676257,-0.0702912882,0.0082590599
6.3566179276,-0.0015115523,0.0004277895,-0.0449638925,-0.0275598150,-0.0403701439,0.0027491120
6.3666448593,-0.0001115732,-0.0145053202,-0.0745164752,-0.0266881641,-0.0116149280,-0.0101866610
6.3767271042,-0.0027734272,-0.0303955004,-0.0885096788,-0.0386213884,0.0128480699,-0.0135242678
6.3866848946,0.0030760833,-0.0383133814,-0.0770765543,-0.0355105512,0.0235691573,-0.0125335716
6.3966841698,0.0086689657,-0.0304716751,-0.0489870869,-0.0142665142,0.0323725045,-0.0019805287
6.4066762924,0.0033367195,-0.0243946239,-0.0029877399,0.0402470604,0.0169075262,0.0150799472
6.4168348312,0.0057173735,-0.0063520600,0.0346498527,0.0926136002,0.0035485779,0.0300019048
6.4265890121,0.0040642833,0.0303338245,0.0569424666,0.1396165192,-0.0055980487,0.0427770875
6.4366059303,0.0056140190,0.0407952741,0.0650263429,0.1440288424,-0.0184856188,0.0322362967
6.4466152191,0.0026128658,0.0353788808,0.0610712208,0.0629558340,-0.0234241839,0.0280753747
6.4567632675,0.0017698772,0.0141397780,0.0606390871,0.0341859721,-0.0237765200,0.0132255880
6.4665689468,0.0049490547,0.0170626715,0.0256982464,-0.0064203106,-0.0082857106,-0.0134062888
6.4765810966,0.0004838474,0.0070530246,-0.0018848154,-0.0629701391,-0.0056459857,-0.0293232035
6.4865679741,0.0070150858,-0.0264691040,-0.0180049520,-0.0961163789,0.0067960364,-0.0442542173
6.4967212677,-0.0011985832,-0.0473672673,-0.0303310137,-0.0363542400,0.0104272570,-0.0485685356
6.5065579414,0.0012266404,-0.0444642231,-0.0547969900,0.0383580811,0.0120648351,-0.0496937223
6.5165567398,-0.0054311240,-0.0315363929,-0.0535855852,0.0564024635,0.0176998172,-0.0316807665
6.5265660286,-0.0103164250,-0.0322328135,-0.0366246663,0.0413228460,0.0263060872,-0.0115406113
6.5367169380,0.0000146992,-0.0162588879,-0.0070171328,0.0369977355,0.0243265610,0.0107850675
6.5465497971,0.0062072491,0.0084252423,0.0196245927,0.0370499343,0.0085039213,0.0353226364
6.5565400124,0.0065840995,0.0223097876,0.0462496914,0.0339341685,-0.0074332329,0.0492388494
6.5665211678,0.0108354455,0.0303116515,0.0738403201,0.0158840641,-0.0245554950,0.0631735697
6.5767192841,0.0084172701,0.0341237858,0.0835604072,-0.0289759543,-0.0216878019,0.0642490909
6.5865411758,0.0001473642,0.0386213735,0.0734363794,-0.0386930257,-0.0099698938,0.0684294552
6.5964689255,-0.0011141234,0.0332663134,0.0438129343,-0.0612693131,0.0185107477,0.0438222438
6.6065778732,-0.0188811645,0.0276437476,0.0157109518,-0.1287064105,0.0519544594,0.0160302948
6.6167831421,-0.0247093365,0.0062586735,-0.0069022747,-0.1745446026,0.0556269586,-0.0126446243
6.6265139580,-0.0117528373,-0.0198983476,-0.0314547978,-0.1595624685,0.0650532171,-0.0488375165
6.6365561485,-0.0084804231,-0.0224202797,-0.0461415015,-0.1049882919,0.0598869510,-0.0775270835
6.6465730667,-0.0001857810,-0.0293443725,-0.0417187177,-0.0247025117,0.0389867313,-0.0944458842
6.6565470695,0.0102839088,-0.0397118852,-0.0316875540,0.0608423501,0.0235606357,-0.1007792801
6.6665582657,0.0069987839,-0.0311728045,-0.0114166113,0.1474970877,-0.0045176046,-0.0879090205
6.6765708923,0.0075075990,-0.0182495639,0.0116049079,0.2468266040,-0.0164594837,-0.0740885437
6.6865367889,0.0040794378,0.0007850001,0.0205842871,0.2958450019,-0.0127286622,-0.0571487099
6.6965041161,-0.0044889385,0.0248380378,0.0462983884,0.2872974575,-0.0200933684,-0.0358478129
6.7064762115,0.0017020471,0.0204997137,0.0545722879,0.2701498866,-0.0200443659,-0.0145883337
6.7165179253,-0.0031361959,0.0402544811,0.0507036485,0.2262251824,-0.0063650394,0.0002282970
6.7265319824,-0.0061411196,0.0576671436,0.0365628637,0.1363395005,0.0165349506,0.0097040897
6.7364649773,-0.0023065440,0.0463649109,0.0170669574,0.0657006204,0.0384501033,0.0117367478
6.7464590073,0.0053476011,0.0347548202,-0.0038776968,-0.0050499802,0.0763431564,0.0072908672
6.7564611435,0.0021155097,0.0207226947,-0.0177708250,-0.1034989208,0.1096963212,-0.0034825518
6.7664351463,-0.0001210951,0.0014421414,-0.0341494046,-0.1452386379,0.1274430901,-0.0152547881
6.7764110565,-0.0012771719,-0.0285820886,-0.0370134674,-0.1633300334,0.1292537749,-0.0364990905
6.7864060402,-0.0054196650,-0.0331599042,-0.0322076641,-0.1257256567,0.1038027480,-0.0469842218
6.7964382172,-0.0043991888,-0.0442760512,-0.0221428853,-0.0838135034,0.0730546862,-0.0563778579
6.8064088821,-0.0112185264,-0.0317189023,0.0007279542,-0.0342880264,0.0221265238,-0.0571445823
6.8164272308,-0.0062077725,-0.0090237791,0.0259836931,0.0247260258,-0.0148243038,-0.0569464415
6.8264160156,-0.0039340192,0.0129600232,0.0497015156,0.0772941634,-0.0496243611,-0.0493207462
6.8364100456,-0.0013948464,0.0194538310,0.0649685860,0.1021570265,-0.0910357237,-0.0395068675
6.8464159966,0.0042907065,0.0230345204,0.0607973374,0.1087600738,-0.1155578420,-0.0382900685
6.8563947678,0.0042740321,0.0235731080,0.0438706912,0.1002323627,-0.1250666529,-0.0180388577
6.8663072586,0.0021397092,0.0151675409,0.0336036123,0.0487468056,-0.1007554531,-0.0032870758
6.8764081001,-0.0022612445,0.0102501577,0.0179047603,-0.0242316648,-0.0626352355,0.0209520832
6.8863048553,-0.0040655071,0.0096983379,-0.0188381057,-0.1015826464,-0.0075472165,0.0333975665
6.8963980675,-0.0051043564,-0.0020374586,-0.0619906746,-0.1767021567,0.0378929712,0.0405923650
6.9063739777,-0.0016091698,-0.0099934870,-0.0791347623,-0.2142529935,0.0642497391,0.0319485441
6.9163331985,0.0007672823,-0.0179600641,-0.0682353377,-0.2409083098,0.0650119334,0.0202761739
6.9263720512,0.0050466424,-0.0102502638,-0.0438019596,-0.2310862988,0.0446536690,0.0055278544
6.9363613129,0.0135730272,-0.0062631299,-0.0221477132,-0.2115336508,0.0135886949,-0.0197801664
6.9463601112,0.0068835234,-0.0158646032,0.0073728589,-0.1855403930,-0.0290256105,-0.0269587170
6.9563617706,0.0090828603,-0.0106052095,0.0409228243,-0.1692531556,-0.0609973893,-0.0310135111
6.9663481712,0.0103042191,0.0142190522,0.0521439947,-0.1082470715,-0.0891922787,-0.0085630640
6.9763402939,0.0068632131,0.0237366632,0.0523810424,-0.0141574582,-0.1097958237,-0.0031828131
6.9863309860,0.0016261555,0.0276212767,0.0317645110,0.0414038040,-0.1199722961,0.0064058984
6.9963278770,-0.0006756567,0.0123124784,0.0244098920,0.0947353318,-0.1184148788,0.0148559753
7.0064458847,-0.0098660970,0.0048941444,0.0066006212,0.1405683309,-0.1105697379,0.0158354864
7.0163741112,-0.0036269061,0.0084294742,-0.0205947142,0.1605321914,-0.0761193484,0.0272870772
7.0263271332,-0.0044881338,0.0109322732,-0.0486752950,0.1622720361,-0.0321945064,0.0376249366
7.0363121033,-0.0073944414,-0.0041932394,-0.0747197866,0.1523213983,0.0125505943,0.0288399681
7.0462808609,0.0003605849,-0.0231415555,-0.0890311003,0.1212233976,0.0388301350,0.0053186626
7.0562939644,-0.0046964074,-0.0372853205,-0.0714827776,0.0924057364,0.0427843966,-0.0063740788
7.0662860870,0.0067930436,-0.0327196643,-0.0365229212,0.0573803708,0.0315349400,-0.0402731895
7.0762681961,0.0165220574,-0.0166703984,-0.0108153792,0.0212290287,0.0162494592,-0.0443952307
7.0862808228,0.0206180438,-0.0161788389,0.0314535536,0.0289231651,-0.0041434299,-0.0612666197
7.0962710381,0.0151004260,-0.0021961262,0.0520476140,0.0204929300,-0.0212265439,-0.0515889600
7.1062650681,0.0056858426,0.0116919344,0.0657266974,0.0249092504,-0.0456293561,-0.0344355404
7.1162629128,0.0129929548,0.0158273652,0.0629384518,0.0089838132,-0.0606189556,-0.0237061977
7.1262621880,0.0046969419,0.0187226012,0.0597523488,-0.0346574076,-0.0811455399,-0.0097315265
7.1362681389,0.0061800843,0.0106927222,0.0543506779,-0.0752345324,-0.0835058987,0.0020027612
7.1462850571,-0.0022359423,0.0130955642,0.0397469439,-0.0946087614,-0.0685927272,0.0136058880
7.1562581062,-0.0000983708,0.0144534176,0.0192655344,-0.1044460759,-0.0461036637,0.0272768252
7.1661190987,0.0009054012,0.0107953614,-0.0100085707,-0.1004835591,-0.0128495703,0.0376823284
7.1762290001,-0.0030710481,-0.0055760671,-0.0439785682,-0.0826261342,0.0204615146,0.0417014398
7.1861939430,-0.0023716472,-0.0198922679,-0.0690205097,-0.0828796700,0.0545883253,0.0329811834
7.1962108612,-0.0067515755,-0.0340173170,-0.0607405864,-0.0690204427,0.0631067157,0.0169818439
7.2061882019,-0.0032742701,-0.0381110236,-0.0357526504,-0.0613934100,0.0533467606,-0.0063327998
7.2162418365,0.0052501922,-0.0342948362,-0.0088075968,-0.0567636415,0.0137434248,-0.0177685469
7.2262172699,0.0121266311,-0.0381491110,0.0279688854,-0.0297823548,-0.0171519071,-0.0303357374
7.2362031937,0.0025680878,-0.0244041011,0.0491795577,0.0196071640,-0.0499428771,-0.0333383195
7.2462768555,-0.0000781350,0.0051516960,0.0599181689,0.0412069969,-0.0849461332,-0.0214401130
7.2561879158,-0.0026131801,0.0210473612,0.0736072659,0.0263733231,-0.1020827815,-0.0128225246
7.2661828995,-0.0019486927,0.0211800411,0.0667459965,0.0104982192,-0.1224309281,-0.0031179651
7.2762179375,-0.0003132753,0.0191662386,0.0518252887,-0.0279277340,-0.1290035993,0.0128868343
7.2864389420,0.0041083461,0.0130496090,0.0395438708,-0.0558195487,-0.1204873547,0.0340989120
7.2962179184,0.0004073001,0.0203554109,0.0162873287,-0.0625476241,-0.0893635228,0.0551500022
7.3061771393,-0.0055034095,0.0206823424,-0.0157270413,-0.0661815107,-0.0422466062,0.0686580911
7.3161649704,-0.0107336277,0.0140824383,-0.0515476428,-0.0710305870,0.0230250750,0.0809850618
7.3262271881,-0.0094965482,0.0094515746,-0.0804666877,-0.0842667669,0.0773767233,0.0742675066
7.3361549377,-0.0122292573,0.0008792350,-0.1084153056,-0.0887595192,0.1134843975,0.0517291725
7.3461251259,-0.0109358365,-0.0299155638,-0.1087828279,-0.0855533406,0.1229103878,0.0261684172
7.3561258316,-0.0067175562,-0.0486823246,-0.0787703991,-0.0565563142,0.1132564321,-0.0046006800
7.3661170006,0.0025466748,-0.0514547750,-0.0405922495,0.0089997929,0.0707664937,-0.0330554917
7.3761100769,0.0188980177,-0.0420908853,-0.0000110838,0.0573215187,0.0390106998,-0.0403189957
7.3861169815,0.0217246339,-0.0383110568,0.0613951124,0.1259863377,-0.0032099921,-0.0400931574
7.3959250450,0.0198220983,-0.0109975273,0.0918397903,0.1742550582,-0.0348278396,-0.0314227045
7.4059338570,0.0161201581,0.0134006804,0.1029273272,0.1744369566,-0.0635385811,-0.0142383939
7.4159388542,0.0088230884,0.0063340734,0.0983119011,0.1414276063,-0.0796895847,0.0018252612
7.4263238907,0.0082803285,0.0078625744,0.0806958675,0.1062279418,-0.0894370228,0.0189119708
7.4361009598,0.0017458267,0.0129414862,0.0586776771,0.0452793688,-0.0823077410,0.0327188596
7.4460759163,-0.0000667207,0.0167123154,0.0313091911,-0.0093239546,-0.0686995238,0.0486046150
7.4560699463,-0.0011634760,0.0270285085,0.0044571189,-0.0640801415,-0.0316858441,0.0515889563
7.4660482407,-0.0102527225,0.0320814326,-0.0277119260,-0.1061141416,0.0140198618,0.0598210506
7.4760599136,-0.0117317969,0.0253048614,-0.0522087179,-0.1492387056,0.0702367947,0.0488650762
7.4860539436,-0.0210914090,0.0143680042,-0.0741389990,-0.2017597109,0.1017763466,0.0348861441
7.4960517883,-0.0235358849,-0.0131571228,-0.0805872083,-0.2263209820,0.1110265628,0.0135941701
7.5060439110,-0.0170999989,-0.0317801163,-0.0773103833,-0.2228932381,0.0926837772,-0.0096618840
7.5160450935,-0.0125727588,-0.0364365503,-0.0523992144,-0.1585002542,0.0546178892,-0.0200856309
7.5260152817,0.0047498560,-0.0373932645,0.0113838939,-0.0555230081,-0.0013407193,-0.0325433649
7.5360927582,0.0144396788,-0.0127392346,0.0502260365,0.0195010342,-0.0423470065,-0.0206418298
7.5460381508,0.0164422318,0.0043534110,0.0915139914,0.0795305520,-0.0770621151,-0.0098347235
7.5560207367,0.0177705660,0.0194975808,0.0911372900,0.1128425673,-0.1087606475,0.0030969211
7.5660152435,0.0113780564,0.0287693217,0.0840259194,0.1203361675,-0.1171259061,0.0180194117
7.5760049820,0.0050188070,0.0204187110,0.0750432611,0.1041998118,-0.1054191887,0.0264528431
7.5859961510,-0.0063731307,0.0264479592,0.0491216220,0.0613181256,-0.0864399076,0.0348588452
7.5959787369,-0.0110309804,0.0273538306,0.0170260090,0.0087176301,-0.0526007079,0.0399884917
7.6059932709,-0.0051295394,0.0241245106,-0.0212098341,-0.0418720432,0.0004023195,0.0343681574
7.6159720421,-0.0160617009,0.0224381760,-0.0580438934,-0.1032067761,0.0618742034,0.0286996216
7.6259799004,-0.0135756666,0.0118441051,-0.0843439698,-0.1463387907,0.1170634255,0.0219975095
7.6359820366,-0.0132047022,-0.0007117321,-0.0960939527,-0.1582631022,0.1467323601,0.0026911881
7.6459670067,-0.0110507840,-0.0082744891,-0.0815175176,-0.1604474336,0.1552113444,-0.0037366173
7.6559648514,-0.0049374634,-0.0224101469,-0.0452277027,-0.1315048486,0.1457003951,-0.0175074246
7.6659440994,-0.0075266147,-0.0138545567,-0.0096794935,-0.0382553339,0.1035790369,-0.0279233139
7.6759810448,0.0037819811,-0.0046195914,0.0317410864,0.0710422620,0.0562557280,-0.0361917652
7.6859478951,0.0075267470,0.0127809709,0.0708052516,0.1398125291,0.0012103224,-0.0358828381
7.6959490776,0.0088456934,0.0109413927,0.0957963467,0.2213634551,-0.0484347269,-0.0409312584
7.7059249878,0.0154194748,0.0152010387,0.0842369199,0.2771068811,-0.0758194849,-0.0439797789
7.7159361839,0.0113739138,0.0204745010,0.0679191947,0.2910815477,-0.0906082764,-0.0353913493
7.7259211540,0.0093200123,0.0062756012,0.0614603795,0.2771934271,-0.0917299986,-0.0290000290
7.7358922958,0.0023426332,-0.0032995869,0.0410007276,0.2322033197,-0.0759734064,-0.0205716565
7.7459111214,0.0009980268,-0.0015106131,0.0102626709,0.1646663547,-0.0464514717,-0.0069048470
7.7559270859,0.0022876479,-0.0019881655,-0.0179941636,0.1066264808,-0.0019287455,0.0024082272
7.7659149170,-0.0035986386,0.0029518674,-0.0478314124,0.0304006897,0.0477876775,0.0106381942
7.7758941650,-0.0010198437,0.0036879252,-0.0722702146,-0.0544064790,0.1038229838,0.0156461354
7.7858982086,-0.0076171989,0.0040775607,-0.0758052468,-0.1101778671,0.1333723664,0.0218678135
7.7958788872,-0.0065216804,0.0005250046,-0.0667809844,-0.1347981244,0.1459131837,0.0101146167
7.8059039116,-0.0084016258,-0.0020332863,-0.0335781537,-0.1624049842,0.1317235976,0.0006643897
7.8158788681,-0.0062347585,-0.0016342332,0.0034252431,-0.1567610800,0.0964566767,-0.0022915863
7.8258471489,0.0108397966,-0.0029549529,0.0358205475,-0.1018970311,0.0466113612,-0.0062562339
7.8358759880,0.0076769954,0.0037195752,0.0559023656,-0.0022308910,-0.0028153118,-0.0028223542
7.8458561897,0.0039678132,-0.0028513600,0.0679460168,0.0750692189,-0.0525415875,-0.0131777897
7.8558368683,0.0103877848,-0.0013258983,0.0579484738,0.1160190478,-0.0950749293,-0.0246176645
7.8658552170,0.0062482124,0.0091371601,0.0520001687,0.1557403654,-0.1162798181,-0.0404437631
7.8758649826,0.0072924411,0.0032202671,0.0502608456,0.1643549055,-0.1216394380,-0.0499762855
7.8857049942,0.0132184690,0.0089598363,0.0405486263,0.1323008239,-0.1134369001,-0.0616933964
7.8959178925,0.0095471805,0.0084844297,0.0128411679,0.0894369781,-0.0913675427,-0.0671193153
7.9058580399,0.0107921427,-0.0107408101,-0.0141351195,0.0197095610,-0.0460304283,-0.0769261420
7.9158830643,0.0009525336,-0.0158441588,-0.0438544117,-0.0715507045,0.0153128244,-0.0698212236
7.9258518219,-0.0113402838,-0.0018443991,-0.0780910850,-0.1340567023,0.0833230317,-0.0595946908
7.9358749390,-0.0163507089,0.0128992265,-0.1009001732,-0.2018083185,0.1353654712,-0.0375770070
7.9458398819,-0.0189698711,0.0284532383,-0.0977038145,-0.2426795810,0.1661896855,-0.0207500886
7.9558229446,-0.0189240649,0.0400930718,-0.0750427842,-0.2533713579,0.1640639454,-0.0090399031
7.9658107758,-0.0101492340,0.0401892141,-0.0211238842,-0.2605600357,0.1287562996,-0.0066811414
7.9757790565,-0.0021011315,0.0345048979,0.0338282026,-0.2152650058,0.0703715533,-0.0010237884
7.9857931137,0.0121596223,0.0233209208,0.0747579336,-0.1134776548,0.0251825005,-0.0029266169
7.9957828522,0.0141000515,0.0163422301,0.0880886912,0.0054483335,-0.0304895509,0.0037258260
8.0057992935,0.0105029708,0.0029203366,0.0788397193,0.1102748811,-0.0595414415,0.0112777520
8.0157918930,0.0062271124,-0.0237157866,0.0626769662,0.2204658240,-0.0865323097,0.0050014798
8.0257873535,-0.0010232561,-0.0226278827,0.0421612896,0.2845830321,-0.0925036520,-0.0013789209
8.0357704163,-0.0053548599,-0.0193338916,0.0278481264,0.3069613278,-0.0849131122,-0.0088802464
8.0458145142,0.0002120800,-0.0218945071,-0.0020159455,0.2801249027,-0.0638083592,-0.0164351016
8.0557670593,-0.0002328985,-0.0110824043,-0.0333595239,0.2126071155,-0.0259709638,-0.0304449257
8.0657320023,0.0021922954,-0.0132754976,-0.0545324646,0.1216021031,0.0106512289,-0.0401803814
8.0757398605,0.0043146079,-0.0079879696,-0.0645777583,0.0657770559,0.0455700643,-0.0308056530
8.0857019424,-0.0007551842,0.0058630775,-0.0642547011,0.0152741997,0.0826599151,-0.0225117691
8.0957355499,-0.0040458972,0.0087006157,-0.0613650046,-0.0436497033,0.1005523503,-0.0013373755
8.1057281494,-0.0076329196,0.0007662246,-0.0234830957,-0.0586156026,0.0994495377,0.0082417484
8.1157217026,-0.0025208227,0.0035562585,0.0065500168,-0.0595837943,0.0834948123,0.0179059599
8.1257190704,0.0093545234,0.0093913740,0.0463879146,-0.0561736189,0.0536948368,0.0297831260
8.1357212067,0.0088286763,0.0034131478,0.0764364004,-0.0345371664,0.0217334405,0.0225391947
8.1457014084,0.0164468959,0.0043268274,0.0754210353,-0.0042847209,-0.0208206773,0.0185444541
8.1556835175,0.0186183527,-0.0141374404,0.0678662658,0.0493354946,-0.0461619869,0.0059206705
8.1656894684,0.0171548650,-0.0264577791,0.0529183783,0.1104151011,-0.0672289208,-0.0131084137
8.1757421494,0.0177735910,-0.0229483172,0.0333076753,0.1372227520,-0.0757092237,-0.0290074870
8.1857051849,0.0059460020,-0.0311123654,0.0167165417,0.1446620226,-0.0651090443,-0.0460796766
8.1956768036,0.0010154016,-0.0286833569,-0.0225144010,0.0976361856,-0.0569485873,-0.0492874570
8.2056674957,-0.0070372308,-0.0303053781,-0.0377243720,0.0601244941,-0.0390601344,-0.0483148694
8.2157001495,-0.0133083398,-0.0262922570,-0.0484348498,-0.0041164095,-0.0181252919,-0.0420320742
8.2256689072,-0.0123017961,0.0047637294,-0.0451589786,-0.0908222795,0.0038122307,-0.0229907390
8.2356662750,-0.0095506990,0.0237427428,-0.0326815210,-0.1635460109,0.0119865369,-0.0006806399
8.2456550598,-0.0021785132,0.0366528109,-0.0078405114,-0.1998763233,0.0044873422,0.0302027091
8.2556800842,0.0010542787,0.0455093458,0.0265635271,-0.2063169181,-0.0006965006,0.0546752922
8.2656593323,-0.0025186173,0.0455041602,0.0502957143,-0.1860041916,-0.0089898510,0.0664011911
8.2756443024,0.0067149913,0.0348970369,0.0597561039,-0.1550235003,-0.0150927510,0.0749194473
8.2856149673,0.0033703216,0.0175069645,0.0558338799,-0.0984145477,-0.0199807175,0.0770363957
8.2956209183,-0.0045257444,-0.0114122564,0.0290028471,-0.0396781303,-0.0164688062,0.0589091890
8.3056011200,-0.0123251611,-0.0294459984,-0.0054410072,-0.0332734957,-0.0049168123,0.0290828496
8.3155994415,-0.0189730898,-0.0492713973,-0.0357785784,0.0137363570,0.0005599787,0.0024565638
8.3256034851,-0.0108948583,-0.0549151227,-0.0577590428,0.0693356991,0.0038785439,-0.0347874798
8.3355970383,-0.0106827999,-0.0388262197,-0.0513691865,0.0768980160,0.0016081987,-0.0570879877
8.3455991745,-0.0015689366,-0.0274544284,-0.0312665068,0.0758987963,-0.0038070730,-0.0644889176
8.3555936813,0.0133742159,-0.0091497237,-0.0110417577,0.1027091071,-0.0248447135,-0.0494995788
8.3655929565,0.0107271885,0.0041840742,0.0101314215,0.0995010659,-0.0332200900,-0.0260704178
8.3755903244,0.0068512475,0.0192983821,0.0292058606,0.0705607608,-0.0320802554,0.0090036783
8.3855743408,0.0105150109,0.0381998494,0.0423154868,0.0523199663,-0.0330176875,0.0408942364
8.3955698013,0.0121623343,0.0422419980,0.0474901833,0.0266023539,-0.0298173688,0.0632006079
8.4055614471,0.0097537553,0.0343803838,0.0544812717,0.0029675988,-0.0180981271,0.0801393762
8.4155578613,0.0111268675,0.0302518085,0.0447488464,-0.0121840555,0.0032447113,0.0895718932
8.4255552292,0.0026012280,0.0308243707,0.0270320196,-0.0273829810,0.0383065604,0.0787312239
8.4358463287,-0.0047970945,0.0175964311,-0.0014960739,-0.0564163662,0.0741969198,0.0519575365
8.4456167221,-0.0091105336,-0.0064407517,-0.0272296648,-0.0928079337,0.0992759019,0.0178238023
8.4555625916,-0.0151107842,-0.0383491442,-0.0502589308,-0.1130214483,0.1062664315,-0.0204496849
8.4655427933,-0.0121640498,-0.0564709827,-0.0597853027,-0.1320713162,0.1015078947,-0.0597139969
8.4755306244,-0.0131127471,-0.0490519330,-0.0431534015,-0.1039556563,0.0673078448,-0.0850101635
8.4855155945,0.0037652322,-0.0381113216,-0.0103025408,-0.0149128642,0.0208061282,-0.1038938388
8.4955282211,0.0072521931,-0.0248808190,0.0298403520,0.0602862835,-0.0394838452,-0.0982455462
8.5054922104,0.0109719401,-0.0064851572,0.0616369285,0.1182313412,-0.0753928423,-0.1001779363
8.5155467987,0.0052057123,0.0177192762,0.0574839152,0.1451222152,-0.1070967168,-0.0819292888
8.5255308151,0.0033526935,0.0313035324,0.0593788661,0.1516504139,-0.1282858849,-0.0658605695
8.5355348587,0.0025499680,0.0292514041,0.0574462451,0.1420506537,-0.1388341337,-0.0402861089
8.5453996658,0.0024524995,0.0348066166,0.0552538075,0.0992808193,-0.1421079636,-0.0094256625
8.5555429459,-0.0035524748,0.0272066072,0.0350195803,0.0414588004,-0.1305746138,0.0160344243
8.5654678345,-0.0030635975,0.0241689160,0.0056176214,-0.0005549639,-0.0943335071,0.0423885323
8.5755405426,-0.0021964691,0.0355821922,-0.0181353074,-0.0074902354,-0.0407062359,0.0707321614
8.5856122971,-0.0076089138,0.0477506593,-0.0459083281,-0.0636171550,0.0357856080,0.0670881569
8.5955276489,-0.0131215686,0.0408721641,-0.0810914040,-0.1869484186,0.1074653864,0.0613969788
8.6055002213,-0.0109745348,0.0036197375,-0.0785127878,-0.2266297638,0.1411146969,0.0325219221
8.6155138016,-0.0068056518,-0.0190753862,-0.0869007707,-0.2447848171,0.1493638307,0.0133567490
8.6256980896,-0.0066292370,-0.0308086202,-0.0533803664,-0.2221194506,0.1290140897,-0.0120245069
8.6355152130,0.0075587546,-0.0372472331,-0.0300780516,-0.1320618689,0.0878879577,-0.0277548674
8.6455135345,0.0141037321,-0.0391938612,0.0115880994,0.0006921943,0.0418605469,-0.0307362769
8.6555156708,0.0150198108,-0.0240088627,0.0394708551,0.1195858270,-0.0043162694,-0.0390205719
8.6656713486,0.0054608202,-0.0036352207,0.0523617305,0.2010370046,-0.0474251248,-0.0292363837
8.6755018234,0.0088854795,-0.0004036357,0.0620530881,0.2664619386,-0.0853884816,-0.0279725827
8.6854114532,0.0065935170,0.0079210466,0.0643232465,0.3200359643,-0.1126992032,-0.0203961544
8.6954078674,0.0083063161,0.0095977848,0.0629968047,0.3339824080,-0.1242780909,-0.0118303634
8.7056589127,0.0089579588,0.0169819072,0.0526976027,0.3007799685,-0.1190092936,0.0094064819
8.7154045105,0.0065369671,0.0211168006,0.0284061451,0.2653024197,-0.0935215056,0.0220136195
8.7253780365,0.0068086749,0.0278668478,-0.0088872286,0.2071592212,-0.0372252166,0.0333754644
8.7353982925,-0.0040366137,0.0293097571,-0.0360381566,0.1093946993,0.0410610661,0.0276255645
8.7455997467,-0.0082849497,0.0157000497,-0.0636381507,0.0308892448,0.1141461954,0.0208321102
8.7553796768,-0.0098230327,0.0028439234,-0.0847912431,-0.0239106212,0.1648695469,0.0024810648
8.7653799057,-0.0144968266,-0.0100999409,-0.0779466629,-0.0678029805,0.1868294477,-0.0146289458
8.7753734589,-0.0045227790,-0.0268309638,-0.0516216122,-0.0730530024,0.1813308299,-0.0284026824
8.7855453491,0.0026292421,-0.0336608216,-0.0164971333,-0.0439214781,0.1514573395,-0.0484147370
8.7953748703,0.0129893040,-0.0315145776,0.0148739247,-0.0103221070,0.0928648785,-0.0554924868
8.8053665161,0.0198526755,-0.0436486527,0.0651546717,0.0607794970,0.0164071172,-0.0614206865
8.8153705597,0.0231636986,-0.0419125482,0.0942373872,0.1135136858,-0.0355604738,-0.0621851459
8.8255500793,0.0118537610,-0.0060040285,0.1096079350,0.1372975707,-0.0769505203,-0.0491846614
8.8352842331,0.0086253202,0.0103318756,0.1026504040,0.1278326958,-0.1056295782,-0.0192438047
8.8453788757,0.0064675277,0.0118386811,0.0876810551,0.0959908888,-0.1335373670,-0.0041671172
8.8553771973,-0.0044585699,0.0130233830,0.0654712319,0.0533281080,-0.1444110572,0.0129319746
8.8653841019,-0.0048612142,0.0158986524,0.0496164002,-0.0247259475,-0.1373424828,0.0352508649
8.8752708435,-0.0113565261,0.0260129645,0.0222495813,-0.1104091555,-0.1079598442,0.0489307195
8.8853588104,-0.0122517282,0.0288142040,-0.0183088761,-0.1781919301,-0.0506057367,0.0677291751
8.8953533173,-0.0087053860,0.0361364558,-0.0593772493,-0.2759613693,0.0266456418,0.0651698858
8.9052782059,-0.0278811231,0.0262686089,-0.0875046849,-0.3501543999,0.0891942382,0.0722528249
8.9153594971,-0.0238298550,0.0046832035,-0.1079033017,-0.3984948695,0.1356419027,0.0486155376
8.9253530502,-0.0248898044,-0.0071398546,-0.0992521644,-0.4124402702,0.1493103057,0.0347255543
8.9352855682,-0.0160384700,-0.0235996768,-0.0777443051,-0.3791532516,0.1333630383,0.0146204196
8.9452857971,-0.0021902255,-0.0297437832,-0.0419449173,-0.2527601719,0.0861268118,0.0010273785
8.9552879333,0.0070932573,-0.0253778026,0.0036560323,-0.1016751826,0.0240679681,-0.0188631043
8.9652900696,0.0118454015,-0.0057475497,0.0423423685,0.0151869813,-0.0328520387,-0.0313243046
8.9751071930,0.0180953220,-0.0041398932,0.0751139522,0.1181138977,-0.0844968557,-0.0395617262
8.9852457047,0.0159623101,0.0036034058,0.0782024860,0.2048767507,-0.1191323325,-0.0436472818
8.9952917099,0.0072093075,0.0145026511,0.0642066598,0.2626501620,-0.1368135959,-0.0382590406
9.0052919388,0.0063026464,0.0110526746,0.0556035079,0.2989000678,-0.1364242285,-0.0255381856
9.0153942108,0.0013981230,0.0094911521,0.0421035923,0.2667249441,-0.1216301173,-0.0160492100
9.0252866745,-0.0076664770,0.0201950744,0.0056860475,0.2182871103,-0.0801583081,0.0028387276
9.0352830887,0.0005212344,0.0278192237,-0.0357674919,0.1665492058,-0.0206779316,0.0056759259
9.0452718735,-0.0023198060,0.0301375464,-0.0699546337,0.0774065405,0.0490912944,-0.0042757746
9.0552721024,-0.0112405354,0.0096733635,-0.0821877718,0.0075349212,0.1083988249,-0.0056761978
9.0651922226,-0.0037950359,-0.0030571749,-0.0935837626,-0.0140771633,0.1444798708,-0.0165189914
9.0751943588,-0.0034033142,-0.0109236771,-0.0807649493,-0.0386488214,0.1495760977,-0.0229076482
9.0852022171,-0.0000246399,-0.0303930566,-0.0454902612,-0.0289037824,0.1356935650,-0.0302611683
9.0951852798,0.0111681586,-0.0407501981,0.0037612345,0.0365641750,0.0934331939,-0.0321592055
9.1051816940,0.0108042574,-0.0283741876,0.0484482683,0.1096003056,0.0405220389,-0.0361166634
9.1151523590,0.0020137795,-0.0236580893,0.0846623182,0.1420369297,-0.0105086518,-0.0326179340
9.1251649857,0.0110858744,-0.0167539045,0.1016398072,0.1808429211,-0.0572172999,-0.0302173607
9.1351919174,0.0164399520,0.0018900107,0.1011162400,0.1950227916,-0.0955524445,-0.0267937332
9.1451501846,0.0122713661,0.0086702174,0.0945532918,0.1599537432,-0.1171450838,-0.0202548727
9.1551475525,0.0169220045,0.0074482630,0.0915406942,0.0970168710,-0.1281926781,-0.0052658045
9.1651420593,0.0137888705,0.0124985045,0.0624390878,0.0274923835,-0.1137128025,0.0010631979
9.1751203537,0.0037726678,0.0033331583,0.0190470237,-0.0550312549,-0.0789644048,0.0147073707
9.1852064133,-0.0066020722,-0.0023374488,-0.0248804670,-0.1153372079,-0.0205200072,0.0292439684
9.1951274872,-0.0136861140,0.0092619723,-0.0604878627,-0.1885428429,0.0516551211,0.0351970643
9.2051544189,-0.0201868936,0.0214992240,-0.0916540027,-0.2541844249,0.1131919846,0.0412182063
9.2151136398,-0.0201194361,0.0150778955,-0.1015073061,-0.2992859781,0.1491113603,0.0335835889
9.2280359268,-0.0221103057,0.0096283620,-0.0833233595,-0.3376165926,0.1454268843,0.0123864254
9.2356710434,-0.0122279013,-0.0016462137,-0.0458596312,-0.3607486784,0.1056365967,0.0052250531
9.2457962036,0.0028355636,-0.0174622461,0.0094175963,-0.2768828273,0.0388059020,-0.0113983983
9.2557039261,0.0105111664,-0.0201643631,0.0564323105,-0.1770182848,-0.0299595818,-0.0184576400
9.2657461166,0.0174236670,-0.0116411382,0.0992994905,-0.0655868277,-0.0845842138,-0.0075573213
9.2755641937,0.0149805462,-0.0058525135,0.1018062830,0.0243549123,-0.1191355288,-0.0052737938
9.2849216461,0.0089382147,-0.0047744443,0.0745589733,0.0714981854,-0.1432896107,0.0022866542
9.2950563431,0.0048321551,-0.0083585912,0.0593213476,0.0918489993,-0.1558658481,0.0129773812
9.3049592972,-0.0003341370,-0.0099970633,0.0470185317,0.0832525864,-0.1547363997,0.0278495383
9.3148994446,-0.0017805480,-0.0020500948,0.0198881645,0.0574011467,-0.1292241067,0.0351400748
9.3249664307,-0.0043433541,0.0124748414,-0.0250360351,0.0357054397,-0.0887413993,0.0391422734
9.3348817825,-0.0013762199,0.0308168605,-0.0661669970,0.0031903731,-0.0301830210,0.0419729464
9.3449716568,-0.0074636871,0.0285151675,-0.0907627940,-0.0187623315,0.0444355570,0.0383172259
9.3548593521,-0.0138074243,0.0290122703,-0.1203204989,-0.0576771051,0.1081610098,0.0262455158
9.3648748398,-0.0203868672,0.0206868127,-0.1284908056,-0.0771999359,0.1485606283,0.0185604319
9.3748731613,-0.0173536167,0.0049161981,-0.0962893963,-0.0398347266,0.1530137062,0.0046909559
9.3848628998,-0.0113143111,-0.0017233421,-0.0549499355,0.0181340352,0.1212256774,-0.0153288245
9.3948650360,-0.0011461460,-0.0049690534,-0.0042861672,0.1018205434,0.0715976730,-0.0193122476
9.4048576355,0.0074218279,-0.0116811926,0.0383303203,0.2207581252,0.0190324616,-0.0243663955
9.4150104523,0.0114076948,0.0005950401,0.0640349984,0.3152047396,-0.0401520319,-0.0314858221
9.4248104095,0.0166714266,0.0073921154,0.0863987207,0.3741838932,-0.0728284791,-0.0313151143
9.4348440170,0.0164350048,0.0055760215,0.0925611854,0.4289343357,-0.1087816879,-0.0353691094
9.4447975159,0.0135214394,0.0105456775,0.0742695928,0.3895283341,-0.1176822409,-0.0405958295
9.4550981522,0.0047755605,0.0083493656,0.0612564124,0.3093850613,-0.1097042114,-0.0352806933
9.4648170471,0.0048820144,-0.0040095379,0.0359480418,0.2217124552,-0.0901297107,-0.0417207517
9.4748506546,0.0018642909,-0.0003724625,-0.0000327203,0.1103343964,-0.0481937118,-0.0366030894
9.4848155975,-0.0015196734,0.0027687619,-0.0279658418,0.0308800563,0.0047041234,-0.0283914972
9.4950571060,-0.0013787978,0.0036541293,-0.0523531996,-0.0283583663,0.0662929192,-0.0223763473
9.5049667358,-0.0075938040,0.0177732781,-0.0705424547,-0.1238550544,0.1212405860,-0.0099172816
9.5149593353,-0.0063545937,0.0160502866,-0.0579171740,-0.1935437322,0.1591570824,-0.0122378273
9.5249509811,-0.0041661793,0.0101823276,-0.0369467698,-0.2618665993,0.1659739763,-0.0281701889
9.5349960327,-0.0047687227,0.0020895670,-0.0135478945,-0.3000090420,0.1304234415,-0.0268533882
9.5449457169,0.0036280223,-0.0184566304,0.0256161112,-0.2376399487,0.0774116218,-0.0329275280
9.5549449921,0.0112370318,-0.0054652025,0.0505052246,-0.1506656259,0.0139892343,-0.0283255838
9.5649356842,0.0043882793,0.0078355139,0.0923284292,-0.1096425727,-0.0402383208,-0.0322521478
9.5750179291,0.0029741295,-0.0041240384,0.1110584736,-0.0687433407,-0.0836853907,-0.0256259367
9.5849151611,0.0076805418,-0.0062405397,0.0910392404,-0.0151677290,-0.1099545434,-0.0212434381
9.5949249268,-0.0001686596,-0.0122269327,0.0662830472,0.0063431556,-0.1321746260,-0.0136750024
9.6049365997,-0.0052384967,-0.0132489735,0.0600512065,-0.0171251521,-0.1365768313,-0.0072557186
9.6149330139,-0.0025232665,-0.0125493938,0.0350176729,-0.0610812902,-0.1186343208,0.0054053492
9.6248693466,-0.0009362333,-0.0072832634,-0.0069414349,-0.0901853815,-0.0867411047,0.0115932040
9.6348991394,-0.0084106559,0.0035682986,-0.0550428592,-0.1183982417,-0.0334621705,0.0187071711
9.6448917389,-0.0094647938,0.0124826496,-0.0826132894,-0.1306280196,0.0241944678,0.0225913934
9.6549625397,-0.0107965106,0.0242776349,-0.1034036875,-0.1651584208,0.0740562975,0.0095412377
9.6648607254,-0.0092972154,0.0223670676,-0.1038273573,-0.2005339861,0.0950950086,0.0019927740
9.6748619080,-0.0048264200,-0.0018058349,-0.0738375187,-0.1769381166,0.0855686069,-0.0085863667
9.6848640442,-0.0022942952,-0.0061905910,-0.0377420150,-0.1137338430,0.0624531768,-0.0191045217
9.6949281693,0.0033461519,-0.0101761753,-0.0001218888,-0.0407925323,0.0192026384,-0.0178110246
9.7048578262,0.0091436869,-0.0225292370,0.0469540395,0.0512375273,-0.0110261030,-0.0113049215
9.7148284912,0.0063070720,-0.0180165097,0.0605257191,0.1678408384,-0.0442647487,-0.0047996179
9.7248516083,0.0143178171,-0.0062000682,0.0582984127,0.2437563837,-0.0628432333,0.0037669723
9.7349100113,0.0175679997,-0.0126832062,0.0643484592,0.2705554962,-0.0786197931,0.0102280667
9.7448282242,0.0179155543,-0.0201691315,0.0655310154,0.2609491944,-0.0807862729,0.0155607816
9.7548351288,0.0132460361,-0.0073646237,0.0507897772,0.2405482084,-0.0680798069,0.0197410118
9.7648229599,0.0087076789,-0.0045698811,0.0114957122,0.2158380598,-0.0479819924,0.0175031573
9.7749195099,0.0049856668,-0.0057921340,-0.0192133170,0.1727857888,-0.0034574000,0.0140595566
9.7848205566,-0.0029410652,0.0005691121,-0.0453559123,0.1392502040,0.0497411042,0.0158627834
9.7947759628,-0.0042749727,0.0038769911,-0.0648360848,0.0812096745,0.1026296169,0.0028083674
9.8047780991,-0.0116747255,0.0000656913,-0.0720590353,0.0103890309,0.1469803154,0.0036326158
9.8148603439,-0.0066597844,-0.0037147929,-0.0520917736,-0.0046775378,0.1660123169,-0.0060378546
9.8247909546,-0.0054657692,-0.0105603868,-0.0352673493,-0.0408725590,0.1560678035,-0.0112600476
9.8347606659,-0.0090964967,-0.0262120888,0.0057686595,-0.0395068899,0.1186935380,-0.0088962261
9.8447790146,0.0001280672,-0.0241914317,0.0263853688,-0.0027933512,0.0655831844,-0.0032655043
9.8548545837,0.0014956958,-0.0081955725,0.0677522421,0.0637541190,0.0180723928,0.0054964293
9.8648014069,-0.0017284685,0.0098855561,0.0918332338,0.1068280786,-0.0296447966,0.0110877352
9.8747882843,0.0041892892,0.0153941577,0.0927698016,0.1316800416,-0.0689384043,0.0176970363
9.8847675323,0.0064418977,0.0121539300,0.0889063478,0.1372527033,-0.0987943038,0.0210739244
9.8948249817,0.0000617273,0.0106393164,0.0740236044,0.0978863835,-0.1151173562,0.0233344138
9.9047508240,-0.0003366255,0.0001260708,0.0567884482,0.0370430127,-0.1145373210,0.0212483592
9.9147558212,-0.0017360830,-0.0039665033,0.0282198805,-0.0346665978,-0.0915768743,0.0211487599
9.9247055054,-0.0023504428,-0.0006619027,-0.0039118500,-0.1139086932,-0.0611947291,0.0210070796
9.9347457886,-0.0070533985,-0.0016707708,-0.0346498452,-0.1783863455,-0.0093136914,0.0217781961
9.9447116852,-0.0110831643,0.0009236405,-0.0696622729,-0.2182802409,0.0353488512,0.0310779568
9.9545154572,-0.0124999816,0.0121823614,-0.1009451151,-0.2570510507,0.0777825937,0.0287050772
9.9645643234,-0.0162216648,0.0175998285,-0.0904358029,-0.2838925421,0.0978548378,0.0254064873
9.9745559692,-0.0140944654,0.0153074926,-0.0584714971,-0.3009098768,0.0944260210,0.0148166940
9.9849414825,-0.0129306698,0.0169732049,-0.0177701097,-0.2772025466,0.0678753704,0.0128455553
9.9947061539,-0.0056429589,0.0256877616,0.0104940562,-0.2383992225,0.0274491161,0.0003334917
10.0046949387,-0.0048200572,0.0247911289,0.0331586637,-0.1793215126,-0.0180339459,0.0027119608
10.0146589279,0.0001492418,0.0078140562,0.0654098988,-0.0722543150,-0.0578031950,0.0050205216
10.0247898102,0.0033488043,0.0184857920,0.0572937168,0.0357773453,-0.0826550126,0.0008566699
10.0346870422,0.0019827851,0.0140177077,0.0423242487,0.1512509435,-0.1063254550,0.0030540440
10.0446844101,0.0124195581,-0.0035849740,0.0379480161,0.2025860399,-0.1176942289,0.0020295258
10.0547466278,0.0101044243,-0.0035757353,0.0306789894,0.2174414098,-0.1058439612,-0.0001808978
10.0646591187,0.0078204637,0.0012021135,0.0018823770,0.2012472600,-0.0803907961,-0.0088337744
10.0746822357,0.0114093488,-0.0038574268,-0.0308461767,0.1764208674,-0.0432570092,-0.0186186284
10.0846920013,0.0100065237,-0.0138922865,-0.0597775541,0.1611132920,0.0025464306,-0.0231545232
10.0946254730,0.0043545133,-0.0084253484,-0.0820723176,0.1255290657,0.0471362695,-0.0266074445
10.1046543121,0.0012784071,0.0008111069,-0.0870936513,0.0589798689,0.0904693678,-0.0236547980
10.1146116257,-0.0050091380,0.0020305584,-0.0671104193,0.0118304659,0.1125482991,-0.0237645209
10.1246147156,-0.0017152660,0.0080153411,-0.0473338924,-0.0127822021,0.1146135852,-0.0099496394
10.1346387863,-0.0023838810,0.0052483152,-0.0032002898,-0.0137052545,0.0954044685,-0.0055748643
10.1446113586,0.0038657256,0.0034499238,0.0311326999,-0.0102564609,0.0613205321,0.0052676629
10.1546020508,0.0101600355,0.0036547254,0.0674655437,0.0081557035,0.0231164210,0.0203745775
10.1645812988,0.0117758280,0.0077518891,0.0824316740,0.0479254872,-0.0118098725,0.0248228572
10.1746549606,0.0097640371,0.0080372756,0.0790905356,0.0930472910,-0.0488251485,0.0303442553
10.1845750809,0.0079770004,-0.0061006476,0.0751547813,0.1358975470,-0.0656307563,0.0261737444
10.1945552826,0.0053962832,-0.0104581052,0.0488647856,0.1434449553,-0.0709991530,0.0166422911
10.2045717239,-0.0039177025,-0.0187580511,0.0273706932,0.1252598166,-0.0605790094,0.0017139413
10.2146034241,-0.0034536354,-0.0212475583,-0.0001278493,0.1016608849,-0.0416330136,-0.0111407377
10.2245531082,0.0008215375,-0.0102264816,-0.0308899265,0.0480868742,-0.0143222976,-0.0187171660
