0.0000000000,-0.0011221248,-0.0001563924,-0.0039628898,-0.0078915795,-0.0199118908,0.0170030799
0.0097410679,-0.0002581555,0.0008400184,-0.0030034340,-0.0036113476,-0.0209217612,0.0191250872
0.0197660923,0.0006192696,-0.0030159252,-0.0039218818,0.0006662216,-0.0219662525,0.0159380808
0.0300650597,0.0025120745,-0.0058885710,-0.0018601572,0.0124109220,-0.0240017064,0.0127438856
0.0400580168,0.0034721415,-0.0067855017,-0.0055120741,0.0231146179,-0.0271130130,0.0095549505
0.0501350164,0.0044170986,-0.0028177993,-0.0091498652,0.0251540691,-0.0175314918,0.0116828168
0.0602700710,0.0023905258,0.0002076131,-0.0049867188,0.0272139423,-0.0100858919,0.0116860783
0.0728740692,0.0032890658,-0.0016432303,-0.0008402026,0.0218873546,-0.0112142731,0.0085014710
0.0804849863,0.0091489479,-0.0025420086,0.0013226115,0.0112911165,-0.0187631361,0.0042541283
0.0904080868,0.0081778243,-0.0034848945,-0.0024694360,0.0037999107,-0.0167063773,0.0042570578
0.1007959843,0.0033156942,-0.0054392712,-0.0092555443,0.0025911815,-0.0029357700,0.0021399111
0.1106020212,0.0023065726,-0.0025347369,-0.0121912519,-0.0017076926,0.0002307286,0.0053279814
0.1206090450,0.0042170803,-0.0015475649,-0.0044291173,-0.0080584530,-0.0051439963,0.0032032449
0.1306850910,0.0061452608,-0.0025321143,0.0003204786,-0.0208645277,-0.0052627735,0.0021446384
0.1407279968,0.0032204012,-0.0045558708,-0.0076661860,-0.0209150501,0.0000554926,0.0042715054
0.1507190466,0.0002652477,-0.0065611498,-0.0107854167,-0.0187488347,-0.0031088754,0.0042693745
0.1608870029,-0.0038364907,-0.0080584781,-0.0130456844,-0.0070229368,-0.0019446742,0.0042663123
0.1707680225,-0.0045396169,-0.0046336548,-0.0109675089,-0.0038439212,0.0001914471,0.0021429737
0.1810070276,-0.0025242944,-0.0021431344,-0.0025848902,-0.0005853307,-0.0050941291,0.0010793073
0.1910949945,-0.0044917543,0.0011168224,0.0002222502,0.0047694873,-0.0071972273,-0.0031702989
0.2011930943,-0.0061653187,0.0009926063,-0.0048195873,0.0143590774,-0.0060509355,-0.0031735613
0.2112050056,-0.0034026285,0.0027700169,-0.0045365249,0.0218183249,-0.0049246852,-0.0031748926
0.2213250399,-0.0011792559,-0.0000001090,0.0029285394,0.0250179805,-0.0049316757,-0.0084843710
0.2313430309,0.0013271194,-0.0008054870,0.0038535439,0.0207926091,-0.0092060491,-0.0074236332
0.2414129972,-0.0013004321,0.0032178862,-0.0003097809,0.0154273780,-0.0060562626,-0.0052966331
0.2514669895,-0.0030480851,-0.0015234846,0.0030883991,0.0089263357,-0.0990812778,0.0573046952
0.2615870237,-0.0714887753,-0.0201522019,-0.0071675335,-0.0308119431,-0.4779199958,0.4319412112
0.2715480328,-0.0431461707,-0.0311117079,0.0227043480,-0.0573359616,-0.3880553544,0.4171276391
0.2817000151,0.0073206793,-0.0108156698,0.0160721391,-0.0280135181,-0.0323677622,0.0860157013
0.2917420864,0.0192341730,-0.0011823672,0.0023770176,-0.0060640108,0.0074259904,-0.0243970901
0.3019480705,-0.0110007450,-0.0043173926,-0.0089569250,-0.0027686162,-0.0009447243,-0.0105980551
0.3119000196,0.0065654735,0.0023983819,-0.0063671027,0.0036661131,-0.0040718080,-0.0106012505
0.3220180273,0.0018782687,-0.0005757111,-0.0054313694,0.0132684857,-0.0040086242,-0.0137891211
0.3320469856,0.0030930857,-0.0035604732,-0.0025572933,0.0122343805,-0.0071871076,-0.0116668483
0.3420650959,0.0076096128,-0.0050269859,-0.0006874955,0.0080066398,-0.0114748627,-0.0127301812
0.3521690369,0.0063916962,-0.0036355751,-0.0012658990,0.0090103857,-0.0050925976,-0.0116654495
0.3622140884,0.0019122731,-0.0056238668,-0.0008612431,0.0164716840,-0.0039670793,-0.0116660492
0.3722920418,0.0029782276,-0.0044688480,0.0000673973,0.0133033209,-0.0071642036,-0.0095432438
0.3823400736,0.0044123153,-0.0044379728,-0.0023843206,0.0111872805,-0.0093250927,-0.0127297156
0.3924649954,0.0042110751,-0.0033801692,-0.0051434790,0.0079741767,-0.0083059007,-0.0148519874
0.4024740458,0.0032153050,-0.0033388035,-0.0078987638,0.0079326313,-0.0040480392,-0.0127262529
0.4125469923,0.0011363548,-0.0023149746,-0.0020331896,0.0014749980,0.0011802786,-0.0159073994
0.4226150513,0.0000370663,-0.0032688873,-0.0001428283,-0.0038813660,0.0032483563,-0.0169664063
0.4327490330,0.0039510350,-0.0023253458,0.0007326448,-0.0092164753,0.0032086752,-0.0159032717
0.4427400827,0.0060478966,-0.0004472631,-0.0003310001,-0.0059715472,-0.0010077080,-0.0159058683
0.4527860880,0.0041600983,-0.0014769334,-0.0014487065,-0.0060349293,0.0053652367,-0.0148408692
0.4628710747,0.0061435024,-0.0005292195,-0.0034585751,-0.0092159165,0.0032084754,-0.0159030724
0.4729980230,0.0042358409,-0.0015279549,-0.0034986294,-0.0124705667,0.0084855296,-0.0158996098
0.4829410315,0.0033153514,-0.0025014775,-0.0054022227,-0.0103891185,0.0138374846,-0.0116508696
0.4930360317,0.0043586711,-0.0015978712,-0.0065188562,-0.0103795296,0.0127626322,-0.0137750059
0.5031540394,0.0054461728,-0.0016651052,-0.0066591059,-0.0081931017,0.0074695335,-0.0148402033
0.5132080317,0.0035359482,0.0012146336,-0.0048530255,-0.0028260332,0.0043262043,-0.0159049369
0.5233030319,0.0055328528,0.0011672479,-0.0078520337,-0.0049064150,-0.0010119025,-0.0180300716
0.5333369970,0.0026963870,0.0020909412,-0.0118144909,-0.0007034149,0.0053706295,-0.0212133490
0.5433920622,0.0027269940,0.0001474124,-0.0118113915,0.0002597170,0.0160104241,-0.0180225484
0.5534610748,0.0057031135,0.0050029857,-0.0079118172,-0.0050104130,0.0096185710,-0.0148390047
0.5635970831,0.0057737152,0.0088861091,-0.0011211790,-0.0081752064,0.0053131720,-0.0201505460
0.5736089945,0.0039060186,0.0088637574,-0.0011225499,-0.0081746737,0.0053200959,-0.0190887451
0.5836820602,-0.0009085316,0.0059408648,-0.0011167086,-0.0060742125,0.0085152900,-0.0201499481
0.5937200785,-0.0018179793,0.0020277603,-0.0011414445,0.0013253810,0.0160629563,-0.0116536645
0.6038661003,-0.0018732626,-0.0008327859,0.0057375277,-0.0017961096,0.0086274091,-0.0084698563
0.6138679981,-0.0008155484,0.0001558763,0.0039348449,0.0003679749,0.0054353443,-0.0127191963
0.6239939928,-0.0007276017,0.0030937893,-0.0027086891,0.0046135066,0.0075952346,-0.0127197951
0.6341280937,0.0012484264,0.0089371307,-0.0065128957,0.0099182576,0.0108386986,-0.0105959242
0.6440800428,-0.0016879219,0.0089299781,-0.0103975693,0.0216485746,0.0120155495,-0.0084741833
0.6542340517,0.0002826374,0.0041178567,-0.0054212366,0.0227279551,0.0109846387,-0.0052895756
0.6642270088,0.0023007910,0.0002372366,-0.0023858107,0.0153357387,0.0035054844,-0.0031671028
0.6743210554,0.0023867856,-0.0007207888,-0.0023143447,0.0142478375,0.0056250943,-0.0021039692
0.6843830347,-0.0004842658,0.0002131564,-0.0043301736,0.0131582581,0.0077453037,-0.0010414344
0.6944180727,-0.0004876632,0.0031176908,-0.0033881224,0.0089035928,0.0066885613,0.0053299121
0.7045000792,0.0014381629,0.0002236468,-0.0004606402,-0.0007088212,0.0076719332,0.0063953092
0.7146290541,0.0033792178,-0.0056081908,0.0005134189,-0.0007002987,0.0065832329,0.0021475679
0.7246800661,0.0044256370,-0.0027053850,-0.0023511208,0.0014745183,0.0023585942,0.0021441723
0.7346800566,0.0044289897,0.0050811870,-0.0023642338,0.0014430927,0.0055485284,0.0032075723
0.7447030544,0.0053648870,0.0060586436,-0.0062421714,0.0067792684,0.0056020580,0.0042680432
0.7547770739,0.0043348889,0.0061017973,-0.0032640256,0.0121234339,0.0045599630,0.0000189698
0.7648710012,0.0043224762,0.0051778061,0.0017416322,0.0131500298,0.0088054407,-0.0010400363
0.7749340534,0.0033583860,0.0042209728,0.0066434587,0.0014547585,0.0044658203,0.0000225650
0.7850461006,0.0043446342,0.0051740510,0.0027214729,0.0056766397,0.0087272115,-0.0031626420
0.7950950861,0.0023328881,0.0032401783,0.0017660701,0.0078556389,0.0045295367,0.0010819039
0.8051450253,0.0042473297,0.0042292578,-0.0020730055,0.0067919446,0.0044976454,-0.0021014391
0.8151460886,0.0022455375,0.0013288361,-0.0010894692,0.0099507198,0.0087696221,-0.0021001073
0.8252720833,0.0021721642,0.0033189757,-0.0019976653,0.0046572089,0.0045076320,0.0021453707
0.8353639841,0.0031208317,0.0023537977,-0.0029528893,0.0046572089,0.0045076320,0.0021453707
0.8456870317,0.0030655931,-0.0025309222,-0.0078653852,0.0057334714,0.0034636064,0.0032056416
0.8554810286,0.0029964964,-0.0025175111,-0.0011381067,0.0036210520,0.0013298816,0.0042669112
0.8655960560,0.0039245109,-0.0025284784,0.0026985251,0.0026160292,-0.0050590415,0.0021401108
0.8756819963,0.0019561867,-0.0025433796,0.0026345693,0.0026154965,-0.0050659659,0.0010783086
0.8857430220,-0.0000407178,-0.0006087321,-0.0041883145,0.0035582287,0.0077026263,0.0053321095
0.8957670927,0.0008468550,0.0003858906,-0.0022545613,0.0035491735,0.0087844022,0.0085180486
0.9058450460,0.0036615650,0.0014031035,0.0006763780,0.0036195340,0.0024374239,0.0117019909
0.9159129858,0.0055123637,0.0043472154,0.0016773784,0.0025934186,-0.0018366831,0.0085147200
0.9259760380,0.0034717242,0.0043860180,0.0017410957,-0.0059482716,-0.0019095875,0.0085151857
0.9360160828,0.0013954859,0.0034149988,-0.0022339977,-0.0038656797,0.0034348441,0.0117027238
0.9460949898,0.0022239010,0.0014819008,-0.0003703988,0.0014612293,0.0045275395,0.0095793856
0.9561480284,0.0031155716,0.0024623377,0.0034879886,-0.0006208299,-0.0008099680,0.0074536498
0.9662140608,0.0040762643,0.0063472493,0.0005767190,0.0015422693,-0.0039874525,0.0053271828
0.9762920141,0.0030958573,0.0053714616,-0.0052290712,0.0089269485,0.0045658220,0.0053295791
0.9863870144,0.0020272206,0.0044431789,-0.0022727407,0.0089609567,0.0013820798,0.0053287135
0.9964290857,0.0019160133,0.0025207503,-0.0003376162,0.0025587175,0.0013330777,0.0063921139
1.0064740181,-0.0001272041,0.0005909306,-0.0003754652,0.0046583535,0.0045499094,0.0085154520
1.0165560246,0.0007420104,-0.0013316768,0.0035153471,-0.0006229617,-0.0007878640,0.0106377257
1.0266940594,0.0026102285,0.0006096465,0.0063466872,-0.0122938650,-0.0072719282,0.0085155191
1.0366719961,0.0015687715,0.0015221935,-0.0016160166,-0.0070221378,-0.0008593032,0.0085173836
1.0467810631,0.0005303245,-0.0033587115,-0.0046286141,-0.0070236279,-0.0008587705,0.0085168509
1.0568320751,0.0023965309,-0.0004280704,-0.0037266172,-0.0070662396,0.0033852430,0.0085189808
1.0669130087,0.0042925100,-0.0014080304,-0.0027862347,-0.0005867956,-0.0040008347,0.0063911816
1.0769370794,0.0081955567,0.0044378145,-0.0018066920,0.0048436560,-0.0135171078,0.0042614518
1.0870920420,0.0072255055,0.0044397814,-0.0027228750,0.0069317077,-0.0092389397,0.0063849902
1.0970929861,0.0032802294,0.0034676893,-0.0047041927,0.0037100818,-0.0071310475,0.0085104592
1.1072150469,0.0031842510,0.0015419823,-0.0027796186,0.0069259023,-0.0081298668,0.0138185378
1.1172090769,0.0050317566,0.0006186468,-0.0027157224,0.0037479522,-0.0102521395,0.0180654824
1.1270370483,0.0019647400,-0.0022377269,-0.0006768263,0.0069592455,-0.0112849129,0.0180638842
1.1371819973,-0.0001355190,-0.0012249845,-0.0035445250,0.0005149283,-0.0070829773,0.0201912168
1.1472409964,-0.0003098626,-0.0002152818,-0.0064519201,0.0037051290,-0.0060009351,0.0191291478
1.1575140953,0.0004535835,-0.0020964043,-0.0034904636,0.0058538467,-0.0070161987,0.0233758911
1.1677800417,0.0011964064,-0.0020277398,0.0014093958,-0.0016076108,-0.0081487745,0.0223148223
1.1776170731,0.0000635009,-0.0049117105,-0.0015177287,-0.0036699623,-0.0156290624,0.0170026142
1.1877520084,-0.0000328202,-0.0078354375,-0.0073733483,-0.0005326262,-0.0092492588,0.0148817394
1.1977210045,-0.0001396913,-0.0048792856,-0.0092784325,0.0069154366,-0.0070689297,0.0138191376
1.2078810930,0.0007266622,0.0009944540,-0.0102038542,0.0090149119,-0.0038591544,0.0148808071
1.2178959846,0.0025859992,0.0039735539,-0.0042564427,0.0090452721,-0.0070629376,0.0116938017
1.2280180454,0.0025438885,0.0030596359,-0.0031562007,0.0100781266,-0.0038982364,0.0074478579
1.2380189896,0.0034761648,0.0001764995,-0.0030712045,0.0026513692,-0.0082005728,0.0085093938
1.2480940819,0.0004819851,-0.0056434767,-0.0021014370,-0.0027115466,-0.0050729564,0.0074523850
1.2581530809,0.0023800055,-0.0104911821,0.0008189523,-0.0038330024,0.0002088908,0.0053317095
1.2682189941,0.0023366432,-0.0085483687,-0.0001725114,-0.0081489217,0.0044031031,0.0032099693
1.2783120871,0.0013260763,-0.0066009061,-0.0021454252,-0.0049778949,0.0076348488,0.0063961754
1.2883510590,0.0022318284,-0.0007538098,0.0017154657,-0.0113037024,0.0001581572,0.0074565127
1.2984130383,0.0012188625,-0.0027298825,0.0006389463,-0.0102072787,-0.0030501531,0.0021456368
1.3085420132,0.0002136748,-0.0076206224,-0.0052966629,-0.0102691958,0.0033293832,0.0042727701
1.3185629845,0.0011521798,-0.0076495307,-0.0102465907,-0.0038025090,-0.0029807105,0.0042679766
1.3286740780,0.0031051259,-0.0066993730,-0.0141350189,0.0036452338,-0.0008144954,0.0010820371
1.3387130499,0.0030754427,-0.0027795928,-0.0102107087,0.0058002635,-0.0029247841,0.0000186369
1.3488540649,0.0030646841,-0.0027442472,-0.0052746688,0.0079624578,-0.0061090598,-0.0031697659
1.3588540554,0.0021164338,-0.0046638148,-0.0051950966,0.0047509521,-0.0050690952,-0.0021066323
1.3688910007,0.0011859458,-0.0066230791,-0.0061584865,0.0036769258,-0.0040258681,-0.0031661042
1.3789750338,0.0012159568,-0.0085615413,-0.0071000014,0.0057797576,-0.0008172919,-0.0021032367
1.3890219927,0.0021936218,-0.0065887468,-0.0002194798,0.0036096545,0.0023413501,-0.0031641070
1.3991479874,0.0032016556,-0.0026838677,-0.0040043150,0.0036208406,0.0012872709,-0.0021028374
1.4091529846,0.0041860859,-0.0006958144,-0.0048731719,-0.0006561177,0.0023173154,-0.0010388378
1.4192299843,0.0031984071,-0.0006981986,-0.0067925607,-0.0027903756,0.0022986731,-0.0010383051
1.4292960167,0.0041658799,-0.0036261575,-0.0097078839,0.0003992673,0.0033809154,-0.0021005734
1.4394270182,0.0022240798,-0.0065368908,-0.0106644789,0.0024791965,0.0086907260,-0.0042220480
1.4493989944,0.0012604367,-0.0045730369,-0.0096591869,0.0035433955,0.0086868638,-0.0063465843
1.4593940973,0.0032254229,-0.0006645816,-0.0056877886,0.0024773320,0.0086913910,-0.0042227134
1.4696050882,0.0032095532,-0.0016212958,-0.0027592934,0.0035364432,0.0097536594,-0.0052831178
1.4796839952,0.0022613923,-0.0016176599,-0.0017505444,0.0013798159,0.0118431766,-0.0074051246
1.4896870852,0.0013262552,0.0003276569,-0.0007847107,0.0003564702,0.0075751939,-0.0095297946
1.4997540712,0.0023655514,0.0002994639,-0.0036962188,-0.0007122559,0.0075451005,-0.0127149345
1.5098230839,0.0014863234,-0.0006832975,-0.0094528953,0.0109600052,0.0140144508,-0.0127154673
1.5198980570,0.0015520524,0.0013052922,-0.0073536192,0.0131262206,0.0108500831,-0.0127175981
1.5299460888,0.0026106308,0.0023221476,-0.0003826774,0.0078976639,0.0001932445,-0.0127213933
1.5400320292,0.0007434707,0.0032867892,-0.0003488815,-0.0006393660,0.0001186761,-0.0127192624
1.5500820875,-0.0011096079,-0.0016001362,-0.0042416011,0.0014285259,0.0065113278,-0.0116558624
1.5601450205,0.0008924823,-0.0025845068,-0.0023280538,-0.0050147260,0.0107271113,-0.0074049248
1.5702230930,0.0009219866,-0.0016450185,0.0014751994,-0.0061035054,0.0128328074,-0.0084653292
1.5803030729,0.0019568126,0.0012295943,0.0023643814,-0.0103198225,0.0074766576,-0.0105905319
1.5903650522,0.0010531318,0.0011725527,-0.0026120699,-0.0124597801,0.0085385926,-0.0074028606
1.6003990173,0.0000982802,-0.0027552145,-0.0036768473,-0.0125114461,0.0138643831,-0.0042147906
1.6104890108,-0.0008934516,-0.0066764252,0.0019711696,-0.0189395957,0.0159248039,-0.0052751950
1.6205650568,0.0010794621,-0.0028703706,0.0007831299,-0.0188857988,0.0106267110,-0.0042160559
1.6306589842,0.0031004171,0.0019314390,0.0006187403,-0.0123868883,0.0011121684,-0.0074071879
1.6407760382,0.0021981816,0.0038330061,-0.0023862279,-0.0049702525,0.0064824326,-0.0074063898
1.6507630348,0.0022533159,0.0018543702,-0.0034062422,-0.0006587273,0.0022684464,-0.0084710550
1.6609250307,0.0013395172,-0.0001100200,-0.0034471906,-0.0006800322,0.0043904530,-0.0084699895
1.6709450483,0.0023886780,-0.0010973710,-0.0024387396,0.0067439023,0.0087009128,-0.0084709218
1.6809459925,0.0043849717,0.0037592156,-0.0033707775,0.0036186827,0.0012666980,-0.0052884435
1.6910459995,0.0034515182,0.0047543151,0.0015337907,0.0110160913,0.0087511130,-0.0063474500
1.7010819912,-0.0004396815,0.0009006364,0.0026034557,0.0131503483,0.0087697553,-0.0063479827
1.7111719847,0.0045103352,-0.0000665086,0.0026857101,0.0099939182,0.0044684834,-0.0105949249
1.7212229967,0.0046097259,-0.0010462302,-0.0040361439,0.0163652636,0.0077143442,-0.0095331231
1.7312949896,0.0056678276,0.0038327081,-0.0048787748,0.0152856978,0.0087951217,-0.0052865134
1.7413520813,0.0066396217,0.0048477156,0.0010477148,0.0078381673,0.0066217161,-0.0031621098
1.7514240742,0.0056843976,0.0019386512,0.0001193130,0.0046230406,0.0076345163,-0.0063467175
1.7615410089,0.0037467848,0.0009627444,-0.0018206395,0.0057024201,0.0066036065,-0.0031621098
1.7715680599,0.0027598809,-0.0000075596,0.0011175715,0.0067505068,0.0087270113,-0.0042221141
1.7814540863,0.0037832479,0.0028941138,0.0001222932,-0.0017013010,0.0001644159,-0.0042242445
1.7916949987,0.0028104703,0.0028796894,-0.0028515614,0.0004328489,0.0002115539,0.0000216330
1.8017810583,0.0008264255,-0.0010120171,-0.0057411944,0.0046486324,0.0055607790,0.0010850332
1.8118380308,-0.0002202619,-0.0009868640,-0.0018570579,-0.0049733138,0.0076047550,0.0021513628
1.8218899965,0.0016814094,0.0009502274,-0.0009693063,-0.0038214969,-0.0008808749,0.0010850331
1.8319420815,0.0016657930,0.0038395030,-0.0029769100,-0.0017334186,0.0033901699,0.0021469686
1.8420780897,-0.0003477413,0.0038624508,-0.0010461962,0.0004008384,0.0034088120,0.0021464359
1.8520880938,0.0005795580,0.0038670404,-0.0010663427,-0.0006425083,0.0013121719,0.0074545820
1.8621490002,0.0014944148,0.0019282204,-0.0039897119,0.0046276217,0.0077040247,0.0042710393
1.8722290993,0.0033951025,0.0019489628,-0.0010298050,0.0057519544,0.0023998066,0.0032079052
1.8823530674,0.0043340544,0.0068411333,-0.0029301799,0.0036714934,-0.0029169279,0.0042675771
1.8923610449,0.0023834924,0.0029584868,-0.0057664667,0.0100489110,-0.0007517780,0.0021423746
1.9024230242,0.0013928335,0.0049470169,-0.0085529247,0.0185880717,-0.0006495127,0.0063874535
1.9124950171,0.0013194602,0.0011380416,-0.0035104908,0.0186204016,-0.0038326560,0.0063859886
1.9225660563,0.0032306085,0.0002240044,-0.0033228553,0.0165191665,-0.0070204595,0.0085085277
1.9326220751,0.0022139172,-0.0055330293,-0.0012156522,0.0164642800,-0.0017290916,0.0063873869
1.9427000284,0.0031339000,-0.0006249445,-0.0020522035,0.0100950636,-0.0049472554,0.0095727937
1.9527540207,0.0050148885,0.0013536912,-0.0019719757,0.0089647919,0.0014020534,0.0085149202
1.9628270864,0.0039315145,0.0013910633,-0.0029041327,0.0068204147,0.0024513388,0.0095777865
1.9729140997,0.0028543244,-0.0005062121,-0.0008916414,0.0068090432,0.0035054847,0.0085164513
1.9829510450,0.0018165332,-0.0024213688,-0.0018389381,-0.0006826958,0.0055553196,0.0074575781
1.9930810928,0.0037023346,-0.0014616746,-0.0038300909,-0.0070752669,0.0044100937,0.0032120333
2.0030720234,0.0046453099,-0.0004966753,-0.0029148019,-0.0017097974,0.0012459921,-0.0010381056
2.0132300854,0.0026951055,0.0043559773,-0.0058673774,0.0036269380,0.0012993219,0.0000225650
2.0232300758,0.0026590149,-0.0004931586,-0.0048464094,0.0068299221,0.0013480578,0.0032071732
2.0333042145,0.0026194970,-0.0014358062,-0.0038380779,0.0015139058,-0.0008199550,0.0032068403
2.0433511734,0.0016247254,-0.0004662770,-0.0057881628,-0.0005883938,-0.0040216073,0.0032057748
2.0537950993,0.0006029230,-0.0014160174,-0.0047958051,0.0057818880,-0.0007895951,0.0021439726
2.0635209084,0.0005755943,-0.0004113215,-0.0037481345,0.0121963779,-0.0017808233,0.0042654467
2.0736110210,-0.0014496524,-0.0023125308,-0.0036322630,0.0132648647,-0.0017364151,0.0095737260
2.0836350918,-0.0005645085,-0.0051758783,-0.0015690483,0.0111290095,-0.0017758301,0.0063888514
2.0937008858,0.0023177485,-0.0099968212,-0.0043627177,0.0089885481,-0.0007279429,0.0074531175
2.1036691666,0.0012804788,-0.0079944627,-0.0004058040,0.0015490074,-0.0039969734,0.0042679766
2.1138291359,0.0002587061,-0.0031159418,0.0034835183,-0.0048319269,-0.0061679818,0.0053303111
2.1239080429,0.0031639556,-0.0011850494,0.0005181276,-0.0091110934,-0.0051442632,0.0053319093
2.1340000629,0.0031595747,-0.0031588571,-0.0043806587,-0.0006008837,-0.0029670619,0.0021440391
2.1440980434,-0.0017600138,-0.0099644559,-0.0053733145,-0.0017857235,0.0086877299,0.0010883621
2.1541121006,-0.0008388687,-0.0089722173,-0.0014944231,-0.0018033804,0.0108297765,0.0042755664
2.1642398834,0.0050019543,-0.0041204588,-0.0005436695,-0.0027986038,0.0033588109,-0.0010369072
2.1742529869,0.0059982906,-0.0031324523,0.0014110648,0.0004443806,-0.0008853357,-0.0052866461
2.1843099594,0.0050755660,-0.0050892727,-0.0014920390,0.0025892910,-0.0019276971,-0.0052877115
2.1943960190,0.0032055895,-0.0070682662,-0.0053685461,0.0068313866,0.0002049627,-0.0095359869
2.2044770718,0.0032811384,-0.0099827545,-0.0053146635,0.0089762965,-0.0008373987,-0.0095370505
2.2144241333,0.0033757011,-0.0080202715,-0.0022763170,0.0111211007,-0.0019010655,-0.0127229914
2.2247619629,0.0025587301,-0.0050944583,-0.0021412529,0.0153661789,0.0002305289,-0.0169702005
2.2346720695,0.0027416269,-0.0011947054,-0.0000451959,0.0154215461,-0.0050894683,-0.0190953352
2.2447381020,0.0039094309,0.0036668880,0.0020088397,0.0079180896,-0.0019924785,-0.0222772807
2.2548100948,0.0031207721,0.0036384566,0.0000975573,0.0057584522,0.0001052271,-0.0233387500
2.2648220062,0.0013228279,-0.0002833503,0.0010956966,-0.0006421888,0.0000769976,-0.0190899428
2.2749309540,0.0034309248,-0.0022465484,0.0040199007,-0.0049313167,0.0021757018,-0.0169643424
2.2849888802,0.0026180665,-0.0032697814,0.0039703096,-0.0080805039,-0.0031711268,-0.0190898106
2.2950739861,0.0017932873,-0.0004341501,-0.0010048903,-0.0156136816,0.0031578755,-0.0148380725
2.3051218987,-0.0029831608,0.0004687411,-0.0011862076,-0.0156898499,0.0105641261,-0.0180197526
2.3152050972,-0.0009269196,0.0003917319,-0.0003690875,-0.0156621784,0.0084825326,-0.0116488710
2.3252720833,0.0040548365,0.0012944442,0.0004287803,-0.0176686011,-0.0042681494,-0.0116547300
2.3353040218,0.0031924318,-0.0036513107,-0.0016803897,-0.0187008455,-0.0074472982,-0.0095317913
2.3453831673,0.0013466399,-0.0027678506,-0.0057615195,-0.0197567865,-0.0085106976,-0.0084702559
2.3554680347,0.0024385373,0.0019896729,-0.0108145038,-0.0154348500,-0.0137713738,-0.0074123144
2.3655419350,0.0034977715,0.0019505125,-0.0128466645,-0.0037587527,-0.0072820489,-0.0042266417
2.3755860329,0.0074370126,0.0039029820,-0.0060279523,-0.0037169680,-0.0115044238,-0.0010442308
2.3855850697,0.0055603902,0.0029136641,-0.0021627701,-0.0068879928,-0.0147361709,-0.0042304364
2.3957810402,0.0027158479,0.0018982393,-0.0032197989,-0.0101192873,-0.0115818549,-0.0042273072
2.4058060646,0.0008177530,0.0038014753,-0.0042694961,-0.0047942959,-0.0104742479,-0.0042281062
2.4158430099,0.0018390637,0.0008772117,-0.0023164905,-0.0026626503,-0.0104546733,-0.0042295712
2.4258589745,0.0028809528,0.0028047664,-0.0013762272,-0.0112103308,-0.0094682369,-0.0042269081
2.4360210896,-0.0000171144,0.0027824147,-0.0024072684,-0.0059386035,-0.0030556121,-0.0042250436
2.4467470646,-0.0009432513,0.0047064526,-0.0024164475,-0.0070392890,0.0000973041,-0.0074085863
2.4561090469,0.0030111889,0.0085741980,-0.0024678267,-0.0048720082,-0.0030532153,-0.0052871122
2.4661769867,0.0059738527,0.0066261394,-0.0014854228,0.0025989581,-0.0029741195,-0.0031653717
2.4763069153,0.0050091217,0.0027350886,-0.0014773167,-0.0027253395,-0.0040677465,-0.0010411015
2.4863729477,0.0021137218,-0.0021507042,-0.0054031764,-0.0059379106,-0.0030416306,-0.0021015722
2.4963841438,0.0011779588,-0.0002633828,-0.0084288875,-0.0113253258,0.0022162483,-0.0020970451
2.5064430237,0.0021479349,0.0036114557,-0.0065865074,-0.0060115214,0.0043779360,-0.0031591132
2.5165638924,0.0011941415,0.0026097996,-0.0056749140,-0.0060083782,0.0043839281,-0.0020963792
2.5266380310,0.0051315050,0.0016138655,-0.0057109748,-0.0038309777,0.0001654809,-0.0010372400
2.5366530418,0.0031992714,0.0015964609,-0.0077060615,-0.0038253060,-0.0009079725,-0.0031627752
2.5467209816,0.0032103579,0.0035237176,-0.0077325259,0.0014570747,0.0044436497,-0.0031614439
2.5568439960,0.0041955034,0.0054884655,-0.0086653391,0.0100540780,-0.0007891953,-0.0031638406
2.5668380260,0.0052034478,0.0055262549,-0.0075446521,0.0153577635,0.0024404200,-0.0031635743
2.5769650936,0.0032787691,0.0036298139,-0.0064180647,0.0143491710,-0.0039401148,-0.0042300369
2.5869789124,0.0013727170,0.0007422072,-0.0062487279,0.0174972937,0.0013928654,-0.0042281728
2.5970659256,-0.0005745221,-0.0021128552,-0.0031615056,0.0164011363,0.0045797369,-0.0021020384
2.6071062088,0.0013755184,-0.0020618932,-0.0030100502,0.0153356064,0.0045911884,0.0010836349
2.6172461510,0.0003423016,0.0018708211,0.0000098788,0.0078340676,0.0077230660,0.0032104354
2.6272521019,-0.0006813485,-0.0010147589,0.0010468208,0.0014424808,0.0066130604,0.0042733029
2.6373682022,-0.0026884754,-0.0029609101,-0.0018982447,-0.0049521690,0.0054756911,0.0010886284
2.6473851204,-0.0056656380,-0.0078326361,-0.0038831390,-0.0039484231,0.0118579566,0.0021533603
2.6575121880,-0.0028000702,-0.0058845775,-0.0039445912,-0.0039277039,0.0097432733,0.0032136976
2.6675181389,-0.0028365930,-0.0000567931,-0.0049653803,0.0003173752,0.0118748676,-0.0010335116
2.6776080132,0.0010646206,-0.0000364083,-0.0000541366,0.0036034491,0.0034078797,-0.0021003741
2.6876311302,0.0020705978,0.0009407503,-0.0010079301,0.0015091393,-0.0008893970,-0.0074109836
2.6977601051,0.0021449248,-0.0020027654,-0.0068058525,0.0078791268,0.0023711778,-0.0042264420
2.7077779770,-0.0007386584,-0.0048961537,-0.0057287966,0.0132153025,0.0024247074,-0.0031659710
2.7178668976,0.0012117546,-0.0038744109,0.0011973821,0.0111091696,0.0003029667,0.0000207673
2.7278790474,0.0051626484,-0.0038446682,0.0013400160,0.0121960063,-0.0018304917,-0.0031659713
2.7380142212,0.0062118690,0.0000555617,-0.0034236468,0.0079781441,-0.0071718609,-0.0031685010
2.7478909492,0.0043015699,0.0020225747,-0.0042763506,0.0153750740,0.0003411830,0.0000187700
2.7580881119,0.0023446898,-0.0037595527,-0.0031519092,0.0175095703,0.0003455107,-0.0021049012
2.7682480812,0.0033443193,-0.0007876652,-0.0020232953,0.0186081249,-0.0028351024,-0.0031685675
2.7782459259,0.0043556164,-0.0017194647,0.0000977361,0.0132741062,-0.0028680591,-0.0010434319
2.7883138657,0.0024088989,-0.0007002252,-0.0007527626,0.0132432133,0.0003287992,0.0010817706
2.7983789444,0.0033864002,-0.0006637471,-0.0015962279,0.0122060180,-0.0028699231,0.0000181042
2.8085150719,0.0033787559,0.0022855503,-0.0005284703,0.0121943001,-0.0018227682,-0.0021049678
2.8185138702,0.0014165860,-0.0006099837,-0.0023782409,0.0111400094,-0.0028796438,0.0000187700
2.8286051750,0.0014191788,0.0003945333,-0.0042246138,0.0036589233,-0.0018908121,-0.0010406355
2.8386330605,0.0024067382,-0.0015591282,-0.0042182957,-0.0037997663,-0.0030172630,-0.0010391043
2.8487670422,0.0024371813,-0.0054572122,-0.0061683808,0.0004676832,-0.0029938272,-0.0031637743
2.8587770462,0.0024620066,-0.0064200656,-0.0032155670,0.0058251917,-0.0050694281,-0.0031659713
2.8688468933,0.0054174880,0.0013686520,-0.0012380041,0.0005444102,-0.0104002776,0.0000181042
2.8789191246,0.0054493765,0.0052596433,-0.0022077716,0.0005332241,-0.0093461983,-0.0010431656
2.8889908791,0.0025216411,0.0004100305,0.0017189824,0.0015801135,-0.0072010225,0.0010812382
2.8990800381,0.0044993083,-0.0005717772,0.0007475459,-0.0037443442,-0.0083017070,0.0021438394
2.9091250896,0.0055039446,-0.0015655655,-0.0080235759,0.0005124519,-0.0072172675,0.0000197021
2.9192461967,0.0045290808,0.0013551813,-0.0108938375,0.0079417117,-0.0028873673,0.0032055085
2.9292569160,0.0015355569,-0.0005327361,-0.0059384857,0.0036513600,-0.0008095689,0.0021458366
2.9393339157,0.0005156767,0.0014305812,-0.0020450510,-0.0048857220,-0.0008698895,0.0042711725
2.9493870735,0.0014177185,0.0004505617,-0.0011311925,-0.0080748573,-0.0019380832,0.0074568456
2.9594449997,0.0033162902,0.0033353670,-0.0060938154,-0.0091426801,-0.0019613858,0.0053336406
2.9698419571,0.0013202649,0.0013678175,-0.0090998570,-0.0059530120,-0.0008862680,0.0032097695
2.9797930717,-0.0016466308,0.0013583404,-0.0111091891,-0.0049168831,0.0022986063,0.0021498315
2.9897799492,-0.0017082024,0.0013635856,-0.0063063656,-0.0123750651,0.0011862039,0.0042747678
2.9998059273,0.0002165060,0.0003633601,-0.0063870107,-0.0123774083,0.0011656977,0.0010890944
3.0098299980,-0.0007545132,-0.0016021031,-0.0064712917,-0.0059538642,-0.0009073070,0.0000246289
3.0198969841,-0.0036667963,-0.0025958316,-0.0055527841,-0.0038093263,-0.0019495352,0.0000234306
3.0299320221,-0.0027014096,-0.0016277927,-0.0065643941,-0.0048855087,-0.0008770800,0.0032096363
3.0400691032,-0.0027248641,-0.0045524137,-0.0046608006,-0.0070534023,0.0022878873,0.0032111676
3.0500659943,-0.0027512391,-0.0035882490,-0.0056955968,-0.0081215976,0.0022647178,0.0010878295
3.0601880550,-0.0008099753,-0.0055299299,-0.0037481345,0.0004159650,0.0023462104,0.0021475013
3.0699238777,0.0001680773,-0.0064924257,-0.0046785627,0.0057622609,0.0013318125,0.0021456371
3.0803320408,0.0011325401,-0.0064661996,-0.0055638109,0.0100308564,0.0013477247,-0.0010402361
3.0903310776,0.0031160186,-0.0044959681,-0.0044620787,0.0143196108,-0.0007508462,-0.0031659713
3.1004672050,0.0071111838,-0.0005773204,-0.0081746140,0.0207304507,-0.0017621149,-0.0042306362
3.1104340553,0.0071535031,0.0004497272,-0.0060345088,0.0207192656,-0.0007080357,-0.0052919062
3.1205470562,0.0033295522,-0.0033815997,-0.0048585092,0.0196627099,-0.0018067895,-0.0095386496
3.1305980682,-0.0005170781,-0.0052882927,0.0001567447,0.0142849889,0.0023975428,-0.0084733851
3.1406421661,-0.0004280288,-0.0052670734,0.0021914088,0.0036036624,0.0033508884,-0.0105931945
3.1507320404,0.0045424919,-0.0023776190,-0.0007037676,0.0035514645,0.0086697536,-0.0084669264
3.1607730389,0.0046067159,-0.0043320553,-0.0035776652,0.0046239197,0.0075986302,-0.0116544645
3.1708421707,0.0056570689,0.0014870864,-0.0016682304,-0.0071134297,0.0075099468,-0.0095279301
3.1810131073,0.0027773301,0.0004701716,-0.0037155903,-0.0113920392,0.0085334666,-0.0095261326
3.1909830570,-0.0000995029,-0.0054229992,-0.0057887589,-0.0124389278,0.0063882899,-0.0116505362
3.2011351585,0.0009611469,-0.0045122998,-0.0049644862,-0.0156387687,0.0063455459,-0.0137724094
3.2111339569,0.0010760647,-0.0016714233,-0.0060968553,-0.0135364691,0.0095471982,-0.0137713449
3.2212638855,-0.0007768053,0.0021430952,-0.0072150980,-0.0081834346,0.0074731950,-0.0137751391
3.2312860489,0.0002961378,0.0050301654,-0.0053316508,-0.0060268082,0.0053836787,-0.0116531327
3.2413549423,0.0013424229,0.0069425208,-0.0034759797,-0.0113692405,0.0064109266,-0.0095266653
3.2514050007,0.0023924480,0.0068933470,-0.0026062287,-0.0081476150,0.0043030344,-0.0116521344
3.2615470886,0.0034515182,0.0039399965,-0.0016820586,-0.0059777247,0.0011515833,-0.0095297275
3.2715201378,0.0005667877,0.0010199648,0.0012072169,-0.0006298311,0.0001579579,-0.0063461852
3.2816429138,-0.0023390730,-0.0038422840,0.0041321958,0.0004151938,0.0023037996,-0.0042224471
3.2916688919,0.0006308776,0.0000263554,0.0021734082,-0.0038304180,0.0001652811,-0.0010370403
3.3018031120,0.0016184371,0.0048828823,-0.0026987351,0.0026027393,-0.0029398981,0.0021440391
3.3117890358,0.0015969496,0.0078060133,-0.0045896326,0.0068723196,-0.0028887652,0.0042665782
3.3219330311,0.0005562525,0.0068780286,-0.0025741614,0.0058449786,-0.0060340911,0.0116993282
3.3319239616,0.0004500370,0.0039965017,-0.0025423921,0.0015567569,-0.0039285962,0.0148868654
3.3420381546,0.0022839080,0.0011068088,-0.0005773461,-0.0015911795,-0.0092616435,0.0148850679
3.3520579338,0.0031488757,0.0040354235,-0.0006098903,-0.0068938006,-0.0124774091,0.0170084070
3.3622021675,0.0020675431,0.0069545610,-0.0026363886,-0.0058180159,-0.0135426074,0.0148836700
3.3722071648,0.0019635628,0.0069576604,-0.0065515791,-0.0026682960,-0.0081888549,0.0180709418
3.3823070526,0.0027976702,0.0030988557,-0.0065323864,0.0026565352,-0.0070883040,0.0170084722
3.3921542168,0.0046308856,0.0031391485,-0.0064869081,0.0037225988,-0.0070928312,0.0148846023
3.4024581909,0.0064615081,0.0070801480,-0.0015826977,0.0026733931,-0.0092158364,0.0159442071
3.4124710560,0.0063530426,0.0080919964,-0.0005689419,0.0058854320,-0.0102488771,0.0159428753
3.4225401878,0.0052434127,0.0052232845,0.0004611456,0.0047995551,-0.0081228754,0.0180683453
3.4326219559,0.0051021646,0.0052773459,0.0024400197,0.0015763314,-0.0060357563,0.0170084070
3.4427330494,0.0039821039,0.0052779419,-0.0043922816,-0.0006288467,0.0013926656,0.0201988071
3.4527380466,0.0038013975,0.0053194864,-0.0053621088,0.0036508534,0.0003758706,0.0212590117
3.4628410339,0.0055398862,0.0073337061,-0.0033635057,0.0057887593,0.0004145533,0.0244446173
3.4728589058,0.0062778215,0.0035224063,-0.0013606704,0.0037178854,-0.0059770332,0.0233801529
3.4830031395,0.0060712169,0.0016294819,-0.0042384421,0.0058733942,-0.0080661494,0.0255017597
3.4930090904,0.0019001585,0.0016961795,-0.0032393492,0.0037423326,-0.0080432463,0.0318731070
3.5031099319,-0.0003462214,-0.0011737841,-0.0052076136,-0.0090632895,-0.0081337281,0.0350611098
3.5131301880,-0.0006572980,-0.0001553195,-0.0062692915,-0.0079642041,-0.0113074165,0.0350592472
3.5232892036,0.0010198575,-0.0010830063,-0.0101608792,0.0027265232,-0.0133355483,0.0350548513
3.5332770348,0.0026983689,0.0019177300,-0.0120276371,0.0048724990,-0.0143640600,0.0371773914
3.5433659554,0.0004428249,0.0059064729,-0.0109826485,0.0102312053,-0.0164614320,0.0339907855
3.5534071922,0.0001261454,-0.0007880824,-0.0088732401,0.0155157149,-0.0110821128,0.0382393263
3.5635380745,0.0007678341,-0.0025837319,-0.0009454048,0.0048848297,-0.0154256625,0.0371774584
3.5735321045,0.0005046200,-0.0034826295,0.0010688745,0.0048390236,-0.0112231942,0.0308087729
3.5836329460,0.0012068819,-0.0004876154,-0.0008216656,0.0026964033,-0.0101460787,0.0361187160
3.5936479568,0.0019073706,0.0015174848,-0.0008036650,-0.0047868136,-0.0091849444,0.0308121033
3.6037430763,0.0006756407,-0.0023221271,-0.0027596510,-0.0048916359,0.0014173668,0.0297564268
3.6138200760,-0.0005772490,-0.0071238177,-0.0018187917,-0.0081372298,0.0056126444,0.0265739486
3.6238498688,0.0011447888,-0.0080567496,0.0000595891,-0.0070852544,0.0066418890,0.0202029329
3.6339941025,0.0009433549,-0.0031848447,-0.0019751347,-0.0081848744,0.0098086540,0.0191429947
3.6440858841,0.0027194242,-0.0002638596,-0.0049574529,-0.0017721159,0.0087824715,0.0159557927
3.6541090012,0.0035597305,0.0007464392,-0.0059244786,0.0078506842,0.0067097330,0.0106433174
3.6642220020,0.0005062144,-0.0001670617,-0.0009820021,0.0121269226,0.0056728316,0.0085174497
3.6742470264,-0.0005859513,-0.0039933221,0.0029949986,0.0068131173,0.0035111436,0.0095795179
3.6843440533,0.0003248226,-0.0020165341,0.0001467907,0.0100351423,0.0013959944,0.0063925795
3.6943950653,0.0002676319,-0.0039135711,-0.0026558198,0.0175061077,0.0014750904,0.0085143205
3.7043080330,-0.0007985312,-0.0057852166,-0.0063511287,0.0218185112,-0.0027249809,0.0095731933
3.7143280506,0.0000950914,-0.0105476277,-0.0041554128,0.0249767546,0.0015400714,0.0085127223
3.7243762016,-0.0029364754,-0.0133633511,0.0028648817,0.0164716840,-0.0017175074,0.0085132550
3.7348680496,-0.0020102342,-0.0103998678,0.0010209524,0.0058075879,-0.0028918278,0.0053293128
3.7447528839,-0.0000760335,-0.0113590257,-0.0047283922,0.0110916980,0.0024449474,0.0032080384
3.7547121048,0.0028278152,-0.0074489610,-0.0075631891,0.0079233358,-0.0007521773,0.0053308443
3.7648160458,0.0057286541,-0.0054792063,-0.0036396540,0.0004835818,-0.0040140175,0.0032072393
3.7748961449,0.0027892361,-0.0045089619,-0.0017181791,-0.0048323544,-0.0062034018,0.0000220989
3.7850351334,0.0028106342,-0.0113189714,0.0002134883,-0.0080452450,-0.0051914006,-0.0031617102
3.7950201035,0.0019130927,-0.0113772647,-0.0028076924,-0.0112817846,-0.0020778989,-0.0095301270
3.8051249981,0.0039814184,-0.0085137980,-0.0077176248,0.0025696363,0.0001510335,-0.0116557293
3.8151521683,0.0040533911,-0.0055872696,-0.0037743009,0.0100528523,-0.0008101012,-0.0063491147
3.8252770901,0.0051006447,-0.0036055343,0.0011862956,0.0079700481,-0.0061473423,-0.0084751165
3.8352320194,0.0042018215,-0.0084752338,0.0031993829,-0.0006330274,0.0001164125,-0.0127169993
3.8453769684,0.0023710947,-0.0075328844,0.0012245618,-0.0059695495,0.0000558922,-0.0148392050
3.8554461002,0.0025237422,-0.0046865242,-0.0017746843,-0.0049136067,0.0011192923,-0.0159007423
3.8655130863,0.0016795021,-0.0037640827,-0.0037567772,-0.0006799791,0.0043264036,-0.0180244781
3.8755569458,0.0037840824,-0.0028198855,-0.0027753867,0.0015075412,-0.0009599710,-0.0180276744
3.8856790066,0.0039675455,-0.0028542178,-0.0037300147,-0.0006303908,-0.0009915293,-0.0201516803
3.8957571983,0.0022150348,-0.0038806694,-0.0066757952,-0.0059671002,-0.0010519831,-0.0222739521
3.9058160782,0.0024216245,-0.0010065335,-0.0037760891,-0.0005875137,-0.0052569811,-0.0233385507
3.9158239365,0.0006939989,-0.0059227245,-0.0057231938,0.0036378577,-0.0009826077,-0.0243992880
3.9259140491,0.0009065192,-0.0050000446,-0.0056950604,0.0046750521,0.0022161154,-0.0233356208
3.9359478951,0.0001238059,-0.0030774968,-0.0056701456,0.0036313590,0.0001124844,-0.0190892108
3.9460411072,0.0012562793,0.0007851226,-0.0036966957,-0.0017060414,0.0000878498,-0.0159036722
3.9560890198,0.0014051419,0.0017160279,-0.0037365712,-0.0059750890,0.0000436415,-0.0169644095
3.9662289619,0.0005725544,-0.0032091038,-0.0066841398,-0.0027729841,0.0000784623,-0.0159033388
3.9762880802,-0.0002695251,-0.0051844614,-0.0076847230,-0.0027942890,0.0022004689,-0.0159022734
3.9863638878,0.0018246692,-0.0013509888,-0.0087064663,-0.0049480405,0.0043174159,-0.0137768043
3.9963450432,0.0029306929,0.0015463930,-0.0077567254,-0.0006369157,0.0001106865,-0.0137799997
4.0064868927,0.0030555050,0.0015121800,-0.0067901169,-0.0017794650,0.0075073498,-0.0169611461
4.0165519714,0.0022060792,0.0034152372,-0.0068110381,-0.0059611602,-0.0009971885,-0.0137789343
4.0266208649,0.0033154259,0.0014310580,-0.0049117361,-0.0038755061,0.0043248059,-0.0137751400
4.0364041328,0.0034522037,0.0013901097,-0.0078863660,-0.0027876040,0.0022051963,-0.0148382727
4.0466780663,0.0045539360,0.0023207767,-0.0098337093,0.0035820911,0.0054445323,-0.0148386732
4.0569143295,0.0056671719,-0.0005962747,-0.0107067386,0.0121393604,0.0033832456,-0.0169654731
4.0670409203,0.0028626840,0.0023386581,-0.0067153131,0.0131737581,0.0065829670,-0.0159028061
4.0768198967,-0.0009262938,0.0052737100,-0.0017525710,0.0110192606,0.0087001808,-0.0137776025
4.0869932175,0.0001822930,0.0062259538,-0.0046286141,0.0046001105,0.0096930731,-0.0159007423
4.0970091820,0.0013000589,0.0023057563,-0.0104131261,0.0067343675,0.0097117145,-0.0159012750
4.1071557999,0.0023408453,-0.0015802282,-0.0093602696,0.0098912530,0.0150913671,-0.0084649958
4.1171331406,0.0013689321,0.0013684732,-0.0015415705,0.0003515435,0.0086483816,-0.0074039930
4.1292572021,-0.0005402047,-0.0025398033,-0.0015655316,-0.0028531980,0.0086216163,-0.0074043926
4.1378741264,-0.0014700372,-0.0015929836,-0.0064725433,-0.0039197933,0.0086192191,-0.0063423235
4.1480159760,-0.0014503676,0.0012931925,-0.0065490161,-0.0050181346,0.0117926421,-0.0063401926
4.1575107574,0.0005448383,0.0032134159,-0.0046709930,-0.0049755247,0.0075486288,-0.0063423235
4.1681270599,0.0035308818,0.0060916049,-0.0037706650,-0.0081213834,0.0022077262,-0.0074049910
4.1779150963,0.0006562095,0.0079947216,-0.0038578070,-0.0070851473,0.0054139057,-0.0052800551
4.1874251366,0.0016420853,0.0050678356,-0.0077816998,-0.0017752312,0.0076196692,0.0000261603
4.1976261139,0.0016165149,0.0060492856,-0.0038933314,0.0035827821,0.0055581164,0.0021473682
4.2075929642,0.0025563459,0.0002490384,0.0000557744,0.0057628737,0.0013173647,0.0000226316
4.2177028656,0.0005843263,-0.0016662377,0.0010908686,0.0036531175,-0.0007817389,0.0063929129
4.2277297974,-0.0023965617,-0.0036086934,-0.0017922081,0.0057439911,0.0034883071,0.0074558472
4.2377929688,0.0024227123,-0.0055178897,-0.0027068413,0.0057647638,0.0013593761,0.0063929795
4.2478561401,0.0004142892,0.0003475648,-0.0016675150,0.0152953919,0.0088414606,0.0021482336
4.2579360008,0.0042696218,0.0042991741,0.0013705932,0.0143049620,0.0014328131,0.0063919807
4.2679891586,0.0032486538,0.0033668978,0.0024420463,0.0089765359,0.0002979732,0.0021451043
4.2780499458,0.0032542269,-0.0043913620,-0.0042306338,0.0164459031,0.0003562963,0.0010814379
4.2881231308,0.0022619287,0.0005176765,-0.0031486310,0.0121224755,0.0056175040,0.0000229644
4.2982540131,0.0032269727,0.0005516512,-0.0010999001,0.0153547544,0.0024486089,-0.0021030370
4.3082799911,0.0042394320,-0.0003955859,-0.0039063846,0.0079095140,0.0002601566,-0.0021010395
4.3183088303,0.0033022384,-0.0023240941,-0.0028726615,0.0078440011,0.0066054044,-0.0052832509
4.3283910751,0.0004063021,-0.0013586181,-0.0028401173,0.0067640357,0.0076436377,-0.0074064559
4.3384699821,0.0043572406,-0.0023162859,0.0010759674,0.0025274791,0.0044233436,-0.0074069886
4.3485412598,0.0054057757,-0.0062356489,0.0000749075,-0.0039138822,0.0075314520,-0.0105909966
4.3584938049,0.0035287957,-0.0053166645,-0.0000217712,-0.0081712110,0.0064400882,-0.0095286630
4.3688368797,0.0036090235,-0.0053498046,0.0028105222,-0.0070803007,0.0043122889,-0.0116523337
4.3788971901,0.0056889276,-0.0054085152,-0.0011406100,0.0003656317,0.0064649223,-0.0169621445
4.3889932632,0.0048551033,-0.0034878151,-0.0040249382,0.0110576637,0.0044363257,-0.0169660710
4.3990259171,0.0040151696,-0.0034882324,-0.0039460217,0.0100118406,0.0023049980,-0.0169668701
4.4091281891,0.0031599919,-0.0034966366,-0.0029115833,0.0057011414,0.0065471474,-0.0116554629
4.4191598892,0.0022684853,-0.0025350349,0.0000257337,0.0025413008,0.0022613222,-0.0137803992
4.4293031693,0.0023595016,-0.0044789212,0.0000851595,0.0078681279,0.0033753891,-0.0127189299
4.4392862320,0.0014640611,-0.0044647353,0.0040397490,0.0057434589,0.0022818951,-0.0148425344
4.4493761063,0.0025883238,-0.0035218494,0.0011439763,0.0068126642,0.0022833596,-0.0159036722
4.4594287872,0.0017737668,-0.0025941627,-0.0046560918,0.0035782550,0.0054245582,-0.0180248786
4.4695730209,0.0019239705,-0.0026191967,-0.0046309982,0.0035986556,0.0032957604,-0.0190878790
4.4795441628,0.0010927093,-0.0016603965,-0.0007332719,0.0003956715,0.0032470245,-0.0222724862
4.4896907806,0.0032205204,-0.0007302063,-0.0007593191,-0.0017479602,0.0042960439,-0.0212093536
4.4996948242,0.0053687016,-0.0007862943,-0.0007865584,-0.0048747770,-0.0031589428,-0.0212122835
4.5097851753,0.0055494527,0.0030306084,-0.0037885464,-0.0113320379,0.0021190429,-0.0169620123
4.5198349953,0.0057088654,0.0010008317,-0.0048981463,-0.0145456744,0.0031313105,-0.0201460868
4.5299510956,0.0048801522,0.0009410483,-0.0030965365,-0.0123616960,-0.0010539135,-0.0137765380
4.5399627686,0.0020598094,0.0008680326,-0.0041809236,-0.0092018545,0.0032319115,-0.0116516016
4.5500988960,0.0050660293,-0.0001318353,-0.0022977151,-0.0070248805,-0.0009721550,-0.0084693907
4.5600910187,0.0031811069,0.0027663214,-0.0004021085,0.0004865658,-0.0051647695,-0.0105969897
4.5701789856,0.0022897045,-0.0021239417,-0.0042578732,0.0058432212,-0.0072116083,-0.0063530426
4.5802979469,0.0003938597,-0.0030833380,-0.0051402007,0.0111474395,-0.0039750687,-0.0052909739
4.5902957916,-0.0005162436,-0.0030703442,-0.0040764962,0.0057826606,-0.0008467862,-0.0063486486
4.6003561020,-0.0004345555,0.0027771099,-0.0020713366,0.0089813834,-0.0008534442,-0.0116584590
4.6104311943,-0.0003679473,0.0066933138,0.0018923724,0.0068410272,0.0002157483,-0.0074093193
4.6204829216,0.0016605478,0.0096030934,0.0048590149,0.0005122917,-0.0072741262,-0.0084732519
4.6306152344,0.0027663629,0.0047155721,0.0019597851,-0.0005798182,-0.0051743570,-0.0105964569
4.6405439377,-0.0000511188,-0.0001999634,-0.0058491980,-0.0037817368,-0.0052092443,-0.0116574606
4.6507377625,-0.0018955994,-0.0031533139,-0.0068746363,-0.0049032727,0.0000939751,-0.0105933277
4.6607418060,-0.0017957467,-0.0061120884,-0.0049939309,-0.0112948595,-0.0010160306,-0.0095304595
4.6708230972,0.0012495440,0.0006497604,-0.0040921126,-0.0080288127,-0.0073543540,-0.0095341885
4.6806569099,0.0023285071,0.0064663393,-0.0041093384,0.0015337989,-0.0030126022,-0.0074108504
4.6909852028,0.0024349312,0.0044870479,-0.0031429685,-0.0058718110,-0.0094440039,-0.0074120481
4.7010970116,0.0025276016,0.0015306574,-0.0041893278,-0.0069815507,-0.0052093109,-0.0074096518
4.7109999657,-0.0003284294,-0.0024022954,-0.0042718803,-0.0091390042,-0.0030981563,-0.0063471170
4.7212200165,0.0016660910,-0.0004991191,-0.0063026701,-0.0123904580,0.0022204428,0.0000271590
4.7313871384,0.0026454846,0.0014351708,0.0004221046,-0.0112623433,-0.0041494388,-0.0021005736
4.7414588928,0.0046457867,0.0023669107,-0.0025538958,-0.0058840895,-0.0083468473,-0.0021040356
4.7515449524,0.0037356834,0.0033066971,-0.0093745152,0.0069239321,-0.0082501080,-0.0042295707
4.7612600327,0.0008707565,0.0013743144,-0.0122043053,0.0101365037,-0.0092762243,-0.0031691005
4.7714090347,-0.0000874925,0.0033488376,-0.0111370841,0.0100505101,-0.0007808066,-0.0021035029
4.7814002037,0.0019011270,0.0043466194,-0.0090918699,0.0079364926,-0.0029353038,-0.0042276401
4.7916860580,0.0029323022,0.0043823821,-0.0031346835,0.0111702625,-0.0061047319,-0.0063531091
4.8016800880,0.0010217648,0.0034493310,0.0008859479,0.0122491084,-0.0071425661,-0.0042303037
4.8118343353,-0.0018728751,0.0015231472,-0.0019340074,0.0122163789,-0.0039521656,-0.0031673689
4.8218779564,-0.0028109183,-0.0013754267,-0.0066865836,0.0121743008,0.0002987722,-0.0021034363
4.8319668770,0.0001390498,-0.0003762740,-0.0085009495,0.0153422635,0.0035031543,-0.0031647724
4.8418841362,0.0011390668,-0.0012952584,-0.0054107462,0.0175068807,0.0003180136,-0.0063523101
4.8520698547,0.0021982412,-0.0002843636,-0.0052557741,0.0132927215,-0.0050175632,-0.0052919057
4.8621048927,0.0022545080,-0.0002425807,-0.0080144564,0.0207413174,-0.0028303089,-0.0052927048
4.8722429276,0.0013119649,0.0007729632,-0.0097719589,0.0217788313,0.0003825286,-0.0021057003
4.8822193146,0.0032820622,0.0027712686,-0.0085925022,0.0239343941,-0.0017208359,-0.0021072980
4.8922982216,0.0033188830,-0.0020104544,-0.0063758646,0.0261043645,-0.0048936591,-0.0031696996
4.9023699760,0.0033889930,-0.0009497898,-0.0031959570,0.0240009986,-0.0081091598,-0.0052943695
4.9125208855,0.0014989000,-0.0008933442,-0.0068323766,0.0303802006,-0.0059233042,-0.0042340988
4.9224967957,0.0005589646,-0.0027418630,-0.0035857714,0.0346279442,-0.0037570889,-0.0031722963
4.9326481819,-0.0003816415,-0.0026416676,0.0015843951,0.0260784253,-0.0027771122,-0.0042319018
4.9426379204,0.0025885622,-0.0054994719,0.0037589513,0.0175211560,-0.0007158257,-0.0021051010
4.9527683258,0.0016810369,-0.0064355629,0.0000161969,0.0132604176,-0.0018415437,-0.0063520437
4.9627542496,0.0017611604,-0.0044956701,-0.0047532474,0.0079034697,0.0002338577,-0.0063496470
4.9728770256,0.0018066984,-0.0005864995,-0.0056570922,0.0099795097,0.0066378280,-0.0031601121
4.9829030037,0.0037723850,-0.0005614060,-0.0017110265,0.0004275497,0.0012350733,-0.0052839834
4.9929780960,0.0028351913,-0.0035132067,-0.0027199544,-0.0049685482,0.0064747096,-0.0084673930
5.0027809143,0.0029205303,-0.0045323865,-0.0037682212,-0.0081805866,0.0075077494,-0.0084660612
5.0131058693,0.0029335539,-0.0016392368,-0.0019257223,-0.0092628142,0.0096537918,-0.0031544531
5.0232419968,0.0058838646,0.0022139652,0.0008989417,-0.0070561199,0.0022177128,-0.0074059227
5.0332412720,0.0039907764,0.0002356273,0.0017735802,-0.0102228047,-0.0009800110,-0.0052825185
5.0431890488,0.0010924261,0.0001855594,-0.0003162182,-0.0198466666,0.0010788790,-0.0020936495
5.0533742905,-0.0008639771,-0.0008494156,-0.0005023039,-0.0208938792,-0.0010306113,0.0010898934
5.0635108948,0.0030331980,0.0000726682,0.0002961003,-0.0187383145,-0.0031339759,0.0010882955
5.0735168457,0.0040368359,-0.0009591478,-0.0046897684,-0.0101461587,-0.0083650900,0.0010841675
5.0835847855,0.0050155590,0.0019512278,-0.0076254164,-0.0026629427,-0.0093262251,0.0063907821
5.0936179161,0.0030078511,0.0000306470,-0.0017911947,-0.0026468039,-0.0114606153,0.0042646476
5.1037092209,0.0030002515,-0.0038595693,-0.0017938769,-0.0058279485,-0.0136244334,0.0021407767
5.1137628555,0.0020465623,-0.0096902745,-0.0007926381,0.0005972730,-0.0156980380,0.0010769105
5.1238479614,0.0020744721,-0.0077528851,-0.0027287758,-0.0026243534,-0.0135901459,0.0032023792
5.1339778900,0.0040501724,-0.0019267100,-0.0037240542,-0.0036654901,-0.0157302618,0.0021416424
5.1439857483,0.0031059305,0.0038963659,-0.0027490414,-0.0015227096,-0.0168003179,-0.0021066323
5.1540689468,0.0041596661,0.0029148562,-0.0027075566,0.0016411524,-0.0135944737,-0.0031694334
5.1641879082,0.0052026282,-0.0019332069,-0.0026495017,0.0026859101,-0.0114769936,-0.0052922387
5.1742401123,0.0023577134,-0.0029112594,-0.0035630025,0.0069531999,-0.0114606153,-0.0084785782
5.1842570305,0.0024471502,0.0019650562,-0.0005604184,0.0101119746,-0.0071886387,-0.0084772464
5.1943249702,0.0015360337,0.0058906777,0.0024694644,0.0111689838,-0.0061113900,-0.0074151782
5.2043447495,0.0016322058,0.0088101132,-0.0022949136,0.0111572659,-0.0050642351,-0.0095382500
5.2145099640,0.0017296892,0.0039780838,-0.0002125061,0.0122238081,-0.0050475900,-0.0084771132
5.2245693207,-0.0001218248,0.0010609728,-0.0020420707,0.0122019704,-0.0029325075,-0.0095378505
5.2346458435,0.0009386759,0.0020433171,-0.0048591052,0.0122055933,-0.0029053437,-0.0052901087
5.2446441650,0.0019568573,-0.0018050569,-0.0017895853,0.0111592375,-0.0050435956,-0.0063527096
5.2547411919,0.0020289342,-0.0008222955,-0.0036266602,0.0111485850,-0.0039825924,-0.0063521769
5.2647790909,0.0021343748,-0.0017864007,-0.0064566885,0.0121928100,-0.0018720371,-0.0095367851
5.2748727798,0.0012277287,-0.0046986835,-0.0092700282,0.0079375841,-0.0029285797,-0.0031656383
5.2849159241,0.0042070071,-0.0066153901,-0.0053119813,0.0015566498,-0.0050995885,-0.0021033033
5.2950119972,0.0022769193,-0.0085641043,0.0014625036,-0.0101712188,-0.0062844292,-0.0052857809
5.3050632477,0.0023553739,-0.0028056996,-0.0025750555,-0.0176613592,-0.0042138211,-0.0031592466
5.3151249886,0.0043925266,0.0010056597,-0.0056609665,-0.0133968387,-0.0042035677,-0.0074081868
5.3249249458,0.0054461281,0.0009539229,-0.0106015960,-0.0027356725,-0.0030424297,-0.0063485149
5.3352470398,0.0045097242,0.0029035909,-0.0057558571,-0.0016459338,-0.0051555815,-0.0063493811
5.3453230858,0.0045801024,-0.0000131625,0.0000902855,-0.0016251616,-0.0072845127,-0.0074122483
5.3552942276,0.0037271450,0.0009154779,0.0000701391,-0.0090639032,-0.0105680563,-0.0127203278
5.3654341698,0.0009582859,0.0018333894,-0.0038652576,-0.0026840344,-0.0084108952,-0.0159062669
5.3755431175,-0.0008611757,0.0037551029,-0.0077432548,0.0057579461,0.0012408653,-0.0116568608
5.3856101036,0.0002192330,0.0056969626,-0.0066999947,0.0121495333,0.0023508710,-0.0127197281
5.3956799507,0.0042272280,0.0047644479,-0.0074873124,0.0174767338,0.0034648050,-0.0116581265
5.4057321548,0.0043012421,0.0018877488,-0.0043896590,0.0143419271,-0.0028945575,-0.0063515115
5.4158139229,0.0033862363,-0.0029430287,-0.0023178018,0.0089717954,0.0002214077,-0.0095343217
5.4258780479,-0.0004746247,-0.0087756412,-0.0022990860,-0.0017287852,0.0033458283,-0.0042210491
5.4359450340,-0.0014181066,-0.0088067548,-0.0062334691,0.0025046822,0.0065458822,-0.0074064555
5.4457941055,-0.0013523180,-0.0059060352,-0.0081957737,0.0003597727,0.0075882436,-0.0074053900
5.4560780525,0.0016381067,0.0008803112,-0.0072385822,-0.0017524343,0.0054473281,-0.0074056564
5.4661478996,0.0046350579,0.0047308905,-0.0082596699,-0.0049543520,0.0054124407,-0.0084666600
5.4761719704,0.0037246714,0.0027728183,-0.0054024612,-0.0027693613,0.0001056264,-0.0116555961
5.4862351418,0.0018666011,-0.0021157758,-0.0025128878,-0.0070059178,-0.0031146682,-0.0116561288
5.4963769913,0.0020082216,-0.0021861093,-0.0055166637,-0.0112744067,-0.0031590760,-0.0127166659
5.5063829422,0.0020978968,-0.0022313492,-0.0046121036,-0.0006553186,0.0022529997,-0.0105930613
5.5164632797,0.0021841149,-0.0031903284,-0.0035861291,0.0100056082,0.0034284526,-0.0074102515
5.5265102386,0.0012678426,-0.0012261170,0.0003896200,0.0089597851,0.0012971247,-0.0074110506
5.5366439819,0.0013554912,-0.0031307237,0.0053869928,0.0142955082,0.0013223580,-0.0105971890
5.5467162132,-0.0005250353,-0.0060494440,0.0045031155,0.0025693439,0.0001795955,-0.0074093854
5.5567140579,-0.0004420955,-0.0070271390,0.0054828967,-0.0027658464,0.0001114856,-0.0105927289
5.5667681694,0.0016281378,-0.0041746395,-0.0033322133,-0.0038862387,0.0054071816,-0.0105897989
5.5769181252,0.0017237734,-0.0032440322,-0.0062899147,-0.0039202468,0.0085909236,-0.0105889328
5.5869159698,0.0008303594,-0.0003602999,-0.0053600823,-0.0028323466,0.0064713135,-0.0116520673
5.5970511436,-0.0000345040,-0.0023169415,-0.0024637736,-0.0038607260,0.0022051295,-0.0137785356
5.6070361137,0.0020499746,-0.0013995665,-0.0034915961,-0.0059635574,-0.0010034470,-0.0148414029
5.6171159744,0.0012197118,-0.0043645399,-0.0045301472,-0.0027516261,-0.0020577926,-0.0180276074
5.6272163391,0.0013777238,-0.0024783509,-0.0065413271,-0.0048954710,-0.0010015827,-0.0159029383
5.6372299194,0.0025335769,-0.0054398077,-0.0036261238,-0.0016426053,-0.0062993425,-0.0190918744
5.6470899582,0.0027200500,-0.0054641264,-0.0016901649,-0.0027294420,-0.0041658841,-0.0159051362
5.6573948860,0.0048381309,-0.0006352561,-0.0007265366,-0.0027064309,-0.0062956139,-0.0169672035
5.6674799919,0.0040475945,-0.0016434091,-0.0016803897,0.0005274452,-0.0094437366,-0.0159077980
5.6775522232,0.0041812281,0.0002869469,0.0012603246,0.0026752306,-0.0104586668,-0.0116613880
5.6875457764,0.0023707370,0.0022155149,0.0041910852,-0.0026715975,-0.0094511937,-0.0127213262
5.6977200508,0.0025102566,0.0002381903,0.0032302581,0.0015718574,-0.0072834473,-0.0116610555
5.7077169418,0.0036145221,0.0021633608,0.0013363207,0.0026491061,-0.0083420537,-0.0127236573
5.7177658081,0.0047412436,0.0011677247,-0.0005884326,0.0005484307,-0.0115300566,-0.0106009180
5.7278180122,0.0019381266,-0.0008118051,-0.0035186566,0.0004738616,-0.0041030333,-0.0105971890
5.7378997803,0.0020373384,0.0001419884,-0.0025484122,-0.0027385224,-0.0030769841,-0.0116575938
5.7480540276,0.0031338255,0.0001197559,0.0013279759,-0.0090896282,-0.0084587000,-0.0148440665
5.7580633163,0.0062249671,0.0039281351,-0.0007414377,-0.0144509980,-0.0052960627,-0.0105924625
5.7681069374,0.0034263800,0.0057816012,-0.0057560359,-0.0101734297,-0.0063405544,-0.0137794670
5.7781848907,0.0045390050,0.0057233674,-0.0078140656,-0.0123053966,-0.0063244426,-0.0084700556
5.7883210182,0.0016656142,0.0037315590,-0.0011547364,-0.0208743811,-0.0032160007,-0.0084663276
5.7983198166,0.0017407757,0.0046150787,0.0015153133,-0.0358151458,-0.0033390392,-0.0074013295
5.8083772659,0.0057126801,0.0083747609,-0.0017804063,-0.0464294404,-0.0086887972,0.0000312870
5.8184089661,0.0047523598,0.0062989099,-0.0031342662,-0.0358022787,-0.0043439167,0.0010918243
5.8286027908,0.0008611452,0.0023066504,-0.0053980504,-0.0336355306,-0.0075013605,0.0021514960
5.8385992050,0.0057617049,0.0089912517,-0.0124982754,-0.0314579718,-0.0117127504,0.0042723045
5.8486433029,0.0028292309,0.0079595549,-0.0107752243,-0.0197536461,-0.0084549058,0.0000237635
5.8587541580,0.0037832479,0.0069494946,-0.0070287739,-0.0207428485,-0.0158426482,0.0074527846
5.8688011169,0.0047314684,0.0069089038,-0.0061997925,-0.0154066747,-0.0157891177,0.0085132550
5.8788928986,-0.0012065250,0.0059301956,-0.0053505455,-0.0090838233,-0.0072185993,0.0127642592
5.8889222145,0.0015965324,0.0088629825,0.0013964617,-0.0122404685,-0.0114628794,0.0170101374
5.8990631104,0.0024671475,0.0078848107,0.0003601753,-0.0079425797,-0.0146147963,0.0159449391
5.9090328217,0.0023761014,0.0030275686,-0.0035582937,-0.0047630314,-0.0124717504,0.0148834037
5.9191942215,-0.0006670732,0.0030456288,-0.0045524393,-0.0048164530,-0.0071737911,0.0138243977
5.9291772842,-0.0017494339,0.0069435937,-0.0055433665,0.0005096020,-0.0060523343,0.0159472022
5.9395132065,0.0020409743,0.0098996861,-0.0074349199,0.0079780379,-0.0059936782,0.0148832034
5.9493241310,0.0029246877,0.0099589331,-0.0063317572,0.0154564604,-0.0070171310,0.0106335972
5.9594249725,0.0028624753,0.0090674264,-0.0061509763,0.0196801797,-0.0027492819,0.0085106585
5.9692010880,0.0047849636,0.0081616743,-0.0069178496,0.0207659509,-0.0048965891,0.0032003154
5.9795370102,0.0047435383,0.0043267114,-0.0038272298,0.0100891264,-0.0039021648,0.0074517857
5.9895958900,0.0037161629,0.0043706400,-0.0027933873,0.0025867354,-0.0007913262,0.0063934457
5.9996662140,0.0026604752,-0.0004843372,-0.0018189704,-0.0027992418,0.0044802683,0.0085217105
6.0097160339,0.0045235078,-0.0014474291,-0.0037838973,-0.0016868403,0.0002801970,0.0138283251
6.0198631287,0.0004694086,-0.0004556077,-0.0038386739,-0.0038785152,0.0055822842,0.0159532614
6.0298581123,-0.0016410131,-0.0033617513,-0.0039160405,-0.0102914069,0.0065942854,0.0170171950
6.0399951935,-0.0018086809,-0.0052990215,-0.0020721115,-0.0113562997,0.0065841652,0.0170182604
6.0499792099,-0.0019769748,-0.0092087286,-0.0051090275,-0.0102683976,0.0044645555,0.0159551259
6.0601282120,-0.0041123112,-0.0101804631,-0.0081442753,-0.0081613315,0.0076858485,0.0191427302
6.0701270103,-0.0033054282,-0.0130786197,-0.0082056681,-0.0016962411,0.0013549821,0.0159525294
6.0802559853,-0.0014737922,-0.0120839970,-0.0101288715,0.0057818079,0.0003316626,0.0117027899
6.0902309418,0.0013492923,-0.0091003673,-0.0070986305,0.0154386964,-0.0048963889,0.0106359283
6.1003627777,0.0012788099,-0.0090168016,-0.0040043746,0.0218913760,-0.0101940818,0.0031991834
6.1103811264,0.0032535116,-0.0079715149,0.0001343929,0.0219206698,-0.0134117128,-0.0021114261
6.1204671860,0.0052928696,-0.0079192417,0.0003726327,0.0187026411,-0.0124192201,-0.0084819077
6.1305251122,0.0015086007,-0.0107871192,0.0034772598,0.0153601076,0.0013112394,-0.0137831960
6.1406469345,0.0026110034,-0.0068894522,0.0045431103,0.0057264143,0.0044094948,-0.0137783345
6.1506309509,0.0037332396,-0.0059506195,0.0035815679,0.0003790529,0.0054100445,-0.0159000754
6.1607112885,0.0028901915,-0.0079176920,0.0035878860,0.0014239978,0.0075274571,-0.0180228129
6.1707639694,0.0079457983,-0.0069842236,-0.0002817667,-0.0006767036,0.0043465775,-0.0148384729
6.1808538437,0.0061537842,-0.0031477110,-0.0070969616,0.0068532522,-0.0019670455,-0.0169681367
6.1909899712,0.0053304355,-0.0041288631,-0.0099247852,0.0122336363,-0.0061367569,-0.0127243893
6.2009983063,0.0044838111,-0.0079933302,-0.0107319513,0.0186154488,-0.0039518327,-0.0116631864
6.2110610008,0.0036312263,-0.0089331763,-0.0095579783,0.0207933821,-0.0081633553,-0.0095422445
6.2211999893,0.0027416269,-0.0049852030,-0.0054834043,0.0218715370,-0.0092151714,-0.0095429104
6.2311949730,0.0018807572,-0.0000727075,-0.0043038283,0.0239850208,-0.0070675975,-0.0084805759
6.2413530350,0.0019688974,-0.0009896654,-0.0050191437,0.0272188708,-0.0102085974,-0.0063595669
6.2513160706,0.0010554414,-0.0048186081,-0.0028192557,0.0207724236,-0.0060343579,-0.0084794434
6.2614297867,0.0011542958,0.0010517341,0.0021799647,0.0079869330,-0.0082819993,-0.0106009841
6.2714481354,0.0042427401,0.0039432747,-0.0035939969,0.0058617303,-0.0093824174,-0.0137863914
6.2812790871,0.0053993384,0.0048958762,-0.0064278399,0.0058023143,-0.0030251187,-0.0148432013
6.2914099693,0.0045565735,0.0068400009,-0.0063839708,0.0047261314,-0.0019526640,-0.0116569940
6.3015398979,0.0046417634,0.0029448969,-0.0043782745,0.0036382293,0.0001669459,-0.0105938595
6.3119101524,0.0037723552,0.0039246185,0.0024360858,-0.0069873566,-0.0052499240,-0.0137813976
6.3218212128,0.0039073150,0.0038578613,-0.0015391267,-0.0113074565,0.0000172094,-0.0137770707
6.3318557739,0.0030275206,0.0047679050,-0.0055436646,-0.0102690896,0.0032510860,-0.0074049253
6.3419342041,0.0030984799,0.0037331684,-0.0085715810,-0.0070657069,0.0032925648,-0.0052817864
6.3520679474,0.0031179409,0.0036924584,-0.0125302235,-0.0038957456,0.0065104621,-0.0042191846
6.3620638847,0.0021432261,0.0037005646,-0.0086605111,-0.0007190742,0.0086758789,-0.0020969117
6.3721332550,0.0020897011,0.0046881540,-0.0028543032,-0.0070978785,0.0065325666,0.0032126326
6.3822002411,0.0040097008,0.0085533364,-0.0029573597,-0.0134851513,0.0054139057,0.0032154289
6.3922991753,0.0039561014,0.0075430973,-0.0079273740,-0.0038772644,0.0055462644,0.0106456485
6.4023323059,0.0018552762,0.0046591861,-0.0060125147,-0.0017642314,0.0077153430,0.0148926573
6.4123229980,-0.0002332557,-0.0011552471,-0.0060074483,0.0036443826,0.0003141519,0.0117021902
6.4224781990,-0.0003477115,-0.0001442927,-0.0079273144,0.0015422432,-0.0028804429,0.0127627943
6.4325718880,-0.0043924530,-0.0001050728,-0.0059461151,0.0025997842,-0.0017962698,0.0148866652
6.4426121712,-0.0045100828,0.0028634174,-0.0010335600,0.0026195180,-0.0039461735,0.0106385909
6.4526691437,0.0002747994,0.0038719280,-0.0000053204,0.0058209039,-0.0039182100,0.0106377918
6.4627380371,0.0021639983,0.0038996441,-0.0047894870,0.0111647760,-0.0049317428,0.0106350631
6.4727029800,-0.0008468855,0.0029800041,-0.0066166674,0.0121679893,0.0014435987,0.0106379911
6.4830341339,0.0000214946,0.0020625098,-0.0065014516,0.0121610388,0.0025103942,0.0117014591
6.4929399490,0.0018644404,0.0011679035,0.0004190051,0.0089362171,0.0045767408,0.0074561136
6.5030441284,0.0027571241,0.0002306801,0.0024084889,-0.0017338181,0.0044973120,0.0095824478
6.5130820274,0.0026712338,0.0021797521,0.0004343235,-0.0006677546,0.0044927849,0.0074585769
6.5232143402,0.0045492868,0.0012047392,-0.0044393693,0.0046382733,0.0077429065,0.0106445160
6.5332121849,0.0054126154,0.0022180183,-0.0044083153,0.0035929829,0.0056185029,0.0117055196
6.5433330536,0.0033114175,0.0012672049,-0.0024769462,-0.0017015673,0.0013355408,0.0127657913
6.5533370972,0.0002574693,-0.0035741227,-0.0005608356,-0.0027910657,0.0034343782,0.0106435176
6.5634350777,-0.0008318800,-0.0035629766,-0.0025530017,-0.0049984027,0.0108422264,0.0106483120
6.5734691620,-0.0019294698,-0.0016125339,-0.0025930561,0.0035695201,0.0077199368,0.0085209785
6.5836119652,-0.0000744689,-0.0006140369,-0.0054804836,0.0057224464,0.0056246286,0.0095800506
6.5936002731,0.0017781180,0.0013768774,-0.0034748472,0.0057538720,0.0024346940,0.0085166506
6.6036820412,0.0017022114,-0.0015037555,-0.0024272359,0.0047008051,0.0013489235,0.0063943774
6.6137418747,0.0016451847,-0.0034227269,-0.0014290370,-0.0006140657,-0.0008266128,0.0053328415
6.6237888336,0.0025778334,-0.0024385350,-0.0004575408,-0.0016662283,-0.0029556770,0.0053297789
6.6339230537,0.0035010199,-0.0024347799,0.0004956567,-0.0059555154,-0.0008640303,0.0063937115
6.6440219879,0.0034448723,-0.0004896420,-0.0005434311,-0.0070075160,-0.0019359528,0.0063950438
6.6540741920,0.0024069468,-0.0005076426,-0.0035222925,-0.0028130366,0.0055352794,0.0074595092
6.6640930176,0.0062273960,0.0004814965,-0.0006095326,-0.0027820114,0.0023526021,0.0074575781
6.6742162704,0.0081091151,0.0014818412,0.0023000084,-0.0016935775,0.0002399164,0.0074562468
6.6842460632,0.0061026732,0.0004977090,-0.0016172683,-0.0027621714,0.0002240040,0.0063943779
6.6942858696,0.0040993015,0.0004930598,-0.0055334126,-0.0006486867,0.0023715771,0.0074567129
6.7043399811,0.0010482442,-0.0024030702,-0.0045694266,0.0003868034,0.0055780234,0.0095813824
6.7144107819,0.0009236407,-0.0023786323,-0.0065282737,-0.0007117502,0.0087586362,0.0106450487
6.7244873047,0.0027395706,0.0005712015,-0.0036260046,-0.0017114216,0.0023820298,0.0106433844
6.7345428467,0.0046145539,0.0015552741,-0.0036161102,0.0036561796,-0.0007543750,0.0106404554
6.7446770668,0.0045171301,-0.0003428358,-0.0045169150,0.0047539352,-0.0039204741,0.0116997277
6.7547211647,-0.0004933554,-0.0051742094,-0.0035162128,0.0004545283,-0.0007608996,0.0138259949
6.7647829056,0.0003874373,-0.0051585333,-0.0054680859,-0.0016584778,-0.0029371013,0.0085173827
6.7748317719,0.0022730152,-0.0022293227,-0.0054765497,0.0004331693,0.0013255543,0.0085189808
6.7849450111,0.0002092343,-0.0002422231,0.0013341749,-0.0027543427,-0.0008288766,0.0074544488
6.7949743271,-0.0008449930,-0.0031428831,0.0061554159,-0.0091571147,-0.0008848030,0.0074560465
6.8050289154,-0.0028643687,-0.0070819156,0.0021174990,-0.0198880024,0.0053793509,0.0064018341
6.8150882721,-0.0019299764,-0.0090860026,0.0018707359,-0.0284271613,0.0052770860,0.0021567557
6.8251581192,0.0019681226,-0.0091727870,-0.0012696541,-0.0220272914,0.0053127054,-0.0010307153
6.8352560997,0.0049249004,-0.0014714497,-0.0053741490,-0.0176751539,-0.0031588096,-0.0042214482
6.8453197479,0.0049439291,-0.0044231312,-0.0035153187,-0.0059360731,-0.0030351724,-0.0010393040
6.8553490639,0.0040005068,-0.0073662894,-0.0026072420,-0.0112839676,-0.0020415471,-0.0042228466
6.8654432297,0.0030966024,-0.0035287635,-0.0017658628,-0.0134086097,-0.0031421650,-0.0074080536
6.8755140305,0.0031712423,-0.0055121081,-0.0037979044,-0.0048928866,-0.0009455897,-0.0074091190
6.8855743408,0.0032532434,-0.0074786441,-0.0009041584,-0.0027177241,-0.0051632379,-0.0063507790
6.8956117630,0.0013654452,-0.0084792273,0.0000349128,-0.0037960373,-0.0041184798,-0.0074117826
6.9057111740,0.0024464945,-0.0055859582,-0.0038639463,0.0026007947,-0.0030174628,-0.0095343888
6.9157781601,0.0025320570,-0.0046132701,-0.0008943236,0.0047776625,-0.0072428342,-0.0095370514
6.9258441925,0.0026286463,-0.0046156542,0.0011154258,0.0048284503,-0.0125327371,-0.0074173752
6.9358820915,0.0027705948,-0.0056079524,-0.0065993820,0.0079957480,-0.0093494616,-0.0116637852
6.9459462166,-0.0000398833,-0.0055951374,-0.0074565564,0.0111591034,-0.0050577768,-0.0084759807
6.9560451508,-0.0009023178,-0.0036510723,-0.0054233824,0.0068991110,-0.0061837616,-0.0127226580
6.9661130905,0.0002115291,-0.0046188729,-0.0033996857,0.0058406112,-0.0072604776,-0.0137852589
6.9761447906,0.0003484707,-0.0075542824,-0.0023885525,-0.0016197022,-0.0084005762,-0.0159075316
6.9862561226,-0.0014332015,-0.0085770385,-0.0014924563,-0.0155775957,-0.0000337234,-0.0158998091
6.9963121414,-0.0032469411,-0.0067220228,-0.0036302365,-0.0177656487,0.0052457270,-0.0169584155
7.0063800812,0.0008037012,-0.0068195360,-0.0008979595,-0.0230704248,0.0020093871,-0.0180206839
7.0164251328,0.0029545049,-0.0069233077,-0.0020718731,-0.0220277980,0.0040991697,-0.0243906993
7.0264711380,0.0061167846,-0.0021678703,-0.0051493798,-0.0166488253,-0.0000913809,-0.0233322922
7.0365791321,0.0054044495,0.0016102892,-0.0082391659,-0.0144527834,-0.0064664562,-0.0275832303
7.0466151237,0.0027395706,0.0044373972,-0.0102945725,-0.0091536511,-0.0021637860,-0.0254570283
7.0566749573,0.0048961411,0.0043794615,-0.0093673030,-0.0017450042,0.0043021026,-0.0201466866
7.0668163300,0.0030818800,-0.0004839200,-0.0054580127,0.0046747588,0.0022446774,-0.0190892778
7.0768141747,0.0032523791,0.0014376742,-0.0044212495,0.0078766774,0.0022795647,-0.0180282742
7.0869531631,0.0004748922,0.0024041040,-0.0033821024,0.0110565983,0.0044224774,-0.0190896764
7.0969562531,-0.0003462512,0.0033637388,-0.0062250649,0.0089026336,0.0065466147,-0.0159026720
7.1070818901,0.0036900262,0.0072362525,-0.0110277692,0.0089128865,0.0054928684,-0.0148417354
7.1170530319,0.0038068066,0.0033443077,-0.0099625746,0.0088473726,0.0118381158,-0.0180239473
7.1271591187,0.0019808332,0.0062461598,-0.0060812389,-0.0028926935,0.0117290597,-0.0190832205
7.1372141838,0.0001655590,0.0071734888,-0.0071233069,-0.0061047319,0.0127620995,-0.0190818887
7.1473450661,0.0003013235,0.0100385053,-0.0081824223,-0.0029235585,0.0149187939,-0.0180196185
7.1573657990,0.0013792437,0.0090233786,-0.0053090011,-0.0050450331,0.0138668455,-0.0137724103
7.1674480438,0.0034272741,0.0080082519,-0.0024723567,-0.0135246981,0.0084857959,-0.0137714772
7.1774892807,0.0015605461,0.0050238473,-0.0036043085,-0.0146339051,0.0127274115,-0.0127072781
7.1875538826,-0.0022928645,0.0030126674,-0.0057222997,-0.0146542247,0.0148846395,-0.0073978007
7.1975803375,-0.0022997041,0.0029673679,-0.0078179399,-0.0135929547,0.0160172805,0.0021586865
7.2077178955,0.0025224010,0.0048860414,-0.0088797370,-0.0029229727,0.0161109585,0.0021555573
7.2177248001,0.0014741343,0.0039346321,-0.0050048386,0.0014339583,0.0077017606,0.0085210446
7.2278327942,0.0043006758,0.0088301999,-0.0001545704,-0.0048838062,-0.0008350019,0.0095799174
7.2378830910,0.0042049508,0.0098080738,-0.0031044043,0.0014886064,0.0024247072,0.0127653247
7.2479839325,0.0040597538,0.0059500439,-0.0078990022,0.0121980831,-0.0006388600,0.0170097388
7.2580261230,0.0039060633,0.0040862663,-0.0067880903,0.0154314265,-0.0037939069,0.0170073416
7.2681522369,0.0028130929,0.0022105677,-0.0095580975,0.0175442174,-0.0016603153,0.0159462038
7.2781491280,0.0036562304,0.0042432053,-0.0074305688,0.0175426211,-0.0016810880,0.0127607975
7.2882199287,0.0035455446,0.0014287931,-0.0013652004,0.0228958949,-0.0037694061,0.0106338635
7.2982950211,0.0044450234,0.0034580333,0.0007629239,0.0143695176,-0.0049049780,0.0106354617
7.3083610535,0.0024275701,0.0054496629,-0.0000854290,0.0142800091,0.0035347792,0.0032069066
7.3184261322,0.0023621540,0.0045293672,-0.0019036091,0.0142507143,0.0067524104,0.0085175158
7.3284850121,0.0032372694,0.0026353700,0.0020752989,0.0046561444,0.0055936687,0.0063957758
7.3385539055,0.0021907310,-0.0031752484,0.0021022998,-0.0007013371,0.0076621464,0.0053363703
7.3486180305,0.0001395863,-0.0031778114,0.0020244562,-0.0092914430,0.0128925275,0.0053412309
7.3587360382,0.0020254324,0.0016687018,0.0067816223,-0.0113399466,0.0043927832,0.0063993046
7.3687529564,0.0039375196,0.0045324070,-0.0040409123,-0.0081247659,0.0033657353,0.0074607073
7.3788223267,0.0028606276,0.0035482151,-0.0128666917,-0.0017949641,0.0108694583,0.0106482450
7.3890318871,-0.0002388734,-0.0022459524,-0.0060864245,-0.0007394999,0.0119614871,0.0138329854
7.3991909027,0.0015382987,-0.0041531222,-0.0012604750,-0.0060330657,0.0076639438,0.0127703846
7.4090800285,-0.0005512614,-0.0041518109,0.0005914413,-0.0060095508,0.0055482625,0.0138317216
7.4190020561,-0.0016646016,-0.0022188323,-0.0033573664,-0.0028076321,0.0055831498,0.0148927243
7.4292311668,0.0001503449,-0.0002576607,-0.0014850057,-0.0059704548,0.0012983897,0.0127667226
7.4392223358,0.0000392120,-0.0041131871,-0.0014790453,0.0057461220,0.0035160040,0.0117030563
7.4493551254,0.0018887442,-0.0031134384,-0.0024022020,0.0057566413,0.0024408193,0.0095792515
7.4595041275,0.0047525982,-0.0030636685,0.0006086075,0.0058290795,-0.0050139013,0.0053283144
7.4693951607,0.0027846913,-0.0030573504,-0.0022727407,0.0026093712,-0.0029209228,0.0053312434
7.4795341492,0.0007624399,-0.0049849050,-0.0032040037,0.0057798647,0.0003038992,0.0074556470
7.4956293106,0.0026471834,-0.0068924921,-0.0021770156,0.0057791187,0.0003041655,0.0074553806
7.4995861053,0.0045598070,-0.0068491595,0.0017912233,0.0036645690,-0.0018572561,0.0042694416
7.5097522736,0.0064911465,-0.0048779743,0.0018336617,0.0079053594,0.0002758692,0.0000207007
7.5198349953,0.0055445950,-0.0039132135,-0.0029649294,0.0079037622,0.0002550965,-0.0031647063
7.5301442146,0.0026485841,-0.0029203193,-0.0029066361,0.0078771831,0.0034432998,-0.0020995750
7.5398969650,0.0007016581,-0.0028982060,0.0019965612,0.0035639275,0.0076223323,-0.0063435887
7.5498132706,0.0007394772,-0.0048484104,-0.0008989132,0.0046413634,0.0065636593,-0.0074061230
7.5598878860,0.0027624439,-0.0077705877,0.0001150810,0.0004032087,0.0033225920,-0.0105920630
7.5703411102,0.0018976849,-0.0039077895,0.0000847423,-0.0017251363,0.0022161815,-0.0148402043
7.5800838470,0.0020519416,-0.0039625661,-0.0076972996,0.0068326658,0.0001618192,-0.0159052033
7.5901088715,0.0021675746,-0.0039515393,-0.0056814109,0.0079232305,-0.0019231695,-0.0116593251
7.6001281738,0.0051949839,-0.0010390180,-0.0026933111,0.0015108706,-0.0009042444,-0.0095335897
7.6102600098,0.0042882184,-0.0029753344,0.0012103163,-0.0016378649,-0.0062227766,-0.0074124476
7.6203002930,0.0024024765,-0.0049409764,-0.0007224834,-0.0005584853,-0.0072536864,-0.0042278399
7.6303939819,0.0004953515,-0.0107856886,-0.0055714403,0.0047383560,-0.0029359697,0.0000207673
7.6404037476,0.0004814785,-0.0117360251,-0.0026215471,0.0026147515,-0.0040156152,0.0000207673
7.6505050659,0.0024732868,-0.0049505131,-0.0026203550,-0.0005671680,-0.0061720437,-0.0010417673
7.6605129242,0.0024893205,-0.0010470647,-0.0006707466,0.0015873294,-0.0082892571,-0.0031669699
7.6705932617,0.0045100669,0.0008897287,-0.0025926984,0.0005640639,-0.0125288088,-0.0010451629
7.6807098389,0.0055350433,0.0047664745,-0.0045106565,0.0027185613,-0.0146460216,-0.0031703650
7.6907610893,0.0036146860,0.0018550259,-0.0035030402,0.0037239576,-0.0082572317,-0.0010434317
7.7007923126,0.0026658992,-0.0000837940,-0.0005479610,-0.0004918259,-0.0136064580,-0.0021068321
7.7109141350,0.0017649751,-0.0020273821,-0.0005161918,0.0016288748,-0.0125471186,-0.0052927048
7.7209310532,-0.0001164455,-0.0010594028,-0.0033775128,0.0090343263,-0.0061227749,-0.0063531757
7.7310628891,0.0009488087,0.0067172749,-0.0052661453,0.0047902344,-0.0082689496,-0.0042288387
7.7410850525,0.0020182799,0.0057657463,-0.0041977321,0.0112228338,-0.0114237303,-0.0084792441
7.7511801720,0.0011623573,0.0009198887,-0.0069646989,0.0144225676,-0.0114022922,-0.0095422445
7.7611989975,0.0022365372,-0.0009997386,-0.0029370941,0.0069761029,-0.0135618486,-0.0052942364
7.7713160515,0.0023291479,0.0009488565,-0.0057726060,0.0091022905,-0.0124760112,-0.0042317016
7.7813401222,0.0014292967,0.0009757978,-0.0066138064,0.0133292601,-0.0081808651,-0.0021070316
7.7914519310,0.0053600292,0.0039283736,-0.0054958020,0.0123043964,-0.0123913903,0.0042606532
7.8015079498,0.0083134696,0.0058990223,-0.0063534533,0.0069996454,-0.0156348534,0.0021367820
7.8115859032,0.0034298967,0.0059281690,-0.0072540794,0.0080493297,-0.0134906769,0.0042621843
7.8216071129,0.0014320534,0.0030422313,-0.0042541181,0.0048170518,-0.0103217810,0.0063881855
7.8317289352,0.0003732365,0.0011230212,-0.0023012317,-0.0027045412,-0.0050541149,0.0106397225
7.8417448997,0.0012833845,-0.0027568834,-0.0071721231,-0.0027061393,-0.0050748875,0.0074543161
7.8518610001,0.0031777839,0.0011335713,-0.0101038376,0.0004621176,-0.0018492667,0.0095779197
7.8618741035,0.0021050195,0.0099149449,-0.0100621143,0.0079549216,-0.0038852533,0.0127603970
7.8720030785,0.0029789726,0.0099753244,-0.0070575629,0.0090632495,-0.0081407856,0.0095726606
7.8819999695,-0.0000475723,0.0051691039,-0.0040520583,0.0058405576,-0.0060467417,0.0095745251
7.8921012878,0.0018190962,0.0013194185,-0.0059015309,0.0047514578,-0.0039053601,0.0138220675
7.9021430016,-0.0002486784,0.0023175580,-0.0048995768,0.0015287660,-0.0018113167,0.0138239320
7.9122657776,-0.0003467429,0.0013932687,-0.0058241044,0.0058108359,-0.0028645308,0.0095769223
7.9222640991,-0.0023833592,0.0014222962,-0.0086693326,0.0110926833,0.0024801674,0.0085164513
7.9323530197,-0.0034679999,0.0034087403,-0.0076268469,0.0068019060,0.0045723468,0.0095798513
7.9423880577,0.0003620457,0.0015216571,-0.0046206270,0.0078562517,0.0056149745,0.0053329081
7.9524660110,0.0012832355,-0.0013671416,-0.0084297815,0.0110247470,0.0088262800,0.0053333743
7.9625320435,0.0011907738,-0.0022926824,-0.0025088347,0.0067887232,0.0056129107,0.0063946438
7.9726471901,0.0020979266,-0.0022549527,0.0023937069,0.0014625071,0.0044843960,0.0032101693
7.9826803207,0.0020642350,-0.0022613304,-0.0054080044,-0.0017372807,0.0044772057,0.0063963751
7.9928011894,0.0000587028,-0.0022665160,-0.0083508650,0.0024697417,0.0108796451,0.0063993707
8.0027999878,-0.0000215996,-0.0051574009,-0.0063666259,0.0056258533,0.0151169989,0.0010916911
8.0129299164,0.0028455476,-0.0022074478,-0.0024381436,0.0035469634,0.0098281614,0.0063983724
8.0229530334,0.0047610323,-0.0021803277,-0.0043257033,0.0088900644,0.0087722186,0.0000256943
8.0330753326,0.0027406733,-0.0031078951,-0.0032927550,0.0067549539,0.0087823384,0.0042723706
8.0430870056,0.0026843171,-0.0021140473,-0.0032276667,0.0078646932,0.0045476463,0.0042699738
8.0531597137,0.0016629320,-0.0020845430,-0.0041414653,0.0089473482,0.0034871087,0.0032093036
8.0632095337,-0.0012900758,-0.0039901035,-0.0030788339,0.0121370163,0.0045622271,0.0010854326
8.0732660294,0.0006281954,-0.0010409254,-0.0048983847,0.0153269768,0.0056585837,0.0021465025
8.0833978653,0.0044939141,0.0000015003,-0.0047140275,0.0206860565,0.0036108789,0.0063913148
8.0933990479,0.0015042197,-0.0028242962,-0.0006231821,0.0229037255,-0.0048720879,0.0042626504
8.1034679413,0.0004943978,-0.0056716697,0.0015272939,0.0175137520,0.0003724750,0.0021430403
8.1135063171,0.0014749389,-0.0027237432,-0.0041872417,0.0132664097,-0.0018009967,0.0000197686
8.1236095428,0.0014747005,-0.0036476152,-0.0021175898,0.0111103142,0.0002954437,-0.0010404357
8.1336698532,0.0054026763,0.0021994812,-0.0049235378,0.0100005483,0.0045372592,0.0000235637
8.1437473297,0.0063583772,0.0032205684,-0.0009550012,0.0089568552,0.0024336285,0.0042699743
8.1538057327,0.0053346376,0.0061657531,0.0029633485,-0.0027619051,0.0002025655,0.0032096363
8.1639175415,0.0033410261,0.0012974840,-0.0009563125,-0.0027922643,0.0034063482,0.0063966410
8.1739873886,0.0032802145,-0.0016188520,-0.0000255263,-0.0049270820,0.0033879059,0.0063969744
8.1840772629,0.0022193859,-0.0016088980,0.0038035952,-0.0080858562,-0.0008840708,0.0063956426
8.1941099167,0.0002179217,-0.0035895007,-0.0011437691,-0.0081294002,0.0033602756,0.0063974406
8.2041721344,0.0001330894,-0.0026194351,-0.0021962679,-0.0059935441,0.0033996904,0.0095823146
8.2143430710,0.0019726674,0.0012582046,-0.0052044545,-0.0080989599,0.0012848078,0.0138309225
8.2245025635,0.0047877054,0.0022357209,-0.0042849337,-0.0026796926,-0.0071773864,0.0106399227
8.2345447540,0.0056692581,-0.0016202229,0.0006071174,-0.0005100965,-0.0114001613,0.0106346626
8.2446422577,0.0046242992,0.0003322464,-0.0003846443,-0.0037114816,-0.0114281243,0.0106354617
8.2547063828,0.0006517839,-0.0006214278,-0.0042628204,0.0058525694,-0.0071224589,0.0074512530
8.2646446228,0.0005841177,0.0013638240,-0.0012929594,0.0048088767,-0.0092260903,0.0116976630
8.2748193741,0.0043964307,0.0033584340,0.0036576830,0.0037970338,-0.0145340357,0.0127576012
8.2848567963,0.0062896381,0.0033869846,0.0027459704,-0.0015077163,-0.0177774988,0.0106337303
8.2949209213,0.0052663754,0.0024178727,-0.0011302985,-0.0015380764,-0.0145737175,0.0138207357
8.3049831390,0.0022281329,0.0004892451,-0.0030782379,-0.0025817696,-0.0166773479,0.0180671457
8.3151330948,0.0021009515,-0.0043260353,-0.0030211366,0.0048642429,-0.0144962855,0.0170038119
8.3251686096,0.0000343245,-0.0052538412,-0.0049072658,0.0027086809,-0.0123929214,0.0170054100
8.3352413177,0.0018516403,-0.0022814171,0.0000139916,-0.0004381640,-0.0177192427,0.0180656146
8.3451433182,0.0017589253,-0.0003147024,-0.0019104040,0.0016518841,-0.0134773608,0.0148818055
8.3552646637,-0.0002944846,-0.0031920569,-0.0028373159,0.0058875098,-0.0102567337,0.0148820048
8.3654270172,0.0005806606,-0.0031534927,0.0001459562,0.0026951786,-0.0113664726,0.0116968639
8.3755016327,0.0034595798,-0.0021521943,-0.0017587699,-0.0004780581,-0.0146045443,0.0074482569
8.3855237961,0.0034200768,-0.0040729539,-0.0016842044,0.0101511506,-0.0102603957,0.0085095270
8.3956336975,0.0033673863,-0.0059605734,0.0004004681,0.0122946221,-0.0113164708,0.0063847238
8.4057092667,0.0043008099,-0.0049260156,0.0044112648,0.0069920025,-0.0145322382,0.0085080620
8.4157772064,0.0033258419,-0.0039563077,-0.0013836778,0.0048706075,-0.0156553611,0.0021391788
8.4257926941,0.0014064681,-0.0068583386,-0.0041900431,0.0143980663,-0.0081721433,-0.0021066989
8.4358863831,0.0034158747,-0.0029135244,-0.0011184968,0.0133472634,-0.0103159212,-0.0042325007
8.4459095001,0.0035312991,0.0009878975,-0.0019397892,0.0154676717,-0.0092778224,-0.0106033143
8.4560079575,0.0026886086,0.0029496653,-0.0037303723,0.0175975338,-0.0092789531,-0.0137902535
8.4660539627,0.0038083862,-0.0008973973,-0.0025706447,0.0154638104,-0.0092906719,-0.0127279181
8.4761447906,0.0020026634,-0.0037847059,0.0014787160,0.0090179481,-0.0051237564,-0.0159091968
8.4862108231,0.0011828464,-0.0057573812,-0.0023379482,0.0111415526,-0.0040441109,-0.0159091968
8.4962759018,0.0023027579,-0.0086612003,-0.0012198247,0.0111773200,-0.0072000236,-0.0116629861
8.5063123703,0.0024500261,-0.0076677697,0.0008193695,0.0058406112,-0.0072604776,-0.0137852589
8.5163812637,0.0006451231,-0.0047875540,-0.0010957874,0.0005123988,-0.0073026218,-0.0127196619
8.5264778137,0.0007683706,-0.0028744834,-0.0020686544,-0.0027081622,-0.0051808814,-0.0084705884
8.5365438461,0.0018476468,-0.0048458474,-0.0059593474,-0.0016253479,-0.0072844462,-0.0074123144
8.5465993881,0.0009496432,-0.0058359997,-0.0079030553,-0.0005576862,-0.0072682002,-0.0063507790
8.5567226410,0.0010462027,-0.0048746960,-0.0059344326,0.0026277471,-0.0062057991,-0.0105993859
8.5667123795,0.0001831274,-0.0000086921,-0.0010503686,0.0016026963,-0.0104660578,-0.0116630532
8.5767812729,0.0003417652,0.0028965576,-0.0019520081,0.0091066323,-0.0135916770,-0.0127273854
8.5868577957,0.0015136820,0.0038533909,-0.0066847955,0.0186772346,-0.0103455493,-0.0159135908
8.5969820023,0.0036375443,0.0000047785,-0.0054984842,0.0175980404,-0.0092649050,-0.0116668483
8.6069784164,0.0047765891,0.0000416738,-0.0014200365,0.0144488532,-0.0146117341,-0.0137923164
8.6171121597,0.0030192058,0.0000429851,-0.0022187985,0.0165764783,-0.0135619808,-0.0180373285
8.6271200180,0.0032333951,0.0020015342,-0.0049464856,0.0186995510,-0.0124892611,-0.0190991312
8.6371803284,0.0034397165,-0.0018605489,-0.0047242795,0.0229748040,-0.0135115832,-0.0191021282
8.6472463608,0.0046406160,-0.0037872093,-0.0064456617,0.0197308064,-0.0092955325,-0.0190991983
8.6573829651,0.0038411836,-0.0018160838,-0.0043288623,0.0154553149,-0.0082588959,-0.0169730633
8.6673688889,0.0030680667,-0.0047182934,-0.0012777604,0.0068852622,-0.0051643034,-0.0190929398
8.6774845123,0.0032459567,-0.0028142231,-0.0051266109,0.0015181415,-0.0020067263,-0.0159050040
8.6874885559,0.0023856829,-0.0008734363,-0.0002595342,-0.0038041854,-0.0030797138,-0.0105951913
8.6976518631,0.0034922580,-0.0019042987,-0.0032202757,-0.0038059708,-0.0031004199,-0.0137806656
8.7076559067,0.0055771093,-0.0009643930,-0.0032490648,-0.0037617628,-0.0073236609,-0.0105973892
8.7177448273,0.0057115774,0.0038685901,-0.0042463099,-0.0047737379,-0.0126457885,-0.0116607221
8.7277803421,0.0038998048,0.0057624085,-0.0071994816,-0.0026485343,-0.0115453703,-0.0084753158
8.7378807068,0.0010714155,0.0038107140,-0.0052145873,0.0037648901,-0.0125504471,-0.0084774457
8.7479162216,0.0011647266,0.0038077934,-0.0061407243,0.0037329318,-0.0093674371,-0.0084758475
8.7580032349,0.0002729367,0.0018701059,-0.0051097427,0.0016182493,-0.0114932386,-0.0063537750
8.7680521011,-0.0006343800,-0.0010620850,-0.0070266281,0.0005420661,-0.0104207844,-0.0031675689
8.7781867981,-0.0005854744,-0.0010520715,-0.0050582443,-0.0026358040,-0.0125644282,-0.0021054337
8.7881374359,0.0004339140,-0.0010774630,-0.0070003425,-0.0037455438,-0.0083297361,-0.0021030370
8.7983169556,0.0004808824,0.0018206340,-0.0089985887,-0.0069585666,-0.0072821155,0.0000211669
8.8083152771,0.0014961284,0.0037547452,-0.0080557028,-0.0048141908,-0.0083314013,-0.0010417007
8.8184499741,0.0015224140,0.0037356718,-0.0051577841,-0.0048566144,-0.0040874542,-0.0010395035
8.8284502029,0.0005659979,0.0017765862,-0.0061865603,-0.0080580004,-0.0041154171,-0.0010387046
8.8385190964,0.0015548688,-0.0040898817,-0.0023784197,-0.0133825904,-0.0052302829,-0.0020993752
8.8486518860,-0.0013322312,-0.0031669037,-0.0005787170,-0.0187826827,0.0010822075,-0.0031566501
8.8584156036,0.0016412955,0.0045560701,-0.0026955761,-0.0166416615,0.0000341206,-0.0042207162
8.8685350418,0.0055825333,0.0083838804,-0.0047590290,-0.0134610487,0.0021910148,-0.0031586476
8.8786067963,0.0066049318,0.0093056662,-0.0068147932,-0.0059378846,-0.0030487548,-0.0031631747
8.8890953064,0.0076076309,0.0044345362,-0.0068411385,-0.0048894780,-0.0009112349,-0.0020998414
8.8989391327,0.0076243798,0.0063561900,-0.0068805967,-0.0037893001,-0.0040781996,-0.0010397034
8.9089889526,0.0056892256,0.0053683622,-0.0098334709,-0.0016545095,-0.0040526334,0.0000215663
8.9191226959,0.0027451734,0.0063382490,-0.0108079473,0.0036190543,0.0023664504,0.0010856990
8.9291172028,0.0017138195,0.0063616736,-0.0097938338,0.0068033962,0.0045718141,0.0095803840
8.9392490387,0.0054916958,0.0073965294,-0.0048504029,0.0079217125,-0.0007160252,0.0106383245
8.9492607117,0.0034292261,0.0045406921,-0.0018719591,0.0047432296,-0.0028452226,0.0138234654
8.9593172073,0.0013396066,0.0016471845,-0.0047617708,0.0015238672,-0.0007452536,0.0148881301
8.9693679810,0.0011845153,0.0016799074,-0.0057366048,0.0004695216,-0.0017878814,0.0191350728
8.9794788361,0.0029700617,0.0026736958,-0.0105737010,0.0057860687,0.0003870563,0.0201972090
8.9895229340,0.0018258911,0.0037127836,-0.0134275118,0.0110993413,0.0025418198,0.0180733372
8.9995880127,-0.0003261495,0.0057411296,-0.0074595367,0.0121842073,0.0004375230,0.0191323422
9.0097360611,-0.0014789182,0.0077655418,0.0003916466,0.0014996054,0.0013706946,0.0138265276
9.0197219849,0.0003143173,0.0058671338,0.0042798962,-0.0070014717,-0.0018598530,0.0180749353
9.0297985077,0.0020841579,0.0039281351,0.0022582256,-0.0091549037,0.0002712084,0.0223237425
9.0399160385,-0.0001012165,-0.0009308356,-0.0026845492,-0.0070323367,0.0013796828,0.0265698191
9.0499191284,-0.0003435690,-0.0028288262,-0.0046650921,-0.0006295647,0.0014356092,0.0265682209
9.0600061417,-0.0006102402,-0.0018038052,-0.0065936600,0.0025775190,0.0014828801,0.0297542959
9.0700550079,-0.0018762726,-0.0036566751,-0.0007116354,0.0037074983,-0.0048876675,0.0276272297
9.0801897049,-0.0011160452,-0.0074832933,-0.0006376660,0.0015828284,-0.0059811613,0.0255036242
9.0902147293,0.0006174367,-0.0054834979,-0.0035281933,0.0047735618,-0.0048921946,0.0255033579
9.1002674103,0.0003986280,-0.0025049346,-0.0015094435,0.0069261957,-0.0070087416,0.0233774893
9.1103048325,0.0031858752,0.0004854900,-0.0004481829,0.0080215540,-0.0102309007,0.0159430094
9.1203718185,0.0050169895,-0.0014011163,0.0015835010,0.0037442502,-0.0092078475,0.0159452725
9.1305065155,0.0039355080,-0.0013684529,0.0026027404,0.0016291672,-0.0113761928,0.0116975298
9.1407203674,0.0048556249,-0.0052456157,-0.0022219575,0.0037292307,-0.0081737414,0.0116977962
9.1507120132,0.0028460543,-0.0061860578,-0.0041005169,0.0069615096,-0.0113426372,0.0095717944
9.1613359451,0.0028083990,-0.0081028240,-0.0049746786,0.0069402573,-0.0092348782,0.0074496549
9.1713924408,0.0018093359,-0.0061106579,-0.0048843180,0.0090835690,-0.0102980128,0.0042631831
9.1811637878,0.0027612816,-0.0060638087,-0.0047562872,0.0123189101,-0.0134395435,0.0063847238
9.1910676956,0.0027546356,-0.0089232819,-0.0036004342,0.0165650547,-0.0112941004,0.0042611193
9.2007884979,0.0017611753,-0.0079090493,-0.0034642972,0.0112431794,-0.0123885926,0.0063862549
9.2109003067,0.0017387789,-0.0068756239,-0.0013980425,0.0112213418,-0.0102735106,0.0053255176
9.2209262848,0.0017233115,-0.0068473713,-0.0022511638,0.0090764314,-0.0092311502,0.0053265831
9.2309589386,0.0017167103,-0.0077949064,-0.0031432069,0.0037503755,-0.0103526060,0.0032037776
9.2410192490,0.0026757638,-0.0067881839,-0.0030619062,0.0079544149,-0.0039491025,0.0032057082
9.2511558533,0.0026815902,-0.0048297541,-0.0039715921,0.0058281468,-0.0050633689,-0.0021033031
9.2611579895,0.0037094275,-0.0048096674,-0.0029470481,0.0036808942,-0.0040415144,-0.0052879113
9.2712364197,0.0027959864,-0.0048159854,-0.0038558401,0.0079265051,-0.0019029961,-0.0084733181
9.2812948227,0.0048217992,-0.0067433016,-0.0027849830,0.0047656531,-0.0061671161,-0.0074137794
9.2914342880,0.0029735635,-0.0048123496,-0.0037303723,0.0036974596,-0.0061902865,-0.0095371176
9.3014249802,0.0011276227,-0.0077488320,-0.0075832759,0.0036382033,0.0001740700,-0.0095322579
9.3115139008,0.0012265366,-0.0087219374,-0.0046160971,0.0036254209,0.0012073764,-0.0137789343
9.3216114044,-0.0006207008,-0.0067731636,-0.0036001957,0.0067703477,0.0065486119,-0.0127165997
9.3316106796,-0.0005146641,-0.0096786516,0.0003498637,0.0068007079,0.0033448292,-0.0159036051
9.3417415619,0.0015894097,-0.0087299841,-0.0025161661,0.0025658282,0.0001239360,-0.0159035381
9.3517436981,-0.0002228994,-0.0107053416,-0.0044468199,0.0046574753,0.0043865917,-0.0159019399
9.3620100021,-0.0010439384,-0.0165474322,-0.0043721949,0.0078896210,0.0012035149,-0.0201512128
9.3720607758,-0.0028035124,-0.0107489126,-0.0072392379,0.0100318678,0.0001265325,-0.0254612882
9.3821897507,-0.0035293181,-0.0088194506,-0.0080807367,0.0185430106,0.0023034001,-0.0286488272
9.3921947479,-0.0013211895,-0.0097718136,-0.0069137965,0.0206655487,0.0033691972,-0.0307724308
9.4022941589,-0.0000512380,-0.0117016928,0.0000968420,0.0164177287,0.0011745531,-0.0360807106
9.4123373032,0.0012731325,-0.0068787830,-0.0027105368,0.0110479966,0.0042832610,-0.0403249897
9.4224433899,0.0035916488,-0.0020654099,-0.0035737313,0.0142923389,0.0000742010,-0.0392661840
9.4324769974,0.0039803307,-0.0030789869,-0.0044265543,0.0132571673,-0.0031181304,-0.0392675176
9.4425630569,0.0053438465,-0.0040973919,-0.0052858745,0.0110881831,0.0000401128,-0.0403279848
9.4525947571,0.0037266533,-0.0050876634,-0.0003316558,0.0057429532,0.0010683591,-0.0382025167
9.4627237320,0.0021194885,-0.0061321752,-0.0012972511,-0.0038674371,0.0020581232,-0.0360747874
9.4727363586,0.0024421434,-0.0042825835,-0.0023399151,-0.0102915140,0.0041242037,-0.0360721238
9.4828987122,0.0017342638,-0.0053350227,-0.0004860318,-0.0092434268,0.0062974095,-0.0297008418
9.4928703308,0.0020185034,-0.0044667618,-0.0035308755,-0.0135231260,0.0073142047,-0.0307610482
9.5029983521,0.0032694261,-0.0006787079,-0.0027116693,-0.0124479290,0.0062563298,-0.0318243802
9.5130062103,0.0045475285,0.0050457222,-0.0067109619,-0.0060355701,0.0052374047,-0.0339501165
9.5231332779,0.0058104317,0.0107977493,-0.0067666923,-0.0039110333,0.0063167172,-0.0339497812
9.5331296921,0.0041336636,0.0107368929,-0.0039025105,-0.0049243663,0.0010093035,-0.0328903757
9.5432682037,0.0024596076,0.0077519519,-0.0019908703,-0.0081570689,0.0041925800,-0.0286413040
9.5532627106,0.0026813815,0.0086441142,-0.0001633323,-0.0166717283,0.0020098533,-0.0265166350
9.5633716583,0.0028863470,0.0124570234,-0.0002744949,-0.0091566080,-0.0021200436,-0.0190884117
9.5734071732,0.0030422132,0.0124108894,-0.0013044631,-0.0080314213,-0.0073534218,-0.0095351208
9.5835342407,0.0050978581,0.0133262975,-0.0023579157,-0.0101517243,-0.0084200185,-0.0074107172
9.5935401917,0.0032139490,0.0113455160,-0.0062902127,-0.0026578559,-0.0104421563,-0.0021046349
9.6036415100,0.0013033819,0.0074606640,-0.0091843167,0.0026945649,-0.0114018256,0.0063885851
9.6136913300,0.0002741437,0.0055363281,-0.0081427256,0.0037419861,-0.0092497254,0.0095747914
9.6238021851,-0.0007893372,0.0065491302,-0.0032553233,-0.0037070345,-0.0114225987,0.0116986623
9.6337985992,0.0010856014,0.0085189445,-0.0022764958,-0.0015717130,-0.0113901086,0.0138217341
9.6438980103,0.0058766971,0.0143734319,-0.0042116200,0.0005649151,-0.0113580823,0.0159452725
9.6539649963,0.0067011337,0.0173304770,-0.0032147325,0.0027114237,-0.0123796724,0.0191296153
9.6640691757,0.0055772285,0.0125064356,-0.0002811110,-0.0058257915,-0.0124541735,0.0191316772
9.6740942001,0.0044609825,0.0105659468,-0.0013525046,-0.0165194497,-0.0104392264,0.0170118026
9.6842174530,0.0023765783,0.0095695956,-0.0014946021,-0.0175886825,-0.0104335668,0.0191345401
9.6942186356,0.0012335401,0.0105319722,0.0003052198,-0.0154650779,-0.0093539217,0.0191345401
9.7043008804,0.0030485014,0.0124640567,-0.0027226366,-0.0112229818,-0.0061213761,0.0212602764
9.7143325806,0.0038569937,0.0105101569,-0.0086218277,-0.0048511019,-0.0028685918,0.0233838800
9.7244138718,0.0026505361,0.0076538427,-0.0057105576,0.0026479336,-0.0059782322,0.0244410224
9.7344799042,0.0044102590,0.0096532209,-0.0027605451,0.0005126111,-0.0060107224,0.0223179515
9.7446937561,0.0032403986,0.0077387197,-0.0017869627,-0.0015973579,-0.0081524365,0.0223184843
9.7545585632,0.0040422152,0.0097290380,-0.0056520258,0.0058730752,-0.0080802646,0.0233784225
9.7647199631,0.0048334221,0.0088188751,-0.0065266048,0.0111715673,-0.0048559089,0.0223152209
9.7747240067,0.0026577632,0.0079432828,-0.0044570123,0.0154086566,-0.0016286904,0.0233775564
9.7848272324,0.0024484615,0.0031687124,-0.0023830093,0.0079399012,-0.0017014616,0.0223182179
9.7948751450,0.0002743822,-0.0026019113,0.0015562021,0.0025728326,0.0014418674,0.0233829487
9.8049726486,0.0020143609,-0.0015929240,-0.0004168904,-0.0080991453,0.0013346752,0.0212621391
9.8150253296,0.0028156559,-0.0015966791,-0.0034164346,-0.0070123104,-0.0007987830,0.0180754010
9.8250904083,0.0016560477,-0.0015914935,-0.0063992892,-0.0049425019,0.0055789547,0.0170162618
9.8351554871,0.0034288387,-0.0005967515,-0.0054909741,-0.0070746271,0.0055880100,0.0212640036
9.8452396393,0.0032227258,-0.0005689758,-0.0045969044,-0.0102266129,0.0002421802,0.0191375371
9.8552694321,0.0001073997,-0.0034867423,-0.0066315685,-0.0070358794,0.0013311467,0.0191372707
9.8654298782,-0.0000708330,-0.0054195421,-0.0076436554,-0.0006467421,0.0024491418,0.0191351399
9.8766927719,-0.0002683479,-0.0043862360,-0.0066341911,0.0132488338,0.0004690816,0.0223160200
9.8856849670,0.0005092692,-0.0023360150,-0.0006567395,0.0186291896,-0.0037433072,0.0201900844
9.8956289291,0.0032761316,-0.0022202628,-0.0013775385,0.0282535888,-0.0057952730,0.0180630181
9.9058313370,0.0031522880,-0.0079240697,-0.0010589516,0.0293540061,-0.0089765517,0.0170000177
9.9156837463,0.0010828596,-0.0097626941,-0.0007836974,0.0250402186,-0.0048044436,0.0116942013
9.9258232117,-0.0019578715,-0.0096745389,-0.0005912340,0.0185605604,0.0025390233,0.0074522519
9.9358177185,-0.0000765551,-0.0066838758,0.0015016638,0.0121252984,0.0056591826,0.0063936454
9.9458942413,-0.0001410622,-0.0046934979,-0.0003326095,0.0132018281,0.0045937188,0.0042691752
9.9559192657,0.0008121353,-0.0085474746,-0.0050656949,0.0142790768,0.0035351121,0.0032065739
9.9661531448,-0.0002088029,-0.0104631679,-0.0049801623,0.0078539345,0.0055873441,0.0010856324
9.9763097763,-0.0002270419,-0.0094687240,-0.0049372469,0.0025614351,0.0013036495,0.0021466357
9.9861660004,0.0007513385,-0.0075252550,-0.0059050475,0.0014728680,0.0034021537,0.0000246955
9.9961824417,-0.0002146888,-0.0094584124,-0.0097283283,0.0110642426,0.0045193499,-0.0042243777
10.0064792633,0.0008160692,-0.0094304578,-0.0076559340,0.0132137584,0.0023896866,-0.0084745828
10.0164213181,-0.0001231510,-0.0074435966,-0.0026988543,0.0067806263,0.0055375434,-0.0052859806
10.0264787674,0.0018781495,-0.0054908292,0.0002453768,-0.0006395262,0.0012115042,-0.0074069221
10.0364828110,0.0029439102,-0.0026038783,-0.0007583654,-0.0017194375,0.0022354897,-0.0116533320
10.0466051102,0.0040112357,-0.0006783503,-0.0036621250,0.0057509150,0.0023290333,-0.0074085868
10.0566759109,0.0040658335,-0.0035744803,-0.0025952614,0.0142996619,0.0013564469,-0.0052876449
10.0666828156,0.0031311731,-0.0035352008,0.0023813688,0.0079354271,-0.0029491526,-0.0063512446
10.0767488480,0.0022183876,-0.0045216577,-0.0024296201,0.0026109694,-0.0040498371,-0.0052886438
10.0868730545,-0.0006316531,-0.0045317309,-0.0082323113,0.0067952476,0.0044608936,-0.0074083200
10.0968093872,0.0003796738,-0.0045186179,-0.0071939980,0.0057409019,0.0034182658,-0.0031613770
10.1070213318,0.0052728574,0.0003677112,-0.0042005931,0.0079076495,0.0002608220,-0.0021017054
10.1169834137,0.0033127139,0.0004041296,-0.0021935261,0.0036716256,-0.0029525482,-0.0010404356
10.1270885468,0.0023489217,0.0004098517,-0.0002148903,0.0005044090,-0.0061571957,0.0000211669
10.1371631622,0.0043344717,-0.0015486974,-0.0031348623,-0.0037651705,-0.0062083290,-0.0021013725
10.1472139359,0.0034015696,-0.0044928687,-0.0060655628,-0.0016794633,-0.0019506668,-0.0031635077
10.1572904587,0.0034434120,-0.0025604861,-0.0109481970,0.0004340215,0.0001969065,-0.0021011727
10.1673297882,0.0054473053,0.0003488165,-0.0089784423,0.0004322631,0.0001690763,-0.0063482490
10.1774845123,0.0055084596,0.0022982461,-0.0070130979,0.0036549550,-0.0019249674,-0.0063501131
10.1874494553,0.0045734416,0.0032709343,-0.0030977882,0.0004688557,-0.0030084741,-0.0052865800
10.1974945068,0.0036294530,-0.0006137984,-0.0021183051,0.0004693884,-0.0030015497,-0.0042247777
10.2076110840,0.0036785821,-0.0035402076,-0.0030947484,0.0004258193,0.0012499201,-0.0031613770
10.2177066803,0.0036907415,-0.0035454528,-0.0021166361,0.0004258193,0.0012499201,-0.0031613770
10.2277441025,0.0056896131,0.0012893182,-0.0060106074,0.0025714738,0.0002072926,-0.0031621761
10.2378244400,0.0057281475,0.0051854951,-0.0059703146,0.0057728598,0.0002352558,-0.0031629752
10.2479009628,0.0028129141,0.0013287169,-0.0029894270,0.0036150338,0.0023465434,-0.0021005734
10.2580194473,0.0018284541,-0.0006077188,-0.0029803670,-0.0027877381,0.0022906170,-0.0020989757
10.2680158615,0.0008739751,-0.0025918977,-0.0069146906,-0.0038834950,0.0054702312,-0.0010343103
10.2780828476,0.0008677464,-0.0025780695,-0.0049851094,0.0035539139,0.0087115653,-0.0020963789
10.2881011963,0.0028031985,0.0003438097,-0.0039974009,0.0025524851,0.0023569295,0.0010861650
10.2982845306,0.0027841697,0.0003770691,-0.0019923009,0.0068513602,-0.0008095689,-0.0021019052
