0.0000000000,0.0033241287,0.0019520340,-0.0017272935,-0.0010820162,-0.0057643987,-0.0061868764
0.0098160505,0.0018288904,0.0019457159,-0.0034505830,-0.0034519634,-0.0114060398,-0.0078678634
0.0196989775,0.0046250783,0.0017604646,-0.0014250979,0.0010972489,-0.0168213099,-0.0058491873
0.0297900438,0.0044874065,0.0019668159,-0.0057050092,0.0044011660,-0.0200274903,-0.0092337327
0.0397150517,0.0071080364,0.0014474806,-0.0015009150,0.0030048711,-0.0247109253,-0.0116830748
0.0497120619,0.0083579272,0.0058381972,-0.0027700767,0.0005505015,-0.0310740154,-0.0092324335
0.0597629547,0.0073517710,0.0132514052,-0.0031371817,0.0085027013,-0.0364554636,-0.0135245183
0.0699009895,0.0065271184,0.0229191594,-0.0084846718,0.0229657963,-0.0389069058,-0.0204458069
0.0794210434,0.0065619461,0.0275509767,-0.0143469078,0.0439898558,-0.0388808064,-0.0259573534
0.0893449783,0.0086567141,0.0276205353,-0.0137766106,0.0613411479,-0.0369891636,-0.0273134336
0.0992929935,0.0092657171,0.0236046724,-0.0100406511,0.0743624941,-0.0369686596,-0.0289943870
0.1091860533,0.0076558180,0.0216656141,-0.0084255440,0.0842649266,-0.0423959121,-0.0276476275
0.1192439795,-0.0006362572,0.0195177607,-0.0084103448,0.0932361409,-0.0519063286,-0.0362941138
0.1291620731,-0.0044241324,0.0177816562,-0.0090633137,0.1010591760,-0.0602558702,-0.0333888717
0.1389880180,-0.0055909716,0.0116895847,-0.0045822966,0.0974509493,-0.0622497797,-0.0279533248
0.1491180658,-0.0029709376,0.0111969523,-0.0040869815,0.0982139409,-0.0687188655,-0.0283922125
0.1619060040,0.0019618608,0.0091805868,-0.0037125454,0.1029520631,-0.0726688653,-0.0276337452
0.1695179939,-0.0058660954,0.0053643999,-0.0080821021,0.1082192659,-0.0781083703,-0.0315768234
0.1792570353,-0.0063184761,0.0028806147,-0.0057982313,0.1106145084,-0.0820551813,-0.0348326676
0.1904870272,-0.0056498833,0.0001635966,-0.0084804399,0.1195030734,-0.0809017643,-0.0300930422
0.1990150213,-0.0041609257,-0.0020817700,-0.0101969345,0.1145500392,-0.0818703547,-0.0252057407
0.2089600563,-0.0014617218,-0.0013401094,-0.0127894981,0.1140879840,-0.0864661708,-0.0250334349
0.2186210155,0.0010312573,-0.0013789120,-0.0160179846,0.1179621741,-0.0809622183,-0.0202559903
0.2283960581,0.0016173684,0.0085231476,-0.0167471282,0.1238988861,-0.0680272430,-0.0120337466
0.2383290529,0.0021586977,0.0227671675,-0.0117141707,0.1309791803,-0.0103602158,0.0668166205
0.2480380535,0.0118829198,0.0359899215,-0.0135777695,0.1198327765,0.2801339328,-0.1820544451
0.2580050230,-0.0357160307,0.0230767541,-0.0259872191,0.1022046059,0.5791614056,-0.4376047552
0.2678990364,0.0434818380,0.0271264724,-0.0115783913,0.0849960595,0.2886126339,-0.0809654146
0.2778860331,0.0616167784,0.0345814042,-0.0021240220,0.0604270622,0.0226693731,0.1239033863
0.2877460718,0.0162429772,0.0332231931,-0.0126564009,0.0388163105,0.0152556645,0.1046492606
0.2976790667,-0.0033008121,0.0345798545,-0.0272296183,0.0276669860,0.0008594153,0.1114851609
0.3075959682,0.0201395638,0.0418796353,-0.0271815769,0.0392978080,0.0037598643,0.1206911802
0.3177510500,0.0255087018,0.0408946089,-0.0334015600,0.0631576031,0.0035020700,0.1388252079
0.3274359703,0.0208887868,0.0400846414,-0.0365673415,0.0901796296,0.0128604183,0.1480354816
0.3374220133,0.0173226148,0.0436397009,-0.0391888134,0.1132406518,0.0098718181,0.1477582157
0.3472909927,0.0111720450,0.0467925481,-0.0375059359,0.1265756339,0.0086339815,0.1509492248
0.3572850227,0.0062416736,0.0459803157,-0.0350372903,0.1244035587,0.0085138725,0.1653284580
0.3671389818,0.0065006334,0.0462411456,-0.0307613127,0.1282009631,0.0097359978,0.1826520413
0.3771170378,0.0079243388,0.0494237952,-0.0274148695,0.1232607067,0.0118950224,0.2015360892
0.3869940042,0.0083741937,0.0490204506,-0.0301917307,0.1251867115,0.0185867455,0.2114180177
0.3969579935,0.0122220423,0.0493031554,-0.0351777785,0.1319352537,0.0216581710,0.2201863080
0.4070650339,0.0132320337,0.0483535342,-0.0365597121,0.1185874790,0.0283096824,0.2394593358
0.4167660475,0.0250128973,0.0505584292,-0.0362020247,0.1175812557,0.0419892743,0.2360560894
0.4266149998,0.0315191634,0.0527713113,-0.0352387540,0.1255640686,0.0496032536,0.2217304111
0.4366279840,0.0261789858,0.0541386418,-0.0345811360,0.1298075616,0.0465589911,0.2139004767
0.4467660189,0.0247569978,0.0489333682,-0.0268549435,0.1236905381,0.0375431255,0.2254322320
0.4566360712,0.0271587372,0.0323217921,-0.0207631104,0.1048296839,0.0309821647,0.2418797761
0.4667739868,0.0324628688,0.0199528746,-0.0176194422,0.0954745337,0.0417945981,0.2643398046
0.4765009880,0.0326781832,0.0153314285,-0.0127412183,0.0896718577,0.0605025068,0.2935481369
0.4867659807,0.0286042057,0.0197743587,-0.0114288433,0.1047573313,0.0804383904,0.3075102866
0.4963370562,0.0162423197,0.0217668228,-0.0142922504,0.1279757470,0.0913323164,0.3067257404
0.5065000057,0.0042151855,0.0163836889,-0.0176127069,0.1580843776,0.0798852593,0.2913512886
0.5161809921,-0.0032131271,0.0051259813,-0.0126301153,0.1801923513,0.0551612712,0.2683221102
0.5261169672,-0.0037692711,-0.0002359930,-0.0048908102,0.2051304579,0.0384472720,0.2432822734
0.5360170603,-0.0008545238,-0.0026545706,0.0002118840,0.2201420665,0.0345918089,0.2361552566
0.5460799932,0.0005208143,-0.0005371752,0.0026537671,0.2322120517,0.0395977534,0.2411739826
0.5559079647,-0.0063529368,-0.0089488812,0.0029024377,0.2363107502,0.0570808761,0.2456754893
0.5658080578,-0.0138570704,-0.0232038684,0.0022211566,0.2364987582,0.0614639074,0.2475836426
0.5757809877,-0.0210020244,-0.0302431174,0.0050104749,0.2296956182,0.0561330579,0.2405983508
0.5856440067,-0.0242102854,-0.0280417390,0.0099115865,0.2224853784,0.0460146442,0.2316136360
0.5956150293,-0.0260102935,-0.0214520283,0.0154744880,0.2108794153,0.0386430137,0.2117494792
0.6055129766,-0.0292207934,-0.0181514211,0.0177062638,0.2013852596,0.0373638980,0.1898833364
0.6155060530,-0.0310078897,-0.0175367184,0.0221088417,0.1797793806,0.0441674776,0.1780352294
0.6253679991,-0.0281436034,-0.0156704970,0.0227286108,0.1628661752,0.0524038337,0.1812390089
0.6366850138,-0.0256381594,-0.0153479762,0.0229368098,0.1392425150,0.0557937697,0.1768667996
0.6454609632,-0.0262064151,-0.0197839327,0.0192822702,0.1165310740,0.0599983707,0.1706664264
0.6554570198,-0.0228413530,-0.0230483599,0.0187711604,0.1014629975,0.0576649085,0.1686148942
0.6685210466,-0.0211930461,-0.0255021043,0.0162442811,0.0879429281,0.0573077798,0.1659064591
0.6751450300,-0.0165195428,-0.0285616107,0.0169649608,0.0805380121,0.0559048243,0.1644683927
0.6862549782,-0.0141003020,-0.0280631371,0.0169011839,0.0786458328,0.0633512884,0.1574917138
0.6949210167,-0.0118134134,-0.0272286125,0.0139675634,0.0798389316,0.0570539795,0.1457809955
0.7047190666,-0.0145100504,-0.0314676352,0.0105945962,0.0870025679,0.0536768250,0.1212617904
0.7147020102,-0.0141115077,-0.0346515961,0.0118353264,0.0837385058,0.0438415036,0.0968776569
0.7246739864,-0.0070806406,-0.0301294513,0.0104242461,0.0773099065,0.0320152044,0.0756695718
0.7345470190,-0.0020757131,-0.0233220644,0.0062732589,0.0702631772,0.0158807095,0.0547608286
0.7445069551,0.0023602135,-0.0248775072,0.0057204263,0.0624063239,0.0103221592,0.0372002125
0.7543970346,0.0065451972,-0.0331117697,0.0035787120,0.0467903465,0.0054786680,0.0250162836
0.7642669678,0.0108022355,-0.0401895232,0.0026631847,0.0296089631,-0.0054930230,0.0202172678
0.7743300200,0.0132482611,-0.0445195027,0.0033886924,0.0218538363,-0.0146931792,0.0163814500
0.7842329741,0.0144861080,-0.0478522964,-0.0019049749,0.0204239860,-0.0212248489,0.0113797663
0.7940850258,0.0081767477,-0.0431517549,-0.0028511987,0.0354348049,-0.0287421513,0.0082104048
0.8040519953,0.0046534091,-0.0296558328,-0.0041192877,0.0648267791,-0.0309049040,0.0043826438
0.8141570091,-0.0037924089,-0.0139072128,-0.0041957004,0.0938895941,-0.0389524437,-0.0024483979
0.8241430521,-0.0102710091,0.0000093397,-0.0102627380,0.1313879639,-0.0546240807,-0.0199022219
0.8340430260,-0.0133131519,0.0035037813,-0.0229052417,0.1676258594,-0.0790910721,-0.0383218117
0.8437689543,-0.0086418279,0.0017208275,-0.0300081484,0.1926936656,-0.0964447632,-0.0444894247
0.8536759615,0.0005197339,0.0020686206,-0.0380470864,0.2190781385,-0.1043519527,-0.0328831039
0.8636220694,0.0080774911,0.0062781391,-0.0359534137,0.2470802069,-0.0940761492,-0.0114292093
0.8735109568,0.0073754378,0.0094411783,-0.0318191163,0.2704985142,-0.0749951378,0.0092019662
0.8834210634,0.0036371872,0.0138469152,-0.0234522931,0.2952182591,-0.0486865677,0.0219238885
0.8933689594,-0.0032850131,0.0179440193,-0.0154586537,0.3087594807,-0.0376991630,0.0300571807
0.9034739733,-0.0112664811,0.0208931975,-0.0107868416,0.3035599291,-0.0382469743,0.0243492275
0.9132710695,-0.0131244957,0.0170445256,-0.0036594972,0.2782194614,-0.0411884375,0.0086961659
0.9231480360,-0.0105020851,0.0123315863,-0.0051442492,0.2394105792,-0.0479885526,-0.0061048847
0.9330570698,-0.0026303865,0.0060071168,-0.0100219352,0.1880685538,-0.0521822311,-0.0119565157
0.9429900646,0.0109715275,-0.0010497752,-0.0111677749,0.1387260407,-0.0466351323,-0.0125900824
0.9529479742,0.0219829418,-0.0045265141,-0.0127579672,0.1025089994,-0.0401466042,-0.0052380590
0.9629499912,0.0267819948,-0.0060818377,-0.0078600748,0.0854131058,-0.0253564753,0.0042348048
0.9727890491,0.0309147798,-0.0068988386,-0.0027687654,0.0857215896,-0.0130625255,0.0119929258
0.9827070236,0.0278720893,-0.0111759491,0.0004864826,0.1094793826,0.0058262106,0.0187243316
0.9926260710,0.0228502564,-0.0041327062,-0.0027749643,0.1292463392,0.0177204199,0.0244744625
1.0025290251,0.0185498893,0.0059079346,-0.0101351840,0.1573200524,0.0260824803,0.0281781200
1.0125000477,0.0124156214,0.0118371062,-0.0129107935,0.1690862477,0.0336112380,0.0208802260
1.0224080086,0.0050418489,0.0073821363,-0.0108195646,0.1689781249,0.0330357291,0.0113618234
1.0322940350,0.0016369784,0.0042390642,-0.0103891594,0.1716774255,0.0286234021,0.0045775538
1.0422220230,0.0065831020,-0.0007321420,-0.0064862478,0.1689282358,0.0293957200,0.0048254943
1.0521889925,0.0082596056,-0.0006970945,-0.0012617216,0.1549190283,0.0427746400,0.0090247998
1.0621399879,0.0116084628,-0.0015733424,0.0032022491,0.1299785227,0.0543628521,0.0162339769
1.0722780228,0.0118623413,-0.0014754715,-0.0023671493,0.0940661579,0.0587618612,0.0225353483
1.0819779634,0.0093551837,-0.0024461928,-0.0035407648,0.0481229015,0.0538917407,0.0221465267
1.0919179916,0.0104137398,0.0003561792,0.0014565482,0.0038907272,0.0426236391,0.0184306521
1.1017910242,0.0144188590,0.0028874693,0.0030925765,-0.0285867881,0.0312689878,0.0146670733
1.1117670536,0.0163995884,0.0028179702,-0.0008412704,-0.0560593344,0.0209324583,0.0213801023
1.1216369867,0.0177833475,0.0035195765,-0.0049023735,-0.0667817593,0.0252643563,0.0277525131
1.1315710545,0.0187132023,0.0009646234,-0.0138337119,-0.0566124730,0.0298101064,0.0445408486
1.1414719820,0.0167196877,0.0048281369,-0.0258168690,-0.0242316332,0.0375423282,0.0666674599
1.1516129971,0.0122246072,0.0168758444,-0.0365423076,0.0243747849,0.0501161776,0.0816962421
1.1613099575,0.0023991242,0.0276560001,-0.0418532006,0.0946577415,0.0598846525,0.0864939243
1.1712679863,-0.0053890347,0.0376412682,-0.0389859788,0.1586642414,0.0646192133,0.0818827301
1.1812410355,-0.0126915500,0.0383140855,-0.0325222723,0.2016058415,0.0648261458,0.0688923597
1.1910690069,-0.0156573094,0.0341257863,-0.0195871703,0.2216952294,0.0584028699,0.0492202230
1.2010530233,-0.0089597926,0.0256411843,-0.0077133281,0.2038334161,0.0480447710,0.0423034616
1.2109639645,-0.0039769337,0.0163961463,-0.0043641431,0.1659646630,0.0346155129,0.0322850496
1.2209390402,0.0029522479,-0.0020302120,-0.0069509251,0.1185103431,0.0253804717,0.0193420853
1.2310479879,0.0081964098,-0.0164257474,-0.0051769721,0.0741470456,0.0167057570,0.0155402906
1.2409089804,0.0159736685,-0.0255944319,-0.0034672723,0.0448594652,0.0053886534,0.0144979293
1.2506970167,0.0185815729,-0.0242194124,0.0021461144,0.0148867415,0.0009792575,0.0059382962
1.2606070042,0.0194417872,-0.0170415826,-0.0037682757,0.0107441945,-0.0076405960,0.0020831041
1.2704499960,0.0143707730,-0.0202678628,-0.0174678676,0.0159065537,-0.0055867662,-0.0023739957
1.2804050446,0.0042281337,-0.0235256739,-0.0157296173,0.0336229652,-0.0092520751,-0.0074672913
1.2903569937,-0.0026863478,-0.0238235183,-0.0107882125,0.0676423609,-0.0073226141,-0.0110045346
1.3002710342,-0.0067529492,-0.0227888413,-0.0111188991,0.1229016259,0.0016176172,-0.0129116243
1.3103849888,-0.0107252561,-0.0149935074,-0.0103786690,0.1835768670,0.0172780696,-0.0061899731
1.3200960159,-0.0163748302,-0.0018143239,-0.0061559780,0.2304359823,0.0369516388,0.0065481933
1.3300210238,-0.0225170664,0.0057368097,-0.0060236561,0.2550910711,0.0463251658,0.0207512304
1.3399720192,-0.0268042050,0.0119613819,-0.0108776791,0.2624123693,0.0456748232,0.0278426968
1.3501240015,-0.0258018188,0.0136065893,-0.0164296739,0.2457871586,0.0368807986,0.0239067096
1.3597979546,-0.0231263041,0.0089739375,-0.0139071448,0.2124787271,0.0275016800,0.0218843054
1.3697930574,-0.0160699226,0.0089512877,-0.0129292710,0.1798082292,0.0193398874,0.0262434017
1.3796650171,-0.0114745274,0.0056056795,-0.0125687225,0.1497318149,0.0164966974,0.0323375128
1.3897370100,-0.0076996200,-0.0012004557,-0.0059734690,0.1161885932,0.0205026250,0.0420276560
1.3997000456,-0.0066336133,-0.0048412266,0.0010037317,0.0983456820,0.0227354206,0.0514214262
1.4094979763,-0.0035665147,0.0033961949,0.0032453432,0.0929051116,0.0256052408,0.0619176440
1.4193930626,-0.0019702725,0.0125384144,-0.0020398006,0.1024261788,0.0316868350,0.0688146949
1.4293199778,-0.0047671311,0.0187096409,-0.0110913618,0.1210876629,0.0338229574,0.0753305927
1.4392169714,-0.0094833039,0.0246588401,-0.0198137276,0.1459970027,0.0321419686,0.0775516629
1.4491510391,-0.0074865259,0.0282328539,-0.0322895162,0.1652157903,0.0342498645,0.0760892183
1.4590920210,-0.0056659393,0.0286221914,-0.0391339175,0.1837077141,0.0384973399,0.0788839459
1.4690250158,-0.0011188722,0.0292436890,-0.0326362364,0.2014818341,0.0477765910,0.0843117014
1.4791070223,0.0007469021,0.0324704461,-0.0244761817,0.2105139345,0.0587520078,0.0976538733
1.4889219999,0.0021126382,0.0339024477,-0.0217401497,0.2081924677,0.0711114705,0.1048281938
1.4987980127,0.0028209426,0.0318090133,-0.0177323334,0.1983688623,0.0724787414,0.1166369170
1.5087790489,0.0046159886,0.0273741893,-0.0237244479,0.1638977081,0.0699117258,0.1218425632
1.5186330080,0.0064005889,0.0223011188,-0.0328278057,0.1306532025,0.0665867627,0.1269819289
1.5285620689,0.0084366389,0.0187652521,-0.0350010507,0.1053594723,0.0624865629,0.1228131130
1.5385160446,0.0117206015,0.0200557522,-0.0348211639,0.0875232145,0.0665987432,0.1250600219
1.5484180450,0.0185601600,0.0283870511,-0.0388426296,0.0771146044,0.0764465854,0.1240963265
1.5583330393,0.0234814174,0.0305881314,-0.0392776839,0.0718213022,0.0852163732,0.1264902353
1.5682760477,0.0246144645,0.0237862282,-0.0382689945,0.0758476555,0.0982831791,0.1306993067
1.5781899691,0.0277461149,0.0187354498,-0.0344802849,0.0727570578,0.1042244211,0.1334309131
1.5881040096,0.0291877128,0.0210460834,-0.0267581455,0.0676802695,0.1072263345,0.1401012242
1.5980330706,0.0308489837,0.0230930261,-0.0313635580,0.0650282949,0.1098439544,0.1457599103
1.6079710722,0.0301984437,0.0176242404,-0.0392765515,0.0704285577,0.1142818481,0.1340515167
1.6178519726,0.0287278481,0.0124668889,-0.0400331132,0.0753482208,0.1185093448,0.1220883355
1.6278829575,0.0281553753,0.0106662922,-0.0367902033,0.0907271802,0.1319545954,0.1162526831
1.6377080679,0.0292720683,0.0103643350,-0.0287957899,0.1032594740,0.1499615461,0.1113980114
1.6476809978,0.0256740041,0.0110575967,-0.0194288008,0.1176818311,0.1660084277,0.1128673777
1.6577910185,0.0225178264,0.0115151219,-0.0062126624,0.1098121926,0.1696700156,0.1189407110
1.6675750017,0.0227109455,0.0130151324,-0.0035355792,0.0829574093,0.1703818738,0.1260336339
1.6774630547,0.0181984939,0.0086329393,-0.0065784561,0.0388543904,0.1589872688,0.1295152009
1.6873710155,0.0139717422,0.0044937548,-0.0109398467,-0.0034225797,0.1423885822,0.1305686682
1.6972969770,0.0107711293,0.0047789034,-0.0170318596,-0.0342979357,0.1323404759,0.1288104504
1.7073110342,0.0076515861,0.0052518067,-0.0281982534,-0.0511937402,0.1297345757,0.1267114431
1.7169799805,0.0024654008,0.0108077936,-0.0424578302,-0.0492685437,0.1327524781,0.1280526221
1.7269619703,-0.0000973977,0.0121113472,-0.0461941473,-0.0411357805,0.1403872222,0.1262280792
1.7370740175,-0.0031606294,0.0130154900,-0.0418950431,-0.0316763222,0.1480073184,0.1282803565
1.7470240593,-0.0022520386,0.0169607215,-0.0349801891,-0.0156422257,0.1475042552,0.1347468346
1.7568500042,-0.0034756027,0.0190095119,-0.0261009447,0.0054974123,0.1489420980,0.1460884362
1.7668930292,-0.0040702187,0.0205668025,-0.0134265525,0.0274294298,0.1598615795,0.1581214666
1.7766940594,-0.0045155697,0.0310134701,-0.0115592582,0.0713548064,0.1612690687,0.1659647524
1.7866770029,-0.0019652061,0.0384256653,-0.0138365729,0.1111966744,0.1695757210,0.1727142334
1.7965450287,-0.0018268189,0.0393082909,-0.0245917551,0.1467602700,0.1782392561,0.1774996668
1.8067049980,-0.0057121925,0.0339782648,-0.0310223810,0.1752067208,0.1841072589,0.1826530546
1.8164060116,-0.0091475211,0.0253268890,-0.0363849513,0.1865656376,0.1878873557,0.1881633997
1.8263900280,-0.0133885704,0.0139817409,-0.0373172276,0.1854443699,0.1960653812,0.1840263307
1.8362400532,-0.0126810782,0.0082877092,-0.0317499749,0.1736138016,0.1986052394,0.1740037948
1.8461669683,-0.0114102624,0.0105683617,-0.0142577989,0.1522067785,0.1869693696,0.1708863378
1.8560910225,-0.0031815432,0.0226057582,0.0019119873,0.1392606199,0.1844513416,0.1735622883
1.8660390377,0.0045698769,0.0275191478,0.0045841234,0.1196101308,0.1862766743,0.1839007735
1.8759390116,0.0050869323,0.0271138959,-0.0009815202,0.1055270731,0.1935492456,0.1979926229
1.8858660460,-0.0031499676,0.0210097246,-0.0008636222,0.1012727618,0.1972694099,0.2135235518
1.8957879543,-0.0132076405,0.0203802995,-0.0000747547,0.0971563160,0.1876900196,0.2320024222
1.9057120085,-0.0218914710,0.0254703574,-0.0123089654,0.1125413924,0.1757827550,0.2314734757
1.9156210423,-0.0312106274,0.0219760947,-0.0288162939,0.1423914433,0.1634909362,0.2278166860
1.9256089926,-0.0391731970,0.0144223981,-0.0401492231,0.1754459739,0.1546526998,0.2068613768
1.9354970455,-0.0384602062,0.0126855783,-0.0267408602,0.2156961858,0.1461364478,0.1894680113
1.9454860687,-0.0279786550,0.0234300904,-0.0163675062,0.2540429533,0.1379752010,0.1738082916
1.9553619623,-0.0128076933,0.0309489183,-0.0062592733,0.2795864046,0.1365677118,0.1684345752
1.9654979706,0.0000186600,0.0297662430,-0.0132154925,0.2973904312,0.1402473897,0.1606638730
1.9754149914,0.0063169040,0.0203878097,-0.0211118571,0.2867550850,0.1488129199,0.1570571512
1.9852000475,0.0137232579,0.0107345395,-0.0181157105,0.2502646446,0.1602402776,0.1607478559
1.9950580597,0.0204057284,0.0127948336,-0.0264396779,0.2309428751,0.1495495588,0.1723134220
2.0050201416,0.0204878338,0.0114205293,-0.0349318497,0.2156711668,0.1641029418,0.1730273813
2.0149021149,0.0157996900,0.0024570641,-0.0444467776,0.1998189539,0.1824033856,0.1637039185
2.0248270035,0.0116589107,0.0036331830,-0.0465915911,0.1965782493,0.2034474164,0.1620019674
2.0346860886,0.0056432374,0.0117665343,-0.0324594490,0.1875109822,0.2167831957,0.1637567282
2.0449991226,-0.0011697969,0.0182498507,-0.0118987067,0.1838976890,0.2271271795,0.1562424451
2.0549550056,-0.0087984614,0.0174951963,-0.0053525674,0.1802739203,0.2274749875,0.1474811733
2.0645508766,-0.0137192272,0.0125766806,-0.0012230382,0.1540267915,0.2287924439,0.1424150765
2.0744650364,-0.0144785158,0.0034348783,-0.0016413436,0.1193548217,0.2230807543,0.1350793988
2.0844449997,-0.0132296197,-0.0016413513,-0.0056333644,0.0981003195,0.2151482701,0.1271491349
2.0943059921,-0.0051011555,-0.0017240229,-0.0211243145,0.0966345146,0.2133975029,0.1126993671
2.1042799950,0.0041242726,-0.0049573365,-0.0312048309,0.1220097393,0.2233087420,0.0963026807
2.1141090393,0.0192292668,-0.0022045556,-0.0390796177,0.1724739820,0.2429207861,0.0818867236
2.1241409779,0.0318537392,-0.0007459107,-0.0408195965,0.2298924327,0.2708291113,0.0747337416
2.1342120171,0.0445976295,0.0073617515,-0.0354329459,0.2833793461,0.3025031388,0.0663330629
2.1440238953,0.0501411743,0.0216014795,-0.0256664865,0.3076198995,0.3228837848,0.0641646832
2.1539959908,0.0458028354,0.0249669366,-0.0219587795,0.3121158481,0.3286910653,0.0632834435
2.1637911797,0.0267089792,0.0154388957,-0.0087612374,0.2973745465,0.3333111405,0.0554599762
2.1737408638,-0.0009562484,0.0044952449,0.0166526325,0.2514193058,0.3185846508,0.0483645163
2.1836299896,-0.0223140083,0.0034413752,0.0244429000,0.1869265884,0.2878872156,0.0591367036
2.1938319206,-0.0404355191,0.0031599817,0.0132362144,0.1290433109,0.2584914863,0.0650513172
2.2034699917,-0.0550780110,-0.0130583830,-0.0081157191,0.0824815854,0.2378535867,0.0577939376
2.2136139870,-0.0615269803,-0.0283622332,-0.0190754645,0.0551860482,0.2285455614,0.0365027636
2.2233569622,-0.0512743853,-0.0269052573,-0.0177848451,0.0533666648,0.2305605114,0.0246106833
2.2333350182,-0.0333993398,-0.0165500231,-0.0005148158,0.0694731995,0.2389766425,0.0186840855
2.2432041168,-0.0149120353,-0.0045232358,0.0223510154,0.0735722482,0.2488574982,0.0209266003
2.2531199455,-0.0019932054,0.0075082001,0.0255918987,0.0866313204,0.2461301535,0.0324311890
2.2630748749,-0.0022078119,0.0018848595,0.0188413747,0.0954465643,0.2497469932,0.0366926454
2.2729799747,-0.0032841675,-0.0182775445,0.0133727686,0.0890195519,0.2521435618,0.0248104203
2.2828931808,-0.0005871169,-0.0321443267,0.0014047518,0.1030486450,0.2624673247,0.0165830180
2.2928481102,0.0006093570,-0.0331137963,-0.0126953823,0.1327657849,0.2800007761,0.0154359937
2.3027400970,-0.0041166060,-0.0258985348,-0.0173878781,0.1668866575,0.2859095335,0.0078861322
2.3126521111,-0.0109993182,-0.0100652166,-0.0143194897,0.1989897341,0.2882576585,0.0198107027
2.3226180077,-0.0249753259,0.0006103334,-0.0092080338,0.2081194818,0.2799482942,0.0395850725
2.3325071335,-0.0470405631,-0.0038748565,-0.0007570491,0.2100132555,0.2684474289,0.0597590506
2.3424420357,-0.0663637295,-0.0278569646,0.0012428060,0.2105933130,0.2785757184,0.0501962043
2.3523850441,-0.0660390630,-0.0513935871,0.0068460004,0.1984330416,0.2939847708,0.0265718363
2.3622720242,-0.0485089682,-0.0550064035,0.0168380029,0.1634256095,0.3132511377,0.0164718963
2.3722701073,-0.0257588588,-0.0363794155,0.0208660848,0.1289243698,0.3137190640,0.0306353867
2.3821239471,-0.0145080797,-0.0151395984,0.0195711143,0.1072562635,0.3181926608,0.0456683338
2.3920400143,-0.0139118843,-0.0126062222,0.0137495892,0.0969184116,0.3373663425,0.0419236608
2.4020090103,-0.0162783228,-0.0189284869,0.0195338018,0.0662363917,0.3554939330,0.0360834487
2.4119100571,-0.0081648640,-0.0199968405,0.0267288573,0.0328819007,0.3487635851,0.0449832007
2.4218480587,0.0010894128,-0.0145293064,0.0289242752,0.0131495614,0.3280372918,0.0548238792
2.4317300320,-0.0048246942,-0.0218368359,0.0318426974,0.0173381809,0.3061474264,0.0501977019
2.4417629242,-0.0218299441,-0.0373068042,0.0360938199,0.0292010531,0.2928268015,0.0253434535
2.4516611099,-0.0383746587,-0.0496467538,0.0476894863,0.0067293015,0.2559670508,0.0014311956
2.4617538452,-0.0487397574,-0.0409426279,0.0491514690,-0.0294442400,0.1967263967,0.0052583246
2.4715199471,-0.0515694283,-0.0294655748,0.0244569071,-0.0422356687,0.1492779106,0.0062530152
2.4813709259,-0.0490412973,-0.0305254050,-0.0121451123,-0.0250043049,0.1403675079,-0.0004938371
2.4913179874,-0.0364602469,-0.0358307548,-0.0386614315,0.0119707584,0.1629204899,0.0012673114
2.5014729500,-0.0158209465,-0.0327807255,-0.0507043116,0.0835493356,0.1800177246,0.0105603449
2.5111241341,-0.0046954416,-0.0203623362,-0.0409184210,0.1854336262,0.2067273557,0.0098532755
2.5210850239,0.0000994243,-0.0078691430,-0.0142980320,0.2922837436,0.2374218851,0.0001860345
2.5310258865,0.0003566482,0.0036887345,0.0068461192,0.3942005038,0.2603434324,-0.0021013543
2.5409951210,0.0030752756,0.0084575228,0.0145668285,0.4708838463,0.2767866254,-0.0018181605
2.5508451462,0.0010301211,0.0003831801,0.0272706039,0.5144299865,0.2677510381,-0.0076286457
2.5608520508,-0.0122661553,-0.0109705515,0.0513836034,0.5052795410,0.2242224663,-0.0330661312
2.5706870556,-0.0230464302,-0.0203059502,0.0588062294,0.4482444823,0.1673133820,-0.0448799133
2.5806841850,-0.0160182677,-0.0285462327,0.0214273818,0.3903391957,0.1381267160,-0.0488892645
2.5906059742,-0.0053966604,-0.0540475436,-0.0056094634,0.3091628551,0.1332411468,-0.0635489002
2.6005139351,0.0049474575,-0.0662659556,-0.0109879477,0.2217966914,0.1399616301,-0.0715724081
2.6104111671,0.0181264617,-0.0534932204,-0.0054351194,0.1681310683,0.1488395482,-0.0737953484
2.6203320026,0.0124725141,-0.0366042443,0.0194324739,0.1619689614,0.1771359146,-0.0894835293
2.6302180290,0.0019368270,-0.0330363102,0.0441540964,0.1870902926,0.2033227831,-0.1098639071
2.6401920319,-0.0029340945,-0.0340189524,0.0610001571,0.2180497199,0.2161176652,-0.1160553172
2.6501121521,0.0129998662,-0.0331189223,0.0733360574,0.2170720696,0.2102627009,-0.1223798022
2.6600818634,0.0351612605,-0.0338092037,0.0662770793,0.2367084473,0.1889124066,-0.1297432035
2.6699590683,0.0497048236,-0.0376609750,0.0376012214,0.2807821631,0.1799476743,-0.1496609747
2.6798930168,0.0502039529,-0.0429429598,0.0251789577,0.3080103993,0.1696175337,-0.1660590321
2.6898241043,0.0409802236,-0.0416952558,0.0270191915,0.3258871436,0.1651575416,-0.1587766111
2.6997809410,0.0209589638,-0.0427884646,0.0284200795,0.3219793141,0.1731693894,-0.1566058695
2.7098789215,-0.0013703963,-0.0601932593,0.0354934223,0.2770217061,0.1768094003,-0.1781085134
2.7196400166,-0.0150175951,-0.0697037131,0.0486030467,0.1957271844,0.1732407659,-0.2052953839
2.7295651436,-0.0033473037,-0.0655714422,0.0541702993,0.1219019592,0.1528646499,-0.2177158445
2.7394618988,0.0206312276,-0.0543644615,0.0469875820,0.0759114847,0.1334542036,-0.2167549729
2.7493591309,0.0332822837,-0.0518673249,0.0373559482,0.0684735402,0.1286583841,-0.2326399088
2.7593159676,0.0311883129,-0.0417343564,0.0282675512,0.0915863141,0.1143891737,-0.2357656062
2.7692351341,0.0192813016,-0.0327221341,0.0267651565,0.1313001662,0.0991353840,-0.2379509956
2.7791700363,0.0033603050,-0.0380850621,0.0279889591,0.1539742351,0.0844733492,-0.2515177727
2.7892661095,-0.0035941862,-0.0411181040,0.0250115879,0.1420376897,0.0627603307,-0.2523654699
2.7991180420,0.0046579279,-0.0343451686,0.0101836221,0.1218320951,0.0655191019,-0.2309594005
2.8090469837,0.0136269368,-0.0313865133,-0.0071547134,0.1309321225,0.0673625395,-0.2188460082
2.8188500404,0.0087138154,-0.0182324834,-0.0129179461,0.1681685299,0.0698797628,-0.2084134221
2.8288369179,-0.0029317699,-0.0137582608,-0.0077809198,0.2217478752,0.0790676698,-0.2005112916
2.8387031555,-0.0126768313,-0.0123275705,0.0014303818,0.2724711597,0.0874310583,-0.1946773231
2.8486928940,-0.0277389549,-0.0105720349,0.0128300088,0.2923868001,0.0861045420,-0.1722894609
2.8585979939,-0.0429839008,-0.0083194561,0.0148629444,0.2872311771,0.0911043584,-0.1460326910
2.8685331345,-0.0500860922,-0.0139883943,0.0168996342,0.2575326860,0.1097166613,-0.1312295198
2.8784060478,-0.0372935794,-0.0271509476,0.0218734033,0.2016073614,0.1194593012,-0.1201213375
2.8883919716,-0.0120094381,-0.0351652689,0.0246077068,0.1303448975,0.1147210002,-0.1208390594
2.8982560635,0.0097653605,-0.0312749334,0.0349228866,0.0503321737,0.1048300266,-0.1368698180
2.9082589149,0.0282529332,-0.0151861496,0.0391816385,-0.0174034648,0.0823481530,-0.1461807638
2.9181020260,0.0379492529,0.0019944129,0.0279779322,-0.0676509216,0.0692842752,-0.1429601312
2.9280681610,0.0346752740,0.0165545754,0.0171646364,-0.1122793779,0.0756337866,-0.1256653070
2.9379439354,0.0268914290,0.0113894157,0.0074836509,-0.1612233967,0.0995942429,-0.1164896488
2.9479420185,0.0295289792,-0.0112776943,0.0064881933,-0.2168312520,0.0969039202,-0.1306709796
2.9579379559,0.0349195339,-0.0274728127,0.0165139921,-0.2508586347,0.0960325375,-0.1612442285
2.9683609009,0.0364162810,-0.0286615677,0.0243089683,-0.2600028813,0.0922050402,-0.1911179721
2.9779839516,0.0391327478,-0.0143935271,0.0280418880,-0.2515769005,0.0831156746,-0.1934587508
2.9877109528,0.0373148508,0.0023713526,0.0204051025,-0.2032426596,0.0790277198,-0.1713891476
2.9977841377,0.0244647898,0.0055110273,-0.0070783002,-0.1334277242,0.0761320591,-0.1499095261
3.0074291229,0.0045446195,-0.0061958018,-0.0283814780,-0.0601404496,0.0727093667,-0.1459302306
3.0174331665,-0.0079911165,-0.0219929405,-0.0405855291,0.0321333744,0.0807590410,-0.1625771821
3.0272860527,-0.0029011481,-0.0233164020,-0.0432412140,0.1383644789,0.0872275978,-0.2000723630
3.0376601219,0.0195348598,-0.0101052709,-0.0315651409,0.2502323389,0.0830131397,-0.2211709917
3.0471439362,0.0391400047,0.0153675489,-0.0242152326,0.3819349706,0.0823143274,-0.2191738933
3.0571050644,0.0399947800,0.0230836086,-0.0104350550,0.4701296985,0.0788623393,-0.2226313204
3.0669879913,0.0228346474,0.0099436454,0.0007787242,0.5011470318,0.0673937052,-0.2117251456
3.0769970417,0.0022813268,-0.0101251192,0.0041429298,0.4676613212,0.0602993071,-0.2104991078
3.0868811607,-0.0079441927,-0.0350485034,-0.0043208105,0.4182769954,0.0605230145,-0.2220764011
3.0967779160,-0.0012432149,-0.0552708693,-0.0125156147,0.3439863324,0.0577791557,-0.2437264323
3.1067671776,0.0050397553,-0.0463241525,-0.0122702820,0.2867898941,0.0430377610,-0.2492176145
3.1166479588,0.0054043271,-0.0267179199,-0.0084227426,0.2511651516,0.0458287522,-0.2466973513
3.1265909672,0.0001695492,-0.0286722369,-0.0023527250,0.2173802704,0.0739749074,-0.2526617646
3.1364688873,-0.0027002357,-0.0439298935,0.0102280872,0.1592644304,0.0910457671,-0.2587411106
3.1464271545,-0.0067701600,-0.0431458540,0.0346838720,0.0895370096,0.0939936191,-0.2525748312
3.1563210487,-0.0116244070,-0.0366974063,0.0565332063,0.0181232803,0.0848832130,-0.2569050789
3.1662669182,-0.0042641871,-0.0340492316,0.0621597059,-0.0736282095,0.0713500902,-0.2574395537
3.1761579514,0.0114283152,-0.0169773288,0.0383620746,-0.1055605784,0.0502964742,-0.2344763726
3.1861591339,0.0171840824,0.0060477671,-0.0022657618,-0.0659828112,0.0465936139,-0.2105342746
3.1960170269,0.0133964755,0.0035751876,-0.0299205296,0.0121754659,0.0676914454,-0.2117687315
3.2059588432,0.0120182224,-0.0079670139,-0.0347871296,0.0506578796,0.0605155528,-0.2198317200
3.2158808708,0.0161288269,-0.0092759319,-0.0269534700,0.0728725493,0.0522011667,-0.2206480950
3.2258620262,0.0136358179,-0.0055359188,-0.0279668085,0.1258950233,0.0476058796,-0.2229757011
3.2357201576,0.0021297075,0.0030208048,-0.0187980644,0.1708321273,0.0446569659,-0.2247621268
3.2456769943,-0.0013427249,0.0159932189,-0.0153223975,0.2167434245,0.0333190896,-0.2060784549
3.2555880547,0.0051098801,0.0261252336,-0.0201368444,0.2758740485,0.0225974675,-0.1847857535
3.2654910088,0.0074270852,0.0274975114,-0.0313410275,0.3194838464,0.0231950805,-0.1661545485
3.2754850388,0.0017450788,0.0257720761,-0.0434062593,0.3236712217,0.0349063314,-0.1449509263
3.2855620384,-0.0103932284,0.0208570771,-0.0523632281,0.2809567750,0.0697822943,-0.1242006272
3.2952899933,-0.0246812068,0.0040118513,-0.0416519158,0.1931990534,0.0989931673,-0.1140444726
3.3052558899,-0.0309230797,-0.0154752322,-0.0049964888,0.0663042143,0.1307063550,-0.1135267541
3.3151988983,-0.0220899694,-0.0205339976,0.0419158824,-0.0879634768,0.1387208700,-0.1061156392
3.3250529766,-0.0000132880,-0.0065804902,0.0731565282,-0.2218690813,0.1165532619,-0.0802704617
3.3350381851,0.0132577159,0.0101163797,0.0773077533,-0.3199529648,0.0895575956,-0.0448143631
3.3451130390,0.0202356167,0.0149980001,0.0435797460,-0.3579496145,0.0840957165,-0.0259240288
3.3548698425,0.0193592347,-0.0055160108,0.0033329620,-0.3856762946,0.0820855647,-0.0428871326
3.3649811745,0.0148878284,-0.0160158463,-0.0168051235,-0.3949033320,0.0793986991,-0.0758421570
3.3746771812,0.0112237819,-0.0066927257,-0.0293552987,-0.3706307709,0.0850286260,-0.0977450833
3.3846330643,0.0140838064,0.0096759610,-0.0361725800,-0.3207175136,0.1016909555,-0.1042799503
3.3945240974,0.0146853067,0.0235397033,-0.0332066528,-0.2615640163,0.1230345890,-0.0939256176
3.4045050144,0.0133954771,0.0257644467,-0.0235118978,-0.1988575011,0.1295862347,-0.0905090496
3.4143738747,0.0147222020,0.0142456703,-0.0130033595,-0.1161923558,0.1260900348,-0.1071709841
3.4243650436,0.0208695568,0.0015837965,-0.0018789277,-0.0396099687,0.1068958342,-0.1265385449
3.4342560768,0.0313592739,0.0063059744,-0.0115470393,0.0576206222,0.0746550784,-0.1198886782
3.4443259239,0.0299225785,0.0130579881,-0.0325117819,0.1768591404,0.0619009286,-0.1201320887
3.4540569782,0.0182566382,0.0037696776,-0.0467344038,0.2619737685,0.0662096590,-0.1331005394
3.4640898705,0.0087793954,-0.0032528224,-0.0418424718,0.2779210210,0.0560931079,-0.1338249296
3.4739098549,0.0045961328,-0.0030285898,-0.0221328251,0.2359399498,0.0491899326,-0.1195016801
3.4838969707,-0.0024211071,-0.0005518380,0.0020681515,0.1755679548,0.0460958704,-0.1018049791
3.4937720299,-0.0148190968,-0.0118671842,0.0120477574,0.1009006351,0.0615315512,-0.0926764905
3.5036959648,-0.0234561525,-0.0255801268,0.0180060156,0.0578759313,0.0812229663,-0.0910719410
3.5136618614,-0.0190056525,-0.0343849845,0.0244856365,0.0299187750,0.0807681009,-0.1010547057
3.5235638618,0.0008052327,-0.0372736640,0.0296017416,0.0177609138,0.0651859418,-0.1178107783
3.5335450172,0.0300403573,-0.0319428034,0.0154166119,0.0084592020,0.0391900279,-0.1291024089
3.5433969498,0.0500468649,-0.0110030361,-0.0089489920,0.0398778431,0.0245546252,-0.1391960531
3.5533971786,0.0381388701,0.0138659887,-0.0360000841,0.1087912247,0.0400768593,-0.1367164552
3.5632600784,0.0215944089,0.0291409306,-0.0431737415,0.1483040005,0.0593155324,-0.1271485239
3.5732100010,0.0194299854,0.0245567970,-0.0325065367,0.1436514556,0.0660860837,-0.1089510396
3.5830688477,0.0129951276,0.0140974335,-0.0146415336,0.1223528385,0.0722052306,-0.0963279232
3.5930600166,-0.0105051957,-0.0035438123,-0.0030156479,0.0938136876,0.0860576630,-0.0837864280
3.6029901505,-0.0313072167,-0.0219089575,0.0116742151,0.0544444472,0.0896324217,-0.0559617206
3.6131150723,-0.0370767675,-0.0353731103,0.0204501636,0.0178290009,0.0866148025,-0.0329594351
3.6228320599,-0.0302950703,-0.0477186032,0.0196321495,-0.0041820244,0.0824815780,-0.0320971049
3.6327261925,-0.0172417425,-0.0533200689,0.0263803490,-0.0144763831,0.0591224544,-0.0530403368
3.6427040100,-0.0002876780,-0.0395919271,0.0254563577,-0.0122156274,0.0280934330,-0.0705727190
3.6526010036,0.0177248754,-0.0155987926,0.0130059021,-0.0003369525,-0.0025411751,-0.0896396637
3.6625299454,0.0286913104,0.0016413149,-0.0147954924,0.0257921182,-0.0098281167,-0.1033599973
3.6724591255,0.0321972705,0.0190905742,-0.0373142473,0.0497617237,-0.0067923791,-0.1114300042
3.6823658943,0.0219156034,0.0357637815,-0.0390311591,0.0711820647,-0.0029507694,-0.1061316431
3.6922001839,0.0095115043,0.0436923914,-0.0267680399,0.1073727310,0.0046983622,-0.0983604491
3.7029109001,0.0069999583,0.0277767591,-0.0097965701,0.1445406079,0.0130487038,-0.0918679237
3.7120339870,0.0095701851,0.0049293456,0.0027033582,0.1739811450,0.0098023098,-0.0837744400
3.7219140530,0.0074344166,-0.0171210356,0.0085064666,0.1535523087,0.0083024176,-0.0819808021
3.7318110466,0.0079827495,-0.0338227935,0.0056956303,0.1040313542,0.0119456220,-0.0830442682
3.7417521477,0.0051990189,-0.0334756561,-0.0043234928,0.0537071973,0.0246108174,-0.0764785111
3.7517170906,-0.0040354393,-0.0162255354,-0.0069843037,0.0206174199,0.0480482355,-0.0665119737
3.7616329193,-0.0032010339,-0.0014770809,-0.0033953295,-0.0242637675,0.0731922016,-0.0507471189
3.7715520859,0.0060600527,0.0003144559,0.0135650532,-0.1034039557,0.0710102767,-0.0435015261
3.7817020416,0.0152078308,0.0018937406,0.0266361721,-0.1935186684,0.0591512173,-0.0338486321
3.7913970947,0.0156646706,0.0016465602,0.0182516463,-0.2385409176,0.0484133512,-0.0215814114
3.8012859821,0.0059999563,-0.0009766403,0.0064551127,-0.2618707120,0.0416092426,-0.0210208166
3.8112511635,0.0026454665,-0.0084883757,-0.0017032132,-0.2662671804,0.0155752441,-0.0089944806
3.8211779594,0.0055399276,-0.0033612433,-0.0099980934,-0.2396920025,-0.0029843249,0.0122689959
3.8310461044,-0.0030873381,-0.0057417932,-0.0224878304,-0.1762928963,0.0070358184,0.0080499500
3.8411688805,-0.0110970400,-0.0196533985,-0.0337181799,-0.1365665197,0.0216935910,-0.0156415328
3.8509919643,-0.0024404190,-0.0239938088,-0.0202192180,-0.1281515509,0.0280297846,-0.0186630543
3.8610610962,0.0070188083,-0.0046977582,-0.0025499568,-0.1121086627,0.0426236391,-0.0071459478
3.8707718849,0.0120393373,0.0078307800,0.0164778717,-0.1113636047,0.0442713387,0.0004643016
3.8808860779,0.0138448514,0.0071635065,0.0238906033,-0.1073078737,0.0404811278,0.0024632704
3.8906869888,0.0138272680,0.0023991284,0.0185181387,-0.0872859657,0.0200405661,-0.0041982941
3.9005990028,0.0131580271,0.0000529107,0.0042123687,-0.0460192189,-0.0041103098,-0.0020975927
3.9104609489,0.0136500634,0.0015619812,-0.0102368696,0.0006257803,-0.0331358351,0.0032807942
3.9203810692,0.0078841932,0.0014879522,-0.0263446085,0.0368692726,-0.0467946567,0.0117954528
3.9303419590,0.0022503622,-0.0075380388,-0.0377075188,0.0547325127,-0.0533827841,0.0117375962
3.9403090477,-0.0079259239,-0.0149877854,-0.0352482907,0.0522342026,-0.0432212278,0.0018380932
3.9503970146,-0.0178543590,-0.0093588419,-0.0208751671,0.0411882997,-0.0230006445,0.0057471814
3.9601399899,-0.0178767703,-0.0039387527,-0.0038598881,0.0151905194,-0.0080062477,0.0173814669
3.9701380730,-0.0126096867,-0.0017388049,0.0206690319,-0.0345780142,0.0055433828,0.0252340622
3.9800100327,0.0064257719,-0.0065756026,0.0290891416,-0.0928602293,0.0186546575,0.0195285063
3.9898240566,0.0283987261,-0.0120979734,0.0219477303,-0.1383257061,0.0144830821,0.0075120912
3.9998688698,0.0349512734,-0.0009040418,0.0208636411,-0.1508857161,0.0074214442,0.0002544445
4.0097217560,0.0353372283,0.0147731714,0.0146734016,-0.1321805567,-0.0033228132,-0.0020161667
4.0197229385,0.0304029472,0.0186225586,0.0026376739,-0.1307134181,-0.0162785593,0.0067144744
4.0297832489,0.0194096304,0.0205922537,-0.0038835511,-0.1625630558,-0.0261596851,0.0224372111
4.0395812988,0.0066103078,0.0211050324,-0.0096533997,-0.1964773387,-0.0372381695,0.0459342822
4.0494360924,-0.0028727017,0.0037247953,-0.0125072105,-0.2234605700,-0.0349822082,0.0490574688
4.0594148636,-0.0069940351,-0.0124434419,-0.0188710801,-0.2416795343,-0.0248725787,0.0427620225
4.0692839622,-0.0027458034,-0.0107292123,-0.0171749704,-0.2444581836,-0.0179265216,0.0459004939
4.0792722702,0.0067903437,0.0013342318,-0.0178291313,-0.2012036592,-0.0121751605,0.0463287272
4.0891227722,0.0122235604,0.0128036551,-0.0189264528,-0.1272466034,0.0080478191,0.0436641052
4.0992588997,0.0188436247,0.0266929083,-0.0171915404,-0.0544352531,0.0229575261,0.0520184413
4.1089959145,0.0265329368,0.0317587666,-0.0097136004,-0.0009716721,0.0229724422,0.0566393249
4.1191530228,0.0343306698,0.0297205858,-0.0082848771,0.0340963006,0.0144671034,0.0508922227
4.1289939880,0.0341763534,0.0287567787,-0.0222157948,0.0662124231,0.0056531052,0.0453773811
4.1389861107,0.0197895505,0.0352367572,-0.0250126831,0.0973841920,-0.0011864251,0.0480884798
4.1490697861,0.0040118732,0.0370828919,-0.0208721869,0.1123706847,-0.0053859637,0.0730437636
4.1587858200,-0.0054372512,0.0249213390,-0.0135018332,0.0921540931,-0.0132476157,0.0954484046
4.1686911583,-0.0138180815,-0.0006904784,-0.0067713368,0.0449211635,-0.0153722847,0.1052011698
4.1786842346,-0.0190378688,-0.0217340179,-0.0000453100,-0.0053950055,-0.0241450053,0.1023731530
4.1885428429,-0.0217694305,-0.0355547257,0.0016823306,-0.0524719693,-0.0308620296,0.0914907455
4.1985340118,-0.0150139593,-0.0366820879,-0.0018743977,-0.0768343061,-0.0303203426,0.0743232071
4.2083730698,0.0009256341,-0.0294138975,-0.0055385339,-0.0752628595,-0.0364996754,0.0559421405
4.2182912827,0.0202851929,-0.0102657266,-0.0112375719,-0.0466080457,-0.0399961397,0.0351204835
4.2282352448,0.0342559852,0.0191846304,-0.0174442641,-0.0059616370,-0.0429301411,0.0261404030
4.2382059097,0.0346045531,0.0411266498,-0.0181040280,0.0299249925,-0.0500000343,0.0277058091
4.2481389046,0.0276289620,0.0466634445,-0.0165729038,0.0594858117,-0.0580813996,0.0397829786
4.2577128410,0.0205870308,0.0257697515,-0.0175745599,0.0715105161,-0.0574728660,0.0335746184
4.2677779198,0.0155372657,-0.0036680880,-0.0128756268,0.0575334504,-0.0549923964,0.0150805619
4.2781510353,0.0123256929,-0.0124193020,-0.0132622821,0.0617844760,-0.0420054942,0.0186624136
4.2878708839,0.0075433441,-0.0056649032,-0.0061459644,0.0754432008,-0.0378051549,0.0350331664
4.2977571487,0.0023868121,-0.0019251886,0.0014100566,0.0899545029,-0.0230893269,0.0442847200
4.3076162338,-0.0012834332,-0.0075537744,-0.0016648874,0.0848146006,-0.0109181479,0.0459518917
4.3175477982,-0.0030601136,-0.0167366453,0.0047631161,0.0487029366,-0.0106009655,0.0406724438
4.3274707794,0.0041311570,-0.0180473514,0.0004322424,0.0169605445,-0.0080693653,0.0441904776
4.3374161720,0.0118941404,-0.0134598203,-0.0100032790,-0.0041985358,-0.0063268584,0.0477591120
4.3473949432,0.0140814818,-0.0060334387,-0.0140924556,-0.0066933851,-0.0071809343,0.0440795533
4.3572821617,0.0140528120,0.0055289683,-0.0059431298,0.0021536357,-0.0133607993,0.0384096839
4.3671941757,0.0121899582,0.0136304908,-0.0027198896,0.0257607847,-0.0149629572,0.0416622385
4.3771181107,0.0068037845,0.0206640773,0.0044794572,0.0476897843,-0.0118936645,0.0436127372
4.3870782852,0.0008814820,0.0174402408,0.0128059881,0.0400430486,-0.0231529772,0.0508726798
4.3969860077,-0.0000121556,0.0016951975,0.0085601704,0.0193028841,-0.0272281468,0.0648707896
4.4069080353,0.0007001795,-0.0293015428,-0.0097984774,-0.0178262871,-0.0160399396,0.0555260889
4.4168901443,-0.0066058002,-0.0422132201,-0.0064067352,-0.0492212251,-0.0157360714,0.0450252444
4.4267330170,-0.0067470483,-0.0269763060,-0.0042834980,-0.0475184023,-0.0085569900,0.0522897504
4.4367580414,0.0005369820,-0.0112576075,-0.0027542815,-0.0165112168,0.0066472632,0.0593071803
4.4468307495,0.0087019838,-0.0093156882,0.0008817806,0.0003742892,0.0231554005,0.0606697202
4.4565920830,0.0176535584,-0.0134328194,0.0091271298,-0.0113308355,0.0272268411,0.0458963662
4.4664421082,0.0210294314,-0.0161052532,0.0179647692,-0.0411740392,0.0148703055,0.0206288919
4.4764080048,0.0173856355,-0.0170599408,0.0192381628,-0.0984650254,0.0039020767,0.0006493246
4.4863100052,0.0163454153,-0.0102110095,0.0109825628,-0.1650698036,-0.0210123267,-0.0067985384
4.4962959290,0.0201616026,0.0004466590,-0.0124003394,-0.1899306774,-0.0388600342,0.0059758467
4.5061502457,0.0163005926,0.0063485918,-0.0343233459,-0.1901344061,-0.0417618155,0.0185022242
4.5161600113,0.0074358918,0.0047918973,-0.0460165255,-0.1777826697,-0.0262496993,0.0303863157
4.5260467529,0.0008780398,0.0010242281,-0.0449590199,-0.1521992683,0.0014604907,0.0425821953
4.5360059738,0.0009541400,-0.0063694301,-0.0273257606,-0.1181819215,0.0341976620,0.0308839921
4.5458412170,0.0031588264,-0.0067635360,-0.0019417510,-0.0891425386,0.0545548685,0.0217523463
4.5557947159,0.0030964650,0.0005376157,0.0182124861,-0.0619918816,0.0670304447,0.0128491325
4.5657219887,0.0067662038,0.0066608009,0.0219029672,-0.0316402838,0.0720805973,0.0159798115
4.5756878853,0.0088664182,0.0056275544,0.0183476694,-0.0069780778,0.0690153018,0.0233647563
4.5855488777,0.0062606670,-0.0065384093,0.0163635500,-0.0210492443,0.0408366621,0.0187292248
4.5955581665,0.0068963505,-0.0198062249,0.0072653787,-0.0596666783,0.0056773401,0.0199966244
4.6052370071,0.0041157939,-0.0272329040,-0.0076785786,-0.1089821160,-0.0311379340,0.0070282277
4.6156020164,0.0025045909,-0.0301297493,-0.0196334235,-0.1558587998,-0.0518820919,0.0048795897
4.6252517700,0.0036951341,-0.0258493610,-0.0351921432,-0.1750086248,-0.0449509472,-0.0002826818
4.6352519989,0.0090119131,-0.0209071822,-0.0356478803,-0.1709861904,-0.0334998891,-0.0154816080
4.6452732086,0.0114982165,-0.0066784802,-0.0232753269,-0.1165036857,-0.0174926948,-0.0213902630
4.6550292969,0.0128289796,0.0117916875,-0.0113596423,-0.0575010814,-0.0003714978,-0.0222139787
4.6650247574,0.0155889876,0.0193775706,0.0080049532,0.0068660108,0.0199657306,-0.0107198767
4.6748929024,0.0177366175,0.0116800480,0.0046066539,0.0581632890,0.0386576615,-0.0019916322
4.6850337982,0.0148916878,-0.0041063013,0.0090789096,0.0672380999,0.0383753665,-0.0031761397
4.6949391365,0.0057461895,-0.0154749937,0.0076638358,0.0609953813,0.0242515579,-0.0005816882
4.7046852112,-0.0017355344,-0.0244564004,-0.0050478685,0.0502912477,0.0127815884,-0.0110577317
4.7145891190,-0.0057130717,-0.0251894780,-0.0127405031,0.0345841907,0.0029721009,-0.0206408501
4.7246932983,-0.0019079110,-0.0151931234,-0.0083260043,0.0160433520,-0.0115064410,-0.0269318707
4.7344160080,0.0051437505,-0.0052975598,-0.0028218732,0.0057566264,-0.0235287491,-0.0315633714
4.7444047928,0.0118790604,-0.0008322778,-0.0110624535,0.0083678551,-0.0282340217,-0.0336444676
4.7542948723,0.0089247562,0.0005836901,-0.0112568839,0.0147213591,-0.0244877525,-0.0333664343
4.7642941475,0.0015313664,-0.0020166221,-0.0102706058,0.0326790549,-0.0133914268,-0.0275138374
4.7741317749,-0.0011886618,-0.0038228217,-0.0072104437,0.0442638062,0.0009291901,-0.0205001365
4.7840538025,-0.0004701577,-0.0071020308,0.0030411973,0.0403193980,0.0104989931,-0.0123955701
4.7940177917,0.0034526624,-0.0048698965,0.0133259790,0.0454094969,0.0047225966,-0.0056801438
4.8039040565,0.0037093796,-0.0047506276,0.0127903121,0.0321972892,-0.0032642232,-0.0027749012
4.8139152527,0.0035671480,-0.0077790800,0.0088474052,0.0087721236,-0.0118851420,-0.0052234111
4.8237328529,0.0089796223,-0.0125216432,-0.0080680950,-0.0013363478,-0.0150292702,-0.0120104104
4.8337678909,0.0034145750,-0.0155590959,-0.0187450163,-0.0067052804,-0.0123543907,-0.0162733328
4.8436241150,-0.0040471219,-0.0047645154,-0.0095325215,-0.0072173174,-0.0141208656,-0.0053501776
4.8536019325,-0.0082129501,0.0068818745,-0.0019868121,0.0086223660,-0.0184719395,0.0077280733
4.8636651039,-0.0086460672,0.0019420204,0.0015593066,0.0121005420,-0.0150114270,0.0192958135
4.8734712601,-0.0061677508,-0.0064761224,0.0062610400,-0.0058875126,-0.0138340434,0.0244492963
4.8832998276,0.0030565895,-0.0203443952,0.0080979364,-0.0369277224,-0.0160061177,0.0109703718
4.8932528496,0.0130944587,-0.0239836760,0.0034975305,-0.0566377752,-0.0146106211,-0.0078904014
4.9031591415,0.0190673061,-0.0135621019,-0.0011955008,-0.0539791398,-0.0177904349,-0.0176259857
4.9130139351,0.0182305612,0.0073472676,-0.0039566862,-0.0384593047,-0.0185470395,-0.0204784982
4.9230318069,0.0162961669,0.0228320770,-0.0131299002,-0.0214246605,-0.0160854794,-0.0116503853
4.9329638481,0.0179807283,0.0214078240,-0.0221772306,-0.0088577364,-0.0086552603,-0.0070545678
4.9428873062,0.0141870119,0.0156546645,-0.0218562596,-0.0206787977,0.0012253337,-0.0095711546
4.9528932571,0.0100597180,0.0100843720,-0.0144385798,-0.0305833593,0.0040714541,-0.0043913070
4.9627532959,0.0092625357,0.0061563668,-0.0073617203,-0.0444181263,0.0021435916,0.0006105425
4.9728517532,0.0074023791,0.0003601727,-0.0084779961,-0.0487055480,0.0035638553,-0.0006520622
4.9826259613,0.0045834370,-0.0069420519,-0.0094102724,-0.0489170030,0.0030607842,-0.0062400065
4.9927997589,0.0013967791,-0.0044509950,-0.0077008707,-0.0376393199,-0.0015337013,-0.0092310030
5.0024428368,0.0035329945,0.0024670777,-0.0134702427,0.0069698738,0.0096457163,-0.0023949014
5.0123672485,0.0017318764,-0.0012923661,-0.0140454872,0.0297723915,0.0174889918,-0.0007416110
5.0223112106,0.0011029580,0.0005318341,-0.0000586614,0.0259684213,-0.0008761668,0.0067324843
5.0324592590,-0.0000256411,-0.0034021321,0.0053564799,0.0099620242,-0.0157299489,0.0056712143
5.0421247482,0.0009883979,-0.0174272247,-0.0096848710,0.0013545100,-0.0279594511,-0.0020838107
5.0520257950,0.0018769988,-0.0259084292,-0.0193485133,0.0055186287,-0.0277011245,-0.0061736275
5.0619668961,-0.0005335770,-0.0243350454,-0.0230913870,0.0179686397,-0.0222837217,-0.0125401132
5.0718679428,0.0025231279,-0.0130344816,-0.0209692232,0.0521662906,-0.0102441022,-0.0134306755
5.0818181038,0.0079699196,0.0005807099,-0.0116022332,0.0884547010,-0.0001635049,-0.0146679785
5.0916967392,0.0096845366,0.0096117072,0.0046227467,0.1015782207,0.0035923510,-0.0164006315
5.1016588211,0.0067919381,0.0092968754,0.0164266117,0.0849054232,0.0005374391,-0.0213603713
5.1117782593,0.0030531026,0.0003325161,0.0180588253,0.0515120402,-0.0037678271,-0.0225667823
5.1215429306,-0.0050974749,-0.0153039284,0.0096029537,0.0020257155,-0.0072046365,-0.0209978148
5.1314301491,-0.0094996653,-0.0238522477,-0.0028036342,-0.0396085456,-0.0048312275,-0.0120253582
5.1413898468,-0.0094033144,-0.0275213309,-0.0149882538,-0.0648212284,-0.0041824812,-0.0084112482
5.1512770653,-0.0049225949,-0.0265948363,-0.0149092777,-0.0777247772,0.0000844355,-0.0163788944
5.1616487503,-0.0000884644,-0.0177700706,-0.0081408722,-0.0727332979,0.0048757284,-0.0163204372
5.1742458344,0.0032855608,-0.0059719863,0.0001860156,-0.0714808106,0.0218850709,-0.0243836902
5.1815381050,0.0098603405,0.0025043902,0.0080410736,-0.0763480067,0.0421623811,-0.0304352902
5.1913537979,0.0207991041,0.0086257271,0.0136250751,-0.0929120705,0.0489566363,-0.0275159348
5.2017211914,0.0244313814,0.0146957450,0.0166459568,-0.1038278341,0.0394147970,-0.0302197412
5.2112259865,0.0203087963,0.0079110675,0.0055192010,-0.1237466857,0.0371492468,-0.0401562601
5.2209210396,0.0157816298,-0.0049385610,-0.0072797043,-0.1548288763,0.0268840920,-0.0475592501
5.2308659554,0.0150269307,-0.0065486017,-0.0180905573,-0.1636894941,0.0191848930,-0.0400896147
5.2404789925,0.0124886371,-0.0035287323,-0.0317844860,-0.1403817534,0.0215812046,-0.0335658342
5.2503981590,0.0073462613,0.0004055318,-0.0358300917,-0.1085098535,0.0307832249,-0.0308107976
5.2603030205,0.0066215135,0.0085397176,-0.0254010670,-0.0769254714,0.0268135183,-0.0234993212
5.2702608109,0.0078779049,0.0207009129,-0.0150063736,-0.0224997792,0.0255495813,-0.0145090222
5.2803578377,0.0076014735,0.0182902031,-0.0166202299,0.0200139470,0.0376123711,-0.0147343259
5.2900838852,0.0080234148,0.0217437558,-0.0145807965,0.0389484912,0.0451813415,-0.0016693897
5.3000330925,0.0132636763,0.0269452147,-0.0136209233,0.0526328757,0.0418358780,0.0209185444
5.3099517822,0.0121104158,0.0181040578,-0.0154396994,0.0607147701,0.0368967801,0.0217944570
5.3199210167,0.0060018040,0.0054317531,-0.0121501191,0.0583575219,0.0305933431,0.0138626974
5.3297929764,-0.0008377395,-0.0032970491,-0.0047639119,0.0645954385,0.0184336156,0.0058218157
5.3397617340,-0.0000283084,-0.0048726383,-0.0013931498,0.0798140764,0.0061593722,-0.0061439662
5.3496279716,0.0004431792,-0.0031876150,0.0067117708,0.0918773934,-0.0081455316,-0.0089607928
5.3598260880,-0.0019032917,-0.0007149163,0.0084466236,0.0966394842,-0.0190477129,-0.0042961319
5.3694868088,-0.0061115734,-0.0034496966,0.0014194741,0.0863823220,-0.0215425622,0.0059700878
5.3796091080,-0.0112906508,-0.0125215240,-0.0015623078,0.0569552779,-0.0076661622,-0.0007627164
5.3896102905,-0.0097054504,-0.0210771151,0.0042356742,0.0074132904,0.0027409384,-0.0017283787
5.3996238708,-0.0003866515,-0.0239410587,0.0132800238,-0.0439698286,-0.0007315571,-0.0147580616
5.4093580246,0.0128422417,-0.0156253763,0.0182245858,-0.0688594654,-0.0026575553,-0.0299649760
5.4192781448,0.0235803165,0.0012737927,0.0112439888,-0.0624030754,0.0029409421,-0.0341256335
5.4292569160,0.0238728561,0.0133556537,0.0032215610,-0.0356385745,0.0053108889,-0.0308890957
5.4391708374,0.0167737938,0.0222154073,0.0004255667,0.0016338758,0.0137206186,-0.0188063998
5.4489517212,0.0077251531,0.0146544389,-0.0010977492,0.0160977691,0.0115719801,-0.0116068088
5.4590587616,0.0017899909,-0.0019706669,0.0055081737,0.0131368674,0.0028716996,-0.0093777105
5.4689140320,-0.0036711060,-0.0123145171,0.0018904700,0.0117837153,-0.0086589884,-0.0077209570
5.4788017273,-0.0083306096,-0.0144975968,-0.0052759754,0.0224048458,-0.0231260788,-0.0046990346
5.4889869690,-0.0100067817,-0.0121336766,-0.0145820482,0.0483948998,-0.0138454949,-0.0067563271
5.4987111092,-0.0039065443,-0.0069281640,-0.0188285224,0.0746971667,-0.0099820476,-0.0005366141
5.5086078644,0.0017199555,0.0055304584,-0.0078294976,0.0904881135,-0.0168985426,0.0059361989
5.5185961723,0.0035043992,0.0098402910,-0.0003821359,0.1071039364,-0.0195973907,0.0089450385
5.5288801193,0.0051188059,-0.0021664086,0.0058261645,0.0789692327,-0.0220104810,-0.0086169112
5.5384731293,0.0098397173,-0.0136714168,0.0049704211,0.0270376801,-0.0302191414,-0.0182892121
5.5483188629,0.0168973245,-0.0139367171,-0.0002714500,-0.0190240871,-0.0317571163,-0.0296103097
5.5583009720,0.0188453831,-0.0011887732,-0.0067928541,-0.0187267009,-0.0225194097,-0.0299950019
5.5682401657,0.0131345131,0.0080720596,-0.0039797528,0.0029005639,-0.0120404046,-0.0237325802
5.5781097412,0.0067975558,0.0093268566,0.0056441915,0.0284121372,-0.0039507863,-0.0161027573
5.5880060196,0.0004192033,0.0006628451,0.0132599371,0.0231681075,0.0012032294,-0.0172308721
5.5980081558,-0.0032141320,-0.0069105211,0.0155311124,0.0077579916,-0.0063079502,-0.0128033673
5.6078729630,-0.0067357384,-0.0114928670,0.0089492099,-0.0153039172,-0.0081441989,0.0003180276
5.6178531647,-0.0102917813,-0.0206723996,-0.0034932599,-0.0266793445,-0.0060578794,0.0050346190
5.6277198792,-0.0059891902,-0.0331545062,-0.0085771782,-0.0386334769,-0.0060634720,-0.0074942219
5.6376857758,0.0086465813,-0.0320164151,-0.0093813641,-0.0371824950,-0.0113578364,-0.0238266569
5.6475181580,0.0223241188,-0.0145060606,-0.0112471683,-0.0087417997,-0.0204400159,-0.0334342755
5.6575398445,0.0231768228,0.0060224948,-0.0125818355,0.0306399614,-0.0095583377,-0.0450134017
5.6673927307,0.0228078403,0.0198672824,-0.0101063354,0.0463004149,-0.0008330236,-0.0459132865
5.6774001122,0.0233499445,0.0231292062,0.0000862374,0.0266757570,-0.0005395432,-0.0459199436
5.6873011589,0.0213293470,0.0197079591,0.0032083883,-0.0004080590,-0.0054671904,-0.0401257053
5.6974239349,0.0176199861,0.0086358003,-0.0041540968,-0.0277094562,-0.0068549630,-0.0426295064
5.7071189880,0.0074571110,-0.0044974866,-0.0113700135,-0.0378821976,-0.0100440988,-0.0409575738
5.7171010971,-0.0020443462,-0.0007387581,-0.0151761277,-0.0237246547,-0.0097636683,-0.0232211221
5.7269568443,-0.0069063716,-0.0010719481,-0.0170180909,0.0048358827,-0.0064991652,-0.0096432604
5.7369680405,-0.0082403682,-0.0025809589,-0.0171699636,0.0399197452,0.0028104470,0.0043851738
5.7468137741,-0.0045581125,-0.0063315216,-0.0161368959,0.0470807180,0.0043529500,0.0012849881
5.7568011284,0.0016695597,0.0013748822,-0.0018447742,0.0271750111,-0.0021813822,-0.0081244260
5.7665672302,0.0164355524,0.0152813010,0.0023308292,0.0081030494,-0.0149831967,-0.0014896931
5.7768707275,0.0218225457,0.0251626186,-0.0084736450,0.0038360434,-0.0090797683,0.0086652059
5.7864933014,0.0192107148,0.0249197893,-0.0207662694,0.0005574259,0.0130697424,0.0138858017
5.7966117859,0.0087067522,0.0168827586,-0.0233098380,-0.0194554310,0.0335864685,0.0190551300
5.8063578606,-0.0007188878,0.0050690589,-0.0110712750,-0.0364453346,0.0445871912,0.0276369005
5.8163108826,-0.0042112134,0.0018750248,0.0060486095,-0.0440637469,0.0481579527,0.0282253586
5.8262219429,-0.0052157305,-0.0068453136,0.0190733559,-0.0488129631,0.0440777242,0.0307212733
5.8363699913,-0.0051784329,-0.0087476559,0.0202261694,-0.0658050030,0.0237740520,0.0303635765
5.8460879326,0.0006072410,-0.0094106980,0.0072756307,-0.0695810989,0.0027286881,0.0301846135
5.8559851646,0.0071746148,-0.0103910156,-0.0153957112,-0.0503433943,-0.0067894496,0.0205065198
5.8660192490,0.0065215267,-0.0049224677,-0.0221105330,-0.0198656470,-0.0150969150,0.0032324579
5.8758459091,0.0073297955,0.0045050797,-0.0235616677,0.0153140016,-0.0191369299,-0.0021554166
5.8857688904,0.0031305291,0.0158838443,-0.0148038371,0.0360259376,-0.0228448492,0.0033163140
5.8956580162,0.0033388175,0.0204371028,-0.0021514997,0.0335807130,-0.0177664664,0.0144028533
5.9056749344,0.0029896237,0.0089575462,-0.0045309169,0.0218385682,-0.0055188555,0.0226179082
5.9155359268,0.0018534550,-0.0085848160,-0.0091135604,-0.0011743391,0.0115562677,0.0155555699
5.9254341125,0.0028931685,-0.0167961307,0.0008745089,-0.0083028227,0.0207436401,0.0031412444
5.9353961945,0.0059127845,-0.0146531053,0.0089253681,-0.0047984570,0.0211532339,-0.0035522445
5.9453310966,0.0127235986,-0.0077704969,0.0184281357,0.0008679503,0.0054645534,0.0002512820
5.9552741051,0.0123881139,0.0008806405,0.0134521024,0.0227341019,-0.0125277629,0.0089900456
5.9651761055,0.0095380284,0.0026434478,-0.0078467829,0.0500429533,-0.0115173599,0.0137800071
5.9752082825,0.0037267543,-0.0062890234,-0.0282110684,0.0526565798,-0.0060432316,0.0132322274
5.9850549698,-0.0005497001,-0.0082999654,-0.0291664712,0.0549476966,-0.0063646752,0.0184432361
5.9949250221,-0.0049116425,-0.0101542659,-0.0163875930,0.0423600003,-0.0055819722,0.0088698044
6.0049152374,-0.0013428292,-0.0109709688,-0.0009588704,0.0224672519,-0.0046626492,0.0042596059
6.0148010254,0.0059227385,-0.0069076600,-0.0016758547,0.0151806660,0.0061868024,0.0029931394
6.0250048637,0.0111179091,-0.0027582827,-0.0000513897,0.0152219450,0.0182032529,-0.0040392037
6.0346498489,0.0083612688,0.0000210222,0.0070184367,0.0138310641,0.0282913055,-0.0103751300
6.0445971489,0.0057521500,-0.0002562586,0.0098538296,0.0098088924,0.0267804936,-0.0201758277
6.0544910431,0.0026088692,0.0049827513,0.0090179937,0.0049361954,0.0225564539,-0.0154018793
6.0644211769,-0.0041717552,0.0025489745,0.0005890622,0.0095325448,0.0225322191,-0.0062672379
6.0743451118,-0.0110143535,-0.0053575221,-0.0025506124,-0.0051507931,0.0189942122,0.0036304672
6.0842828751,-0.0080569647,-0.0122309513,-0.0112123592,-0.0211808942,0.0074414182,0.0081298780
6.0941920280,-0.0062203668,-0.0184990950,-0.0164411776,-0.0231324583,-0.0016034760,0.0085943332
6.1044020653,-0.0014944187,-0.0167373605,-0.0147855384,-0.0115309292,-0.0008612531,0.0096292375
6.1140451431,0.0004972257,-0.0171889253,-0.0194038860,0.0153693957,0.0088744648,-0.0031848284
6.1240320206,0.0052379109,-0.0127577968,-0.0138543947,0.0283198133,0.0141872047,-0.0135173611
6.1338920593,0.0140685476,0.0030596075,-0.0005420551,0.0320691019,0.0119722541,-0.0137990564
6.1438679695,0.0173426755,0.0086177401,0.0025950565,0.0196569078,0.0149872191,-0.0201144777
6.1537342072,0.0130674131,0.0075015840,-0.0015975938,-0.0027835984,0.0221327469,-0.0203921441
6.1636891365,0.0077583529,0.0056060967,-0.0068227155,-0.0202571303,0.0257993862,-0.0221847184
6.1735711098,0.0053362586,-0.0006108466,-0.0054229009,-0.0376027413,0.0285501648,-0.0206986088
6.1836032867,0.0082303323,-0.0075521651,-0.0133727295,-0.0433631577,0.0279725268,-0.0225788001
6.1934361458,0.0084239878,-0.0110424347,-0.0142542822,-0.0373573750,0.0332306735,-0.0280680414
6.2033600807,0.0019460061,-0.0053066793,-0.0066686971,-0.0183567870,0.0403186753,-0.0279226322
6.2132902145,0.0017823615,0.0071972427,0.0040734308,-0.0039697704,0.0317984223,-0.0217936002
6.2232322693,0.0070921220,0.0113622956,0.0057750237,0.0175746698,0.0187928770,-0.0072836326
6.2331271172,0.0089608021,0.0036324081,-0.0032323108,0.0297226794,0.0014972424,-0.0070333956
6.2431087494,0.0054531135,-0.0036931816,-0.0142912371,0.0434595309,-0.0081146387,-0.0070821317
6.2529778481,0.0035206713,-0.0117818303,-0.0315287821,0.0649739653,-0.0134090027,-0.0108437473
6.2629618645,-0.0019924752,-0.0122893043,-0.0303205959,0.0815252513,-0.0025502299,-0.0181748960
6.2728919983,0.0005192198,-0.0099226423,-0.0232548229,0.0953883305,0.0095844632,-0.0188894235
6.2828302383,0.0059182979,0.0008238372,-0.0050732000,0.0959286913,0.0241306499,-0.0174300112
6.2925071716,0.0063200630,0.0100614242,0.0187389143,0.0730768964,0.0284039583,-0.0201869812
6.3026189804,0.0090628453,0.0115321092,0.0316356905,0.0186826345,0.0247165449,-0.0137679651
6.3125572205,0.0095476843,0.0011443314,0.0272301920,-0.0408242792,0.0208397824,-0.0028262006
6.3224811554,0.0126107521,-0.0097181387,0.0147556560,-0.0865334421,0.0192293692,0.0024314122
6.3326201439,0.0101124384,-0.0183198638,-0.0015385852,-0.1010086164,0.0176900607,-0.0016001144
6.3423609734,0.0034113266,-0.0155316181,-0.0098349554,-0.0833997950,0.0085221287,-0.0068444116
6.3522548676,0.0006899126,-0.0039976421,-0.0057973964,-0.0385022685,-0.0014500779,-0.0068179797
6.3622031212,-0.0012920162,0.0058544097,-0.0018125877,0.0156797431,-0.0032426517,-0.0042509586
6.3723440170,-0.0020300858,0.0066851792,-0.0007209287,0.0359868780,-0.0099681988,0.0038324348
6.3819909096,-0.0002289377,0.0073718843,0.0039042726,0.0262306556,-0.0119439978,0.0078705857
6.3920111656,0.0042363591,0.0064288792,0.0035027757,0.0078494269,-0.0054064700,0.0162187964
6.4018907547,0.0115544833,-0.0028559151,-0.0031293139,-0.0154673476,0.0028125774,0.0144632412
6.4119873047,0.0162016489,-0.0086714812,-0.0043838131,-0.0435735509,0.0066339471,0.0153629240
6.4217491150,0.0159381665,-0.0118137188,0.0040001767,-0.0614287145,0.0096358629,0.0063119042
6.4319038391,0.0196892060,-0.0090457387,0.0074191587,-0.0731838197,0.0020197546,-0.0037492518
6.4415779114,0.0258847810,0.0022108373,0.0026827350,-0.0622491427,-0.0125570577,-0.0050464775
6.4515190125,0.0245459117,0.0195811205,-0.0086539490,-0.0197717249,-0.0116217555,-0.0047247009
6.4614939690,0.0173858441,0.0282952599,-0.0178668611,0.0320019908,-0.0094374306,0.0050917105
6.4713869095,0.0084860958,0.0279773884,-0.0136607988,0.0726586953,-0.0094371643,0.0228917785
6.4812927246,0.0007375815,0.0223588161,-0.0091387136,0.0897985324,-0.0109101580,0.0247589201
6.4912219048,-0.0052982531,0.0130626969,-0.0057954895,0.0871312022,-0.0167906862,0.0284861494
6.5011529922,-0.0081948601,0.0030080494,-0.0088701947,0.0822413713,-0.0116968565,0.0359627083
6.5112543106,-0.0069455914,-0.0027593556,-0.0091735823,0.0828305483,-0.0015214507,0.0413293429
6.5209841728,-0.0061551593,-0.0108046718,0.0003660813,0.0796254352,0.0057167546,0.0397428982
6.5308780670,0.0014758446,-0.0139628835,0.0153172510,0.0737211183,-0.0001746902,0.0340844467
6.5408468246,0.0085220225,-0.0097086020,0.0220845826,0.0708393082,-0.0102012251,0.0278886016
6.5508160591,0.0107719786,-0.0081829615,0.0186771639,0.0719605982,-0.0163406096,0.0194900241
6.5606861115,0.0152925886,-0.0113077350,0.0054634111,0.0603284352,-0.0185318589,0.0010921084
6.5706849098,0.0143958069,-0.0110733695,0.0011171594,0.0292470381,-0.0281021949,-0.0062423032
6.5805988312,0.0141310729,-0.0027402225,-0.0050093038,0.0093252622,-0.0328572690,0.0020289419
6.5904798508,0.0143142678,0.0001926836,-0.0124265058,0.0055541378,-0.0285235085,0.0066465307
6.6003751755,0.0079201497,-0.0018088403,-0.0093299253,0.0063144700,-0.0204815604,0.0066638412
6.6103758812,-0.0015386603,-0.0072867456,0.0010987415,-0.0009338558,-0.0129602598,0.0055769719
6.6202182770,-0.0055553876,-0.0138470717,0.0133517282,-0.0094927233,-0.0176948290,0.0000623639
6.6302051544,-0.0082402788,-0.0187238045,0.0186855681,-0.0074568246,-0.0115144299,-0.0069028339
6.6401610374,-0.0092386566,-0.0215609856,0.0161157139,-0.0198226813,-0.0053651910,-0.0117234215
6.6500787735,-0.0038467906,-0.0152893849,0.0098448889,-0.0328188166,-0.0072405892,-0.0050526028
6.6599388123,0.0039652325,-0.0085454769,0.0024045005,-0.0435553528,-0.0206581261,0.0045837788
6.6699247360,0.0128038861,-0.0050442400,-0.0012161240,-0.0624312125,-0.0297245923,0.0088209677
6.6802091599,0.0135469474,-0.0114926286,-0.0198322050,-0.0733610988,-0.0299024917,0.0075903209
6.6897802353,0.0137938000,-0.0185514279,-0.0245971195,-0.0822375864,-0.0227098260,-0.0095686922
6.6996440887,0.0104917623,-0.0177810378,-0.0160332434,-0.0889729857,-0.0161920059,-0.0263007991
6.7096347809,0.0131356753,0.0013280925,-0.0098508103,-0.0801912993,-0.0113029750,-0.0313411318
6.7195529938,0.0127881058,0.0207692795,-0.0052581532,-0.0470456034,0.0013523664,-0.0274382681
6.7294797897,0.0051998086,0.0298255496,-0.0067539918,-0.0209033918,0.0096015073,-0.0235851426
6.7393078804,0.0004196801,0.0255716853,-0.0091952784,-0.0171086527,0.0147560555,-0.0195041131
6.7493119240,0.0002662577,0.0130284242,-0.0171194784,-0.0235370789,0.0098313382,-0.0153173245
6.7591857910,-0.0036049895,0.0021071848,-0.0251702778,-0.0413584225,0.0057918560,-0.0063544558
6.7691841125,-0.0078491382,-0.0023235264,-0.0171168558,-0.0592419058,-0.0040072454,0.0081607038
6.7790460587,-0.0048050098,-0.0012018266,-0.0191276185,-0.0700119957,-0.0018844395,0.0191289335
6.7890319824,0.0046719052,-0.0015018168,-0.0293038003,-0.0508675054,0.0079615330,0.0148978690
6.7987070084,0.0099357553,-0.0005126181,-0.0350878946,-0.0273256935,0.0175782088,0.0024329433
6.8086819649,0.0083747245,0.0126216225,-0.0204325430,-0.0005822298,0.0236707218,0.0043541477
6.8185777664,0.0081706978,0.0213621072,-0.0104076369,0.0384557173,0.0378006548,0.0031690411
6.8288822174,0.0074295290,0.0136276297,-0.0043140156,0.0486472771,0.0431932881,-0.0006026940
6.8386559486,0.0085196830,0.0104926638,-0.0032204494,0.0476091802,0.0319100097,0.0056895567
6.8485751152,0.0062875338,0.0080870800,-0.0071789725,0.0576254167,0.0227644481,0.0076508420
6.8584470749,-0.0028856061,-0.0041990462,-0.0122735603,0.0612148233,0.0169190746,-0.0032071320
6.8683609962,-0.0081640296,-0.0214237161,-0.0173696987,0.0489865653,0.0078733824,-0.0130714476
6.8783521652,-0.0074449293,-0.0176342316,-0.0129625304,0.0282325521,-0.0063375114,-0.0132424235
6.8882350922,0.0008618869,-0.0084607191,-0.0050349939,0.0170523357,-0.0115642315,-0.0145664467
6.8981418610,0.0098923184,-0.0088296719,-0.0104773743,-0.0008536945,-0.0119719617,-0.0151872290
6.9080638885,0.0145292021,-0.0034635249,-0.0136489375,-0.0223499313,-0.0025470341,-0.0092509426
6.9179849625,0.0105194636,0.0024900255,-0.0089136465,-0.0283196718,0.0042032804,-0.0082408059
6.9279212952,0.0051602460,0.0023690877,-0.0030145750,-0.0248626247,0.0223423373,-0.0097567439
6.9378461838,0.0032231249,0.0016896543,0.0001637831,-0.0086951060,0.0312040057,-0.0071441829
6.9477591515,0.0017492810,0.0041009006,0.0063281548,0.0109932888,0.0350757092,0.0004969586
6.9577498436,-0.0052894317,0.0085927062,0.0134545462,0.0272846445,0.0417077802,0.0084515540
6.9675850868,-0.0083416365,0.0031148014,0.0115782516,0.0437096022,0.0435341746,0.0141160646
6.9776310921,-0.0091417246,-0.0135507174,0.0061556590,0.0256469771,0.0422031246,0.0044493228
6.9874677658,-0.0068700574,-0.0272937603,0.0078167813,-0.0098051997,0.0271333642,-0.0088917166
6.9974040985,0.0001983978,-0.0263563581,0.0072457092,-0.0335411578,0.0163542200,-0.0137309469
7.0073151588,0.0051680841,-0.0179043002,0.0029154315,-0.0510591641,0.0083879055,-0.0109616583
7.0172281265,0.0091323592,-0.0086632557,-0.0057974565,-0.0557508543,0.0047921054,-0.0025966689
7.0271229744,0.0071656145,-0.0035391632,-0.0075733168,-0.0522002392,0.0065268883,-0.0016825725
7.0371289253,0.0033742525,-0.0049274745,-0.0043119299,-0.0458198376,0.0097975163,-0.0122494632
7.0470190048,0.0098944642,-0.0097928233,0.0028062358,-0.0549627393,0.0112547986,-0.0214368347
7.0569648743,0.0130791552,-0.0071997824,0.0097449319,-0.0491146967,0.0093615567,-0.0290446896
7.0668878555,0.0108926035,0.0016717729,0.0088606374,-0.0233691223,-0.0020716598,-0.0304028336
7.0768508911,0.0045148768,0.0057761488,0.0037047162,0.0064385734,-0.0074483156,-0.0233625025
7.0869288445,-0.0036856495,0.0092232637,-0.0064873206,0.0425078049,-0.0144987684,-0.0100368084
7.0966567993,-0.0100426637,0.0024068770,-0.0184353702,0.0725967288,-0.0127168475,-0.0045677414
7.1066131592,-0.0096396171,-0.0138629861,-0.0262033455,0.0896562338,-0.0128353573,-0.0078114052
7.1164960861,-0.0067551993,-0.0192946382,-0.0242362730,0.0868138447,-0.0156681612,-0.0169423185
7.1264371872,-0.0002713315,-0.0177817531,-0.0120253069,0.0798261464,-0.0214805119,-0.0186243039
7.1363639832,0.0082044639,-0.0090065785,-0.0016147599,0.0793744698,-0.0224088896,-0.0209923871
7.1462368965,0.0228056200,-0.0049996558,0.0012627139,0.0639487356,-0.0208509397,-0.0217050482
7.1561961174,0.0314898677,-0.0019660178,0.0031446114,0.0432655662,-0.0154732196,-0.0298449993
7.1661558151,0.0273887850,0.0015336690,0.0028307333,0.0061275163,-0.0027254659,-0.0363189764
7.1762771606,0.0147409029,0.0025430140,0.0045390022,-0.0348364264,0.0069021275,-0.0330773778
7.1860427856,0.0001266637,0.0056711850,0.0092940228,-0.0640791804,0.0223242268,-0.0237815157
7.1958689690,-0.0092790388,0.0007591662,0.0107228654,-0.0957963616,0.0332101621,-0.0146966754
7.2058258057,-0.0127901249,-0.0045027914,0.0109189050,-0.1296961010,0.0355092734,-0.0107971085
7.2159929276,-0.0059878193,-0.0029208246,0.0145034688,-0.1473059803,0.0233263746,-0.0066455062
7.2257151604,0.0008386858,-0.0002424303,0.0054897559,-0.1525652707,0.0137222167,-0.0064856163
7.2356171608,0.0125515796,0.0026913104,-0.0091760857,-0.1388159096,0.0033401498,-0.0013792715
7.2456030846,0.0228425302,0.0088487081,-0.0233304016,-0.1070846990,-0.0048240367,0.0086557195
7.2554569244,0.0195577629,0.0158313327,-0.0258831494,-0.0551685095,-0.0088403504,0.0132595254
7.2653932571,0.0108976103,0.0181807093,-0.0267082565,0.0049511981,-0.0034447857,0.0065965299
7.2754068375,0.0034295805,0.0138985328,-0.0224849693,0.0659501031,-0.0022631411,-0.0011359586
7.2852277756,0.0035574175,0.0138080530,-0.0150690777,0.1107160598,-0.0022154707,0.0091386829
7.2951550484,0.0052620508,0.0101915412,-0.0133401854,0.1517236829,0.0051383162,0.0092497366
7.3051218987,0.0021723546,0.0025529084,-0.0082214577,0.1761211604,0.0100206891,0.0095546022
7.3150010109,-0.0056410097,-0.0020151320,0.0073888199,0.1690121293,0.0101431953,0.0074536344
7.3249711990,-0.0059816949,-0.0085270591,0.0185767300,0.1320540160,0.0070656459,0.0049016941
7.3350648880,0.0010278859,-0.0188579150,0.0252842195,0.0558998659,-0.0122284228,0.0004052129
7.3448481560,0.0071419515,-0.0203030296,0.0166328438,-0.0184365939,-0.0283253677,-0.0066331225
7.3546900749,0.0071294643,-0.0134812184,0.0019630685,-0.0636671856,-0.0314348750,-0.0161185022
7.3646111488,0.0032429136,-0.0119127221,-0.0052562458,-0.0838169307,-0.0248408876,-0.0240264945
7.3745331764,0.0059814937,-0.0103318281,-0.0089436872,-0.0871019363,-0.0101532880,-0.0206512045
7.3844690323,0.0106805898,-0.0012681070,-0.0079965098,-0.0605766773,-0.0069819964,-0.0157408677
7.3943920135,0.0136840232,0.0037326035,-0.0001369223,-0.0245813932,-0.0083569866,-0.0172924250
7.4043631554,0.0072611012,0.0131171159,0.0096501606,0.0073562097,-0.0134010129,-0.0135395313
7.4144382477,-0.0005619190,0.0117300563,0.0012321963,0.0350293815,-0.0127671808,-0.0016628983
7.4242529869,-0.0067909025,0.0021053371,-0.0134628518,0.0502276905,-0.0031598276,0.0007823829
7.4341001511,-0.0170855932,-0.0059420052,-0.0160231106,0.0362413004,0.0013220063,0.0056980457
7.4439349174,-0.0208049975,-0.0021762433,-0.0064689619,0.0162306614,-0.0030716767,0.0133834630
7.4539480209,-0.0107941590,-0.0069667283,0.0010520711,0.0047822646,-0.0078645684,0.0090193404
7.4639081955,0.0029619969,-0.0136105008,0.0020786419,-0.0096431030,-0.0115498500,0.0015498393
7.4737730026,0.0111723132,-0.0100034662,0.0041552084,-0.0204366297,-0.0165661797,-0.0057445588
7.4840059280,0.0161968209,-0.0006062570,-0.0016664967,-0.0045912634,-0.0095519470,-0.0129859932
7.4936690331,0.0170111991,0.0038084802,-0.0106832488,0.0161374509,0.0003142662,-0.0218388736
7.5036420822,0.0151336826,0.0087894611,-0.0080593331,0.0318912044,0.0083133364,-0.0204222389
7.5134959221,0.0108607896,0.0148826055,0.0006896749,0.0427672863,0.0012359862,-0.0175316427
7.5234842300,0.0015033224,0.0121061020,0.0042861002,0.0462604687,-0.0062581492,-0.0158457290
7.5333609581,-0.0058362149,-0.0000252310,0.0017060533,0.0275261924,-0.0089878896,-0.0157384034
7.5433359146,-0.0029924773,-0.0156549998,-0.0121501191,-0.0141934678,-0.0132755786,-0.0115647977
7.5531849861,0.0039612688,-0.0199991651,-0.0250942223,-0.0490696952,-0.0137775848,-0.0113131292
7.5632009506,0.0072185732,-0.0106913634,-0.0246277563,-0.0545960180,-0.0118193617,-0.0165589247
7.5731010437,0.0094363727,0.0106848888,-0.0202047341,-0.0251611639,-0.0093021421,-0.0093244463
7.5830259323,0.0130176581,0.0228250436,-0.0185094588,0.0237278156,-0.0016900289,-0.0074932566
7.5929517746,0.0140531994,0.0249467306,-0.0131402118,0.0568865687,0.0026072478,-0.0041073142
7.6028957367,0.0136489905,0.0213094167,-0.0128079755,0.0736557841,0.0102241542,-0.0057994202
7.6128101349,0.0122731812,0.0149206929,-0.0101639731,0.0793512240,0.0137160914,0.0009351817
7.6226720810,0.0028366484,0.0112448148,-0.0054972875,0.0810014009,0.0212421846,0.0051565585
7.6326680183,-0.0034978352,0.0045661149,0.0001906648,0.0827236623,0.0270468108,0.0112642515
7.6425609589,-0.0045556985,-0.0062859836,-0.0000963912,0.0683357641,0.0316362344,0.0098205525
7.6525149345,-0.0034365319,-0.0180623122,0.0048331511,0.0384047627,0.0228363536,0.0065706968
7.6624588966,-0.0004515908,-0.0233809538,0.0081623094,0.0075212368,0.0108521283,-0.0009306623
7.6723747253,0.0010050276,-0.0204197355,0.0059427517,-0.0080886148,0.0085303839,-0.0194044784
7.6823167801,0.0030984767,-0.0157749243,0.0041001337,-0.0165585335,0.0036261734,-0.0327347964
7.6922388077,0.0091728754,-0.0001921240,0.0034028783,-0.0170666650,0.0015864582,-0.0295651052
7.7021660805,0.0187496282,0.0081038289,-0.0025268898,-0.0150338737,0.0024477246,-0.0210265424
7.7120890617,0.0235747285,0.0082862191,-0.0099788411,-0.0064441133,0.0137147596,-0.0254228879
7.7220201492,0.0225197561,0.0064782319,-0.0104791624,-0.0188633204,0.0216160920,-0.0251020789
7.7318940163,0.0165674128,0.0062610325,0.0010923638,-0.0454517864,0.0126529578,-0.0232136305
7.7420659065,0.0070277043,0.0104343109,0.0043651359,-0.0453263521,0.0085863108,-0.0166556947
7.7517757416,0.0011108407,0.0067097363,-0.0000509724,-0.0205352530,0.0111578591,-0.0065066554
7.7617158890,-0.0019232741,0.0015466628,-0.0045762761,0.0071578934,0.0083700623,0.0057181856
7.7716431618,-0.0025004260,-0.0054046693,-0.0077274544,0.0359605141,0.0049004955,0.0052244356
7.7815289497,-0.0053152405,-0.0069236937,-0.0083742840,0.0601643845,-0.0029153493,-0.0024827856
7.7914290428,-0.0024200939,-0.0041196528,-0.0014571652,0.0690098032,-0.0124097848,-0.0119295502
7.8013629913,0.0000505485,0.0125900321,0.0063683284,0.0730432570,-0.0270875320,-0.0034621633
7.8112869263,0.0013814309,0.0173528008,0.0002286925,0.0689489096,-0.0315235555,0.0071473378
7.8211569786,0.0014208892,0.0064112362,-0.0097615225,0.0555175245,-0.0171054695,0.0190249700
7.8311243057,0.0010187068,-0.0154895373,-0.0119620664,0.0242887661,-0.0083194356,0.0121217901
7.8410530090,-0.0012792012,-0.0260903426,0.0033400550,-0.0252998248,-0.0140785212,-0.0026525622
7.8509831429,0.0025204159,-0.0161981173,0.0155912535,-0.0474820957,-0.0197526515,-0.0074204192
7.8609161377,0.0136864521,-0.0051204148,0.0115634697,-0.0444009043,-0.0190205500,-0.0167259052
7.8708291054,0.0197374560,0.0015585241,0.0019346967,-0.0298874751,-0.0122513268,-0.0156300142
7.8808298111,0.0226185359,0.0122628026,-0.0135546429,-0.0018157167,-0.0050426824,-0.0073609976
7.8908810616,0.0133795775,0.0170906596,-0.0098602874,0.0148490146,-0.0015768446,-0.0033028726
7.9005990028,-0.0024645887,0.0122798495,-0.0055514085,0.0394799709,0.0069985338,-0.0029287653
7.9105110168,-0.0105504356,0.0018464145,-0.0054801810,0.0501411371,0.0135571007,-0.0033380932
7.9204511642,-0.0143487118,0.0026313481,0.0055350554,0.0372858793,0.0045106090,0.0074529685
7.9303817749,-0.0093859993,0.0048688469,0.0005973473,0.0264742430,-0.0002173008,0.0213394891
7.9401350021,0.0013373533,-0.0075578275,-0.0111059649,-0.0092209028,-0.0050591938,0.0320876762
7.9502148628,0.0065507777,-0.0113970228,-0.0101630194,-0.0374637283,-0.0069524348,0.0397333428
7.9602241516,0.0073982812,-0.0118212290,-0.0132296784,-0.0444582514,-0.0084592514,0.0370976813
7.9700779915,0.0104507990,-0.0188884325,-0.0090323193,-0.0397258140,-0.0053566690,0.0178717878
7.9803509712,0.0147124864,-0.0155740567,0.0010803237,-0.0279631652,-0.0011478092,0.0007755253
7.9899301529,0.0217188634,-0.0008146348,0.0062836306,-0.0016295621,0.0037707831,-0.0074331360
7.9998688698,0.0211249180,0.0136984400,0.0163947828,0.0186980795,-0.0025872476,-0.0073122950
8.0098056793,0.0156354941,0.0216359906,0.0131441848,0.0387769826,-0.0083402079,-0.0038336744
8.0199413300,0.0059169568,0.0120672993,-0.0044702399,0.0390551947,-0.0140327150,-0.0043277238
8.0296239853,-0.0079138540,-0.0012378278,-0.0153407557,0.0302380025,-0.0158788171,-0.0055117654
8.0395774841,-0.0161530636,-0.0164475031,-0.0218528025,0.0126789808,-0.0130462795,-0.0074245473
8.0494756699,-0.0146401487,-0.0214793868,-0.0198769085,0.0045464858,-0.0074368645,-0.0068916492
8.0595855713,-0.0104272328,-0.0197028704,-0.0091500981,0.0034760730,-0.0020277174,-0.0021660693
8.0695276260,-0.0002267770,-0.0103385635,0.0000574484,0.0058108666,0.0018964502,0.0038793064
8.0792818069,0.0060610510,0.0001696762,0.0078227418,0.0124418708,0.0001795102,0.0096853636
8.0891799927,0.0081795193,0.0045924601,0.0123098986,0.0063168667,-0.0000942627,0.0083386032
8.0991172791,0.0127900578,-0.0011654082,0.0099583166,-0.0207493715,-0.0099961618,-0.0009521341
8.1090316772,0.0160639919,-0.0036657038,-0.0027119622,-0.0357115418,-0.0210935529,-0.0141142746
8.1190204620,0.0114554949,-0.0034178677,-0.0151639683,-0.0447821803,-0.0307943840,-0.0272420291
8.1288566589,0.0021580793,0.0027296958,-0.0198171847,-0.0343646929,-0.0311206225,-0.0296266247
8.1388788223,-0.0033342801,0.0112545900,-0.0266227238,0.0018924687,-0.0166069269,-0.0125488350
8.1489009857,-0.0056317411,0.0113693289,-0.0298624150,0.0355937071,-0.0004793557,0.0034674152
8.1586513519,-0.0085781775,0.0054193554,-0.0147717698,0.0628922582,0.0153930839,0.0140392985
8.1685991287,-0.0126203708,-0.0003069225,-0.0004748211,0.0766110048,0.0213116948,0.0142640695
8.1785640717,-0.0096634291,-0.0077316943,0.0098314779,0.0758231506,0.0244992319,0.0123946648
8.1884241104,-0.0012847445,-0.0153636523,0.0142763751,0.0366203561,0.0167675428,0.0004772844
8.1984214783,0.0070985295,-0.0093018599,0.0125551717,-0.0084192920,-0.0038149650,-0.0009109881
8.2082595825,0.0133326091,0.0000414070,0.0064600008,-0.0527598560,-0.0274350718,-0.0032412540
8.2182474136,0.0173417069,0.0057964739,-0.0124514205,-0.0795618221,-0.0406563357,-0.0043294216
8.2281169891,0.0193906762,0.0006803093,-0.0377592556,-0.0823608041,-0.0371478871,-0.0075944569
8.2380647659,0.0152924694,0.0001672324,-0.0380552523,-0.0726223290,-0.0182578191,-0.0029011017
8.2480125427,0.0096781589,0.0081274323,-0.0202604048,-0.0466165692,-0.0010178470,0.0024286825
8.2579011917,0.0057089664,0.0163274817,-0.0032845244,-0.0172268078,0.0162357073,0.0083403010
8.2678632736,0.0027361847,0.0260307007,0.0132270949,0.0100343730,0.0211060960,0.0277230535
8.2777824402,0.0038870014,0.0244394355,0.0151757495,0.0333254039,0.0267181769,0.0423894785
8.2877912521,-0.0002095512,0.0098427944,0.0063112276,0.0429388806,0.0242949650,0.0459181666
8.2976617813,-0.0035733841,-0.0095118470,-0.0003363595,0.0433060452,0.0159267820,0.0353707522
8.3074951172,-0.0050473474,-0.0219693966,0.0001067414,0.0431427881,0.0039835693,0.0130369514
8.3177003860,-0.0032537542,-0.0218191929,0.0032237067,0.0443858653,-0.0155714890,-0.0061043855
8.3276081085,-0.0003873668,-0.0124520250,0.0024690523,0.0514139496,-0.0263253339,-0.0123859830
8.3373775482,0.0049692877,-0.0003797594,-0.0032224164,0.0536044911,-0.0266015027,-0.0097389342
8.3472347260,0.0120569207,0.0064045605,-0.0109844310,0.0476531237,-0.0200786218,0.0063715922
8.3572301865,0.0177665688,-0.0000493112,-0.0149986250,0.0292179212,-0.0125480033,0.0198426265
8.3670883179,0.0171443559,-0.0128107853,0.0013537898,0.0149950441,-0.0115706231,0.0122001534
8.3770856857,0.0130471624,-0.0194685049,0.0104854601,0.0100177731,-0.0026876489,-0.0032972139
8.3869390488,0.0111340471,-0.0197177120,0.0175687559,-0.0028849756,-0.0155850714,-0.0218575820
8.3970670700,0.0118530728,-0.0145230480,0.0133237140,-0.0086584426,-0.0162287578,-0.0374343432
8.4067649841,0.0075449832,0.0025439677,-0.0004536614,0.0006538327,-0.0088523338,-0.0435708016
8.4167852402,0.0047106184,0.0156475119,-0.0088420017,0.0193138923,-0.0008018645,-0.0282820575
8.4266414642,0.0046866275,0.0216427855,-0.0123289330,0.0354561098,0.0054557649,-0.0066936756
8.4366283417,0.0033634044,0.0139373355,-0.0079671247,0.0416935906,0.0064200955,0.0087867463
8.4464902878,-0.0003494582,-0.0044741216,-0.0015723810,0.0268294215,0.0102039147,0.0125380754
8.4565563202,-0.0014991722,-0.0223759003,-0.0026012168,0.0066388431,0.0069862832,0.0053601237
8.4663419724,-0.0030236803,-0.0246859975,0.0034629598,-0.0194108672,0.0019502460,0.0081692263
8.4763250351,-0.0006267093,-0.0156643577,0.0092092650,-0.0239211079,-0.0072405888,0.0108243972
8.4861907959,0.0048158802,-0.0064076963,0.0031573072,-0.0049439552,-0.0120177669,0.0050008632
8.4961814880,0.0137509741,-0.0017511430,-0.0070281727,0.0084094899,-0.0282633174,-0.0004577513
8.5060319901,0.0134529360,0.0088406019,-0.0212314837,0.0402758121,-0.0280856844,-0.0094842697
8.5160484314,0.0028165914,0.0133768730,-0.0228906982,0.0616904646,-0.0161432698,-0.0262103528
8.5259265900,-0.0078604184,0.0177907757,-0.0007707581,0.0433577970,-0.0072139576,-0.0259562861
8.5358753204,-0.0042609237,0.0234718136,0.0162603743,0.0080851167,-0.0119333453,0.0036556341
8.5457153320,0.0049944110,0.0147458725,0.0116675990,-0.0421831124,-0.0135200564,0.0269918498
8.5556945801,0.0068510957,-0.0095566101,0.0011671677,-0.0844121426,-0.0081585804,0.0259123370
8.5658092499,0.0046215989,-0.0250184126,-0.0021039948,-0.1266512126,0.0002673946,0.0138484836
8.5755825043,0.0098171569,-0.0161234923,-0.0033407912,-0.1304963678,0.0001496829,0.0110750673
8.5854320526,0.0162472166,0.0021077809,-0.0111076934,-0.0965434685,0.0018578344,0.0134040024
8.5954265594,0.0205094554,0.0193609409,-0.0062866914,-0.0472005978,0.0015470434,0.0204557516
8.6052942276,0.0174152888,0.0341453366,-0.0068094837,-0.0016304501,-0.0050389539,0.0285341851
8.6152553558,0.0123472996,0.0337664299,-0.0127075417,0.0267143734,-0.0062336479,0.0410472453
8.6251153946,-0.0000872276,0.0119442157,-0.0173892491,0.0280811079,0.0017824669,0.0397683978
8.6350860596,-0.0034023486,-0.0163961239,-0.0136041148,-0.0037790881,0.0059295413,0.0276177917
8.6449699402,-0.0031120889,-0.0276401229,-0.0134924157,-0.0131973568,0.0028125776,0.0170343891
8.6549158096,-0.0014362297,-0.0173884220,-0.0050692661,0.0094239768,0.0009976333,-0.0007087875
8.6648330688,0.0109507032,-0.0018705311,-0.0039079892,0.0618443079,0.0019313376,-0.0097701931
8.6748209000,0.0230421759,0.0084754042,-0.0080298884,0.0924774110,0.0051015643,0.0040184897
8.6846723557,0.0243412592,0.0199466161,-0.0048557622,0.1023236513,0.0002186587,0.0253629256
8.6946697235,0.0126543678,0.0176307373,-0.0014563308,0.1004611179,-0.0059340424,0.0275967531
8.7045259476,0.0006141402,-0.0061634961,-0.0058071124,0.0653819591,-0.0050474759,0.0110766320
8.7145338058,-0.0081662200,-0.0249806829,-0.0086966259,0.0176701881,-0.0005070527,-0.0022694666
8.7245445251,-0.0119086169,-0.0266336985,0.0021596446,-0.0447604321,-0.0035385292,-0.0023890424
8.7343730927,-0.0140764676,-0.0097172447,0.0153342383,-0.0786183476,0.0009731322,0.0065347110
8.7442283630,-0.0096842013,-0.0015369239,0.0157338865,-0.0876536593,0.0057593654,0.0121513177
8.7542285919,-0.0015331766,-0.0001446191,0.0089238184,-0.0861148015,0.0063748220,0.0182310138
8.7640962601,0.0002366491,0.0023469743,0.0070150988,-0.0816303045,0.0049548247,0.0259086415
8.7740087509,-0.0000539086,-0.0048540416,0.0094144838,-0.0671411902,-0.0027891155,0.0176524762
8.7837820053,-0.0036324374,-0.0200492330,0.0079101222,-0.0480050519,-0.0103048217,-0.0007177424
8.7938995361,0.0021552779,-0.0263397284,0.0012987151,-0.0238560364,-0.0245189108,-0.0122968666
8.8039741516,0.0034981109,-0.0150154419,-0.0050730216,0.0048618931,-0.0364844948,-0.0170263760
8.8137760162,0.0045822896,-0.0008558217,-0.0175898783,0.0280479062,-0.0433812849,-0.0136267506
8.8238401413,0.0058817007,0.0075861630,-0.0266507976,0.0442034379,-0.0441812985,-0.0118877059
8.8335895538,0.0089083053,0.0123941712,-0.0250126831,0.0490857214,-0.0384539030,0.0026627742
8.8434886932,0.0111419596,0.0089387111,-0.0237329714,0.0480657332,-0.0344048329,0.0031613179
8.8534183502,0.0049777366,0.0011076746,-0.0159309618,0.0277662314,-0.0159461964,-0.0041495580
8.8635616302,-0.0010558030,0.0019668755,-0.0043231351,0.0159199610,-0.0000255532,-0.0051362598
8.8732662201,-0.0031497292,0.0039688763,0.0102166431,0.0081823226,0.0174865946,-0.0000044147
8.8832731247,0.0001105406,-0.0022281590,0.0189391859,0.0041202027,0.0222403370,0.0028001603
8.8931427002,0.0074360706,-0.0082692690,0.0166816600,-0.0038790447,0.0172889885,0.0035059976
8.9031219482,0.0124183036,-0.0107671209,0.0084650414,-0.0076972195,-0.0003368767,-0.0026877162
8.9129781723,0.0087177195,-0.0104534812,-0.0055943234,-0.0046714251,-0.0139695983,-0.0081517566
8.9229173660,0.0026361682,-0.0051737013,-0.0201622956,-0.0006806781,-0.0263647493,-0.0036520797
8.9328613281,-0.0005798749,-0.0015532556,-0.0309111588,0.0136733167,-0.0254709907,0.0034857243
8.9427509308,-0.0014811120,-0.0080560036,-0.0341932289,0.0129089896,-0.0187449120,-0.0050560986
8.9527044296,0.0010696688,-0.0070333662,-0.0224867575,0.0035130023,-0.0157549828,-0.0076596718
8.9626150131,0.0081696548,-0.0010045948,-0.0142318709,-0.0086163655,-0.0143381795,-0.0180705003
8.9727363586,0.0123894252,0.0064519462,-0.0028414831,-0.0227894410,-0.0056413608,-0.0247761738
8.9825916290,0.0164544024,0.0201325826,-0.0001275644,-0.0279027112,0.0052011670,-0.0131821008
8.9923982620,0.0175673403,0.0243662409,-0.0018649206,-0.0167947561,0.0183547866,0.0084381392
9.0023450851,0.0134751387,0.0156974606,-0.0055683362,-0.0027497765,0.0268302970,0.0126075838
9.0122585297,0.0004524328,0.0064267335,-0.0007369027,0.0032186338,0.0314524770,0.0123534519
9.0221729279,-0.0095654391,-0.0014977041,0.0043683546,0.0076477369,0.0301326159,0.0082441941
9.0321044922,-0.0120393001,-0.0105190463,0.0070623653,0.0086519262,0.0276952907,0.0116385259
9.0419502258,-0.0094293468,-0.0111312456,0.0024807944,0.0110916477,0.0165145416,0.0153903868
9.0518798828,-0.0066476278,-0.0136050172,-0.0001868710,0.0131840948,0.0156117296,0.0137234814
9.0618591309,0.0017992893,-0.0117430277,-0.0053016646,0.0100098727,0.0071093217,0.0131647503
9.0718107224,0.0086767562,-0.0105157681,-0.0080006821,0.0197621025,-0.0000700279,0.0057227463
9.0816898346,0.0067559816,-0.0093784519,0.0016505017,0.0153290043,-0.0097570093,-0.0074617648
9.0916423798,0.0060315318,-0.0035320702,0.0139827030,0.0031480601,-0.0303445756,-0.0129668862
9.1015605927,0.0130595751,-0.0045824233,0.0042472379,-0.0031207548,-0.0362775698,-0.0199358463
9.1115055084,0.0152038224,-0.0146036930,-0.0094488366,-0.0130894994,-0.0322215743,-0.0360715389
9.1214237213,0.0094799139,-0.0156153031,-0.0096402867,-0.0167867653,-0.0190937854,-0.0444695540
9.1313962936,0.0057578273,-0.0061367932,-0.0006361709,-0.0003316263,-0.0058171297,-0.0397273935
9.1412734985,0.0054313578,0.0027758894,0.0059785144,0.0256858598,-0.0010077269,-0.0270062722
9.1511669159,0.0037233569,0.0045562205,0.0098608034,0.0497574620,-0.0009390174,-0.0168891232
9.1611032486,-0.0022319369,0.0013405499,0.0071920054,0.0538209118,-0.0015893613,-0.0153218526
9.1710453033,-0.0102648400,-0.0083134957,-0.0003192530,0.0427083448,-0.0095181242,-0.0161096137
9.1810274124,-0.0160881393,-0.0199482031,-0.0024060116,0.0046967771,-0.0218336470,-0.0207839943
9.1909599304,-0.0106823109,-0.0256312676,-0.0101072891,-0.0174240619,-0.0378741324,-0.0267925858
9.2008800507,-0.0022734962,-0.0182380266,-0.0139445765,-0.0280340947,-0.0507561080,-0.0330552757
9.2108268738,0.0026015677,-0.0034147683,-0.0146125657,-0.0196077637,-0.0580486432,-0.0307376608
9.2208995819,0.0078439154,0.0105342679,-0.0262116902,0.0082883164,-0.0486892276,-0.0275386721
9.2305917740,0.0131506361,0.0129034333,-0.0268876068,0.0151385870,-0.0319925435,-0.0204475708
9.2404928207,0.0167348124,0.0167832188,-0.0132560236,0.0082463268,-0.0169576649,-0.0055967201
9.2504253387,0.0217599310,0.0162145905,-0.0066321599,0.0002747755,-0.0042469301,0.0015524025
9.2603273392,0.0171711035,0.0124641471,-0.0081778271,0.0044932226,0.0177675597,0.0058779088
9.2702798843,0.0072209872,0.0085232668,-0.0043795807,-0.0016648048,0.0444771983,0.0051102526
9.2802104950,0.0011495986,0.0036696610,0.0105211036,-0.0090398965,0.0600159466,0.0161905997
9.2901239395,0.0022196211,0.0020128307,0.0133258598,-0.0064354138,0.0609648302,0.0254739150
9.3001089096,0.0029011108,-0.0059070769,0.0144298570,-0.0179903377,0.0467371568,0.0220746566
9.3099927902,0.0007572808,-0.0103442855,0.0086715715,-0.0249236114,0.0292138252,0.0065983939
9.3199548721,0.0029119290,-0.0101877637,-0.0016386018,-0.0405680835,0.0056613609,-0.0138544161
9.3298416138,0.0085639395,-0.0048117819,-0.0114536388,-0.0730117783,-0.0084877471,-0.0159679353
9.3395748138,0.0201050229,0.0113721900,-0.0302818529,-0.0681440532,-0.0119248228,0.0051179091
9.3494911194,0.0202522166,0.0146994404,-0.0289537422,-0.0574557222,-0.0094986828,0.0076774731
9.3596658707,0.0108631589,0.0102203898,-0.0094280345,-0.0292017106,-0.0018021479,-0.0019816456
9.3695659637,0.0072173513,0.0075158295,0.0041055572,-0.0064336383,-0.0006700381,-0.0068059945
9.3795213699,0.0047655143,0.0081243925,0.0117455618,0.0305363648,-0.0043697017,-0.0129829301
9.3895921707,-0.0005953572,0.0097396784,0.0101178782,0.0770958811,-0.0042948667,-0.0159466304
9.3993577957,-0.0094263218,0.0132447891,0.0025663271,0.1100628823,-0.0048101884,-0.0091238776
9.4092445374,-0.0119451843,0.0081837587,-0.0085458262,0.1161444709,-0.0081641730,0.0006688656
9.4192295074,-0.0141843222,0.0021658954,-0.0152329905,0.0894782394,-0.0137181953,0.0074093263
9.4290904999,-0.0098571740,0.0024631438,-0.0160129778,0.0582566746,-0.0137110054,0.0219887681
9.4390907288,-0.0035905503,-0.0066420021,-0.0154851777,0.0121656125,-0.0077148983,0.0175367631
9.4489364624,0.0054669268,-0.0129413195,-0.0036180720,-0.0499281175,-0.0001352754,0.0193456821
9.4589300156,0.0178559460,-0.0040018740,0.0047084582,-0.0788146257,0.0075090621,0.0352173224
9.4689121246,0.0230556764,0.0018285927,0.0032412305,-0.0776294321,0.0213210154,0.0366688110
9.4787931442,0.0200321414,0.0020219502,0.0132950442,-0.0644174889,0.0314791091,0.0282039531
9.4886474609,0.0125290938,0.0069827256,0.0191684254,-0.0687958151,0.0240097418,0.0219969228
9.4986276627,0.0103403069,0.0165835433,0.0169678219,-0.0601341464,0.0086185345,0.0256249476
9.5084676743,0.0048356391,0.0147479586,0.0027376905,-0.0490977466,-0.0048956755,0.0136492793
9.5184869766,-0.0056816600,0.0032165465,-0.0128299696,-0.0435996503,-0.0078669647,0.0025737248
9.5283403397,-0.0098392926,-0.0011472884,-0.0164563172,-0.0466866083,-0.0130846296,0.0024918993
9.5383310318,-0.0111679547,-0.0008351984,-0.0116036637,-0.0390318856,-0.0106947087,0.0112156160
9.5483932495,-0.0053085051,0.0015979228,-0.0023090348,-0.0040530381,-0.0119727599,0.0325537957
9.5581216812,0.0011309126,0.0000663814,0.0099812048,0.0130069051,-0.0132105974,0.0424509011
9.5681304932,0.0057248659,-0.0052088681,0.0157396086,0.0218808241,-0.0267671514,0.0490555055
9.5779666901,0.0054931380,-0.0131235309,0.0138129489,0.0151946917,-0.0422355905,0.0439853780
9.5878000259,0.0085709579,-0.0219521709,0.0005106225,0.0013316069,-0.0535092838,0.0215868969
9.5978317261,0.0123988427,-0.0200355835,-0.0166770928,-0.0073321885,-0.0566480868,0.0063781170
9.6078176498,0.0125285722,-0.0006750408,-0.0281700604,0.0097975293,-0.0520290993,-0.0004628447
9.6176500320,0.0067653842,0.0173399262,-0.0266705863,0.0608463325,-0.0365422852,0.0020937901
9.6279420853,0.0026086308,0.0221649818,-0.0182240717,0.1123515964,-0.0119487923,0.0100233518
9.6374902725,0.0013385453,0.0127058439,-0.0107377274,0.1293185949,0.0067644422,0.0229631178
9.6474685669,0.0037915595,-0.0100053139,0.0013077154,0.1181039363,0.0224448666,0.0208237357
9.6573619843,0.0023821183,-0.0301150866,0.0136192339,0.0716432333,0.0246251971,0.0112824272
9.6674919128,-0.0004845969,-0.0288058706,0.0195646174,0.0246121623,0.0175899267,0.0075761066
9.6772432327,0.0012723842,-0.0200174637,0.0111200707,-0.0122332033,0.0032243023,0.0025946640
9.6871747971,0.0049423613,-0.0150053687,-0.0036424503,-0.0378626660,-0.0086278301,-0.0108307963
9.6970634460,0.0068191625,-0.0018497887,-0.0140437586,-0.0659622177,-0.0271860678,-0.0101394402
9.7071809769,0.0100125112,0.0094573312,-0.0155356629,-0.0815369040,-0.0366770402,0.0017106610
9.7169218063,0.0047547854,0.0113445930,-0.0171263330,-0.0758007243,-0.0292739868,0.0079155602
9.7268733978,0.0025280602,0.0006235060,-0.0174395554,-0.0770939589,-0.0253013484,0.0062696934
9.7367668152,-0.0022272281,-0.0042790356,-0.0130718453,-0.0716288835,-0.0133951548,0.0093962438
9.7467632294,-0.0061440282,-0.0037453952,-0.0099561317,-0.0515877120,-0.0009411480,0.0136923892
9.7566337585,-0.0060681961,-0.0015454474,-0.0063398583,-0.0129319280,0.0196333695,0.0219125003
9.7666225433,-0.0054040663,0.0004643020,-0.0092138750,0.0406054221,0.0376909338,0.0235154256
9.7764711380,0.0013996252,-0.0056193653,-0.0097888215,0.0890794843,0.0528810695,0.0100896312
9.7864398956,0.0071901567,-0.0068463865,0.0048640864,0.1045538709,0.0546683185,-0.0099728936
9.7965326309,0.0149110742,0.0029851613,0.0246209390,0.0868417174,0.0328301303,-0.0142723005
9.8063097000,0.0213550515,0.0109311752,0.0208951719,0.0418494716,0.0029563883,-0.0150428200
9.8161687851,0.0185382552,0.0025435505,0.0098374980,-0.0341270491,-0.0236379392,-0.0139961978
9.8261270523,0.0056026317,-0.0047980729,-0.0045665014,-0.1143368483,-0.0331400968,-0.0137825105
9.8360300064,-0.0084728263,-0.0121229477,-0.0173986070,-0.1724227816,-0.0349824727,-0.0074503133
9.8460168839,-0.0129478984,-0.0182826705,-0.0199950449,-0.1837785095,-0.0267184153,-0.0022203643
9.8558721542,-0.0073841177,-0.0151661821,-0.0092466576,-0.1509763598,-0.0162679050,-0.0056284121
9.8658647537,0.0024549998,-0.0041902247,0.0017445579,-0.0745091885,-0.0133996811,-0.0041483603
9.8759222031,0.0152418204,0.0067891297,0.0014261499,0.0052455659,-0.0012716462,0.0011414767
9.8857135773,0.0163131990,0.0161108188,0.0027012124,0.0779099166,-0.0011286344,0.0030446053
9.8955163956,0.0095184781,0.0200162344,-0.0124878390,0.1460109502,0.0033454762,-0.0023682697
9.9055385590,0.0001664647,0.0166788511,-0.0213587992,0.1851222962,0.0024048476,-0.0074768784
9.9154205322,-0.0100260042,0.0109198503,-0.0183609836,0.2054741830,0.0007084141,-0.0033495117
9.9254083633,-0.0097502135,-0.0044694128,-0.0120150549,0.1814669371,-0.0090107918,-0.0003368440
9.9352245331,-0.0048488937,-0.0185716935,-0.0044962871,0.1355335265,-0.0243279636,-0.0051632905
9.9452657700,0.0036047436,-0.0253527351,0.0033876195,0.0765367895,-0.0332018845,-0.0131182857
9.9553337097,0.0087152608,-0.0297361203,0.0036921396,0.0203659292,-0.0382384546,-0.0192835033
9.9651088715,0.0092622973,-0.0196090527,0.0078424709,-0.0093110073,-0.0278531890,-0.0149190826
9.9752016068,0.0100104250,-0.0081254430,0.0055470956,-0.0108649619,-0.0129360259,-0.0079756882
9.9850215912,0.0077613480,-0.0048449221,0.0066701663,-0.0082772560,0.0046006236,-0.0124205053
9.9948339462,0.0031653084,-0.0031802240,0.0150035517,-0.0206511021,0.0092478395,-0.0238111112
10.0047807693,-0.0021028928,-0.0009946409,0.0212144740,-0.0359988958,0.0132811982,-0.0263502356
10.0146570206,-0.0006602220,-0.0025603953,0.0163244493,-0.0585686564,0.0095415860,-0.0246178489
10.0246429443,0.0018035510,-0.0073294225,0.0122951763,-0.0962456390,-0.0000055794,-0.0202591531
10.0345211029,0.0059138872,-0.0107529350,0.0047839177,-0.1179309636,-0.0140164690,-0.0095162271
10.0445175171,0.0058817305,-0.0063131633,-0.0089101298,-0.1204683259,-0.0173946898,-0.0023461990
10.0543498993,0.0048500933,-0.0117732473,-0.0190850012,-0.1214497015,-0.0190125592,-0.0052338648
10.0642833710,0.0028709061,-0.0106979199,-0.0209302418,-0.1086626276,-0.0231910590,0.0009833185
10.0742540359,0.0016205945,0.0018234071,-0.0264669172,-0.0727608204,-0.0134478845,0.0071607865
10.0841255188,0.0046509244,0.0100154094,-0.0161345713,-0.0221834835,-0.0103642102,0.0052249352
10.0941390991,0.0036926307,0.0132177286,-0.0098490817,0.0367706455,0.0006500908,-0.0020441632
10.1040058136,0.0029657222,0.0102996044,-0.0050978172,0.0706697553,0.0033494709,-0.0125982035
10.1139926910,-0.0006182007,0.0142654590,0.0046977298,0.1058881953,-0.0022293190,-0.0138863754
10.1240348816,-0.0059104823,0.0120179467,0.0035791888,0.1203670055,-0.0114031099,-0.0210682862
10.1338376999,-0.0070847832,-0.0013828459,0.0025253787,0.0898051038,-0.0287341624,-0.0187984742
10.1436786652,-0.0030057691,-0.0047058645,-0.0053199041,0.0362025052,-0.0500506349,-0.0104579544
10.1535501480,-0.0040498339,-0.0079317875,-0.0207919590,-0.0096683139,-0.0627509877,-0.0052171191
