0.0000000000,0.0048411489,-0.0041238330,-0.0112431152,-0.0391116738,-0.0077428296,-0.0116287339
0.0098769665,0.0011006891,-0.0005067250,-0.0125017269,-0.0443855301,-0.0141831525,-0.0158778075
0.0199199915,-0.0026023686,-0.0008145830,-0.0098626716,-0.0443647578,-0.0163120832,-0.0169406757
0.0299969912,-0.0052827895,-0.0020694395,-0.0100751026,-0.0324852467,-0.0300035253,-0.0169495977
0.0400559902,-0.0079225004,-0.0022576114,-0.0120751960,-0.0132545894,-0.0319367796,-0.0137702487
0.0502170324,-0.0076510012,-0.0013487599,-0.0110008819,0.0049313381,-0.0359946415,-0.0095296977
0.0603009462,-0.0093788803,-0.0022645255,-0.0058803661,0.0230429918,-0.0326042362,-0.0021004763
0.0742160082,-0.0052886605,-0.0108465813,-0.0035204988,0.0422198810,-0.0292465221,-0.0010418699
0.0805169344,-0.0110427439,-0.0096031688,0.0027774472,0.0538756847,-0.0206568968,-0.0010396062
0.0905359983,-0.0139184296,-0.0034789105,0.0071115391,0.0526498333,-0.0047373185,0.0010922543
0.1006009579,-0.0139116943,-0.0012818238,0.0084301727,0.0429453775,0.0047151721,-0.0010253582
0.1104589701,-0.0139555037,-0.0040173791,0.0057616727,0.0321254879,0.0194829330,0.0000465640
0.1205530167,-0.0120791495,-0.0078301691,0.0019495387,0.0065128035,0.0192384552,-0.0031324513
0.1306649446,-0.0111655891,-0.0088527463,0.0037655730,-0.0223342925,0.0221351758,-0.0084326742
0.1410229206,-0.0052661002,-0.0091043971,-0.0004435282,-0.0520509854,0.0059224498,-0.0137401549
0.1509079933,0.0007298886,-0.0075493120,-0.0057543614,-0.0636636987,-0.0069398191,-0.0179908257
0.1610260010,0.0029188693,-0.0050632022,-0.0130130155,-0.0614034534,-0.0196596757,-0.0190600175
0.1711620092,0.0118676424,-0.0124698542,-0.0211552475,-0.0528131574,-0.0248901248,-0.0190648120
0.1812000275,0.0134723783,-0.0154691003,-0.0195181463,-0.0206808150,-0.0362819955,-0.0190781951
0.1912770271,0.0132414401,-0.0111486576,-0.0144652827,0.0081838574,-0.0413491912,-0.0212116539
0.2013299465,0.0142927468,-0.0079705380,-0.0125962002,0.0401820317,-0.0400067568,-0.0212209076
0.2113759518,0.0131026208,-0.0099416040,-0.0104091270,0.0721341074,-0.0333334096,-0.0169784911
0.2214670181,0.0103591383,-0.0037414690,-0.0119996769,0.0913024172,-0.0289225485,-0.0169802234
0.2315019369,0.0063884258,-0.0032058617,-0.0067261560,0.0997435749,-0.0192989502,-0.0169775598
0.2416030169,0.0007632970,-0.0046674274,-0.0022979479,0.0910785571,-0.0066485363,-0.0180307068
0.2517579794,-0.0020718873,-0.0060862564,0.0020981927,0.0602255687,-0.0140965991,0.0201981720
0.2616989613,-0.0038529932,-0.0030377170,0.0050133960,0.0262456015,-0.2255842090,0.3407646120
0.2717989683,-0.0786871314,-0.0076540969,0.0076751607,0.0116629303,-0.3595436215,0.4829824865
0.2818809748,-0.1857849061,-0.0251351856,-0.0045819385,-0.0074925218,-0.0683685541,0.0870820582
0.2919369936,-0.0893070102,-0.0202809833,-0.0162586067,-0.0533489585,0.0269118864,-0.0477071740
0.3019850254,0.0203141570,-0.0059556030,-0.0075416667,-0.0733059645,-0.0038883025,-0.0254203137
0.3120919466,-0.0059815347,-0.0034713408,-0.0042541130,-0.0637039393,-0.0038321102,-0.0296699200
0.3221390247,0.0051245987,0.0048643090,-0.0113656027,-0.0359278619,-0.0067936783,-0.0328637175
0.3322329521,-0.0043384433,0.0124190785,-0.0114940507,-0.0070589324,-0.0118054803,-0.0265027545
0.3422299623,-0.0000757278,0.0151714422,-0.0124429567,0.0207016729,-0.0126115540,-0.0243853424
0.3523219824,0.0005492567,0.0082020499,-0.0103992326,0.0484709889,-0.0144565925,-0.0190843195
0.3623520136,0.0055231750,0.0004470089,-0.0023920040,0.0580149293,-0.0079510882,-0.0105893016
0.3724390268,0.0105243921,-0.0025278588,0.0006934900,0.0558833331,-0.0079351086,-0.0052797580
0.3824919462,0.0051920712,-0.0064741634,0.0029295583,0.0420097038,-0.0080488268,-0.0042150263
0.3925719261,0.0048534870,-0.0042132400,0.0060336487,0.0228242911,-0.0103178397,-0.0010258907
0.4026399851,0.0033521950,-0.0029670259,0.0089375870,-0.0038510486,-0.0105732363,-0.0042030420
0.4127199650,0.0023193061,-0.0031253358,0.0067414539,-0.0230913237,-0.0075580059,-0.0041966503
0.4227689505,0.0061230361,-0.0072469376,0.0014924903,-0.0369874574,-0.0055777454,-0.0073777298
0.4328359365,0.0041143000,-0.0064738654,0.0031018157,-0.0316321068,-0.0076739197,-0.0105655333
0.4428739548,0.0069825649,-0.0056622885,0.0057530301,-0.0220756978,-0.0033655241,-0.0137524717
0.4530349970,0.0068922937,0.0001007059,0.0046019452,-0.0102536594,-0.0117717925,-0.0169450697
0.4630110264,0.0068943202,0.0010552147,0.0035956402,-0.0006277720,-0.0138242897,-0.0190716032
0.4731290340,0.0098639429,-0.0009239576,-0.0012540917,0.0154436063,-0.0200435705,-0.0180169921
0.4831819534,0.0099459589,-0.0028783341,-0.0041216118,0.0251046494,-0.0252375323,-0.0137743093
0.4932559729,0.0090568364,-0.0066577457,-0.0019570689,0.0400353968,-0.0240252633,-0.0105920993
0.5033019781,0.0089916587,-0.0063192509,0.0052852528,0.0485496558,-0.0217854790,-0.0042240140
0.5134179592,0.0060006678,-0.0030975600,0.0037071009,0.0516988449,-0.0164386481,-0.0020985454
0.5234320164,0.0038861632,0.0001205543,0.0040038722,0.0559934005,-0.0184966065,0.0021474652
0.5335339308,0.0037655830,-0.0015869400,0.0042630332,0.0527392849,-0.0132126287,0.0032127299
0.5435339212,0.0036575198,-0.0033328196,0.0005749364,0.0431243144,-0.0122425724,0.0021539901
0.5536489487,0.0064500570,-0.0050718449,0.0027240415,0.0206895806,-0.0103647774,-0.0052719684
0.5653629303,0.0112903118,-0.0030147692,0.0028548737,0.0026419247,-0.0201425720,-0.0158891939
0.5740460157,0.0142810047,0.0037453512,-0.0000838737,-0.0154710319,-0.0235325098,-0.0233188793
0.5845370293,0.0134154558,0.0016160944,-0.0031923156,-0.0218392611,-0.0278651416,-0.0286303535
0.5944809914,0.0107045770,-0.0025109311,-0.0053192480,-0.0207950361,-0.0257545859,-0.0318149626
0.6046129465,0.0070632398,-0.0008477828,-0.0045421226,-0.0165582411,-0.0225486066,-0.0339375697
0.6144880056,0.0043321252,0.0018827656,-0.0027301412,-0.0070579471,-0.0118200621,-0.0286256280
0.6240749359,0.0035104454,0.0017980674,0.0001771350,-0.0017717583,-0.0064413422,-0.0243764874
0.6340399981,0.0025055707,-0.0001355073,0.0021269221,0.0077503738,0.0021721194,-0.0180038083
0.6440570354,0.0032972693,-0.0019988080,0.0030746956,0.0130056152,0.0107619455,-0.0095062610
0.6541839838,0.0059892237,0.0010094383,0.0069191353,0.0108505860,0.0128722349,-0.0084428610
0.6641700268,0.0048017800,-0.0008430145,-0.0008788805,0.0087283393,0.0118276756,-0.0031343154
0.6743609905,0.0065449476,-0.0026530286,-0.0047315462,0.0076723960,0.0107642766,-0.0020727795
0.6843140125,0.0083476007,-0.0006248018,-0.0086155636,0.0054978980,0.0150030302,0.0000539544
0.6944299936,0.0043207705,0.0003640392,-0.0067370040,0.0012613414,0.0117827356,0.0000534218
0.7044529915,0.0003451704,0.0032345990,-0.0039392216,-0.0039820755,0.0021670596,-0.0031361796
0.7145669460,0.0003439783,0.0070636608,-0.0001469355,-0.0071323281,-0.0031936173,-0.0073852530
0.7245739698,-0.0005551876,0.0059774257,-0.0022097330,-0.0134699056,-0.0096587073,-0.0137560675
0.7346949577,0.0024852157,0.0009173491,-0.0072429874,-0.0154768648,-0.0224163122,-0.0148237282
0.7447199821,0.0065862536,-0.0011542699,-0.0101790531,-0.0133248176,-0.0245255381,-0.0158881936
0.7548359632,0.0038003922,-0.0011881849,-0.0091498001,-0.0036998875,-0.0265705790,-0.0169534571
0.7648669481,0.0019517242,-0.0001431367,-0.0031583409,0.0090268273,-0.0179374106,-0.0116420500
0.7749450207,0.0010749100,0.0048383810,0.0009558697,0.0249394812,-0.0082277907,-0.0084558446
0.7852430344,-0.0027731657,0.0040307976,0.0051022666,0.0440726690,-0.0005829872,-0.0010258242
0.7950979471,-0.0027894676,-0.0016162655,0.0044073956,0.0482687429,0.0069090175,0.0032240483
0.8051259518,-0.0047930479,-0.0004130265,0.0066437619,0.0471490473,0.0122186951,0.0053504491
0.8152309656,-0.0029522777,-0.0049847029,0.0050197141,0.0396791473,0.0121534476,0.0053523132
0.8254839182,0.0027697682,-0.0037686487,0.0033450027,0.0183900744,0.0066476949,0.0032318379
0.8353979588,0.0086023510,0.0001871326,-0.0024281840,-0.0039029811,-0.0052260086,0.0021697693
0.8456109762,0.0037292540,-0.0027994176,-0.0034666162,-0.0134723298,-0.0085081551,0.0000483618
0.8556460142,0.0067200661,-0.0058519505,-0.0026359062,-0.0134707317,-0.0084873829,0.0032337690
0.8659199476,0.0057958066,-0.0050292276,-0.0018421512,-0.0102636470,-0.0095399972,0.0000458318
0.8757419586,-0.0000052155,-0.0070528649,0.0000283022,-0.0048640883,-0.0158594102,0.0000413044
0.8858259916,0.0000897943,-0.0032181998,0.0009791751,0.0079441993,-0.0157343093,0.0021623126
0.8958690166,0.0069776773,-0.0060512684,0.0040702717,0.0164508689,-0.0124559579,0.0053471867
0.9062179327,0.0138260126,-0.0049665831,0.0013317962,0.0207916070,-0.0198662039,0.0021567198
0.9160169363,0.0099129081,-0.0028772613,-0.0023598175,0.0282173008,-0.0155777149,-0.0010284209
0.9261219501,0.0099423230,0.0002279022,-0.0011304121,0.0270862281,-0.0092138927,0.0000366438
0.9361770153,0.0020334423,-0.0034600159,-0.0009188752,0.0259344094,-0.0007282626,0.0011029736
0.9464719296,-0.0020382106,-0.0081169866,0.0041252272,0.0236942656,0.0098913591,0.0053555090
0.9563039541,-0.0012015403,-0.0069809221,0.0081327455,0.0151274102,0.0130274966,0.0096064471
0.9665869474,-0.0013515056,-0.0049941204,0.0061397450,-0.0062349234,0.0149483029,0.0074901660
0.9764230251,-0.0015429558,-0.0050267242,0.0040122168,-0.0136638116,0.0106182694,0.0043044928
0.9866559505,0.0021122396,-0.0060232542,0.0018639464,-0.0168910567,0.0126854796,0.0000582821
0.9966059923,0.0049552023,-0.0032021662,-0.0022434096,-0.0274808500,0.0040557734,-0.0073759318
1.0065989494,0.0069252253,0.0043819882,-0.0054175956,-0.0294962227,-0.0076914299,-0.0158735458
1.0167289972,0.0080963075,0.0032238106,-0.0084355576,-0.0134173902,-0.0150132580,-0.0211902801
1.0269799232,0.0122865140,0.0041005351,-0.0093422038,0.0080263577,-0.0254491884,-0.0233260691
1.0368670225,0.0057561994,-0.0008367560,-0.0140798194,0.0144584244,-0.0286108926,-0.0286382772
1.0468989611,0.0060688853,-0.0037507077,-0.0109329326,0.0230207257,-0.0306241773,-0.0233319942
1.0569540262,0.0034083426,-0.0065855049,-0.0028433900,0.0272706002,-0.0284302644,-0.0180229824
1.0672539473,-0.0042638779,-0.0035125276,0.0052268403,0.0324825123,-0.0156032816,-0.0105851749
1.0770959854,-0.0062316954,-0.0072068237,0.0113263028,0.0260120966,-0.0081421696,0.0032235822
1.0871679783,-0.0082666576,-0.0099737309,0.0134017365,0.0109772459,0.0013045286,0.0074788476
1.0972459316,-0.0094096661,-0.0127963088,0.0134255784,0.0022926778,0.0161047801,0.0106738415
1.1075170040,-0.0087070763,-0.0117825530,0.0113477604,-0.0127207590,0.0234009773,0.0106816310
1.1174169779,-0.0069641471,-0.0079202913,0.0092124837,-0.0276845284,0.0253578648,0.0053774137
1.1274549961,-0.0051836669,-0.0041558407,0.0030760069,-0.0404714048,0.0230822619,-0.0009910701
1.1375659704,-0.0013693274,-0.0053538345,-0.0002120833,-0.0489162877,0.0134101938,-0.0084263496
1.1478279829,-0.0003170372,-0.0037660261,-0.0045453412,-0.0445825793,0.0070383139,-0.0147998258
1.1577669382,0.0037398636,-0.0040930770,-0.0048924787,-0.0327509530,-0.0024428056,-0.0201165602
1.1678730249,0.0049318373,-0.0053270124,-0.0070366962,-0.0188094098,-0.0097679626,-0.0233106241
1.1777750254,0.0032363832,-0.0054970644,-0.0099974973,0.0036647385,-0.0159313157,-0.0222576112
1.1880649328,0.0024862289,-0.0074168704,-0.0059270365,0.0271887872,-0.0199078806,-0.0127094453
1.1978909969,0.0036607385,-0.0072764419,-0.0017007689,0.0431429856,-0.0144561259,-0.0116489744
1.2079379559,-0.0030637681,-0.0041410588,0.0015860100,0.0484836362,-0.0143543920,-0.0031556208
1.2180190086,-0.0020653307,-0.0087379478,0.0029639502,0.0409301110,-0.0059108408,0.0000359116
1.2283389568,-0.0040193200,-0.0085553192,0.0041814940,0.0226939302,0.0034936469,0.0021687706
1.2381589413,-0.0041130185,-0.0113525651,0.0062254565,0.0012549507,0.0128493309,0.0011170884
1.2482169867,-0.0023032725,-0.0123014711,0.0110176103,-0.0169088189,0.0148062222,0.0000606123
1.2582939863,-0.0014152230,-0.0114221238,0.0069365399,-0.0307719056,0.0136101972,-0.0020600627
1.2686269283,-0.0004760326,-0.0077459477,0.0007951756,-0.0425237417,0.0145127419,-0.0105504869
1.2784229517,0.0005215405,-0.0080302618,-0.0015539031,-0.0531662628,0.0111949760,-0.0169202350
1.2885040045,0.0055081546,-0.0025741716,-0.0029652219,-0.0552857183,0.0089997323,-0.0254159849
1.2985680103,0.0027683675,0.0028801302,-0.0053354604,-0.0456426777,0.0047911387,-0.0328531303
1.3088389635,0.0020294785,0.0025582055,-0.0046454174,-0.0274793599,0.0028059520,-0.0360432640
1.3188059330,0.0042525232,0.0003756621,-0.0038037996,-0.0146333352,-0.0013539055,-0.0402957983
1.3287589550,0.0055508912,-0.0007944367,-0.0077248318,0.0036031920,-0.0107514020,-0.0413669236
1.3388220072,0.0068582892,-0.0009072683,-0.0086214645,0.0057592872,-0.0128478426,-0.0403067172
1.3491129875,0.0062167048,0.0000026563,-0.0074968440,0.0132854078,-0.0180317517,-0.0318172947
1.3589739799,0.0064581633,0.0010037759,-0.0063263876,0.0196066871,-0.0094393287,-0.0243820138
1.3690159321,0.0036695600,0.0001125076,-0.0061040027,0.0249036085,-0.0050931834,-0.0158869289
1.3790860176,0.0018197893,-0.0008117220,-0.0059598191,0.0142232673,-0.0041046180,-0.0126983263
1.3893849850,-0.0010751189,0.0011974910,-0.0000372033,0.0120111126,0.0043977234,-0.0073828567
1.3992909193,-0.0030893981,0.0022236446,0.0048457882,0.0044250982,0.0160173625,-0.0052515287
1.4092890024,-0.0012263061,0.0002835729,0.0008972783,-0.0083822049,0.0159274787,-0.0020641242
1.4194120169,0.0006314217,0.0011871794,-0.0040947897,-0.0158521049,0.0158622321,-0.0020622599
1.4296629429,0.0015082358,0.0040496923,-0.0033003192,-0.0169074349,0.0147843845,-0.0031237293
1.4395660162,0.0043631196,0.0029828886,-0.0044431789,-0.0169106312,0.0147428382,-0.0094945431
1.4496389627,0.0043402612,0.0057943799,-0.0046053035,-0.0137312962,0.0168930758,-0.0094945431
1.4596430063,0.0053721070,0.0095633604,-0.0057038767,-0.0105139306,0.0147297904,-0.0201144312
1.4699429274,0.0035033524,0.0152712800,-0.0097354753,-0.0061792377,0.0084429318,-0.0137482109
1.4798139334,0.0065205395,0.0112606026,-0.0127302511,-0.0019330932,0.0105883749,-0.0158718154
1.4898380041,0.0006941258,0.0043897964,-0.0079463227,-0.0040429821,0.0084750894,-0.0116248056
1.4999029636,-0.0032013357,0.0053106286,-0.0070560081,-0.0072955014,0.0137798395,-0.0073741339
1.5103119612,-0.0012852849,0.0052661635,-0.0032501321,-0.0061922325,0.0106331157,-0.0031280573
1.5201169252,-0.0023315251,-0.0005684159,-0.0013554196,0.0002339743,0.0085947318,0.0011164891
1.5301849842,-0.0014664830,-0.0005254409,0.0025204320,0.0033961590,0.0129010631,0.0064270985
1.5402079821,-0.0006326140,0.0024432281,0.0005298753,0.0044552982,0.0140060093,0.0117363762
1.5506449938,0.0001764594,0.0025074224,-0.0004769664,0.0076117823,0.0182930343,0.0138601139
1.5603139400,0.0029345155,-0.0003199241,-0.0053196652,0.0087002162,0.0161803477,0.0138587821
1.5703959465,0.0037309825,-0.0011974833,-0.0043182475,0.0086919609,0.0172476098,0.0149217835
1.5804690123,0.0045476854,0.0018219688,-0.0013924341,0.0097484365,0.0183179323,0.0149220498
1.5907269716,0.0063219368,0.0028677324,-0.0004475217,0.0033523226,0.0171739720,0.0106752394
1.6006429195,0.0091150403,-0.0009787342,-0.0024172168,0.0001615891,0.0160850063,0.0106755057
1.6106629372,0.0040438175,-0.0009973905,-0.0045161350,-0.0105368067,0.0191730745,0.0106814988
1.6207029819,0.0048768818,-0.0020223518,-0.0037341218,-0.0158325024,0.0148478337,0.0053716879
1.6310459375,0.0008470117,-0.0040409826,-0.0010129313,-0.0136993369,0.0148597509,0.0043091532
1.6408599615,-0.0011762084,-0.0012004635,-0.0031155448,-0.0168288201,0.0073701437,-0.0010027878
1.6509490013,0.0017679034,0.0016346910,-0.0081071956,-0.0125352712,0.0041842046,-0.0073775966
1.6610289812,-0.0011382998,0.0015325883,-0.0072473390,-0.0082470486,0.0020787092,-0.0105651338
1.6713269949,-0.0040505826,-0.0023607274,0.0005230207,0.0120421909,0.0012007981,-0.0095079923
1.6810439825,-0.0021231472,-0.0032636186,0.0025619168,0.0172835588,0.0108172055,-0.0063191233
1.6912139654,-0.0011566879,-0.0051045083,0.0007430215,0.0173358619,0.0055196462,-0.0052605169
1.7013019323,0.0007722973,-0.0050140880,-0.0010624032,0.0205170084,0.0076834648,-0.0031366460
1.7115869522,0.0007530152,-0.0029552241,0.0000500579,0.0215647221,0.0098070027,-0.0041967835
1.7214349508,0.0026494861,-0.0028487702,0.0001597304,0.0204145052,0.0183134060,0.0000549530
1.7315000296,-0.0003862680,-0.0056695603,0.0041172998,0.0107647786,0.0224674717,-0.0010031875
1.7415579557,-0.0063731074,-0.0075868033,0.0088956254,-0.0053161867,0.0297616031,0.0000663381
1.7518680096,-0.0006521047,-0.0086667798,0.0077023404,-0.0267547127,0.0390957817,-0.0041700187
1.7617119551,-0.0007980765,-0.0069284104,0.0082678692,-0.0395320281,0.0357524492,-0.0116010373
1.7717360258,0.0000865458,-0.0043198727,0.0067785876,-0.0576837845,0.0366336256,-0.0147807859
1.7817800045,0.0029833317,-0.0057101510,0.0032734771,-0.0640503466,0.0322505906,-0.0275229458
1.7920819521,0.0011259316,-0.0091157816,-0.0031899314,-0.0682181343,0.0215626620,-0.0338989533
1.8019289970,0.0002923011,-0.0095724128,-0.0017991166,-0.0596273094,0.0163391382,-0.0328419469
1.8119989634,0.0014730691,-0.0080223940,-0.0012492638,-0.0403151326,0.0058622621,-0.0381610766
1.8220520020,-0.0011751653,-0.0073717497,-0.0015136104,-0.0242123269,-0.0035469523,-0.0381698646
1.8323299885,-0.0009082557,-0.0046778582,0.0012803574,-0.0082148518,-0.0023181033,-0.0339264497
1.8421939611,-0.0006830097,-0.0057518147,0.0042247670,0.0110057145,-0.0031905547,-0.0307463706
1.8522329330,-0.0014475287,-0.0086673759,0.0024137993,0.0248948745,-0.0040968945,-0.0254402198
1.8623239994,-0.0003066064,-0.0115281604,-0.0022198658,0.0291644540,-0.0040457621,-0.0233176798
1.8726339340,0.0037799776,-0.0153120421,-0.0009542804,0.0302111804,-0.0019076429,-0.0222549476
1.8824440241,-0.0000037254,-0.0083772801,0.0041616457,0.0312692560,-0.0008165461,-0.0190692730
1.8925290108,0.0020653307,-0.0034302135,0.0053210156,0.0216404907,0.0012085213,-0.0211902149
1.9025599957,-0.0016987921,-0.0053626560,0.0025243659,0.0151727367,0.0075047668,-0.0233090259
1.9129079580,-0.0005974771,-0.0044290684,0.0025755663,0.0066226311,0.0084920675,-0.0233072266
1.9226689339,-0.0004683138,-0.0006063840,0.0025565524,0.0076775094,0.0095416196,-0.0264923684
1.9327819347,-0.0042361021,-0.0006910226,0.0005832810,-0.0008678548,0.0105058830,-0.0296737142
1.9428099394,-0.0031053722,0.0021148066,0.0024781127,-0.0061944434,0.0093775019,-0.0328583233
1.9531669617,-0.0029404461,0.0000429490,0.0014452238,-0.0093548438,0.0050918758,-0.0349834561
1.9629299641,0.0022299290,-0.0031017323,-0.0073969467,-0.0135615719,-0.0013391252,-0.0392327979
1.9730739594,0.0015678703,-0.0043066405,-0.0074951751,-0.0102952868,-0.0076917624,-0.0413596667
1.9830650091,-0.0000802280,-0.0025281569,-0.0007181864,-0.0028882362,-0.0012466465,-0.0392347276
1.9934269190,0.0041469038,0.0002340415,0.0002620120,0.0024791788,-0.0043829847,-0.0392377265
2.0032138824,0.0024942458,0.0010702946,-0.0026290517,0.0099277738,-0.0021957308,-0.0392385237
2.0135850906,-0.0001798571,0.0039275624,-0.0005989175,0.0204918422,0.0085433330,-0.0339280441
2.0235900879,0.0029570162,0.0009818414,0.0004981060,0.0236618035,0.0117612304,-0.0328654461
2.0336470604,0.0041015446,0.0009824970,-0.0003672342,0.0214444809,0.0202511884,-0.0296750460
2.0434808731,0.0032359362,-0.0019569655,-0.0022541385,0.0065680635,0.0137477480,-0.0307363160
2.0535910130,0.0073073804,0.0008808115,-0.0002980928,-0.0072510531,0.0082929963,-0.0349818617
2.0635991096,0.0026123822,0.0036003331,-0.0043411357,-0.0126170563,0.0114501733,-0.0317935273
2.0740098953,0.0027460158,-0.0004825256,0.0003526111,-0.0179984514,0.0156415887,-0.0328527987
2.0837650299,0.0009430646,-0.0016490481,0.0030922790,-0.0136883911,0.0114210118,-0.0349795967
2.0938711166,-0.0017493666,0.0010610559,0.0009910960,-0.0104018394,0.0029751959,-0.0328614525
2.1038680077,0.0014277695,0.0057288148,-0.0049284799,-0.0049820393,-0.0054800743,-0.0349906497
2.1142220497,0.0046605170,0.0055799223,-0.0078271730,0.0046885908,-0.0117488895,-0.0328721032
2.1240069866,0.0059358776,0.0025905112,-0.0086808903,0.0089784106,-0.0138336122,-0.0328742340
2.1341359615,0.0052526891,0.0045299269,-0.0075281961,0.0250521600,-0.0200395081,-0.0296955518
2.1441519260,0.0006677209,0.0016857722,-0.0072177746,0.0399498828,-0.0156580769,-0.0286353473
2.1544649601,-0.0020090938,0.0018387177,-0.0019604664,0.0474510752,-0.0187471434,-0.0243925992
2.1643109322,-0.0018012227,0.0000670889,0.0013671417,0.0484345779,-0.0102290232,-0.0212031975
2.1743540764,-0.0016027392,0.0011939743,0.0036619802,0.0429939292,0.0003267487,-0.0222576093
2.1844811440,-0.0024784505,0.0052222945,0.0068447487,0.0374787897,0.0183379743,-0.0190618169
2.1947169304,-0.0054536760,0.0034064392,0.0118540423,0.0245580375,0.0299177971,-0.0158672202
2.2045798302,-0.0045414567,-0.0004478357,0.0099115865,0.0042192088,0.0361136422,-0.0147971623
2.2146599293,-0.0046550930,-0.0005504749,0.0067759650,-0.0171669070,0.0401715674,-0.0147900395
2.2247259617,-0.0017938317,0.0011573770,0.0005692740,-0.0427455008,0.0367717743,-0.0137234433
2.2349669933,-0.0018533767,-0.0001498124,-0.0009229283,-0.0554771721,0.0292189158,-0.0158474483
2.2448811531,0.0040099919,-0.0005288980,-0.0014480453,-0.0585725680,0.0185739957,-0.0169137754
2.2549138069,0.0080129206,0.0039509870,-0.0068026884,-0.0520428941,0.0058982149,-0.0169220995
2.2649989128,0.0111068189,0.0065062977,-0.0140062673,-0.0391207039,-0.0056678937,-0.0179929566
2.2752528191,0.0093406737,0.0091831423,-0.0142180426,-0.0123178754,-0.0171014424,-0.0169412084
2.2851309776,0.0105318427,0.0081559159,-0.0102527840,0.0144077446,-0.0210501123,-0.0073937746
2.2952051163,0.0057782829,0.0121695735,-0.0070886714,0.0421519727,-0.0207575634,0.0000301857
2.3052530289,0.0029116273,0.0085797645,-0.0017280679,0.0613309927,-0.0173721537,0.0053360015
2.3155369759,0.0009903609,0.0060591437,0.0037164588,0.0687592626,-0.0130276717,0.0106446808
2.3253729343,-0.0010249914,0.0045366026,0.0052283900,0.0675989240,-0.0034533422,0.0159587525
2.3354930878,-0.0031361580,-0.0037970205,0.0096121924,0.0525972359,0.0027885751,0.0170280114
2.3454918861,-0.0033572316,-0.0083493851,0.0108922618,0.0332829244,0.0132377539,0.0180999320
2.3558521271,-0.0025999844,-0.0052445196,0.0109965699,0.0076441942,0.0161884017,0.0170478523
2.3656349182,-0.0008653702,0.0006174782,0.0099112885,-0.0116221774,0.0212633237,0.0074990876
2.3756990433,0.0019752979,0.0014673212,0.0038224359,-0.0276200548,0.0189418439,-0.0020568669
2.3857710361,0.0048849583,0.0050968863,0.0005309482,-0.0478353128,0.0123502556,-0.0094876187
2.3960459232,0.0059284568,0.0066997744,-0.0018535357,-0.0509193800,0.0006156354,-0.0148006920
2.4059309959,0.0041354597,0.0102124549,-0.0071528060,-0.0455549769,-0.0025623147,-0.0211744346
2.4159629345,0.0033405125,0.0099146701,-0.0084262593,-0.0305500105,-0.0087840585,-0.0190576874
2.4260258675,0.0035257339,0.0058149435,-0.0076165302,-0.0208893940,-0.0139636407,-0.0126919337
2.4363818169,-0.0002273024,0.0027858953,-0.0076603992,0.0015547164,-0.0169090964,-0.0063285776
2.4469499588,-0.0021270812,-0.0029741784,-0.0007028680,0.0249937288,-0.0123977009,0.0032239151
2.4562568665,-0.0051211417,-0.0046574734,0.0083531635,0.0484474413,-0.0089345267,0.0149005447
2.4663658142,-0.0091302693,-0.0033536216,0.0097319977,0.0580217727,-0.0056399303,0.0191469565
2.4765911102,-0.0073169768,-0.0020208617,0.0091655748,0.0504861176,0.0006543844,0.0180897452
2.4865000248,-0.0005771221,-0.0036961099,0.0065885680,0.0323870108,-0.0037550116,0.0170303397
2.4965050220,0.0022639632,-0.0093764924,-0.0000352960,0.0163560323,-0.0017860704,0.0149111971
2.5065920353,0.0031807125,-0.0083287023,0.0000237126,-0.0039231395,-0.0020116400,0.0074836412
2.5168499947,0.0051189959,-0.0064212941,0.0019010801,-0.0188719146,-0.0011315318,0.0000572169
2.5267610550,0.0051343739,-0.0055804513,0.0007414718,-0.0274105407,-0.0012268729,-0.0031260594
2.5367598534,0.0051973760,-0.0047953986,0.0024659534,-0.0295429081,-0.0023531900,-0.0105604734
2.5468499660,0.0063108802,-0.0030837317,-0.0026161771,-0.0242179185,-0.0012455813,-0.0105612725
2.5571029186,0.0044982135,-0.0003708861,-0.0067150695,-0.0199149679,-0.0044064210,-0.0126862749
2.5670361519,0.0006899833,0.0033858756,-0.0048884852,-0.0060742553,-0.0011022368,-0.0126881395
2.5770359039,0.0017364024,0.0023929218,-0.0029307704,0.0035212468,0.0000561716,-0.0105660660
2.5871629715,0.0007642208,-0.0014620683,-0.0028652053,0.0141509883,0.0044072443,-0.0084429942
2.5973899364,-0.0021679997,-0.0003995559,-0.0017825465,0.0248243790,0.0045352755,-0.0031368455
2.6073019505,-0.0041850209,-0.0012273452,0.0012882848,0.0237386078,0.0066825827,0.0021734978
2.6172990799,-0.0023229420,-0.0030522605,-0.0005421739,0.0141139971,0.0087417383,0.0053621000
2.6274318695,-0.0024534464,-0.0010297558,-0.0024673443,0.0023553418,0.0107750613,0.0074896999
2.6376509666,-0.0055279732,-0.0019775887,-0.0035065513,-0.0062375860,0.0160135664,0.0085551646
2.6475710869,-0.0076289177,-0.0049128793,-0.0016998153,-0.0158342868,0.0148271285,0.0021862143
2.6575651169,-0.0057608187,-0.0040365122,-0.0009275775,-0.0233054124,0.0147409756,-0.0009971953
2.6677010059,-0.0038620234,-0.0003216526,-0.0031612020,-0.0350118689,0.0114554334,-0.0009958637
2.6779398918,0.0010188817,-0.0034557839,-0.0034623246,-0.0391937792,0.0029082841,-0.0041834014
2.6876089573,0.0020795763,-0.0036927124,-0.0056907041,-0.0348528251,-0.0045091524,-0.0084354049
2.6977028847,0.0051332414,-0.0010016820,-0.0107790930,-0.0294868220,-0.0076663299,-0.0116237411
2.7091341019,0.0023750663,-0.0002240798,-0.0138496859,-0.0187527128,-0.0139458627,-0.0126916012
2.7181780338,0.0005843936,-0.0002950690,-0.0089938743,0.0015112534,-0.0126861222,-0.0095115881
2.7280869484,0.0036145747,-0.0002182386,-0.0010100703,0.0238820724,-0.0081978962,-0.0020824333
2.7380909920,0.0006991028,0.0019174555,0.0031272073,0.0355822705,-0.0038315775,0.0011031732
2.7482299805,0.0016833245,0.0001889208,0.0015063186,0.0462136120,0.0005402678,0.0064116521
2.7584581375,0.0035747290,-0.0053818487,-0.0049252016,0.0451265872,0.0026737927,0.0095983241
2.7682948112,0.0034933388,-0.0031709929,-0.0085095270,0.0429598391,0.0058312365,0.0085386522
2.7783589363,0.0023968220,-0.0029368063,-0.0063114269,0.0291165169,0.0025279848,0.0085395845
2.7884578705,-0.0006268324,-0.0037359258,-0.0012681584,0.0173557308,0.0045336112,0.0064199748
2.7987220287,-0.0016564132,-0.0007231495,-0.0002259712,0.0066742967,0.0054656509,0.0011152907
2.8086071014,0.0002607106,-0.0016586444,-0.0021311145,0.0088181412,0.0044094413,-0.0010093793
2.8186321259,0.0012784599,-0.0045756362,-0.0050087078,0.0078325048,-0.0041363761,-0.0084459903
2.8286969662,0.0013973712,-0.0016508958,-0.0058855517,0.0153636588,-0.0104717705,-0.0137600619
2.8390498161,0.0005989372,-0.0025695821,-0.0076286895,0.0228820555,-0.0157311819,-0.0169511270
2.8488340378,0.0008445381,-0.0015192888,-0.0083029373,0.0336034074,-0.0209845304,-0.0233272668
2.8589000702,-0.0008060933,-0.0043127201,-0.0088913543,0.0400608033,-0.0262483358,-0.0254542697
2.8689589500,0.0014785825,-0.0070799850,-0.0026080708,0.0453852601,-0.0251476504,-0.0265168697
2.8793079853,0.0017521976,-0.0069096349,0.0046494501,0.0538159236,-0.0144559927,-0.0254520047
2.8891148567,-0.0029270351,-0.0027907749,0.0109360116,0.0600706227,0.0004678299,-0.0233225413
2.8991839886,-0.0057702959,-0.0005775354,0.0162081625,0.0567475334,0.0132266358,-0.0148202656
2.9092340469,-0.0077537894,-0.0013166330,0.0155579345,0.0480853356,0.0259187277,-0.0095027322
2.9195859432,-0.0049385130,-0.0040677451,0.0118284719,0.0234370586,0.0363705009,-0.0009975947
2.9293670654,-0.0031338632,-0.0001392624,0.0059323804,-0.0042773942,0.0329312980,-0.0031158729
2.9394288063,-0.0003226102,0.0026669840,0.0037681956,-0.0255766362,0.0285077188,-0.0020508082
2.9495658875,-0.0014180542,0.0005652645,-0.0004332166,-0.0329506658,0.0188934412,-0.0020537376
2.9598608017,0.0014458596,0.0003497937,-0.0056274040,-0.0371434651,0.0114216106,-0.0031176039
2.9698238373,0.0024498701,-0.0066864155,-0.0117539270,-0.0273693949,-0.0054774778,-0.0041903257
2.9798088074,0.0035369098,-0.0049173497,-0.0109607680,-0.0230172854,-0.0139418691,-0.0063194558
2.9901518822,0.0056479871,0.0007927754,-0.0071483953,-0.0068942420,-0.0254869387,-0.0084529147
3.0001139641,0.0087437928,0.0027352909,-0.0011906724,0.0176255349,-0.0231281780,-0.0052741654
3.0099320412,0.0079621375,0.0047948696,0.0000755687,0.0347416699,-0.0272299759,-0.0063423594
3.0199949741,0.0042436719,0.0098619200,0.0004832644,0.0592355356,-0.0217117071,-0.0063446895
3.0301289558,0.0033572912,0.0034054855,0.0020235081,0.0687038749,-0.0078001535,-0.0010311505
3.0403950214,0.0024067461,-0.0001172087,0.0054784911,0.0675532222,0.0006708292,-0.0020876266
3.0502629280,-0.0045168400,-0.0007171294,0.0098254578,0.0546107963,0.0143727930,0.0011079004
3.0602898598,-0.0036605299,-0.0014247558,0.0101144211,0.0321342237,0.0205370132,0.0000540210
3.0703389645,-0.0018365980,-0.0061865114,0.0063079493,0.0086153150,0.0245828871,0.0011238127
3.0806441307,-0.0019840896,-0.0081558488,0.0061594145,-0.0159292556,0.0243331492,-0.0041783415
3.0904598236,-0.0040147305,-0.0005535743,0.0039036174,-0.0318754651,0.0177857671,-0.0105483560
3.1004948616,0.0038660169,0.0059769489,-0.0032532911,-0.0413853452,0.0081320740,-0.0137361605
3.1105959415,0.0039961636,0.0066185333,-0.0065438850,-0.0476640165,-0.0047043618,-0.0211735684
3.1208570004,0.0041920245,0.0092225410,-0.0087986691,-0.0347743705,-0.0130801369,-0.0211814269
3.1307258606,0.0034542978,0.0089894868,-0.0109028919,-0.0165548865,-0.0203002319,-0.0137570659
3.1408410072,0.0006790756,0.0050393678,-0.0060101850,0.0090795569,-0.0221494641,-0.0063325055
3.1508951187,-0.0021605492,0.0041909553,-0.0009296041,0.0293491427,-0.0208490435,0.0032191877
3.1612319946,-0.0021103919,0.0015272835,0.0023911495,0.0539063402,-0.0216396693,0.0117063485
3.1710419655,0.0008225142,-0.0019947549,0.0038862128,0.0560427271,-0.0215933304,0.0159530267
3.1810929775,0.0027480125,0.0012848714,0.0053446190,0.0549141020,-0.0152374972,0.0159573536
3.1910891533,0.0017455219,0.0006242135,0.0028582711,0.0399513990,-0.0132667571,0.0127767408
3.2014408112,0.0036798418,0.0027574042,0.0040970938,0.0196437314,-0.0102892108,0.0085368548
3.2112598419,0.0007261335,0.0018923023,0.0061538117,0.0067199441,0.0012561254,0.0064223045
3.2213168144,-0.0013086499,-0.0019703766,0.0071236393,-0.0029725255,0.0096400231,0.0032430231
3.2314000130,-0.0004036129,-0.0059188269,0.0070074694,-0.0200348645,0.0084437309,0.0053703566
3.2417259216,-0.0024083853,-0.0050872229,0.0067512887,-0.0296071433,0.0051484019,0.0011246783
3.2515411377,-0.0004842282,-0.0033166071,0.0025930305,-0.0327978767,0.0040594353,0.0011249447
3.2616491318,0.0014427601,0.0003766754,-0.0016000371,-0.0316873938,-0.0001755233,0.0011228140
3.2716870308,0.0004997550,0.0002002457,-0.0066827042,-0.0241439901,-0.0075511476,-0.0010063833
3.2820191383,0.0015289186,-0.0028212925,-0.0077366335,-0.0080663804,-0.0148440814,-0.0020771073
3.2918500900,-0.0003187955,0.0000846126,-0.0038094621,0.0079804976,-0.0189828984,-0.0073922439
3.3019051552,-0.0021280646,-0.0008237025,-0.0016692977,0.0240352042,-0.0230747145,-0.0052732998
3.3119559288,-0.0019920468,-0.0035827418,-0.0003773074,0.0411209799,-0.0239727311,-0.0031544892
3.3221709728,-0.0038301349,-0.0072214864,0.0049167173,0.0486137830,-0.0260087177,0.0000279886
3.3320560455,-0.0027462840,-0.0050068758,0.0063376324,0.0453926921,-0.0238939021,0.0032152599
3.3419680595,-0.0056031644,-0.0057252310,0.0038229127,0.0410607383,-0.0175439939,0.0064045284
3.3521850109,-0.0045875609,-0.0103771351,0.0061222808,0.0271561109,-0.0144821582,0.0064095883
3.3624799252,-0.0045726299,-0.0092680119,0.0043659704,0.0100644473,-0.0125034954,0.0074778488
3.3723278046,-0.0075230896,-0.0043669604,0.0063319104,-0.0070522223,-0.0084086191,0.0074842405
3.3823680878,-0.0036273897,-0.0063691996,0.0052834647,-0.0220248066,-0.0053344658,0.0106741078
3.3924379349,-0.0007107259,-0.0103829168,0.0031683345,-0.0337115563,-0.0107627874,0.0074889674
3.4027709961,-0.0046440363,-0.0085858963,0.0019699235,-0.0294526294,-0.0096506514,0.0096120397
3.4125680923,-0.0026655793,-0.0019283554,0.0017536182,-0.0294680744,-0.0086519653,0.0000563512
3.4227139950,0.0003302394,0.0008357504,0.0016035934,-0.0251374543,-0.0149942832,-0.0020717806
3.4326848984,0.0072948039,0.0007074216,-0.0043159230,-0.0133995712,-0.0148986755,-0.0031365126
3.4430849552,0.0084328949,-0.0003447196,-0.0120910509,-0.0026792055,-0.0201374460,-0.0073897801
3.4528470039,0.0086215436,-0.0003929398,-0.0110393269,0.0027283439,-0.0275524855,-0.0127038518
3.4629759789,0.0088911951,0.0015423634,-0.0118413074,0.0165909771,-0.0263847560,-0.0148297865
3.4729900360,0.0051834285,0.0045407154,-0.0067471368,0.0250864606,-0.0220523272,-0.0127061829
3.4833459854,0.0014682709,0.0027122835,-0.0044956310,0.0335814916,-0.0177481920,-0.0148291867
3.4931178093,-0.0013115705,-0.0058797859,0.0016551514,0.0345548764,-0.0081621446,-0.0105774505
3.5032348633,-0.0002579988,-0.0066882633,0.0038767953,0.0323804878,-0.0039020847,-0.0052658431
3.5132479668,-0.0002374352,-0.0016836784,0.0060321586,0.0227342509,0.0002649634,-0.0041995132
3.5235991478,0.0007566212,0.0022551159,0.0012761850,0.0098938458,0.0033158143,-0.0073805926
3.5334038734,0.0037381351,0.0012766459,-0.0064722998,0.0002673175,0.0053400826,-0.0095007345
3.5434789658,0.0037639439,0.0031683783,-0.0074956520,-0.0114609776,0.0041696234,-0.0105601400
3.5535268784,0.0028504729,0.0127889253,-0.0066449149,-0.0093059475,0.0020593349,-0.0116235409
3.5638849735,-0.0000034274,0.0107424594,-0.0096529825,-0.0071709715,0.0020848345,-0.0105622048
3.5736598969,0.0000880062,0.0087442137,-0.0106611950,-0.0028587803,-0.0021080463,-0.0084417956
3.5837869644,0.0020878613,0.0057841279,-0.0077371700,-0.0060124435,-0.0063533913,-0.0041948529
3.5937180519,0.0021675527,0.0086491443,-0.0097148521,-0.0027657840,-0.0105348211,0.0011112293
3.6041049957,0.0031481981,0.0096274354,-0.0077611310,0.0025597662,-0.0093776099,0.0085419146
3.6139240265,0.0030957758,0.0028954486,-0.0067025525,0.0057643480,-0.0093081016,0.0149119301
3.6240479946,0.0049338639,0.0010809639,-0.0075706346,0.0120955342,-0.0017764159,0.0223464109
3.6340439320,0.0018501877,0.0051250793,-0.0084332926,0.0216789208,0.0004364045,0.0234068818
3.6444149017,0.0016506015,0.0082827546,-0.0072910888,0.0322660208,0.0090386141,0.0265936870
3.6541528702,0.0023504198,0.0056413747,-0.0041560037,0.0289591756,0.0196345337,0.0287234168
3.6643109322,0.0010497569,0.0068594553,-0.0050352318,0.0214248002,0.0259355064,0.0287282746
3.6743130684,0.0007001458,0.0099591352,-0.0079281433,0.0128547475,0.0290300995,0.0266084000
3.6846439838,0.0042910278,0.0032623152,-0.0089378459,-0.0052834833,0.0288278982,0.0202443115
3.6944508553,0.0020252764,0.0003598669,-0.0101162894,-0.0212898776,0.0286950059,0.0213101078
3.7046041489,0.0007524787,-0.0006861350,-0.0094599230,-0.0329712257,0.0222146697,0.0191841722
3.7145929337,-0.0014583470,-0.0017945430,-0.0107915504,-0.0403777435,0.0157764778,0.0181210395
3.7248978615,-0.0055343509,-0.0029025932,-0.0091790063,-0.0359688252,0.0020058053,0.0159905106
3.7347159386,-0.0046842992,0.0018468240,-0.0065087778,-0.0295133218,-0.0032502096,0.0149244471
3.7448439598,-0.0067011714,0.0007981994,-0.0105719669,-0.0187689848,-0.0105763655,0.0159791261
3.7548460960,-0.0048364401,-0.0069487356,-0.0056974990,0.0004409291,-0.0103878137,0.0191597398
3.7652120590,-0.0049541593,-0.0087455176,-0.0016864042,0.0153615810,-0.0081147403,0.0223426819
3.7750229836,-0.0050919950,-0.0065709017,0.0004871984,0.0345496573,-0.0058111050,0.0244625583
3.7851679325,-0.0032874644,-0.0052615665,0.0018416543,0.0526363552,-0.0003685360,0.0212754197
3.7951178551,-0.0005119146,-0.0077844523,0.0022976298,0.0579075515,0.0060371654,0.0202154815
3.8054771423,0.0003357529,-0.0015643499,-0.0011621218,0.0579043552,0.0059956200,0.0138446679
3.8152561188,-0.0007596315,-0.0021888276,-0.0017297964,0.0557264201,0.0102071427,0.0117237270
3.8253841400,-0.0008552970,-0.0048259757,0.0005435843,0.0375587642,0.0121085066,0.0021729651
3.8354220390,0.0000528096,-0.0046680234,0.0036351581,0.0119780349,0.0086810179,-0.0010076482
3.8457560539,0.0000737308,-0.0095373057,0.0016988416,-0.0082657188,0.0052925451,-0.0052507296
3.8555369377,0.0001250802,-0.0106356405,-0.0003883939,-0.0242113955,-0.0012479119,-0.0105589414
3.8656268120,-0.0007517041,-0.0137595199,-0.0044911606,-0.0306391455,0.0008052522,-0.0126808155
3.8756599426,-0.0026453435,-0.0158814453,-0.0027579169,-0.0220680274,-0.0022754925,-0.0084373346
3.8859789371,0.0013243853,-0.0150146149,0.0010547538,-0.0103234872,-0.0032181186,-0.0063191899
3.8957800865,-0.0044994056,-0.0072759055,0.0048645036,0.0014154594,-0.0031086626,-0.0052603171
3.9058918953,-0.0025320649,-0.0081846975,0.0078928368,0.0226720907,0.0066588135,0.0000507586
3.9160461426,0.0023285151,-0.0129143260,0.0022411246,0.0301318727,0.0077919886,0.0011112293
3.9262781143,0.0032575428,-0.0078907870,0.0043789046,0.0237261988,0.0077157556,-0.0020730458
3.9361348152,0.0012834369,-0.0019325278,0.0035377641,0.0258476716,0.0087677045,-0.0063202549
3.9460101128,0.0002898871,-0.0027934571,-0.0001825194,0.0184111670,0.0055331620,-0.0041962508
3.9560370445,0.0032189786,-0.0046509169,-0.0019981961,0.0162348319,0.0097654574,-0.0031317852
3.9663081169,0.0012066661,-0.0065197013,0.0000205536,0.0108687747,0.0128870811,-0.0052515287
3.9763729572,0.0002306699,-0.0045643710,-0.0009677510,0.0034611924,0.0064350413,-0.0084382668
3.9862329960,-0.0007122458,-0.0007038376,-0.0000252824,0.0002682768,0.0053326259,-0.0105620045
3.9965019226,-0.0006721617,-0.0007324478,0.0009394188,0.0024025338,0.0053512678,-0.0105625372
4.0067439079,-0.0016033353,-0.0027221700,-0.0000563960,-0.0018661423,0.0053069266,-0.0116231414
4.0166091919,-0.0025206804,-0.0037654301,-0.0010691981,-0.0039902795,0.0042203567,-0.0126849432
4.0265660286,-0.0034293830,-0.0057773255,-0.0021014314,-0.0061237896,0.0042014485,-0.0126841441
4.0368671417,-0.0014290811,-0.0039317869,0.0016724367,-0.0158030502,0.0115376581,-0.0137398224
4.0470590591,-0.0023753941,-0.0021165868,0.0044261115,-0.0168729462,0.0115222111,-0.0148021569
4.0568318367,-0.0052866042,-0.0003003738,0.0061966078,-0.0137253571,0.0168482680,-0.0158620961
4.0669169426,-0.0052788556,0.0024959783,0.0040944712,-0.0074195247,0.0264891777,-0.0105512189
4.0770578384,-0.0033836961,-0.0043840669,0.0000629921,-0.0095090400,0.0222542193,-0.0063056075
4.0872750282,-0.0024556220,-0.0093161725,-0.0019991498,-0.0051291790,0.0116868615,-0.0052486658
4.0971279144,-0.0015131832,-0.0064357780,-0.0079043014,0.0012656031,0.0128384130,0.0000592807
4.1071901321,-0.0025649071,0.0013475755,-0.0040686829,-0.0019038245,0.0096274391,0.0000584817
4.1173181534,-0.0045585930,0.0022973756,-0.0021969180,-0.0061206743,0.0042643654,-0.0031285230
4.1275448799,-0.0055176616,-0.0006518624,0.0016624231,-0.0028559044,-0.0020806156,-0.0041943202
4.1374397278,0.0013603567,-0.0045638941,0.0036247869,-0.0060013644,-0.0073789749,0.0011128272
4.1474571228,0.0093024671,-0.0104857348,0.0007017155,-0.0133900912,-0.0159948319,-0.0084455246
4.1575222015,0.0104643404,-0.0135491751,-0.0052100522,-0.0207982063,-0.0224537961,-0.0126940655
4.1678218842,0.0087381601,-0.0097971819,-0.0032967429,-0.0101092365,-0.0245097578,-0.0169455353
4.1776928902,0.0031071603,-0.0010942480,0.0035712023,0.0069003734,-0.0180015266,-0.0180084016
4.1877241135,0.0023082793,0.0037845711,0.0056601064,0.0227923598,-0.0061914716,-0.0180057380
4.1978197098,-0.0014767052,-0.0039021035,0.0068445103,0.0312244594,0.0045139035,-0.0148171363
4.2080540657,-0.0043309033,-0.0047517680,0.0099679129,0.0332466513,0.0151303289,-0.0169375446
4.2179489136,-0.0052829981,-0.0056339763,0.0072088139,0.0300026536,0.0193463787,-0.0169346165
4.2279400826,-0.0062684715,-0.0055843256,0.0062954919,0.0096768243,0.0244519264,-0.0201107021
4.2381219864,-0.0062928498,-0.0037020107,0.0052242773,-0.0074403780,0.0285398774,-0.0211661123
4.2483491898,-0.0072927773,-0.0057832263,0.0030755897,-0.0170460530,0.0284636449,-0.0201026462
4.2582077980,-0.0023832917,-0.0059898756,0.0018482108,-0.0286768749,0.0177649278,-0.0179814398
4.2682538033,0.0016004144,-0.0052823685,-0.0023546319,-0.0360800922,0.0113397855,-0.0169201698
4.2783360481,0.0017023383,-0.0006920955,-0.0055911047,-0.0370609351,0.0028562855,-0.0148005597
4.2885999680,0.0037396550,0.0049085356,-0.0058522327,-0.0306039900,-0.0023362124,-0.0063116001
4.2985291481,0.0067806244,0.0086277463,-0.0050494773,-0.0188021921,-0.0086066257,-0.0073795272
4.3085360527,0.0029815137,0.0046503283,-0.0060769422,-0.0038179457,-0.0127136856,-0.0063231182
4.3186407089,0.0031260550,0.0007597544,-0.0059812171,0.0090621673,-0.0200288557,-0.0063300421
4.3288779259,0.0023165941,0.0008284190,0.0000655551,0.0197755583,-0.0241937079,-0.0084582400
4.3387632370,0.0015372037,0.0048091151,0.0012907882,0.0304031707,-0.0198703315,-0.0105823781
4.3487768173,-0.0021932125,0.0078595616,0.0035378833,0.0346360505,-0.0166629534,-0.0127063822
4.3588657379,-0.0000746251,0.0041110255,0.0028918881,0.0335156582,-0.0113672577,-0.0127034523
4.3691539764,0.0000509917,-0.0025366207,0.0061241286,0.0334234871,-0.0018124357,-0.0116357245
4.3790540695,0.0030828416,-0.0053568147,0.0014856954,0.0280457661,0.0023918969,-0.0105704609
4.3890490532,0.0041110516,-0.0043115877,-0.0032391648,0.0141164195,0.0075911866,-0.0084423283
4.3991861343,0.0002160071,-0.0033362766,-0.0022550921,0.0023556342,0.0095968135,-0.0105619384
4.4094209671,-0.0007632078,0.0014861563,0.0015602012,-0.0072802417,0.0126816183,-0.0126810819
4.4192600250,-0.0026549399,0.0032823423,-0.0015142064,-0.0178993288,0.0072695431,-0.0148046874
4.4293208122,-0.0025750101,-0.0007812044,-0.0026764970,-0.0210751779,0.0051322896,-0.0126802167
4.4393768311,0.0014384388,-0.0048612021,-0.0067529185,-0.0252803080,-0.0012779390,-0.0137441494
4.4497838020,0.0005795656,-0.0040675066,-0.0059505804,-0.0177897140,-0.0033202507,-0.0116240736
4.4595642090,0.0006534754,-0.0041576885,-0.0031004052,-0.0039058561,-0.0042531560,-0.0105662653
4.4696588516,0.0056464374,-0.0022242328,-0.0030466418,0.0110334121,-0.0041295853,-0.0116317961
4.4796500206,0.0057866275,-0.0002458951,-0.0067725284,0.0259721465,-0.0040129386,-0.0137591297
4.4899678230,0.0049206316,0.0037579278,-0.0055655940,0.0398134999,-0.0007303266,-0.0169456024
4.4998030663,0.0011346339,0.0087886788,-0.0023650627,0.0376462191,0.0024201931,-0.0190670751
4.5099048615,-0.0016578735,0.0059836246,0.0007977386,0.0311775357,0.0087167714,-0.0211862195
4.5199222565,-0.0005892814,0.0002184847,0.0009660025,0.0172830261,0.0107106799,-0.0222434942
4.5302038193,-0.0024769008,-0.0046212338,0.0029928584,0.0140382303,0.0149412444,-0.0201176256
4.5400500298,-0.0024335682,-0.0036908647,0.0020030637,0.0022470849,0.0201506540,-0.0190502312
4.5501379967,-0.0014267565,0.0000875333,0.0018666883,-0.0201493278,0.0188858528,-0.0201058425
4.5602169037,0.0015382766,0.0008432606,-0.0013214450,-0.0308403224,0.0209354218,-0.0169167072
4.5704822540,0.0025218725,-0.0013535282,-0.0074911220,-0.0329649374,0.0198774803,-0.0137322312
4.5803790092,0.0025252700,-0.0015850327,-0.0087899072,-0.0329106078,0.0145863127,-0.0116112903
4.5904221535,0.0054783225,0.0011137464,-0.0129778488,-0.0307304673,0.0103811137,-0.0084279478
4.6005191803,0.0035486519,0.0067617632,-0.0103162630,-0.0232073031,0.0051413444,-0.0084324749
4.6107549667,0.0035691559,0.0115195252,-0.0075526340,-0.0103814388,0.0031457713,-0.0063138632
4.6206278801,0.0055707991,0.0114435889,-0.0085759265,-0.0029014191,0.0021430913,-0.0073780622
4.6307048798,0.0046414435,0.0055984594,-0.0085659726,0.0088596065,0.0001231499,-0.0073815910
4.6407098770,0.0027091205,0.0046921112,-0.0055339439,0.0184765477,-0.0008262668,-0.0031373114
4.6510558128,0.0008128880,0.0067398287,-0.0063318117,0.0249502137,-0.0082102800,-0.0052671744
4.6608548164,0.0018294750,0.0059065558,-0.0022074084,0.0270423926,-0.0039407006,-0.0042037740
4.6709852219,-0.0000985564,0.0050936677,-0.0000437598,0.0291157179,0.0024428964,-0.0042000460
4.6810379028,-0.0020762682,0.0062325336,0.0021150012,0.0301088095,0.0098861651,-0.0031347815
4.6913547516,-0.0011215509,0.0034268836,-0.0054972274,0.0237279553,0.0077435859,0.0021740303
4.7011618614,-0.0021652579,-0.0013326070,-0.0073409183,0.0108494414,0.0150795300,0.0053663617
4.7112598419,-0.0052578151,-0.0022133847,-0.0005359750,0.0054774461,0.0192960463,0.0085568950
4.7212972641,-0.0074112713,0.0007558205,0.0032818217,-0.0041560074,0.0224297885,0.0138699012
4.7315301895,-0.0086148679,0.0007553437,0.0011702676,-0.0148095572,0.0202229582,0.0149318371
4.7414288521,-0.0048938096,-0.0041532181,0.0000272889,-0.0221825168,0.0106225293,0.0170525126
4.7514867783,-0.0011120738,-0.0042426251,-0.0011566977,-0.0284795612,-0.0000787177,0.0117404377
4.7615518570,-0.0021480918,-0.0014617703,-0.0043091876,-0.0252254456,-0.0053626955,0.0106751733
4.7718181610,-0.0002072753,-0.0015218518,-0.0063505275,-0.0155493831,-0.0126906494,0.0127913207
4.7816886902,0.0066454709,0.0004285314,-0.0053508384,-0.0016037403,-0.0200172700,0.0095987236
4.7917518616,0.0086617470,0.0024358968,-0.0052048666,0.0154633950,-0.0188084617,0.0095963264
4.8018260002,0.0067264140,0.0016346910,-0.0059381821,0.0367436484,-0.0122352494,0.0127796028
4.8121199608,0.0037185252,-0.0000252983,-0.0036394696,0.0504836962,0.0006054487,0.0106575964
4.8219599724,0.0035909116,-0.0044952296,0.0046040909,0.0717948452,0.0039818045,0.0117156701
4.8320178986,0.0015183984,0.0018012264,0.0051594870,0.0813365504,0.0104383063,0.0127786044
4.8421249390,0.0043326318,0.0080641247,0.0027445455,0.0653258935,0.0102500208,0.0053499835
4.8523888588,0.0042752326,-0.0003865025,-0.0036455493,0.0483075455,0.0047878763,0.0042908438
4.8622069359,0.0032612383,-0.0050423406,-0.0063170893,0.0290875137,0.0056672525,0.0021725656
4.8723211288,0.0022308826,0.0009456613,-0.0012759666,0.0205938406,0.0013484037,0.0021728319
4.8823208809,-0.0046556890,-0.0038115641,0.0017415185,0.0120781166,-0.0008481715,0.0021738971
4.8926639557,-0.0085937679,-0.0134740137,-0.0001386504,0.0067670275,-0.0029894859,0.0064217723
4.9024658203,-0.0086603761,-0.0143737458,0.0038175483,0.0067254822,0.0012683762,0.0085475072
4.9125609398,-0.0068242848,-0.0084721707,0.0057540433,0.0034793019,0.0055207787,0.0138577176
4.9225888252,-0.0079363883,-0.0045103692,0.0096447365,0.0067014610,0.0034198107,0.0127940513
4.9329347610,-0.0051180124,-0.0063621663,0.0096917050,0.0087832548,0.0087289549,0.0106732426
4.9427518845,-0.0062415004,-0.0052874349,0.0097260373,0.0076623298,0.0140177272,0.0096143698
4.9528150558,-0.0044087470,-0.0033108254,0.0038628478,0.0044354573,0.0160848051,0.0053682923
4.9628558159,-0.0025394261,-0.0042885803,-0.0010387998,-0.0019593248,0.0149332555,0.0000603460
4.9731998444,0.0003186761,-0.0014062783,-0.0011332731,-0.0073251668,0.0180476885,-0.0031209332
4.9831118584,-0.0007089080,0.0024192671,-0.0002983909,-0.0115723778,0.0158883967,-0.0031209332
4.9930958748,0.0001954733,0.0042880513,0.0005106826,-0.0126864314,0.0201317444,-0.0020584650
5.0031199455,0.0001216530,-0.0016412995,-0.0006206136,-0.0126438215,0.0158877335,-0.0020605954
5.0134172440,0.0020248294,-0.0075474642,-0.0027113061,-0.0083280355,0.0116793383,-0.0020621270
5.0232849121,0.0020167828,-0.0056637190,-0.0047453148,-0.0060771331,0.0000200190,-0.0031303209
5.0333218575,0.0011098682,-0.0028125306,-0.0057613351,-0.0060296739,-0.0053256107,-0.0095047299
5.0434260368,0.0032203496,-0.0019284150,-0.0048039658,-0.0091389148,-0.0149510745,-0.0169413406
5.0536789894,0.0054326057,-0.0030220409,-0.0067350371,-0.0058977678,-0.0192016792,-0.0222533494
5.0635032654,0.0047477484,-0.0060398243,-0.0066548688,0.0080281682,-0.0243855212,-0.0222594738
5.0736451149,0.0109193921,-0.0108989142,-0.0035082798,0.0176371727,-0.0243033618,-0.0222601406
5.0836758614,0.0111992061,-0.0069782399,-0.0013349156,0.0240101181,-0.0210367292,-0.0180129297
5.0940089226,0.0055259466,-0.0049108528,-0.0010455351,0.0420564413,-0.0113011450,-0.0137658538
5.1037721634,0.0007092654,-0.0036916395,0.0051662819,0.0494246073,-0.0005635461,-0.0042061713
5.1139268875,-0.0042488873,0.0014593938,0.0074409144,0.0492327288,0.0185701344,0.0011114291
5.1239252090,-0.0093050599,-0.0011976621,0.0115431445,0.0341650955,0.0311716795,0.0011215492
5.1342349052,-0.0065540969,-0.0049700402,0.0106272595,0.0042524710,0.0340798497,-0.0009930008
5.1440639496,-0.0028039813,-0.0040700100,0.0084962742,-0.0224300064,0.0337914303,-0.0094807614
5.1541390419,-0.0019440354,-0.0042856000,0.0052124755,-0.0427162349,0.0346611552,-0.0115984408
5.1641879082,-0.0010378958,-0.0046187304,0.0007839699,-0.0565297827,0.0281116404,-0.0211543944
5.1745529175,-0.0010005237,-0.0021125933,-0.0016899805,-0.0596161261,0.0163849443,-0.0254066642
5.1843190193,0.0001480280,-0.0005808732,-0.0040847762,-0.0488207340,0.0036976449,-0.0328483358
5.1944551468,0.0053131580,0.0048765279,-0.0102400882,-0.0348190852,-0.0089207459,-0.0339193940
5.2044520378,0.0066730678,0.0045764782,-0.0133174760,-0.0197413340,-0.0225902181,-0.0349918492
5.2148132324,0.0070940256,0.0043886043,-0.0132876737,-0.0004282463,-0.0330105014,-0.0318177603
5.2245841026,0.0065036714,0.0043418743,-0.0111473901,0.0219532251,-0.0295832809,-0.0243891366
5.2346382141,0.0009072124,0.0034984092,-0.0059273345,0.0486150607,-0.0271517467,-0.0127152372
5.2446899414,-0.0038179457,-0.0000970027,0.0033308167,0.0560364947,-0.0217191651,-0.0031582173
5.2550320625,-0.0057007372,-0.0007313153,0.0096682208,0.0591184087,-0.0089052320,0.0053432584
5.2646870613,-0.0077612400,-0.0022944470,0.0159592535,0.0547162034,0.0049128449,0.0149074690
5.2747268677,-0.0069803894,-0.0048961900,0.0172353294,0.0332580507,0.0164182335,0.0181040615
5.2850041389,-0.0042893589,-0.0057109259,0.0114771025,0.0032833209,0.0257060081,0.0181165785
5.2952980995,-0.0045662820,-0.0067120455,0.0063948529,-0.0309563801,0.0338553451,0.0117574157
5.3051729202,-0.0008755327,-0.0020494123,0.0069274204,-0.0533058941,0.0272451155,0.0043271962
5.3151979446,-0.0009999276,0.0004910567,-0.0004676681,-0.0724422783,0.0196085684,-0.0020423527
5.3253211975,0.0009370743,0.0020259360,-0.0068948371,-0.0670022368,0.0090174424,-0.0062962202
5.3355288506,0.0068756044,-0.0042409562,-0.0132433278,-0.0636622682,-0.0047761342,-0.0105503537
5.3454298973,0.0080311894,-0.0036424657,-0.0175275896,-0.0507310182,-0.0174240191,-0.0148071498
5.3554759026,0.0023771822,-0.0000161192,-0.0168137643,-0.0186650418,-0.0224418789,-0.0137565993
5.3655967712,0.0025695264,0.0018981436,-0.0070058806,0.0154718906,-0.0210895259,-0.0148263918
5.3758192062,0.0037408471,0.0059039928,0.0000845094,0.0389198251,-0.0176740903,-0.0105831102
5.3856968880,-0.0010067524,0.0061186291,0.0024267335,0.0527823791,-0.0164849889,-0.0095242374
5.3957338333,-0.0018326343,0.0015544632,0.0039097564,0.0666140392,-0.0120990286,-0.0063401624
5.4058251381,0.0002031325,-0.0020054241,0.0034671922,0.0601265803,-0.0036600037,-0.0052725011
5.4160852432,-0.0046522319,0.0011950472,0.0058177011,0.0494005866,0.0015380875,-0.0073909126
5.4259800911,-0.0056110919,-0.0014949105,0.0041937130,0.0354320407,0.0109659443,-0.0073826564
5.4359898567,-0.0036772788,-0.0052889846,0.0053070681,0.0108354324,0.0160421282,-0.0094968732
5.4461297989,-0.0027035177,-0.0043894909,0.0061746733,-0.0179908890,0.0168099180,-0.0158599652
5.4563550949,-0.0026633739,-0.0036453267,0.0029704471,-0.0382354409,0.0134359598,-0.0179801080
5.4662570953,0.0013561546,-0.0039950870,-0.0042435033,-0.0520676374,0.0090430751,-0.0222259853
5.4762687683,0.0064140558,-0.0034322997,-0.0085643632,-0.0594513826,0.0004894681,-0.0222280491
5.4863576889,0.0066121221,0.0019836763,-0.0070812805,-0.0572654568,-0.0048176791,-0.0254166517
5.4966297150,0.0038977265,0.0093995072,-0.0094128354,-0.0411851853,-0.0120759923,-0.0211783629
5.5065259933,0.0031263530,0.0062291361,-0.0096076829,-0.0230418667,-0.0118898368,-0.0169356801
5.5165166855,-0.0006464721,0.0061363913,-0.0057651503,0.0004149098,-0.0094991829,-0.0073855193
5.5266528130,-0.0025413930,0.0023135284,-0.0037025909,0.0228070356,-0.0071329647,0.0000425694
5.5368800163,-0.0005882682,-0.0033159514,-0.0004787545,0.0388226733,-0.0069322297,0.0095961932
5.5467252731,0.0013062059,-0.0040039085,-0.0001219611,0.0430602953,-0.0036980868,0.0117203305
5.5567989349,-0.0007268490,0.0011516550,0.0002311368,0.0441102162,-0.0015682233,0.0117225945
5.5681500435,0.0031101704,0.0023964385,-0.0023461680,0.0398523584,-0.0026665111,0.0117231272
5.5779929161,0.0020390451,0.0016851762,0.0018386741,0.0365963764,0.0026181329,0.0127877258
5.5875921249,-0.0049537718,0.0009478667,0.0049627917,0.0290524401,0.0099868327,0.0138551211
5.5977330208,-0.0060688555,-0.0018130800,0.0012006660,0.0193795729,0.0162564479,0.0117357774
5.6076998711,-0.0003672243,-0.0056048296,-0.0016796689,0.0033721104,0.0161097068,0.0106779691
5.6172609329,-0.0004792214,-0.0007632038,-0.0027482014,-0.0126169762,0.0137779759,0.0000635418
5.6272687912,-0.0004923345,0.0059216954,-0.0039271815,-0.0253724530,0.0083195604,-0.0063067395
5.6371450424,0.0024742484,0.0018364527,-0.0060948236,-0.0295785964,0.0018812357,-0.0116174826
5.6472949982,0.0045421422,0.0006790498,-0.0072546108,-0.0167197883,-0.0033119284,-0.0116233416
5.6575288773,0.0017338692,0.0005446413,-0.0073477132,-0.0070971763,-0.0053846003,-0.0169358812
5.6674308777,0.0028828681,0.0004758575,-0.0083117587,0.0078357011,-0.0041446323,-0.0095064603
5.6774301529,0.0019655526,0.0005458930,-0.0042717559,0.0301929675,0.0013842899,-0.0052626473
5.6875667572,0.0039360225,0.0007594564,-0.0020303826,0.0429910533,0.0025986915,0.0011055035
5.6977882385,-0.0000564159,0.0058876611,-0.0007338624,0.0493224002,0.0101374350,0.0096016526
5.7076959610,-0.0031580627,0.0062070228,0.0044335024,0.0471268892,0.0165194348,0.0149143934
5.7176508904,-0.0024025738,0.0036067108,0.0066496031,0.0374725312,0.0217679255,0.0191669948
5.7277808189,0.0002898275,-0.0049087070,0.0049164193,0.0215289835,0.0152551644,0.0181059912
5.7380199432,0.0010745524,-0.0096278451,0.0020652909,0.0087756384,0.0098244464,0.0159829203
5.7479171753,0.0009279548,-0.0066412948,0.0020642180,-0.0007672664,0.0033399158,0.0106731094
5.7579360008,0.0106656849,-0.0027810594,-0.0047875745,-0.0145987673,-0.0010887878,0.0011194187
5.7682161331,0.0097517073,0.0009710529,-0.0097880466,-0.0145705389,-0.0043202671,-0.0063147955
5.7784881592,0.0098729730,0.0028357843,-0.0108189685,-0.0027973941,-0.0084945057,-0.0116307307
5.7883377075,0.0100162029,0.0018309095,-0.0107443435,0.0121514611,-0.0094457865,-0.0148203988
5.7983651161,0.0072493255,0.0018929580,-0.0066809757,0.0292625632,-0.0124957059,-0.0169476662
5.8085117340,0.0044901371,-0.0009112022,-0.0025091271,0.0335539803,-0.0145596545,-0.0137643898
5.8187398911,0.0007026194,0.0012226441,0.0007477303,0.0452169739,-0.0070013385,-0.0095174462
5.8286309242,-0.0051077604,0.0005027392,0.0050018923,0.0504913628,-0.0005540920,-0.0042065708
5.8386392593,-0.0080901086,-0.0041061901,0.0082272785,0.0365557373,0.0057330988,0.0021701022
5.8487138748,-0.0061970353,-0.0068248175,0.0094274776,0.0237395409,0.0066822497,0.0021738308
5.8590579033,-0.0082279742,-0.0086674355,0.0056567686,0.0151612330,0.0108441040,0.0011169552
5.8688569069,-0.0063664317,-0.0066485070,0.0066614049,0.0076263514,0.0171310287,-0.0010015893
5.8789200783,-0.0015687050,-0.0056468509,0.0076036947,0.0044211028,0.0170902163,-0.0031253940
5.8889770508,0.0003584324,-0.0047258995,0.0046052830,-0.0062315417,0.0148403775,-0.0084328074
5.8993439674,0.0023193657,0.0039156415,-0.0033165317,-0.0094214482,0.0137297725,-0.0116170831
5.9091157913,0.0033189654,0.0018748381,-0.0034217935,-0.0040639685,0.0116612958,-0.0105576776
5.9192008972,0.0013765394,-0.0001392028,-0.0025432806,-0.0072427969,0.0095251072,-0.0084342724
5.9292349815,0.0014012157,0.0026975016,-0.0026490788,-0.0071895346,0.0042200903,-0.0084369350
5.9396090508,-0.0024878681,-0.0012756250,-0.0017638307,-0.0103582693,0.0010230987,-0.0063142632
5.9493861198,-0.0044322908,-0.0032362600,0.0020911593,0.0013716239,0.0022143307,-0.0020694504
5.9594621658,-0.0044592917,-0.0061341189,0.0030720730,0.0034986632,0.0033212069,0.0021782247
5.9695720673,-0.0054570735,-0.0070720576,0.0050430195,0.0024741450,-0.0009321277,0.0021763607
5.9798369408,-0.0015393795,-0.0080305003,0.0050910609,0.0046488820,-0.0051851957,-0.0020735119
5.9898719788,0.0004718899,-0.0021868607,0.0012558599,0.0099957110,-0.0061926693,-0.0010135737
5.9997901917,0.0005275010,-0.0001730582,0.0013780494,0.0131852729,-0.0051388564,-0.0063223192
6.0098028183,0.0006322264,-0.0020840426,0.0015081067,0.0132151004,-0.0083495639,-0.0105711259
6.0201239586,-0.0012186469,-0.0020208617,0.0055460827,0.0174284596,-0.0029994729,-0.0095085911
6.0299458504,-0.0030973852,0.0019414165,0.0047038691,0.0205984209,0.0002184245,-0.0084459903
6.0400209427,-0.0040219128,-0.0028525849,0.0019265313,0.0142606050,-0.0061825495,-0.0052623809
6.0500907898,-0.0019432904,-0.0086806081,0.0010781188,0.0036516367,-0.0126625532,-0.0084483204
6.0603671074,-0.0027921796,-0.0086874031,-0.0007970433,0.0047714682,-0.0179580487,-0.0084514497
6.0702562332,-0.0006468595,-0.0057868622,-0.0006846886,0.0016872613,-0.0296570491,-0.0084565096
6.0802969933,0.0064886510,-0.0087548159,-0.0044292910,0.0007570460,-0.0434873104,-0.0127101773
6.0904197693,0.0029245913,-0.0019912978,-0.0062217815,0.0071587530,-0.0434452333,-0.0148353800
6.1006560326,-0.0016339124,0.0028942565,-0.0021047692,0.0231350549,-0.0401299968,-0.0158989131
6.1104717255,0.0015724896,-0.0008729956,0.0041181939,0.0347893164,-0.0315255895,-0.0137739768
6.1205329895,-0.0001491309,-0.0026524325,0.0083742039,0.0367981382,-0.0187686495,-0.0127056492
6.1306538582,-0.0078382492,-0.0014795921,0.0126092331,0.0442286208,-0.0144178420,-0.0063345693
6.1408939362,-0.0057846904,-0.0041931532,0.0168539193,0.0313259549,-0.0049944464,-0.0084502520
6.1507000923,-0.0037727952,-0.0079874061,0.0141125219,0.0131107317,0.0022810432,-0.0073801926
6.1608257294,-0.0076721609,-0.0080138110,0.0111721652,-0.0104118781,0.0063211247,-0.0073733358
6.1708388329,-0.0037212074,-0.0062289499,0.0071015852,-0.0285205767,0.0029865808,-0.0063086040
6.1811857224,0.0031805038,-0.0054776929,0.0010077853,-0.0370346233,0.0007894067,-0.0063069393
6.1910390854,0.0061617792,-0.0047363304,-0.0041224463,-0.0348572209,-0.0034290403,-0.0052478001
6.2010879517,0.0082013607,-0.0020479818,-0.0082706911,-0.0305273198,-0.0097782165,-0.0084378012
6.2111539841,0.0083443522,0.0016646126,-0.0084194047,-0.0176482722,-0.0171072371,-0.0105683301
6.2214589119,0.0105046630,0.0093146898,-0.0084546311,-0.0037350934,-0.0212648977,-0.0158827342
6.2312951088,0.0107702017,0.0150916912,-0.0112860305,0.0101578180,-0.0232795775,-0.0180108659
6.2413678169,0.0110588372,0.0083009340,-0.0110550029,0.0230267718,-0.0295477938,-0.0201406628
6.2514238358,0.0083542764,0.0026020149,-0.0039034586,0.0421626493,-0.0219252929,-0.0158945192
6.2616910934,0.0016844867,0.0018507579,-0.0025459032,0.0527058356,-0.0090786042,-0.0127060497
6.2715821266,-0.0011669697,-0.0007661841,0.0018169780,0.0623041354,-0.0078713931,-0.0031516925
6.2816047668,-0.0060734451,-0.0033124348,0.0061867135,0.0578771904,0.0080414601,0.0021659078
6.2916917801,-0.0071147680,0.0057053305,0.0006554027,0.0418489575,0.0100236516,0.0021709679
6.3019738197,-0.0042386353,0.0039259531,-0.0001248221,0.0162226614,0.0108341174,-0.0020701829
6.3118247986,-0.0052321851,0.0039437152,-0.0001120667,-0.0029233368,0.0042795455,-0.0052539916
6.3218641281,-0.0042153001,0.0038444737,-0.0011612873,-0.0199382715,-0.0011980440,-0.0084351376
6.3320498466,-0.0011552275,-0.0021816751,-0.0081487400,-0.0315493867,-0.0140395407,-0.0095004020
6.3424386978,-0.0019780099,-0.0043547414,-0.0102845533,-0.0336466543,-0.0182930753,-0.0084423944
6.3520717621,-0.0038080513,-0.0025857349,-0.0085211499,-0.0229727030,-0.0181652438,-0.0031360465
6.3621940613,-0.0046722889,0.0002652147,-0.0046626432,-0.0016554855,-0.0147697115,0.0011090323
6.3722538948,-0.0016685129,0.0061265565,-0.0026151638,0.0132859135,-0.0146184443,0.0042907107
6.3824949265,-0.0006490053,0.0101652481,-0.0052925451,0.0399662852,-0.0143648461,0.0074696597
6.3923330307,0.0033093989,0.0046252348,-0.0067944033,0.0538837016,-0.0184599888,0.0117112761
6.4024291039,0.0072720051,0.0069060065,-0.0072587826,0.0613710731,-0.0205367208,0.0085221408
6.4124588966,0.0043782294,0.0053776838,-0.0066800220,0.0741872713,-0.0214858726,0.0085184127
6.4228129387,-0.0004464091,0.0068105794,-0.0098933680,0.0858987048,-0.0181878805,0.0106420834
6.4326057434,0.0005520283,0.0024854282,-0.0110988719,0.0891112760,-0.0192139968,0.0117025543
6.4426937103,0.0005392431,-0.0028417369,-0.0065090759,0.0751726329,-0.0129684173,0.0117084803
6.4527301788,-0.0034069717,-0.0004390142,-0.0001075368,0.0687496215,-0.0108884890,0.0138347475
6.4630961418,-0.0044707358,-0.0010147950,0.0013638039,0.0579859279,-0.0014125616,0.0170282777
6.4728569984,0.0041920245,-0.0074846409,0.0007926126,0.0376689397,0.0026682001,0.0191590730
6.4829950333,0.0060032010,-0.0072664879,0.0019385715,0.0120532690,0.0024247868,0.0159789920
6.4929890633,-0.0000073017,-0.0091564320,0.0009413857,-0.0071875369,0.0054330938,0.0149235809
6.5033440590,0.0018439590,-0.0072576664,-0.0001406174,-0.0178403407,0.0031761979,0.0085544977
6.5131449699,0.0008023976,-0.0034617444,-0.0032469134,-0.0231770482,0.0031157441,0.0064322250
6.5232138634,-0.0031332076,0.0003089049,-0.0044211252,-0.0220843256,-0.0000983584,0.0000584152
6.5334692001,-0.0021089613,-0.0017761848,-0.0055290563,-0.0188318081,-0.0054031089,-0.0041922564
6.5436501503,-0.0020147264,-0.0028609296,-0.0075656278,-0.0092056543,-0.0074770451,-0.0095035322
6.5532426834,-0.0028590262,-0.0028875729,-0.0046196086,0.0089547075,-0.0094682910,-0.0137563329
6.5632839203,0.0021924078,-0.0057811402,-0.0024951200,0.0186361261,-0.0168337282,-0.0169463344
6.5733680725,0.0043788850,-0.0047328137,-0.0061229570,0.0304059647,-0.0199211314,-0.0180126652
6.5837059021,0.0026707649,-0.0036195179,-0.0067460639,0.0474538952,-0.0176553801,-0.0190791935
6.5935077667,0.0028834045,-0.0004700682,-0.0004741054,0.0484896004,-0.0144561250,-0.0180160608
6.6035780907,0.0011096298,0.0007135608,0.0038256545,0.0473492108,-0.0070388890,-0.0180115998
6.6136312485,-0.0026754737,-0.0001041553,0.0040944712,0.0269794874,0.0023538140,-0.0148163373
6.6239228249,-0.0045857430,-0.0039194487,0.0042248862,0.0140803615,0.0118257459,-0.0094994698
6.6337652206,-0.0056109726,-0.0097504519,0.0042255418,-0.0051987944,0.0191334598,-0.0020583319
6.6437878609,-0.0047637522,-0.0117348097,0.0040770667,-0.0169897005,0.0243783556,0.0043172091
6.6538491249,-0.0068973899,-0.0099174045,0.0018417139,-0.0329960994,0.0242454633,0.0053830063
6.6642689705,-0.0041309595,-0.0110970400,0.0014591117,-0.0489606038,0.0198617019,0.0053848037
6.6740479469,-0.0042743087,-0.0064975284,0.0000151296,-0.0543074310,0.0208691731,0.0043248660
6.6841659546,-0.0014428796,-0.0029384156,-0.0053354604,-0.0520986840,0.0134323640,0.0000741278
6.6941680908,-0.0014898480,-0.0032155176,-0.0076950891,-0.0424007848,0.0039395266,-0.0041802721
6.7045249939,0.0063995719,-0.0024630090,-0.0079269512,-0.0273703299,-0.0055269464,-0.0116219427
6.7142992020,0.0065566897,0.0012941101,-0.0089953644,-0.0048770038,-0.0138400029,-0.0148172025
6.7244410515,0.0048225224,-0.0016489885,-0.0127687557,0.0186333284,-0.0168327298,-0.0169473328
6.7344331741,0.0040209591,-0.0054132603,-0.0076079471,0.0388251469,-0.0081468299,-0.0137627255
6.7447566986,-0.0007553400,-0.0032615324,-0.0014341574,0.0493968837,0.0014824939,-0.0158851314
6.7545909882,-0.0055526793,-0.0001188180,0.0008436341,0.0471885912,0.0088978000,-0.0148190670
6.7646989822,-0.0025683641,-0.0008906386,0.0031044383,0.0386192612,0.0119992504,-0.0158770736
6.7746410370,0.0033478439,-0.0066133998,0.0052591460,0.0172346085,0.0160637666,-0.0148078157
6.7850437164,0.0014021097,-0.0046948455,0.0022929211,-0.0041624252,0.0211543329,-0.0190467034
6.7948331833,0.0004185735,-0.0028974076,-0.0017718177,-0.0202103686,0.0252793040,-0.0158551708
6.8049440384,0.0013830065,-0.0040800236,-0.0049982173,-0.0351518206,0.0251422822,-0.0169136431
6.8149690628,-0.0045382679,0.0034296254,-0.0054075224,-0.0394379124,0.0272754747,-0.0094788969
6.8253188133,-0.0026589036,0.0022273997,-0.0038298469,-0.0414933898,0.0198496506,-0.0062957541
6.8350958824,0.0041719675,0.0000377634,-0.0070580943,-0.0349846259,0.0092886183,-0.0073644803
6.8452329636,0.0012550651,0.0008061865,-0.0102563007,-0.0295739062,0.0019222487,-0.0052461354
6.8552331924,0.0012799798,0.0074434020,-0.0133770211,-0.0188914351,0.0009613803,-0.0041875290
6.8656001091,0.0042452216,0.0015297869,-0.0105442507,-0.0135222385,-0.0021542520,-0.0010050517
6.8753671646,0.0003240406,-0.0014171264,-0.0037933688,-0.0018168464,0.0011174416,-0.0031299880
6.8854999542,-0.0016375781,0.0035006145,0.0020874639,0.0163248740,0.0012828239,-0.0020727129
6.8955039978,-0.0036073923,0.0036332349,0.0032176871,0.0300936811,0.0120486524,0.0032381630
6.9057960510,-0.0027388334,0.0018900969,0.0044019120,0.0300321113,0.0184351783,0.0064270319
6.9157090187,-0.0019108356,0.0001188257,0.0055056708,0.0214396864,0.0236379299,0.0021846164
6.9256958961,-0.0011202992,0.0011967757,0.0045633214,0.0128528047,0.0289027337,0.0074986881
6.9358348846,-0.0003569425,0.0002764800,0.0005960364,-0.0021514446,0.0351313353,0.0064438102
6.9460749626,0.0013769864,-0.0036925932,-0.0064358218,-0.0266667195,0.0317137688,0.0032623312
6.9559669495,0.0041508377,-0.0048820041,-0.0087562902,-0.0426544771,0.0294242464,-0.0009819486
6.9659700394,0.0030416250,0.0006691554,-0.0063339574,-0.0575289503,0.0228987709,-0.0052273599
6.9760909081,-0.0019135178,0.0042205192,-0.0049118502,-0.0531970486,0.0165631101,-0.0062934235
6.9863319397,-0.0009620191,0.0010280350,-0.0053024394,-0.0393057615,0.0145845814,-0.0031140754
6.9963579178,-0.0000281037,-0.0020744463,-0.0065490110,-0.0200772081,0.0126165049,-0.0052435389
7.0062332153,0.0009019076,-0.0011514089,-0.0066531999,0.0013115695,0.0085932016,0.0000583486
7.0164208412,0.0018101929,-0.0030097028,-0.0036609273,0.0258363523,0.0109572895,0.0043004979
7.0267677307,0.0007157921,0.0010819176,-0.0015181999,0.0364951491,0.0121050440,0.0032360989
7.0366239548,0.0006087719,0.0061710812,-0.0003266435,0.0353742242,0.0173938163,0.0021772261
7.0466518402,0.0004754960,0.0014712551,-0.0021254520,0.0193405561,0.0204849467,0.0096159671
7.0567111969,0.0012607573,-0.0032395979,0.0037875671,0.0118386988,0.0236027092,0.0096194297
7.0670609474,0.0000365077,-0.0070482753,0.0056863325,-0.0010512928,0.0320212953,0.0159968361
7.0768661499,-0.0061247051,-0.0060749315,0.0054585831,-0.0192265678,0.0350181535,0.0117557505
7.0869331360,-0.0064277053,-0.0071521066,0.0060938494,-0.0342067443,0.0391308703,0.0117624085
7.0970592499,-0.0018581749,-0.0063361190,0.0076109073,-0.0459675267,0.0411364958,0.0096427994
7.1072807312,-0.0001615883,-0.0026930829,0.0080754654,-0.0480320938,0.0336498842,0.0032681900
7.1171751022,0.0016905962,0.0018489697,-0.0031331878,-0.0489964224,0.0229820609,-0.0041694860
7.1271982193,0.0036457777,-0.0004178545,-0.0093795164,-0.0467172638,0.0080841370,-0.0137334969
7.1372981071,0.0067267716,-0.0016907713,-0.0096887453,-0.0390492231,-0.0120650735,-0.0222399011
7.1475620270,0.0050424635,0.0009509661,-0.0069710119,-0.0240044948,-0.0225653835,-0.0254343599
7.1574759483,0.0033876002,-0.0021021625,-0.0059827669,0.0037552323,-0.0233355723,-0.0180092007
7.1674518585,0.0026081502,-0.0068948530,0.0000812907,0.0325081311,-0.0166838598,-0.0127035864
7.1775388718,-0.0012049974,-0.0095759891,0.0062926905,0.0591511950,-0.0121098803,0.0021571191
7.1878328323,-0.0022031665,-0.0043145679,0.0097318785,0.0750233978,0.0018643250,0.0085310619
7.1976737976,-0.0033328831,-0.0048238300,0.0121947424,0.0706616640,0.0114106927,0.0138459327
7.2077207565,-0.0045304000,-0.0092646740,0.0184562113,0.0492211431,0.0207811575,0.0149169229
7.2178277969,-0.0037808418,-0.0119452141,0.0127884643,0.0182200857,0.0258020144,0.0128037045
7.2280650139,-0.0059394538,-0.0138809942,0.0058631795,-0.0170077048,0.0265134126,0.0064426782
7.2379608154,-0.0060853958,-0.0150399469,0.0055311220,-0.0500402190,0.0208571237,-0.0031079501
7.2479400635,-0.0031931698,-0.0124881528,0.0050104754,-0.0659889132,0.0142750554,-0.0147869103
7.2580471039,-0.0011150838,-0.0071316026,0.0034621258,-0.0722563937,0.0003845396,-0.0211630501
7.2683687210,0.0020635724,-0.0037320515,0.0000383158,-0.0593786240,-0.0070009385,-0.0317869335
7.2781949043,0.0033330917,-0.0041395687,-0.0061559184,-0.0347792730,-0.0120638739,-0.0275485106
7.2882509232,0.0026219487,-0.0033855697,-0.0053053005,-0.0059158774,-0.0170879271,-0.0233127549
7.2983689308,0.0038508475,0.0004682877,-0.0032373767,0.0218294673,-0.0168455802,-0.0233196784
7.3086180687,0.0021456182,0.0073755123,-0.0029453735,0.0410191678,-0.0145282969,-0.0190759972
7.3185482025,-0.0025574863,0.0095282532,0.0023124118,0.0505386367,-0.0059494562,-0.0180123318
7.3285508156,-0.0004687012,0.0029449800,0.0027026434,0.0440631062,0.0014352233,-0.0158831347
7.3386020660,-0.0023286641,-0.0027517339,0.0020060439,0.0300945602,0.0108630797,-0.0158748776
7.3489270210,-0.0052466393,-0.0075438283,0.0050209658,0.0076462706,0.0149312578,-0.0126808826
7.3587331772,-0.0023415983,-0.0114878677,0.0088426964,-0.0180180781,0.0200125687,-0.0126718273
7.3688039780,-0.0003748835,-0.0126678608,0.0095186131,-0.0425664037,0.0197712872,-0.0169137102
7.3788299561,-0.0003075004,-0.0042873286,0.0041946070,-0.0574449562,0.0132401511,-0.0222221892
7.3892316818,0.0008114277,0.0001118520,-0.0060500605,-0.0648743808,0.0089031924,-0.0264696646
7.3989768028,0.0019950569,0.0035207013,-0.0124320490,-0.0637449324,0.0025257210,-0.0296585336
7.4090981483,0.0041489303,0.0011710861,-0.0099082096,-0.0444595404,-0.0047059595,-0.0254197139
7.4191279411,0.0024173260,0.0018769243,-0.0091705425,-0.0220061615,-0.0087403823,-0.0233038329
7.4294409752,0.0036382973,0.0065881945,-0.0092364056,-0.0037717652,-0.0181157738,-0.0211908799
7.4392628670,0.0028955340,0.0045944788,-0.0100959642,0.0090689315,-0.0211453885,-0.0148248607
7.4493532181,0.0011413394,0.0027188400,-0.0059748394,0.0325482935,-0.0209198836,-0.0116449790
7.4593949318,0.0003205537,0.0000248292,-0.0036342244,0.0517065376,-0.0154055413,-0.0052762958
7.4697608948,-0.0005435647,0.0012830236,-0.0051032407,0.0591711141,-0.0142598506,-0.0020908890
7.4795699120,-0.0014261605,0.0025588016,-0.0036676030,0.0548269637,-0.0068839593,-0.0042096996
7.4896569252,-0.0003685952,0.0028083662,-0.0022940736,0.0408970080,-0.0017200238,-0.0073898472
7.4996829033,0.0045794547,0.0010156372,-0.0029972892,0.0227009617,0.0034057624,-0.0105680637
7.5100250244,-0.0002386869,0.0000678041,-0.0019533734,0.0034181830,0.0106365103,-0.0148059512
7.5198307037,-0.0011536182,0.0009451249,-0.0039802892,-0.0157800131,0.0094008045,-0.0158634931
7.5298891068,-0.0001399816,-0.0002030990,-0.0061439378,-0.0296382792,0.0082599726,-0.0094895503
7.5399951935,-0.0010931791,-0.0023678204,-0.0044865115,-0.0349744521,0.0082064439,-0.0105500212
7.5502829552,-0.0010413827,-0.0006683132,-0.0096722348,-0.0370816253,0.0050136456,-0.0094912145
7.5601038933,-0.0010054411,0.0029806236,-0.0119130714,-0.0285770856,0.0082643004,-0.0105535490
7.5701518059,-0.0009938182,0.0057438947,-0.0130897267,-0.0178885441,0.0073226066,-0.0063079377
7.5802159309,0.0009780525,0.0056492426,-0.0122308834,-0.0103547275,0.0010218340,-0.0063129980
7.5905218124,0.0000509321,0.0075600483,-0.0093416078,0.0035482254,-0.0020394032,-0.0063186572
7.6003479958,0.0010776221,0.0095426179,-0.0082908971,0.0131321428,0.0001803418,-0.0041963840
7.6104211807,0.0011047720,0.0066806413,-0.0091407998,0.0142334132,-0.0029798984,-0.0020742442
7.6204638481,0.0030752122,0.0009478071,-0.0041251285,0.0163788553,-0.0040153353,-0.0010135071
7.6307868958,0.0020889044,0.0010720232,-0.0010672908,0.0194962714,0.0045144367,0.0011136262
7.6406221390,0.0040104985,0.0031277279,-0.0009112458,0.0173630789,0.0045096427,0.0032377634
7.6506538391,0.0039607584,0.0022302608,-0.0027889113,0.0045395074,0.0065399702,0.0064280308
7.6607379913,0.0019262134,0.0012725928,-0.0037942033,-0.0072207460,0.0085525215,0.0053702234
7.6710448265,0.0008427500,-0.0026417633,-0.0048745377,-0.0115242815,0.0117206834,0.0085566286
7.6808691025,-0.0002870859,0.0012401083,0.0017990370,-0.0115674241,0.0159577727,0.0074969567
7.6909680367,-0.0004425050,-0.0007654688,-0.0003305774,-0.0169182476,0.0180381015,0.0085631534
7.7009601593,-0.0015308858,0.0000939706,-0.0073557002,-0.0211255085,0.0116001759,0.0032520113
7.7113447189,0.0023235679,-0.0019378922,-0.0075149639,-0.0168173146,0.0073802643,0.0011245451
7.7212548256,0.0042510629,0.0018927195,-0.0056623323,-0.0050277654,0.0021500823,-0.0031282566
7.7312779427,-0.0015616120,0.0057483055,-0.0095954640,0.0046365261,-0.0041662701,-0.0084432606
7.7413420677,-0.0014555157,0.0028257112,-0.0124287708,0.0132039152,-0.0072954842,-0.0116323959
7.7516379356,-0.0003659428,-0.0019534489,-0.0073799593,0.0196089242,-0.0072403573,-0.0116331950
7.7614769936,-0.0012237133,0.0010367968,-0.0003859501,0.0206973571,-0.0093530435,-0.0116345258
7.7715420723,-0.0021069944,0.0011511185,0.0046906965,0.0281344205,-0.0060688988,-0.0063270461
7.7815799713,-0.0040574372,-0.0054605864,0.0098155634,0.0344461128,0.0035983752,0.0032323706
7.7918448448,-0.0061103702,-0.0071921609,0.0100322859,0.0311753526,0.0110524967,0.0117316497
7.8016757965,-0.0053430796,-0.0060045384,0.0101816552,0.0236127749,0.0205778256,0.0181091204
7.8117837906,-0.0016738774,-0.0058856867,0.0043885605,0.0054388558,0.0236097667,0.0191765819
7.8218307495,0.0000031589,-0.0019358656,0.0052604573,-0.0116682248,0.0266297925,0.0170588363
7.8321218491,0.0007169544,-0.0010167024,0.0050049918,-0.0287321657,0.0254127271,0.0160007626
7.8417930603,0.0024501383,0.0017439463,0.0007654328,-0.0329591334,0.0211175811,0.0138760936
7.8518390656,0.0042242408,-0.0013141296,-0.0015008550,-0.0318504609,0.0168690402,0.0117500909
7.8621239662,0.0020977259,-0.0004532597,-0.0008156400,-0.0232879948,0.0148130134,0.0106867580
7.8725757599,0.0049045384,0.0014435389,-0.0019164186,-0.0050651031,0.0064775860,0.0096151019
7.8822107315,0.0058149099,0.0004908183,-0.0048683388,0.0046125576,-0.0008793967,0.0074853725
7.8923101425,0.0116513073,0.0024935941,-0.0038026671,0.0142588736,-0.0050678169,0.0032342346
7.9023380280,0.0067914128,-0.0012717507,-0.0016718607,0.0271160826,-0.0102817537,0.0000429689
7.9126858711,0.0048918426,-0.0001263878,0.0014955301,0.0356303677,-0.0080988938,-0.0020818342
7.9224710464,-0.0019057990,-0.0048011802,0.0047004120,0.0335062295,-0.0091854632,-0.0031436365
7.9325799942,-0.0057717860,-0.0055954717,0.0069051282,0.0334290527,-0.0017575077,-0.0031408402
7.9426012039,-0.0067420900,-0.0083394311,0.0071433680,0.0333438292,0.0067305192,-0.0031365789
7.9529647827,-0.0077613294,-0.0110975169,0.0092822211,0.0236865692,0.0119587034,-0.0020698500
7.9627499580,-0.0088195205,-0.0129078887,0.0103890197,0.0236546118,0.0151417144,-0.0020682521
7.9728708267,-0.0069489479,-0.0118457340,0.0094847577,0.0118855443,0.0182217266,-0.0020632586
7.9828767776,-0.0030890107,-0.0031011363,0.0074919360,-0.0030574529,0.0180496871,-0.0084303441
7.9931788445,-0.0001748801,-0.0022436043,0.0015002389,-0.0201135352,0.0157726165,-0.0094899489
8.0031366348,-0.0001760126,-0.0043777488,0.0002746482,-0.0286068879,0.0114678834,-0.0073663448
8.0131015778,0.0027869642,-0.0006756446,-0.0019102793,-0.0253617186,0.0072371862,-0.0094920807
8.0231361389,0.0018390118,-0.0008503458,-0.0050396426,-0.0242397320,0.0019622629,-0.0063096024
8.0334959030,0.0018846391,-0.0010010860,-0.0032628875,-0.0231065266,-0.0043738633,-0.0031274576
8.0432748795,0.0038938820,0.0008244851,-0.0014473300,-0.0135029024,-0.0042968979,-0.0041916571
8.0534019470,0.0020170510,0.0056299306,-0.0044051511,0.0035928600,-0.0062770247,-0.0052584526
8.0634059906,0.0021000803,0.0037215690,-0.0004385810,0.0100153396,-0.0083638784,-0.0084465230
8.0737371445,0.0012207030,0.0008494594,0.0006872315,0.0132631976,-0.0125670787,-0.0063248491
8.0835399628,-0.0006404520,-0.0020017882,-0.0001194577,0.0196025856,-0.0061382079,-0.0052614491
8.0936422348,-0.0015759171,-0.0018783471,0.0068515437,0.0195683651,-0.0029472746,-0.0041990471
8.1036434174,0.0004330277,-0.0027617475,0.0050789611,0.0195683651,-0.0029472746,-0.0041990471
8.1139850616,0.0014398395,-0.0007657072,0.0003223319,0.0120336423,0.0033467072,-0.0052559227
8.1238174438,-0.0024521053,-0.0017098448,0.0013377566,0.0045536216,0.0043493873,-0.0041917237
8.1339492798,0.0034079850,-0.0036652943,0.0013446112,-0.0050610034,0.0053264345,-0.0041887276
8.1439762115,0.0024736524,-0.0018007419,-0.0007062058,-0.0103662862,0.0020760463,-0.0073744003
8.1542835236,-0.0023807585,0.0019879679,-0.0037515264,-0.0135633303,0.0020821048,-0.0020639910
8.1640758514,0.0024978817,0.0028936008,-0.0077166064,-0.0071802652,0.0042808107,0.0011208834
8.1741714478,0.0034607947,0.0008968451,-0.0097236736,-0.0092495158,-0.0020971270,0.0021802222
8.1841716766,-0.0004537404,0.0067052580,-0.0059074266,-0.0059964638,-0.0073949532,-0.0010086468
8.1944980621,0.0005715190,0.0105872490,-0.0049104793,0.0057415781,-0.0072922888,-0.0010117093
8.2043752670,-0.0023257136,0.0077357627,-0.0048021181,0.0174917113,-0.0082369111,0.0011084331
8.2144041061,-0.0032874942,0.0029933194,-0.0017013650,0.0217378289,-0.0060843453,0.0000464310
8.2245368958,-0.0032764375,-0.0007378123,0.0014341970,0.0260084737,-0.0060193641,0.0042925752
8.2347965240,-0.0042550564,0.0003843048,0.0035805602,0.0228177942,-0.0071225790,0.0021696361
8.2446861267,-0.0022564232,0.0004963019,0.0008398790,0.0143127227,-0.0103801573,0.0021701688
8.2546472549,0.0007115899,-0.0033377071,0.0009589095,0.0046553286,-0.0051661539,0.0011136262
8.2647418976,0.0007166563,-0.0003901384,0.0000312228,0.0035461225,-0.0009245374,0.0021778252
8.2750015259,-0.0022435188,0.0025504569,-0.0009451013,0.0035241507,0.0012261650,0.0064251013
8.2849149704,-0.0003638268,0.0016014316,0.0000200171,-0.0007736590,0.0044065118,0.0117367757
8.2949085236,0.0004872381,-0.0003021619,-0.0000022750,-0.0029167850,0.0054695792,0.0149233146
8.3050689697,-0.0006215275,0.0006958583,-0.0049130423,0.0023879660,0.0087130433,0.0170471855
8.3153200150,-0.0017504395,0.0007619002,-0.0059015853,0.0023989119,0.0076234774,0.0128003089
8.3251838684,0.0000854730,0.0017984846,-0.0039451225,0.0035081180,0.0033818604,0.0117361099
8.3352012634,0.0029640496,0.0028059820,-0.0039321287,-0.0017759670,-0.0020118398,0.0053644972
8.3452615738,0.0059131384,0.0027943591,-0.0068494184,-0.0016822238,-0.0115885669,0.0011124943
8.3555707932,0.0050474107,-0.0020914336,-0.0067998273,-0.0016151117,-0.0190627277,-0.0063251816
8.3653964996,0.0062018931,-0.0001575610,-0.0105869276,0.0080321897,-0.0232159272,-0.0052679069
8.3754844666,0.0044182837,0.0037809352,-0.0104023321,0.0229815245,-0.0241460372,-0.0052725673
8.3855991364,-0.0012973846,-0.0009140036,-0.0071658595,0.0368675143,-0.0250512455,0.0000324494
8.3958263397,0.0027034581,-0.0035373231,-0.0008766751,0.0528356396,-0.0206403192,0.0042783935
8.4056825638,-0.0011828841,-0.0031337996,0.0045444863,0.0730631500,-0.0150889587,0.0148940198
8.4157247543,-0.0071351230,-0.0016735456,0.0070744054,0.0783227831,-0.0075792447,0.0202039648
8.4258527756,-0.0043660700,-0.0031340381,0.0066759484,0.0707703233,0.0008781562,0.0255191009
8.4360961914,-0.0065244734,-0.0046416186,0.0071232812,0.0504456162,0.0059833028,0.0223434139
8.4459428787,-0.0047763288,-0.0033725163,0.0074038403,0.0301376786,0.0089822887,0.0212882701
8.4559812546,-0.0039599836,-0.0032129546,0.0026560922,0.0088331886,0.0045178989,0.0159817878
8.4660940170,-0.0060405433,-0.0031566282,0.0026318927,-0.0082211625,0.0022259823,0.0127995769
8.4763317108,-0.0021978915,-0.0031983515,0.0005999703,-0.0199009627,-0.0042691352,0.0085509699
8.4862737656,-0.0012107493,-0.0062440298,-0.0044279797,-0.0262414180,-0.0107118543,0.0053639645
8.4962787628,0.0017840265,-0.0053959154,-0.0045434339,-0.0229974724,-0.0149634574,0.0000529557
8.5063800812,0.0019010602,0.0022713284,-0.0017215114,-0.0133959763,-0.0149141885,-0.0052584526
8.5166244507,0.0010589062,0.0041469075,-0.0036692719,0.0015567141,-0.0158454962,-0.0052619148
8.5265312195,0.0041084588,0.0002817252,-0.0006298523,0.0111512840,-0.0146867558,-0.0031401746
8.5365400314,0.0051632822,-0.0044783019,-0.0004162889,0.0282173529,-0.0134419929,0.0021651087
8.5466489792,0.0032306314,-0.0052282475,0.0037851234,0.0430841818,-0.0058637029,0.0053505152
8.5568990707,0.0022095144,-0.0000926516,0.0070277350,0.0462195501,0.0005452614,0.0074753854
8.5667963028,0.0001459121,0.0040922500,0.0053987997,0.0440027341,0.0090492675,0.0127891907
8.5768003464,0.0029085279,-0.0043712519,0.0027768512,0.0354367830,0.0121921971,0.0181020647
8.5869026184,0.0076113939,-0.0070903562,0.0000319381,0.0183515400,0.0130971391,0.0170450546
8.5971498489,0.0015861689,-0.0001480839,0.0000755687,0.0098544303,0.0087510599,0.0127976462
8.6070852280,0.0004393756,0.0009080508,0.0010406871,-0.0018733321,0.0075875246,0.0128000434
8.6170749664,0.0022966862,-0.0020388623,-0.0019559960,-0.0178083573,-0.0000139358,0.0074912976
8.6272087097,-0.0016846658,-0.0079517029,-0.0040726764,-0.0262697507,-0.0075016795,0.0096133053
8.6374244690,-0.0026651323,-0.0080976747,-0.0033010344,-0.0347102955,-0.0171397254,0.0074876361
8.6473560333,-0.0016034247,0.0024224261,-0.0034872990,-0.0261216015,-0.0223909467,0.0042974353
8.6573429108,-0.0015362800,0.0033301453,-0.0015928845,-0.0111513585,-0.0254358053,0.0053531788
8.6674757004,-0.0014220179,-0.0015574953,-0.0025202136,-0.0015051235,-0.0296028536,0.0042868489
8.6777009964,-0.0012847782,-0.0024737974,-0.0033184390,0.0187749285,-0.0294131711,0.0064066583
8.6876125336,-0.0011907221,-0.0062001012,-0.0020462971,0.0326476023,-0.0292919949,0.0064031966
8.6975784302,0.0008303820,-0.0049649738,0.0061144726,0.0389518887,-0.0196861085,0.0064054606
8.7077445984,-0.0030181408,0.0020752887,0.0103555815,0.0399103612,-0.0090944488,0.0021633110
8.7179603577,-0.0049277842,0.0051998235,0.0096760290,0.0334639922,-0.0049415827,-0.0031413725
8.7278614044,-0.0009534062,-0.0014696381,0.0079716938,0.0185023546,-0.0029569953,-0.0041983812
8.7378559113,-0.0009320379,-0.0033776422,0.0070853131,0.0045354860,0.0064702621,-0.0041895267
8.7479829788,-0.0029148757,-0.0024623533,0.0040587084,-0.0147244940,0.0116282720,-0.0009966625
8.7582035065,-0.0049380064,-0.0054894350,0.0028991599,-0.0275222920,0.0104849096,0.0032514122
8.7681484222,-0.0011009873,-0.0076113008,-0.0012755494,-0.0413523540,0.0061197234,0.0032527437
8.7781448364,-0.0001928807,-0.0097881220,-0.0006516080,-0.0498533733,0.0028749281,0.0053779464
8.7882375717,-0.0011835397,-0.0022700687,-0.0039517982,-0.0444218591,-0.0066274973,0.0053718211
8.7984933853,0.0027824342,-0.0015303156,-0.0071359975,-0.0325993113,-0.0150197167,0.0043026283
8.8084087372,0.0038387179,0.0012631157,-0.0062698824,-0.0101592503,-0.0180277582,0.0011100309
8.8184108734,0.0059046447,0.0012559035,-0.0081421239,0.0101687908,-0.0231767781,-0.0020827665
8.8284854889,0.0041086078,0.0023435692,-0.0059493287,0.0346893147,-0.0208680853,-0.0063350354
8.8387718201,0.0062511265,0.0035217742,-0.0065066321,0.0517817475,-0.0228541382,-0.0084646326
8.8486785889,0.0064867437,0.0038249830,-0.0079040630,0.0699426383,-0.0248384587,-0.0116556324
8.8586778641,0.0047248602,0.0022482018,-0.0072804196,0.0699108690,-0.0216555148,-0.0116539672
8.8688182831,0.0020013154,0.0074469186,-0.0018358331,0.0678192228,-0.0259181708,-0.0116555654
8.8790426254,-0.0017383398,0.0010058620,0.0045975940,0.0634171814,-0.0121428370,-0.0084609706
8.8890142441,-0.0035984814,-0.0016106627,0.0031054516,0.0484379642,-0.0079877730,-0.0020842976
8.8989982605,-0.0065087676,-0.0043201707,0.0004988809,0.0291908421,-0.0038844412,0.0021704352
8.9090442657,-0.0065478086,-0.0041924976,-0.0003325443,0.0120448805,0.0034280664,0.0074874358
8.9192972183,-0.0047080517,-0.0002689025,-0.0013198953,-0.0093267746,0.0064520859,0.0117418356
8.9291877747,0.0000607072,-0.0012871883,-0.0014664035,-0.0264008306,0.0063029486,0.0117460974
8.9392166138,-0.0059339404,-0.0053216480,-0.0017532210,-0.0381440669,0.0061950246,0.0106856925
8.9493665695,-0.0030727684,-0.0006577632,-0.0030377011,-0.0380924009,0.0008692348,0.0074976231
8.9597291946,-0.0021259487,0.0011023023,-0.0062102182,-0.0305954721,-0.0022752262,0.0032459525
8.9694547653,0.0008378326,0.0019206145,-0.0083274944,-0.0219950583,-0.0085736029,0.0021788240
8.9794626236,0.0028744638,0.0067084767,-0.0093658073,-0.0027980078,-0.0073801731,-0.0031337161
8.9894628525,0.0029455423,0.0067576505,-0.0053721173,0.0175296348,-0.0125219375,-0.0052650440
8.9997129440,0.0030645430,0.0068983175,-0.0051045520,0.0399402678,-0.0123265283,-0.0052703037
9.0097408295,0.0012175440,0.0042286851,-0.0046856506,0.0580702685,-0.0111139910,-0.0063361009
9.0198068619,-0.0006392003,-0.0032295843,-0.0061262352,0.0655108243,-0.0078666657,-0.0063354354
9.0298528671,-0.0015376211,-0.0057778619,-0.0007276039,0.0676882192,-0.0120851127,-0.0052762963
9.0401115417,-0.0004591049,-0.0063759945,0.0008164544,0.0644533634,-0.0089224093,-0.0042128288
9.0499591827,-0.0033243597,-0.0099560879,0.0012682576,0.0516249128,-0.0069330283,-0.0073939748
9.0600318909,-0.0012880267,-0.0097441338,0.0025970836,0.0313033983,-0.0028364207,-0.0031415727
9.0701465607,0.0055480897,-0.0086317919,0.0027832885,0.0152250947,0.0044923322,0.0032369643
9.0804147720,0.0005935429,-0.0076033138,0.0018336673,0.0013142051,0.0086349454,0.0064289626
9.0902376175,-0.0034824908,-0.0114568733,0.0066187875,-0.0073607750,0.0223603472,0.0074998201
9.1003103256,-0.0046387315,-0.0105323456,0.0035120149,-0.0190969780,0.0222641397,0.0085651511
9.1103591919,-0.0009115936,-0.0087196492,0.0012894769,-0.0319264904,0.0242396723,0.0032604001
9.1206150055,0.0029052198,-0.0021662374,-0.0049289567,-0.0457400940,0.0177044068,-0.0041723489
9.1304950714,0.0077818036,-0.0014726779,-0.0082352264,-0.0424897075,0.0123719610,-0.0126702301
9.1405277252,0.0049164593,0.0011689999,-0.0085722310,-0.0328226201,0.0060546091,-0.0179842338
9.1506013870,0.0070005953,0.0067729093,-0.0107293231,-0.0156867765,-0.0001899709,-0.0222389009
9.1609373093,0.0022757649,0.0076699592,-0.0097599132,0.0174079016,-0.0009773348,-0.0243698284
9.1707773209,-0.0034421980,0.0058334209,-0.0075985296,0.0440674722,0.0014123197,-0.0190664101
9.1808118820,-0.0013671817,0.0051027872,-0.0071743829,0.0590638444,-0.0036993516,-0.0095171137
9.1908798218,-0.0022801459,0.0005854109,-0.0008518796,0.0612433739,-0.0078901015,-0.0042107655
9.2011728287,-0.0041921139,-0.0029654165,0.0035245914,0.0548395105,-0.0079029519,0.0021601154
9.2110443115,-0.0051648021,-0.0065663122,0.0068327086,0.0356322601,-0.0080568828,0.0042885137
9.2211122513,-0.0022456944,-0.0112601779,0.0021945138,0.0142714158,-0.0060868091,0.0096040498
9.2311706543,-0.0042642653,-0.0092456602,0.0032147069,-0.0007307027,0.0001694893,0.0127963815
9.2414598465,-0.0024042428,-0.0082664154,0.0041336911,-0.0135902017,0.0053486717,0.0106787691
9.2513151169,-0.0015410484,-0.0073769353,0.0058965581,-0.0274958983,0.0083966590,0.0085602235
9.2614212036,0.0003344714,-0.0017099640,0.0046535628,-0.0339433327,0.0125356782,0.0011319354
9.2714767456,0.0032356381,-0.0009516737,0.0014400978,-0.0318234563,0.0135668535,-0.0063006813
9.2817049026,0.0071623027,-0.0001862309,-0.0056329467,-0.0254112016,0.0125266230,-0.0116112903
9.2915506363,0.0062447488,0.0015485623,-0.0107374294,-0.0189999063,0.0114938496,-0.0158606302
9.3016538620,0.0024021268,-0.0005172155,-0.0030844312,-0.0082690464,0.0051870178,-0.0211760998
9.3117208481,0.0015823244,-0.0006189010,-0.0031169157,0.0003308337,-0.0011182823,-0.0233050305
9.3219966888,-0.0040961504,-0.0055383109,-0.0030925374,0.0057294876,-0.0074444884,-0.0243714936
9.3318166733,-0.0048787892,-0.0104045533,-0.0000438790,0.0196250640,-0.0094245486,-0.0211906154
9.3419122696,-0.0086077750,-0.0054672025,0.0050281184,0.0270970669,-0.0093244798,-0.0158836674
9.3519725800,-0.0123730898,-0.0073002242,0.0072083967,0.0292345192,-0.0092642931,-0.0095133856
9.3622684479,-0.0083454549,-0.0100974701,0.0035787125,0.0270781592,-0.0071464134,-0.0073888483
9.3720827103,-0.0013882817,-0.0129115842,0.0047888653,0.0142720817,-0.0072651906,-0.0084474552
9.3822097778,-0.0012843610,-0.0070581101,0.0038980145,0.0068050325,-0.0073456853,-0.0105677973
9.3922805786,-0.0021496117,-0.0060892366,0.0097945826,0.0003910754,-0.0063475319,-0.0116274692
9.4024963379,0.0008961259,-0.0051869415,0.0049145119,-0.0071401866,-0.0000334438,-0.0094982712
9.4124250412,0.0029478073,0.0005339124,-0.0000373225,-0.0114214839,0.0009625785,-0.0137438830
9.4224119186,-0.0018237532,-0.0005821249,-0.0030800800,-0.0135586420,0.0009236297,-0.0169292241
9.4325437546,0.0002623796,-0.0007260105,-0.0031846862,-0.0124696763,-0.0011821317,-0.0158687532
9.4427680969,0.0023820996,0.0010701158,-0.0042358739,-0.0135105476,-0.0043937704,-0.0190569554
9.4526987076,0.0035819113,0.0009185412,-0.0062449677,-0.0122756399,-0.0213951245,-0.0243747551
9.4626789093,0.0029323101,-0.0011998079,-0.0101322038,-0.0090076737,-0.0277483612,-0.0265010223
9.4727621078,0.0042502880,0.0006659963,-0.0061448319,0.0081105931,-0.0318224654,-0.0233220086
9.4830446243,0.0016078352,-0.0012403986,-0.0029911499,0.0262224600,-0.0284392517,-0.0169543251
9.4929590225,-0.0010788144,-0.0001198909,-0.0016796689,0.0442805551,-0.0197650697,-0.0127073806
9.5029544830,0.0000777840,0.0001136401,-0.0012363892,0.0474728309,-0.0186410844,-0.0073990347
9.5130691528,0.0002118944,0.0052157976,0.0001240869,0.0441755727,-0.0091200154,-0.0073934421
9.5232982635,0.0022547543,0.0044372417,0.0014220376,0.0323936157,-0.0049782014,-0.0073887152
9.5331277847,0.0052517056,0.0006571749,-0.0003194909,0.0131432218,-0.0008950427,-0.0063199885
9.5431852341,0.0023526847,-0.0002997777,-0.0012555222,0.0013616364,0.0032466389,-0.0063151284
9.5532588959,0.0023601353,0.0006115773,-0.0003606777,-0.0136207743,0.0073601576,-0.0063092695
9.5636425018,0.0004238187,0.0033851604,-0.0044328077,-0.0200629625,0.0115399882,-0.0073660119
9.5734195709,0.0004090964,0.0051744916,-0.0085458858,-0.0264550801,0.0104230586,-0.0073649464
9.5835580826,0.0062972903,0.0059736706,-0.0077809794,-0.0274891332,0.0072303279,-0.0073658791
9.5935735703,0.0073111653,0.0116344430,-0.0128526790,-0.0178412981,0.0030840526,-0.0052468018
9.6038198471,0.0034575164,0.0134737231,-0.0158795211,-0.0102799991,-0.0063981325,-0.0052550570
9.6137266159,0.0025530457,0.0134130456,-0.0149520738,-0.0049012126,-0.0105886161,-0.0041967169
9.6236982346,0.0026348829,0.0124641396,-0.0080518229,0.0143302465,-0.0125363860,-0.0031403075
9.6338720322,-0.0031982660,0.0126086213,-0.0039672954,0.0313542373,-0.0070406869,0.0032289084
9.6441087723,-0.0051490366,0.0099030472,-0.0046646101,0.0345349573,-0.0048624869,0.0074758516
9.6539888382,-0.0061318576,0.0033255557,-0.0053271158,0.0366889201,-0.0069866246,0.0042888466
9.6639986038,-0.0051997900,0.0025887231,-0.0011419158,0.0345063023,-0.0016664276,0.0096018529
9.6741199493,0.0006082653,0.0037466029,-0.0028567414,0.0227364600,0.0014209752,0.0106681827
9.6843786240,-0.0043901801,0.0019617418,-0.0017575126,0.0173691511,0.0045786188,0.0138560534
9.6942348480,-0.0006201566,-0.0037550589,0.0022138853,0.0013505043,0.0054859575,0.0117369760
9.7042427063,0.0002573430,-0.0008747837,0.0001617570,-0.0178794079,0.0074189464,0.0085578933
9.7142925262,-0.0047367513,-0.0019408128,-0.0039507253,-0.0221356731,0.0063414318,0.0117438333
9.7263679504,-0.0038629770,-0.0039839409,-0.0021885734,-0.0264138281,0.0073434459,0.0085609565
9.7356462479,-0.0000430645,-0.0031442305,-0.0004731517,-0.0296050943,0.0062475549,0.0074994201
9.7446012497,-0.0011343659,-0.0042124055,0.0022500653,-0.0221041143,0.0031656786,0.0128037054
9.7545843124,0.0007453262,-0.0042977594,-0.0017917852,-0.0146246264,0.0021560742,0.0106777037
9.7649917603,0.0035880506,-0.0042870305,-0.0037818055,-0.0006963480,-0.0030072625,0.0138572520
9.7746410370,0.0025019348,-0.0061213635,-0.0007912021,0.0174565576,-0.0038959594,0.0159757957
9.7846374512,-0.0005293788,-0.0010692141,-0.0015837054,0.0323620290,-0.0005958367,0.0138495946
9.7948617935,-0.0015916229,0.0021036009,-0.0032496552,0.0398409851,-0.0016123652,0.0106617911
9.8051414490,-0.0026170015,0.0023731927,-0.0000094275,0.0441210307,-0.0026719705,0.0053524463
9.8150739670,0.0002978145,-0.0070714615,0.0013322730,0.0419963598,-0.0037654648,0.0032288418
9.8250856400,0.0032659471,-0.0088206790,-0.0003107290,0.0334822349,-0.0070909536,-0.0073899804
9.8352203369,0.0014427601,-0.0067868493,-0.0039953096,0.0217299722,-0.0061740275,-0.0137573322
9.8454656601,0.0005852281,-0.0057866834,0.0009704728,0.0024804575,-0.0021267552,-0.0179963522
9.8553504944,-0.0002630354,-0.0078040026,0.0058059590,-0.0103687616,0.0019915574,-0.0201146305
9.8653888702,-0.0040770769,-0.0060260557,0.0085584419,-0.0254379399,0.0146078840,-0.0179818366
9.8754310608,-0.0059954524,-0.0043150447,0.0072889226,-0.0361411832,0.0176976826,-0.0179775767
9.8857116699,-0.0060112178,-0.0045911931,0.0088660615,-0.0468262359,0.0198020469,-0.0062934235
9.8956069946,-0.0031690598,-0.0068294071,0.0084261792,-0.0532375276,0.0208348203,-0.0020440838
9.9057865143,-0.0003600419,-0.0100759529,0.0030495424,-0.0596471503,0.0218669940,0.0022058552
9.9158716202,-0.0014986695,-0.0064944290,0.0054569142,-0.0564228594,0.0197937246,0.0053893980
9.9262228012,-0.0026189685,-0.0057878755,0.0050037997,-0.0468220599,0.0198788121,0.0053858026
9.9359426498,-0.0007950069,-0.0030969044,-0.0002454619,-0.0372173674,0.0199696273,0.0064452081
9.9457530975,0.0020045340,-0.0032583138,-0.0073561170,-0.0233202465,0.0179747846,0.0075034155
9.9559707642,0.0028711259,0.0015189984,-0.0094910963,-0.0093852570,0.0117091658,0.0043113502
9.9662561417,0.0037547648,0.0063658692,-0.0056785448,0.0012511965,0.0149579560,0.0000628094
9.9761571884,0.0066360235,0.0093175508,-0.0027511816,0.0109277917,0.0075871251,-0.0041905250
9.9861392975,0.0066617429,0.0025470594,-0.0065531833,0.0120894890,-0.0019521182,-0.0041960510
9.9962234497,0.0066804290,-0.0051725172,-0.0103484495,0.0131246597,0.0012402132,-0.0041947193
10.0064096451,0.0027827322,-0.0080014132,-0.0053715808,0.0153169204,-0.0040193968,0.0000502260
10.0165681839,-0.0021132529,-0.0049947165,0.0025091071,0.0099807438,-0.0040729265,-0.0010102448
10.0266532898,-0.0050507486,-0.0020276567,0.0054782527,-0.0028445339,-0.0020348760,0.0032410258
10.0364999771,-0.0060692132,-0.0078704618,0.0044556754,-0.0124897035,0.0021460208,0.0064309603
10.0467157364,-0.0041312277,-0.0137821101,0.0014464159,-0.0156420879,-0.0031925519,0.0053659622
10.0567073822,-0.0031866133,-0.0089847706,0.0013522406,-0.0092718061,0.0000394604,0.0043041599
10.0666866302,-0.0012648107,-0.0060956143,0.0012980003,-0.0060575036,-0.0010015029,0.0032420245
10.0767469406,-0.0012538732,-0.0031741520,0.0042085545,0.0014198544,-0.0020388039,-0.0031311864
10.0870838165,-0.0011990072,-0.0002691409,0.0003459950,0.0078204684,-0.0020034504,-0.0063183913
10.0969657898,-0.0011133553,0.0016906598,-0.0015317898,0.0110000167,0.0001395952,-0.0073799267
10.1069631577,-0.0020271838,-0.0021487733,-0.0014424424,0.0120324707,0.0033115533,-0.0105644017
10.1170167923,-0.0029389560,-0.0030811091,0.0015782018,0.0099285739,0.0000891283,-0.0137508744
10.1273050308,-0.0018434526,-0.0031361838,0.0006261964,-0.0029001664,0.0020572708,-0.0201169606
10.1371622086,-0.0026827157,0.0006679633,0.0025175710,-0.0082246251,0.0009565864,-0.0190543588
10.1472253799,-0.0055092275,-0.0052941702,0.0034140248,-0.0114362109,0.0020179227,-0.0148064177
10.1573562622,-0.0044693947,-0.0092972182,0.0033007760,-0.0210574120,0.0041114339,-0.0063085370
10.1675653458,-0.0034676790,-0.0094592832,0.0011733670,-0.0210855100,0.0073072934,-0.0041823359
10.1776227951,-0.0074272156,-0.0115333460,-0.0000252824,-0.0253614802,0.0083725583,0.0021900758
10.1876354218,-0.0025968552,-0.0067941211,0.0026886363,-0.0264528953,0.0104863085,0.0021903422
10.1974668503,-0.0036651492,-0.0049762987,0.0053720372,-0.0274992511,0.0083480570,0.0011277410
10.2078437805,-0.0027099252,-0.0041911267,-0.0007112126,-0.0285561532,0.0072423122,-0.0041807378
10.2177782059,0.0012242197,-0.0034069677,-0.0057925088,-0.0253142864,0.0029985651,-0.0084308768
10.2276592255,0.0042296648,-0.0084450506,-0.0030468802,-0.0284882709,-0.0002392393,-0.0126797510
10.2378473282,0.0033887625,-0.0047541521,-0.0013038616,-0.0178100597,-0.0012555015,-0.0201155618
10.2481002808,0.0035786629,-0.0058840178,-0.0023464065,-0.0071392003,-0.0011977111,-0.0254264381
10.2579317093,0.0038013756,-0.0040534995,-0.0004272561,-0.0007385584,-0.0011694815,-0.0296752453
10.2682142258,0.0011210142,-0.0031840464,-0.0033171277,0.0067739524,-0.0053482475,-0.0296792388
10.2781734467,0.0003946721,-0.0022608300,-0.0032404761,0.0142321354,-0.0042358455,-0.0318041742
10.2883691788,0.0035654902,-0.0022946855,-0.0060170991,0.0163264982,0.0000471834,-0.0286167730
10.2982368469,0.0047392249,-0.0042336248,-0.0010329585,0.0131469499,-0.0020958623,-0.0275552366
